{"version":"0.5.4","metadata":{"date":"2026-05-27T11:09:51","sample_rate":48000,"loudness":-21.940290451049805,"training_esr":0.02088939092112451,"pretrained":"Phoenix Pre 3 Tone 10.nam","architecture":"STANDARD","input_level_dbu":22.5,"output_level_dbu":6.8},"architecture":"WaveNet","config":{"layers":[{"input_size":2,"condition_size":2,"channels":16,"head_size":8,"kernel_size":3,"dilations":[1,2,4,8,16,32,64,128,256,512],"activation":"Tanh","gated":false,"head_bias":false},{"input_size":16,"condition_size":2,"channels":8,"head_size":1,"kernel_size":3,"dilations":[1,2,4,8,16,32,64,128,256,512],"activation":"Tanh","gated":false,"head_bias":true}],"head":null,"head_scale":0.02,"rate_condition_hidden":16,"rate_condition_num_biases":240},"weights":[-0.1396329700946808,-0.04873494431376457,0.7616887092590332,-0.06821127980947495,-1.2901489734649658,0.04485217109322548,-0.8918130397796631,0.026191283017396927,-0.5509624481201172,0.07798197120428085,0.49560484290122986,0.06379301100969315,-0.0751795619726181,-0.09202803671360016,0.8387998938560486,-0.040475260466337204,-0.22921602427959442,0.08618894964456558,0.4455922245979309,-0.05531091243028641,-0.43272829055786133,-0.04944769665598869,-0.38114431500434875,0.061206839978694916,-1.1291992664337158,-0.015044407919049263,-0.7210032343864441,0.07531645148992538,-0.6968503594398499,0.10626554489135742,0.4751826822757721,-0.08280915021896362,0.46051666140556335,-0.14173497259616852,-0.09515884518623352,-0.35213688015937805,0.23894058167934418,0.06779222935438156,0.2625291049480438,-0.06847690790891647,0.0370965301990509,0.29989632964134216,-0.036613430827856064,-0.07761003077030182,0.18593230843544006,-0.21986818313598633,-0.0052615501917898655,-0.1918233186006546,0.07996274530887604,-0.1294063776731491,0.25742703676223755,-0.2912885546684265,-0.02193285897374153,-0.1568041443824768,0.23267517983913422,0.016094742342829704,0.2905418276786804,-0.32599931955337524,0.0187576524913311,-0.420468807220459,0.09792541712522507,-0.1078374981880188,0.39728835225105286,-0.06686928123235703,0.011179354973137379,0.28422173857688904,-0.13340872526168823,0.15409918129444122,0.3499273657798767,-0.14034298062324524,0.16119101643562317,0.19522671401500702,-0.14450722932815552,-0.0609976202249527,0.18288280069828033,-0.27599138021469116,0.10716911405324936,-0.33824777603149414,0.2562084496021271,0.20104113221168518,-0.013000319711863995,-0.09882897883653641,0.13996928930282593,0.14218474924564362,0.18763846158981323,0.0299919992685318,-0.21648013591766357,-0.14854781329631805,0.17139017581939697,0.017614251002669334,0.03502538427710533,0.2377513200044632,-0.08938159793615341,-0.23354119062423706,0.11225271970033646,-0.00593121163547039,-0.0611199252307415,-0.003930663224309683,0.0704796239733696,-0.17413394153118134,0.1881207674741745,0.07844696938991547,0.06737307459115982,-0.17387229204177856,-0.09045186638832092,-0.22112442553043365,0.12718328833580017,0.18906143307685852,0.20817141234874725,-0.045469190925359726,-0.22272369265556335,-0.16332824528217316,0.20459909737110138,-0.10368915647268295,-0.2329554259777069,-0.0002457514056004584,0.04379522055387497,0.016887729987502098,0.057065051048994064,-0.1424517184495926,-0.23194780945777893,0.1018156036734581,-0.23412315547466278,-0.22645534574985504,0.08677735179662704,0.18674497306346893,0.07976259291172028,0.016057323664426804,0.12206466495990753,0.15942919254302979,0.09304122626781464,-0.2437233179807663,-0.017910199239850044,0.05655132234096527,0.1480085253715515,0.021205542609095573,0.01374509185552597,0.13496682047843933,-0.08356139063835144,0.025024455040693283,-0.029713980853557587,-0.11606089025735855,-0.09588126093149185,-0.2333238571882248,-0.06645876169204712,-0.09929663687944412,0.1610432267189026,0.06427258998155594,-0.06483081728219986,-0.13027912378311157,0.11903102695941925,0.030896473675966263,0.0972331166267395,-0.08064265549182892,-0.05964752659201622,-0.0253168772906065,0.16751007735729218,0.15051594376564026,0.2904445230960846,0.0018844534642994404,-0.14503322541713715,0.05034871771931648,0.05976400151848793,-0.0762433186173439,0.0666644275188446,-0.11133197695016861,-0.16726632416248322,-0.003782770363613963,-0.05151001363992691,0.028323546051979065,0.18859770894050598,-0.17201460897922516,0.02553170546889305,-0.3248368203639984,-0.005136194638907909,0.041913073509931564,-0.06314292550086975,0.21019667387008667,-0.07534749805927277,-0.12360244244337082,-0.26287901401519775,-0.07082007080316544,-0.06424032896757126,0.295346736907959,-0.05996270850300789,-0.008253175765275955,0.3614288568496704,0.015145435929298401,0.13011085987091064,0.2902315855026245,-0.059573426842689514,0.10192139446735382,-0.2495909184217453,-0.13065679371356964,0.06635665893554688,0.06538920104503632,0.02367609180510044,-0.0323101282119751,-0.13080351054668427,-0.03469906002283096,0.07024521380662918,0.3109312951564789,0.04445433244109154,-0.029939785599708557,-0.363742470741272,0.0014403860550373793,0.10837015509605408,0.32418394088745117,-0.042522773146629333,-0.0033916146494448185,0.14601470530033112,0.007369935978204012,-0.08559594303369522,0.28076180815696716,-0.015243291854858398,-0.0025195814669132233,0.2397739291191101,0.16752280294895172,-0.11060107499361038,0.1452903151512146,-0.009234543889760971,0.16106505692005157,-0.3446367681026459,-0.00995224341750145,-0.2072119414806366,0.30577123165130615,-0.15827427804470062,0.15218806266784668,-0.28806138038635254,0.0665474608540535,-0.1854236125946045,0.3095051944255829,-0.222718745470047,-0.24501414597034454,0.3821055293083191,-0.22004668414592743,-0.17241622507572174,0.45090818405151367,-0.03687918931245804,0.21563024818897247,-0.38916006684303284,0.20450612902641296,-0.33265143632888794,0.12678395211696625,-0.2244771271944046,0.14382623136043549,-0.26535308361053467,0.21768170595169067,-0.11656410247087479,0.4973606765270233,0.03677494451403618,0.06811505556106567,-0.2454552948474884,-0.019605502486228943,-0.2636096775531769,0.2746374309062958,-0.09006888419389725,-0.04168536514043808,0.29982712864875793,-0.06152819097042084,-0.11062926054000854,0.11358524858951569,-0.012358893640339375,-0.27851665019989014,0.27453991770744324,-0.11762408167123795,-0.24324944615364075,0.35408344864845276,0.0362890250980854,0.14690004289150238,-0.613877534866333,-0.05680369585752487,-0.05489736795425415,0.0370447114109993,-0.2803941071033478,-0.15857014060020447,-0.06234201788902283,0.26460394263267517,0.13520818948745728,0.08683541417121887,-0.12996675074100494,0.011375593021512032,-0.06482445448637009,-0.13483405113220215,0.18391183018684387,0.022953234612941742,-0.2447221577167511,-0.12901344895362854,-0.10820341855287552,0.22186554968357086,-0.018654417246580124,-0.16413287818431854,-0.06160764768719673,-0.15345019102096558,0.007201639469712973,0.21716807782649994,0.09042847156524658,-0.1084941178560257,-0.2962779402732849,0.04484725371003151,0.042394936084747314,0.29913440346717834,0.0038167822640389204,0.010168943554162979,-0.21811732649803162,0.08088155090808868,-0.09880156069993973,-0.13290172815322876,0.10152646154165268,-0.031217163428664207,-0.2133464366197586,-0.027153324335813522,0.07736744731664658,-0.2832632064819336,0.12935347855091095,-0.06288794428110123,-0.2495342195034027,-0.13723501563072205,-0.06754472106695175,0.259472131729126,0.014847828075289726,-0.13073225319385529,-0.08132360875606537,0.08757159858942032,0.06544677913188934,0.054807499051094055,-0.14980964362621307,-0.037077996879816055,-0.025271883234381676,-0.08003681898117065,0.037710197269916534,0.02223212644457817,-0.09723099321126938,-0.0027268913108855486,-0.009050773456692696,0.04125766456127167,0.031716447323560715,0.10398795455694199,-0.13850001990795135,-0.019909104332327843,0.010436885990202427,0.15656854212284088,0.10083317011594772,0.09208212047815323,0.06961271911859512,-0.06258714944124222,-0.18440872430801392,-0.10996667295694351,0.14863578975200653,0.16024577617645264,-0.1373586654663086,0.02984604425728321,0.02533094957470894,0.14474067091941833,0.12935906648635864,0.03950135037302971,-0.06551916152238846,-0.07241476327180862,0.040022771805524826,0.0581803172826767,-0.09987054020166397,0.058531131595373154,0.0496307834982872,0.07709628343582153,-0.1616983413696289,-0.03392726555466652,-0.06480921804904938,0.2127613127231598,0.201198011636734,-0.195792093873024,0.08626767992973328,-0.07395518571138382,0.19631516933441162,0.05368809401988983,0.039066243916749954,-0.2012602984905243,-0.07460548728704453,-0.01572788506746292,-0.3332997262477875,0.12755225598812103,0.19672946631908417,-0.1125926822423935,0.12118323892354965,-0.29741376638412476,0.11641155928373337,-0.06613264977931976,0.1026218980550766,-0.05103733018040657,-0.027742842212319374,-0.1922680139541626,0.07969070971012115,-0.09161528199911118,0.21600455045700073,-0.2084338366985321,0.063700832426548,-0.010442034341394901,0.388027548789978,-0.03430868685245514,0.2202909290790558,-0.061636846512556076,0.09237833321094513,0.25931990146636963,-0.21838676929473877,0.06442724168300629,0.08972789347171783,-0.13633637130260468,0.043678272515535355,0.08481187373399734,-0.3050647974014282,-0.07512412965297699,0.009662263095378876,-0.17649444937705994,0.10145004093647003,-0.22592304646968842,0.35160908102989197,0.20179027318954468,0.25735780596733093,-0.04321664571762085,-0.16212403774261475,0.04764822497963905,0.15548618137836456,0.016208792105317116,0.22313138842582703,0.015044774860143661,-0.1755516231060028,0.16486625373363495,-0.1749999076128006,-0.1442183554172516,0.20029178261756897,-0.09783163666725159,-0.23496170341968536,-0.16400134563446045,0.030010832473635674,0.07209338992834091,0.1748368740081787,0.10296160727739334,-0.04765775054693222,-0.17058278620243073,0.10223066061735153,0.19233642518520355,0.14550288021564484,-0.26214495301246643,-0.19013245403766632,-0.1896076500415802,0.045000337064266205,0.18905897438526154,0.0035406341776251793,-0.015361436642706394,0.02730860374867916,0.09947934746742249,-0.20788168907165527,-0.20247624814510345,0.12372657656669617,-0.1934768557548523,-0.039458680897951126,-0.04982059821486473,-0.23605836927890778,-0.26649779081344604,0.05037495493888855,-0.010583535768091679,-0.27602308988571167,-0.05152319744229317,0.06620576232671738,0.24536044895648956,-0.09266363829374313,-0.1434866487979889,0.0758029967546463,0.1655202955007553,0.1404542177915573,0.08677545189857483,-0.18996386229991913,0.11375804990530014,-0.009465361014008522,-0.021667154505848885,-0.12331325560808182,-0.057817183434963226,-0.22116194665431976,-0.047013141214847565,0.02421371079981327,-0.00632686959579587,0.06674328446388245,0.11526766419410706,-0.09635614603757858,-0.14565813541412354,-0.1770092248916626,0.04327975586056709,0.06835423409938812,0.15690231323242188,0.03522554039955139,0.021995076909661293,0.0673012062907219,-0.06692220270633698,-0.13495418429374695,0.07070212811231613,-0.1922535002231598,0.03960509970784187,-0.14050820469856262,-0.12811622023582458,-0.08839040249586105,0.08093669265508652,-0.11445123702287674,0.0942472517490387,0.06312885135412216,-0.0036407597362995148,0.003110014833509922,-0.05654589459300041,-0.10744255036115646,0.035903312265872955,0.06817328184843063,-0.09763021022081375,0.04409399628639221,-0.04203593358397484,-0.3529404103755951,0.10278887301683426,0.3822069764137268,0.2912754714488983,-0.3103266656398773,-0.11967917531728745,-0.07718107849359512,0.26568061113357544,0.3487018644809723,-0.22765401005744934,0.22271473705768585,0.2864488363265991,-0.19561666250228882,0.22350996732711792,0.17847369611263275,0.2640778720378876,-0.21035106480121613,-0.27921202778816223,-0.1990744173526764,0.18601670861244202,0.11235346645116806,0.16263145208358765,-0.09315499663352966,-0.24018166959285736,-0.13585874438285828,0.16534051299095154,0.31214505434036255,0.061144355684518814,-0.26916682720184326,-0.3109003007411957,-0.02863476239144802,0.1284409612417221,0.21425290405750275,-0.25235122442245483,0.32926514744758606,0.396543949842453,-0.26196008920669556,0.056253645569086075,0.11230315268039703,-0.15718331933021545,0.13580213487148285,0.1285770684480667,-0.2108292579650879,0.20872607827186584,0.1542297899723053,0.29863494634628296,-0.24982278048992157,-0.43285274505615234,-0.1209377869963646,0.32457882165908813,-0.21302975714206696,0.0989086702466011,-0.2640964388847351,0.2244359850883484,-0.2316708117723465,0.07191281020641327,0.04991979897022247,-0.17846515774726868,0.22964926064014435,-0.09094591438770294,-0.11068663001060486,0.18593968451023102,0.017378730699419975,0.12613873183727264,-0.32656005024909973,0.019973687827587128,-0.1889895349740982,0.22216543555259705,-0.23611287772655487,0.21947048604488373,-0.2353481948375702,0.047795530408620834,0.06349912285804749,0.35171401500701904,0.08318398892879486,0.16294419765472412,-0.2703581750392914,-0.028871942311525345,-0.12198613584041595,0.3001880645751953,-0.15731702744960785,-0.20617736876010895,0.30076268315315247,0.1003948450088501,-0.14006003737449646,0.07075155526399612,-0.2205476313829422,-0.04554793983697891,0.1955176591873169,-0.14421553909778595,-0.0490802638232708,0.28640851378440857,0.04750659689307213,0.23867781460285187,-0.3070423901081085,-0.11583130061626434,-0.07959733158349991,0.006773234810680151,0.23677754402160645,0.08209089934825897,0.03475493565201759,0.0049476963467895985,0.11883728951215744,-0.032845836132764816,0.013479960151016712,-0.06895499676465988,-0.25735610723495483,0.2608243227005005,-0.0874708890914917,-0.23072466254234314,0.1966233104467392,-0.07451140135526657,0.07051093876361847,-0.15793770551681519,0.05583931878209114,-0.1981520652770996,0.30573463439941406,-0.04791359603404999,0.20830772817134857,0.004344202112406492,0.048790957778692245,-0.16215720772743225,0.24566790461540222,0.03490808606147766,0.09671209007501602,0.010021909140050411,0.03741937503218651,-0.28436675667762756,0.10099595785140991,-0.11254291981458664,-0.03996061161160469,0.09171658754348755,-0.13943617045879364,-0.16008839011192322,0.22035808861255646,0.020321151241660118,-0.11402951180934906,0.1327017843723297,0.027097996324300766,-0.2038407027721405,0.06644657254219055,-0.20762872695922852,0.03882646933197975,-0.06836878508329391,-0.4726720452308655,-0.0014605676988139749,0.13944420218467712,0.3002970814704895,-0.12182964384555817,0.000589202216360718,-0.3798777759075165,0.13693729043006897,0.013449280522763729,-0.32580170035362244,0.094871386885643,0.06820517778396606,-0.15488600730895996,-0.05929648503661156,0.028155341744422913,0.27155786752700806,0.038292769342660904,0.03420102596282959,-0.4336468279361725,0.008004773408174515,0.015078313648700714,0.2555144429206848,0.08615680783987045,-0.24157309532165527,-0.24134214222431183,0.2237110137939453,0.17759594321250916,0.3921329379081726,-0.0887501984834671,-0.038837283849716187,-0.46475377678871155,-0.039760343730449677,0.06362039595842361,-0.23759296536445618,0.11407553404569626,0.28931111097335815,-0.3271385431289673,-0.004323185887187719,0.2106061577796936,-0.3208830952644348,0.1538023054599762,0.04119520261883736,-0.2957632541656494,0.037877827882766724,0.22167247533798218,0.46476903557777405,-0.11008889973163605,-0.37485477328300476,0.3208729028701782,-0.29088297486305237,0.09227669984102249,-0.27053478360176086,0.4265938401222229,0.12343200296163559,0.19531209766864777,-0.46606266498565674,0.12169765681028366,0.0699436292052269,-0.2800329327583313,0.029822828248143196,0.09836184233427048,-0.28851068019866943,-0.12336184829473495,-0.177862748503685,0.21372149884700775,-0.04519619047641754,0.2572849690914154,-0.14126048982143402,-0.0024662245996296406,-0.08130237460136414,0.295248806476593,-0.07421789318323135,0.026669837534427643,-0.5328859686851501,0.10503694415092468,-0.20640845596790314,0.3536560535430908,0.04681355133652687,0.3019450604915619,-0.1698990911245346,0.15630225837230682,0.061022739857435226,-0.37955817580223083,-0.12081578373908997,0.10674382001161575,-0.26703882217407227,0.1568259298801422,0.05663269758224487,-0.22883513569831848,-0.07210421562194824,0.14075574278831482,-0.23915179073810577,-0.033473771065473557,-0.20523115992546082,0.31323373317718506,0.21628600358963013,0.13068190217018127,-0.361957311630249,-0.06604981422424316,-0.21320848166942596,0.1534527838230133,0.12945656478405,0.21619977056980133,-0.3154367208480835,-0.05258490890264511,0.2220916897058487,-0.17114534974098206,-0.19849780201911926,0.09438838809728622,-0.3088648021221161,-0.23199215531349182,-0.11004427075386047,0.3760650157928467,0.24680480360984802,0.15410774946212769,-0.1763540506362915,-0.12236423790454865,0.011201687157154083,0.20531406998634338,0.022526448592543602,0.14404930174350739,-0.18689781427383423,-0.25164803862571716,0.020154383033514023,0.32008931040763855,0.020493868738412857,0.06785905361175537,-0.13857685029506683,-0.22456945478916168,0.08589711785316467,-0.2172628492116928,-0.26260364055633545,0.1776045858860016,-0.1913764327764511,-0.03313661366701126,0.010998222045600414,-0.11693612486124039,-0.20389316976070404,0.25929534435272217,-0.4080962836742401,-0.25154930353164673,-0.11415856331586838,0.2998509705066681,0.19878894090652466,0.005649649538099766,-0.005597759038209915,-0.03869210183620453,-0.1622975766658783,0.022150970995426178,0.06629630923271179,-0.024265537038445473,-0.014931827783584595,0.12413651496171951,0.010142821818590164,-0.024499481543898582,-0.0230404119938612,-0.06460157781839371,-0.10947142541408539,-0.046628572046756744,0.0281223151832819,0.3757740557193756,-0.0773906484246254,-0.5469392538070679,-0.07928791642189026,0.831362783908844,-0.07602711021900177,-0.7726642489433289,0.027642207220196724,0.12004771083593369,0.096499502658844,1.0785011053085327,0.014185946434736252,1.0732707977294922,0.014093204401433468,-0.6059051752090454,-0.09528559446334839,0.28891390562057495,-0.06300079822540283,0.14632584154605865,0.0809217244386673,-0.6842641830444336,0.05521485581994057,-0.2577321231365204,0.08157885819673538,0.14749670028686523,-0.0382121242582798,-0.8054540157318115,0.08404712378978729,0.14136028289794922,-0.07902305573225021,0.5527656078338623,-0.047819823026657104,-0.27772578597068787,0.22123029828071594,0.003571905195713043,0.12094130367040634,0.3549751341342926,-0.05809967219829559,0.18028652667999268,-0.016368534415960312,-0.039078835397958755,0.021629607304930687,0.052285630255937576,-0.09144604951143265,-0.010022592730820179,0.14891791343688965,0.20462609827518463,-0.05926935747265816,0.15827645361423492,0.1658710092306137,-0.2204832136631012,0.008712959475815296,-0.6349968314170837,-0.28077083826065063,-0.175712451338768,0.36312368512153625,-0.09478071331977844,0.09071753174066544,-0.07855802774429321,-0.15093117952346802,0.25369611382484436,-0.057976238429546356,0.4186159372329712,0.31484875082969666,-0.03465891629457474,0.04027193784713745,-0.028667954728007317,0.2610202729701996,-0.12722815573215485,-0.2952207922935486,0.03545495122671127,-0.2012978196144104,-0.04325317591428757,-0.08920692652463913,0.3256770670413971,-0.11251599341630936,0.12524282932281494,0.31730416417121887,-0.061830878257751465,-0.22941900789737701,0.32626551389694214,-0.15549173951148987,-0.0313064269721508,-0.12340220808982849,-0.24554604291915894,0.06727591902017593,0.025635292753577232,0.02125309593975544,-0.22317402064800262,0.021115731447935104,-0.0068075573071837425,-0.04279365390539169,0.18356062471866608,0.22082653641700745,-0.12580396234989166,-0.01886931248009205,-0.368755042552948,-0.23301410675048828,-0.3019919991493225,0.33066338300704956,0.7115797996520996,0.1768537312746048,0.1837223321199417,-0.4867485761642456,-0.0682518407702446,0.23293247818946838,0.06903363764286041,0.6658912897109985,-0.021791407838463783,0.44379767775535583,-0.6227396130561829,-0.14464731514453888,-0.38162198662757874,-0.14755414426326752,0.05394565686583519,0.06816648691892624,0.7900652289390564,0.334614634513855,0.27538976073265076,-0.15572291612625122,0.1768358051776886,-0.012608361430466175,-0.19333802163600922,0.06672114878892899,-0.15086035430431366,-0.14758272469043732,-0.011924346908926964,0.05664259195327759,-0.01269666850566864,0.2881421446800232,0.35573652386665344,0.0936884731054306,-0.48926427960395813,-0.19592560827732086,0.1317339837551117,0.29472172260284424,0.10877162963151932,-0.2481756955385208,-0.2023535966873169,-0.11968427896499634,0.2649817168712616,-0.12331660836935043,0.3423297703266144,-0.13107922673225403,0.4102960526943207,0.07692890614271164,0.20685002207756042,-0.2515074908733368,-0.45904436707496643,0.14887847006320953,0.13160477578639984,0.11867938935756683,0.1443544626235962,-0.3512313961982727,0.06048022583127022,-0.2957552969455719,0.12598466873168945,-0.4376746118068695,-0.03348228335380554,0.1548415720462799,-0.32839450240135193,0.07618750631809235,-0.183692067861557,-0.2339594066143036,0.06822811812162399,-0.16506659984588623,-0.11323228478431702,0.016595574095845222,-0.23800712823867798,-0.15290893614292145,0.2831249237060547,0.05115272477269173,0.0393206924200058,0.07500401139259338,0.1876344084739685,-0.05703921988606453,-0.23668308556079865,-0.05512082204222679,0.31548619270324707,-0.2550101578235626,-0.012304302304983139,0.07660813629627228,0.2840012013912201,-0.2250601351261139,0.03494015708565712,0.23347702622413635,0.10758877545595169,0.15041768550872803,0.29300859570503235,0.1812141090631485,-0.20226022601127625,0.0303617175668478,-0.038408663123846054,0.28221386671066284,-0.2107795923948288,0.08411535620689392,-0.12169928848743439,-0.2714865803718567,0.07732969522476196,0.028142720460891724,0.07544488459825516,-0.06538309156894684,-0.13347677886486053,-0.1548185497522354,-0.14891377091407776,0.30698996782302856,0.19566994905471802,0.21032747626304626,0.13482816517353058,-0.17683039605617523,0.09183581173419952,0.18348468840122223,0.11130239814519882,-0.17669837176799774,-0.09178275614976883,-0.03039451874792576,-0.08865922689437866,-0.3031444251537323,0.1825171560049057,-0.031517717987298965,-0.14646510779857635,0.13273704051971436,-0.39560529589653015,-0.39140772819519043,0.08442631363868713,-0.1306881606578827,0.06510937958955765,0.06781873852014542,0.029107576236128807,-0.21496553719043732,-0.044753607362508774,0.15970225632190704,0.2378537803888321,-0.04544637352228165,-0.16941668093204498,0.01862512156367302,0.09189730137586594,-0.28858768939971924,-0.08231332153081894,0.10139517486095428,0.009553970769047737,-0.5576552748680115,-0.07806190848350525,0.2137298882007599,0.4273730218410492,0.22945386171340942,0.2157626748085022,-0.2097526639699936,-0.07237913459539413,-0.06527586281299591,-0.05419527366757393,0.18441440165042877,-0.2594185471534729,-0.055944494903087616,-0.3592942953109741,0.12358211725950241,-0.24840590357780457,0.12554247677326202,-0.16731257736682892,0.10279364138841629,0.5150519609451294,-0.12070676684379578,0.10688845813274384,-0.09582850337028503,-0.46279221773147583,0.05681358650326729,0.49839386343955994,0.28304532170295715,0.1177138239145279,0.5742470026016235,-0.6409605741500854,-0.3576967716217041,0.091213658452034,0.18516597151756287,0.2695717513561249,-0.1771913319826126,-0.08413998037576675,0.35903337597846985,0.2199840247631073,0.2545248568058014,-0.08741217851638794,-0.09491589665412903,-0.14608453214168549,-0.2901705205440521,0.11858789622783661,0.2006528079509735,0.2590223252773285,0.21484529972076416,0.1726475954055786,-0.20045150816440582,0.2561965584754944,-0.23415331542491913,-0.24791021645069122,0.0006804108852520585,0.12919098138809204,0.040418993681669235,0.047967035323381424,-0.26454269886016846,0.1944333016872406,-0.04240555316209793,0.12230423092842102,0.14481112360954285,0.06272614747285843,0.000976742710918188,0.01643187366425991,0.08187456429004669,0.04267410188913345,0.11345680803060532,-0.15524913370609283,0.13490022718906403,-0.11332376301288605,0.11199530214071274,0.006429123692214489,-0.3214249908924103,-0.11928467452526093,-0.15226835012435913,-0.2927873730659485,-0.09360405057668686,-0.17194916307926178,0.16737407445907593,-0.1313195526599884,0.054709769785404205,0.16045159101486206,-0.046025339514017105,0.3600764274597168,0.23780834674835205,-0.06068398058414459,0.0020138975232839584,-0.06986811012029648,0.08639950305223465,-0.150894895195961,-0.22044411301612854,-0.05906927213072777,-0.20020915567874908,0.11417565494775772,0.0003370176418684423,0.16419510543346405,-0.40431779623031616,-0.028697269037365913,-0.1147598996758461,-0.09129121899604797,0.10405612736940384,-0.05656120926141739,-0.13914889097213745,0.1620340496301651,-0.06912811845541,-0.30218103528022766,0.26931628584861755,-0.1188284158706665,0.2977965176105499,-0.14073075354099274,-0.07685259729623795,-0.06898918747901917,-0.01341660413891077,0.2655062675476074,-0.13366304337978363,-0.041149530559778214,0.04359833523631096,0.08952761441469193,0.02841947041451931,0.34006041288375854,-0.17983883619308472,0.008334639482200146,-0.06633622944355011,-0.0626889020204544,-0.08171872049570084,-0.010190436616539955,-0.28379714488983154,-0.12506528198719025,-0.24900715053081512,0.34368133544921875,0.033169955015182495,0.10714597254991531,0.17944243550300598,-0.06731896102428436,-0.07041162997484207,0.03947434946894646,-0.04071693494915962,0.17521627247333527,-0.12251973152160645,-0.17851614952087402,-0.3749296963214874,0.536240816116333,0.10307450592517853,0.34633857011795044,-0.20750372111797333,-0.06372306495904922,0.2661861479282379,0.18757236003875732,0.08363073319196701,0.23199562728405,-0.0006862006266601384,0.17613348364830017,0.13281813263893127,-0.07011532783508301,-0.07822368294000626,0.013414538465440273,-0.015841519460082054,0.05468079447746277,-0.35069066286087036,-0.17765632271766663,-0.19396382570266724,-0.07816985994577408,0.2648824155330658,0.3272782564163208,0.05633184686303139,-0.19046157598495483,-0.024962952360510826,-0.11164356768131256,0.0895531177520752,-0.0115407919511199,-0.10347642749547958,0.10704093426465988,-0.019694160670042038,0.008372324518859386,0.11280485987663269,0.08107665181159973,0.2576279640197754,0.06670411676168442,-0.22212202847003937,-0.09569701552391052,0.014878745190799236,-0.12880854308605194,0.262374609708786,-0.08729976415634155,-0.1402607411146164,-0.1688806563615799,0.17875361442565918,0.2808474004268646,0.07301748543977737,-0.2617805302143097,-0.20606304705142975,0.010024278424680233,-0.055809058248996735,-0.03482772782444954,-0.10213809460401535,-0.18931320309638977,-0.19565337896347046,-0.1920163780450821,-0.1853349208831787,-0.1715841144323349,-0.13224972784519196,-0.16596481204032898,0.10613743215799332,-0.01711767166852951,0.016447627916932106,0.08659547567367554,0.3228413760662079,-0.017484385520219803,-0.10909453779459,-0.06298424303531647,-0.13559232652187347,0.11505993455648422,0.0773090198636055,0.14883050322532654,-0.16686181724071503,-0.14651770889759064,0.18088661134243011,0.15088829398155212,-0.037078939378261566,0.11736950278282166,-0.06936702877283096,-0.01852833479642868,-0.0982707291841507,0.09214383363723755,-0.05702180415391922,-0.17696595191955566,0.050612349063158035,-0.006736112292855978,-0.3182735741138458,-0.011639098636806011,-0.003446175716817379,0.16264691948890686,-0.05685119330883026,0.09880249947309494,0.19322629272937775,-0.11233008652925491,0.02192196622490883,-0.03272855654358864,-0.07638103514909744,-0.03894650563597679,0.2893826365470886,0.07296457141637802,0.2101816087961197,0.062251608818769455,0.10496414452791214,0.03280267491936684,0.15420067310333252,-0.2089918851852417,-0.09624131768941879,0.12002600729465485,-0.16357843577861786,0.09243058413267136,-0.04794812947511673,0.09819042682647705,0.06343211978673935,-0.2143518328666687,0.016516543924808502,0.06879439949989319,0.1009989082813263,0.0685325339436531,-0.03368441015481949,-0.09385518729686737,0.17937956750392914,-0.06636548787355423,-0.1670914739370346,0.053740572184324265,0.02455352060496807,-0.11133243143558502,0.028605831786990166,-0.14133913815021515,-0.09925314038991928,-0.00043126492528244853,-0.02841837890446186,0.31092214584350586,-0.16810296475887299,0.02182692661881447,0.11204921454191208,0.04452011361718178,0.19396282732486725,0.03566395491361618,0.04617045074701309,-0.111871138215065,-0.1671299934387207,-0.16841982305049896,0.025445053353905678,0.1687803566455841,-0.02244902029633522,0.004559668712317944,-0.22819267213344574,0.19960734248161316,0.060335930436849594,-0.09936999529600143,-0.06327462196350098,0.0730816200375557,0.023192349821329117,0.0632212907075882,0.025631031021475792,-0.1140122264623642,0.0550118088722229,-0.1379474401473999,0.1356411725282669,-0.14924734830856323,-0.033881619572639465,0.08951735496520996,0.14541378617286682,-0.07324957847595215,-0.21628661453723907,-0.015797676518559456,0.15232647955417633,-0.03681251034140587,0.20044229924678802,-0.005232940427958965,0.013450255617499352,0.1307133436203003,0.0717499628663063,0.06891946494579315,0.12143244594335556,-0.1696736067533493,0.15729425847530365,-0.28176942467689514,-0.04424404725432396,-0.1195603758096695,-0.30389755964279175,0.10732901096343994,-0.003294785041362047,-0.3260783851146698,0.19797168672084808,0.03960698843002319,0.46906664967536926,-0.04260870814323425,0.13581563532352448,-0.07600554823875427,-0.0781000405550003,-0.09587226063013077,0.34725332260131836,0.31558749079704285,0.35503464937210083,0.13081224262714386,-0.04449661821126938,0.011601269245147705,0.16699957847595215,0.1491784304380417,0.13313640654087067,-0.10516826063394547,0.035767562687397,-0.004537636414170265,0.39787447452545166,-0.4031566083431244,-0.18122230470180511,-0.19926907122135162,0.20284952223300934,-0.15112575888633728,-0.10558990389108658,-0.11106602847576141,0.16661272943019867,0.19264301657676697,-0.012893985956907272,-0.15005862712860107,-0.16875652968883514,0.14407658576965332,0.09072317183017731,-0.013026426546275616,-0.005584561266005039,-0.22337977588176727,0.22490578889846802,0.029247738420963287,0.23005297780036926,0.22627587616443634,0.050988249480724335,0.1853153258562088,-0.1399095058441162,0.07905802130699158,0.15025725960731506,0.12805704772472382,-0.013962095603346825,-0.05615932121872902,-0.23172155022621155,-0.10759872943162918,0.1558454930782318,0.08480865508317947,0.025100234895944595,0.038470469415187836,-0.2681167721748352,-0.00384957785718143,-0.28916245698928833,-0.023946290835738182,0.0672859400510788,0.009684287011623383,0.0688876137137413,0.12645882368087769,-0.18594124913215637,0.04493089020252228,-0.1901731640100479,-0.21939486265182495,-0.05601672828197479,0.08592476695775986,0.13404545187950134,-0.0005112457438372076,-0.12527206540107727,-0.15296268463134766,-0.0813409835100174,0.1393682211637497,0.006919377483427525,-0.02970805950462818,-0.10623123496770859,-0.17476552724838257,-0.1533995270729065,0.17153385281562805,-0.1410015970468521,-0.16590966284275055,-0.09385675936937332,-0.03150331974029541,-0.1401410847902298,-0.19091513752937317,0.28035739064216614,0.16336944699287415,-0.12725405395030975,-0.08669555932283401,-0.0836605578660965,0.10935155302286148,0.1801888793706894,0.0873868316411972,-0.007694043219089508,-0.022108590230345726,-0.3321995735168457,0.20793426036834717,0.1354186236858368,0.10548549890518188,-0.08344733715057373,0.07830286771059036,-0.28600430488586426,0.09969281405210495,-0.1885124295949936,-0.21849332749843597,0.09695137292146683,-0.09054920822381973,-0.1049252450466156,-0.022473033517599106,-0.14323793351650238,-0.003543772269040346,-0.12798890471458435,0.03159327432513237,-0.1503956913948059,0.19229787588119507,0.11840339750051498,0.17620253562927246,-0.06310471147298813,0.11861041933298111,0.1705199033021927,-0.022816499695181847,-0.09944047778844833,-0.15421782433986664,-0.11559168994426727,0.14134581387043,0.11897826939821243,0.14272937178611755,0.11128504574298859,-0.0007641435950063169,-0.10122936218976974,0.15029670298099518,0.12410889565944672,0.10262463241815567,-0.1715991348028183,0.010090422816574574,0.07734012603759766,0.06169005483388901,-0.010832693427801132,-0.0675799623131752,-0.22107745707035065,-0.1623690128326416,0.07979532331228256,0.0007677901885472238,-0.04913419857621193,0.1795051246881485,-0.048126690089702606,0.12609900534152985,-0.08720360696315765,0.08063739538192749,-0.0352923721075058,-0.08105728775262833,0.062169723212718964,0.06526841223239899,0.0643862783908844,-0.007021221797913313,0.12758609652519226,-0.014997833408415318,0.015401054173707962,-0.05343179032206535,-0.14924846589565277,0.018322855234146118,0.06391483545303345,0.05946989357471466,-0.181996688246727,-0.18271958827972412,-0.07497226446866989,0.07308438420295715,-0.3045777380466461,-0.08675131946802139,0.06832505762577057,0.35581639409065247,0.21502049267292023,-0.07245265692472458,-0.18928402662277222,0.12463902682065964,0.0638541579246521,0.18187299370765686,0.15869572758674622,0.03430994227528572,-0.16569620370864868,-0.07019726186990738,-0.17498508095741272,0.018574971705675125,-0.2143751084804535,0.27798324823379517,0.2814493179321289,0.3206908702850342,-0.11481868475675583,0.2521713972091675,0.004133141133934259,0.05957620218396187,-0.08754128962755203,0.0553433932363987,-0.03937619552016258,-0.03762253746390343,0.060706280171871185,0.10832758992910385,-0.22535045444965363,0.13330501317977905,0.015174636617302895,-0.20600353181362152,0.2824963331222534,-0.008560176938772202,-0.0925980657339096,0.06950292736291885,-0.38055261969566345,-0.1543365716934204,-0.06296374648809433,0.01038677804172039,-0.4473056495189667,0.12100977450609207,0.033569950610399246,0.19330346584320068,-0.3074404001235962,0.05421500280499458,0.1181526929140091,-0.10500787198543549,-0.1296485960483551,0.04769439622759819,-0.11615448445081711,0.06850600242614746,0.019795117899775505,0.1148315817117691,-0.04278343543410301,0.030817730352282524,0.056081533432006836,-0.29053330421447754,-0.13754719495773315,-0.15206991136074066,-0.10194724798202515,-0.03661070019006729,-0.10998506098985672,0.12458588182926178,0.1347738653421402,0.11015439033508301,-0.03942390903830528,0.07812806963920593,0.010213089175522327,0.02898179180920124,0.08045031875371933,0.2154516726732254,-0.06296803057193756,-0.1946578174829483,-0.0908457487821579,0.3589032292366028,0.23715193569660187,0.11326950788497925,0.1841687709093094,0.022412791848182678,-0.045305751264095306,0.22333118319511414,0.16226233541965485,0.16376902163028717,0.045886557549238205,-0.03068690001964569,0.09961123764514923,0.10093146562576294,-0.0869470164179802,-0.16603714227676392,0.05587676540017128,-0.07150127738714218,0.002200459362939,0.1904829442501068,0.08569803833961487,-0.02738353982567787,-0.13664662837982178,-0.11786989867687225,-0.08416782319545746,-0.11398287117481232,0.1320773959159851,0.13906264305114746,-0.08198180049657822,-0.054900895804166794,-0.025692392140626907,0.06431367248296738,0.01753273978829384,-0.37101805210113525,0.11356570571660995,0.18784502148628235,-0.07238803058862686,-0.18699215352535248,-0.19464047253131866,0.47712910175323486,0.13311347365379333,0.1510046273469925,0.15849518775939941,0.09903095662593842,-0.08690700680017471,0.06385597586631775,-0.15714357793331146,0.10356199741363525,-0.0826214849948883,-0.06763478368520737,0.1319660097360611,0.3349601924419403,-0.15700112283229828,-0.02186788059771061,-0.16703538596630096,-0.09052660316228867,-0.05350526422262192,0.15989582240581512,0.24913454055786133,0.113970547914505,-0.17329055070877075,0.02347741276025772,-0.05698851868510246,-0.3325223922729492,-0.133712038397789,0.00818674173206091,0.2512405216693878,0.020312951877713203,0.21111850440502167,-0.0562107153236866,0.08890750259160995,0.023917781189084053,-0.04339751601219177,0.05972971022129059,0.13499590754508972,-0.012193240225315094,-0.023929538205266,0.06160431727766991,-0.029414692893624306,0.11162260919809341,-0.14139118790626526,-0.12624695897102356,-0.02371225878596306,-0.1694144457578659,0.0643698200583458,-0.046268198639154434,-0.06275567412376404,-0.0007608733722008765,-0.09771543741226196,-0.07638220489025116,-0.0051904357969760895,-0.17400428652763367,0.15138614177703857,0.16394974291324615,-0.015911679714918137,0.0497126542031765,-0.1498456597328186,0.10492493212223053,0.33167344331741333,0.10652795433998108,0.12819929420948029,-0.16282519698143005,0.01678074337542057,0.07179093360900879,-0.06888960301876068,0.16087757050991058,-0.014919394627213478,-0.058973003178834915,-0.05347397178411484,0.029858700931072235,-0.07818420231342316,-0.0271682720631361,0.07965420186519623,0.17957627773284912,-0.037461213767528534,0.04178917035460472,-0.16330915689468384,0.06254919618368149,-0.07627891004085541,0.12048593908548355,-0.01643519662320614,0.2551497519016266,-0.22746044397354126,0.025862382724881172,-0.036135461181402206,-0.07369095087051392,-0.05061464384198189,0.05434795841574669,-0.030744368210434914,0.12542612850666046,-0.23092734813690186,0.10550510138273239,-0.018055077642202377,-0.008656942285597324,0.15956205129623413,0.018013199791312218,-0.05218016728758812,0.16387908160686493,0.0315026119351387,0.225652277469635,-0.16029685735702515,0.03753264993429184,0.015751680359244347,-0.15804190933704376,0.11978629231452942,0.14094938337802887,-0.05344680696725845,-0.11149477958679199,0.11506198346614838,-0.07134894281625748,-0.12644894421100616,-0.08029504865407944,-0.06861153990030289,-0.06490085273981094,0.17834588885307312,0.1852373629808426,0.00811032298952341,0.15834632515907288,-0.2425234466791153,-0.16370132565498352,-0.21131667494773865,-0.01198488101363182,0.1173311322927475,0.056324753910303116,-0.09743410348892212,-0.13167579472064972,-0.07946116477251053,0.14086949825286865,-0.07756206393241882,-0.014998747035861015,-0.044860344380140305,-0.13124527037143707,-0.08188405632972717,-0.15401947498321533,-0.132874995470047,0.03467505797743797,0.05724506825208664,-0.015073789283633232,0.20983925461769104,0.22166092693805695,0.31848564743995667,-0.017719553783535957,0.04702167585492134,0.0410570353269577,-0.017481518909335136,0.21829110383987427,0.17979854345321655,0.21906177699565887,-0.28922000527381897,-0.22539189457893372,-0.04889075830578804,-0.09370750933885574,0.1967220902442932,0.08835791796445847,-0.1273757666349411,-0.11520693451166153,0.014830948784947395,-0.1468304693698883,-0.26692143082618713,-0.05560213327407837,-0.05872203782200813,-0.14069364964962006,-0.1016673669219017,0.03039328195154667,-0.033715032041072845,-0.08152000606060028,-0.19844722747802734,-0.2981084883213043,0.08670096099376678,0.08891426026821136,0.23718219995498657,0.05120135098695755,0.20683500170707703,-0.06456054747104645,0.054244622588157654,-0.09742479771375656,0.020388461649417877,0.15877793729305267,0.16425132751464844,0.10949056595563889,0.09800466150045395,0.06030077859759331,-0.10855717957019806,0.018004469573497772,0.29110774397850037,0.1147444024682045,-0.1749146729707718,-0.16823792457580566,0.029992669820785522,0.04114856943488121,-0.1483389288187027,-0.25211724638938904,-0.13148152828216553,-0.38449057936668396,-0.18028785288333893,0.058200445026159286,0.09945964068174362,0.021757030859589577,-0.17661041021347046,0.1035914272069931,0.1753518134355545,0.23302359879016876,-0.019504114985466003,-0.17889007925987244,0.06513704359531403,0.12162551283836365,0.015478448010981083,-0.0012841420248150826,-0.1621958166360855,0.0034117132890969515,0.08329456299543381,0.25465887784957886,-0.0973898321390152,0.048651691526174545,0.06832604855298996,0.06884642690420151,-0.15725429356098175,-0.022354882210493088,0.15194185078144073,0.243289515376091,0.13550247251987457,-0.06783293932676315,0.03715266287326813,-0.029642844572663307,0.10444304347038269,0.0936228334903717,0.17183734476566315,-0.05751091614365578,-0.2054906040430069,0.02706332691013813,0.15082384645938873,0.07689134031534195,0.09268712997436523,0.12587381899356842,-0.04522152617573738,-0.19657732546329498,-0.08573084324598312,0.08731591701507568,-0.05506317690014839,0.45082300901412964,0.04394649341702461,-0.6900103688240051,0.008151696063578129,0.20372384786605835,-0.06186714023351669,-0.8897989988327026,0.020883113145828247,-0.28032559156417847,-0.023379739373922348,-0.3692561686038971,-0.0017594126984477043,0.9645534157752991,0.05494861677289009,-1.1139440536499023,-0.19492922723293304,-0.7191216945648193,-0.02487325482070446,-0.9868693947792053,-0.05198691040277481,0.1282781958580017,-0.022596271708607674,-0.6847700476646423,-0.02136138454079628,0.6520851254463196,0.0651145949959755,-0.7554073333740234,0.06526664644479752,-0.21906612813472748,-0.32339581847190857,0.06319992244243622,0.2919856905937195,0.2195071429014206,-0.008224106393754482,-0.2712143361568451,-0.0871320515871048,-0.04433804750442505,-0.030353017151355743,0.10833217948675156,0.1567898988723755,0.22794300317764282,0.13042400777339935,0.004424678161740303,0.10966760665178299,-0.17487996816635132,-0.37082639336586,-0.07081200927495956,0.04444519057869911,-0.393478125333786,0.42152002453804016,-0.1322324275970459,-0.3198627829551697,0.20569142699241638,-0.2955186665058136,0.10673005133867264,0.20837660133838654,0.07025360316038132,0.10477812588214874,0.29146119952201843,0.2656264007091522,-0.13477015495300293,-0.14223526418209076,-0.09247362613677979,0.14791250228881836,0.0478450283408165,0.07404831051826477,0.003977606538683176,0.1412557065486908,-0.10876020789146423,0.1274874061346054,-0.23579223453998566,-0.3735942244529724,-0.12699981033802032,-0.018025169149041176,0.12713228166103363,-0.042236328125,0.1659148782491684,0.11640030145645142,-0.32489103078842163,-0.25464802980422974,-0.01879030093550682,0.005560474935919046,-0.04122922196984291,-0.008443165570497513,-0.1297658532857895,0.2923566401004791,0.19247016310691833,0.3427920341491699,0.20836003124713898,-0.2722903788089752,0.08454948663711548,0.07862798124551773,0.2514810860157013,0.06333121657371521,-0.17255957424640656,0.0011183691676706076,-0.1412660777568817,-0.22475533187389374,0.11079587042331696,0.33529695868492126,0.1610766351222992,-0.10342521965503693,-0.3270438313484192,0.34778913855552673,-0.47538506984710693,0.1265508085489273,-0.29033178091049194,-0.132234588265419,-0.09940380603075027,-0.16785527765750885,-0.13668665289878845,-0.094033382833004,-0.11963897943496704,-0.3059707581996918,0.024784190580248833,-0.123873271048069,0.37707000970840454,-0.029625194147229195,-0.13080792129039764,-0.27518314123153687,-0.1836632639169693,0.10123905539512634,-0.038355231285095215,0.02554306760430336,0.018829356878995895,-0.14674732089042664,0.18937978148460388,-0.22095844149589539,0.08391693234443665,0.3368251323699951,-0.28870511054992676,-0.23411133885383606,0.29885008931159973,-0.04529593139886856,-0.2065194845199585,0.0911211296916008,-0.004623658023774624,-0.1621181070804596,-0.04984400048851967,0.2692009210586548,0.2707872688770294,0.08406860381364822,0.06847421079874039,0.06696942448616028,0.10314849764108658,-0.0721701979637146,-0.0818663239479065,0.07565930485725403,-0.06236058846116066,0.16442403197288513,-0.1723899245262146,-0.020388321951031685,0.041068531572818756,0.17349736392498016,0.18922388553619385,-0.032985031604766846,-0.19587494432926178,0.10476718097925186,-0.22948990762233734,-0.007110439240932465,-0.11439239233732224,-0.17092129588127136,0.08351407945156097,-0.10417305678129196,0.015648195520043373,0.1254768967628479,0.2272547483444214,-0.054155074059963226,-0.16957366466522217,0.1775086522102356,-0.04227818548679352,0.37327486276626587,-0.027184905484318733,0.020932340994477272,-0.13319721817970276,0.20478305220603943,-0.012982658110558987,-0.04024742543697357,0.06157582253217697,-0.027229351922869682,-0.09162169694900513,0.06922909617424011,0.2797105312347412,0.18545570969581604,0.16970700025558472,0.3792589604854584,0.04515466094017029,-0.21085035800933838,-0.2590879201889038,-0.25730323791503906,-0.15733177959918976,0.027769815176725388,-0.02973838523030281,-0.09947105497121811,-0.053159553557634354,0.029667222872376442,0.3197639286518097,0.20744603872299194,-0.21322131156921387,0.20175108313560486,0.02553916908800602,-0.18782511353492737,-0.01768961176276207,0.14454707503318787,0.12110881507396698,0.3968488574028015,-0.38140442967414856,-0.057934049516916275,-0.02694103866815567,-0.18939602375030518,0.2056925892829895,0.33424100279808044,-0.4972756803035736,0.455078125,0.3219313323497772,0.039885759353637695,0.11314963549375534,-0.16578158736228943,0.017683766782283783,-0.04705995321273804,-0.15571266412734985,-0.14911194145679474,-0.23416104912757874,0.21282820403575897,-0.06111680716276169,-0.04628629982471466,-0.2064787596464157,0.22639675438404083,-0.30158740282058716,-0.040239643305540085,-0.07378741353750229,-0.06648878008127213,0.39085257053375244,-0.1661321073770523,0.034224387258291245,-0.06798609346151352,-0.061726972460746765,0.18162795901298523,-0.232284277677536,0.32031017541885376,-0.39950981736183167,-0.04773997515439987,-0.009875296615064144,0.013449657708406448,0.07421330362558365,0.16775134205818176,0.08684209734201431,0.01917247660458088,0.044354334473609924,0.14896807074546814,0.1256127655506134,0.03161630406975746,0.0995483249425888,0.27504563331604004,0.05365179479122162,-0.10436967760324478,-0.13896970450878143,-0.23765414953231812,0.22893871366977692,0.07170778512954712,-0.10256163775920868,0.1434272676706314,-0.20199161767959595,-0.1024005338549614,-0.17870350182056427,-0.009026363492012024,0.20120419561862946,0.09783600270748138,0.23482760787010193,-0.40624621510505676,0.0008043289417400956,0.1339036524295807,-0.4899323582649231,0.0589933916926384,-0.2287835031747818,0.08904541283845901,0.32940569519996643,-0.1921980082988739,0.16886821389198303,0.029869861900806427,0.04020444676280022,0.48076727986335754,-0.24346528947353363,-0.28195780515670776,-0.05979092791676521,-0.028094204142689705,0.03648047894239426,-0.04018073529005051,-0.3555653691291809,0.15688888728618622,0.18009404838085175,0.2133360505104065,0.1002100259065628,-0.06707855314016342,0.23438027501106262,-0.17515236139297485,0.18957702815532684,-0.2541314363479614,-0.12643757462501526,-0.04233872890472412,0.020746158435940742,-0.10058809816837311,-0.04839165508747101,-0.07638916373252869,-0.21760977804660797,-0.007413789629936218,0.007010793779045343,0.012386755086481571,-0.04472723975777626,0.007991628721356392,-0.09108760952949524,-0.016629405319690704,0.45304813981056213,0.1899094134569168,0.24729734659194946,0.26229941844940186,0.11364903301000595,0.033116914331912994,-0.15478084981441498,-0.1059318482875824,0.0645468607544899,0.013141843490302563,0.040158823132514954,-0.2058422863483429,-0.15292160212993622,0.11562015116214752,0.06291531026363373,0.08227391541004181,0.005104674957692623,-0.1482950747013092,-0.23151138424873352,0.033878788352012634,-0.05239491164684296,-0.19678160548210144,0.044015463441610336,-0.060888685286045074,-0.014443960040807724,-0.20815476775169373,-0.12284234166145325,-0.11953026056289673,0.08241596072912216,-0.016971347853541374,0.2202920913696289,0.23864564299583435,-0.2560454308986664,0.1831093281507492,-0.07377421110868454,-0.10359185189008713,0.014053511433303356,-0.19055931270122528,0.17908647656440735,0.0023173349909484386,-0.016179170459508896,-0.00685151806101203,-0.07962022721767426,0.028419911861419678,0.1933438628911972,-0.17620213329792023,-0.022038182243704796,-0.09111864864826202,-0.3361198604106903,-0.05379728600382805,-0.10776810348033905,0.2734909951686859,0.04231424257159233,-0.09265267103910446,0.10561270266771317,-0.04759971797466278,0.2704178988933563,0.03984881937503815,-0.0813981369137764,-0.1421220302581787,-0.0348130539059639,-0.010823547840118408,-0.02740425243973732,0.3228825330734253,0.06933451443910599,-0.10106270015239716,0.1974886953830719,0.07314122468233109,0.2621658146381378,-0.6914283037185669,-0.022334737703204155,-0.08160397410392761,-0.23004506528377533,0.34561142325401306,0.06304941326379776,-0.0727284848690033,-0.07694856822490692,-0.023828916251659393,-0.2553789019584656,-0.07905738055706024,-0.1539687067270279,0.5120846629142761,0.12896433472633362,0.1959105283021927,0.052132073789834976,-0.03691660240292549,-0.06225665286183357,0.16191506385803223,0.043658193200826645,-0.10446634143590927,-0.020277639850974083,-0.12301571667194366,0.06793087720870972,-0.14989477396011353,-0.24815605580806732,0.21685795485973358,0.280458003282547,0.05982533469796181,-0.0023733435664325953,0.18036262691020966,0.32087722420692444,-0.12404114007949829,0.06316431611776352,0.11984770745038986,-0.03660336509346962,-0.0862947627902031,0.1488300859928131,0.12869086861610413,0.05063125491142273,-0.09959910809993744,-0.06997982412576675,0.0017406088300049305,0.25585421919822693,0.035863809287548065,-0.0861196517944336,-0.12612733244895935,-0.03900416940450668,-0.10287383943796158,-0.23210415244102478,0.07334240525960922,-0.09266339242458344,-0.17182093858718872,0.13740278780460358,-0.038259003311395645,-0.025502437725663185,0.010682372376322746,0.08517219871282578,-0.17899781465530396,-0.108638234436512,-0.018940167501568794,0.3135893642902374,0.47467494010925293,-0.09082707017660141,-0.07659534364938736,0.10221511125564575,-0.002993401139974594,0.24106164276599884,0.040553752332925797,0.14051280915737152,0.14058998227119446,-0.07766001671552658,0.1385163813829422,0.17086054384708405,-0.09594984352588654,0.09439277648925781,-0.07276954501867294,-0.2891732156276703,-0.0702638030052185,-0.1894550621509552,0.02207356132566929,0.23593193292617798,0.0842701867222786,-0.16386018693447113,-0.08170925825834274,0.030900567770004272,0.19089174270629883,0.10188479721546173,0.03905263543128967,-0.009163172915577888,-0.14688017964363098,-0.10014230757951736,0.011296837590634823,0.16715291142463684,-0.0426214300096035,-0.03289629518985748,0.06944963335990906,-0.014128042384982109,0.005701228976249695,-0.2507324516773224,0.07669541239738464,0.2192065268754959,0.18422642350196838,-0.00982671044766903,0.10597526282072067,0.07344888150691986,-0.15330474078655243,0.1521158069372177,-0.2506766617298126,-0.19890324771404266,0.1922343671321869,0.06245323643088341,-0.2137521207332611,0.052391793578863144,-0.10427079349756241,-0.0305822491645813,0.07804475724697113,0.2076205462217331,0.1939980387687683,-0.027311241254210472,0.0353514738380909,0.30714312195777893,-0.14653483033180237,-0.07962162047624588,0.20579376816749573,0.12813355028629303,-0.045474398881196976,-0.0421653613448143,0.078578419983387,-0.2442837506532669,-0.1779957264661789,0.12293434143066406,-0.04427004233002663,-0.1429554671049118,-0.005501850508153439,0.017180904746055603,-0.06208600103855133,0.17485862970352173,0.14128945767879486,-0.008699401281774044,0.011825739406049252,-0.1431771069765091,0.005612712819129229,0.07766494154930115,0.2032758742570877,0.42330697178840637,-0.15798181295394897,-0.010210460051894188,0.2269984483718872,-0.06920962780714035,-0.003418765962123871,-0.08755479753017426,0.19678965210914612,0.23516249656677246,0.043465256690979004,0.13642047345638275,-0.11307501792907715,-0.2564830482006073,-0.2819778025150299,0.17014893889427185,-0.14586932957172394,0.025223057717084885,0.2017829567193985,-0.10727807879447937,0.11009532958269119,-0.02626093477010727,-0.007500549778342247,0.11519214510917664,-0.0979127511382103,-0.1546730250120163,0.18946567177772522,0.1449076533317566,0.2085115611553192,0.09826672822237015,-0.15308159589767456,-0.22851812839508057,-0.03433099016547203,-0.1247028261423111,0.01007858570665121,-0.07201317697763443,-0.1346416026353836,-0.1097627654671669,0.03486444056034088,0.08450688421726227,-0.07059808820486069,-0.06741634011268616,-0.04012533649802208,0.0498892143368721,0.16631335020065308,0.09858909249305725,-0.2598514258861542,0.05474049970507622,-0.06447010487318039,0.10067896544933319,0.17138242721557617,0.3341451585292816,0.1366785317659378,0.18778349459171295,0.05356130748987198,0.04839535802602768,0.23100590705871582,0.15934400260448456,0.32187139987945557,0.006556264590471983,-0.007421775255352259,-0.2809673249721527,-0.1195877343416214,-0.12019124627113342,-0.28849002718925476,-0.09039659798145294,0.13711953163146973,-0.26844820380210876,-0.09961128979921341,0.030574386939406395,-0.07225952297449112,-0.20011435449123383,-0.14350181818008423,0.1789698600769043,0.016645489260554314,-0.15413984656333923,-0.1144922748208046,-0.052150484174489975,-0.00279743829742074,0.04826918616890907,0.1078300029039383,0.09068107604980469,-0.032052189111709595,-0.03989841789007187,0.17571024596691132,0.18591764569282532,-0.03150160610675812,-0.09916551411151886,-0.0034520116169005632,0.12525145709514618,-0.05955532565712929,0.20188549160957336,-0.13067029416561127,-0.01652243174612522,0.07634547352790833,-0.1383557915687561,-0.5767096281051636,0.2589366137981415,-0.19622023403644562,0.08578977733850479,0.17985539138317108,0.011529576033353806,0.029705237597227097,-0.07931002229452133,0.023633114993572235,-0.5446788668632507,0.15657764673233032,-0.11821166425943375,0.5412164926528931,-0.16898775100708008,-0.0984804630279541,-0.16817989945411682,0.2827419340610504,0.03765245899558067,-0.026383595541119576,0.33756351470947266,0.22461852431297302,-0.13710860908031464,0.3505832552909851,0.09844571352005005,0.06922752410173416,0.24683725833892822,-0.1612659990787506,-0.19509287178516388,0.0872950479388237,0.10906385630369186,-0.2324167937040329,-0.17418387532234192,0.12690339982509613,-0.039511535316705704,0.17688268423080444,0.11506953090429306,-0.06783921271562576,-0.1862136423587799,-0.18375536799430847,-0.02045186050236225,0.17697826027870178,0.010428003035485744,-0.23237548768520355,-0.2812425196170807,-0.17076949775218964,-0.10408470779657364,0.1881038397550583,0.3407423794269562,0.062258679419755936,-0.032768718898296356,-0.15431885421276093,-0.13864567875862122,0.18664737045764923,-0.2983487844467163,-0.1552002727985382,0.01758537068963051,0.09269692748785019,0.16072431206703186,-0.37072861194610596,-0.043612997978925705,-0.525838315486908,-0.13689826428890228,0.09649204462766647,-0.12924262881278992,0.03358425199985504,-0.051731519401073456,0.0671858936548233,0.07320321351289749,0.02810092270374298,0.13378261029720306,0.16629858314990997,-0.014277187176048756,-0.04434764385223389,0.19976165890693665,0.19258613884449005,-0.6128213405609131,-0.40285971760749817,-0.06989051401615143,-0.08310893177986145,-0.3588016927242279,-0.2607508897781372,0.1260267049074173,-0.02282745949923992,-0.05785125494003296,0.0798342302441597,-0.1440756916999817,-0.021982591599225998,0.07915572822093964,-0.013243524357676506,0.12739714980125427,-0.2184312492609024,-0.13230425119400024,0.039716724306344986,-0.11611631512641907,0.2742765247821808,0.0837218314409256,0.16757941246032715,0.1248161718249321,-0.026461970061063766,-0.024697788059711456,0.8244563341140747,-0.2586914598941803,0.043636977672576904,0.10805252939462662,-0.0328156016767025,0.045969486236572266,-0.2705654799938202,0.26081082224845886,-0.158340722322464,-0.4420638680458069,-0.0872517079114914,-0.20709365606307983,-0.23789562284946442,-0.15180817246437073,0.023035747930407524,-0.041064582765102386,0.09185905754566193,-0.08522462844848633,-0.021633749827742577,0.10363200306892395,-0.06972933560609818,-0.11450541764497757,-0.05214294046163559,0.03922008350491524,0.3374567925930023,0.2100450098514557,-0.00321011571213603,0.15454645454883575,-0.10273327678442001,-0.17575785517692566,-0.039220914244651794,-0.10649837553501129,0.1212846115231514,-0.13231122493743896,-0.17599093914031982,-0.12887616455554962,-0.16779427230358124,0.18260793387889862,0.21236152946949005,-0.09868302941322327,0.019329439848661423,-0.13116638362407684,-0.06554662436246872,0.003191774943843484,-0.21994957327842712,0.16967467963695526,-0.08152975142002106,-0.021220458671450615,-0.26818612217903137,-0.14073464274406433,-0.12853705883026123,-0.15847301483154297,0.09533558785915375,-0.08630460500717163,0.27813446521759033,-0.17127671837806702,0.324298620223999,0.02374148555099964,-0.08674170821905136,-0.0941450223326683,-0.12194555252790451,-0.0349181592464447,-0.057938676327466965,0.0580449216067791,0.11658865958452225,-0.13564758002758026,0.004224047530442476,0.18119944632053375,-0.2824341654777527,-0.05429960787296295,-0.027613211423158646,0.3603382706642151,-0.038184843957424164,-0.17686523497104645,0.2615426480770111,0.21216490864753723,-0.22189617156982422,0.1165110319852829,0.2830020487308502,-0.051857803016901016,0.1264733076095581,0.20788447558879852,0.04558630660176277,0.04298293590545654,0.08923467993736267,0.11986926943063736,0.046459972858428955,-0.03625589981675148,0.035070858895778656,0.06813625246286392,-0.03379189595580101,0.21367284655570984,-0.12252356112003326,-0.39017680287361145,0.1411290019750595,-0.018917370587587357,0.08964936435222626,0.3862346410751343,0.16165491938591003,-0.21030813455581665,0.05084342509508133,-0.050371769815683365,0.09548772871494293,-0.3034214973449707,0.029766710475087166,0.014721049927175045,0.2126154750585556,0.07802903652191162,0.02527565136551857,0.123761847615242,0.06035938858985901,0.02679046243429184,0.10029926896095276,-0.09137731045484543,-0.16650305688381195,-0.05487538501620293,-0.27167099714279175,-0.0227340180426836,-0.14327827095985413,0.09490935504436493,-0.14275117218494415,0.036080650985240936,0.06462039053440094,-0.3500555753707886,0.3190820813179016,-0.008130033500492573,0.16536593437194824,0.2221677601337433,0.13013912737369537,0.036631517112255096,-0.05444701015949249,-0.2121560275554657,-0.08121965080499649,-0.2940875291824341,-0.13181303441524506,0.11792856454849243,-0.23068681359291077,0.11696545034646988,-0.10199224948883057,-0.23929663002490997,-0.10338696092367172,-0.3912121653556824,-0.45924174785614014,0.2886755168437958,-0.16784726083278656,-0.45169544219970703,-0.14384858310222626,-0.2462775558233261,-0.042620811611413956,-0.2765909731388092,-0.2870531976222992,0.005967413075268269,0.12304311245679855,0.34128984808921814,0.07075583934783936,-0.07821217179298401,-0.13350491225719452,0.18094053864479065,0.22652696073055267,0.08493279665708542,-0.1339711844921112,-0.12514731287956238,-0.13689585030078888,0.10124162584543228,-0.1758575290441513,-0.15012410283088684,-0.3047315776348114,0.362074613571167,0.18358181416988373,0.06012462452054024,0.10618287324905396,0.06062677502632141,0.0532110333442688,0.01667972095310688,0.24329376220703125,-0.04341062903404236,0.0528474785387516,-0.035275649279356,-0.01416822336614132,0.09860125184059143,-0.14180855453014374,0.11368908733129501,-0.1310630589723587,0.020044708624482155,0.10740264505147934,0.1696404069662094,-0.06730926036834717,-0.06934967637062073,-0.08854176849126816,-0.3378567695617676,0.08453456312417984,-0.1394708901643753,-0.03842983767390251,0.2244347482919693,0.15463079512119293,0.09174247831106186,0.20754685997962952,0.01302082184702158,0.1982368677854538,-0.2461695671081543,-0.008126690983772278,0.05783568695187569,0.07892587780952454,-0.029474884271621704,-0.005990681704133749,0.055689629167318344,0.1847618669271469,0.07842305302619934,0.10050144046545029,0.07212469726800919,-0.041970428079366684,0.027905326336622238,0.09846637398004532,-0.1986374855041504,0.21714676916599274,0.2731436789035797,0.13586345314979553,0.0430639274418354,-0.15872062742710114,0.2539145052433014,-0.4372238218784332,0.0819525346159935,0.05609080567955971,-0.0019879310857504606,-0.04305679351091385,0.02116762101650238,-0.1565241813659668,0.005070820450782776,-0.056670062243938446,0.04329589381814003,-0.03271731734275818,-0.1384783834218979,0.16094478964805603,0.1084522008895874,-0.314714640378952,0.07804448902606964,0.009449198842048645,-0.35593298077583313,0.14460408687591553,-0.1058366522192955,0.06689094007015228,0.18478594720363617,-0.033159080892801285,0.10032771527767181,-0.11372007429599762,0.05840783938765526,-0.022836018353700638,-0.02888672798871994,-0.11104145646095276,-0.0982707217335701,0.2345569133758545,-0.010962150990962982,0.338066041469574,0.05945722758769989,-0.1053570881485939,0.22592760622501373,-0.048855483531951904,-0.17146703600883484,-0.052451446652412415,0.06924749910831451,-0.4277307689189911,-0.20348204672336578,-0.06099987030029297,0.3960857093334198,-0.2673867642879486,-0.16631047427654266,0.41306599974632263,-0.03560107201337814,-0.023345185443758965,-0.05738633871078491,0.1756485551595688,-0.14324815571308136,0.028836578130722046,-0.005214223172515631,0.09911072999238968,-0.017905792221426964,-0.09134695678949356,-0.02215511165559292,0.1054418683052063,0.08424612879753113,0.08307984471321106,-0.014043536968529224,0.28415384888648987,-0.016643349081277847,-0.3251681625843048,-0.317714661359787,-0.16825060546398163,-0.3107592463493347,-0.47542160749435425,-0.18637770414352417,-0.25064483284950256,-0.1720178723335266,-0.07469005137681961,-0.03672321140766144,-0.4399787187576294,0.1279045194387436,0.3166831433773041,0.6426690816879272,-0.08351720124483109,-0.017720188945531845,-0.014798386953771114,0.019714614376425743,-0.0351703017950058,-0.09940717369318008,0.08262684941291809,-0.0339801162481308,0.21311749517917633,0.1250993013381958,-0.3500414788722992,0.0383513867855072,-0.2319338470697403,-0.1858672797679901,-0.000774963409639895,0.2008952498435974,0.20016556978225708,-0.07045582681894302,0.13858072459697723,0.08339345455169678,-0.014901535585522652,0.18078577518463135,0.08054467290639877,0.05054983124136925,0.037139780819416046,0.02617032267153263,0.05172734707593918,0.11286264657974243,-0.15370695292949677,-0.14540138840675354,-0.2655472755432129,0.015474241226911545,0.12549243867397308,0.15896520018577576,-0.3843044638633728,0.21631571650505066,0.005911394953727722,-0.1551852822303772,0.3080300986766815,-0.06904976814985275,-0.017975229769945145,0.10482262074947357,-0.004835009574890137,0.01947692781686783,0.026077883318066597,0.0003671734011732042,-0.12862130999565125,-0.23554769158363342,-0.03321150317788124,0.0513664186000824,0.026552608236670494,0.05484342202544212,-0.08656229823827744,0.06378748267889023,-0.014227192848920822,0.0002322369982721284,-0.07908574491739273,0.11673042923212051,0.029020434245467186,0.3404129147529602,-0.0049646170809865,0.0012971117394044995,-0.02971091866493225,0.014851691201329231,0.08141148835420609,-0.25106731057167053,0.018771693110466003,-0.4507509171962738,0.03095274046063423,0.8132877945899963,0.0035699906293302774,0.3661026060581207,-0.017688477411866188,-0.44131898880004883,0.0017085918225347996,-0.07428731769323349,-0.0002904569555539638,-0.0665496215224266,-0.006569195073097944,-0.10583925247192383,0.04236837103962898,0.5340807437896729,0.04749305173754692,-0.828390896320343,0.006889896932989359,0.9091529250144958,-0.0062769330106675625,0.8202269673347473,0.01016400195658207,-0.011770880781114101,0.1349816471338272,-0.522449791431427,-0.0010747513733804226,0.24773383140563965,-0.025723041966557503,-0.6533922553062439,0.0363452211022377,0.3520630896091461,-0.1157715767621994,-0.06603385508060455,-0.4538285434246063,0.2450154423713684,0.13745519518852234,0.23851457238197327,0.060175321996212006,0.1563892662525177,0.2559444010257721,0.022006075829267502,0.1345275640487671,-0.39451009035110474,-0.07660796493291855,-0.2489193081855774,-0.02024311199784279,0.3587767779827118,-0.09611476212739944,0.0031057498417794704,-0.005409070290625095,0.30921053886413574,0.2785535752773285,0.04550967738032341,-0.2580614686012268,-0.3789098560810089,0.2617618143558502,-0.13722020387649536,-0.12249523401260376,0.39605170488357544,0.23260268568992615,-0.04125498607754707,-0.04647282883524895,0.22694507241249084,-0.4339439272880554,0.21778345108032227,-0.1993810534477234,0.10558030009269714,0.07769567519426346,-0.0584149993956089,-0.36929619312286377,-0.24660231173038483,0.013096514157950878,-0.31938475370407104,0.2698061764240265,0.4159063696861267,-0.09886854887008667,0.006974168121814728,-0.015920333564281464,0.44124993681907654,0.06397783756256104,0.06772315502166748,-0.2916709780693054,-0.02380955033004284,0.09112958610057831,-0.3255811035633087,0.3124234676361084,0.09980852901935577,0.12131882458925247,0.08432146906852722,0.20500212907791138,0.15460938215255737,-0.005385484546422958,0.11338714510202408,-0.08558137714862823,-0.2082686424255371,-0.3352622091770172,0.3127860426902771,0.1902637779712677,0.02130221761763096,-0.03687078878283501,0.060753799974918365,-0.024342326447367668,0.09787806868553162,-0.2925679683685303,-0.008320370689034462,0.10710054636001587,-0.06385072320699692,-0.07510213553905487,0.22050441801548004,-0.246026411652565,-0.4117097854614258,-0.052788492292165756,0.09615951031446457,0.28973740339279175,-0.15307146310806274,0.0669359415769577,0.05875244736671448,0.13131079077720642,-0.15863507986068726,-0.43990302085876465,-0.1387445628643036,0.13565704226493835,-0.07059463113546371,0.03370245546102524,0.41001832485198975,-0.0923420637845993,0.193802148103714,0.14621424674987793,-0.18157018721103668,-0.14172059297561646,0.266087144613266,-0.07996148616075516,-0.026740601286292076,-0.018194854259490967,-0.2145896553993225,0.30783799290657043,-0.00457781134173274,-0.17592287063598633,0.11486485600471497,0.06026838347315788,0.00204650335945189,0.12758783996105194,0.12443463504314423,0.313885360956192,-0.05576881766319275,0.12503738701343536,-0.037042468786239624,-0.08167107403278351,0.020617978647351265,0.014491463080048561,0.04932751879096031,-0.058668844401836395,0.3059442639350891,0.30402275919914246,0.08898687362670898,0.1956034004688263,0.20439757406711578,-0.06623373925685883,-0.08222084492444992,0.17134103178977966,-0.10630257427692413,0.042882006615400314,0.14295488595962524,-0.11457275599241257,-0.29267701506614685,0.07635415345430374,-0.04136697202920914,0.1886885166168213,-0.20942147076129913,0.08503097295761108,-0.1798822581768036,-0.05154601112008095,0.03597898781299591,-0.020744046196341515,0.22953279316425323,-0.15563629567623138,-0.16142064332962036,0.20324614644050598,0.19341471791267395,0.2793298661708832,-0.15241000056266785,-0.16611941158771515,-0.2400122731924057,0.022417131811380386,0.2519058883190155,-0.15427933633327484,0.21433669328689575,-0.05504351854324341,0.22649182379245758,-0.0495820976793766,0.43486616015434265,-0.1368108093738556,-0.21395520865917206,-0.37748679518699646,0.2644120156764984,-0.26465511322021484,0.045977551490068436,-0.019225144758820534,0.24096879363059998,0.17647644877433777,-0.39727717638015747,0.029275869950652122,-0.14214125275611877,-0.3161731958389282,-0.06603210419416428,0.3024967312812805,-0.045395005494356155,0.16261595487594604,-0.2643434703350067,0.027835050597786903,0.08023053407669067,0.06378895044326782,0.37676873803138733,0.2702854871749878,0.1915968656539917,-0.31193962693214417,-0.25179216265678406,0.27735793590545654,-0.5763913989067078,-0.6553067564964294,-0.1618179827928543,0.23302775621414185,-0.34699583053588867,-0.2643089294433594,-0.08421173691749573,-0.1277063637971878,0.11755465716123581,0.04101211205124855,-0.32737410068511963,-0.18628840148448944,0.2649718225002289,-0.10166812688112259,-0.15704302489757538,0.01886051334440708,-0.30247920751571655,0.04266008362174034,0.10820521414279938,-0.09065032005310059,-0.1289299726486206,0.03425563871860504,-0.28428974747657776,-0.21745815873146057,0.04419524595141411,-0.18469618260860443,0.028183825314044952,-0.08561492711305618,0.14084596931934357,0.11096640676259995,-0.11699950695037842,-0.3823999762535095,-0.14447303116321564,0.1608278453350067,-0.35667622089385986,0.12955211102962494,-0.03423513099551201,-0.0056257108226418495,0.001545699080452323,0.26447656750679016,-0.017696743831038475,0.09037196636199951,0.34395426511764526,-0.35152745246887207,0.15228231251239777,0.10660570859909058,-0.0027652017306536436,0.2928088903427124,0.057673096656799316,-0.10926886647939682,0.023268572986125946,-0.17612610757350922,0.05063505098223686,-0.07572132349014282,-0.029299262911081314,-0.3197260797023773,-0.12947484850883484,-0.02640787698328495,0.08273634314537048,-0.22874124348163605,0.17933382093906403,0.23499630391597748,0.2532993257045746,0.27285802364349365,-0.40071314573287964,-0.10323026776313782,-0.1499418020248413,0.09661048650741577,0.08353371918201447,-0.005844253581017256,0.11211080104112625,0.12200971692800522,-0.16239750385284424,0.1812347024679184,0.12436741590499878,0.02057330496609211,-0.18493399024009705,-0.20306359231472015,0.13044211268424988,0.18766546249389648,0.2620505094528198,0.13476143777370453,0.03884692117571831,0.028800394386053085,0.09350087493658066,-0.10945599526166916,-0.23817290365695953,-0.02827627770602703,0.003150163684040308,0.06923139095306396,0.0015910097863525152,-0.18197987973690033,-0.014145968481898308,-0.010576927103102207,0.0669834166765213,0.2976822853088379,0.07024484872817993,-0.12163244932889938,-0.019244225695729256,0.1747656911611557,-0.016649965196847916,0.19974064826965332,0.06704780459403992,-0.035551056265830994,-0.16520912945270538,-0.1266050934791565,0.06510881334543228,0.18512041866779327,0.02571156993508339,-0.15268637239933014,-0.1843111217021942,0.03533284738659859,0.056348107755184174,0.08896037936210632,-0.09553896635770798,-0.07005216926336288,-0.08770152926445007,0.0036120209842920303,-0.10322359949350357,-0.20237062871456146,-0.1967734396457672,-0.12516425549983978,-0.0399751290678978,-0.01760026440024376,-0.07176772505044937,-0.3079027831554413,-0.17950189113616943,-0.20961418747901917,-0.018369659781455994,0.03647533804178238,-0.029631691053509712,0.050067801028490067,0.14486993849277496,0.41889575123786926,0.06997282803058624,0.17555369436740875,0.08043362945318222,-0.14509834349155426,0.03396520018577576,-0.052287518978118896,0.19057603180408478,-0.058503374457359314,0.2972172498703003,-0.0339479073882103,-0.0322352796792984,-0.04306852072477341,0.18789447844028473,-0.020911814644932747,-0.2945045530796051,-0.05553838983178139,-0.1454271525144577,0.12495589256286621,-0.07219569385051727,-0.08079929649829865,-0.23141545057296753,-0.1435677707195282,0.0888817086815834,0.3206654191017151,-0.11516300588846207,0.004553105216473341,0.0886353850364685,0.14862151443958282,0.18993382155895233,0.3801894187927246,0.3433859050273895,0.15082906186580658,-0.11178049445152283,0.019361725077033043,-0.17095305025577545,0.1809764802455902,0.062333814799785614,-0.15708597004413605,0.14219626784324646,-0.14441850781440735,0.08113006502389908,-0.05887443944811821,0.14961503446102142,-0.08598766475915909,-0.055466003715991974,0.012687567621469498,-0.025123711675405502,-0.2584504783153534,-0.37056705355644226,0.09108462184667587,-0.07153572887182236,-0.17181193828582764,-0.0950412005186081,-0.33385375142097473,0.008674423210322857,-0.07707523554563522,-0.11225147545337677,0.14520199596881866,0.18809272348880768,-0.034226421266794205,-0.041646577417850494,-0.10777024179697037,-0.1374639868736267,0.02058388851583004,0.1285141557455063,0.18362274765968323,0.0008313169237226248,0.11784449219703674,0.05315502732992172,0.20898409187793732,-0.1153893917798996,-0.03426974639296532,0.05630284547805786,0.08583949506282806,-0.027472831308841705,-0.007515658624470234,0.015738828107714653,0.1286001056432724,-0.37867626547813416,-0.250223845243454,-0.3434382379055023,-0.10261104255914688,0.014667505398392677,-0.09488766640424728,-0.23800203204154968,-0.06566638499498367,0.08494556695222855,-0.09391632676124573,0.07829781621694565,-0.24707452952861786,-0.04316560551524162,0.028926920145750046,0.18173421919345856,0.028877995908260345,-0.02621292881667614,0.18918271362781525,-0.049867089837789536,-0.012369206175208092,0.09811151027679443,0.11640407145023346,-0.05447344854474068,-0.08090032637119293,0.11951929330825806,0.04746238887310028,0.10179470479488373,-0.11463387310504913,0.03409576416015625,0.07669956237077713,-0.04869415611028671,-0.0015372587367892265,-0.11785926669836044,0.022631840780377388,0.12135705351829529,0.0035855057649314404,0.021569717675447464,0.006838140543550253,-0.020443689078092575,0.16032913327217102,0.08261580765247345,-0.09081006050109863,-0.24425776302814484,-0.2012123465538025,-0.006339616607874632,0.14167828857898712,-0.17069239914417267,0.12825429439544678,0.002158567076548934,-0.005036397371441126,-0.014210453256964684,0.16585493087768555,-0.015291494317352772,0.09893222898244858,-0.11955755949020386,0.07315440475940704,0.09412437677383423,-0.13914522528648376,-0.22088778018951416,-0.07156352698802948,0.09394769370555878,-0.1368284523487091,0.004787622019648552,0.004597537685185671,0.04234246537089348,0.12562645971775055,-0.0856446921825409,0.08311405032873154,0.012806316837668419,0.22845695912837982,-0.10112201422452927,0.024898864328861237,0.042353902012109756,-0.08884646743535995,-0.11585413664579391,0.05501179024577141,0.14641611278057098,-0.008747059851884842,-0.15660329163074493,-0.08958553522825241,0.12577126920223236,0.1027669906616211,-0.1039384976029396,-0.04906293377280235,0.1292131543159485,-0.03181663155555725,-0.056919295340776443,-0.018672864884138107,0.037418268620967865,0.23013368248939514,-0.136512890458107,-0.2620512545108795,-0.0745844617486,-0.0041595203801989555,0.04043973982334137,0.18647867441177368,-0.14293332397937775,0.09864769130945206,-0.07156731933355331,-0.2109503597021103,0.21404366195201874,-0.03887098655104637,-0.2997971475124359,-0.07904496043920517,-0.017027487978339195,-0.10162121802568436,0.10595990717411041,0.03878079727292061,-0.012490958906710148,-0.1686767339706421,-0.23802044987678528,0.05440894141793251,0.006548592820763588,-0.07834029197692871,-0.15266142785549164,0.3742068111896515,0.40828487277030945,0.1130988821387291,0.25020331144332886,0.2739351689815521,0.11948602646589279,-0.10613364726305008,0.18374814093112946,-0.24985790252685547,0.3337143659591675,-0.04844553768634796,0.0017672587418928742,0.08072607964277267,-0.16423191130161285,0.08259028196334839,-0.011940684169530869,0.0726279765367508,-0.0614924281835556,-0.07768289744853973,-0.07537348568439484,-0.13899913430213928,-0.1770673394203186,0.12655748426914215,-0.024674415588378906,0.07710450887680054,0.02408483624458313,0.1309443712234497,0.07283718883991241,-0.18908214569091797,-0.1561405509710312,-0.18364667892456055,-0.0253608301281929,-0.05982910096645355,-0.19760027527809143,-0.0480075441300869,-0.1976623237133026,0.011638359166681767,-0.0292816124856472,-0.050826553255319595,0.08529656380414963,0.042058005928993225,0.01958027482032776,-0.010407301597297192,-0.1444515436887741,-0.054560381919145584,0.22174140810966492,0.055717356503009796,-0.14364273846149445,-0.18566223978996277,-0.05819763243198395,0.1178148165345192,0.06673137843608856,0.006473402958363295,0.028944050893187523,0.08687484264373779,-0.15959475934505463,-0.12284765392541885,-0.013413524255156517,0.05735325440764427,-0.06681635975837708,-0.21662259101867676,-0.05365893244743347,-0.02518744021654129,-0.0859844908118248,-0.09314076602458954,-0.035229168832302094,0.2216452956199646,-0.001794966752640903,-0.05649154260754585,-0.17234288156032562,0.040663741528987885,0.07703498005867004,0.10310551524162292,-0.0014536472735926509,-0.03736110031604767,0.046072300523519516,0.005332197528332472,-0.052457403391599655,0.18681541085243225,-0.12425234168767929,-0.016553111374378204,0.10853952169418335,-0.1523987352848053,-0.12208480387926102,-0.16201967000961304,0.03082355484366417,-0.04616372287273407,0.021638546139001846,0.12033505737781525,0.01860962249338627,0.16810351610183716,0.061270736157894135,-0.24018429219722748,-0.14102782309055328,-0.21801413595676422,-0.04473227262496948,0.038677915930747986,-0.07097578048706055,0.1792503148317337,-0.409157395362854,-0.3403923213481903,0.07471045106649399,-0.21156825125217438,0.23449847102165222,-0.06390717625617981,-0.05986667796969414,0.18653053045272827,0.04051544889807701,-0.07797712087631226,-0.10906752943992615,-0.15867100656032562,-0.009963861666619778,-0.20760682225227356,0.013223008252680302,-0.15929332375526428,-0.01837015524506569,-0.07013830542564392,0.12499666959047318,0.06410488486289978,-0.009049915708601475,-0.12111867964267731,-0.03811684623360634,0.07863970100879669,-0.25654545426368713,-0.2618074417114258,-0.18073470890522003,0.06725316494703293,-0.1562562733888626,0.15383780002593994,0.03907567262649536,0.04270649701356888,0.008350326679646969,0.08381114155054092,-0.2058410346508026,-0.0854957327246666,-0.08455783128738403,-0.21211089193820953,0.06570633500814438,-0.15918628871440887,-0.13284018635749817,0.06598769128322601,-0.1788860410451889,0.1755256950855255,0.007323453668504953,0.16603362560272217,0.14650456607341766,0.029511868953704834,-0.13117431104183197,-0.08800429105758667,0.18847444653511047,-0.12819834053516388,0.006386356428265572,-0.20934493839740753,-0.15697339177131653,-0.04600978270173073,0.13973425328731537,-0.007802048698067665,0.018785644322633743,0.06259780377149582,-0.028789643198251724,-0.03976784646511078,-0.17114579677581787,-0.11569099128246307,-0.19900056719779968,-0.07670795172452927,0.07109439373016357,0.07965322583913803,-0.22984842956066132,0.019576700404286385,0.058678168803453445,-0.009865776635706425,-0.052611157298088074,0.017852606251835823,-0.13955429196357727,0.11626697331666946,-0.0053840745240449905,-0.18557865917682648,0.12127324193716049,0.13869236409664154,0.12479528039693832,0.005278122145682573,0.18798993527889252,-0.08298196643590927,0.01766951009631157,-0.036932095885276794,0.05304069072008133,-0.10158834606409073,-0.2093782275915146,0.2145588994026184,-0.07328234612941742,-0.026376871392130852,-0.1245623305439949,0.3422536253929138,-0.18963474035263062,-0.31763556599617004,0.12209681421518326,-0.2591400444507599,-0.12268275022506714,0.07280801981687546,0.11406199634075165,0.07596859335899353,0.09352467954158783,0.033029042184352875,0.24560751020908356,0.15372171998023987,-0.2430940866470337,-0.0841914564371109,-0.013277314603328705,-0.11938618123531342,0.03050561435520649,0.02272883988916874,0.21763348579406738,0.13763457536697388,0.045218851417303085,-0.11807771772146225,-0.029364312067627907,-0.051684971898794174,0.1433582454919815,0.10000569373369217,-0.25009697675704956,-0.2680368423461914,-0.05625912919640541,0.04901770129799843,0.22679503262043,-0.05297601968050003,-0.2879784107208252,-0.11514564603567123,-0.06698888540267944,-0.07226558029651642,0.0912720113992691,-0.07573937624692917,0.25363868474960327,0.21859757602214813,0.12136252969503403,0.1937190741300583,0.12629511952400208,0.46972811222076416,-0.1154349222779274,-0.12307115644216537,0.041982900351285934,-0.043058641254901886,-0.026384489610791206,-0.004678127821534872,-0.3146187365055084,-0.4283985197544098,-0.09233687072992325,0.10134682059288025,0.09686201065778732,-0.018666185438632965,-0.09094209223985672,-0.14188233017921448,-0.027085529640316963,0.18043747544288635,-0.007583825848996639,-0.0008126391912810504,0.07582414150238037,0.12201201915740967,-0.06834477186203003,-0.06748877465724945,0.032380957156419754,0.0733383446931839,0.03551408648490906,0.04206516593694687,0.07465403527021408,-0.009040909819304943,0.08997653424739838,-0.03662721812725067,-0.11726783215999603,-0.009894517250359058,-0.12896224856376648,0.03631797432899475,0.006535799708217382,-0.12341675907373428,-0.04155370965600014,-0.17872731387615204,-0.05913056805729866,0.069468654692173,-0.10261055082082748,0.00974500272423029,0.15761563181877136,-0.0670057162642479,-0.0010495622409507632,-0.004366826266050339,0.09879864007234573,0.21364577114582062,-0.21394608914852142,-0.10442004352807999,-0.23490075767040253,-0.05994010716676712,-0.05659453198313713,-0.3398335874080658,-0.12140403687953949,-0.25451019406318665,-0.1684674620628357,0.0785522535443306,-0.05437992513179779,0.1845347285270691,-0.14304903149604797,-0.14233171939849854,0.09081103652715683,0.03669438883662224,-0.17957697808742523,-0.048958852887153625,-0.021275127306580544,-0.10248024016618729,-0.2005438357591629,0.07371894270181656,-0.03673780709505081,0.14209406077861786,-0.012907091528177261,-0.0647268295288086,0.04295976832509041,-0.14727094769477844,0.11289116740226746,0.09912311285734177,-0.05193648859858513,-0.23846137523651123,-0.006932971533387899,0.1661503165960312,0.12448196113109589,0.19272340834140778,0.03550441935658455,0.012157028540968895,-0.028115924447774887,0.18018247187137604,0.021169206127524376,0.015861650928854942,-0.1394212394952774,-0.1708587110042572,-0.10352406650781631,0.0264195054769516,-0.07868064939975739,0.06151554733514786,0.15856793522834778,0.011465797200798988,0.0519709475338459,-0.23553402721881866,-0.39617905020713806,-0.09450525790452957,-0.1248336210846901,-0.5380324721336365,0.18856281042099,0.13400742411613464,-0.29785895347595215,-0.12194925546646118,-0.256265789270401,0.09375645220279694,-0.18447208404541016,0.06338055431842804,0.3687320351600647,-0.18155455589294434,-0.10763013362884521,-0.0353160984814167,0.021586637943983078,0.1456371396780014,0.09706443548202515,0.17533493041992188,-0.11469577252864838,-0.023214852437376976,-0.3692447245121002,-0.34530720114707947,0.008496636524796486,-0.3531561493873596,-0.03679346293210983,0.1042747050523758,-0.05725463107228279,0.31405970454216003,0.07064687460660934,0.26660096645355225,0.40710994601249695,0.16001132130622864,-0.20781870186328888,0.10899069905281067,0.024706730619072914,-0.06823369115591049,-0.03127669543027878,-0.06288144737482071,0.15396051108837128,0.14804483950138092,0.17922718822956085,0.11355338990688324,0.1831391304731369,0.17282208800315857,0.1541033685207367,0.13839071989059448,0.08235929161310196,-0.25986289978027344,-0.038892947137355804,-0.11936471611261368,-0.2694661021232605,0.08878365159034729,-0.17652219533920288,0.20744508504867554,0.08842332661151886,-0.1773078441619873,-0.010901913978159428,0.1249893382191658,0.2398301362991333,0.1310969591140747,-0.12526334822177887,-0.019090652465820312,0.22794780135154724,-0.08184339106082916,0.13848410546779633,-0.1073363795876503,-0.07072776556015015,-0.12575502693653107,0.18157954514026642,-0.05239488556981087,0.06911098957061768,-0.01092252042144537,0.06966643780469894,-0.08479150384664536,0.16043895483016968,-0.006037360057234764,-0.4048399329185486,0.05509234592318535,-0.1079828292131424,-0.1201295480132103,-0.1750529408454895,-0.18518535792827606,-0.2664106786251068,-0.026084573939442635,-0.0006328374147415161,-0.11108723282814026,-0.10299569368362427,-0.029149435460567474,0.27880966663360596,0.051356881856918335,0.04682716727256775,0.09564696997404099,0.32266589999198914,-0.08907323330640793,-0.046352535486221313,0.1590445190668106,0.015399659052491188,0.2717243432998657,0.17997530102729797,-0.12131892889738083,-0.04114528000354767,0.26393526792526245,-0.09078079462051392,-0.08063443005084991,-0.1562485694885254,0.08507416397333145,-0.12184133380651474,-0.16138938069343567,0.09926320612430573,-0.10032282024621964,0.18226027488708496,-0.03877991437911987,0.03234931081533432,-0.05388466268777847,-0.05162573233246803,0.06523823738098145,0.2425050139427185,-0.07539110630750656,0.10573181509971619,-0.000903647392988205,0.17876753211021423,0.045776207000017166,0.16091571748256683,0.05596887320280075,-0.016989825293421745,-0.2960737347602844,-0.11512190848588943,-0.043473873287439346,-0.002480263588950038,-0.07256442308425903,0.16239656507968903,0.06428873538970947,-0.09943067282438278,0.17181909084320068,-0.24371489882469177,0.019941560924053192,0.09480442851781845,-0.08935391902923584,0.024790113791823387,0.04962453991174698,0.3156985938549042,-0.11376354843378067,0.01754431240260601,0.04903470724821091,-0.2171505093574524,-0.2910652160644531,-0.026375191286206245,0.015758350491523743,0.016491936519742012,0.012710239738225937,-0.1108642965555191,0.16793256998062134,0.18464809656143188,-0.10949313640594482,0.20486867427825928,-0.12136667221784592,0.0030137046705931425,-0.15574359893798828,0.07678159326314926,-0.08340199291706085,0.14501675963401794,-0.03338751941919327,0.06427092850208282,-0.17314672470092773,-0.22054465115070343,-0.06577277183532715,0.07745840400457382,-0.02008003368973732,-0.16102533042430878,0.0009701189701445401,0.023874523118138313,-0.014285891316831112,-0.2979971766471863,0.1906803548336029,0.06154468283057213,-0.2699313163757324,-0.4157453179359436,-0.04908176138997078,-0.09677300602197647,0.052313003689050674,0.01489465031772852,0.03221266344189644,0.27121949195861816,0.051339611411094666,0.0943823754787445,0.23958250880241394,0.050091683864593506,-0.07748527824878693,0.26194098591804504,-0.10165061056613922,0.1159651055932045,0.0473954863846302,-0.09928090870380402,-0.19621089100837708,0.11237182468175888,0.20283421874046326,-0.0020591411739587784,-0.07984749227762222,0.10603756457567215,0.018949661403894424,-0.02468014694750309,0.023724984377622604,0.7127997279167175,0.004335185047239065,0.16994625329971313,0.0039568315260112286,0.41484543681144714,9.675020919530652e-06,-0.956089437007904,0.017021751031279564,-0.5748290419578552,0.04131899029016495,0.15099211037158966,0.06297124922275543,0.19604036211967468,0.00816911831498146,-0.22564257681369781,0.006506826262921095,0.399018794298172,-0.0010559462243691087,0.5143464207649231,-0.006230796687304974,-0.8850580453872681,-0.034553516656160355,0.276803582906723,-0.05506419017910957,-0.28964632749557495,-0.007642221171408892,-0.6781747341156006,0.05190122872591019,-0.018883783370256424,-0.006256617605686188,-0.31948715448379517,-0.005829102825373411,-0.12789037823677063,-0.319725900888443,0.10372787714004517,-0.1252449005842209,0.03691587597131729,0.156637042760849,-0.055155519396066666,-0.1807735413312912,-0.2281038612127304,0.03785520792007446,-0.09181995689868927,-0.030670592561364174,-0.00788852758705616,-0.03381088003516197,0.23175613582134247,-0.1090635359287262,-0.01604325696825981,-0.20771944522857666,0.06876811385154724,-0.1373768299818039,0.0009165626252070069,-0.14880390465259552,0.2480434775352478,-0.15965330600738525,-0.08736244589090347,0.01095568761229515,-0.1543021947145462,0.08119284361600876,-0.02617737464606762,0.08443894982337952,0.11108221858739853,0.16356384754180908,0.05500306934118271,0.2462853342294693,-0.0730496495962143,-0.16417428851127625,0.04133982956409454,-0.1636999547481537,-0.23282773792743683,0.16050603985786438,0.4299478828907013,-0.08533880859613419,-0.016820309683680534,-0.11642248183488846,0.15529121458530426,-0.1318676769733429,-0.06880353391170502,0.11082978546619415,-0.2382602095603943,0.11629872769117355,-0.1483699530363083,0.18782031536102295,0.2583792209625244,0.07209247350692749,0.32433876395225525,0.13555455207824707,-0.1610564887523651,-0.05144333466887474,-0.004371935967355967,-0.21073417365550995,0.2485809326171875,0.15301737189292908,0.06452023237943649,-0.22989004850387573,0.1405361145734787,-0.07067674398422241,0.029957188293337822,0.15626569092273712,-0.010256472043693066,-0.13426494598388672,-0.037966277450323105,-0.17361149191856384,0.2963807284832001,0.21204863488674164,0.1114630475640297,0.27246737480163574,-0.12139342725276947,-0.2681838274002075,-0.32323509454727173,-0.018888503313064575,-0.31112927198410034,0.04933127388358116,0.10985629260540009,0.16890865564346313,-0.09359969943761826,-0.05116661638021469,0.012849001213908195,0.0036464594304561615,0.2247302532196045,-0.0005012975307181478,-0.31697309017181396,0.23491749167442322,0.084351547062397,-0.09953434020280838,-0.31483861804008484,0.15176738798618317,-0.12239066511392593,-0.19936972856521606,-0.23312871158123016,-0.04008791595697403,-0.04305567964911461,-0.26345154643058777,0.23973067104816437,0.07500076293945312,-0.32021477818489075,0.030375991016626358,0.0308174267411232,0.03182576596736908,0.0702582374215126,0.06651154160499573,0.10960417240858078,-0.22456538677215576,-0.19159172475337982,0.25188398361206055,-0.2292536050081253,0.10960008203983307,0.07985477894544601,-0.1437019258737564,-0.2093219757080078,0.2889177203178406,-0.027689797803759575,-0.19528277218341827,0.045280106365680695,0.0619419626891613,-0.35117554664611816,0.16143102943897247,0.326219379901886,-0.07091497629880905,-0.2994339168071747,-0.01804392784833908,-0.1018403172492981,-0.060060981661081314,0.11760122328996658,-0.11278697848320007,-0.17029845714569092,-0.11009145528078079,-0.08549728989601135,-0.014115283265709877,-0.1454978734254837,-0.07100918143987656,0.1888309121131897,0.10343063622713089,-0.07364057749509811,0.08245613425970078,0.005481604021042585,0.15599210560321808,0.17431771755218506,0.08762679249048233,-0.18095076084136963,-0.23382100462913513,-0.12217830866575241,0.05254770442843437,-0.1023978739976883,-0.12521259486675262,0.12722215056419373,-0.1645161211490631,0.3672386705875397,-0.1896154135465622,0.19991976022720337,0.137552410364151,-0.055124230682849884,0.07122375071048737,-0.34102562069892883,-0.2415183186531067,-0.11158688366413116,0.07822254300117493,0.035278018563985825,-0.17618416249752045,0.11244148761034012,0.0034206826239824295,-0.12953083217144012,-0.044384345412254333,-0.289719820022583,0.18501359224319458,0.14261677861213684,-0.18380534648895264,0.08189453184604645,0.003671961138024926,-0.21550431847572327,-0.10770361125469208,-0.12826141715049744,-0.33089321851730347,0.0934089943766594,-0.0033714661840349436,-0.13000698387622833,0.05694327875971794,0.2873438894748688,0.31650543212890625,-0.28494352102279663,0.20389564335346222,-0.17053665220737457,-0.10756358504295349,0.15398673713207245,0.18827030062675476,0.22006933391094208,0.09471894800662994,-0.13813740015029907,0.15509657561779022,-0.23304657638072968,0.08875235915184021,0.12123292684555054,0.1591866910457611,-0.1441396325826645,-0.0004541192320175469,-0.2868945002555847,0.20297466218471527,-0.04125676304101944,-0.08334583044052124,-0.06115870177745819,0.09478917717933655,-0.09119267761707306,0.13993151485919952,0.008711048401892185,0.03903552517294884,-0.22508668899536133,0.1826305240392685,-0.13885940611362457,0.2638859748840332,0.23398137092590332,-0.07794789224863052,-0.3449782133102417,-0.06844066828489304,-0.0030727307312190533,-0.057647623121738434,0.2430993765592575,-0.10308462381362915,0.14309048652648926,0.08680335432291031,-0.26559701561927795,-0.0337313674390316,0.14119206368923187,-0.13906560838222504,-0.12994976341724396,-0.009929623454809189,-0.22413420677185059,-0.06019214168190956,0.08121895045042038,-0.11460242420434952,-0.1120072677731514,0.14939816296100616,0.03947247192263603,0.16477379202842712,-0.31372126936912537,-0.14408676326274872,-0.12140197306871414,0.21753506362438202,0.2559341490268707,-0.09423114359378815,-0.3802346885204315,-0.1540360003709793,-0.32765188813209534,-0.17818120121955872,-0.34802305698394775,-0.0006091965478844941,0.015865514054894447,-0.10891260951757431,-0.20445561408996582,0.022314665839076042,0.18330730497837067,-0.04178570210933685,-0.0589376762509346,0.05182982236146927,0.0025381995365023613,0.04195289686322212,-0.18972264230251312,0.09557466953992844,0.1645454466342926,0.03972829878330231,0.11569912731647491,-0.12877976894378662,-0.0872100219130516,0.035694949328899384,0.05591242387890816,-0.006055337376892567,-0.05128955468535423,-0.2315632402896881,-0.03406287357211113,-0.1402396261692047,-0.0805206447839737,-0.05347543582320213,-0.11313571035861969,0.025119280442595482,0.14266476035118103,0.044765371829271317,0.0856999009847641,0.028455903753638268,-0.024154549464583397,0.10784337669610977,-0.06171493977308273,0.20122045278549194,-0.026399118825793266,-0.05633746460080147,-0.01770193688571453,0.1527768224477768,0.1913757473230362,-0.14969830214977264,0.012417160905897617,-0.07767835259437561,0.016240030527114868,0.11861315369606018,-0.13504928350448608,0.1459326148033142,0.200554758310318,0.13805922865867615,-0.2551754415035248,-0.028077898547053337,-0.012645512819290161,-0.05862107872962952,0.03103793039917946,0.08439908176660538,-0.0496261827647686,-0.06244692951440811,-0.09397757798433304,-0.2449612319469452,0.010757013224065304,-0.15263479948043823,0.20060086250305176,-0.03734154254198074,0.07398349046707153,0.07108119130134583,0.008951786905527115,-0.03672119975090027,0.24741265177726746,0.2353554517030716,0.02139950543642044,0.04647780954837799,-0.04274255037307739,0.010785391554236412,0.09071220457553864,-0.0871000587940216,0.06045388802886009,0.07678333669900894,0.048402924090623856,0.07053592801094055,0.016484327614307404,0.04353063181042671,0.026527680456638336,-0.12262526899576187,-0.11748148500919342,0.11427032947540283,0.2198822945356369,-0.18025563657283783,-0.1794114112854004,-0.26165977120399475,-0.03776564076542854,0.079832524061203,0.17015749216079712,-0.05199151113629341,0.01176702231168747,-0.16565732657909393,0.04644181206822395,-0.1452474147081375,0.16108913719654083,-0.12621773779392242,-0.10739606618881226,-0.03658468648791313,0.03319257125258446,-0.06765037775039673,0.1662801057100296,0.012567050755023956,-0.0773967057466507,0.18940140306949615,0.17280784249305725,0.07193581759929657,-0.18954607844352722,-0.05015062913298607,-0.15655623376369476,-0.13733521103858948,0.031906746327877045,0.07112084329128265,0.16530804336071014,0.23871953785419464,0.3710610568523407,0.47165435552597046,-0.16216027736663818,-0.052666861563920975,0.15890923142433167,-0.038234222680330276,0.08811850845813751,0.006412371527403593,-0.019199492409825325,-0.04552759602665901,-0.17542807757854462,-0.016480546444654465,0.017104580998420715,0.0753687247633934,-0.16325311362743378,-0.2796591818332672,-0.1842399686574936,-0.2011314481496811,-0.23300200700759888,-0.4977857768535614,0.05802459269762039,-0.047134123742580414,0.06166685000061989,-0.00355029315687716,-0.1315227895975113,0.23411990702152252,0.0598541796207428,0.030534369871020317,-0.11577440798282623,-0.10675205290317535,0.08876404166221619,-0.018569186329841614,-0.001154329627752304,0.028251033276319504,0.13122983276844025,0.03015805035829544,0.05720303952693939,0.17061425745487213,0.08053013682365417,0.015510911121964455,0.07041871547698975,-0.003050036495551467,-0.1643790453672409,-0.32799315452575684,-0.17657144367694855,-0.046162571758031845,-0.03590898588299751,0.0845646858215332,0.244766965508461,0.11986976116895676,0.05276067554950714,0.24207231402397156,0.2594197392463684,-0.06145494803786278,-0.21745115518569946,0.030649814754724503,-0.10445929318666458,-0.1189468502998352,0.005243517924100161,0.06894704699516296,-0.1138741672039032,0.1755930781364441,0.1321290284395218,-0.0010313079692423344,0.20270653069019318,0.055352672934532166,0.0934765413403511,-0.21140915155410767,-0.09236099570989609,-0.049601536244153976,0.08851572871208191,-0.18766744434833527,-0.1462118923664093,0.13550269603729248,0.07953675836324692,0.036448318511247635,-0.1465585082769394,-0.014877830632030964,0.09604708105325699,-0.21933548152446747,0.21368440985679626,-0.020697452127933502,-0.20189496874809265,-0.10813713818788528,-7.712737715337425e-05,-0.15471316874027252,0.07486898452043533,-0.07342703640460968,-0.05864706635475159,0.1788310706615448,-0.0033006654120981693,-0.2699817419052124,-0.02378719113767147,-0.010019361041486263,0.11149391531944275,-0.18212629854679108,-0.18808366358280182,0.1898343861103058,0.07694889605045319,-0.037171829491853714,0.322806715965271,-0.1322045773267746,0.20454436540603638,0.04915706068277359,0.07970559597015381,0.018605854362249374,0.038592495024204254,0.11668848246335983,-0.034464940428733826,-0.09832796454429626,0.1186724528670311,-0.03903700411319733,-0.10181684792041779,0.27260759472846985,0.06493593752384186,-0.17226772010326385,0.016526315361261368,0.04444218426942825,0.1416345089673996,0.10984297841787338,0.03510468080639839,0.21687041223049164,-0.08377157896757126,0.04423947632312775,-0.2037055641412735,0.1291738897562027,-0.03051753155887127,-0.11350247263908386,-0.17075827717781067,0.06325818598270416,-0.04366753622889519,0.041092634201049805,0.0959184542298317,-0.08909798413515091,-0.11344806849956512,-0.11358568072319031,0.07068748772144318,-0.19053344428539276,-0.056282803416252136,0.06615743786096573,-0.16373062133789062,0.09230140596628189,-0.29294276237487793,0.05162309855222702,0.3258829712867737,-0.25376084446907043,0.1368652582168579,0.01001567579805851,-0.15438251197338104,-0.11757792532444,-0.010193688794970512,-0.07762221992015839,-0.12506422400474548,-0.12501260638237,-0.18694955110549927,-0.03460535779595375,-0.15323413908481598,-0.016156086698174477,0.19043970108032227,0.1098264679312706,0.047672562301158905,-0.3208831548690796,-0.08942721784114838,0.30199888348579407,-0.11871541291475296,-0.153115913271904,-0.005189964082092047,-0.024277938529849052,0.031908068805933,-0.1489127278327942,0.08546610176563263,0.08935721963644028,-0.020929474383592606,-0.17947061359882355,0.059426769614219666,0.2423923909664154,0.1718573272228241,0.04568910598754883,-0.03253120556473732,-0.15215864777565002,-0.010546582750976086,0.11294591426849365,0.1558905988931656,0.11822794377803802,-0.24534191191196442,0.13288623094558716,0.04952586442232132,-0.1902826875448227,-0.13865596055984497,0.07409919798374176,-0.050763893872499466,0.19706955552101135,0.19443854689598083,-0.20744018256664276,-0.06379977613687515,-0.135454460978508,-0.1607557237148285,-0.09511003643274307,-0.13816238939762115,0.06286187469959259,0.1375366598367691,0.18074069917201996,-0.12072243541479111,0.14524176716804504,0.17216749489307404,0.03120075725018978,-0.0009779981337487698,0.09666051715612411,0.08144370466470718,-0.2086959034204483,-0.10872400552034378,0.056888677179813385,-0.10920993983745575,-0.11697899550199509,0.1587255895137787,0.03736945241689682,0.19042854011058807,-0.08397644758224487,-0.16672296822071075,-0.017245572060346603,-0.037717994302511215,0.049201108515262604,-0.07392831891775131,0.15871629118919373,-0.037948500365018845,0.15840984880924225,0.22762447595596313,0.013030067086219788,0.03440333530306816,0.15372242033481598,0.005143490619957447,-0.05095009133219719,-0.0603000670671463,0.13436996936798096,0.0023756336886435747,-0.038594458252191544,0.1405918449163437,0.007346821948885918,0.28637778759002686,-0.1843281388282776,-0.20048002898693085,0.11488006263971329,0.14032071828842163,-0.13102440536022186,0.2258175015449524,0.167349174618721,0.14770612120628357,-0.03815798833966255,-0.05084008350968361,-0.18086811900138855,0.08014744520187378,-0.11219917982816696,-0.08963067084550858,0.09251177310943604,-0.04311695322394371,0.006502360571175814,-0.18736886978149414,0.22340941429138184,-0.0029040337540209293,-0.15188102424144745,-0.012338662520051003,0.07555906474590302,0.018662765622138977,-0.03561742603778839,0.01836991496384144,0.06280627101659775,-0.032798539847135544,0.033875852823257446,0.04550381377339363,-0.07585082948207855,-0.11589238792657852,0.26280322670936584,0.0668577030301094,-0.039824146777391434,-0.08018749207258224,0.04293186217546463,0.0792979747056961,-0.2135917693376541,-0.08909851312637329,-0.1994030624628067,0.0879753828048706,-0.1047772467136383,0.01216597855091095,0.2341218739748001,0.17266754806041718,-0.018723202869296074,-0.0946730300784111,-0.017940394580364227,-0.10370423644781113,-0.0732031911611557,0.015424252487719059,-0.140431210398674,0.1768922209739685,-0.11047772318124771,-0.02752912975847721,-0.17290745675563812,0.08299805968999863,-0.11348938196897507,0.2653939127922058,-0.01242116093635559,-0.11087416857481003,0.26657500863075256,-0.018576033413410187,-0.12446416914463043,-0.11887877434492111,0.17097531259059906,-0.28405749797821045,-0.17325501143932343,0.09822148829698563,-0.008667330257594585,-0.03779759630560875,-0.04958157613873482,-0.14592766761779785,0.21842938661575317,0.03341526538133621,0.07937163859605789,0.028756462037563324,0.009571278467774391,0.016418317332863808,-0.15176552534103394,0.10152804106473923,0.13768361508846283,-0.030535733327269554,-0.00037871493259444833,0.09644831717014313,0.006079708691686392,-0.15704111754894257,-0.112653449177742,-0.04476367309689522,-0.23268361389636993,-0.04061214625835419,0.11515543609857559,-0.003589039668440819,-0.25771862268447876,-0.17075712978839874,-0.008340718224644661,0.04755384474992752,-0.1323876827955246,0.13094070553779602,0.3948431611061096,-0.055507782846689224,0.025669289752840996,-0.0031179042998701334,-0.18045319616794586,-0.027194419875741005,-0.13282537460327148,-0.17120085656642914,0.09600349515676498,0.1914747655391693,0.04615526646375656,0.06132977083325386,0.18008531630039215,0.03173799440264702,0.07579547166824341,0.2566402852535248,0.12990695238113403,0.008988993242383003,0.1650409698486328,0.11126979440450668,-0.04681747779250145,-0.24426238238811493,-0.2534080743789673,0.04626850783824921,0.19707930088043213,0.0979030504822731,-0.040196143090724945,0.015161694027483463,-0.24933865666389465,0.022270742803812027,