{"version":"0.5.4","metadata":{"date":"2026-05-27T15:59:17","sample_rate":48000,"loudness":-21.31212615966797,"training_esr":0.019982096826806846,"pretrained":"Phoenix Pre 5 Tone 1.nam","architecture":"STANDARD","input_level_dbu":22.5,"output_level_dbu":6.4},"architecture":"WaveNet","config":{"layers":[{"input_size":2,"condition_size":2,"channels":16,"head_size":8,"kernel_size":3,"dilations":[1,2,4,8,16,32,64,128,256,512],"activation":"Tanh","gated":false,"head_bias":false},{"input_size":16,"condition_size":2,"channels":8,"head_size":1,"kernel_size":3,"dilations":[1,2,4,8,16,32,64,128,256,512],"activation":"Tanh","gated":false,"head_bias":true}],"head":null,"head_scale":0.02,"rate_condition_hidden":16,"rate_condition_num_biases":240},"weights":[-0.04006490111351013,0.09972262382507324,0.7964327931404114,0.0691659078001976,-0.8819471001625061,-0.03146136552095413,-0.8236426115036011,0.07093346118927002,-0.6467741131782532,-0.04804575443267822,0.2676524519920349,-0.066975899040699,-0.12304601073265076,0.024388939142227173,0.8708557486534119,0.0010899322805926204,-0.12867645919322968,0.06426122784614563,0.3737729489803314,-0.011360345408320427,-0.3001483380794525,0.02385788783431053,-0.18235653638839722,0.12469834834337234,-1.1448862552642822,-0.017585640773177147,-0.6902216076850891,-0.0007208992028608918,-0.58415287733078,-0.019943611696362495,0.061736393719911575,-0.06976176053285599,0.11954035609960556,0.2303197979927063,-0.0456949807703495,-0.056299563497304916,0.037005435675382614,0.10788536816835403,-0.024280667304992676,0.13188058137893677,-0.00021499210561159998,0.024335619062185287,0.16037778556346893,-0.10835057497024536,-0.08838336169719696,-0.014027051627635956,-0.034031499177217484,0.08258994668722153,-0.15527203679084778,-0.12080278992652893,-0.06966015696525574,-0.050116486847400665,-0.05127548798918724,0.1251356303691864,0.04561486467719078,0.05351657420396805,0.07013965398073196,0.022055383771657944,0.09165287017822266,-0.14656764268875122,-0.14035677909851074,-0.10102956742048264,0.10694926977157593,0.12079581618309021,-0.033040259033441544,0.06050127372145653,0.1831931471824646,0.21672630310058594,0.055233631283044815,0.03755957633256912,0.1125166267156601,-0.08241811394691467,0.049877751618623734,-0.09247592091560364,-0.09445352107286453,-0.04766734316945076,0.08917459100484848,-0.01819193921983242,-0.1957564651966095,-0.03823358193039894,0.2787129580974579,0.22993414103984833,0.05117316171526909,-0.11394362151622772,-0.10255104303359985,0.11007368564605713,0.03424072265625,0.1355646848678589,0.09175379574298859,0.2717323899269104,0.3183560371398926,0.1653280258178711,0.1836165338754654,0.07054222375154495,0.044490352272987366,-0.2509255111217499,-0.3322017192840576,0.07955484837293625,0.2757294774055481,0.07285378128290176,0.04986358806490898,-0.17045031487941742,-0.2129301130771637,-0.10032960027456284,0.23219084739685059,0.13330519199371338,0.10541345179080963,-0.08406645804643631,-0.09792717546224594,0.016604619100689888,0.00891296286135912,0.09925451874732971,0.1128513440489769,0.20278264582157135,0.09788566827774048,-0.0263786893337965,0.2829414904117584,0.28769272565841675,-0.029631704092025757,0.11072429269552231,0.053267545998096466,0.03249046951532364,0.04479076713323593,0.08395636826753616,0.023810170590877533,-0.1774408519268036,-0.29256367683410645,0.023248856887221336,-0.14927825331687927,-0.1861533522605896,0.10496186465024948,0.002107026753947139,0.2838764786720276,0.09747473895549774,-0.08847758919000626,-0.2633529305458069,-0.023960590362548828,-0.07721595466136932,-0.3577479422092438,0.013623731210827827,-0.26458069682121277,-0.4104120135307312,-0.12831297516822815,-0.008861159905791283,0.22007188200950623,-0.08889925479888916,-0.10675186663866043,-0.2817971408367157,-0.11707854270935059,0.09208815544843674,0.39556077122688293,0.05505456030368805,-0.05284934490919113,-0.2966105043888092,0.01818079873919487,0.1831207424402237,0.43255576491355896,0.14741207659244537,0.05957561731338501,-0.2888508141040802,-0.17699240148067474,-0.12037636339664459,-0.17164607346057892,-0.012643182650208473,-0.17761722207069397,-0.4089297652244568,-0.21041394770145416,-0.22021590173244476,-0.3205840289592743,0.011086766608059406,-0.030498864129185677,-0.44691458344459534,0.015200700610876083,-0.05082224681973457,0.26858484745025635,-0.04948096349835396,0.03140611946582794,0.09871697425842285,-0.19869928061962128,-0.1690523773431778,-0.1273682415485382,0.06735127419233322,-0.022900428622961044,0.15660105645656586,-0.19174206256866455,0.03687706217169762,0.2341308742761612,-0.11867526918649673,0.17321796715259552,0.15516705811023712,-0.19895607233047485,0.041199587285518646,-0.12782686948776245,-0.01229094062000513,0.16543477773666382,-0.0004775380657520145,-0.05594557896256447,-0.07458843290805817,-0.0018084420589730144,0.10067082196474075,0.1249062567949295,0.17151568830013275,-0.0901842713356018,-0.07584895193576813,-0.2267410308122635,0.1430092453956604,0.15940672159194946,0.2042895406484604,-0.16086779534816742,0.06443317234516144,0.017575617879629135,-0.12742143869400024,-0.039425328373909,0.15429747104644775,-0.14738249778747559,0.041104353964328766,0.1109478771686554,0.032012179493904114,-0.06446127593517303,0.005933449137955904,-0.1505414992570877,0.04995378106832504,-0.16065676510334015,0.1845582127571106,0.06204790621995926,-0.0367639996111393,0.09023269265890121,-0.07132303714752197,0.007544894237071276,-0.14635294675827026,0.03084941953420639,0.02362741529941559,-0.012452448718249798,-0.044762495905160904,0.11921171844005585,-0.015788067132234573,0.026920007541775703,0.14592750370502472,0.16003850102424622,-0.004732375033199787,-0.10802838951349258,-0.009242729283869267,-0.07521796971559525,-0.05725862830877304,0.06359781324863434,-0.05793987587094307,-0.008319965563714504,0.01279030553996563,0.021013690158724785,0.09315124899148941,0.16940289735794067,-0.12263699620962143,0.06539278477430344,-0.2071489542722702,-0.03558754175901413,0.04241152107715607,0.143983855843544,0.10744776576757431,-0.08215298503637314,0.07244706898927689,0.11230840533971786,-0.12960030138492584,0.21243448555469513,-0.08458810299634933,0.009284933097660542,0.0801808312535286,-0.04026208445429802,0.02085924707353115,0.2260853499174118,-0.036593448370695114,-0.032658498734235764,-0.12383205443620682,-0.14362098276615143,-0.17445704340934753,-0.1707458645105362,-0.22705836594104767,-0.01921715773642063,0.0789576843380928,0.19455574452877045,0.04530985280871391,0.05114760622382164,0.06550832092761993,-0.11349315941333771,0.03749965503811836,0.24166171252727509,-0.03530183061957359,-0.07490736991167068,-0.14222140610218048,-0.027204161509871483,0.06809311360120773,-0.01444508507847786,-0.28334102034568787,0.0824543833732605,-0.21883076429367065,0.044714298099279404,0.036634411662817,0.0429726168513298,-0.2616734802722931,-0.18627676367759705,0.00654020719230175,0.10972036421298981,0.13038575649261475,0.05762312188744545,-0.03610781580209732,-0.042728785425424576,0.03135943412780762,-0.24068769812583923,-0.020259685814380646,0.1716192066669464,-0.06522051990032196,-0.02827082760632038,0.03118322230875492,0.034024178981781006,-0.10604401677846909,0.1774241328239441,-0.12531165778636932,-0.07639865577220917,0.014498870819807053,0.12837441265583038,0.1367732286453247,-0.11293376237154007,-0.35118579864501953,0.14347697794437408,0.34927189350128174,0.3938879072666168,0.04590969160199165,-0.38719186186790466,-0.3354201316833496,-0.004037659615278244,-0.2935878336429596,-0.23532894253730774,0.07200043648481369,-0.36614665389060974,-0.33968386054039,-0.004813225939869881,0.20742781460285187,0.2598104774951935,-0.0037712198682129383,-0.3237198293209076,-0.2715667486190796,0.1358223259449005,0.3894886076450348,0.39076632261276245,0.06307248026132584,-0.09942451119422913,-0.30695971846580505,-0.050335146486759186,0.12234746664762497,0.44436565041542053,0.11524974554777145,-0.33045774698257446,-0.22242236137390137,0.09357144683599472,-0.01297273300588131,-0.09456921368837357,0.18220584094524384,-0.29929104447364807,-0.3639889061450958,0.06978388130664825,-0.17586326599121094,-0.39072540402412415,0.08860471099615097,-0.19979986548423767,-0.24168257415294647,-0.13652877509593964,0.2003149390220642,0.18468669056892395,0.023468470200896263,-0.14518409967422485,-0.10512201488018036,0.11713854223489761,0.1577502340078354,0.05913061648607254,-0.028211431577801704,-0.1936834752559662,-0.07171189039945602,-0.006508990190923214,-0.23874284327030182,-0.22576124966144562,0.2034454047679901,-0.016895251348614693,0.029376495629549026,0.21817511320114136,-0.02823845110833645,0.015945976600050926,-0.1054774820804596,-0.1950743943452835,-0.03325006738305092,-9.030936053022742e-05,0.024164285510778427,-0.0320168100297451,-0.1723303198814392,0.008744018152356148,-0.015134488232433796,0.1850862056016922,0.20642606914043427,0.24046917259693146,-0.13241006433963776,-0.03172418102622032,0.01957707293331623,0.1357954740524292,0.032550618052482605,-0.05464467033743858,0.16143451631069183,-0.14552350342273712,-0.038536109030246735,0.10858050733804703,-0.12860624492168427,-0.1891748309135437,0.009047378785908222,-0.20695078372955322,-0.01190527155995369,0.20129069685935974,0.0967978909611702,0.05142610892653465,0.02570638805627823,-0.06670960783958435,-0.22707384824752808,-0.12355690449476242,0.13009218871593475,0.10238383710384369,-0.18200655281543732,0.13170070946216583,0.05998282879590988,0.006710117217153311,0.06806838512420654,-0.13992610573768616,0.03230494633316994,0.11250568926334381,-0.050128042697906494,-0.040714364498853683,0.015528093092143536,0.07041667401790619,-0.03287917748093605,-0.07905282080173492,-0.021582381799817085,0.005141480825841427,-0.09065935015678406,0.050474610179662704,0.0016068447148427367,-0.03907671198248863,-0.3008812665939331,-0.05553589016199112,-0.08107057213783264,0.013207734562456608,0.005462836939841509,-0.12652170658111572,-0.015115710906684399,0.165695920586586,-0.09580838680267334,-0.25431182980537415,-0.08173952251672745,0.03280150145292282,-0.1537148654460907,0.14006933569908142,-0.13528767228126526,-0.18790410459041595,-0.07764896005392075,-0.042733266949653625,0.03708499297499657,-0.0783371850848198,0.2605727016925812,0.1440894901752472,0.09660890698432922,-0.07263174653053284,-0.31529808044433594,0.14303863048553467,0.060648269951343536,0.18783076107501984,-0.006428023800253868,-0.08932830393314362,0.06842748820781708,0.07064007222652435,0.06717387586832047,-0.17695364356040955,0.017378229647874832,-0.13454784452915192,-0.10886016488075256,0.10252178460359573,-0.07805900275707245,0.1407429426908493,0.051705751568078995,-0.012192600406706333,-0.2150772660970688,-0.05498775839805603,-0.055732183158397675,0.1113957017660141,0.07240288704633713,0.020876845344901085,-0.15096372365951538,0.06426659226417542,-0.1353197991847992,-0.053221289068460464,0.007257902063429356,-0.08879894018173218,0.0024698113556951284,-0.04938282072544098,-0.13634663820266724,-0.24906741082668304,0.07827116549015045,-0.0028255360666662455,0.06338479369878769,0.16110840439796448,0.08669466525316238,-0.04832589253783226,0.021472664549946785,-0.028717193752527237,-0.039010804146528244,0.13831478357315063,-0.018634876236319542,0.2760153114795685,-0.01931590586900711,0.05982856824994087,-0.06523000448942184,0.05563819408416748,0.01568404585123062,-0.10663390904664993,0.2186248004436493,0.19152268767356873,0.07062752544879913,0.02089667320251465,0.04668561741709709,0.03312822803854942,-0.03981510549783707,0.07820923626422882,0.023549675941467285,-0.15665580332279205,-0.05315277352929115,-0.049617305397987366,0.021839525550603867,0.19522342085838318,0.05246880277991295,-0.15205110609531403,-0.10532031208276749,0.10095307976007462,0.08945856988430023,0.20260119438171387,-0.021790431812405586,-0.0224778950214386,-0.23205827176570892,-0.07037800550460815,0.027551935985684395,0.2610245645046234,-0.043320801109075546,-0.089867003262043,0.0876239761710167,0.16261570155620575,0.07282982766628265,0.009141292423009872,-0.13649486005306244,-0.216192364692688,0.11877651512622833,-0.05274342745542526,-0.1962418556213379,0.07156708836555481,0.006871073506772518,-0.18497495353221893,-0.1354047805070877,-0.052055489271879196,-1.4563796867150813e-05,-0.09344010055065155,-0.056789860129356384,-0.14437226951122284,-0.034133803099393845,-0.0364123173058033,0.08088934421539307,-0.10827553272247314,-0.16459590196609497,0.18720737099647522,-0.07058563828468323,-0.007069917395710945,0.027158241719007492,-0.003565608523786068,-0.0640130415558815,0.1369341015815735,0.038352686911821365,-0.05669921636581421,-0.07634695619344711,-0.09878053516149521,-0.03461508825421333,-0.09602933377027512,0.09849300980567932,-0.014146318659186363,-0.08032676577568054,0.0376402772963047,-0.05885554105043411,0.08573010563850403,0.07489119470119476,0.004808337427675724,-0.12718522548675537,-0.0008915582438930869,0.07519304007291794,-0.019626155495643616,-0.20576509833335876,-0.06593170762062073,0.10139194875955582,-0.0030238833278417587,-0.13765236735343933,-0.07559968531131744,0.067155621945858,-0.035311516374349594,-0.024195192381739616,0.050877511501312256,0.01921539567410946,0.15728507936000824,0.21630370616912842,0.1353345513343811,-0.06517694145441055,0.05955349653959274,0.19043102860450745,0.31232091784477234,0.06682291626930237,-0.025013810023665428,0.07236907631158829,0.14700758457183838,0.0496983528137207,-0.049264270812273026,-0.0336754247546196,-0.172272190451622,0.22041787207126617,-0.04701630771160126,-0.14754462242126465,0.15431718528270721,-0.15289777517318726,-0.06312009692192078,-0.1557120531797409,0.11249302327632904,-0.1049749106168747,0.30963972210884094,-0.06265722215175629,0.1442531943321228,0.06277415156364441,0.20941178500652313,0.04786274954676628,0.3176526427268982,-0.02385641634464264,-0.010441407561302185,0.02998301573097706,0.0748080462217331,-0.19343967735767365,0.06021632254123688,0.025868523865938187,0.15047483146190643,0.15719957649707794,-0.13337670266628265,-0.1037469431757927,0.15311256051063538,0.045579854398965836,-0.039054181426763535,0.08498343080282211,0.07380593568086624,-0.11186300963163376,0.0267986711114645,-0.302481472492218,-0.17098796367645264,-0.1617734134197235,0.012850524857640266,0.21624693274497986,0.07776661217212677,-0.010192607529461384,-0.19280914962291718,0.17614471912384033,-0.06149383634328842,0.21662476658821106,-0.1478084921836853,-0.008001819252967834,0.18410974740982056,-0.0859285518527031,0.1441180408000946,0.004525961820036173,-0.1578710377216339,-0.10875777155160904,-0.10413539409637451,0.13364993035793304,-0.010677212849259377,0.20167919993400574,-0.03508814051747322,-0.05148804560303688,0.009138647466897964,-0.0774630457162857,0.08113215118646622,0.29401281476020813,-0.003818938974291086,0.08071918785572052,-0.15764936804771423,0.1412043571472168,-0.10858361423015594,0.08929694443941116,-0.04468217119574547,0.10905497521162033,0.20804785192012787,0.12676070630550385,-0.0012725205160677433,0.09163856506347656,0.06321743130683899,-0.016265306621789932,0.2262113243341446,-0.12826138734817505,0.008933010511100292,0.09721484035253525,0.03018537349998951,0.023770051077008247,-0.19264137744903564,-0.1467917114496231,0.04556166008114815,-0.04052820801734924,0.029590683057904243,-0.11865755170583725,0.113146111369133,0.13443692028522491,0.04031853377819061,-0.1556335985660553,0.10136742144823074,-0.0791420266032219,0.009380563162267208,0.019406406208872795,-0.03559563681483269,0.029547397047281265,-0.12596291303634644,0.008613071404397488,-0.059155575931072235,-0.002315105404704809,0.01668790727853775,0.06256833672523499,-0.08914658427238464,0.06323394924402237,0.0027166884392499924,-0.06960544735193253,-0.11545439809560776,-0.18260924518108368,0.1223239079117775,-0.06110209599137306,0.03631880506873131,0.04082392156124115,0.12292654812335968,0.09509053081274033,0.11027702689170837,-0.09108126163482666,-0.06599977612495422,-0.1020747646689415,-0.052982550114393234,0.013257219456136227,0.13727135956287384,-0.08806959539651871,0.0648559033870697,-0.0744941309094429,0.001997745130211115,0.09308667480945587,-0.028575118631124496,0.0047882795333862305,-0.04591049998998642,0.1440119594335556,-0.1384955495595932,-0.26019933819770813,-0.013407335616648197,-0.1509711593389511,-0.13654710352420807,-0.05484970286488533,0.14941798150539398,-0.03287404775619507,0.1147921234369278,0.15202559530735016,0.09614437073469162,-0.03304016590118408,0.018281087279319763,-0.03394624590873718,-0.06372043490409851,0.03381891921162605,0.1705867201089859,0.1376626342535019,-0.05299995094537735,-0.06661824882030487,-0.08245787024497986,0.06512651592493057,-0.07543353736400604,-0.15641207993030548,-0.05922837182879448,-0.026651227846741676,-0.18093807995319366,0.12273266911506653,0.07082807272672653,-0.12987737357616425,-0.021897487342357635,0.10612675547599792,-0.08656646311283112,-0.11233105510473251,-0.05469054728746414,-0.1735052913427353,0.12417292594909668,0.09232121706008911,0.1476954221725464,-0.05550055950880051,0.15210802853107452,-0.03554297238588333,0.17387637495994568,-0.13373389840126038,-0.08054131269454956,0.1935618817806244,0.1512795239686966,0.0771595910191536,-0.060995880514383316,-0.1188197135925293,-0.07660624384880066,-0.10530994832515717,0.04900253564119339,0.04351380467414856,-0.012662955559790134,-0.022060034796595573,0.11161847412586212,0.08581031113862991,-0.02155565656721592,0.046705249696969986,-0.053202565759420395,-0.043244943022727966,-0.06622552126646042,0.025827504694461823,0.4358622133731842,0.11059857904911041,-0.457893967628479,0.06483669579029083,0.8748923540115356,-0.003429708769544959,-0.6443236470222473,0.003316774731501937,-0.10662440210580826,-0.061445705592632294,0.8873569965362549,-0.07059074193239212,1.0476264953613281,0.05469006299972534,-0.6667672991752625,0.0007995333289727569,0.10143350064754486,-0.10775724798440933,0.04063846170902252,-0.0904836431145668,-0.36059170961380005,0.06812712550163269,-0.41288700699806213,-0.14675624668598175,0.23102843761444092,0.13479861617088318,-0.6571589708328247,0.058554720133543015,0.16092437505722046,-0.03944206237792969,0.36278045177459717,-0.11754608154296875,0.030606500804424286,0.2659582197666168,0.025076845660805702,0.1512986421585083,0.14554940164089203,-0.0301514845341444,0.1343831568956375,-0.1261410415172577,-0.1360819935798645,-0.17657333612442017,0.09616789221763611,-0.3410088121891022,0.22293461859226227,0.04219990223646164,0.06845087558031082,-0.1644112765789032,0.09326591342687607,-0.11770510673522949,-0.23571953177452087,0.04536746069788933,-0.04215116426348686,-0.10043221712112427,-0.1286192238330841,0.10360702872276306,0.011083638295531273,0.13770274817943573,-0.05031556636095047,-0.07941175997257233,0.19129320979118347,-0.1285894364118576,-0.0034674913622438908,0.07865999639034271,0.13676303625106812,0.07347241044044495,-0.0017927753506228328,0.19671912491321564,-0.2598247826099396,-0.15352672338485718,0.07109972089529037,-0.1577407568693161,-0.021844474598765373,-0.16038039326667786,0.1300903558731079,-0.3030165135860443,0.17112375795841217,0.256256103515625,0.06535332649946213,-0.0220439825206995,0.3093615472316742,-0.1456078737974167,-0.06699706614017487,-0.12239595502614975,-0.15439628064632416,0.033435236662626266,0.0030045616440474987,-0.050362031906843185,-0.2566061317920685,-0.11037325114011765,0.033344022929668427,-0.13771571218967438,0.24435955286026,0.22888343036174774,-0.15980753302574158,-0.10050582885742188,-0.17533138394355774,-0.16375203430652618,-0.22025857865810394,0.23529313504695892,0.2366875857114792,0.057502347975969315,0.1106349527835846,-0.14435076713562012,0.006169842556118965,0.21475882828235626,-0.2577221095561981,0.42668503522872925,-0.13229328393936157,0.23120026290416718,-0.19027765095233917,0.08664487302303314,-0.28080785274505615,0.009603523649275303,0.05857999995350838,0.10573433339595795,0.31393682956695557,0.2000684142112732,0.2207096964120865,0.12118767946958542,0.17825032770633698,-0.005394544918090105,-0.2996121346950531,0.07899270951747894,-0.20607972145080566,-0.1072196289896965,0.0984610915184021,0.2245490401983261,0.10946156084537506,0.1329299807548523,0.23934529721736908,0.2094605714082718,-0.23643532395362854,-0.1584436446428299,0.1200144812464714,-0.09467750787734985,-0.027268022298812866,-0.3551912307739258,-0.15825921297073364,0.028012273833155632,0.15161757171154022,-0.12973031401634216,0.11970870941877365,-0.15264317393302917,0.13648517429828644,0.11558607965707779,0.26075029373168945,-0.206411212682724,-0.07451026141643524,0.13877907395362854,0.2364150732755661,0.05134103074669838,0.13522975146770477,-0.20752845704555511,0.09774482250213623,-0.09167105704545975,-0.06518777459859848,-0.13082583248615265,-0.12020637840032578,0.16796264052391052,-0.029821226373314857,-0.030927440151572227,-0.27752941846847534,-0.22020819783210754,0.012204237282276154,-0.10482319444417953,-0.2042466104030609,-0.055055875331163406,-0.22474496066570282,-0.24186575412750244,0.16726624965667725,-0.028733981773257256,0.17406220734119415,-0.12259940057992935,0.042415741831064224,-0.10710691660642624,-0.21585866808891296,0.058857619762420654,0.29100102186203003,-0.17703112959861755,-0.1953439861536026,0.052849654108285904,0.2629799246788025,-0.37132132053375244,-0.005505605600774288,0.11509766429662704,0.11787895858287811,0.08782904595136642,0.1447538584470749,0.16973426938056946,-0.16826960444450378,0.13096486032009125,0.17124059796333313,0.2117539942264557,-0.2888247072696686,0.11409837007522583,-0.16666199266910553,-0.22219492495059967,0.00839675310999155,-0.06707554310560226,0.03417645022273064,-0.14295274019241333,-0.14754055440425873,-0.16410651803016663,-0.007521394174546003,0.1505296379327774,-0.011845419183373451,0.04150788486003876,0.14898845553398132,-0.11187469959259033,0.11976416409015656,-0.028078656643629074,-0.10567276179790497,-0.12957067787647247,-0.038752663880586624,0.10929548740386963,-0.040048256516456604,-0.3135337829589844,0.06113573536276817,-0.34364819526672363,0.07504629343748093,0.12786272168159485,-0.1735522300004959,-0.31276753544807434,0.04575930908322334,-0.09284879267215729,0.025742819532752037,0.057728152722120285,0.07602664828300476,-0.20058992505073547,-0.015013710595667362,0.18119175732135773,0.1598171889781952,-0.10190672427415848,-0.11235702037811279,-0.00122327811550349,0.29569825530052185,-0.12018736451864243,-0.11325579136610031,-0.0091256033629179,0.03530236706137657,-0.3026387095451355,-0.1465597152709961,0.0831141546368599,-0.2018953263759613,0.2065589427947998,0.20653335750102997,0.042705241590738297,0.0051187071949243546,-0.05288383364677429,0.028697961941361427,-0.04594757780432701,-0.098015196621418,-0.09640652686357498,-0.1541731059551239,0.14904232323169708,-0.10910523682832718,0.37072405219078064,-0.09056533873081207,-0.0990283340215683,0.12073881924152374,-0.05032656341791153,0.12387172132730484,0.15741394460201263,-0.34022635221481323,0.11334790289402008,-0.11757958680391312,-0.09040820598602295,0.10419219732284546,0.2941967844963074,-0.3035958707332611,-0.15022209286689758,0.22368134558200836,0.07334300875663757,0.2636593282222748,-0.012772984802722931,-0.08681901544332504,0.11607344448566437,0.17736421525478363,0.2756035029888153,-0.22156068682670593,-0.32481735944747925,-0.003648054087534547,-0.19929993152618408,0.03142542392015457,0.2317689061164856,0.021275268867611885,0.03626793622970581,0.13300460577011108,-0.13044226169586182,0.20089620351791382,-0.2576330304145813,-0.140033558011055,-0.026323111727833748,0.17543813586235046,0.06051306799054146,0.04045502096414566,-0.1784691959619522,0.09146337956190109,-0.07055412977933884,-0.007240833714604378,0.14124928414821625,0.15319667756557465,-0.026306837797164917,-0.07658973336219788,-0.062438737601041794,-0.03916386142373085,0.011119055561721325,-0.03802727535367012,0.06296397000551224,-0.13371433317661285,-0.09198328852653503,0.009795350953936577,-0.18100982904434204,-0.06584107130765915,-0.03126515820622444,-0.029721003025770187,-0.09462438523769379,0.0920349657535553,0.26033833622932434,0.025701062753796577,0.06650733202695847,-0.030970653519034386,-0.05747281014919281,0.10822921991348267,0.12610557675361633,0.08071848005056381,-0.15476439893245697,-0.19754831492900848,-0.050084784626960754,-0.13091838359832764,-0.039918452501297,0.125629261136055,-0.09719925373792648,-0.2980325520038605,-0.20365028083324432,-0.026886655017733574,-0.1822236031293869,-0.17644137144088745,0.05039114132523537,0.05175424739718437,-0.19503933191299438,0.07774277031421661,-0.07674842327833176,0.03773454576730728,-0.08202868700027466,-0.17862218618392944,-0.05067449063062668,0.04559630900621414,0.28854385018348694,0.07306888699531555,-0.075738824903965,-0.11275956779718399,0.09862659126520157,0.23058071732521057,-0.26669320464134216,-0.01961534097790718,0.0846487358212471,-0.1307612508535385,-0.050456516444683075,0.14271710813045502,-0.14455635845661163,0.030566470697522163,-0.06874536722898483,0.13587024807929993,-0.10022561252117157,0.14022579789161682,-0.03252715244889259,-0.13565528392791748,-0.13970686495304108,0.10112623125314713,-0.18260398507118225,-0.15015000104904175,0.12625516951084137,-0.06802237033843994,-0.08937522768974304,-0.2203972190618515,0.006057558115571737,0.06280454248189926,0.16008539497852325,0.04502023011445999,-0.22563830018043518,-0.0505584254860878,0.01783127710223198,0.09674060344696045,-0.1964416354894638,-0.14394770562648773,0.13300012052059174,0.14441518485546112,-0.15174993872642517,0.048488568514585495,0.05419567599892616,0.054573699831962585,0.03362765908241272,-0.05457836017012596,-0.07416339218616486,0.07958310842514038,0.007095662876963615,0.03964119404554367,-0.29653483629226685,-0.07979094982147217,-0.23542222380638123,-0.02802889794111252,0.13569748401641846,0.10826890170574188,-0.12206606566905975,0.007820376195013523,-0.048098210245370865,0.07983947545289993,0.15635815262794495,-0.08829789608716965,-0.0496344268321991,0.21375766396522522,-0.08615752309560776,0.15173907577991486,-0.02665173076093197,0.27169740200042725,0.16800419986248016,0.0768890380859375,-0.11505113542079926,-0.12648378312587738,-0.14351841807365417,0.05916428938508034,0.10508716851472855,-0.017667654901742935,-0.2626613974571228,-0.08210401982069016,-0.09935848414897919,0.18559616804122925,-0.11454608291387558,-0.09259692579507828,-0.2921003997325897,0.05783567205071449,0.10875488817691803,-0.32147806882858276,-0.005024905316531658,0.2530301809310913,-0.0042013912461698055,-0.017206091433763504,0.009261880069971085,-0.04914891719818115,0.07913380116224289,-0.04619530215859413,-0.0955042615532875,0.06733431667089462,-0.14478662610054016,0.23616555333137512,0.14026466012001038,-0.01884259283542633,-0.09320218861103058,-0.0016529647400602698,-0.032369691878557205,0.09289566427469254,0.07340393215417862,0.06694743037223816,-0.16008426249027252,-0.20492325723171234,0.10355053842067719,0.10911239683628082,-0.106174997985363,-0.09156084060668945,-0.1010281890630722,-0.0699516236782074,-0.11696719378232956,0.08652552962303162,0.019812041893601418,0.041209626942873,0.1008593961596489,0.03226064518094063,-0.14863738417625427,0.03441028296947479,0.10969171673059464,0.13665448129177094,-0.13748982548713684,0.04329882934689522,0.1393798589706421,-0.12201660871505737,0.04052367061376572,0.13812127709388733,-0.09765821695327759,-0.002684968989342451,0.07814333587884903,0.09170069545507431,0.12762883305549622,-0.07357263565063477,0.12461784482002258,0.011212659999728203,0.030509138479828835,-0.17618165910243988,-0.15970677137374878,-0.08167703449726105,-0.07412206381559372,0.06672599911689758,0.038647159934043884,0.08972690999507904,0.1362554132938385,-0.13734766840934753,-0.02415226586163044,-0.05096904933452606,0.10002890974283218,0.2756662666797638,-0.08628685772418976,-0.06711573898792267,0.08587708324193954,-0.07530711591243744,-0.06541293114423752,0.09732620418071747,0.1503152847290039,0.02272898703813553,-0.007296302355825901,-0.022428959608078003,-0.11332055181264877,0.07990822941064835,0.016512399539351463,0.05064778029918671,-0.19059646129608154,-0.05585384741425514,-0.03459521010518074,0.11771390587091446,0.13412851095199585,0.08166955411434174,0.01849246211349964,-0.14111118018627167,-0.09264674782752991,-0.09496783465147018,0.07029332220554352,0.1450956016778946,-0.024592401459813118,-0.07325803488492966,-0.05832167714834213,0.0719887912273407,0.08064515143632889,-0.0855548232793808,-0.2616322338581085,0.1484948694705963,0.015399613417685032,-0.10858356207609177,0.028323041275143623,0.01133595872670412,-0.153764545917511,-0.161065012216568,0.06906553357839584,0.015809524804353714,0.010559312999248505,-0.09295327216386795,0.06821753084659576,-0.11560636013746262,-0.12744708359241486,0.23991811275482178,0.06303691118955612,-0.10755965113639832,0.08368159830570221,-0.009756887331604958,0.02338162437081337,0.1375419646501541,0.08691918849945068,-0.0067893993109464645,0.10750982910394669,0.06886254251003265,0.1291707158088684,-0.2435709685087204,-0.03780980408191681,0.032365262508392334,-0.25264832377433777,-0.058078326284885406,0.05360713228583336,-0.23875951766967773,0.09605821222066879,0.1236899346113205,0.2970031797885895,-0.02000167965888977,0.12772169709205627,-0.1910165697336197,-0.06958406418561935,0.0627746507525444,0.23980551958084106,0.09715363383293152,0.10725090652704239,0.012907586060464382,0.062065303325653076,0.1382487416267395,-0.10017769783735275,0.2022455930709839,-0.09740857779979706,-0.18005061149597168,0.05229650437831879,-0.058798741549253464,0.23858731985092163,-0.13021975755691528,-0.0633944571018219,-0.16160041093826294,0.00182104273699224,0.02011089026927948,0.04331251606345177,0.04762820899486542,0.1013641431927681,0.20991250872612,-0.04825383052229881,-0.01509577315300703,-0.10843513906002045,0.14907747507095337,0.021068599075078964,-0.13334806263446808,-0.13076244294643402,-0.03665927052497864,0.14877307415008545,0.048102859407663345,0.15231183171272278,0.14368218183517456,0.09467868506908417,0.0854303240776062,-0.1297827810049057,-0.002206037752330303,-0.07358798384666443,0.09731349349021912,-0.08078478276729584,0.001443570596165955,-0.13990406692028046,-0.09694787859916687,0.038754601031541824,0.05064041540026665,-0.02854165993630886,0.11770451813936234,-0.07686521857976913,0.10668422281742096,-0.19072526693344116,-0.12233442813158035,-0.0893082469701767,0.0037796618416905403,0.051220398396253586,0.1369297355413437,0.01959874853491783,0.07379787415266037,-0.12647300958633423,-0.08128293603658676,0.005788049194961786,0.07766947895288467,-0.15183097124099731,-0.09398867934942245,-0.1568247377872467,-0.17041794955730438,-0.047479189932346344,0.12976723909378052,0.03532958775758743,-0.07048371434211731,-0.11435341089963913,-0.1773236244916916,-0.1002374142408371,0.1263677328824997,-0.09687087684869766,-0.13622690737247467,-0.07773943245410919,-0.02066626399755478,-0.1832747906446457,-0.11787515878677368,0.23209001123905182,0.07064976543188095,-0.06923878937959671,0.002128246473148465,-0.07647066563367844,-0.0021580250468105078,0.10379652678966522,0.0644589439034462,-0.06394879519939423,-0.07188545167446136,-0.25349047780036926,0.15629838407039642,0.1917531043291092,0.2260632961988449,-0.0737636610865593,-0.025875631719827652,-0.29854869842529297,0.024620356038212776,-0.12458515167236328,-0.16853731870651245,0.08072564005851746,-0.032655268907547,-0.1180083379149437,0.062493905425071716,-0.14307081699371338,-0.030580123886466026,-0.1090313121676445,0.02478684112429619,-0.06901516020298004,0.1691167652606964,0.011906355619430542,0.08631394803524017,-0.03616951033473015,0.11820661276578903,0.1729699820280075,-0.0038353747222572565,-0.11172938346862793,-0.2121587097644806,-0.06554529070854187,0.14193013310432434,0.08678430318832397,0.1671033650636673,0.14246857166290283,0.05156595632433891,-0.09380580484867096,0.18440362811088562,0.23134319484233856,0.03785109519958496,-0.10368995368480682,0.08821124583482742,0.03299403563141823,0.052586186677217484,0.025518622249364853,0.04688454046845436,-0.16271500289440155,-0.1679472178220749,0.09686692804098129,-0.03522893413901329,-0.11152829229831696,0.1001223474740982,-0.04201613739132881,0.06331783533096313,-0.07947711646556854,0.09910901635885239,0.004299726337194443,-0.07534122467041016,0.0798167735338211,0.014787273481488228,0.07070887088775635,0.060380227863788605,0.2598310112953186,-0.17283788323402405,0.008139370009303093,-0.08524391800165176,-0.14366693794727325,-0.011062677949666977,-0.03074566088616848,-0.019644606858491898,-0.007307013962417841,-0.07362104952335358,-0.06446588784456253,0.13895492255687714,0.15801705420017242,0.03196883574128151,-0.1452968567609787,0.057176925241947174,0.10651219636201859,-0.13464350998401642,0.021952757611870766,0.029692579060792923,-0.13364261388778687,0.07525592297315598,-0.06250160932540894,0.0616244338452816,-0.052799079567193985,-0.0385468415915966,0.01871083676815033,-0.1019052043557167,-0.03966919705271721,0.10640975087881088,0.003215343924239278,0.12026006728410721,-0.024073375388979912,0.02028423547744751,0.052021607756614685,-0.06256844848394394,0.19267341494560242,0.11174868047237396,-0.09451109915971756,-0.1455753743648529,-0.0795830711722374,-0.13253875076770782,0.0838276594877243,0.2667650580406189,-0.13389094173908234,-0.12503759562969208,-0.08562526106834412,-0.12698310613632202,-0.08897002786397934,0.020470015704631805,-0.06614203751087189,0.08345264941453934,0.06718865036964417,-0.08015336096286774,-0.11895105987787247,0.13017220795154572,-0.041002750396728516,-0.07505693286657333,-0.20634153485298157,-0.011652784422039986,0.038914136588573456,-0.21220192313194275,-0.015444554388523102,0.09772349894046783,-0.1513017863035202,0.0527724027633667,-0.03706307336688042,0.04500150308012962,0.01100875809788704,0.01799912564456463,0.09630830585956573,0.09826156497001648,-0.04520787298679352,-0.061028022319078445,-0.16619977355003357,0.032267771661281586,-0.022640563547611237,-0.19356395304203033,0.029208853840827942,0.059503134340047836,-0.26123282313346863,0.06367959827184677,0.012706251814961433,0.1204114481806755,0.010309342294931412,0.16433623433113098,-0.16449862718582153,-0.1532849371433258,-0.0632958859205246,0.3000011444091797,-0.0025289689656347036,-0.03829815611243248,0.29651251435279846,0.016324037685990334,-0.17325475811958313,0.10616058111190796,-0.0033917578402906656,0.19740134477615356,-0.0023134222719818354,-0.1050964966416359,0.007806994486600161,0.18407584726810455,0.01646643504500389,-0.044121723622083664,-0.1671905219554901,-0.13626524806022644,0.0232391357421875,0.05137109383940697,-0.08038101345300674,-0.2820769250392914,-0.059937670826911926,0.07309619337320328,-0.21915856003761292,-0.12214698642492294,0.0330573134124279,0.01375614944845438,0.11738672107458115,0.07543696463108063,0.0777236595749855,0.04474335163831711,0.019648227840662003,-0.0629483014345169,0.01258341409265995,0.23148472607135773,0.21912899613380432,-0.0117071233689785,-0.0776190385222435,0.143275648355484,0.0973937064409256,0.3046122193336487,0.17711323499679565,0.05582129955291748,-0.31322023272514343,-0.3305005431175232,-0.05776519700884819,0.22963100671768188,0.17407380044460297,-0.11030744016170502,-0.03628964349627495,-0.2785286605358124,0.025984730571508408,0.10517476499080658,-0.025264983996748924,0.1504419595003128,-0.2008666694164276,0.14303356409072876,0.13931460678577423,-0.030017681419849396,-0.039579544216394424,0.08234744518995285,-0.15175211429595947,-0.2851201891899109,-0.11554354429244995,0.22116681933403015,0.34508341550827026,-0.12988676130771637,0.15471039712429047,-0.11776324361562729,-0.019303543493151665,0.1286543905735016,0.028996679931879044,-0.005766468122601509,0.09734217077493668,-0.10174964368343353,0.016545549035072327,0.07172039896249771,-0.001472695847041905,0.13501763343811035,-0.0924643948674202,-0.12865932285785675,-0.07273516803979874,-0.229391947388649,0.09191465377807617,-0.009452384896576405,-0.11739935725927353,-0.02727731317281723,-0.11327731609344482,-0.12747354805469513,0.0737181007862091,-0.11247791349887848,0.13727669417858124,0.11631643027067184,0.01051567867398262,0.01174936257302761,-0.11489978432655334,0.07957200706005096,0.21176894009113312,0.06702933460474014,0.22334407269954681,0.021664533764123917,0.04457828029990196,0.28865793347358704,-0.20105984807014465,0.07926441729068756,-0.0149314496666193,-0.07210803776979446,-0.15242020785808563,0.09845676273107529,-0.032447874546051025,-0.019679952412843704,0.05550537258386612,0.06213759258389473,0.04727445915341377,-0.03727872297167778,0.008287409320473671,0.10530955344438553,-0.03765552490949631,0.16024096310138702,0.037976570427417755,0.12244729697704315,-0.07981053739786148,0.1425340324640274,-0.08099019527435303,-0.06379880011081696,0.016568578779697418,-0.006709360051900148,0.014869586564600468,0.1482853889465332,-0.0908266082406044,0.012499414384365082,-0.12781020998954773,0.013543994165956974,0.10315857082605362,0.04148098826408386,0.05790332704782486,0.02029651775956154,-0.04437589645385742,0.03706565499305725,-0.036144521087408066,0.14018814265727997,0.04693613946437836,-0.14635545015335083,0.07147224247455597,0.03086080215871334,0.06495434790849686,0.02751968242228031,-0.04057890549302101,-0.0013115585315972567,-0.07420223951339722,-0.01591484062373638,-0.06037745624780655,0.038452599197626114,0.15434417128562927,0.09628266096115112,-0.049812670797109604,0.02541600726544857,-0.01287069357931614,-0.07009545713663101,-0.06947186589241028,-0.11751285940408707,0.05293845012784004,-0.21521404385566711,-0.015621951781213284,-0.15435199439525604,-0.04014155641198158,0.16584889590740204,-0.0022174122277647257,-0.10513696819543839,0.07179487496614456,-0.023506665602326393,-0.040326740592718124,-0.0648597851395607,-0.02973243221640587,0.024855369701981544,0.10923514515161514,0.0006558190798386931,0.19327855110168457,-0.03290668874979019,-0.05682539939880371,0.03773164749145508,0.07636914402246475,0.1146053895354271,0.07919251918792725,0.061445221304893494,-0.05156376585364342,0.008209425956010818,-0.12576231360435486,-0.072174072265625,-0.0603112168610096,-0.06891267746686935,0.14346882700920105,-0.09268289804458618,0.01873159036040306,0.05084805190563202,0.08162185549736023,0.055819395929574966,0.0074432604014873505,0.1469820737838745,-0.07719041407108307,-0.035236962139606476,-0.04648270830512047,-0.044426869601011276,-0.06246143579483032,-0.15990103781223297,-0.018747003749012947,-0.15246497094631195,0.14749185740947723,-0.05286543816328049,-0.05446881055831909,-0.09653680771589279,0.15366050601005554,-0.14338018000125885,0.05252595990896225,0.06727589666843414,0.09522392600774765,0.013230685144662857,0.1133061870932579,0.070950448513031,0.006472627632319927,0.04892278090119362,-0.13117274641990662,-0.04587087780237198,0.020731747150421143,0.0071649327874183655,-0.009293491952121258,-0.1930147260427475,0.015163700096309185,0.040563251823186874,0.10378849506378174,-0.15365538001060486,0.08983580023050308,-0.20382118225097656,-0.09486620128154755,-0.13199467957019806,0.021942198276519775,-0.017919758334755898,-0.09069183468818665,0.06535683572292328,0.1470668911933899,-0.018014976754784584,0.17617133259773254,-0.10840030759572983,-0.09585141390562057,0.0067344107665121555,-0.019309861585497856,-0.12219273298978806,-0.09694778174161911,-0.0019146956037729979,0.049137212336063385,0.15107578039169312,-0.056518178433179855,0.016413835808634758,-0.003291728440672159,0.01802632585167885,0.033280324190855026,0.06601832807064056,0.14670348167419434,0.13280512392520905,0.06030914932489395,0.006720154546201229,0.10009501874446869,-0.1186913251876831,0.08455204218626022,0.1577623337507248,0.13286016881465912,-0.08342748135328293,-0.0177445150911808,-0.026626689359545708,0.030351080000400543,0.047791000455617905,0.06467562913894653,0.07834238559007645,-0.02645144611597061,-0.416303426027298,0.05530993267893791,0.23199547827243805,0.008692285045981407,0.13007670640945435,-0.09850671887397766,-0.4592171013355255,0.04253681004047394,0.016565069556236267,-0.09996173530817032,-0.7792071104049683,-0.009059261530637741,-0.3726712167263031,-0.11529002338647842,-0.4516749382019043,0.04240052402019501,0.8600502610206604,-0.10299915075302124,-0.9458639025688171,0.008289636112749577,-0.6708858609199524,-0.008507031947374344,-1.042830228805542,-0.04266461357474327,0.3241479992866516,0.06744331121444702,-0.8171544075012207,-0.11356879025697708,0.4286792576313019,0.06406521052122116,-0.6401501893997192,-0.03323109820485115,-0.14782686531543732,-0.12318369001150131,0.07495813816785812,0.24327273666858673,0.26579269766807556,-0.06037275865674019,-0.2932966947555542,-0.13160721957683563,-0.17348548769950867,-0.058110225945711136,0.04455513507127762,0.2693685293197632,0.11831937730312347,-0.03868282586336136,-0.047905080020427704,0.007912852801382542,-0.04214279726147652,-0.1663227677345276,-0.07413576543331146,-0.03205905109643936,-0.2319100797176361,0.2457519918680191,-0.1365913301706314,-0.28801804780960083,0.14871785044670105,-0.002798538189381361,0.14648355543613434,0.1787908673286438,0.07281532138586044,0.07716850191354752,0.0008792139124125242,0.27849578857421875,-0.0032404910307377577,-0.09803729504346848,-0.08632685244083405,0.16323642432689667,0.01251104287803173,0.24561423063278198,-0.19693052768707275,0.02469155192375183,-0.174092099070549,0.018654273822903633,-0.23434843122959137,-0.3204239308834076,-0.014135458506643772,0.033710163086652756,0.16644616425037384,-0.0003160773776471615,0.12211991846561432,-0.007914010435342789,-0.24308112263679504,-0.13206712901592255,-0.17936432361602783,0.028874417766928673,-0.14640715718269348,-0.023912539705634117,-0.012819732539355755,0.07111650705337524,0.058838892728090286,0.1979370415210724,0.2531917095184326,-0.11958371102809906,0.0673123374581337,0.07559915632009506,0.17108184099197388,-0.05384000390768051,-0.06949359178543091,-0.13253310322761536,0.04237696900963783,-0.04150416702032089,-0.15070657432079315,0.09465891867876053,0.28123506903648376,0.04929325729608536,-0.15990673005580902,0.14873217046260834,-0.1347905546426773,0.017024703323841095,-0.21998070180416107,-0.04669543355703354,-0.19590802490711212,0.05020594224333763,-0.28016817569732666,-0.11459416896104813,0.002775745466351509,-0.12730571627616882,0.08135299384593964,-0.06485513597726822,0.10209453105926514,0.22650672495365143,-0.025897756218910217,-0.23045359551906586,-0.2140767127275467,-0.012075583450496197,-0.017321938648819923,0.07515359669923782,0.10258571803569794,-0.07098908722400665,0.1277768909931183,-0.243780255317688,0.10979340225458145,0.19073840975761414,-0.32517343759536743,-0.18952280282974243,0.2081184685230255,-0.12026907503604889,-0.17837464809417725,0.20527175068855286,0.07037100940942764,-0.1691022366285324,-0.0055284216068685055,0.12856188416481018,0.13985909521579742,0.2467423379421234,0.0009050822118297219,0.03357117623090744,0.0417812280356884,-0.09924785047769547,0.07561448216438293,0.13287711143493652,-0.06350063532590866,0.24754716455936432,-0.1728065013885498,0.0693209320306778,-0.1838858276605606,0.07261937856674194,0.15084317326545715,0.035031042993068695,0.03592488914728165,0.18842722475528717,-0.20983754098415375,-0.16449867188930511,-0.1437583714723587,-0.14385004341602325,0.004688324872404337,-0.029644271358847618,-0.05066204443573952,-0.007019381504505873,0.19734862446784973,-0.11709805577993393,-0.04898297041654587,0.037560056895017624,-3.277471842011437e-05,0.18243515491485596,-0.15279977023601532,0.05490151792764664,-0.03238915279507637,0.07163286209106445,0.05707119032740593,-0.1509435921907425,0.21232202649116516,-0.095672108232975,0.029215941205620766,0.0868302509188652,0.13143163919448853,0.2792101502418518,0.1200377568602562,0.0883183404803276,0.09476381540298462,-0.03483293578028679,-0.062118906527757645,-0.08703899383544922,-0.10313728451728821,0.11245593428611755,0.10808391869068146,-0.16607415676116943,-0.017291942611336708,0.07617350667715073,0.1324080377817154,0.12660454213619232,-0.24653813242912292,0.19814692437648773,0.07640545070171356,-0.02239619567990303,0.03874535486102104,-0.03244338184595108,0.07623149454593658,0.15955466032028198,-0.28466570377349854,-0.030045760795474052,-0.14148661494255066,-0.07221683859825134,-0.026611709967255592,0.217185840010643,-0.20013102889060974,0.12912146747112274,0.22557832300662994,-0.18467363715171814,0.07803652435541153,-0.12443779408931732,0.100165955722332,-0.08956830948591232,-0.05229372903704643,-0.130815327167511,-0.23467585444450378,0.21734833717346191,0.019512539729475975,-0.03343549743294716,-0.26860153675079346,0.22998595237731934,-0.09848928451538086,-0.1737116277217865,-0.23849451541900635,-0.2832852005958557,0.2562316954135895,-0.3004530966281891,0.01330539770424366,-0.10573781281709671,0.14285998046398163,0.10439570248126984,-0.21806161105632782,0.20994199812412262,-0.14619037508964539,0.03890981525182724,-0.017628561705350876,0.02349059283733368,0.04895400255918503,0.13907015323638916,0.046314481645822525,-0.13882184028625488,0.22296585142612457,0.07770400494337082,0.07957930117845535,-0.11866649985313416,0.08622650057077408,0.25866416096687317,0.07915051281452179,-0.09540365636348724,-0.25818559527397156,-0.1685410887002945,0.03989669308066368,-0.030647723004221916,-0.03370572254061699,0.15208378434181213,-0.2010999470949173,-0.01873476430773735,-0.2253834307193756,0.20925743877887726,0.1433825045824051,0.16775713860988617,0.21669460833072662,-0.2930428981781006,-0.04017166420817375,0.09889686107635498,-0.192650705575943,0.025927167385816574,-0.11390454322099686,0.19397743046283722,0.1342509537935257,-0.1731986403465271,0.2030843198299408,0.23146672546863556,-0.2473181188106537,0.3338560461997986,-0.2717837691307068,-0.1464349627494812,-0.14098471403121948,-0.049498509615659714,0.015936581417918205,-0.10199441760778427,-0.1823977679014206,0.014192527160048485,0.16579201817512512,0.26496049761772156,0.055584680289030075,0.029365299269557,0.06678833067417145,-0.23099637031555176,0.036567579954862595,-0.26473119854927063,-0.0217019971460104,-0.05162747949361801,0.056092776358127594,-0.035915058106184006,-0.16086246073246002,0.05022841691970825,-0.014825810678303242,-0.05363296717405319,0.12089216709136963,0.11784951388835907,-0.028625205159187317,0.09158289432525635,-0.06396682560443878,-0.0948733389377594,0.1567055732011795,0.040626127272844315,-0.026786617934703827,0.11100760102272034,0.22531338036060333,0.057476408779621124,-0.08617212623357773,-0.045127023011446,-0.01857287436723709,-0.07082963734865189,-0.024323903024196625,-0.11026931554079056,-0.006508536171168089,0.21785414218902588,0.01984279602766037,-0.08773936331272125,-0.09971918910741806,-0.06545282900333405,0.06536675989627838,0.109795942902565,-0.06178230419754982,-0.06488301604986191,0.030829083174467087,-0.014775140210986137,-0.10304603725671768,-0.06591832637786865,-0.049888573586940765,-0.042441897094249725,0.20757725834846497,-0.04492073133587837,0.3764403760433197,0.36077940464019775,-0.16331879794597626,-0.008339808322489262,-0.30738338828086853,-0.03800772503018379,-0.14480239152908325,-0.05231012776494026,0.038885217159986496,-0.15223930776119232,0.08248879760503769,-0.05886451527476311,0.061484016478061676,0.047549158334732056,0.12344883382320404,-0.061720069497823715,-0.13487790524959564,-0.11521108448505402,0.09522435069084167,-0.10196171700954437,-0.059648316353559494,0.0007224588771350682,0.04989786818623543,0.004276653751730919,0.060068901628255844,-0.14523376524448395,0.1097937747836113,-0.016073130071163177,-0.04532936215400696,-0.032459549605846405,0.0392732210457325,-0.02316974848508835,-0.139132559299469,0.10429459065198898,0.14987695217132568,0.018566763028502464,0.11774703860282898,0.09277860820293427,-0.01313510350883007,-0.10221446305513382,-0.15366287529468536,-0.07752344012260437,-0.029899710789322853,0.04827389493584633,0.027471572160720825,0.02023199200630188,0.026942424476146698,-0.05622516945004463,-0.046324051916599274,0.01659346930682659,-0.08907970041036606,-0.012912493199110031,-0.07524143159389496,-0.06946101784706116,0.20165078341960907,0.0038454486057162285,-0.015409504994750023,0.11203861236572266,0.0778994932770729,-0.16335175931453705,0.07238206267356873,0.056254684925079346,0.0733938217163086,-0.12967324256896973,0.016066238284111023,0.10338902473449707,0.0011526676826179028,-0.08546789735555649,0.09469255059957504,0.08093257993459702,0.3894507884979248,0.04983825609087944,0.07894837111234665,0.18461281061172485,0.1145736426115036,0.0033040139824151993,0.18334896862506866,0.15915493667125702,-0.04589153826236725,-0.1459919512271881,-0.10165509581565857,0.15675316751003265,0.25130966305732727,-0.02307381108403206,-0.11491262912750244,-0.11506903171539307,-0.2417701631784439,-0.07186109572649002,-0.026881366968154907,0.06129726767539978,0.009103022515773773,0.015698613598942757,0.1354454755783081,-0.09021596610546112,-0.008124221116304398,0.07651901245117188,0.023317882791161537,-0.6293309926986694,-0.10496379435062408,-0.04728243872523308,0.029676910489797592,0.12015500664710999,-0.3027837872505188,-0.31653493642807007,-0.14726042747497559,-0.07107406109571457,0.14386768639087677,-0.008057614788413048,-0.05447686091065407,0.0772571861743927,-0.15986813604831696,-0.02160901203751564,-0.02663520909845829,-0.18471381068229675,-0.08098213374614716,-0.24461495876312256,-0.10690918564796448,0.07083626836538315,-0.006475905887782574,0.052852094173431396,0.007160550449043512,-0.08297808468341827,-0.3067336082458496,0.05296261981129646,0.07642912864685059,0.150879368185997,-0.028048986569046974,0.06670801341533661,0.06042001023888588,0.014134706929326057,-0.026349930092692375,-0.13042965531349182,-0.1943787783384323,-0.16485099494457245,-0.09731347113847733,0.12987753748893738,0.04734441637992859,-0.027907928451895714,0.00676317373290658,0.04824553057551384,-0.00014094618381932378,0.1678180694580078,0.09948809444904327,0.1449809968471527,-0.46047529578208923,-0.5071192383766174,0.0416802242398262,0.09701462835073471,0.07351890206336975,0.006829139310866594,-0.010718320496380329,-0.1407688409090042,-0.09717117995023727,-0.02491348423063755,0.28473126888275146,0.06506145745515823,0.028303740546107292,0.17213141918182373,-0.1013481542468071,0.007596410810947418,0.21131671965122223,-0.11134698241949081,-0.06274235248565674,-0.017443817108869553,0.016916347667574883,0.03550761938095093,0.2255266159772873,0.1098141148686409,-0.25343412160873413,-0.13839603960514069,-0.004948964808136225,-0.12557265162467957,-0.22263000905513763,0.012794901616871357,0.07235118746757507,0.054219018667936325,0.1269555389881134,-0.010729030705988407,-0.049655359238386154,0.045464228838682175,-0.10278977453708649,-0.05917114019393921,0.0017298359889537096,-0.005924340803176165,0.12121127545833588,-0.1802252233028412,-0.10626760870218277,0.10012385994195938,-0.1361643373966217,-0.05738018453121185,0.04531099647283554,0.029618768021464348,0.039762381464242935,-0.23836500942707062,0.2071453481912613,0.05934189260005951,-0.274941623210907,-0.13938090205192566,0.30919158458709717,0.12739995121955872,0.06878095120191574,0.18928727507591248,0.09922949969768524,0.013321083970367908,-0.06788003444671631,-0.08425435423851013,-0.10589129477739334,0.06535226851701736,0.046220358461141586,0.17827998101711273,0.06824733316898346,0.00024193506396841258,0.1712350994348526,-0.09959530085325241,-0.08107570558786392,0.06088772788643837,-0.09797313809394836,0.1360057294368744,0.09486211091279984,-0.17272844910621643,-0.22713832557201385,0.031214609742164612,0.04895754158496857,-0.011087397113442421,-0.1708773374557495,-0.05195017531514168,-0.0076771629974246025,0.03844265639781952,0.054868657141923904,0.049592092633247375,0.0448598749935627,0.09321453422307968,0.233854740858078,0.06761011481285095,0.08671920746564865,-0.04413754492998123,-0.14106008410453796,-0.026357106864452362,0.06207200512290001,-0.0343157984316349,-0.15365195274353027,-0.06371360272169113,0.07512015104293823,0.20828594267368317,-0.09258836507797241,-0.06869436800479889,-0.1251407116651535,-0.17650796473026276,0.07595370709896088,0.14170622825622559,-0.12831607460975647,-0.05833703652024269,0.023678086698055267,-0.18373994529247284,-0.19854307174682617,-0.07912404835224152,0.046564698219299316,-0.006773043889552355,0.04169197753071785,0.04086197540163994,0.018638795241713524,0.21662305295467377,0.24110276997089386,0.07386624813079834,0.015178680419921875,0.006541178561747074,0.0020657603163272142,0.057457324117422104,0.10315673053264618,-0.10830897837877274,-0.15629498660564423,-0.1527620404958725,0.04260770604014397,0.011874468997120857,0.2777443528175354,0.04322923347353935,-0.14550907909870148,-0.10022955387830734,-0.2412082701921463,-0.1850889027118683,-0.22354137897491455,-0.07518836855888367,-0.2616993188858032,-0.22113919258117676,0.1290215104818344,-0.03187203034758568,-0.17781539261341095,0.01967477612197399,-0.2978641390800476,0.08906793594360352,-0.15106822550296783,0.08079186081886292,-0.10700783133506775,-0.00630585290491581,0.13190658390522003,-0.022607775405049324,-0.13555875420570374,0.10901086777448654,0.1272982507944107,0.0934496819972992,-0.11082660406827927,0.13832643628120422,-0.055712100118398666,-0.10126253962516785,0.07308237254619598,0.10234016925096512,-0.09535445272922516,0.046866510063409805,0.026253826916217804,0.08201330155134201,0.07295731455087662,0.06464608013629913,-0.11713559925556183,-0.06005138158798218,0.016727304086089134,-0.11523106694221497,0.01829463057219982,-0.05149989202618599,-0.05168852210044861,0.07158470153808594,-0.1458325982093811,-0.015465690754354,0.05492304265499115,-0.08942651748657227,0.04323897883296013,-0.1376063972711563,-0.012680579908192158,0.001612417632713914,0.1434478461742401,-0.13650040328502655,0.04331429675221443,0.07895871996879578,0.0398457832634449,-0.07261426001787186,-0.007314555812627077,0.000980001874268055,-0.2522694170475006,-0.1807454377412796,-0.06554490327835083,0.12768620252609253,-0.04944092035293579,-0.023341573774814606,-0.05130778253078461,-0.08790282905101776,0.0840638130903244,0.19097162783145905,-0.05772681161761284,0.07481233775615692,0.045874837785959244,0.019843710586428642,-0.08339441567659378,0.12122237682342529,0.21848846971988678,0.15621545910835266,-0.1058022677898407,0.009567583911120892,0.04881603643298149,0.026184147223830223,-0.3519778847694397,-0.009752113372087479,0.12503866851329803,-0.0443287119269371,-0.05047527328133583,-0.02203388325870037,-0.12666089832782745,-0.0025344586465507746,0.11011326313018799,-0.09709423035383224,0.02875874936580658,-0.03803436458110809,0.05233059450984001,0.14295175671577454,-0.08168582618236542,-0.028584560379385948,-0.170906662940979,0.10954763740301132,0.1708155870437622,-0.08322921395301819,-0.03961492329835892,0.10978798568248749,-0.09620562940835953,0.052378229796886444,-0.0573459267616272,0.023161238059401512,0.06556437909603119,0.12914018332958221,-0.18052421510219574,0.18623553216457367,0.04639581963419914,0.08103703707456589,-0.1292872130870819,-0.10457649827003479,-0.2079056203365326,0.031235532835125923,0.05639857426285744,0.053044967353343964,-0.017880365252494812,-0.020134927704930305,0.09180409461259842,-0.12840452790260315,-0.13908304274082184,-0.1867399960756302,-0.040467362850904465,-0.02545464225113392,-0.033870816230773926,-0.06715545058250427,0.07200535386800766,-0.0037826281040906906,-0.09453980624675751,0.041726406663656235,-0.11902482807636261,0.06579483300447464,-0.07566796243190765,-0.017481796443462372,-0.02856866642832756,-0.15680815279483795,0.09254366159439087,0.1193750649690628,-0.06455432623624802,0.020360611379146576,0.11203815788030624,0.04177354276180267,-0.047983743250370026,-0.21608249843120575,0.017743295058608055,-0.14036862552165985,-0.027074795216321945,0.019877804443240166,-0.007437064778059721,-0.10305634140968323,-0.17646072804927826,-0.013798747211694717,-0.00010230127372778952,0.05756295099854469,-0.379067599773407,-0.012308686971664429,-0.10364752262830734,-0.16795898973941803,-0.16606025397777557,-0.10499965399503708,0.08598620444536209,-0.22132286429405212,-0.008437315933406353,0.11688803881406784,-0.035767991095781326,0.08423247188329697,0.0759582445025444,-0.011705545708537102,0.04291974753141403,0.10255832225084305,0.17217595875263214,-0.107586570084095,0.04872339591383934,0.02012343518435955,0.0645345002412796,-0.03094056434929371,0.08659432828426361,0.08652942627668381,-0.10972242802381516,0.16115358471870422,0.09135250002145767,-0.004560033790767193,-0.057240281254053116,0.09995602816343307,0.006337292958050966,-0.015734435990452766,-0.06893123686313629,0.020614007487893105,0.002582688583061099,0.009355459362268448,0.09348107129335403,-0.005299195181578398,-0.07926537096500397,0.08573367446660995,0.036597881466150284,0.017228860408067703,0.018729688599705696,0.010601372458040714,-0.14874358475208282,-0.06194976344704628,0.16070453822612762,0.23841896653175354,-0.2116371989250183,-0.15217208862304688,-0.34015002846717834,-0.15806874632835388,0.04438280314207077,-0.02612513303756714,0.17322060465812683,0.007993289269506931,-0.0865514874458313,0.029618054628372192,0.10857388377189636,0.006447461433708668,0.1747588962316513,-0.08276334404945374,0.03791050985455513,0.09079620242118835,0.038769837468862534,-0.001246133353561163,-0.006875396240502596,-0.15458646416664124,-0.08107534795999527,-0.21402348577976227,0.05406408756971359,0.1881898045539856,0.16964983940124512,0.1066843643784523,-0.03655937686562538,-0.12141875922679901,-0.1282683163881302,0.014441869221627712,-0.0697496309876442,-0.13414545357227325,-0.01992029882967472,-0.20062881708145142,-0.01097085326910019,-0.09525123983621597,0.06363414227962494,0.11959271878004074,-0.0960182249546051,0.1251581907272339,0.015584266744554043,-0.0004724895115941763,0.005175529047846794,-0.07480063289403915,-0.16027161478996277,0.18203715980052948,0.09658119827508926,-0.04562290385365486,0.16614384949207306,-0.02302945777773857,0.010872573591768742,-0.06126296892762184,-0.0008990673813968897,-0.11076217144727707,0.08897972106933594,0.19978050887584686,-0.0070456210523843765,-0.18228940665721893,-0.05174526199698448,-0.23368650674819946,0.001251082867383957,-0.07003489136695862,-0.16138680279254913,-0.11834963411092758,0.06569784879684448,0.11575764417648315,0.02515576407313347,-0.0544319711625576,0.21957767009735107,-0.009865463711321354,-0.10828608274459839,0.13412527740001678,-0.05585678666830063,0.002446710830554366,-0.02145967446267605,0.03042931854724884,0.11740347743034363,-0.21306005120277405,0.06063699722290039,-0.13805951178073883,0.16513212025165558,-0.033765796571969986,0.2244182676076889,0.1209033951163292,-0.03240062668919563,-0.022628383710980415,-0.23151637613773346,0.06994882225990295,-0.13716627657413483,-0.0970633253455162,-0.028791585937142372,0.11974481493234634,-0.0037117088213562965,0.08500205725431442,-0.029940525069832802,-0.13674522936344147,-0.14635546505451202,-0.008824937976896763,0.09350325912237167,0.08197621256113052,-0.14022178947925568,-0.06191394850611687,-0.0207049623131752,-0.02300049550831318,-0.10886448621749878,-0.03604019805788994,0.06224938482046127,0.03135121241211891,-0.11140064895153046,-0.16943570971488953,-0.11892272531986237,0.13223861157894135,-0.08814295381307602,0.06358194351196289,0.09627741575241089,-0.032205961644649506,0.0551573671400547,-0.14390018582344055,0.06339383870363235,-0.0224749892950058,-0.013075524009764194,0.10503609478473663,0.07465372234582901,-0.0759635865688324,-0.023449325934052467,0.014849127270281315,0.017036451026797295,0.01222941279411316,-0.06366168707609177,0.06786923855543137,-0.05475006625056267,-0.025318482890725136,-0.029064392670989037,-0.11263162642717361,-0.0032632765360176563,0.03124258853495121,-0.05127086862921715,0.0879836156964302,0.016144318506121635,-0.005461011081933975,0.105525441467762,-0.05394374206662178,0.1573340743780136,-0.0034766283351927996,0.027732795104384422,-0.2498273104429245,-0.14630816876888275,-0.07280143350362778,-0.04508592188358307,0.10864704847335815,0.1944683939218521,-0.07378508895635605,-0.07793091237545013,0.07724202424287796,0.06481904536485672,-0.012127310037612915,0.06604862213134766,-0.13199713826179504,-0.15214674174785614,0.03400496765971184,-0.03786180168390274,-0.004845473449677229,-0.1563856154680252,0.018050866201519966,-0.1046498641371727,-0.24735988676548004,-0.05479709804058075,-0.022955453023314476,-0.13533255457878113,0.11755324900150299,0.024435237050056458,0.017391055822372437,-0.014126027934253216,-0.14825060963630676,0.06405551731586456,0.11438886821269989,-0.004081347491592169,0.06680909544229507,-0.09540563076734543,0.040070150047540665,0.10395658761262894,-0.017353078350424767,0.09087779372930527,-0.07805275171995163,-0.07947558164596558,-0.0745508223772049,-0.039296433329582214,-0.1075187623500824,-0.1661088466644287,0.12280352413654327,0.13553863763809204,0.1339329481124878,-0.026453685015439987,-0.14501357078552246,0.08329035341739655,-0.08432945609092712,-0.03420773521065712,0.09825199097394943,0.02538420259952545,0.050748374313116074,0.14143167436122894,0.07652571052312851,0.002671441761776805,0.19139906764030457,0.11123936623334885,-0.09811106324195862,0.0947132334113121,0.0490725003182888,-0.06941554695367813,0.015245793387293816,0.027809450402855873,0.03239145502448082,-0.06018847972154617,-0.024081379175186157,0.10061967372894287,0.09286054968833923,0.13489854335784912,-0.0014267549850046635,0.016392819583415985,0.15300162136554718,0.09276066720485687,0.09244868159294128,-0.030200080946087837,-0.18614423274993896,-0.14040276408195496,-0.014008348807692528,-0.0002560775028541684,-0.09274795651435852,0.020757464691996574,-0.08845965564250946,0.18786652386188507,0.03751770034432411,-0.13452698290348053,0.21455127000808716,-0.17140930891036987,-0.01947684772312641,0.14080706238746643,-0.16473476588726044,0.11125436425209045,-0.06465709209442139,-0.09801741689443588,-0.1306251585483551,-0.12587517499923706,0.16994225978851318,0.09489528089761734,0.020426597446203232,-0.01136536430567503,-0.06585231423377991,0.09409850090742111,-0.12646140158176422,-0.07985851168632507,-0.1463957279920578,0.06734082102775574,0.11930617690086365,0.0991053506731987,0.04266057536005974,-0.09314342588186264,0.07812555879354477,-0.016030941158533096,0.0733991488814354,-0.34981921315193176,-0.0069982013665139675,-0.40594616532325745,-0.11610578745603561,0.9011585116386414,-0.012300812639296055,0.4754364490509033,0.013215475715696812,-0.48548680543899536,0.012566891498863697,0.08043325692415237,0.055979564785957336,-0.3102950155735016,-0.19165758788585663,-0.04941684380173683,-0.02544807270169258,0.6444113254547119,0.049597978591918945,-0.6206627488136292,-0.11441607028245926,0.9194561243057251,-0.006665101740509272,0.6438876390457153,0.05838771164417267,-0.07498954981565475,-0.08351967483758926,-0.4117870032787323,0.013549578376114368,0.208466574549675,0.019744431599974632,-0.5729143619537354,0.07424822449684143,0.13002192974090576,-0.15200510621070862,-0.004145544953644276,-0.030582020059227943,0.12337420880794525,0.27012795209884644,0.1132366955280304,0.1023583859205246,0.2113683521747589,-0.06270532310009003,0.1101311668753624,0.15754365921020508,-0.1971907913684845,-0.013763131573796272,-0.11817877739667892,-0.12524805963039398,0.2125849574804306,-0.028666138648986816,0.1346813589334488,0.05695953220129013,0.17692507803440094,0.09133464843034744,0.02997632510960102,-0.2577131390571594,-0.28913888335227966,0.0582580491900444,0.03453738987445831,-0.13432204723358154,0.07787060737609863,0.2612423598766327,0.04557039588689804,0.06432922929525375,0.21796327829360962,-0.29855823516845703,0.05213112384080887,-0.33144232630729675,0.08025532960891724,-0.13600657880306244,0.031081920489668846,-0.1426045298576355,-0.1614489108324051,-0.0019816590938717127,-0.23697300255298615,0.11687424778938293,0.10028167068958282,-0.14227943122386932,0.05281274765729904,0.003588170977309346,0.16995877027511597,-0.06587285548448563,0.1095353364944458,0.1744353175163269,-0.04507642611861229,0.17024408280849457,-0.2750583589076996,0.22252744436264038,0.23953132331371307,-0.15799929201602936,0.03234320133924484,0.11811251938343048,0.010199078358709812,0.021881593391299248,-0.0010264393640682101,-0.029267871752381325,0.09015889465808868,-0.09154608100652695,0.24334494769573212,-0.25926342606544495,0.06137341633439064,-0.15674418210983276,0.14349974691867828,-0.07432185113430023,0.07766882330179214,0.03785133734345436,-0.09116679430007935,0.09629330784082413,-0.13931798934936523,-0.22218888998031616,0.09523364901542664,-0.1274455040693283,-0.0351782962679863,-0.03673159331083298,0.04047231376171112,-0.0684203952550888,-0.06402359157800674,-0.10129091143608093,0.17165231704711914,0.010212687775492668,-0.15039540827274323,-0.18096923828125,0.1202968880534172,0.28667783737182617,0.023941319435834885,0.19807295501232147,0.1893196552991867,0.07933424413204193,0.0859873965382576,-0.013314137235283852,-0.12359172105789185,0.15976929664611816,0.16537384688854218,-0.058381304144859314,-0.01577942445874214,0.01217098068445921,-0.09719683229923248,0.03702336177229881,0.12180515378713608,-0.04445992410182953,0.0628892332315445,0.013448203913867474,0.12031257897615433,0.07397496700286865,0.14677399396896362,0.14612270891666412,-0.26176974177360535,-0.18556715548038483,0.11015647649765015,-0.1993575096130371,0.07929281890392303,-0.18771211802959442,0.035187941044569016,0.11902463436126709,0.18015100061893463,0.23141779005527496,-0.07582449167966843,0.2291688174009323,0.12904475629329681,-0.05748268961906433,-0.22060519456863403,0.1067601889371872,-0.09699935466051102,0.2881459891796112,0.16644315421581268,0.0022684221621602774,-0.24368883669376373,0.07240781933069229,-0.07030077278614044,-0.10584322363138199,-0.20499294996261597,0.15021103620529175,-0.2217196822166443,-0.08788757771253586,0.03745204955339432,0.027511127293109894,0.1455552875995636,-0.09940136224031448,-0.21000753343105316,0.4044645428657532,0.1661023050546646,0.18932998180389404,-0.24355129897594452,-0.1890934705734253,0.09580878168344498,-0.03634491190314293,0.2467842847108841,0.05604388192296028,-0.0380731038749218,0.08871794492006302,0.09235940128564835,0.007917704991996288,0.23124754428863525,-0.213117316365242,-0.09863342344760895,0.00038128349115140736,0.20366132259368896,-0.08584073930978775,0.07851371169090271,0.034613411873579025,0.26511242985725403,-0.061704300343990326,-0.318650484085083,-0.04186214134097099,-0.026160627603530884,-0.2933640778064728,-0.00645420141518116,0.2083890289068222,0.08345531672239304,-0.0018987999064847827,-0.1007397472858429,0.13603758811950684,-0.08220499008893967,0.22781378030776978,0.18222185969352722,0.0732249990105629,-0.1299605518579483,-0.31606748700141907,-0.1569276750087738,0.2289532870054245,-0.20884695649147034,-0.23714491724967957,-0.05724012851715088,0.16813765466213226,-0.23087698221206665,-0.29304200410842896,-0.050608500838279724,-0.17429471015930176,0.14096859097480774,0.0829114019870758,-0.188056081533432,-0.22947612404823303,0.15389864146709442,-0.1350995898246765,-0.0641656368970871,0.13344654440879822,-0.10813803970813751,0.14628848433494568,0.16070958971977234,-0.13752271234989166,-0.15169331431388855,0.08731034398078918,-0.19694259762763977,0.22303816676139832,0.16811110079288483,-0.07474897056818008,0.04638377204537392,-0.08009452372789383,0.14269214868545532,-0.017557505518198013,0.03373367711901665,-0.23615923523902893,-0.07770076394081116,0.04175085574388504,-0.25242936611175537,0.061084527522325516,0.13642755150794983,0.27022430300712585,0.08390552550554276,-0.24425438046455383,-0.2094971090555191,-0.18479810655117035,0.2371012568473816,-0.32008469104766846,0.040068354457616806,0.3252444267272949,0.2334204614162445,0.17155013978481293,0.08344539254903793,0.09683778136968613,0.10992605239152908,-0.2771091163158417,-0.17632509768009186,-0.0539374016225338,-0.04204939678311348,-0.0869186744093895,-0.16119474172592163,-0.14600719511508942,-0.005746534559875727,-0.2962495982646942,0.02502046898007393,0.16740556061267853,0.35827016830444336,0.24524131417274475,-0.2131095975637436,0.09703096002340317,-0.032816749066114426,0.09985364228487015,0.04337373375892639,0.003426906419917941,0.10402382165193558,0.08685705065727234,-0.10987655073404312,0.203497976064682,0.1571589708328247,0.10685975849628448,-0.2698940634727478,-0.1547231525182724,0.08260969072580338,0.03820584714412689,0.2140127569437027,0.11783051490783691,0.19558875262737274,0.06485030800104141,0.16530607640743256,-0.12999823689460754,0.02894509769976139,-0.046288736164569855,-0.05486660823225975,0.2193075269460678,0.11452881246805191,0.019311770796775818,0.06244366988539696,-0.06560113281011581,-0.00036177923902869225,0.07642840594053268,0.05077067017555237,-0.1585642695426941,-0.1373072862625122,0.05223432183265686,0.05006254464387894,0.14950884878635406,0.09050847589969635,-0.04065858945250511,-0.053268834948539734,-0.19873179495334625,0.09938906133174896,0.08687705546617508,-0.00562699930742383,-0.22124910354614258,-0.0964084342122078,-0.07192438095808029,0.007890431210398674,-0.10057555139064789,-0.04126737266778946,-0.14507804811000824,0.10380702465772629,-0.006704718340188265,-0.19646652042865753,-0.12700045108795166,-0.12097793072462082,-0.06465864926576614,-0.06271397322416306,-0.006359299644827843,-0.07423709332942963,-0.08136830478906631,-0.12001118063926697,-0.11658892035484314,-0.04139832779765129,-0.06996409595012665,-0.0638359785079956,0.008219695650041103,0.15057051181793213,0.31457245349884033,-0.08059559762477875,0.16561397910118103,0.1261499971151352,-0.10369686037302017,0.02326860837638378,-0.06489722430706024,0.007379381451755762,-0.07851823419332504,0.1868828386068344,0.04819614067673683,0.020201418548822403,0.016781724989414215,0.20948968827724457,-0.06865697354078293,-0.32343852519989014,0.03853163495659828,-0.15374740958213806,0.12216366827487946,-0.07325288653373718,-0.0709679126739502,-0.2825860381126404,-0.03355678543448448,0.08965210616588593,0.31409719586372375,-0.1815955638885498,0.05721837654709816,0.13113005459308624,0.08739350736141205,-0.014740505255758762,0.17779824137687683,-0.042215269058942795,0.15642142295837402,0.0731724426150322,-0.19754500687122345,-0.0583515428006649,0.04858430102467537,-0.022028815001249313,-0.14659854769706726,0.14197088778018951,-0.20120173692703247,-0.04865989089012146,-0.11141107231378555,0.13541272282600403,-0.11411683261394501,-0.12960749864578247,-0.06349801272153854,-0.010374030098319054,-0.23669342696666718,-0.07158668339252472,0.09560468792915344,0.001433675060980022,-0.2076040357351303,-0.08289787173271179,0.07380678504705429,0.16216085851192474,-0.15742823481559753,-0.1054186299443245,-0.1263035535812378,-0.0039033726789057255,-0.10069328546524048,-0.13209037482738495,-0.03349624574184418,0.021807916462421417,0.039343271404504776,0.1667027473449707,0.15880073606967926,-0.0014931109035387635,0.12105832248926163,0.0975303202867508,0.1339980959892273,-0.0521254763007164,0.00607864186167717,0.1117561087012291,-0.009697765111923218,-0.283364862203598,-0.06519041210412979,0.004900457337498665,0.03615432605147362,-0.04461902379989624,-0.2509123980998993,-0.23418648540973663,-0.07978282123804092,0.0648321732878685,0.09922197461128235,0.10166654735803604,-0.01589258946478367,0.021455667912960052,0.06861567497253418,0.1759835183620453,0.11471111327409744,0.1191684827208519,-0.0028789376374334097,0.1358003169298172,0.08440554887056351,0.12317019701004028,0.18762879073619843,-0.12433154881000519,-0.004380382597446442,-0.05008493363857269,0.1041678786277771,0.12873101234436035,-0.08165618777275085,-0.05429808795452118,0.06137736514210701,0.0370018295943737,-0.12163123488426208,0.07725758105516434,0.11123558133840561,-0.03542580083012581,-0.09940816462039948,-0.19178447127342224,0.13972987234592438,0.07527562230825424,-0.01621491089463234,0.020344026386737823,-0.04852207005023956,0.007630013395100832,0.20445013046264648,0.05815090239048004,-0.13343779742717743,-0.21231621503829956,-0.06617895513772964,0.17164669930934906,0.14379899203777313,-0.015965590253472328,0.10328271239995956,-0.14040137827396393,0.060880258679389954,0.10755343735218048,0.03312895447015762,-0.01766454614698887,0.09259786456823349,-0.18567003309726715,0.04708889126777649,0.08374985307455063,-0.15417127311229706,-0.3021305799484253,-0.15480200946331024,0.058702342212200165,-0.2814846336841583,-0.06414202600717545,-0.08383558690547943,0.09535375982522964,-0.032453376799821854,0.0634763240814209,0.07379161566495895,0.02337421476840973,0.09236934781074524,0.013893455266952515,0.07261092215776443,-0.07698312401771545,0.0556509867310524,-0.01291182916611433,0.04662582278251648,0.08553275465965271,-0.1453060656785965,-0.0938260555267334,-0.1392076462507248,0.031219882890582085,0.11469468474388123,-0.07212214171886444,-0.020418966189026833,0.015979912132024765,0.02454029954969883,-0.0008026817813515663,-0.057449501007795334,-0.07227364927530289,0.2057959884405136,-0.060475435107946396,-0.16753095388412476,0.032432686537504196,0.18488359451293945,0.05494844913482666,0.12367739528417587,-0.0076602851040661335,-0.03755643591284752,-0.0568801574409008,-0.17535175383090973,-0.10991696268320084,0.06452547013759613,-0.04416933283209801,-0.11744428426027298,0.00880714412778616,-0.053374797105789185,-0.16225489974021912,-0.18655814230442047,0.05374098941683769,-0.13953687250614166,-0.02206120640039444,0.17953051626682281,0.006138523109257221,-0.03778437525033951,-0.04555993527173996,-0.11051801592111588,-0.027254721149802208,-0.23739923536777496,-0.013928701169788837,0.13224540650844574,0.11055969446897507,-0.05735049024224281,0.10658491402864456,-0.1160963773727417,0.09260080754756927,-0.15740422904491425,-0.08060073107481003,-0.14023445546627045,-0.24085339903831482,0.02281797118484974,-0.02590113878250122,0.0661383792757988,-0.06469571590423584,0.027360429987311363,-0.10212839394807816,-0.07355391979217529,-0.1298944056034088,0.2056593894958496,-0.030451787635684013,0.09470126032829285,0.10500295460224152,-0.02248700149357319,-0.0304549690335989,-0.043257247656583786,-0.12890586256980896,0.15458881855010986,0.045930150896310806,0.11860325932502747,-0.04113781079649925,0.03477083146572113,-0.13399089872837067,0.0034679288510233164,0.03066391497850418,-0.1176421195268631,-0.1270262598991394,-0.09183937311172485,-0.031066343188285828,-0.006033965386450291,0.02273816056549549,0.015897240489721298,0.24943777918815613,0.09244238585233688,-0.0825544223189354,0.05309716612100601,-0.006573833525180817,0.15027621388435364,0.08910490572452545,0.053184617310762405,0.14137187600135803,-0.03458510339260101,-0.10644504427909851,-0.11445114016532898,-0.07364755123853683,0.07543451339006424,-0.02908841334283352,-0.25055110454559326,-0.05392533168196678,0.03950633108615875,-0.1466803401708603,-0.11319125443696976,-0.03390691429376602,-0.059524670243263245,-0.031406402587890625,-0.10725678503513336,0.05130501464009285,0.021636126562952995,0.03229524940252304,-0.09620208293199539,0.07077640295028687,-0.01655171997845173,0.227999746799469,0.04119003191590309,0.1163269579410553,0.03808167949318886,-0.18346267938613892,-0.0245248731225729,0.2218470722436905,-0.08652964979410172,-0.07977397739887238,-0.08866620808839798,0.032396309077739716,-0.07345084846019745,-0.1068071648478508,0.2758212089538574,0.1361440271139145,-0.14706829190254211,0.07652193307876587,-0.08767333626747131,-0.10211353749036789,-0.2460167407989502,-0.11379946023225784,-0.10512140393257141,-0.11333287507295609,0.3315584063529968,-0.13136127591133118,-0.11465784162282944,0.06004460155963898,-0.12649017572402954,0.08259592950344086,0.01885172165930271,-0.10051856189966202,0.11762964725494385,0.01655198633670807,-0.06742014735937119,-0.046376921236515045,-0.11349663883447647,-0.021291913464665413,-0.1932121068239212,0.0186831746250391,-0.02445296011865139,0.10246605426073074,-0.06379257142543793,-0.0026448657736182213,-0.027023008093237877,0.01041314285248518,-0.017468223348259926,-0.0942637100815773,0.038638245314359665,-0.24927915632724762,-0.24984897673130035,-0.1384083777666092,-0.03450126200914383,-0.039216503500938416,0.1288813203573227,0.05206703022122383,-0.00919883418828249,0.06981856375932693,0.016027741134166718,-0.1595972329378128,-0.010846683755517006,-0.13081800937652588,-0.1982830911874771,0.04418042302131653,-0.14064590632915497,-0.11288367211818695,0.07515528053045273,-0.09078650176525116,0.10246597230434418,0.05682593211531639,0.08448071032762527,-0.029837841168045998,0.07635065913200378,-0.04290411248803139,-0.20899730920791626,0.06680363416671753,-0.16602662205696106,-0.11869046837091446,-0.12794436514377594,-0.14832812547683716,-0.024645401164889336,0.013502758927643299,0.012395072728395462,0.11367368698120117,-0.029973581433296204,-0.014644773676991463,-0.05253284424543381,-0.05542195215821266,0.030500950291752815,-0.005840535741299391,-0.04003538563847542,-0.1234997808933258,-0.039587460458278656,-0.07969748228788376,0.17797724902629852,0.17643128335475922,-0.0031339055858552456,-0.03847808390855789,-0.09541069716215134,-0.05688099190592766,0.029114633798599243,-0.04092968627810478,-0.20195047557353973,0.08738119900226593,-0.05070756375789642,-0.1114862784743309,-0.13127703964710236,0.1291099339723587,0.020728260278701782,0.0812181755900383,0.10733114928007126,0.013245096430182457,-0.021127013489603996,-0.015441245399415493,0.19104191660881042,-0.12379971146583557,0.07871605455875397,-0.3605577349662781,-0.02659863792359829,-0.1320791393518448,-0.3898969292640686,0.07649685442447662,0.015952643007040024,0.15091083943843842,-0.1730688512325287,-0.35110899806022644,-0.390896737575531,-0.16086071729660034,-0.0987401157617569,0.01573950983583927,0.028438180685043335,0.0824204757809639,-0.012400447390973568,0.22282961010932922,0.13085438311100006,0.2665356993675232,0.2030976414680481,0.20101116597652435,0.3061269223690033,0.03152834251523018,-0.057228561490774155,-0.11170340329408646,-0.2542250454425812,-0.1526748389005661,-0.42057719826698303,-0.10239388793706894,0.14195558428764343,-0.10242074728012085,-0.3253740072250366,-0.41669926047325134,-0.4143788814544678,0.21114245057106018,0.038429953157901764,0.047708239406347275,0.06248971074819565,0.21314527094364166,0.03829400613903999,0.17052815854549408,0.11251340806484222,0.13062553107738495,0.7307469844818115,0.4233001470565796,0.4961812198162079,0.15628859400749207,-0.12058714032173157,0.055829450488090515,-0.30726778507232666,-0.007419360335916281,0.133676216006279,-0.022132640704512596,-0.017303908243775368,0.11210096627473831,0.15451961755752563,0.08181605488061905,-0.1114373728632927,-0.14145046472549438,-0.13386142253875732,-0.04846125468611717,-0.0768231749534607,0.060804419219493866,0.12411173433065414,0.10318984091281891,0.1430692970752716,-0.0724031925201416,-0.10259325802326202,-0.010532107204198837,0.13680821657180786,0.08250265568494797,0.14946775138378143,0.05686555802822113,-0.019035767763853073,0.009568233974277973,0.1613764464855194,0.17283502221107483,0.15012666583061218,-0.033186737447977066,0.006504107732325792,0.05744341388344765,-0.1513238251209259,0.11248030513525009,-0.02345636859536171,0.06134617701172829,0.10412329435348511,0.04533408582210541,0.08805210143327713,-0.15843352675437927,0.0057470593601465225,0.11306851357221603,-0.11933749169111252,0.12724125385284424,0.19544994831085205,-0.02214737795293331,-0.03332444280385971,0.015616925433278084,0.10875912010669708,-0.013070707209408283,-0.181118443608284,-0.03834933042526245,0.008304465562105179,0.1423979550600052,-0.0873560979962349,-0.20132382214069366,-0.036559343338012695,-0.058797597885131836,-0.011208763346076012,0.09816627204418182,0.051369234919548035,0.031529638916254044,-0.1256154477596283,-0.03280634433031082,-0.15776391327381134,-0.09825880080461502,-0.014402011409401894,0.021092604845762253,0.08914659172296524,-0.14630211889743805,-0.25213316082954407,0.017864206805825233,-0.15559028089046478,-0.07823028415441513,0.001057785120792687,0.10520435869693756,-0.1896735578775406,0.13146772980690002,0.015318459831178188,-0.13607217371463776,0.03068072907626629,0.07667256146669388,-0.006684481166303158,-0.08610118180513382,0.11320260912179947,-0.16298149526119232,0.09338584542274475,-0.048819467425346375,0.11624027043581009,-0.12814728915691376,-0.09696241468191147,-0.0684073343873024,-0.004529230296611786,-0.045844972133636475,0.08349993824958801,0.04797736927866936,-0.006440059747546911,0.07199636846780777,0.025834932923316956,0.027342770248651505,0.004601550754159689,-0.04134596511721611,-0.1791568249464035,0.02182753011584282,-0.1083354577422142,-0.0006599980406463146,0.10190042853355408,-0.08533179014921188,0.2506248950958252,-0.07457344979047775,-0.09639309346675873,-0.12622617185115814,0.04962455853819847,-0.11495518684387207,0.20855264365673065,-0.030865682289004326,0.008785201236605644,-0.10230612009763718,0.1601697951555252,-0.10696590691804886,-0.06938126683235168,0.04080534726381302,-0.09230058640241623,-0.040066033601760864,0.0580732598900795,-0.038405485451221466,-0.15702137351036072,-0.040889013558626175,0.18556064367294312,0.02001880295574665,0.03344416245818138,0.00040559787885285914,0.1529211699962616,-0.016762154176831245,0.06367107480764389,0.0958695188164711,-0.04774722456932068,-0.013640169985592365,0.31831520795822144,0.04218902438879013,-0.13563314080238342,0.3376022279262543,0.19321861863136292,0.09885931760072708,0.1617920994758606,-0.011887735687196255,-0.11318151652812958,-0.08266863971948624,-0.04143301025032997,0.03687584400177002,0.22453802824020386,0.13628047704696655,0.020703954622149467,0.13315489888191223,-0.028866693377494812,0.18988876044750214,-0.0826006755232811,-0.030494801700115204,0.232591450214386,-0.14228908717632294,0.06108013540506363,0.10754614323377609,-0.2970849871635437,-0.10358653962612152,0.01335947960615158,0.04273397848010063,0.062318865209817886,-0.06179339438676834,0.006399289704859257,-0.035822026431560516,-0.0073262485675513744,0.12312925606966019,-0.0014200033619999886,0.03980011120438576,0.28756746649742126,0.0532953254878521,0.024722352623939514,0.052050989121198654,-0.03958044573664665,-0.11590740829706192,-0.0891021117568016,-0.09523677080869675,-0.009266555309295654,-0.24776828289031982,-0.30356618762016296,0.18414518237113953,-0.1280108541250229,-0.03683006763458252,0.11284583806991577,-0.008038769476115704,0.05760432034730911,0.19791921973228455,-0.11647073179483414,-0.06626318395137787,-0.0805242657661438,-0.024806061759591103,0.08234107494354248,0.035064104944467545,-0.00215377239510417,0.08617821335792542,0.24914172291755676,-0.05640517920255661,-0.08737730979919434,-0.10431943833827972,0.026664311066269875,-0.12330954521894455,-0.17692139744758606,0.07172558456659317,-0.10947693139314651,0.04974682256579399,-0.10612548887729645,-0.006818155292421579,-0.09761495143175125,0.05338070169091225,0.08696426451206207,0.2516694962978363,-0.11300111562013626,0.10274666547775269,-0.021359188482165337,0.060582730919122696,-0.13369795680046082,0.12076804041862488,0.1619335561990738,-0.04053075611591339,0.007719929795712233,-0.13297057151794434,0.050968851894140244,0.015642205253243446,-0.030134262517094612,0.15029525756835938,-0.0016811261884868145,-0.13798725605010986,-0.061114538460969925,-0.16280512511730194,0.011681769043207169,0.045892614871263504,-0.059360306710004807,-0.04362815245985985,0.07878322899341583,0.11497828364372253,-0.05133591219782829,0.1738404929637909,-0.23049528896808624,-0.17112915217876434,-0.060636505484580994,-0.1243404969573021,0.06711135804653168,-0.022788656875491142,0.06591758877038956,0.01436577457934618,0.15072320401668549,0.028131503611803055,-0.06602025777101517,0.14567573368549347,-0.08883664011955261,0.031171554699540138,-0.09212104231119156,-0.09612099826335907,-0.06276776641607285,0.15480628609657288,-0.1391647309064865,-0.06797461211681366,-0.15657322108745575,0.03477448970079422,0.026146674528717995,-0.16003307700157166,0.056786634027957916,-0.18546758592128754,-0.06631166487932205,-0.15041296184062958,-0.1396261602640152,-0.10049211978912354,-0.03310583531856537,-0.21336090564727783,-0.14510108530521393,0.050114259123802185,-0.21064846217632294,-0.05108419433236122,0.07989273220300674,0.07099467515945435,0.24586749076843262,-0.04555981978774071,-0.035216327756643295,0.008985433727502823,-0.05238697677850723,0.08550166338682175,-0.10467655211687088,0.2940785884857178,-0.15441420674324036,0.11131396889686584,0.06034116819500923,-0.07667163759469986,-0.18149277567863464,0.1286982297897339,0.45071643590927124,0.04203740507364273,-0.05147021636366844,0.08232227712869644,0.014348018914461136,-0.060671791434288025,0.08614662289619446,0.5941587686538696,-0.07196640968322754,0.3902590274810791,-0.006817829329520464,0.4431769847869873,0.040312137454748154,-0.7676854133605957,-0.0067533995024859905,-0.5645790100097656,-0.005092607345432043,0.0952717736363411,0.03605956956744194,0.014712090604007244,-0.046003811061382294,-0.22334934771060944,-0.05408475548028946,0.345656156539917,-0.05950929969549179,0.3905750513076782,-0.03128682076931,-0.7337111830711365,-0.03302067518234253,0.17651598155498505,-0.106460802257061,-0.02278897538781166,-0.04088669270277023,-0.3416067659854889,0.04493078216910362,-0.10284920036792755,0.01431960053741932,-0.265485554933548,-0.005619723815470934,-0.12379434704780579,-0.2440202534198761,0.1289348602294922,-0.1975908726453781,0.024199068546295166,0.15809179842472076,-0.07304942607879639,-0.11780495941638947,-0.2538827657699585,-0.049786925315856934,-0.12494788318872452,0.01010124757885933,0.054002560675144196,-0.08568905293941498,0.11916318535804749,-0.014925780706107616,-0.1269845962524414,-0.27092939615249634,0.09849697351455688,-0.3394719958305359,-0.10052391141653061,-0.14807848632335663,-0.01222943514585495,-0.12499049305915833,-0.07831629365682602,-0.0033894397784024477,-0.2733633518218994,0.13908596336841583,-0.014488493092358112,0.04980594664812088,0.08023818582296371,0.22799384593963623,-0.045840535312891006,0.19872920215129852,-0.051586952060461044,-0.19930750131607056,-0.0172581747174263,-0.09248677641153336,-0.44513797760009766,0.04282008111476898,0.19816333055496216,-0.040289852768182755,-0.07151190936565399,-0.35951265692710876,0.263227641582489,0.06460616737604141,0.008187745697796345,0.1909751445055008,-0.21666133403778076,0.04583064094185829,-0.1249229833483696,0.2794872224330902,0.21369414031505585,0.32808876037597656,0.20909348130226135,0.013738627545535564,-0.18710923194885254,-0.23663853108882904,0.11311285942792892,-0.2101026177406311,0.14655496180057526,0.13633793592453003,0.01111689768731594,-0.25134605169296265,0.10516782104969025,-0.05735393613576889,-0.0011463044211268425,0.16443201899528503,-0.012466957792639732,-0.09489282965660095,0.13018524646759033,-0.16164326667785645,0.2402113527059555,0.358865886926651,0.12322361767292023,0.11785047501325607,-0.2066720575094223,-0.12635132670402527,-0.15808643400669098,-0.13767732679843903,-0.2780076563358307,0.1351642906665802,0.1734146922826767,0.12283957004547119,-0.14598079025745392,0.19099895656108856,-0.1626153290271759,0.005821167957037687,0.010718904435634613,0.2933988571166992,-0.31141939759254456,0.15884406864643097,0.05215664580464363,0.0892433449625969,-0.018906576558947563,0.1120818555355072,-0.047198787331581116,-0.2151489555835724,-0.19562870264053345,-0.037856731563806534,-0.006259373389184475,-0.1743958741426468,0.14235875010490417,0.126047283411026,-0.24110311269760132,-0.017588479444384575,0.1008591428399086,0.0022909780964255333,0.017146069556474686,-0.041050273925065994,0.11516985297203064,-0.24021323025226593,-0.1940642148256302,0.23193493485450745,-0.16169539093971252,0.1384548842906952,0.10548639297485352,-0.2510630786418915,-0.08551092445850372,0.24454772472381592,-0.00699997553601861,0.07306570559740067,0.004745237994939089,0.07779460400342941,-0.11389607936143875,0.03449087217450142,0.309156596660614,0.07816794514656067,-0.1850789189338684,0.09387839585542679,-0.116130031645298,-0.09270214289426804,0.18678775429725647,0.13653716444969177,-0.2680121660232544,-0.13671636581420898,-0.04202285781502724,-0.18046697974205017,0.027666395530104637,-0.1937991827726364,0.1537190079689026,0.08064872771501541,0.030862627550959587,-0.05611264333128929,-0.06324761360883713,0.10095544159412384,0.08213131874799728,-0.08238314837217331,-0.2049618363380432,0.057408981025218964,-0.4444742798805237,0.11145555227994919,-0.2318771928548813,-0.06744302064180374,0.08830801397562027,-0.1648159623146057,0.2435978353023529,-0.13231845200061798,0.2637690007686615,0.09125674515962601,-0.002812728052958846,0.15803934633731842,-0.34225937724113464,-0.14109265804290771,-0.055094167590141296,0.057961251586675644,0.040217332541942596,-0.2266155630350113,0.24418537318706512,-0.16616559028625488,-0.05745219439268112,-0.00023985657026059926,-0.1918841004371643,0.11533934623003006,0.030925048515200615,-0.13173186779022217,0.02861466258764267,0.16660931706428528,-0.10331989079713821,0.004298664163798094,-0.021161256358027458,-0.1297370195388794,0.18368838727474213,-0.0764707550406456,-0.08230648934841156,0.04390772059559822,0.3198727071285248,0.1710197627544403,-0.24772225320339203,0.2574625313282013,-0.3608328104019165,-0.16031834483146667,0.05871147662401199,0.2798898220062256,0.23313486576080322,0.25634926557540894,-0.06236981973052025,0.10508563369512558,-0.13559380173683167,-0.05045135319232941,0.15564380586147308,0.1047045886516571,-0.19431716203689575,-0.07222563773393631,-0.2381921112537384,0.15173758566379547,-0.07063844054937363,-0.19957299530506134,-0.18811601400375366,0.1665971726179123,-0.05451592430472374,0.301319420337677,0.12119940668344498,0.12725938856601715,-0.017570264637470245,-0.020792126655578613,-0.1481953114271164,0.11693546175956726,0.1622617542743683,-0.21270650625228882,-0.21188409626483917,-0.17606273293495178,-0.022878145799040794,-0.0366034209728241,0.21431706845760345,-0.03355247899889946,0.15144813060760498,0.13522185385227203,-0.2550590932369232,-0.19030296802520752,-0.07015811651945114,0.13720335066318512,-0.10274907946586609,0.14798444509506226,-0.3527325987815857,0.0240048635751009,0.13339656591415405,0.009336283430457115,0.05302799865603447,0.15123923122882843,-0.045254118740558624,0.19539035856723785,-0.2104092240333557,-0.2189106047153473,-0.28879982233047485,-0.1042943000793457,-0.14247098565101624,-0.05925764515995979,-0.13526904582977295,0.02037946507334709,-0.27656999230384827,-0.0007786827045492828,0.16049633920192719,-0.009524968452751637,0.05536321550607681,0.12893666326999664,-0.20526747405529022,0.018342817202210426,0.15338927507400513,-0.06559672206640244,0.026845436543226242,0.03780936449766159,0.016859939321875572,0.07383232563734055,-0.2657400965690613,0.17875555157661438,0.1600174754858017,0.04851294308900833,0.041350651532411575,-0.18959380686283112,-0.03108261153101921,-0.010586410760879517,0.044324398040771484,-0.043970637023448944,0.02519209310412407,-0.05919477343559265,0.2354939728975296,0.1089855507016182,-0.16982267796993256,0.07859495282173157,-0.026331497356295586,0.04131953790783882,0.05872581899166107,0.004211347550153732,-0.02512507699429989,0.009415784850716591,-0.08908110857009888,-0.033438790589571,-0.02655906230211258,0.14069435000419617,0.04324909299612045,-0.036506857722997665,0.045373961329460144,0.16322076320648193,0.04602420702576637,-0.16208449006080627,0.06767569482326508,-0.08150612562894821,0.034322693943977356,-0.16282916069030762,-0.09535225480794907,0.1163548156619072,0.2104303538799286,0.14450669288635254,-0.1039365902543068,0.15344445407390594,-0.024825436994433403,-0.1908000111579895,0.00038705545011907816,0.009222273714840412,0.03328610956668854,-0.02110918238759041,-0.10915005207061768,-0.13196158409118652,-0.0444563552737236,-0.08852609992027283,0.07831680029630661,-0.16183364391326904,0.04860195890069008,0.034169748425483704,-0.06962351500988007,0.0015582283958792686,0.20217888057231903,0.1637718230485916,0.1028037741780281,-0.137220561504364,0.046257924288511276,-0.009060356765985489,0.11833290755748749,-0.18242070078849792,0.044051166623830795,0.0670943632721901,0.026922235265374184,-0.06715760380029678,-0.12567175924777985,0.08656078577041626,-0.02793446183204651,-0.09285393357276917,-0.06399325281381607,0.21317705512046814,0.2527952194213867,-0.13455204665660858,-0.015555446036159992,-0.19356587529182434,-0.14188030362129211,0.06303432583808899,0.09989648312330246,0.1728280484676361,-0.018945805728435516,0.1261134147644043,0.033966995775699615,-0.09016221016645432,0.14694879949092865,-0.2054322063922882,-0.10413695126771927,-0.024698305875062943,0.08356273919343948,-0.004452877212315798,0.18587523698806763,-0.048456862568855286,-0.03454325348138809,0.09260375052690506,0.1729726791381836,0.02889588475227356,-0.17669491469860077,0.03752001374959946,-0.037030499428510666,-0.1403568685054779,-0.09465843439102173,0.05455392599105835,0.13498257100582123,0.08649346977472305,0.2208130955696106,0.04019438475370407,-0.1347457468509674,-0.09450787305831909,0.021267391741275787,-0.09312203526496887,0.1363944411277771,0.04445584863424301,-0.1220550686120987,-0.1147385761141777,0.02693597599864006,0.014544575475156307,0.002227170392870903,0.07141116261482239,-0.03905953839421272,-0.08756672590970993,-0.08488771319389343,-0.02495870180428028,-0.09251457452774048,-0.25767338275909424,0.0683138519525528,-0.04288359358906746,-0.07988998293876648,0.04660541191697121,-0.17474092543125153,-0.10535185039043427,0.15986771881580353,0.2786274254322052,0.2317413091659546,0.03721947968006134,0.1870955228805542,0.10418400168418884,-0.050312288105487823,0.005807200912386179,-0.009944070130586624,0.05738983675837517,0.06532891094684601,0.04813194274902344,-0.04973829910159111,0.024347353726625443,0.04802658036351204,-0.12191537767648697,-0.19336402416229248,-0.16578447818756104,-0.10476619750261307,-0.005789253860712051,0.07535836100578308,0.25446903705596924,-0.013382297940552235,-0.31874746084213257,0.23891116678714752,0.3087027966976166,-0.05799536779522896,0.048754382878541946,-0.1273532211780548,0.07369791716337204,0.021899433806538582,0.018878601491451263,-0.013451898470520973,0.048718225210905075,0.005622513126581907,0.1499866396188736,0.11657117307186127,-0.09049878269433975,0.12578772008419037,0.04441944137215614,-0.06516478955745697,-0.13657669723033905,-0.0449388362467289,-0.053559545427560806,0.06406692415475845,-0.12048792839050293,0.2338455617427826,-0.05363796651363373,0.10370318591594696,0.21292687952518463,0.021144885569810867,-0.09309887886047363,-0.12152990698814392,-0.03801162540912628,-0.017641743645071983,0.07931684702634811,0.05621540918946266,-0.03967060148715973,0.08387116342782974,-0.05227893590927124,0.17526471614837646,-0.06147504970431328,0.0051723807118833065,0.20781636238098145,0.101527638733387,-0.0383705236017704,0.002103459555655718,0.14812026917934418,0.05498041585087776,-0.06632750481367111,-0.14120128750801086,0.2820514738559723,0.0019385726191103458,0.24636514484882355,0.3468290865421295,-0.08399252593517303,0.18601098656654358,-0.008895130828022957,0.0435650534927845,-0.05675704404711723,0.1753556877374649,0.04835563525557518,-0.06766936182975769,-0.031746700406074524,0.1807263195514679,-0.022639911621809006,-0.08894887566566467,0.06287658959627151,-0.02494240365922451,-0.04036150872707367,0.08113382756710052,0.10282551497220993,0.10222779214382172,-0.029587887227535248,0.09566168487071991,0.12607738375663757,-0.011269181966781616,0.06373881548643112,-0.1638811081647873,0.13799327611923218,-0.10106739401817322,-0.23815804719924927,-0.09175063669681549,0.11423632502555847,-0.04204059764742851,0.08926501125097275,0.07964207977056503,-0.10375707596540451,-0.13868293166160583,-0.14010031521320343,0.10103298723697662,-0.20225057005882263,-0.08344758301973343,0.21021807193756104,-0.09947028011083603,0.0480927899479866,-0.06395845115184784,0.2370486855506897,0.1247449591755867,-0.05498567596077919,0.17486852407455444,-0.007334814872592688,-0.08850434422492981,-0.11155394464731216,0.011590809561312199,-0.028246082365512848,-0.05943230539560318,0.02016429975628853,-0.02931533195078373,-0.0292144063860178,-0.07947295904159546,-0.049569256603717804,0.14445212483406067,-0.011563912034034729,-0.08231652528047562,-0.07046613097190857,0.07235956937074661,0.011730071157217026,-0.09366176277399063,-0.17127472162246704,0.03621026501059532,-0.05910681188106537,-0.17405085265636444,-0.20801123976707458,0.051369886845350266,0.03838248923420906,0.05505213141441345,-0.18919362127780914,0.14464206993579865,0.03426039591431618,0.11066371947526932,-0.0480126328766346,-0.114603690803051,-0.16884784400463104,-0.06074165180325508,-0.007427169941365719,0.11995089799165726,0.14943519234657288,-0.18331220746040344,0.1499609500169754,0.052712853997945786,0.01916973479092121,-0.12762393057346344,-0.11048074066638947,0.07672421634197235,-0.044246166944503784,0.17466628551483154,-0.15477946400642395,-0.09116696566343307,-0.2693292200565338,0.017396479845046997,-0.13613063097000122,-0.1401359587907791,0.04541200026869774,0.14203640818595886,0.2120523601770401,-0.1344846785068512,0.16427810490131378,0.16419672966003418,0.05534793809056282,0.012822067365050316,0.1378544420003891,0.09898746013641357,-0.12769709527492523,-0.03431963920593262,-0.08896385133266449,-0.15615859627723694,-0.1377846747636795,0.14205336570739746,0.06419213861227036,-0.18609069287776947,-0.05001388117671013,-0.10404738783836365,0.0759284645318985,0.05158945173025131,0.011136743240058422,-0.07827707380056381,0.10887714475393295,-0.04749525710940361,0.13422231376171112,0.23430843651294708,0.02348748780786991,0.12479788064956665,0.15994197130203247,-0.0323002003133297,-0.03276887163519859,-0.05875479429960251,0.058162953704595566,-0.011415059678256512,-0.084160715341568,0.10457614809274673,0.06222741678357124,0.052572671324014664,-0.03744760528206825,0.010401406325399876,-0.02736220881342888,-0.17678332328796387,-0.05508394539356232,0.16797444224357605,0.16890402138233185,0.08300650119781494,-0.036938197910785675,-0.07411691546440125,-0.1888284683227539,0.10375375300645828,-0.18813171982765198,-0.11128420382738113,0.05992691218852997,-0.02306310087442398,0.01889725960791111,-0.14528539776802063,0.23239488899707794,-0.11288522183895111,-0.03578927740454674,0.012487384490668774,0.08385315537452698,-0.004257303662598133,-0.29245495796203613,-0.08307642489671707,0.11763888597488403,-0.04829137399792671,-0.04110288247466087,-0.025935841724276543,-0.07003490626811981,-0.02822227030992508,0.03604276478290558,0.07196373492479324,-0.017177335917949677,-0.08915329724550247,0.05245301499962807,0.0406511127948761,-0.18190354108810425,-0.11882956326007843,-0.09394717961549759,0.025179246440529823,-0.14331479370594025,-0.0742865651845932,0.05245768651366234,0.06598145514726639,0.0060078478418290615,-0.05167238414287567,-0.01107091922312975,-0.012806037440896034,-0.05063346028327942,-0.2931271195411682,-0.17454522848129272,-0.20483048260211945,-0.012771863490343094,-0.04840636998414993,-0.13610708713531494,0.11856996268033981,-0.07968399673700333,0.18230178952217102,-0.06629765778779984,-0.10542550683021545,0.14481142163276672,-0.03350182995200157,-0.17927074432373047,-0.045787762850522995,0.125797837972641,-0.16521784663200378,0.16340678930282593,0.16631753742694855,-0.06727706640958786,-0.07254181057214737,-0.13316108286380768,-0.02221783623099327,0.3478771150112152,0.007330670952796936,0.02812112681567669,-0.051753152161836624,0.011884466744959354,0.061835650354623795,-0.18223045766353607,0.19252197444438934,0.022756783291697502,-0.11120998114347458,0.048571206629276276,-0.01679062470793724,0.022252123802900314,-0.19519253075122833,-0.04685681685805321,-0.09325552731752396,-0.4023357331752777,-0.10751857608556747,0.13035188615322113,0.020339936017990112,0.1273893117904663,-0.07518251985311508,-0.07100613415241241,-0.04499151185154915,0.03959956392645836,0.028417257592082024,0.15321040153503418,0.052105192095041275,0.07207486033439636,-0.02004317194223404,-0.09859251230955124,-0.022289371117949486,-0.16426615417003632,-0.09226761758327484,0.007697860710322857,