{"version":"0.5.4","metadata":{"date":"2026-05-26T18:44:07","sample_rate":48000,"loudness":-29.656017303466797,"training_esr":0.0729625025267091,"pretrained":"POWER 10.nam","architecture":"STANDARD","input_level_dbu":17.8,"output_level_dbu":-8.9},"architecture":"WaveNet","config":{"layers":[{"input_size":2,"condition_size":2,"channels":16,"head_size":8,"kernel_size":3,"dilations":[1,2,4,8,16,32,64,128,256,512],"activation":"Tanh","gated":false,"head_bias":false},{"input_size":16,"condition_size":2,"channels":8,"head_size":1,"kernel_size":3,"dilations":[1,2,4,8,16,32,64,128,256,512],"activation":"Tanh","gated":false,"head_bias":true}],"head":null,"head_scale":0.02,"rate_condition_hidden":16,"rate_condition_num_biases":240},"weights":[0.20227918028831482,-0.014602391049265862,0.7879934906959534,0.025557981804013252,-1.0670244693756104,-0.012381686829030514,-0.9472780823707581,-0.03094722330570221,-0.6389063000679016,0.02658155933022499,0.5212106108665466,-0.028852637857198715,-0.2239689975976944,-0.021657289937138557,1.061958909034729,-0.010420853272080421,-0.27444401383399963,0.01982501521706581,0.42991504073143005,-0.0099504878744483,-0.5029963254928589,-0.03145335242152214,-0.4077618718147278,-0.029741451144218445,-1.2605571746826172,-0.009629716165363789,-0.8367955684661865,-0.02343469299376011,-0.5592600107192993,0.0179873239248991,0.22030344605445862,0.028056927025318146,0.3010846674442291,0.390012264251709,-0.20396319031715393,0.20014642179012299,0.2551445960998535,0.005454357247799635,-0.2934240996837616,-0.10223574191331863,0.08543910831212997,-0.2464970052242279,-0.07590536028146744,-0.021757422015070915,-0.36602821946144104,-0.26583132147789,0.04260427877306938,0.395554780960083,0.13394750654697418,-0.1706348955631256,-0.3835195302963257,-0.4265746772289276,0.006164921447634697,0.38850000500679016,0.2769639492034912,-0.038176607340574265,-0.27231958508491516,-0.33491572737693787,0.11550531536340714,0.13596703112125397,0.12199968844652176,-0.17797386646270752,-0.17714831233024597,-0.13730086386203766,0.04714541882276535,-0.2854662835597992,-0.12764902412891388,0.2579578459262848,-0.2064998894929886,-0.19070082902908325,0.20700040459632874,-0.3462986648082733,-0.18072204291820526,-0.002466547302901745,-0.36719271540641785,-0.2952127158641815,0.16494958102703094,0.32248926162719727,0.1846279501914978,-0.056415047496557236,-0.014604020863771439,0.016469798982143402,-0.35992950201034546,-0.11890672892332077,0.11537311971187592,-0.26915061473846436,0.0445418618619442,-0.06894148141145706,0.4647381007671356,0.2741030752658844,0.10777559131383896,0.5387296080589294,0.16294649243354797,-0.1594531238079071,0.3993607461452484,-0.22348110377788544,-0.10328333079814911,-0.2620401382446289,0.21382194757461548,-0.1834147870540619,0.41518697142601013,-0.17975275218486786,-0.008340293541550636,-0.475132018327713,0.1648230403661728,-0.1284911185503006,0.4235783517360687,-0.05779155716300011,0.13995422422885895,-0.3303301930427551,-0.0002596834674477577,-0.11634901165962219,0.4815855026245117,0.16604046523571014,-0.1570262461900711,0.3287113904953003,0.2941141724586487,0.08282585442066193,0.35068628191947937,0.11792770773172379,-0.15356282889842987,0.4035229980945587,0.027064798399806023,-0.14157824218273163,0.3725462257862091,-0.08507350087165833,-0.02533089928328991,-0.2887754738330841,-0.1622791737318039,0.40624725818634033,0.13151976466178894,-0.14926299452781677,0.1359185129404068,0.02099231444299221,0.04402492567896843,-0.1418631225824356,0.037034772336483,0.03614438325166702,-0.2452573925256729,0.05201738327741623,-0.1194617822766304,-0.2758326828479767,-0.06203928962349892,-0.09523642808198929,0.1393885463476181,-0.09711675345897675,0.03401891887187958,-0.1981392204761505,-0.10699951648712158,-0.02951580286026001,0.28253886103630066,0.006078924983739853,0.03843211382627487,-0.22636836767196655,0.004565809853374958,0.06329880654811859,0.32729431986808777,0.11202868819236755,0.17269697785377502,-0.19478890299797058,-0.1426030844449997,-0.02928939089179039,-0.08739597350358963,-0.010150550864636898,-0.047737956047058105,-0.2876759171485901,-0.15446187555789948,-0.0962362140417099,-0.20215114951133728,0.061946723610162735,0.09641525149345398,-0.3231324255466461,0.06531911343336105,-0.17450158298015594,0.1867644041776657,-0.05063103139400482,-0.2701601982116699,-0.4080597460269928,-0.337899386882782,-0.41544222831726074,-0.3276212811470032,-0.199978306889534,0.2366531789302826,0.37167981266975403,0.08342739939689636,0.28035396337509155,0.43645861744880676,0.1444597691297531,0.41792112588882446,0.3637896776199341,0.07192937284708023,-0.19538049399852753,-0.3301848769187927,-0.2659026086330414,0.3950616717338562,0.24996869266033173,0.23848600685596466,-0.3374879062175751,-0.2188604176044464,-0.17797653377056122,0.3445032238960266,0.37798839807510376,0.16682052612304688,-0.3247738480567932,-0.43748173117637634,-0.13098973035812378,0.3961722254753113,0.41307875514030457,0.09740079939365387,0.29392778873443604,0.20879988372325897,0.12228710204362869,0.22003565728664398,0.36908861994743347,0.12940888106822968,0.28842583298683167,0.31581392884254456,0.29760411381721497,0.177355095744133,0.20801518857479095,0.11689573526382446,-0.16114822030067444,-0.3942146301269531,-0.07926282286643982,-0.21178452670574188,0.1290220469236374,-0.021072860807180405,-0.19295285642147064,0.16355901956558228,0.03609643131494522,0.17413094639778137,-0.11816399544477463,-0.1689533293247223,0.08352618664503098,-0.03655197098851204,-0.1905769258737564,0.19980385899543762,0.03753547742962837,0.026950735598802567,-0.20817913115024567,-0.016788633540272713,0.09740957617759705,0.07169320434331894,-0.22041217982769012,-0.12592634558677673,-0.20447471737861633,0.1312934309244156,0.16780510544776917,0.24809080362319946,0.027543898671865463,0.07547447830438614,-0.29448604583740234,0.1782141774892807,-0.07002420723438263,0.08266890794038773,-0.13554619252681732,-0.047737281769514084,0.2638917565345764,-0.20752689242362976,-0.08765242993831635,0.24774692952632904,-0.2794748544692993,0.04550692439079285,0.0433446429669857,-0.14572961628437042,-0.09287525713443756,0.1265587955713272,-0.08901796489953995,0.09060966968536377,-0.1883750855922699,0.11224329471588135,0.04387940093874931,-0.4579213857650757,0.16840346157550812,0.20454956591129303,-0.36273911595344543,-0.04745001345872879,0.31026068329811096,0.33811208605766296,0.07363200932741165,-0.16618548333644867,0.2148701548576355,-0.0832526758313179,-0.18539424240589142,0.3838987946510315,-0.007918632589280605,-0.30064788460731506,-0.3419092297554016,-0.09340803325176239,0.2632211148738861,0.22842149436473846,-0.19676882028579712,-0.1422865390777588,-0.35513725876808167,0.021749170497059822,0.26116400957107544,0.28954625129699707,-0.15562106668949127,-0.36535897850990295,-0.15796349942684174,0.06366710364818573,0.3478209376335144,0.22234372794628143,-0.011482790112495422,-0.2797323763370514,0.2725908160209656,-0.12876111268997192,-0.20570097863674164,0.3074895739555359,-0.04168117791414261,-0.2539200186729431,0.17258331179618835,0.059794239699840546,-0.32994547486305237,0.32152312994003296,-0.09198801219463348,-0.2935044765472412,-0.2748631238937378,-0.0027136735152453184,0.290953129529953,-0.21642093360424042,0.23971626162528992,-0.04118344932794571,-0.1981966197490692,0.2460440695285797,-0.11131653189659119,0.1332513689994812,-0.22071678936481476,0.132343128323555,0.21154576539993286,-0.13398629426956177,0.1925075799226761,0.15719114243984222,-0.22304388880729675,0.12436360865831375,-0.22722089290618896,0.23334656655788422,-0.05189911648631096,0.19307170808315277,-0.2211344987154007,0.242569699883461,-0.11754098534584045,0.289762407541275,-0.05895988270640373,0.31091466546058655,-0.31980863213539124,-0.04299489036202431,-0.3691459894180298,0.3648763597011566,0.01172620989382267,0.18749189376831055,-0.1267450898885727,0.2298228144645691,0.4279506504535675,-0.06416613608598709,0.24001705646514893,0.22183577716350555,-0.2496432214975357,0.20307321846485138,0.3386852443218231,-0.2766587734222412,0.21936942636966705,0.3000124990940094,-0.1373056322336197,-0.027549386024475098,-0.28221943974494934,0.14521364867687225,-0.04490441456437111,-0.2902783453464508,0.3013724088668823,0.1887694150209427,-0.10183998942375183,0.16369414329528809,0.253294974565506,0.06926707923412323,-0.17334523797035217,-0.27131372690200806,0.013672541826963425,-0.3405482769012451,-0.07796681672334671,0.2911531329154968,-0.036180369555950165,-0.021478869020938873,-0.3408123254776001,0.07751353085041046,0.11734917014837265,0.09033890068531036,-0.182944193482399,-0.32872986793518066,-0.24914580583572388,0.06084946542978287,0.08521303534507751,0.3566757142543793,-0.06324702501296997,-0.030844219028949738,-0.0974530428647995,0.31265777349472046,0.10955739766359329,0.20756982266902924,-0.129103884100914,-0.17153647541999817,0.3110598921775818,-0.1676090508699417,-0.11441104114055634,0.11800602078437805,-0.14204390347003937,-0.16184677183628082,0.12348292768001556,-0.29822638630867004,-0.26599130034446716,0.09080344438552856,-0.0743946060538292,-0.03663976490497589,-0.16387464106082916,0.21008893847465515,0.35061943531036377,0.09253005683422089,0.16081658005714417,0.02431456558406353,0.17114080488681793,0.15706491470336914,-0.03363455832004547,0.09771066904067993,0.006455597002059221,-0.12971745431423187,0.04607180878520012,-0.1798216998577118,-0.09569113701581955,0.06627731770277023,-0.1203489601612091,-0.20324388146400452,0.0026362668722867966,0.08370842039585114,0.06989184021949768,-0.004280358087271452,0.004327122587710619,-0.08869410306215286,-0.04645730182528496,0.1143122985959053,0.15026788413524628,0.019648544490337372,-0.26931032538414,-0.13576871156692505,-0.05714517831802368,0.05773618817329407,0.1469288468360901,-0.13256758451461792,-0.0475052073597908,0.046156276017427444,-0.028231628239154816,-0.19779199361801147,-0.13780267536640167,-0.00783755537122488,-0.21235425770282745,-0.004707112442702055,-0.16720806062221527,-0.2374948114156723,-0.21349529922008514,-0.08185897767543793,-0.023090116679668427,-0.23125697672367096,0.13410992920398712,0.05658081918954849,0.12425027787685394,-0.0575377456843853,-0.5272353887557983,0.2878152132034302,-0.028622491285204887,-0.05366911366581917,0.21417468786239624,0.01761612296104431,0.3327760696411133,-0.1250949501991272,0.17221221327781677,0.085182785987854,-0.18440084159374237,-0.013353624381124973,0.18669158220291138,-0.0874171257019043,-0.2377714216709137,-0.195273756980896,0.2019801139831543,0.09686475992202759,0.24638202786445618,-0.29241064190864563,-0.160660982131958,-0.1545615792274475,0.27218276262283325,0.20542819797992706,0.2828245759010315,-0.07657202333211899,-0.2602368891239166,-0.36310213804244995,0.19624309241771698,0.011735385283827782,0.28422513604164124,-0.2626979947090149,0.026480108499526978,0.09669966250658035,-0.09138036519289017,0.09735427796840668,0.3238438665866852,-0.0452909916639328,0.18662452697753906,0.2107246071100235,-0.18290209770202637,0.0932583436369896,0.2495843768119812,-0.045163147151470184,-0.16771049797534943,-0.16508379578590393,0.16607554256916046,0.31234070658683777,-0.22330552339553833,0.25944235920906067,0.5142697095870972,-0.2779611647129059,0.15368658304214478,-0.30498772859573364,0.23670737445354462,0.0745326429605484,-0.4691828489303589,0.1837955117225647,-0.0021787865553051233,-0.3921487331390381,0.2252388298511505,-0.06391014158725739,0.44807183742523193,-0.21006350219249725,-0.023961752653121948,-0.40547236800193787,0.1750224381685257,-0.1933983862400055,0.38783925771713257,-0.07110892981290817,0.030952569097280502,-0.31093141436576843,0.13790136575698853,0.012211657129228115,0.25160905718803406,-0.2501811981201172,-0.03860628977417946,-0.2879946827888489,0.07883981615304947,-0.08909188956022263,-0.4839495122432709,0.2705669701099396,0.06064477935433388,-0.4930242896080017,0.032448653131723404,-0.16083186864852905,-0.3826057016849518,0.10566315054893494,-0.14917612075805664,-0.39395737648010254,0.19867105782032013,-0.09783802926540375,0.46410056948661804,-0.13176120817661285,0.05544091388583183,0.06301482021808624,-0.1298668533563614,-0.05642932653427124,0.002974799834191799,-0.20741529762744904,0.1779627799987793,-0.1283298134803772,0.02191346324980259,0.11295557767152786,-0.08834328502416611,0.1845291405916214,-0.04758581891655922,-0.013529384508728981,0.14585517346858978,0.07253579795360565,-0.00570943858474493,-0.31859979033470154,-0.06175550818443298,-0.07273278385400772,0.28616568446159363,-0.1382511854171753,0.1245209351181984,-0.19756923615932465,0.0001552439498482272,0.12167126685380936,0.28035473823547363,0.10429975390434265,0.07448557764291763,-0.22374285757541656,-0.07091014832258224,-0.014884279109537601,0.28494003415107727,-0.08959968388080597,-0.13556541502475739,0.22859136760234833,0.09570076316595078,-0.032815806567668915,0.042286407202482224,-0.16033804416656494,0.04098637402057648,0.14484775066375732,-0.10572932660579681,0.04450518637895584,0.22553329169750214,0.09466125816106796,0.14456795156002045,-0.21495649218559265,-0.07411913573741913,-0.24800574779510498,0.2677631974220276,-0.00041681076982058585,-0.14179284870624542,-0.06101292371749878,0.021069994196295738,0.3376901149749756,0.06694858521223068,-0.01309092529118061,0.15140369534492493,-0.15983527898788452,0.2509201765060425,0.12304048985242844,-0.14481012523174286,0.17527511715888977,-0.24920958280563354,0.009003324434161186,-0.11223368346691132,0.1727445274591446,-0.19834701716899872,0.24930867552757263,-0.26218244433403015,0.11734838038682938,0.01823960803449154,0.24173524975776672,-0.07544239610433578,0.2215440720319748,-0.1667080819606781,0.013668517582118511,0.03449058532714844,0.24272044003009796,-0.20381392538547516,0.08398153632879257,0.10923579335212708,0.04466833174228668,0.10182756930589676,0.07157701998949051,-0.07261163741350174,0.20140749216079712,0.24144916236400604,-0.013346470892429352,0.12617263197898865,0.23784658312797546,-0.1076924130320549,0.03978574648499489,-0.32264697551727295,-0.0386110283434391,-0.06236327439546585,-0.08519158512353897,-0.13056738674640656,-0.1430232971906662,-0.05925607308745384,-0.20552116632461548,-0.03250458091497421,-0.006742178462445736,0.2394305169582367,0.05833626165986061,0.03382113575935364,0.19488611817359924,0.1120540127158165,0.18860888481140137,0.021510818973183632,0.05144362524151802,-0.1272517293691635,-0.0954134538769722,-0.0396265983581543,-0.03231263533234596,0.19999200105667114,0.1743951290845871,-0.10845310240983963,-0.014437316916882992,-0.2846968173980713,0.06643888354301453,0.265390545129776,0.16368341445922852,0.04540716111660004,-0.16331513226032257,-0.057380303740501404,-0.0822458490729332,0.09715648740530014,0.14928682148456573,0.10287891328334808,0.16422605514526367,0.2921049892902374,0.055282942950725555,0.11502841114997864,0.2724989354610443,0.032158154994249344,0.2445254623889923,0.07498671859502792,0.05271804705262184,0.11046694219112396,0.2320069968700409,0.06499374657869339,-0.1587357074022293,-0.30647677183151245,0.043294358998537064,0.21600009500980377,-0.059931430965662,-0.027557814493775368,0.21798506379127502,0.0629405602812767,-0.042608629912137985,-0.2538434565067291,0.180890753865242,-0.17050667107105255,-0.09834859520196915,0.09090422838926315,-0.1030101627111435,-0.0626298114657402,-0.03554236516356468,0.06677188724279404,0.022916322574019432,-0.11134251207113266,-0.022835027426481247,-0.07222840934991837,-0.006114770658314228,0.14139680564403534,0.0957193374633789,-0.15354853868484497,-0.14822079241275787,-0.2678447365760803,0.2337305247783661,-0.0008238591253757477,0.12251675873994827,-0.05285656824707985,0.03217972069978714,-0.029623862355947495,0.17848439514636993,-0.1714029312133789,-0.17003166675567627,-0.02114962413907051,-0.13872162997722626,-0.08707882463932037,0.2136756181716919,-0.17637591063976288,-0.03986433893442154,-0.0025822301395237446,-0.06395368278026581,0.00685070501640439,0.06088864803314209,0.05893734097480774,0.08293217420578003,0.0583614706993103,-0.04963100701570511,-0.4570724666118622,0.04301822930574417,-0.2154684066772461,-0.4061604142189026,-0.02803978882730007,0.22644203901290894,0.2518073618412018,0.10762867331504822,0.2371896356344223,0.3922162652015686,-0.03486589714884758,0.08598050475120544,0.24776415526866913,-0.0865166187286377,-0.09982078522443771,-0.18558864295482635,0.09618344902992249,0.10229935497045517,0.39293843507766724,-0.028244687244296074,-0.0009554717689752579,-0.3529116213321686,-0.13784565031528473,0.10739044100046158,0.40356987714767456,-0.10720111429691315,0.03290564566850662,-0.2467699944972992,-0.12981826066970825,0.0813504159450531,0.43938523530960083,-0.07067173719406128,0.06883760541677475,0.3618672490119934,-0.09486978501081467,0.19163714349269867,0.3703714609146118,0.12990805506706238,0.020748453214764595,0.4367291033267975,-0.04480733349919319,0.24629223346710205,0.14775724709033966,-0.09799615293741226,0.0025792154483497143,-0.32941123843193054,-0.023812413215637207,-0.054056327790021896,-0.08950232714414597,-0.03863738849759102,-0.12234771251678467,0.01051652804017067,0.016690261662006378,-0.004317645449191332,-0.021955076605081558,0.10250511765480042,0.05682683363556862,-0.03224654123187065,-0.02083445154130459,-0.008212517946958542,-0.07221915572881699,-0.011728648096323013,-0.0035429808776825666,0.3392755687236786,-0.0164606012403965,-0.8293299078941345,-0.013204229064285755,0.8201282024383545,-0.014845008961856365,-0.9151695370674133,0.001329721068032086,0.059996869415044785,0.10717851668596268,1.1122432947158813,-0.0036211733240634203,0.9200856685638428,-0.07022342830896378,-0.40873149037361145,0.10865388065576553,0.2527926564216614,-0.03260008618235588,0.24108360707759857,0.04122583568096161,-0.42440739274024963,0.08496996015310287,-0.32084178924560547,0.023882009088993073,0.16643677651882172,-0.031194712966680527,-0.8635210394859314,0.00940188392996788,0.08754494786262512,0.017169423401355743,0.38986197113990784,-0.010962790809571743,-0.06427844613790512,0.3280811011791229,-0.006070554256439209,0.16603025794029236,0.06515789031982422,-0.09225942939519882,0.4086654782295227,-0.32233211398124695,-0.11124597489833832,-0.03292551636695862,-0.24578651785850525,-0.06883249431848526,0.33463189005851746,0.07227727025747299,0.046300116926431656,-0.09058895707130432,-0.07408057898283005,-0.1987157016992569,-0.30317720770835876,0.11839857697486877,0.23238824307918549,0.05854043364524841,-0.2560475170612335,0.2995787560939789,0.004067498259246349,0.29372501373291016,0.10240860283374786,0.08815224468708038,-0.08729138970375061,-0.09666477143764496,0.04973534122109413,0.2375609576702118,-0.03710398077964783,0.17526966333389282,-0.03195732459425926,0.27864205837249756,-0.16894932091236115,-0.2985389828681946,0.19169189035892487,-0.11766035109758377,-0.06549323350191116,-0.15355417132377625,0.21958446502685547,-0.21021069586277008,0.16726157069206238,0.3420119285583496,0.020199144259095192,-0.015384219586849213,0.22102008759975433,-0.13105806708335876,-0.04685645177960396,-0.27959126234054565,-0.22831270098686218,-0.007374725304543972,0.06829556077718735,-0.24642197787761688,-0.1719714105129242,0.15594077110290527,-0.24413877725601196,0.05687336623668671,0.21592728793621063,0.16249632835388184,-0.22414612770080566,0.05141594633460045,-0.2342160940170288,-0.20698398351669312,-0.324972540140152,0.23478785157203674,0.10129190236330032,-0.059710532426834106,0.15419775247573853,-0.11139477044343948,0.03570028766989708,0.3109086751937866,-0.2213301658630371,0.2576124370098114,0.04356389492750168,0.20527903735637665,-0.23306532204151154,0.14670053124427795,-0.2853381633758545,-0.06074821576476097,0.11439680308103561,0.10666169226169586,0.34448203444480896,0.5067123174667358,0.37470224499702454,0.18122734129428864,0.23674945533275604,-0.08644009381532669,-0.38765186071395874,-0.20145732164382935,-0.01472123060375452,-0.1973983496427536,0.17896227538585663,0.1060255691409111,0.09981721639633179,0.14073914289474487,0.3947894275188446,0.12171082198619843,-0.03439357131719589,-0.11717802286148071,0.76882004737854,0.2542800009250641,0.13293106853961945,-0.4316949248313904,-0.48598340153694153,-0.03443135321140289,0.31835779547691345,-0.23134654760360718,0.1392800509929657,-0.5008082985877991,0.310991108417511,0.017207365483045578,0.3474683463573456,-0.2908187806606293,-0.246855691075325,0.3225206434726715,0.1790577471256256,-0.004015951417386532,0.19167162477970123,-0.28304070234298706,0.22227467596530914,-0.28073906898498535,0.04120795056223869,-0.21183878183364868,-0.010575471445918083,-0.023851070553064346,-0.03652889281511307,-0.11317557096481323,-0.20262816548347473,-0.2455310970544815,0.24491828680038452,-0.27465417981147766,-0.2287156581878662,0.07925403118133545,-0.17298366129398346,-0.23849917948246002,0.38049042224884033,0.09112488478422165,-0.03812025859951973,-0.15304595232009888,0.1966242790222168,-0.0751609355211258,-0.19169242680072784,-0.06529240310192108,0.2107834815979004,-0.3535595238208771,-0.23005157709121704,0.2327776998281479,0.09631611406803131,-0.13017839193344116,0.08211228251457214,0.199343740940094,0.0293252095580101,0.061922237277030945,0.20517779886722565,0.07730065286159515,-0.15288887917995453,-0.00981767475605011,0.014289828948676586,0.2861424684524536,-0.35458460450172424,0.2110748440027237,-0.07308704406023026,-0.3709511160850525,0.06306641548871994,-0.07361525297164917,0.02338520996272564,-0.10129224509000778,-0.212795227766037,-0.01885758526623249,-0.09675560146570206,0.2073061317205429,-0.03558272868394852,0.3208613395690918,0.09812748432159424,-0.07991162687540054,0.32836073637008667,0.010494685731828213,0.19816531240940094,0.10083431005477905,0.15230751037597656,-0.011921368539333344,0.005546499975025654,-0.31969985365867615,-0.12515300512313843,-0.316118985414505,-0.07312781363725662,0.10252785682678223,-0.07157667726278305,-0.35453441739082336,-0.08416985720396042,0.053451403975486755,0.03613831847906113,0.06601426750421524,-0.03921850025653839,-0.3065919876098633,0.29684925079345703,0.06197861209511757,0.12846161425113678,0.07285160571336746,-0.2975710332393646,0.1414971649646759,0.35539114475250244,-0.08618996292352676,-0.34083908796310425,0.21400485932826996,-0.07650285214185715,-0.16598066687583923,-0.2567630410194397,0.19281767308712006,-0.30292463302612305,-0.03811635449528694,0.1344628483057022,-0.07998555898666382,-0.05384024232625961,-0.02846848964691162,0.0005690993857569993,0.1015530601143837,-0.16246531903743744,0.026839734986424446,-0.3157465159893036,0.32888326048851013,-0.23971453309059143,0.3183908462524414,-0.15320545434951782,-0.03339354321360588,0.14769265055656433,-0.11400581151247025,0.19120702147483826,0.23222960531711578,-0.31342118978500366,0.1416408270597458,-0.005249353591352701,-0.019031962379813194,0.1543484926223755,0.2857429087162018,-0.25968417525291443,0.0978134498000145,0.26956549286842346,0.07685163617134094,0.3587348461151123,-0.1531359851360321,0.07542356103658676,0.2726367712020874,0.19994837045669556,0.44644325971603394,-0.09458363801240921,-0.3737809360027313,0.09799361228942871,-0.3327101469039917,0.0663694217801094,0.1237507164478302,0.25879141688346863,-0.3082219958305359,0.17080184817314148,-0.11975220590829849,0.22173985838890076,-0.10146986693143845,-0.18119600415229797,-0.03840763494372368,0.13003893196582794,0.0025249856989830732,-0.042990799993276596,-0.15989840030670166,0.08287408202886581,0.048208530992269516,0.03806396573781967,0.095100037753582,0.061378560960292816,-0.06118495762348175,-0.034840770065784454,-0.24193736910820007,-0.14190731942653656,0.23087625205516815,0.18924212455749512,0.17187154293060303,-0.10322041064500809,-0.09358545392751694,-0.042565200477838516,-0.12467776983976364,0.043648846447467804,-0.018389388918876648,0.003889096900820732,0.06284529715776443,0.07314043492078781,0.2862306535243988,-0.10983863472938538,-0.08743249624967575,-0.1444072425365448,-0.5560203194618225,-0.052639272063970566,-0.029571430757641792,-0.1616763323545456,-0.11336133629083633,-0.08455102890729904,-0.011963091790676117,0.056639790534973145,-0.09821653366088867,0.04938923940062523,-0.068492591381073,-0.13113100826740265,-0.07992994785308838,-0.06785297393798828,-0.09124729782342911,-0.34117600321769714,0.06283329427242279,-0.09565764665603638,0.023731229826807976,-0.13268843293190002,-0.12287822365760803,0.14998115599155426,-0.16157804429531097,-0.09034185111522675,0.05342976376414299,-0.06406278908252716,0.1330370455980301,-0.25672557950019836,-0.04110978916287422,-0.028090612962841988,-0.07239111512899399,0.14256525039672852,0.025490039959549904,0.1449885219335556,0.2100464403629303,-0.12346366047859192,-0.09665575623512268,0.005885651800781488,-0.0847407802939415,0.09452265501022339,-0.05461985990405083,0.14466944336891174,-0.028539229184389114,0.11768493056297302,-0.25718259811401367,-0.3445599377155304,-0.04140967130661011,0.04558297246694565,-0.2553780972957611,-0.20249518752098083,0.04457429423928261,-0.15858103334903717,0.08283960074186325,-0.18325047194957733,-0.12525302171707153,-0.06473686546087265,0.17319011688232422,0.08278489112854004,-0.13597285747528076,0.09898948669433594,0.13838155567646027,-0.1375926434993744,-0.4032685458660126,-0.357425332069397,0.25779247283935547,-0.13949498534202576,-0.07730872184038162,-0.10650627315044403,-0.0376395508646965,0.04602263867855072,-0.01651201769709587,-0.07389543205499649,-0.10166845470666885,-0.11078676581382751,-0.12285151332616806,-0.02165604755282402,-0.06273685395717621,-0.16768085956573486,-0.23213592171669006,-0.0453377403318882,0.2514185607433319,0.13490504026412964,-0.017627738416194916,0.04558621719479561,0.0002657945442479104,0.07240360975265503,0.17981524765491486,0.09183766692876816,0.018601201474666595,0.10824674367904663,0.0682445839047432,0.13838066160678864,-0.24812614917755127,0.0924743264913559,-0.017788004130125046,0.1733410805463791,-0.2111319899559021,-0.31202495098114014,-0.10647719353437424,-0.19283854961395264,0.05300147458910942,0.28610676527023315,-0.10226688534021378,-0.03887045755982399,0.025531822815537453,0.11507809907197952,-0.14045898616313934,-0.022302333265542984,-0.09636446088552475,0.12010897696018219,0.09175124019384384,-0.1825532764196396,0.1287083625793457,0.11497116088867188,0.035738080739974976,-0.050816405564546585,-0.09570058435201645,-0.024463988840579987,0.06263789534568787,-0.1385922133922577,0.04234981909394264,0.058822352439165115,-0.1007186695933342,0.026259684935212135,0.17126961052417755,-0.22570136189460754,-0.0637415200471878,0.11144942790269852,0.043028585612773895,0.05398307740688324,0.009579336270689964,0.14847655594348907,-0.2847254276275635,-0.21033301949501038,0.1561163365840912,0.08782463520765305,-0.09354691207408905,0.058453984558582306,-0.1263585090637207,-0.13051551580429077,-0.5663980841636658,0.3429933190345764,0.027108194306492805,-0.2592945694923401,0.09927783161401749,0.01551850512623787,-0.31978753209114075,0.16324791312217712,0.13291677832603455,0.11407937854528427,-0.2755671441555023,0.05734735727310181,0.14904852211475372,-0.0743781104683876,0.042223360389471054,0.2840927839279175,-0.2591291069984436,-0.060046590864658356,-0.28602683544158936,0.17614199221134186,0.3539564609527588,0.14359299838542938,-0.013778982684016228,-0.13204562664031982,0.1609029769897461,-0.2509737014770508,-0.19464439153671265,-0.028416654095053673,-0.17509110271930695,0.04258853197097778,-0.15862256288528442,0.24057704210281372,0.26455897092819214,-0.09393647313117981,-0.06994731724262238,-0.018465779721736908,0.006170868873596191,0.10064913332462311,0.007939588278532028,-0.16965201497077942,0.08277985453605652,-0.06553896516561508,-0.11919976025819778,0.11104386299848557,0.11299849301576614,-0.08654984086751938,-0.0429794006049633,-0.11309605091810226,0.3591581881046295,-0.2253769338130951,-0.13810567557811737,0.25224581360816956,-0.22827698290348053,-0.0412306934595108,0.17677730321884155,0.1101532131433487,0.12029369175434113,0.004684838466346264,0.17300842702388763,0.0029602160211652517,-0.04564426839351654,-0.09084063768386841,0.053443145006895065,-0.10325851291418076,-0.09521753340959549,-0.012970917858183384,0.19138380885124207,-0.09542655944824219,-0.010535701178014278,-0.26298296451568604,-0.18104662001132965,0.08236733078956604,-0.03775031492114067,-0.01872851885855198,0.014974377118051052,-0.03695123270153999,-0.1183469370007515,-0.12191471457481384,0.2851209342479706,-0.01963059790432453,-0.06549837440252304,-0.08622647076845169,-0.03601803258061409,-0.09604591876268387,-0.27053186297416687,-0.03188546746969223,-0.11285240948200226,0.10317745804786682,-0.045847442001104355,0.10964128375053406,0.09637387096881866,0.11582594364881516,0.14264234900474548,-0.00635793199762702,0.05160483717918396,0.02557486854493618,-0.20475491881370544,0.19094166159629822,-0.02585599757730961,0.15847840905189514,0.10066577792167664,0.22305266559123993,0.015097599476575851,0.0006083623738959432,0.13566212356090546,0.20613253116607666,0.06113831698894501,0.0021249735727906227,0.1695231944322586,0.04122709482908249,0.08787692338228226,0.19512799382209778,-0.07765483856201172,0.08925921469926834,0.18562641739845276,0.20576278865337372,0.19497109949588776,0.17945809662342072,0.10531356185674667,0.12893564999103546,0.015514989383518696,-0.15247619152069092,0.08945417404174805,0.05778387561440468,0.13453194499015808,-0.08178412914276123,-0.058492932468652725,0.15833653509616852,0.11004681885242462,0.13635534048080444,0.1710277795791626,0.06363826245069504,-0.0038532414473593235,0.0757031962275505,-0.16061370074748993,0.25682002305984497,0.10223662108182907,0.29711663722991943,0.1355614811182022,-0.007625764235854149,-0.05030655488371849,-0.009263652376830578,0.16404816508293152,0.04420473054051399,0.027259713038802147,0.2772982120513916,0.16848064959049225,0.15037281811237335,-0.04243200272321701,0.07661102712154388,-0.40634551644325256,-0.12849991023540497,-0.21213378012180328,-0.10569577664136887,-0.26156163215637207,-0.1600312888622284,-0.026338523253798485,-0.03495914861559868,-0.055380262434482574,0.5955368280410767,0.22180874645709991,0.3286442458629608,-0.2654017508029938,0.020602937787771225,-0.0891643837094307,0.42994120717048645,0.3504665791988373,0.32977548241615295,0.14225643873214722,0.202884703874588,-0.03238100931048393,0.2738645374774933,0.27840691804885864,0.20310072600841522,-0.3163689970970154,-0.17738613486289978,-0.18945443630218506,-0.2157844603061676,0.04362507164478302,0.09279299527406693,0.12982439994812012,-0.18192796409130096,-0.1337677389383316,-0.23226970434188843,-0.030748985707759857,0.12161291390657425,-0.056641336530447006,-0.09499223530292511,-0.07945634424686432,-0.032346565276384354,-0.24614480137825012,-0.14386579394340515,0.23918329179286957,-0.07109089195728302,-0.06233911216259003,-0.17393353581428528,0.11231660842895508,0.06343259662389755,0.18808816373348236,0.1251412183046341,-0.01069133635610342,-0.051083069294691086,0.01795337162911892,0.04094765707850456,0.12574155628681183,0.10740046203136444,-0.006445125676691532,-0.13201609253883362,-0.3242555558681488,0.0060338289476931095,0.05139986425638199,0.09094482660293579,-0.07153847068548203,-0.16273079812526703,-0.08151736855506897,-7.551043381681666e-07,-0.10131366550922394,-0.0884159728884697,-0.10259208083152771,-0.029050419107079506,-0.05684882402420044,0.18064625561237335,-0.058147773146629333,0.09701728075742722,-0.03300679847598076,0.2743411362171173,0.2607669532299042,0.077728770673275,-0.05090751498937607,-0.3231261968612671,-0.21495500206947327,0.24211260676383972,0.10157173126935959,0.3400890529155731,0.08665929734706879,-0.04712733253836632,-0.09070806205272675,0.20796801149845123,0.07146961241960526,0.09143247455358505,0.26506683230400085,0.3100283145904541,-0.22106990218162537,0.10518357902765274,0.26004359126091003,0.12612545490264893,-0.2966752350330353,-0.028596045449376106,-0.030567584559321404,-0.19586195051670074,-0.07629260420799255,0.1175309270620346,-0.0696617066860199,0.011237343773245811,-0.2357448935508728,0.20744657516479492,-0.14703518152236938,0.08294879645109177,-0.02897447533905506,0.2769066095352173,0.15659815073013306,0.1878075748682022,0.15505489706993103,0.19758103787899017,0.0839586928486824,-0.07322200387716293,-0.030257435515522957,0.1643061488866806,-0.13369256258010864,0.12519018352031708,-0.11198338121175766,0.080289825797081,-0.13057667016983032,0.1479209065437317,0.15917335450649261,-0.026535889133810997,0.0012286057462915778,-0.1362779438495636,0.09691242128610611,-0.07314637303352356,-0.10572239756584167,-0.05142918974161148,-0.08100485056638718,0.016292957589030266,-0.0758354589343071,0.20617744326591492,-0.1238761767745018,-0.03759840503334999,0.14863543212413788,0.2527220845222473,0.11635803431272507,0.03997734561562538,0.27283987402915955,0.05264395475387573,-0.27674368023872375,0.18101440370082855,0.12114576250314713,-0.2511277496814728,0.13840627670288086,-0.03218000382184982,-0.14460033178329468,-0.13708852231502533,-0.024064864963293076,0.11614276468753815,-0.0850599929690361,0.14205634593963623,-0.23398682475090027,0.2355346381664276,-0.026067335158586502,0.07630547136068344,-0.18988211452960968,-0.12065532803535461,-0.04083585739135742,-0.0625234916806221,0.048530641943216324,0.04669848084449768,-0.2595808207988739,-0.00245108176022768,-0.29022493958473206,0.13881398737430573,-0.18826641142368317,-0.11913762241601944,0.0365273542702198,-0.08034409582614899,0.06067897006869316,0.0968426987528801,-0.03639326989650726,-0.14844749867916107,-0.062218211591243744,0.08251155912876129,-0.08802340179681778,-0.0028891339898109436,0.08493669331073761,-0.022038063034415245,-0.03205087408423424,-0.1352490931749344,0.1852272003889084,-0.12422006577253342,-0.06959202140569687,-0.2081899791955948,0.1351049691438675,0.10141877830028534,0.08122807741165161,0.11917351186275482,0.11479858309030533,-0.11284088343381882,0.03031236305832863,0.15979012846946716,0.029120415449142456,-0.12299896031618118,-0.037542637437582016,-0.028679195791482925,-0.029230032116174698,-0.11153049021959305,-0.1271996945142746,-0.176370769739151,0.03953780233860016,-0.05183076858520508,-0.035733405500650406,0.059913814067840576,0.029780153185129166,-0.09037292003631592,0.06749356538057327,-0.046107999980449677,-0.043774474412202835,-0.0572546124458313,-0.009761502966284752,-0.18257500231266022,0.041464753448963165,0.1271965205669403,0.011520490981638432,0.0008319835178554058,-0.08732298761606216,-0.030708350241184235,-0.27731814980506897,-0.0016027940437197685,0.26240116357803345,0.09698479622602463,0.01867341622710228,0.07246479392051697,-0.008808539249002934,0.04754060134291649,0.14101214706897736,-0.09157814830541611,-0.09664902836084366,-0.06106022745370865,0.38111212849617004,0.04763418063521385,-0.1544942557811737,0.236805722117424,0.054175544530153275,-0.10579261928796768,0.12087298184633255,0.2638770639896393,-0.1354123055934906,-0.1063435971736908,-0.19352446496486664,0.041259776800870895,-0.08307384699583054,0.09752950817346573,0.372733473777771,-0.20880593359470367,-0.18430796265602112,-0.3333050310611725,0.3726806938648224,0.024343695491552353,0.12283968925476074,0.099821537733078,0.13185358047485352,0.1354573667049408,-0.053450826555490494,0.10056382417678833,0.16006506979465485,-0.2085806131362915,-0.16699977219104767,-0.24063478410243988,0.17508146166801453,-0.14353014528751373,0.0071336859837174416,-0.13444823026657104,0.046821705996990204,0.17039145529270172,0.1490798145532608,0.16015736758708954,0.06042948365211487,-0.3141576051712036,0.03250988945364952,0.07785261422395706,-0.11379045248031616,0.15880373120307922,0.02732001431286335,-0.16919253766536713,-0.4503910541534424,-0.15786275267601013,0.6529970169067383,-0.1625315248966217,-0.30526915192604065,-0.20768675208091736,-0.16710254549980164,-0.14253272116184235,0.2901933193206787,0.07530321180820465,-0.048823509365320206,-0.033664360642433167,-0.038168709725141525,0.04392517730593681,-0.07630129903554916,0.2693020701408386,0.20854124426841736,-0.31215983629226685,-0.15928485989570618,-0.36494168639183044,0.20796780288219452,0.060221508145332336,-0.08690769970417023,-0.13170616328716278,-0.0008876790525391698,0.03367288410663605,-0.15563152730464935,0.0954940915107727,-0.05290016904473305,-0.212643101811409,-0.08917341381311417,-0.03412149101495743,0.15468251705169678,-0.11648403853178024,-0.09922071546316147,0.06078473478555679,0.04161006957292557,0.1654025912284851,0.09390467405319214,0.19839021563529968,-0.13721658289432526,0.09021026641130447,-0.05979389324784279,-0.030051328241825104,-0.011203019879758358,-0.04491933435201645,0.07863461226224899,0.1284935623407364,-0.4650382101535797,0.1594267189502716,-0.10091391950845718,0.017126591876149178,0.06079237535595894,-0.006808722857385874,0.0258814487606287,0.007214812096208334,-0.00950468797236681,0.27832478284835815,-0.09084398299455643,0.12217376381158829,0.0323341004550457,-0.13982948660850525,0.07159537822008133,0.1547730416059494,0.000325329223414883,-0.08642609417438507,-0.1859661191701889,0.00960842426866293,0.09671518951654434,-0.08076245337724686,-0.037137486040592194,-0.06610257923603058,0.07795339822769165,0.13387921452522278,-0.09992209076881409,-0.03978899121284485,-0.05454360321164131,-0.12451513856649399,-0.12068943679332733,-0.10836755484342575,0.111392542719841,-0.09481265395879745,0.03884658217430115,-0.11396923661231995,-0.010876283049583435,0.18735067546367645,0.014004508964717388,0.14872455596923828,0.2700657248497009,0.18923211097717285,-0.07829131931066513,-0.08660143613815308,-0.03940070793032646,-0.01782991923391819,0.11929336935281754,0.056393254548311234,-0.3245449364185333,-0.2307308316230774,-0.2635537385940552,0.06461328268051147,0.10458403080701828,0.09122592955827713,-0.13546328246593475,-0.15178167819976807,-0.28907594084739685,0.32517319917678833,-0.026159929111599922,-0.0015763775445520878,-0.1664326786994934,-0.18009993433952332,0.040130842477083206,0.2158171534538269,0.31287914514541626,0.3728893995285034,0.14012667536735535,0.09896967560052872,-0.2620371878147125,0.159951850771904,0.17698678374290466,0.19464543461799622,0.015642428770661354,0.07673279196023941,0.08132932335138321,-0.021915949881076813,0.19858530163764954,0.08196067065000534,0.041878387331962585,-0.10970686376094818,-0.18011990189552307,-0.08272358775138855,0.03350677341222763,-0.18184156715869904,0.13907642662525177,0.22621025145053864,0.19714559614658356,0.06235663220286369,0.08024068921804428,0.05479348078370094,0.07382629066705704,0.11137095838785172,-0.06701555848121643,0.037137359380722046,0.13566440343856812,0.09601893275976181,0.07327001541852951,-0.1280231475830078,0.024521460756659508,0.034150153398513794,-0.11936996132135391,-0.3039749264717102,-0.055645499378442764,-0.2811872661113739,-0.1843615174293518,-0.07377292960882187,-0.06090720370411873,0.0651416927576065,-0.08451665192842484,0.13602179288864136,0.14369598031044006,0.10283058881759644,0.21929682791233063,-0.08924925327301025,-0.020081039518117905,0.011223049834370613,0.12328846752643585,-0.054419346153736115,-0.09238159656524658,0.000995214912109077,-8.490565232932568e-05,0.15359114110469818,-0.09151087701320648,0.11044732481241226,0.0021138950251042843,0.03655467927455902,0.0309839379042387,0.07466640323400497,0.1253669708967209,0.11037804931402206,0.02625870890915394,-0.0839192122220993,0.06726770848035812,-0.08373171091079712,0.09472773224115372,0.16093036532402039,0.1513804942369461,-0.016201043501496315,-0.05055772513151169,0.020791037008166313,0.0864122211933136,0.07183900475502014,0.04839282110333443,0.11533304303884506,-0.09859893471002579,-0.393148273229599,0.13997535407543182,0.3797576427459717,0.03973833844065666,0.21472102403640747,0.0889148861169815,-0.6347226500511169,-0.03975357115268707,0.1716073900461197,0.00018334075866732746,-1.1105988025665283,-0.07926207035779953,-0.7454060316085815,-0.02170967124402523,-0.37630894780158997,-0.053326837718486786,0.5336137413978577,0.001365290954709053,-0.7366408109664917,-0.07017067819833755,-0.6531029939651489,-0.005662500858306885,-1.1257671117782593,0.008286694996058941,0.6232582926750183,-0.078764408826828,-0.7545233964920044,0.05775792896747589,-0.06227817386388779,0.0020960690453648567,-0.6980031132698059,0.09230390191078186,-0.15145742893218994,-0.12807409465312958,-0.059869181364774704,0.08491512387990952,0.2873888909816742,0.1650669276714325,-0.21225495636463165,0.02020590379834175,-0.1927168220281601,-0.2631339430809021,0.22126060724258423,0.003657351480796933,0.14019183814525604,-0.0861276388168335,-0.051727909594774246,-0.10758808255195618,0.17851173877716064,-0.016813527792692184,0.053980182856321335,0.010507195256650448,-0.13341277837753296,0.02727014757692814,-0.10496414452791214,-0.19476738572120667,0.18218876421451569,0.035681433975696564,0.09564922004938126,0.22848178446292877,0.0635225847363472,0.0876811295747757,0.011465831659734249,0.23634181916713715,-0.19755257666110992,-0.29501429200172424,-0.05593670532107353,0.41712498664855957,0.06751774996519089,0.1381521373987198,-0.06077217310667038,0.05151465907692909,0.03293345123529434,0.0828225240111351,-0.1795164942741394,-0.23865000903606415,0.28515368700027466,0.14210310578346252,0.04072943702340126,0.007651126943528652,-0.14750789105892181,-0.026318460702896118,-0.44980981945991516,-0.02022082544863224,-0.25660139322280884,0.3532491624355316,0.005807136185467243,0.0886506736278534,-0.05932237580418587,0.015569183975458145,0.10147104412317276,0.29781287908554077,0.3186572790145874,-0.2131706029176712,0.21098746359348297,-0.1839086413383484,0.34259653091430664,-0.33491024374961853,-0.36791762709617615,-0.24147342145442963,0.1602548509836197,0.3334050178527832,-0.02552725374698639,0.3597819209098816,-0.0025734975934028625,-0.16208584606647491,0.0021873433142900467,0.28921371698379517,-0.39271363615989685,-0.20134764909744263,-0.05119231715798378,-0.2641375958919525,-0.2060878425836563,-0.4734897017478943,-0.4518119990825653,-0.11879825592041016,-0.045000769197940826,0.14981044828891754,0.044262710958719254,-0.1129797101020813,0.27711817622184753,0.20485183596611023,-0.1533897966146469,-0.14329394698143005,-0.5116401314735413,-0.1435462236404419,0.10797005891799927,0.05835708603262901,0.1042267382144928,0.166956827044487,0.4128269553184509,-0.06286705285310745,0.038910284638404846,0.05780051276087761,-0.29242292046546936,-0.27274423837661743,0.3046128451824188,0.06238842010498047,-0.0981203094124794,0.26466822624206543,0.30046722292900085,0.1298873871564865,-0.2425948530435562,0.3003712296485901,0.04697826877236366,0.11329515278339386,0.2715849280357361,0.13181927800178528,0.21730954945087433,-0.32577890157699585,-0.14403586089611053,0.0009316319483332336,-0.020918801426887512,0.31526175141334534,-0.2580893933773041,-0.028048964217305183,-0.0484088696539402,0.1268642395734787,0.0502573698759079,0.017485791817307472,0.04127294942736626,0.20831860601902008,-0.11134693026542664,-0.1291726529598236,-0.26755067706108093,-0.32987678050994873,0.0536288321018219,-0.09611804783344269,0.09618454426527023,-0.03609795123338699,0.18288253247737885,-0.0007563720573671162,-0.05915282666683197,0.24676471948623657,-0.09430725872516632,0.3060900866985321,-0.2188769280910492,0.006627783179283142,0.06254618614912033,0.16738039255142212,0.028920195996761322,-0.04656533896923065,0.3139083981513977,-0.016213104128837585,0.06417134404182434,0.03177160769701004,0.09573320299386978,0.36418700218200684,0.30900129675865173,0.10059525817632675,0.2863112986087799,-0.15374678373336792,-0.11862560361623764,-0.15193824470043182,-0.18682710826396942,0.07966627925634384,0.098098985850811,-0.20168769359588623,-0.08706415444612503,0.025284385308623314,0.17904815077781677,0.19336771965026855,-0.13587935268878937,0.07676747441291809,-0.09591608494520187,0.03817931190133095,-0.12398067116737366,0.04052601382136345,-0.1594739705324173,-0.0014550478663295507,-0.3239818215370178,-0.025451939553022385,-0.23335474729537964,-0.03040180169045925,0.169105663895607,0.14845623075962067,-0.18512704968452454,0.14124025404453278,0.1305071860551834,-0.14152616262435913,0.06805939972400665,-0.19353169202804565,0.17928369343280792,-0.14194348454475403,-0.08474775403738022,-0.1434105634689331,-0.5751172304153442,0.3232031762599945,0.06679540872573853,0.058890774846076965,-0.3899577856063843,0.24347002804279327,-0.25036320090293884,-0.1250334084033966,-0.22008991241455078,-0.549318253993988,0.0518404096364975,-0.27754107117652893,-0.15297381579875946,-0.10352350771427155,0.13334427773952484,-0.03745463490486145,-0.18218937516212463,0.18360193073749542,-0.2404361367225647,0.08505173027515411,0.014948771335184574,-0.030650082975625992,0.15763765573501587,0.204088032245636,0.07962782680988312,0.018709711730480194,-0.07182195782661438,0.1934865117073059,0.0136442044749856,-0.0976470485329628,0.11423064768314362,0.13433332741260529,0.16410255432128906,-0.07988736033439636,-0.16711817681789398,-0.2411443442106247,0.21696940064430237,-0.059169065207242966,-0.014358604326844215,0.1036667674779892,-0.15040132403373718,0.07383163273334503,0.006703468505293131,0.149554044008255,0.17101915180683136,0.2418883591890335,0.17805826663970947,-0.19733509421348572,0.10058574378490448,-0.02163108065724373,-0.3611682951450348,0.15329328179359436,0.021745510399341583,0.1614305078983307,0.23790313303470612,-0.1181546077132225,0.23442019522190094,0.3660091161727905,-0.2263556718826294,0.3909479081630707,-0.10995132476091385,-0.17634281516075134,0.049923282116651535,-0.03125010430812836,0.08088748902082443,-0.09613816440105438,-0.16246052086353302,-0.05214260146021843,0.20304743945598602,0.13946086168289185,0.013578937388956547,-0.041540734469890594,0.05379610136151314,-0.16533413529396057,0.12723718583583832,-0.247727632522583,-0.14954356849193573,-0.20833121240139008,0.037973735481500626,-0.19111360609531403,0.03803238645195961,-0.01863907091319561,-0.044059351086616516,-0.18736259639263153,0.18904216587543488,0.015063192695379257,0.1684051901102066,0.048163674771785736,-0.20498785376548767,-0.22166556119918823,0.08641732484102249,0.05609413981437683,-0.10041316598653793,0.11761564016342163,0.5896666646003723,0.08542528003454208,-0.034014228731393814,0.20765292644500732,-0.05709465593099594,-0.14361409842967987,-0.056245218962430954,-0.06417178362607956,-0.020542455837130547,0.044851966202259064,-0.12852743268013,-0.011284937150776386,-0.0010810974054038525,-0.09550756216049194,-0.08602992445230484,0.20896698534488678,-0.1251620501279831,0.07535809278488159,-0.17742116749286652,0.10434851050376892,0.03988024219870567,0.006381835322827101,0.03876912221312523,-0.12268799543380737,0.16938409209251404,-0.15284793078899384,0.1105324849486351,0.152765154838562,-0.22996430099010468,0.3663609027862549,-0.2606550455093384,-0.457174152135849,0.07805164158344269,-0.3900810480117798,0.0027675461024045944,-0.22727346420288086,0.22342757880687714,-0.09666119515895844,0.12626446783542633,0.03199121356010437,0.4423183500766754,-0.1664859503507614,0.07621057331562042,-0.0315065011382103,0.16009686887264252,0.13118399679660797,-0.046795688569545746,-0.01176391076296568,0.11094966530799866,-0.2886669337749481,-0.06374332308769226,-0.13624797761440277,-0.013641794212162495,-0.07027590274810791,-0.284845232963562,-0.08579368144273758,0.07077624648809433,0.0532708466053009,-0.11664891242980957,-0.03300922363996506,0.16136622428894043,0.18033410608768463,0.07513361424207687,0.23601034283638,0.1600302755832672,0.01786307990550995,-0.32397356629371643,-0.11491213738918304,-0.0038498786743730307,0.055615391582250595,-0.14839212596416473,-0.12243849784135818,0.14608216285705566,0.039042845368385315,-0.07738897204399109,0.349294513463974,0.2523942291736603,0.14253035187721252,-0.21337589621543884,-0.20644612610340118,0.04972231760621071,0.170102059841156,-0.16894233226776123,0.11637747287750244,-0.09494508802890778,-0.12817728519439697,0.2919550836086273,0.2905522882938385,0.1893593817949295,-0.06347958743572235,-0.01682310737669468,0.0755922719836235,0.16737942397594452,-0.2747569680213928,0.15938276052474976,0.036072298884391785,0.1878269910812378,-0.023641521111130714,0.07940476387739182,0.2739803194999695,-0.016304679214954376,-0.17704816162586212,0.19525107741355896,-0.024648992344737053,0.058046892285346985,-0.031668808311223984,0.03686503693461418,-0.07745558768510818,0.04905759170651436,-0.2363942265510559,-0.01908842660486698,-0.018574265763163567,-0.02421739138662815,-0.09041645377874374,0.11921445280313492,-0.06984031200408936,0.17298570275306702,0.02181924134492874,0.14082902669906616,0.027564186602830887,-0.026780275627970695,0.09870384633541107,0.1301102340221405,-0.2750663757324219,-0.06475337594747543,-0.2778105139732361,0.0180967990309,-0.12780611217021942,0.02255168929696083,-0.3569602966308594,0.17352066934108734,-0.22975113987922668,0.17352811992168427,0.027080412954092026,0.12288440018892288,0.21165573596954346,-0.21966852247714996,0.1618855595588684,0.121548593044281,-0.12789684534072876,0.031517740339040756,0.07618521898984909,-0.07975511997938156,0.1259688138961792,-0.14444032311439514,0.1354495733976364,-0.0554208941757679,-0.07281897217035294,-0.129205122590065,-0.005385580472648144,-0.13794773817062378,0.14739759266376495,-0.00223562796600163,0.09974227845668793,0.015924979001283646,-0.06092324107885361,-0.1398603618144989,-0.1312268227338791,-0.09469110518693924,0.19169475138187408,-0.005200464744120836,0.3315954804420471,-0.16143693029880524,-0.10640212148427963,0.02772987261414528,0.048262037336826324,-0.07642275094985962,0.059490934014320374,0.07131315022706985,0.11726009100675583,-0.051579542458057404,0.09667019546031952,0.1319064497947693,0.12693366408348083,-0.041274335235357285,-0.10143948346376419,0.1484634131193161,-0.24795955419540405,0.049225352704524994,-0.10692061483860016,0.24080775678157806,-0.004068129230290651,0.20058459043502808,0.19078868627548218,-0.3636789321899414,0.03855728358030319,0.19070881605148315,-0.06656547635793686,-0.03932543471455574,0.03120793029665947,0.21079736948013306,0.06005003675818443,0.3252352178096771,0.33021897077560425,-0.13896413147449493,0.027605539187788963,-0.17068244516849518,-0.11488809436559677,-0.1703374683856964,-0.09438146650791168,0.008015467785298824,-0.2708534598350525,0.026549773290753365,0.02327137440443039,0.26325714588165283,0.08107777684926987,-0.01900860294699669,0.011345178820192814,0.04461365193128586,0.1728076934814453,-0.04431510716676712,0.05818355455994606,-0.14647531509399414,-0.00566428666934371,-0.1848679929971695,-0.061830785125494,-0.009929101914167404,0.06403375416994095,0.0014721659244969487,0.04013767093420029,0.2400417923927307,0.27909284830093384,0.03568393364548683,-0.2824402451515198,0.005758902058005333,-0.03557436540722847,-0.3697974383831024,0.10991240292787552,-0.10587310045957565,0.11086767166852951,-0.30379191040992737,-0.1571485549211502,0.08049780875444412,-0.06525272876024246,-0.14010627567768097,0.15707175433635712,-0.0191208329051733,-0.02828219346702099,0.10432343184947968,-0.024507375434041023,0.0011344224913045764,0.03520820289850235,-0.27890434861183167,0.0026771428529173136,0.08644118905067444,0.005108114797621965,-0.08739887923002243,0.03631611168384552,0.020209791138768196,0.06965697556734085,-0.07404253631830215,-0.11261805146932602,-0.07934530824422836,0.09297212958335876,-0.11934013664722443,-0.08049105107784271,0.13618379831314087,0.011494623497128487,0.21417221426963806,-0.06122928485274315,0.14175203442573547,-0.11845555901527405,-0.14053253829479218,-0.06730319559574127,-0.005752558819949627,0.23749621212482452,-0.04631620645523071,-0.12549015879631042,0.03260507434606552,0.029800770804286003,-0.03889531269669533,0.07159342616796494,-0.1099168062210083,0.055226098746061325,-0.009189327247440815,0.09599075466394424,-0.11648215353488922,-0.06227078661322594,0.3170826733112335,0.11937388777732849,-0.0712268203496933,0.12987200915813446,0.3267627954483032,0.2525281310081482,0.018288569524884224,-0.12931083142757416,0.009541967883706093,-0.3818381726741791,0.174405038356781,-0.3291315734386444,-0.0550154447555542,0.07183408737182617,-0.1715088039636612,0.08608369529247284,0.025390971451997757,-0.20798271894454956,-0.20936208963394165,-0.12198320776224136,0.07498475909233093,-0.017724379897117615,0.19532567262649536,0.048630762845277786,-0.04239337146282196,0.07007474452257156,-0.1466137170791626,-0.008323253132402897,0.10341162979602814,0.10303378850221634,-0.015990255400538445,-0.060353416949510574,0.142201766371727,0.07275549322366714,-0.1189492791891098,-0.007965322583913803,-0.13101157546043396,-0.039462290704250336,0.04883880168199539,-0.030196992680430412,-0.24927154183387756,0.0013645136496052146,-0.02886749990284443,0.16530221700668335,-0.07095285505056381,0.07721811532974243,0.003788803704082966,0.049234431236982346,0.22546863555908203,0.5774583220481873,-0.10578683018684387,0.024989085271954536,-0.17518658936023712,0.09220387786626816,-0.08323759585618973,-0.17436595261096954,-0.015341133810579777,0.03897470608353615,0.554105281829834,-0.3583953082561493,0.04888322949409485,-0.16036565601825714,0.161951944231987,-0.03141838684678078,0.18106675148010254,0.06764739006757736,0.041983116418123245,0.08201903849840164,-0.051543377339839935,-0.10543793439865112,-0.05445610359311104,-0.24068661034107208,0.21526266634464264,-0.061941951513290405,0.010841449722647667,-0.02688269503414631,-0.14258085191249847,-0.31630608439445496,0.07424674183130264,0.18515963852405548,0.20642518997192383,-0.1407560259103775,-0.15102140605449677,-0.01256871223449707,-0.023259079083800316,-0.3633464574813843,-0.2682763934135437,0.0954093262553215,-0.4321937561035156,-0.2715162932872772,-0.42271551489830017,-0.030499430373311043,-0.11681708693504333,0.2572047710418701,-0.04134394973516464,0.07423660159111023,-0.1518060714006424,0.10035468637943268,-0.49710941314697266,0.08400487154722214,0.20271101593971252,0.07337090373039246,0.010796859860420227,-0.24095089733600616,0.14906881749629974,0.2486894577741623,-0.0837741419672966,0.03167213872075081,0.15500497817993164,0.09756452590227127,-0.02126038260757923,-0.20605537295341492,-0.06437163800001144,-0.18701158463954926,0.13887831568717957,-0.16529397666454315,0.00765891931951046,0.11393909156322479,0.5122769474983215,0.12537316977977753,0.09936826676130295,-0.15103064477443695,-0.3057056665420532,-0.01987680234014988,0.25251954793930054,-0.009931882843375206,-0.28843942284584045,-0.2016899585723877,-0.06102390214800835,0.15254013240337372,-0.028217336162924767,0.05251720920205116,0.38443541526794434,0.17213305830955505,-0.001945209107361734,0.09709342569112778,0.66129469871521,-0.2826233208179474,0.10432249307632446,-0.08040657639503479,-0.2509699761867523,0.01808074861764908,0.1089789867401123,0.1968512386083603,-0.08580038696527481,0.22923687100410461,-0.41373205184936523,0.021234435960650444,0.06502331048250198,0.007854538969695568,-0.09708301723003387,0.28542405366897583,0.1646251231431961,-0.13946621119976044,0.057117071002721786,0.14625878632068634,-0.02914227545261383,-0.21387280523777008,-0.27336201071739197,0.07003424316644669,-0.3135232627391815,-0.29965299367904663,-0.11295716464519501,-0.25871115922927856,0.14616717398166656,0.1786123365163803,-0.1898833066225052,0.1634003072977066,-0.054588064551353455,0.17753511667251587,-0.12048366665840149,0.10239619016647339,0.25072982907295227,-0.01978086680173874,-0.06526090204715729,0.1659623086452484,-0.29732149839401245,-0.08781623095273972,-0.054488442838191986,0.0634831115603447,-0.06602831184864044,0.1881811022758484,0.15860602259635925,0.28198540210723877,-0.08497180044651031,0.09096088260412216,0.04711578041315079,0.023003870621323586,0.10891721397638321,-0.1192484200000763,-0.07791639864444733,0.0270397886633873,0.25232094526290894,0.4029666483402252,0.22376109659671783,0.03965634107589722,0.10622197389602661,0.14348827302455902,0.027084140107035637,0.008799267001450062,0.03783636540174484,-0.11767343431711197,0.06256216019392014,-0.3035607933998108,-0.0009666388505138457,0.04281853139400482,-0.12488279491662979,0.14602576196193695,-0.01362327579408884,0.056609660387039185,-0.03989732265472412,0.0787978321313858,-0.0429423563182354,-0.002534073544666171,-0.4088378846645355,0.022543499246239662,0.04238332435488701,0.09250258654356003,0.08012073487043381,0.11219558119773865,-0.11094245314598083,-0.008978171274065971,0.1886342316865921,0.34285998344421387,0.05721551552414894,0.06850413233041763,-0.15809230506420135,-0.104893259704113,-0.15857863426208496,0.026223279535770416,-0.17439281940460205,0.04271136224269867,-0.5988550186157227,-0.3953929543495178,-0.08792822808027267,0.2488868087530136,0.1565990447998047,0.05681069940328598,-0.22397452592849731,0.054404497146606445,0.36569663882255554,0.45882874727249146,-0.03235568851232529,-0.01615331880748272,0.02084605023264885,0.07149342447519302,0.05041874572634697,-0.08517815172672272,0.025519702583551407,-0.4297539293766022,0.016406401991844177,-0.32670873403549194,0.0695168524980545,0.14845936000347137,0.24833738803863525,0.09300605207681656,-0.014279743656516075,-0.14751674234867096,-0.1120261400938034,-0.03606269881129265,-0.1982903927564621,-0.04563776031136513,-0.15575477480888367,-0.20697873830795288,0.05010848864912987,-0.12059110403060913,-0.14509476721286774,0.045174721628427505,0.06656558811664581,-0.03931659087538719,-0.01256980188190937,0.05699821561574936,0.0669022873044014,0.02060098946094513,-0.19308629631996155,0.05331987887620926,0.04308406636118889,-0.32464808225631714,0.06160389259457588,-0.09661529213190079,-0.043099336326122284,-0.4872667193412781,0.11826588958501816,-0.2818547189235687,0.2580608129501343,-0.0035809713881462812,0.17554014921188354,-0.06798898428678513,-0.019764142110943794,0.05501551926136017,-0.17254334688186646,0.16409656405448914,0.1850980967283249,0.037802841514348984,0.09866588562726974,0.3793405294418335,0.2830258309841156,-0.08121134340763092,0.1125362366437912,-0.0665736123919487,-0.13143587112426758,0.03439537063241005,-0.15572480857372284,0.0635906457901001,-0.3432975113391876,-0.07578394562005997,0.017735930159687996,-0.2190808802843094,-0.04585643857717514,-0.07306060940027237,-0.04862196743488312,-0.03368735685944557,0.014851640909910202,0.38886862993240356,0.13279379904270172,0.22145293653011322,-0.1842658966779709,0.03320220112800598,-0.13059571385383606,0.21629725396633148,-0.16288788616657257,0.044950515031814575,0.25149011611938477,0.13202060759067535,-0.0530114509165287,0.2340521365404129,-0.04996197670698166,0.5213869214057922,-0.1282523274421692,-0.14114587008953094,0.06799221783876419,-0.05428437516093254,0.07776347547769547,-0.03061199188232422,-0.008239568211138248,-0.07785169035196304,0.14950929582118988,0.1921403408050537,0.029714414849877357,-0.21387368440628052,-0.18692588806152344,-0.08361438661813736,-0.18148213624954224,0.164040207862854,-0.10096705704927444,-0.14655299484729767,-0.09371102601289749,-0.13435913622379303,0.110409215092659,0.0732952207326889,0.23498457670211792,-0.03528493642807007,-0.11426104605197906,0.028096936643123627,0.11948136240243912,0.08387726545333862,-0.017633643001317978,-0.17887167632579803,-0.27296942472457886,-0.1590268909931183,0.009425787255167961,0.1661340296268463,-0.10454060882329941,-0.028278931975364685,-0.2459825873374939,-0.08233636617660522,0.03462858125567436,0.2696599066257477,0.12927879393100739,-0.015629181638360023,0.20516061782836914,-0.12551982700824738,-0.07299003005027771,0.0164188165217638,-0.0574619360268116,-0.1627560704946518,-0.38636595010757446,-0.3497505187988281,0.04384010285139084,0.1469774693250656,-0.06321537494659424,0.061776041984558105,-0.025392284616827965,0.21868744492530823,-0.23455989360809326,-0.07184690982103348,-0.10855644941329956,-0.12231374531984329,-0.14752046763896942,0.011481940746307373,0.047078706324100494,0.005796993151307106,-0.08484791219234467,0.12994275987148285,0.18520846962928772,-0.40591418743133545,-0.16900116205215454,0.003989475313574076,-0.08192134648561478,0.09291680157184601,0.017056189477443695,0.012290075421333313,-0.011384392157196999,-0.06919040530920029,0.13797251880168915,0.03755318373441696,-0.11794095486402512,0.14214612543582916,-0.14609549939632416,-0.0242801271378994,0.07000789046287537,-0.03709593787789345,0.2211272120475769,-0.27531808614730835,-0.01286513265222311,-0.11408825218677521,-0.21272504329681396,-0.10176639258861542,-0.15866459906101227,0.1938938945531845,-0.0656900554895401,-0.14480502903461456,0.10502122342586517,0.06477667391300201,0.29717639088630676,0.05953618884086609,0.11847571283578873,-0.01667715236544609,0.27462175488471985,-0.08178708702325821,0.0948764830827713,0.024671558290719986,0.07193402200937271,0.5039628148078918,0.24686980247497559,-0.21943901479244232,0.0583668053150177,0.016140824183821678,-0.07560937851667404,0.01494696643203497,-0.20416076481342316,0.04835274815559387,-0.8537487983703613,0.1635816991329193,0.21807532012462616,0.19172151386737823,0.2527289092540741,0.000200056514586322,-0.039637353271245956,0.12945768237113953,0.05335620790719986,-0.048024170100688934,-0.01369895227253437,-0.29997822642326355,0.0019318313570693135,-0.0707702487707138,0.06397630274295807,0.1706303507089615,0.11572283506393433,-0.17123103141784668,-0.16256649792194366,0.17099489271640778,-0.046689823269844055,0.24009089171886444,0.029989250004291534,-0.08610648661851883,0.20575132966041565,-0.11706111580133438,0.07847914844751358,0.04539468511939049,-0.10520975291728973,-0.4131237864494324,-0.48628610372543335,0.0747789517045021,0.11651396006345749,0.041041240096092224,0.039526429027318954,-0.0854739174246788,-0.011103962548077106,-0.01712043769657612,-0.1380523294210434,0.00020351112470962107,0.045599158853292465,-0.037571392953395844,0.1345977783203125,0.025916635990142822,-0.2500006854534149,0.10289756953716278,-0.043711788952350616,0.043676845729351044,-0.12733598053455353,-0.06021634861826897,-0.5633397102355957,-0.023365674540400505,0.6186645030975342,0.0053068846464157104,0.4287042021751404,-0.008260216563940048,-0.42913636565208435,-0.0048723965883255005,0.1842174530029297,5.7724602811504155e-05,-0.27746015787124634,-0.15372873842716217,0.12527671456336975,-0.028701188042759895,0.31041041016578674,-0.0002802005037665367,-0.8466581106185913,0.015025884844362736,0.8879154920578003,-0.015660224482417107,0.6993225812911987,0.015532043762505054,-0.06535685807466507,-0.03767194226384163,-0.579007089138031,0.07577353715896606,0.3067184090614319,0.028830505907535553,-0.9694331884384155,-0.012847119010984898,0.16210895776748657,-0.12720748782157898,0.16196349263191223,-0.22760926187038422,0.07199203222990036,0.2387607842683792,0.4376704692840576,0.0863327756524086,0.27877482771873474,-0.019077196717262268,0.3048776388168335,0.22367262840270996,-0.26179754734039307,-0.12670397758483887,-0.04591820389032364,-0.3427674174308777,0.24769894778728485,0.027744652703404427,-0.024470964446663857,0.44474050402641296,0.24597015976905823,0.015139703638851643,-0.08097454160451889,-0.3276231288909912,-0.09800117462873459,0.2370162308216095,-0.09907636046409607,-0.27725398540496826,0.2841032147407532,0.4316956698894501,-0.05962943658232689,0.17448298633098602,0.015944063663482666,-0.1566224992275238,0.02070784382522106,0.04114995524287224,0.27473828196525574,-0.42000269889831543,-0.47754573822021484,-0.2856055498123169,-0.02654474601149559,0.04070563241839409,-0.13836733996868134,-0.004223289899528027,0.32983413338661194,-0.040039025247097015,-0.14232566952705383,0.3110145032405853,0.3839704692363739,0.05746971070766449,0.1327972412109375,0.20551368594169617,-0.025720324367284775,-0.03958555683493614,-0.09509753435850143,0.2972116470336914,0.17726954817771912,-0.05553825572133064,0.3376792371273041,0.2477571666240692,0.10563500970602036,-0.09866198152303696,-0.0633423700928688,-0.2657305598258972,0.11699799448251724,-0.2147107571363449,0.29447805881500244,-0.19689728319644928,-0.036141976714134216,-0.11375388503074646,-0.03238046541810036,0.1150139644742012,0.1375875473022461,-0.12534180283546448,-0.13361257314682007,0.13073164224624634,-0.29092419147491455,-0.1398368924856186,0.12253662943840027,-0.11465329676866531,-0.20563513040542603,0.028965627774596214,-0.13418659567832947,0.09647747874259949,-0.19423916935920715,0.13297902047634125,0.30388590693473816,0.21970562636852264,-0.1752144694328308,-0.20537406206130981,-0.13292196393013,0.245749831199646,0.02073878049850464,-0.08391668647527695,0.3417914807796478,0.045460447669029236,0.01756187342107296,0.22952453792095184,-0.2295505702495575,0.3036569058895111,0.33377575874328613,0.0013619079254567623,-0.020801741629838943,-0.09307906031608582,-0.35893791913986206,0.2572910487651825,0.08678096532821655,-0.19061526656150818,0.2834224998950958,0.16759581863880157,0.09340231120586395,0.20059780776500702,0.45152121782302856,0.23011726140975952,-0.23843100666999817,0.0369289331138134,0.18446163833141327,-0.2668221890926361,0.15770800411701202,-0.03890436515212059,0.2073800414800644,0.0551346018910408,0.042889781296253204,0.14891363680362701,0.1053125411272049,0.07156921923160553,-0.07357843965291977,-0.2988305985927582,0.06766802072525024,0.34720805287361145,-0.12142059952020645,0.24973353743553162,0.16339099407196045,0.13109229505062103,-0.3866928219795227,-0.024884652346372604,-0.10434649884700775,0.11781062930822372,-0.26112836599349976,0.10356362909078598,-0.34237927198410034,-0.014969163574278355,0.07780854403972626,0.02708340249955654,0.1146976426243782,-0.027608778327703476,-0.23092904686927795,0.2558019459247589,0.0613967590034008,0.05058007314801216,-0.1095345988869667,-0.07272069901227951,-0.19101335108280182,0.033403608947992325,0.22061476111412048,-0.058785974979400635,-0.03259783238172531,0.015208017081022263,0.1210218146443367,-0.0806162878870964,0.07261013984680176,-0.22348585724830627,-0.06625233590602875,-0.17165037989616394,0.18497230112552643,-0.3059823215007782,0.13559645414352417,-0.08033861964941025,0.23620638251304626,0.03217873349785805,-0.28221946954727173,0.05336922034621239,0.043123845010995865,-0.12093965709209442,-0.18295802175998688,0.3849989175796509,-0.018104279413819313,0.03501170128583908,-0.061005137860774994,0.07237622886896133,-0.07221037149429321,0.22817784547805786,0.22211769223213196,0.16993795335292816,-0.2919462323188782,-0.09912945330142975,0.0850355252623558,0.23097346723079681,-0.16817744076251984,-0.2684348523616791,0.020932139828801155,-0.07041013240814209,-0.4864968955516815,-0.3265758156776428,-0.017954686656594276,-0.24249108135700226,0.18461951613426208,0.165534108877182,0.01166090089827776,-0.2684273421764374,0.12956589460372925,0.0018225529929623008,-0.1530212163925171,0.053486429154872894,-0.061200812458992004,0.05090275779366493,0.19527819752693176,-0.03147432953119278,-0.12182342261075974,0.17952626943588257,-0.13749074935913086,-0.03962602838873863,0.05261554196476936,-0.26544177532196045,0.16229131817817688,-0.18542295694351196,0.06210559606552124,0.03669574111700058,-0.1582852154970169,-0.3835732638835907,0.02248644083738327,0.2738758623600006,-0.2762536406517029,0.26323768496513367,-0.12684239447116852,0.16787883639335632,-0.09798277914524078,0.004079229664057493,-0.1654990315437317,-0.2083241492509842,0.022945454344153404,-0.2663488984107971,0.22873909771442413,0.1322733759880066,0.003072829684242606,0.17271092534065247,-0.08861222118139267,0.15913055837154388,0.00939249899238348,-0.02408040687441826,-0.23144309222698212,-0.17960494756698608,-0.02118976041674614,-0.30760473012924194,-0.09187380969524384,0.0997956395149231,0.001820290694013238,-0.2515389621257782,-0.024278096854686737,0.24360054731369019,0.3046823740005493,0.25492915511131287,-0.32338786125183105,-0.18697917461395264,0.09439118206501007,-0.1398250162601471,0.017071431502699852,0.08612363040447235,0.08932460099458694,0.03735067695379257,-0.09771290421485901,0.07329635322093964,0.14986591041088104,-0.04115130752325058,-0.1096295639872551,-0.12483192980289459,0.06396372616291046,0.06516464799642563,0.062332138419151306,0.14530237019062042,0.08083374053239822,-0.08603836596012115,0.1689215898513794,-0.05719365179538727,0.03800950571894646,-0.024615932255983353,0.04909638687968254,0.09001883119344711,0.15717211365699768,-0.03809618577361107,0.09387344121932983,-0.006974379997700453,0.13763199746608734,-0.10445116460323334,0.053515635430812836,-0.04762726649641991,-0.15783150494098663,0.18892702460289001,-0.1063019409775734,-0.07421166449785233,0.09894279390573502,-0.1716938018798828,-0.08186332881450653,-0.05221756547689438,0.126581609249115,0.1599116176366806,0.058247160166502,-0.08453981578350067,-0.05836101621389389,0.04993567615747452,0.08056897670030594,-0.12279205024242401,-0.2174980193376541,-0.09706888347864151,0.21538041532039642,0.05460933595895767,-0.2506158947944641,-0.20286011695861816,-0.08045706897974014,0.013508684001863003,-0.010269295424222946,-0.1343214362859726,-0.06262442469596863,-0.0803363099694252,-0.1111304834485054,-0.03538595885038376,-0.06021764874458313,0.21387042105197906,-0.037325821816921234,0.081186942756176,-0.044266995042562485,0.18937864899635315,-0.09657950699329376,0.17800849676132202,-0.1967455893754959,-0.10236962139606476,0.10662409663200378,-0.1363014280796051,0.18416783213615417,0.24585071206092834,0.5199876427650452,0.17951035499572754,0.3290742039680481,0.18583247065544128,0.21791449189186096,0.06184016540646553,-0.16696643829345703,-0.2058827131986618,-0.21715353429317474,-0.10081259161233902,-0.1223003938794136,-0.15143175423145294,-0.09342114627361298,-0.1536000519990921,0.09751622378826141,0.08518753200769424,-0.2144046127796173,0.06279563158750534,0.13415871560573578,0.10469368100166321,-0.024056095629930496,0.029221665114164352,0.10636625438928604,0.12497149407863617,0.1176835373044014,-0.2087867558002472,-0.05736562982201576,0.03524859994649887,0.13340383768081665,-0.07283159345388412,0.12701807916164398,-0.002852097852155566,0.13535580039024353,0.10844475030899048,0.014047905802726746,0.11247896403074265,0.19670215249061584,-0.25215014815330505,-0.04598826915025711,-0.16707320511341095,0.005230892915278673,0.049888622015714645,0.03711233660578728,-0.10069984197616577,-0.07498224824666977,-0.10161564499139786,0.05950946360826492,0.025378378108143806,0.21609465777873993,0.13872942328453064,0.16737298667430878,0.2688859701156616,-0.011213098652660847,-0.10888032615184784,-0.17162999510765076,-0.16937564313411713,0.10440858453512192,0.01588272489607334,-0.03513915091753006,0.11375928670167923,-0.19206620752811432,0.2405674308538437,-0.132942795753479,0.08891643583774567,0.10931059718132019,0.1392829418182373,0.014260406605899334,0.14605696499347687,-0.05657688155770302,0.11909857392311096,-0.09128950536251068,-0.02074834331870079,-0.09388510882854462,-0.07753526419401169,-0.028155559673905373,-0.0022624211851507425,-0.15707841515541077,-0.15918108820915222,0.014881376177072525,-0.026483673602342606,0.016519596800208092,0.03247518837451935,0.0029363222420215607,0.20219476521015167,0.07821682095527649,-0.05121580883860588,0.03356742486357689,0.27927616238594055,0.11632407456636429,0.06349986791610718,-0.07848711311817169,0.06323655694723129,0.17309363186359406,-0.0190378800034523,-0.29409927129745483,0.008616480976343155,0.07142952084541321,0.01638820394873619,-0.04854917153716087,0.02995358593761921,0.03901591897010803,-0.18224556744098663,-0.10460614413022995,0.19163712859153748,0.14169661700725555,-0.12349569797515869,-0.16204378008842468,0.05807620286941528,0.019101157784461975,0.056176915764808655,-0.029162444174289703,-0.3456355035305023,0.09095047414302826,-0.19207023084163666,-0.09659865498542786,-0.013862662017345428,0.10310757160186768,0.12200254946947098,-0.28050920367240906,-0.10105389356613159,0.17601703107357025,0.23564226925373077,0.04178506135940552,0.3127819895744324,-0.01825343631207943,-0.06511150300502777,-0.17435391247272491,-0.6248878240585327,-0.16144707798957825,-0.16513821482658386,-0.11135227978229523,-0.1136474609375,0.14433318376541138,0.31266486644744873,-0.10085519403219223,-0.10702113062143326,0.22222007811069489,0.13582341372966766,0.10762132704257965,-0.39438265562057495,0.037724751979112625,0.23031052947044373,0.010081286542117596,-0.24795949459075928,-0.3022155463695526,0.24544546008110046,0.051971402019262314,-0.23216603696346283,-0.143588125705719,-0.13857755064964294,0.15676283836364746,0.10868149995803833,0.16477851569652557,0.12068093568086624,-0.27356863021850586,-0.07976235449314117,0.041014716029167175,0.06880423426628113,0.05742013454437256,0.07101964950561523,-0.5418477058410645,-0.2545875012874603,-0.05981260538101196,-0.18791574239730835,0.014675581827759743,0.1498725265264511,-0.02067308872938156,-0.08450254797935486,-0.18523526191711426,-0.002006336348131299,-0.026822639629244804,0.24132686853408813,0.38994377851486206,-0.11012930423021317,-0.05195840075612068,-0.2409195601940155,-0.10262540727853775,-0.049007516354322433,-0.34986189007759094,-0.008483730256557465,-0.04923833906650543,-0.0705375149846077,-0.1628982126712799,-0.21036052703857422,-0.011181417852640152,-0.01364203728735447,0.07125076651573181,-0.2860027551651001,0.13507603108882904,0.2195058912038803,0.11725343763828278,-0.13114024698734283,-0.02494548074901104,0.03184506297111511,0.03509354218840599,-0.02647911012172699,-0.33588817715644836,-0.1650654673576355,-0.13238194584846497,0.1317823827266693,0.0045901089906692505,0.13843435049057007,-0.06891336292028427,0.1438588798046112,-0.13373352587223053,0.04363803192973137,-0.03766736388206482,0.17615926265716553,-0.17730498313903809,-0.0009499010047875345,0.09493309259414673,-0.02805273048579693,0.040875766426324844,-0.0025608069263398647,-0.27413830161094666,-0.013121179305016994,-0.12306563556194305,0.3001020550727844,-0.03827609494328499,-0.0263651255518198,-0.11787372082471848,0.07929205894470215,0.0616372711956501,-0.21997636556625366,0.06672068685293198,0.1512642800807953,-0.2656773328781128,0.006104982923716307,0.07306469231843948,0.12054608017206192,0.1685335785150528,0.15467329323291779,-0.0798492506146431,-0.04065856337547302,-0.11502518504858017,-0.039986252784729004,-0.064897321164608,0.16013140976428986,0.0858156830072403,-0.12710553407669067,-0.16907618939876556,-0.4398871660232544,-0.2877107560634613,0.059586215764284134,-0.22145837545394897,-0.09252452105283737,-0.07328298687934875,0.088557168841362,-0.11985620111227036,-0.1399078220129013,0.003698746906593442,0.09193727374076843,-0.10303332656621933,-0.030144410207867622,0.03549773991107941,0.11116170138120651,-0.037514228373765945,0.10657423734664917,-0.05039769411087036,-0.11944060772657394,-0.07267855852842331,0.043998803943395615,0.05633168667554855,-0.01703764870762825,-0.10211758315563202,-0.07533302903175354,0.12859460711479187,-0.028363239020109177,0.040062397718429565,-0.14125855267047882,0.06841982156038284,-0.07832293212413788,0.01594480127096176,0.18172073364257812,0.0180674958974123,-0.12390828877687454,0.024218300357460976,-0.12789839506149292,0.00952240452170372,0.07041953504085541,-0.13092663884162903,0.024302134290337563,-0.1505347341299057,0.3000522553920746,-0.10958708822727203,-0.24911807477474213,0.29178479313850403,-0.19121605157852173,0.2969592213630676,-0.07601335644721985,-0.12419213354587555,0.24023479223251343,-0.0979950875043869,-0.051942262798547745,0.014031733386218548,-0.21186237037181854,-0.00041710317600518465,-0.2865118086338043,0.30934929847717285,-0.18049106001853943,0.0020279637537896633,-0.060407623648643494,0.0020665025804191828,-0.15159140527248383,0.19808200001716614,-0.1619929075241089,-0.22691532969474792,0.00181734433863312,-0.09718288481235504,-0.1450253576040268,0.010877542197704315,-0.01958884857594967,0.007232344709336758,0.005587995983660221,0.18299619853496552,0.055124636739492416,0.06033062934875488,0.05651698261499405,-0.22195351123809814,0.16402898728847504,-0.1067010685801506,-0.21266880631446838,0.1566092073917389,-0.05438462272286415,-0.015632839873433113,-0.007545670960098505,-0.17552302777767181,0.06404826045036316,0.09272647649049759,0.13361966609954834,0.04370244964957237,0.030190762132406235,0.024891424924135208,-0.16285261511802673,-0.024859314784407616,-0.1066599041223526,-0.15618152916431427,0.01672753505408764,-0.1203635036945343,-0.01411055400967598,0.0601881667971611,-0.08505510538816452,0.06563424319028854,0.09681109338998795,-0.09693235903978348,-0.03757329285144806,-0.07041828334331512,-0.016956044360995293,-0.1766638308763504,-0.25496309995651245,-0.060655392706394196,-0.030133048072457314,-0.09772460162639618,0.05233723297715187,0.16938936710357666,-0.015363654121756554,0.2083200365304947,-0.03925495967268944,-0.06912846118211746,0.09083622694015503,-0.05834648385643959,-0.05204484239220619,0.11440031975507736,-0.025549350306391716,-0.10468658059835434,-0.0010062267538160086,0.10837990045547485,-0.0942177027463913,0.07786025106906891,0.0869123712182045,-0.10473502427339554,-0.13317014276981354,-0.22230562567710876,0.1709577888250351,-0.10516533255577087,0.07903746515512466,0.02960353158414364,0.08265108615159988,-0.07183399051427841,-0.002301388420164585,0.14189526438713074,-0.04422122240066528,-0.05199238657951355,0.11873101443052292,-0.07205135375261307,0.18399213254451752,0.09295156598091125,0.12123361229896545,0.08994138985872269,-0.1203504130244255,0.12360452860593796,-0.04643673449754715,-0.07310926169157028,0.01550831738859415,0.08496902137994766,0.04622581601142883,-0.13451391458511353,-0.03341315686702728,-0.14280349016189575,0.0173844862729311,0.025645816698670387,-0.13640300929546356,0.02996719814836979,0.015683257952332497,0.10439848899841309,0.09907324612140656,-0.1413247436285019,-0.10764331370592117,-0.09064128249883652,-0.06946682929992676,0.03621165081858635,-0.04215078428387642,-0.08593039214611053,-0.01045223418623209,0.039801545441150665,-0.1564924567937851,0.08233817666769028,0.051095958799123764,-0.18956133723258972,0.10522691160440445,-0.07942838221788406,0.03126142546534538,0.20947615802288055,-0.023353710770606995,0.1123136579990387,0.01994118094444275,-0.11709769815206528,0.05834205448627472,-0.06947514414787292,0.003778701415285468,0.18618547916412354,0.10246941447257996,0.20062968134880066,-0.14944297075271606,-0.28719013929367065,-0.05645974725484848,-0.0721263587474823,0.15972121059894562,0.30357980728149414,0.0828184187412262,0.2054208219051361,0.06373374164104462,-0.041693463921546936,-0.1686962991952896,-0.0855768695473671,0.06183737516403198,-0.06048767268657684,-0.028056619688868523,-0.0026055513881146908,-0.040293414145708084,0.02086552232503891,-0.06324341148138046,-0.025133030489087105,0.10121336579322815,0.023617757484316826,-0.042903490364551544,0.08141499012708664,-0.14633604884147644,0.1368584930896759,-0.08966732770204544,0.11609648913145065,0.016827750951051712,-0.03840428963303566,0.07601188868284225,-0.13192133605480194,0.0014776784228160977,-0.008531439118087292,-0.18136714398860931,-0.04702485352754593,-0.10313550382852554,0.06672270596027374,0.23258504271507263,0.09669008105993271,0.17236118018627167,-0.0300058051943779,-0.11270405352115631,-0.23491184413433075,-0.003497478784993291,-0.005992376245558262,0.1485925018787384,0.1718405783176422,0.5631116628646851,-0.24273094534873962,-0.2679463028907776,0.10958117246627808,-0.010696015320718288,-0.20895953476428986,-0.13053569197654724,-0.04030579328536987,-0.2713632881641388,-0.19581188261508942,-0.07646181434392929,0.061231549829244614,-0.1848936676979065,-0.09899899363517761,-0.039540935307741165,0.12409274280071259,-0.015740690752863884,-0.012736614793539047,0.1320752203464508,0.0016466103261336684,0.05910681560635567,-0.05970056727528572,-0.010586974211037159,0.00519992271438241,0.1235015019774437,0.18000082671642303,0.31815558671951294,-0.044356733560562134,0.14951691031455994,-0.14216889441013336,-0.1610506922006607,-0.03129390999674797,-0.11778011173009872,-0.06214383617043495,0.14207880198955536,0.2126885950565338,0.16579946875572205,0.1742842048406601,0.20860469341278076,-0.05496487766504288,-0.1400536596775055,-0.16493774950504303,-0.03103131614625454,0.06820889562368393,-0.06877852976322174,0.08626065403223038,-0.1557808518409729,0.1044246107339859,-0.15097612142562866,-0.07415812462568283,0.2160823494195938,-0.16479900479316711,0.054574429988861084,0.10978541523218155,-0.14780963957309723,-0.2566456198692322,-0.13406997919082642,-0.1062050387263298,0.1101660430431366,-0.09392976760864258,-0.020370952785015106,-0.27039074897766113,-0.051745351403951645,-0.15374258160591125,-0.14398930966854095,-0.01844138652086258,-0.01364289689809084,-0.12475431710481644,-0.029513264074921608,0.011975482106208801,-0.06417879462242126,0.00911096204072237,0.05105135589838028,0.13351792097091675,0.12033737450838089,-0.025781573727726936,-0.06112794950604439,-0.14534077048301697,0.13145068287849426,-0.16668643057346344,-0.11788590997457504,0.1053699404001236,0.30706894397735596,-0.06794149428606033,0.07610735297203064,-0.027234844863414764,-0.086798757314682,0.006766938138753176,0.10125236958265305,0.028445150703191757,0.009034520015120506,-0.024398552253842354,0.024620424956083298,-0.05147387832403183,-0.20483875274658203,-0.07348459959030151,0.10546871274709702,0.02666403353214264,-0.006932530552148819,0.4437350928783417,0.001048513688147068,-0.04763569310307503,0.07186634838581085,-0.050088070333004,0.0032074337359517813,0.2035818248987198,-0.06283421069383621,0.09066043049097061,-0.15518368780612946,-0.06251813471317291,-0.08882158249616623,-0.13117681443691254,0.06632393598556519,-0.0948595330119133,0.07940953224897385,0.07689445465803146,0.023458220064640045,0.18661437928676605,0.002667083404958248,-0.01943303272128105,-0.21616347134113312,0.02575034834444523,-0.03274189308285713,-0.15094825625419617,-0.03002273477613926,-0.07189016789197922,0.1408592015504837,-0.031050046905875206,-0.06886910647153854,0.18607239425182343,-0.2069806605577469,0.2122049331665039,-0.21091197431087494,-0.016830138862133026,0.03385838866233826,0.09846275299787521,-0.16069382429122925,-0.08562470227479935,0.11336367577314377,-0.17557378113269806,0.011282293125987053,0.1875855177640915,-0.3071354031562805,-0.2719491720199585,0.008782334625720978,-0.3175288140773773,-0.10289440304040909,-0.19213636219501495,0.0682823583483696,0.05194370448589325,-0.19486452639102936,-0.004060313105583191,-0.12357563525438309,0.30503419041633606,-0.03355085849761963,-0.11523520201444626,0.2086682766675949,-0.03416816517710686,0.06670469790697098,0.17480063438415527,-0.14538754522800446,-0.0001210544869536534,0.011484337039291859,-0.16266560554504395,-0.10353758186101913,0.19022852182388306,0.12428334355354309,-0.03395058214664459,-0.2986280620098114,-0.1372496485710144,0.03744381293654442,-0.10213588923215866,-0.08809438347816467,0.19836586713790894,0.1519499272108078,-0.11636392772197723,0.1138451099395752,0.08603595942258835,-0.32043468952178955,0.31459322571754456,-0.2194572240114212,-0.06480106711387634,0.16227953135967255,0.11912423372268677,-0.14671045541763306,0.032421547919511795,0.07512474060058594,-0.17943820357322693,-0.06780851632356644,-0.27719244360923767,0.13110089302062988,-0.3217773139476776,-0.20096039772033691,-0.1145612969994545,0.05085005983710289,0.04554181173443794,-0.1497725546360016,-0.09654797613620758,-0.009064973331987858,0.013568369671702385,-0.039670106023550034,-0.08982156962156296,-0.2975030243396759,-0.026552367955446243,-0.05708886682987213,0.04099343717098236,-0.059800222516059875,0.02963096648454666,-0.2208053320646286,-0.12914927303791046,-0.0029399096965789795,-0.20740044116973877,0.11603760719299316,-0.055068034678697586,0.11752758920192719,-0.09593687206506729,-0.18117175996303558,-0.15680013597011566,-0.041776321828365326,-0.05657660588622093,-0.13479076325893402,0.06114836409687996,0.13867507874965668,0.03411471098661423,0.10584243386983871,0.1342960149049759,-0.21385586261749268,0.10743983834981918,0.28046518564224243,0.053216904401779175,-0.05767173320055008,0.0613211914896965,-0.1483893245458603,0.1279127150774002,0.10006990283727646,-0.03735095635056496,-0.08268062770366669,0.044941723346710205,0.10473551601171494,0.05712829902768135,-0.12342483550310135,0.08669935911893845,0.006027268711477518,0.07380655407905579,0.0463130883872509,0.7114148736000061,0.04453154653310776,0.0391027070581913,0.004402210004627705,0.23292537033557892,0.034507133066654205,-0.7892568707466125,0.011742684990167618,-0.4138837158679962,-0.018519779667258263,-0.021672535687685013,-0.05631111189723015,0.3969932794570923,-0.05403513088822365,-0.13267526030540466,0.02031170018017292,0.2601642310619354,0.017195165157318115,0.22192567586898804,0.040124934166669846,-0.6648497581481934,-0.07076676189899445,0.4810130000114441,-0.028145764023065567,0.11115263402462006,0.0027008980978280306,-0.7067198753356934,0.009230085648596287,0.13904161751270294,-0.03915451839566231,-0.23652911186218262,0.14979620277881622,-0.21673400700092316,-0.15953275561332703,0.19808432459831238,-0.24229185283184052,0.0306304469704628,0.16435226798057556,-0.05576440319418907,-0.1871226280927658,-0.17205354571342468,0.07207661122083664,-0.08077864348888397,0.07196439057588577,0.15560080111026764,-0.09888090938329697,0.334476113319397,-0.021384388208389282,-0.12536950409412384,-0.03660091757774353,0.12408469617366791,-0.1821260005235672,-0.09266047924757004,0.028342800214886665,0.28493645787239075,-0.19654229283332825,-0.10330461710691452,0.0026170918717980385,-0.12973397970199585,0.15303216874599457,-0.18228721618652344,0.16040709614753723,0.15235376358032227,0.13978159427642822,-0.027325494214892387,1.6824282283778302e-05,-0.19967596232891083,-0.113594189286232,-0.26267796754837036,-0.32755768299102783,-0.04386010766029358,0.0667940303683281,0.19066907465457916,-0.01815851591527462,-0.009081139229238033,-0.14876480400562286,-0.08734627068042755,-0.09198178350925446,0.05904652923345566,0.37483352422714233,0.1204410120844841,0.08457271754741669,-0.23447106778621674,0.16515986621379852,0.1766507476568222,0.17540232837200165,0.31799253821372986,-0.15476219356060028,-0.21481163799762726,-0.23361709713935852,0.33676135540008545,-0.42017003893852234,0.08379095047712326,0.12495731562376022,0.28258365392684937,-0.1285397708415985,0.22328628599643707,-0.1596573293209076,-0.0367283970117569,0.21091178059577942,0.004232958424836397,-0.14359687268733978,0.10344322770833969,-0.2132142335176468,0.01425035297870636,0.2348611205816269,0.1424524188041687,0.1696733683347702,-0.20758116245269775,-0.26329952478408813,-0.1366899460554123,-0.1289709210395813,-0.3899640440940857,0.06854405254125595,0.22602207958698273,0.19888751208782196,-0.08603642880916595,0.04116266593337059,-0.013785089366137981,0.11872003227472305,0.2776200771331787,0.11121086776256561,-0.40093836188316345,0.26999616622924805,0.10540011525154114,-0.03236312419176102,-0.2232402265071869,0.17088839411735535,-0.07030140608549118,-0.18277624249458313,-0.12857985496520996,0.15050850808620453,-0.1321025788784027,-0.20801196992397308,0.21523316204547882,0.2718866169452667,-0.1450030505657196,0.05251266434788704,0.04847372695803642,0.08084792643785477,0.08557447791099548,0.05819505453109741,0.01178891584277153,-0.16953246295452118,-0.40094396471977234,0.4975661039352417,-0.11030533909797668,-0.11990483105182648,0.24006222188472748,-0.25044116377830505,-0.2141374945640564,0.06514479964971542,0.2182372510433197,-0.03754577040672302,-0.008696191944181919,0.07042942196130753,-0.12781104445457458,0.10565602034330368,0.282137393951416,-0.06662318855524063,-0.27362725138664246,-0.12268679589033127,0.13010363280773163,-0.06790240108966827,0.28143179416656494,0.13140572607517242,-0.3284434378147125,-0.11334264278411865,0.061458226293325424,0.1072884127497673,-0.22386661171913147,-0.09925752133131027,0.21223993599414825,0.03790213167667389,-0.07044075429439545,-0.09966016560792923,0.23667539656162262,0.30369675159454346,-0.044602807611227036,0.10299323499202728,-0.1769734025001526,-0.040300797671079636,-0.1282232254743576,0.20478063821792603,-0.20841827988624573,-0.20580333471298218,0.2143346518278122,-0.13300654292106628,0.21180137991905212,-0.11677589267492294,0.17509837448596954,0.09445412456989288,-0.2831976115703583,-0.09060537815093994,-0.3032069206237793,0.059557560831308365,-0.20532971620559692,0.12453053146600723,0.08080738037824631,-0.05917511507868767,0.1590648591518402,0.00047569957678206265,-0.07902827858924866,0.17662250995635986,-0.0880313292145729,-0.05684050917625427,-0.040300123393535614,-0.016309252008795738,0.4092716574668884,0.2937244176864624,-0.26626163721084595,-0.022291412577033043,-0.043894559144973755,-0.2795337736606598,0.13538533449172974,0.010177680291235447,-0.2805171608924866,-0.10817573964595795,0.3263053297996521,0.07786910235881805,-0.0781826376914978,0.19949600100517273,0.018982049077749252,-0.23153731226921082,-0.043187979608774185,0.10485563427209854,0.21527740359306335,0.18917213380336761,-0.16003721952438354,0.04870976135134697,-0.17342422902584076,-0.041193053126335144,-0.013506400398910046,0.18005716800689697,-0.3391491174697876,-0.13802336156368256,-0.25923293828964233,0.1342838555574417,-0.0490698479115963,-0.05074388161301613,-0.06985785812139511,-0.14011560380458832,-0.09453427046537399,0.23663486540317535,-0.06284040212631226,0.27239805459976196,-0.18762721121311188,-0.06406140327453613,0.07535488158464432,0.35498908162117004,0.2815244495868683,-0.03167412057518959,-0.01297652255743742,-0.20947737991809845,-0.19458478689193726,-0.0544898547232151,0.1636742800474167,-0.0396745428442955,0.04571530967950821,0.15739673376083374,-0.1713189035654068,-0.12458721548318863,0.06771902740001678,0.11531948298215866,-0.06871406733989716,0.15332408249378204,-0.20915858447551727,-0.024364452809095383,0.061729952692985535,-0.0731407031416893,-0.11733129620552063,0.06627365201711655,0.061436306685209274,0.4117990732192993,-0.2682674527168274,-0.20478646457195282,-0.326667845249176,-0.4826599657535553,0.034949660301208496,-0.07096518576145172,-0.4273725152015686,0.02863907627761364,-0.04075700789690018,-0.002959303557872772,0.1475217640399933,-0.0572277195751667,0.16823232173919678,0.009955289773643017,-0.15736138820648193,0.10680462419986725,0.03719021752476692,-0.028006592765450478,0.0509500578045845,-0.006549535784870386,0.017871137708425522,-0.010942526161670685,-0.08129990100860596,0.15586918592453003,0.11182068288326263,0.015275048092007637,0.027706097811460495,-0.09574859589338303,-0.030147675424814224,-0.009789174422621727,0.0895906463265419,-0.041014011949300766,0.16330038011074066,-0.0026428198907524347,0.19190916419029236,-0.2094772607088089,0.05545911192893982,0.16055963933467865,-0.08565784990787506,0.004066068213433027,0.07101782411336899,-0.07095882296562195,0.030797967687249184,-0.008579560555517673,-0.3410029411315918,0.0819144994020462,-0.07461987435817719,0.0387130007147789,0.09554532915353775,0.08593809604644775,0.08507217466831207,0.11159977316856384,0.08007760345935822,-0.12379564344882965,-0.07281816005706787,-0.06348613649606705,-0.19651396572589874,0.02084594964981079,0.001423716894350946,0.3625650405883789,0.19202058017253876,0.11154665797948837,-0.3248860836029053,0.041634127497673035,-0.10346849262714386,0.10756587237119675,0.11275685578584671,0.05744202435016632,0.22895680367946625,0.15490643680095673,-0.015851151198148727,-0.29622864723205566,0.10239294171333313,-0.04213600233197212,-0.14662478864192963,-0.04558086395263672,0.11820661276578903,0.1261560171842575,-0.20681971311569214,-0.0236757043749094,0.23363620042800903,-0.05220033600926399,-0.1903938502073288,0.06472072005271912,-0.13170722126960754,-0.12379825115203857,0.009854668751358986,-0.008150160312652588,0.05657419189810753,-0.1246684119105339,0.056320060044527054,0.0334516204893589,0.09669504314661026,-0.136427640914917,0.11829765141010284,-0.0390714667737484,-0.09274833649396896,0.0682968944311142,0.06547081470489502,-0.1522192656993866,0.017958881333470345,-0.03978720307350159,-0.21508508920669556,0.16925188899040222,0.19654670357704163,0.09537655860185623,0.08862503618001938,-0.10562001913785934,-0.06813275068998337,-0.20231589674949646,0.1605975180864334,-0.0449032299220562,-0.04086900129914284,-0.2820023000240326,-0.23705734312534332,-0.14694175124168396,0.16201408207416534,-0.15035487711429596,-0.1089499369263649,0.13634581863880157,0.09658719599246979,-0.053579702973365784,-0.029413050040602684,-0.05205056443810463,0.07981742173433304,-0.05463380739092827,0.09952513873577118,-0.03229028359055519,0.19659338891506195,0.10539845377206802,0.04693153128027916,0.1031106635928154,-0.005591456312686205,-0.16703180968761444,-0.008824121206998825,-0.34687575697898865,0.040362048894166946,-0.06298508495092392,-0.01929045282304287,-0.1735846847295761,-0.12231618165969849,0.09701399505138397,0.22905905544757843,0.06264711171388626,-0.022083725780248642,0.011914676055312157,-0.12073218822479248,0.01687612384557724,0.09348709881305695,0.09729176014661789,-0.00027080689324066043,-0.27158740162849426,-0.4038686454296112,-0.07328346371650696,-0.1464841067790985,0.11504566669464111,0.15304715931415558,0.09101643413305283,0.1197972372174263,-0.09053285419940948,0.06831420212984085,0.23617137968540192,0.20905831456184387,0.035897474735975266,-0.06387761980295181,0.05750420689582825,0.1296992003917694,-0.0927710086107254,0.07633568346500397,-0.046434104442596436,0.14083199203014374,-0.07587411999702454,-0.3616752326488495,0.3297763168811798,-0.040030449628829956,-0.005278926808387041,0.19652709364891052,0.03974086791276932,0.057219669222831726,-0.010703375563025475,-0.013032691553235054,0.13238342106342316,0.025976210832595825,-0.23288500308990479,-0.4746551811695099,-0.2350994050502777,0.16031518578529358,-0.05077363923192024,-0.1220141127705574,0.04937949404120445,-0.20817625522613525,0.029103944078087807,-0.0013380363816395402,-0.1490720808506012,0.07179007679224014,0.07938505709171295,0.19616976380348206,-0.06898292154073715,0.02218766137957573,-0.13625368475914001,0.23094578087329865,-0.11200806498527527,-0.03579104319214821,0.003098071785643697,-0.12075848877429962,0.05083839222788811,-0.1555071771144867,-0.15602563321590424,-0.1907804161310196,-0.04378873109817505,0.01806338131427765,0.07037919759750366,-0.0829736515879631,-0.19262897968292236,-0.148201584815979,-0.008891881443560123,0.18187831342220306,0.03707875683903694,0.12815088033676147,0.05796452984213829,0.20944088697433472,0.06726903468370438,-0.15169255435466766,0.005314866546541452,0.19283215701580048,0.025702975690364838,0.06917604058980942,-0.08929146081209183,0.15456101298332214,0.05875365436077118,0.05218695476651192,-0.18995431065559387,0.11581304669380188,0.22735756635665894,0.028615107759833336,0.10806511342525482,-0.12819020450115204,0.11108341813087463,0.04330087825655937,-0.16132068634033203,0.20127834379673004,0.0956963375210762,-0.2992192804813385,-0.04191915690898895,0.03632757067680359,0.11708960682153702,-0.027052873745560646,-0.09833040088415146,0.07501990348100662,0.0012304999399930239,0.04441984370350838,0.35963743925094604,-0.062822625041008,-0.01923578418791294,-0.25072920322418213,0.06336863338947296,-0.15692447125911713,0.11718389391899109,-0.09098631888628006,0.14030712842941284,-0.020430346950888634,0.027592554688453674,-0.08546797931194305,-0.40780338644981384,0.0211313646286726,-0.06640652567148209,-0.060800790786743164,-0.15678468346595764,-0.037464454770088196,0.3486703932285309,-0.12599213421344757,0.008299619890749454,0.072786346077919,0.02373156137764454,0.10721778124570847,-0.17770540714263916,0.16756224632263184,-0.0028118423651903868,-0.2533917725086212,-0.14630699157714844,0.07123802602291107,0.16644521057605743,-0.07086990028619766,0.023003149777650833,0.10046655684709549,-0.03003532998263836,-0.08368431031703949,0.2185378074645996,0.001616326509974897,0.06810854375362396,-0.46015822887420654,0.06107420101761818,-0.1379738599061966,-0.09393326938152313,0.17387300729751587,-0.1306879222393036,-0.12683691084384918,-0.14814282953739166,-0.006438008509576321,-0.12678802013397217,0.1445206105709076,0.023227836936712265,-0.17955319583415985,-0.24104614555835724,0.10068139433860779,0.14132852852344513,0.07405281066894531,-0.10532812029123306,-0.05856601521372795,-0.19365334510803223,-0.15131500363349915,-0.23134930431842804,0.11680939793586731,0.20469246804714203,-0.3381323218345642,0.08506576716899872,0.02229881100356579,-0.29706209897994995,-0.13397616147994995,-0.232669398188591,0.1299557387828827,0.0071801841259002686,-0.06811589747667313,0.052797798067331314,-0.11828941851854324,-0.1243741363286972,0.06758785247802734,0.05084068700671196,-0.07545413821935654,-0.10161142796278,0.11502836644649506,0.11281215399503708,-0.23930057883262634,0.05065114423632622,0.13184942305088043,-0.020961709320545197,-0.042050234973430634,0.10553651303052902,-0.013202229514718056,-0.17003233730793,-0.13310949504375458,0.2580234408378601,-0.16653777658939362,0.005903218872845173,0.22352977097034454,0.2132119983434677,0.1937815546989441,-0.0620943158864975,-0.17338310182094574,0.11267296224832535,0.06815003603696823,0.1159818172454834,-0.07171313464641571,-0.12104083597660065,-0.28572890162467957,-0.03436294198036194,0.06667942553758621,-0.12495366483926773,0.19459380209445953,0.021718332543969154,-0.06848196685314178,-0.05613899230957031,0.07336001843214035,0.08791743218898773,-0.07648749649524689,-0.06244196370244026,0.14935511350631714,-0.11087021976709366,0.035114359110593796,0.06986125558614731,0.06126907467842102,-0.13935896754264832,-0.0007684200536459684,-0.02968648634850979,0.04419649392366409,0.05749104917049408,0.15419290959835052,0.06147460266947746,-0.00851497519761324,-0.03608882427215576,0.13945651054382324,-0.07703547179698944,-0.07447965443134308,0.09160634875297546,-0.1498197466135025,0.16666270792484283,-0.14882490038871765,0.1115366667509079,-0.15702830255031586,-0.16392716765403748,0.008372305892407894,0.0008125543827190995,-0.058240294456481934,-0.13923057913780212,0.18824714422225952,0.059775035828351974,0.0352446474134922,0.04417882487177849,-0.09096402674913406,-0.2254563570022583,-0.1265726089477539,0.280129075050354,0.05502435937523842,-0.10206522792577744,0.020588500425219536,0.12186197191476822,0.19583700597286224,-0.40161287784576416,0.01568039320409298,-0.09012668579816818,-0.2370155155658722,-0.07607478648424149,-0.0709160715341568,0.19991548359394073,-0.08247965574264526,-0.1885814368724823,0.014479567296802998,0.18924561142921448,0.09050865471363068,-0.11476078629493713,-0.03371994197368622,-0.06743723899126053,-0.13159823417663574,-0.18075646460056305,0.08606939762830734,-0.24472761154174805,0.031035255640745163,-0.07173419743776321,0.3998582661151886,0.16351187229156494,-0.01620413176715374,0.26598310470581055,0.13445927202701569,0.1274741291999817,0.008861411362886429,0.17341148853302002,0.004303771071135998,-0.1825399398803711,0.2647136449813843,0.012912167236208916,-0.17500193417072296,0.03951248899102211,-0.033236317336559296,0.08866780251264572,-0.13261309266090393,0.025625646114349365,-0.09205900132656097,-0.07510221749544144,-0.007404174655675888,0.05409387871623039,0.04785710200667381,0.02721746638417244,0.31882333755493164,0.028438374400138855,0.15804634988307953,-0.37687918543815613,0.04115862399339676,0.03463742509484291,-0.2142535150051117,-0.06557370722293854,-0.19028036296367645,0.47241708636283875,-0.10012400150299072,0.009054271504282951,-0.5160710215568542,-0.10652229934930801,0.0010431688278913498,0.2508816123008728,-0.008006704971194267,-0.014619173482060432,0.06299536675214767,-0.0884038433432579,-0.047460392117500305,-0.13657012581825256,-0.012500100769102573,-0.006736458279192448,0.03647276759147644,0.04443378373980522,0.03634455427527428,-0.17722705006599426,-0.14652468264102936,-0.18672773241996765,-0.14105534553527832,0.050727423280477524,0.1440219134092331,-0.24142207205295563,-0.12536072731018066,0.2814658284187317,0.41106531023979187,0.16295528411865234,0.09252607077360153,0.03309730440378189,0.0003828330372925848,0.06401373445987701,0.23824535310268402,0.009077111259102821,0.017609598115086555,-0.2832178771495819,-0.25533613562583923,-0.3524739444255829,-0.40614745020866394,0.17272260785102844,-0.1551119089126587,