{"version":"0.5.4","metadata":{"date":"2026-05-27T18:25:36","sample_rate":48000,"loudness":-21.57872200012207,"training_esr":0.01967480567360273,"pretrained":"Phoenix Pre 5 Tone 2.5.nam","architecture":"STANDARD","input_level_dbu":22.5,"output_level_dbu":6.8},"architecture":"WaveNet","config":{"layers":[{"input_size":2,"condition_size":2,"channels":16,"head_size":8,"kernel_size":3,"dilations":[1,2,4,8,16,32,64,128,256,512],"activation":"Tanh","gated":false,"head_bias":false},{"input_size":16,"condition_size":2,"channels":8,"head_size":1,"kernel_size":3,"dilations":[1,2,4,8,16,32,64,128,256,512],"activation":"Tanh","gated":false,"head_bias":true}],"head":null,"head_scale":0.02,"rate_condition_hidden":16,"rate_condition_num_biases":240},"weights":[-0.057750288397073746,0.07514249533414841,0.8133357763290405,-0.041617345064878464,-0.9986028075218201,-0.052382562309503555,-0.8727269768714905,0.05900445953011513,-0.57696533203125,-0.04436098784208298,0.33508244156837463,-0.06499120593070984,-0.08560073375701904,0.025683186948299408,0.8100863099098206,-0.010975475423038006,-0.17351962625980377,0.04317677021026611,0.3739573061466217,-0.05019369721412659,-0.3245224952697754,0.05321522802114487,-0.26333874464035034,0.08317858725786209,-1.091448426246643,-0.01069045253098011,-0.712522566318512,0.037137094885110855,-0.6096607446670532,-0.025472430512309074,0.18544593453407288,-0.05445077270269394,0.18405374884605408,0.26326784491539,-0.14128968119621277,-0.10626398026943207,-0.029850145801901817,0.1777942031621933,-0.012013072147965431,0.16297493875026703,-0.09924474358558655,0.05893835425376892,0.21460668742656708,-0.18114814162254333,-0.07401973009109497,0.01755128800868988,-0.14570340514183044,0.049734171479940414,-0.20914120972156525,-0.05381367355585098,-0.0026969409082084894,0.004192446358501911,-0.13397109508514404,0.09305773675441742,-0.005842407234013081,0.1280844509601593,0.09684828668832779,0.0586126483976841,-0.00332788098603487,-0.1962708830833435,-0.20722933113574982,-0.03390395641326904,0.15950827300548553,0.1939755380153656,-0.08368370682001114,0.08168017119169235,0.22275212407112122,0.1271524280309677,0.0866226777434349,0.0877041295170784,0.03276955708861351,-0.040554411709308624,0.11172951012849808,-0.15612895786762238,-0.07587708532810211,-0.01065488439053297,-0.014138096012175083,-0.033537425100803375,-0.21776875853538513,0.10888992249965668,0.04747502878308296,0.2243058681488037,-0.0724562332034111,0.07929989695549011,-0.09935086965560913,0.21578946709632874,-0.1596468985080719,0.12253349274396896,-0.019403833895921707,0.07770279049873352,0.30901503562927246,0.05712936073541641,-0.023882631212472916,0.05746399238705635,-0.07040274143218994,-0.056049562990665436,-0.32350605726242065,0.188274085521698,0.06917683035135269,0.07414541393518448,-0.05519208684563637,0.019867844879627228,-0.20118413865566254,0.005774684716016054,0.0198823232203722,0.12372177094221115,-0.016657326370477676,0.11396028846502304,-0.09193925559520721,0.12677550315856934,-0.1776856929063797,0.09383508563041687,0.01136158499866724,-0.002046870766207576,0.09182430058717728,-0.14409223198890686,0.09017490595579147,0.2769290506839752,-0.13748110830783844,-0.07773714512586594,0.04434025660157204,-0.07198843359947205,-0.16068871319293976,0.0723070353269577,-0.0907350555062294,0.07362671196460724,-0.29385119676589966,0.1819850504398346,-0.05851726606488228,-0.09979494661092758,0.15421083569526672,-0.20319214463233948,0.09729298949241638,-0.04174533486366272,0.10383374989032745,-0.08950387686491013,0.10189789533615112,0.09108413755893707,-0.1958235651254654,0.11359112709760666,-0.055854931473731995,-0.2189568430185318,0.013794508762657642,-0.14629322290420532,0.07928317040205002,-0.16075481474399567,0.03551839664578438,-0.1406354159116745,-0.032121460884809494,-0.09136757999658585,0.22467248141765594,-0.06037269905209541,0.07562702149152756,-0.16714781522750854,0.08004829287528992,0.012010367587208748,0.27499446272850037,0.04182326793670654,0.21647575497627258,-0.1348804086446762,-0.08542194217443466,0.004368933849036694,-0.0466737374663353,0.04713897779583931,0.010719667188823223,-0.23637184500694275,-0.08952508866786957,-0.03949544206261635,-0.15347395837306976,0.12398699671030045,0.16201791167259216,-0.27270784974098206,0.13955968618392944,-0.1864163875579834,0.16279461979866028,-0.1326502561569214,0.14225390553474426,0.27993831038475037,-0.24014827609062195,-0.33786043524742126,-0.3595380187034607,0.02842511236667633,0.15110497176647186,0.38956722617149353,-0.1409802883863449,0.19632753729820251,0.45252203941345215,-0.07953542470932007,0.3517066240310669,0.3973928987979889,-0.1521146297454834,-0.09833299368619919,-0.32400625944137573,-0.028898604214191437,0.31495851278305054,0.19621874392032623,-0.06335937231779099,-0.23726436495780945,-0.22296646237373352,0.05501554161310196,0.26302531361579895,0.36728039383888245,-0.09212404489517212,-0.2303626388311386,-0.4429225027561188,0.11719045042991638,0.3064112365245819,0.40336963534355164,-0.1383742094039917,0.18601900339126587,0.20080894231796265,-0.13994109630584717,0.1281970888376236,0.38196074962615967,-0.10036899149417877,0.2004505693912506,0.32895082235336304,0.07287338376045227,0.10912603884935379,0.24484296143054962,-0.10402248054742813,-0.09586270898580551,-0.3936116397380829,0.21850942075252533,-0.008598807267844677,-0.004645148757845163,-0.0004404435749165714,-0.029809337109327316,-0.007938547991216183,-0.059819892048835754,0.018398385494947433,0.05714764446020126,-0.0726143941283226,-0.07424252480268478,0.13689392805099487,-0.09471236914396286,0.01084314938634634,0.18919719755649567,0.0998937338590622,0.026950374245643616,-0.11774104833602905,0.07533113658428192,-0.1317007690668106,-0.03764987736940384,-0.04028404876589775,-0.03276669234037399,-0.027446134015917778,0.08745860308408737,-0.009802968241274357,0.12534262239933014,0.09158501774072647,-0.08180848509073257,0.05092879757285118,-0.11976957321166992,-0.07695576548576355,0.04275631532073021,0.049468573182821274,0.08071297407150269,-0.055597010999917984,-0.0010285662719979882,0.08634590357542038,-0.10800626128911972,0.138380765914917,-0.11822839826345444,0.021093666553497314,-0.0029287668876349926,-0.0592426173388958,0.0582512803375721,0.16087764501571655,-0.011388221755623817,-0.09807511419057846,-0.07328898459672928,-0.06316899508237839,-0.12312600761651993,-0.09623902291059494,-0.21914130449295044,0.009280866011977196,0.10668369382619858,0.19606488943099976,0.02506875805556774,0.028308555483818054,0.07162187993526459,-0.1273908019065857,0.019424211233854294,0.24265116453170776,-0.05329180508852005,-0.09069180488586426,-0.1780005246400833,-0.04160648211836815,0.061067692935466766,0.0347876138985157,-0.2619999647140503,0.10638757050037384,-0.2140893042087555,0.06652448326349258,0.06240477412939072,0.11808226257562637,-0.2144012153148651,-0.1426684558391571,-0.004948596470057964,0.12224360555410385,0.14169907569885254,0.06659670919179916,-0.046625588089227676,-0.05924367159605026,0.1032470166683197,-0.19670945405960083,0.022204315289855003,0.1658179759979248,-0.08973783254623413,-0.05498125031590462,0.03002888150513172,0.01370261050760746,-0.1302255541086197,0.18402785062789917,-0.14111612737178802,-0.09169019758701324,-0.10057204961776733,0.07096059620380402,0.04726637899875641,-0.05772921070456505,-0.3880699872970581,0.09045197814702988,0.04512377455830574,0.21209979057312012,-0.08513591438531876,-0.09482213854789734,-0.16164617240428925,0.12324552983045578,-0.03256506845355034,-0.09230648726224899,0.15924715995788574,-0.05721883475780487,-0.14913026988506317,0.13915421068668365,0.013644336722791195,0.1748989075422287,-0.037140265107154846,-0.1501726508140564,-0.20598454773426056,0.17043547332286835,0.10397791862487793,0.2238202542066574,-0.04810688644647598,0.04881034418940544,-0.26491740345954895,-0.056863732635974884,-0.1306760460138321,0.3113907277584076,0.027564264833927155,-0.09685194492340088,-0.10074276477098465,0.16549445688724518,0.12339532375335693,-0.06192168593406677,0.17173954844474792,-0.00901451800018549,-0.19326728582382202,0.18783080577850342,0.1019054651260376,-0.23216308653354645,0.1926838904619217,0.09085898101329803,-0.07202896475791931,-0.013373985886573792,0.07284087687730789,0.18244816362857819,0.02713204175233841,-0.1708146035671234,-0.20707224309444427,0.1519947499036789,0.2445703148841858,0.2026594579219818,-0.03370339050889015,-0.2901189625263214,-0.2202294021844864,-0.01173184160143137,-0.31826508045196533,-0.35806038975715637,0.20803405344486237,-0.11888204514980316,-0.13043129444122314,0.20835192501544952,0.03288868069648743,0.13116231560707092,-0.11082448810338974,-0.2687733471393585,-0.16287943720817566,0.013418150134384632,0.10743873566389084,0.10299544781446457,-0.17373883724212646,-0.05000446364283562,-0.13173946738243103,0.20912882685661316,0.28453871607780457,0.3756735920906067,-0.13790737092494965,-0.10229724645614624,-0.10209527611732483,0.1364169716835022,-0.016478605568408966,-0.16415086388587952,0.18223458528518677,-0.23354694247245789,-0.17944572865962982,0.11009351909160614,-0.20798109471797943,-0.3207400441169739,0.013173815794289112,-0.3028065860271454,-0.16491039097309113,0.20102670788764954,0.15957149863243103,0.20072655379772186,-0.03324562683701515,0.04036682844161987,-0.2767292261123657,-0.028133196756243706,0.09541941434144974,0.19730354845523834,-0.2034599781036377,0.19028159976005554,-0.004086091183125973,0.04880303144454956,0.11604656279087067,-0.21452344954013824,0.06162702664732933,0.17830821871757507,-0.1153266578912735,0.011057445779442787,-0.056618452072143555,0.11952650547027588,-0.08527828007936478,-0.0005673020496033132,-0.08197854459285736,0.07318686693906784,-0.1331297606229782,0.1279577612876892,-0.021846532821655273,0.06664282828569412,-0.3255900740623474,0.03318897262215614,-0.12933601438999176,0.09596706181764603,-0.027094954624772072,-0.08891283720731735,-0.09642099589109421,0.18459996581077576,0.005490102339535952,-0.2817533314228058,0.0010048513067886233,0.07657109200954437,-0.23286262154579163,0.1663457155227661,-0.09661052376031876,-0.2705472707748413,-0.057721588760614395,0.022138915956020355,-0.029088638722896576,-0.02937723882496357,0.11358053237199783,0.17373625934123993,-0.05937206745147705,0.005115589126944542,-0.33852994441986084,0.14222578704357147,0.012162297032773495,0.24003873765468597,0.025555307045578957,-0.012904135510325432,0.04766596108675003,0.06984562426805496,0.12990297377109528,-0.21101243793964386,0.000526949530467391,-0.053639888763427734,-0.13069993257522583,0.10106208920478821,-0.14874842762947083,0.16642166674137115,0.06080392748117447,0.05603262409567833,-0.25311294198036194,-0.07285605370998383,-0.11541217565536499,0.1464228332042694,0.09100469201803207,0.11600527167320251,-0.15946905314922333,0.07444331049919128,-0.1926015019416809,-0.00877225399017334,0.03134053945541382,-0.03914697840809822,-0.04368115961551666,-0.07892626523971558,-0.04382944107055664,-0.2577365040779114,0.08992939442396164,0.05839751288294792,0.027697578072547913,0.14343653619289398,0.140173077583313,-0.09037458151578903,-0.003658341011032462,0.051085952669382095,-0.06220320984721184,0.13545508682727814,-0.14217609167099,0.2805708348751068,-0.060053419321775436,-0.07401826232671738,0.23638509213924408,-0.08504682034254074,0.153253972530365,-0.36131036281585693,0.33986347913742065,0.03179933875799179,0.2797856032848358,-0.11591101437807083,-0.09697072207927704,0.2634669840335846,-0.1575615555047989,-0.08568859845399857,0.254074364900589,-0.3041805028915405,0.08724790066480637,-0.27017074823379517,0.13371089100837708,0.07113746553659439,0.3520135283470154,-0.28052884340286255,0.040471401065588,-0.12130808085203171,0.20484045147895813,0.058620914816856384,0.2326064258813858,-0.15806221961975098,-0.09805036336183548,-0.32557687163352966,0.14726345241069794,0.13359278440475464,0.19234812259674072,-0.1897537112236023,-0.061969056725502014,0.3940333425998688,-0.060406338423490524,-0.13911113142967224,0.09025861322879791,-0.3383606970310211,-0.01867995597422123,0.17949050664901733,-0.3060866892337799,-0.08917548507452011,0.238646999001503,-0.3285573720932007,0.02371337078511715,-0.33527666330337524,0.21289460361003876,0.10615357756614685,0.06284716725349426,0.044604502618312836,-0.14217323064804077,-0.03208499774336815,-0.050231315195560455,0.018291063606739044,-0.15259069204330444,0.33719685673713684,0.05642439424991608,0.007031385321170092,0.17429640889167786,0.12440719455480576,-0.04962156340479851,0.2899416983127594,-0.12044108659029007,-0.10499882698059082,-0.25100386142730713,0.07256880402565002,0.0283427182585001,0.07556542754173279,-0.01480834186077118,-0.016082029789686203,-0.21541151404380798,0.23531006276607513,0.02815527841448784,0.2883952558040619,-0.055377375334501266,-0.015743374824523926,-0.2763746976852417,0.12440807372331619,0.0862993597984314,0.12327154725790024,-0.01091081090271473,0.017365477979183197,0.3052087426185608,0.11061272770166397,-0.1359165608882904,0.06079549714922905,0.18158763647079468,-0.03265206515789032,0.11087455600500107,0.18240851163864136,0.03602682799100876,0.31097412109375,-0.00832289271056652,0.027374891564249992,-0.3059290051460266,-0.198900043964386,-0.14632657170295715,0.14551904797554016,0.049876436591148376,0.03738832846283913,0.01162988506257534,0.18040792644023895,0.005326355341821909,0.021773982793092728,-0.03927776217460632,-0.2555427551269531,0.25182080268859863,-0.019096098840236664,-0.19820742309093475,0.22746321558952332,-0.05078857019543648,0.1133386418223381,-0.09902078658342361,-0.04970251023769379,-0.3405105471611023,0.2240489274263382,-0.09381068497896194,0.190376877784729,-0.0012485719053074718,0.043936632573604584,-0.19535066187381744,0.21474812924861908,0.024144912138581276,0.11714659631252289,0.031178239732980728,0.0261604692786932,-0.3169301450252533,0.05131674185395241,-0.12687943875789642,-0.08326281607151031,0.05931277200579643,-0.10080387443304062,-0.1495361477136612,0.2216331660747528,0.05241580307483673,-0.10976263880729675,0.12647730112075806,0.09041737020015717,-0.17661066353321075,0.08596440404653549,-0.09556510299444199,0.13568337261676788,-0.0497867725789547,-0.1569758802652359,0.2405284196138382,-0.003183918073773384,0.10886795073747635,-0.24952419102191925,0.18774914741516113,-0.1787024885416031,0.26343053579330444,-0.15574344992637634,-0.1284693330526352,0.22451582551002502,-0.0992400273680687,0.02072330377995968,0.05790828913450241,-0.17306824028491974,0.02631966769695282,-0.12118895351886749,0.17023971676826477,-0.15406246483325958,0.22367547452449799,-0.09002182632684708,0.06239239126443863,-0.03604714199900627,-0.0730140209197998,-0.07401163130998611,0.3011191785335541,-0.06437135487794876,0.20695562660694122,-0.2021339386701584,0.16251374781131744,-0.22915101051330566,0.1211337149143219,-0.06208500266075134,-0.04258880391716957,0.21808286011219025,0.07046768814325333,-0.11575303971767426,0.14080587029457092,0.05818323418498039,-0.13243024051189423,0.2708389163017273,-0.13537247478961945,-0.11579970270395279,0.14759144186973572,0.015445771627128124,0.21659398078918457,-0.22405388951301575,-0.03159210830926895,0.1617039442062378,-0.06483706831932068,-0.009306740947067738,-0.14337405562400818,0.21542493999004364,0.24474138021469116,0.054269641637802124,-0.2631555497646332,-0.019327322021126747,-0.055416591465473175,-0.08501963317394257,-0.08903556317090988,-0.025923900306224823,-0.08028987795114517,-0.24839667975902557,-0.03869104012846947,0.011982766911387444,0.07507765293121338,0.08460928499698639,0.004247762728482485,-0.165486142039299,0.04694516211748123,0.10418014973402023,0.04736461862921715,-0.053431879729032516,-0.2371944934129715,0.04966064915060997,-0.09592335671186447,0.12275289744138718,0.14054499566555023,0.1594628244638443,0.018855933099985123,0.019096126779913902,-0.03284604474902153,-0.12259669601917267,-0.1722356081008911,-0.036563824862241745,-0.09089569002389908,0.01895473711192608,-0.06407696008682251,-0.02924191765487194,-0.1839369237422943,0.017232855781912804,-0.013784939423203468,-0.1515287160873413,-0.07400092482566833,0.013984840363264084,0.20143677294254303,0.14636638760566711,-0.4838985502719879,0.1912490874528885,-0.28158414363861084,0.16278307139873505,-0.14401523768901825,0.29288342595100403,-0.2841533124446869,0.22036242485046387,0.2871033251285553,-0.1670082062482834,0.060970455408096313,0.18084633350372314,-0.3056028485298157,0.05444054305553436,-0.14178979396820068,0.37954282760620117,0.004593797493726015,0.18094287812709808,-0.30452650785446167,0.09207116812467575,-0.05651000887155533,0.19057200849056244,-0.23927918076515198,0.17853038012981415,-0.22625647485256195,0.003792164847254753,-0.03564528375864029,0.34000736474990845,-0.24174462258815765,0.11235969513654709,-0.14308540523052216,0.008349562995135784,0.10641749203205109,-0.2505282163619995,-0.0028195299673825502,0.25120341777801514,-0.17981819808483124,0.23528119921684265,0.06779421865940094,-0.11620540916919708,0.04787828028202057,0.334810346364975,-0.40117985010147095,0.03548054397106171,-0.12684156000614166,0.3828524351119995,-0.18525995314121246,-0.027159085497260094,-0.0999152734875679,-0.05142994597554207,-0.13761673867702484,0.04032661393284798,0.03861384093761444,-0.051025524735450745,0.025110822170972824,0.08121685683727264,0.08584178984165192,-0.010715523734688759,-0.005417796783149242,-0.05521011725068092,-0.012910192832350731,-0.08576826006174088,0.026222405955195427,0.5104405879974365,0.10816410183906555,-0.3561035692691803,0.04860586300492287,0.7529829740524292,-0.033210400491952896,-0.6914198994636536,0.0007463991059921682,-0.03401343896985054,-0.08472244441509247,0.9202821850776672,-0.028544994071125984,0.9272072911262512,-0.05211777612566948,-0.6654004454612732,0.03402387723326683,0.08405856043100357,-0.08429165929555893,0.06261347234249115,-0.07924417406320572,-0.24617142975330353,0.06648870557546616,-0.5391595959663391,-0.05263347551226616,0.137689471244812,-0.08102341741323471,-0.6580654978752136,0.026652637869119644,0.28366708755493164,0.0755319818854332,0.29254207015037537,-0.09047551453113556,0.11308938264846802,0.3142065405845642,-0.04518558457493782,0.19306634366512299,0.06702601164579391,-0.09508359432220459,0.11735738813877106,-0.06246642395853996,-0.19259335100650787,-0.2582080066204071,0.29412218928337097,-0.2323869913816452,0.02076348476111889,0.1159457266330719,0.21829049289226532,-0.44076451659202576,-0.014261255040764809,-0.14822915196418762,-0.23471198976039886,0.093843974173069,0.10145290195941925,-0.0008760920027270913,-0.13570451736450195,-0.12296687811613083,0.06296300888061523,0.25219017267227173,-0.2173978090286255,0.07139730453491211,0.00624837214127183,-0.11845759302377701,0.0480341799557209,0.5709913969039917,-0.0433049201965332,0.12042351812124252,-0.10016489028930664,0.2957138121128082,-0.04539924114942551,-0.23461604118347168,-0.0025639175437390804,-0.36588066816329956,-0.033732496201992035,-0.13295602798461914,0.16225801408290863,-0.15225616097450256,0.08887985348701477,0.3591061234474182,-0.050851691514253616,-0.13235613703727722,0.2312675565481186,-0.12879681587219238,-0.08173026144504547,-0.17903922498226166,-0.1485143005847931,0.025642981752753258,0.004155332688242197,0.08536093682050705,-0.20652028918266296,0.002702269470319152,0.011878439225256443,-0.06697206199169159,0.1387145072221756,0.24546587467193604,-0.08736241608858109,-0.12558233737945557,-0.22436173260211945,-0.2133159190416336,-0.22972792387008667,0.25464287400245667,0.23579135537147522,0.025820091366767883,0.11306051164865494,-0.22729536890983582,0.06117614731192589,0.22869209945201874,-0.1700648069381714,0.3632027208805084,0.014013141393661499,0.2325519472360611,-0.3735438883304596,0.008087757974863052,-0.23305347561836243,-0.001463412307202816,0.1120033711194992,0.0451318584382534,0.380940318107605,0.27921900153160095,0.22680506110191345,0.12603525817394257,0.16963542997837067,-0.01211701799184084,-0.21736355125904083,0.011985406279563904,-0.04811669886112213,-0.16806107759475708,0.04377949982881546,0.1724523901939392,-0.0012566593941301107,0.017667988315224648,0.2764904499053955,0.14314883947372437,-0.23171904683113098,-0.11751532554626465,0.14586861431598663,0.17215383052825928,0.1477307230234146,-0.1646265685558319,-0.1716204285621643,0.14140115678310394,0.23879529535770416,-0.2689806818962097,0.17485705018043518,-0.17892524600028992,0.20710298418998718,0.1285792738199234,0.2531317472457886,-0.2509806752204895,-0.07946497201919556,0.15362296998500824,0.21316228806972504,0.03971228003501892,0.10829474776983261,-0.253621369600296,0.16828417778015137,-0.16184408962726593,0.0334831066429615,-0.13647085428237915,-0.1910983920097351,0.0654759630560875,-0.054737530648708344,-0.017461339011788368,-0.24161164462566376,-0.2009282112121582,0.012087174691259861,-0.11234483867883682,-0.15118129551410675,-0.039419930428266525,-0.23638518154621124,-0.238772451877594,0.1612423211336136,0.07479137927293777,0.04430587217211723,-0.11547307670116425,0.16213059425354004,-0.01194718573242426,-0.23962675034999847,0.02389158308506012,0.28675031661987305,-0.2917882204055786,-0.10313230007886887,0.11950813978910446,0.24986688792705536,-0.12420373409986496,0.0683206170797348,0.2757919430732727,0.09089349955320358,0.14012937247753143,0.2601768672466278,0.0957440584897995,-0.1521969884634018,0.19726316630840302,0.1440598964691162,0.20481085777282715,-0.24884378910064697,0.16040730476379395,-0.1750713288784027,-0.2407122254371643,0.060733672231435776,-0.03350784629583359,0.046563949435949326,-0.14347656071186066,-0.15245084464550018,-0.0894550159573555,-0.06914526969194412,0.14222750067710876,0.10773669928312302,0.05351908504962921,0.16808554530143738,0.022290367633104324,0.05874870717525482,0.047705475240945816,-0.12612390518188477,-0.18031969666481018,-0.07471410185098648,0.013109938241541386,-0.13712622225284576,-0.39799967408180237,0.1476088911294937,-0.2682243883609772,-0.1413588970899582,0.25486627221107483,-0.12198208272457123,-0.4165608286857605,-0.2544403672218323,-0.10776931792497635,0.01468842476606369,0.07572292536497116,0.07204505801200867,-0.23275205492973328,-0.043195683509111404,0.23433078825473785,0.2863669693470001,0.07788616418838501,-0.380269855260849,0.14561429619789124,0.265654593706131,-0.15325124561786652,-0.08770949393510818,0.33824968338012695,0.06620676070451736,-0.23946796357631683,-0.14585994184017181,0.12476962804794312,-0.2717580497264862,0.18141698837280273,0.1880050003528595,0.06841756403446198,-0.006077710539102554,-0.08657993376255035,-0.08222571760416031,-0.06219901517033577,-0.15909478068351746,-0.08532168716192245,-0.059557992964982986,0.23997075855731964,-0.08067484200000763,0.302659809589386,-0.13319680094718933,0.0850977972149849,0.1431885063648224,-0.11655315011739731,0.08911292254924774,-0.06705613434314728,-0.346515029668808,0.10670389235019684,-0.04737240821123123,0.18446651101112366,0.07172789424657822,0.32075241208076477,-0.3750304579734802,-0.057259827852249146,0.1469687670469284,0.04931014031171799,0.2653838098049164,-0.13892771303653717,-0.10938800126314163,0.2656482756137848,0.15628023445606232,0.24209393560886383,-0.05232316628098488,-0.10497768223285675,-0.014453227631747723,-0.26255348324775696,0.09494714438915253,0.11023227125406265,0.04741885885596275,0.041685350239276886,0.07149054110050201,-0.10599426925182343,0.26465094089508057,-0.22848722338676453,-0.14344017207622528,-0.03406187519431114,0.16826248168945312,0.033046212047338486,0.05059298500418663,-0.2154221087694168,0.07806768268346786,-0.04859042912721634,0.042377933859825134,0.14080391824245453,0.1295769214630127,0.0035954886116087437,0.05171788111329079,-0.00018364844436291605,-0.08932799100875854,0.13084693253040314,-0.0013137185014784336,0.06451722979545593,-0.23348355293273926,-0.20257917046546936,-0.16938947141170502,-0.19220536947250366,-0.02702600508928299,0.021002398803830147,-0.1137932762503624,-0.19316069781780243,-0.05002632364630699,0.25287866592407227,0.014814925380051136,0.15853050351142883,-0.17434507608413696,-0.07461460679769516,0.184437096118927,0.2596845328807831,0.12973904609680176,0.02013116143643856,-0.21806113421916962,0.021223612129688263,-0.15762978792190552,-0.004423629958182573,0.1071036159992218,0.01863071322441101,-0.3591512143611908,-0.20083199441432953,-0.15949372947216034,-0.1459636390209198,-0.1284196823835373,0.009446468204259872,-0.5139467120170593,-0.2872013747692108,-0.20113922655582428,-0.19134177267551422,-0.023842735216021538,-0.15465283393859863,-0.33251166343688965,-0.17028763890266418,-0.22450314462184906,0.3642190396785736,0.19711047410964966,0.15665677189826965,-0.013399900868535042,0.04169430211186409,0.2073589265346527,-0.27919113636016846,-0.026015864685177803,0.03223922848701477,-0.10781156271696091,-0.0669223889708519,0.17844417691230774,-0.10365168750286102,0.08280737698078156,-0.034434180706739426,0.10271813720464706,-0.11256413161754608,0.09775818139314651,-0.06442751735448837,-0.13710053265094757,-0.10164067149162292,0.13690081238746643,-0.1474105566740036,-0.0362180694937706,0.1388465166091919,-0.07108665257692337,-0.0478707030415535,-0.13103647530078888,-0.0011858169455081224,0.03011077642440796,0.1519479602575302,0.015497924759984016,-0.18636490404605865,0.028658835217356682,0.10285359621047974,0.07459615916013718,-0.07367565482854843,0.00940901879221201,0.19673891365528107,0.07742459326982498,-0.01608828827738762,0.13162481784820557,0.0174062829464674,0.08723271638154984,0.07513999193906784,-0.0033669029362499714,-0.0972166508436203,0.09238886088132858,-0.06409159302711487,0.0627892017364502,-0.24769948422908783,-0.056765299290418625,-0.4822692275047302,-0.01781223528087139,0.12029339373111725,0.15155981481075287,-0.13842986524105072,0.0120294950902462,-0.07533828914165497,0.04111942648887634,0.11970854550600052,-0.03603905439376831,-0.09738142788410187,0.11548733711242676,-0.10960283130407333,0.04413384199142456,-0.05314299836754799,0.3132718503475189,0.15071645379066467,0.06791077554225922,0.004904945846647024,-0.12208311259746552,-0.06126340106129646,0.048138588666915894,0.17886343598365784,-0.0019066556124016643,-0.2236793339252472,-0.054599862545728683,-0.06768262386322021,0.20285490155220032,-0.0881335660815239,-0.14982618391513824,-0.2874554991722107,0.020581407472491264,0.20127148926258087,-0.47243058681488037,0.11964698135852814,0.08489557355642319,0.10615584254264832,-0.0722869411110878,-0.020975755527615547,-0.0028542869258672,0.04283164069056511,-0.023640168830752373,-0.06868002563714981,0.05775370076298714,-0.09368739277124405,0.22399936616420746,0.17511864006519318,-0.12624867260456085,-0.1839064061641693,-0.059968508780002594,-0.04753849282860756,0.09068705141544342,0.08238530158996582,0.08631563931703568,-0.17711962759494781,-0.17960898578166962,0.07514253258705139,0.04560597613453865,-0.13777975738048553,-0.07121095806360245,-0.09124656766653061,-0.07362258434295654,-0.10357138514518738,0.18384501338005066,0.01613849774003029,0.06594493985176086,0.15957419574260712,0.05269050970673561,-0.20288927853107452,0.06273018568754196,0.10223467648029327,0.1431376338005066,-0.17810481786727905,0.04972371086478233,0.11653052270412445,-0.0957876592874527,0.038548439741134644,0.144686758518219,-0.1599387675523758,-0.006070262286812067,0.06990296393632889,-0.04259834811091423,0.08644825965166092,0.13767573237419128,0.18906056880950928,-0.08389431983232498,0.10953810065984726,-0.14209869503974915,-0.10889798402786255,-0.03970516845583916,-0.09239810705184937,0.05123307183384895,0.04359794780611992,0.07630091160535812,0.12338793277740479,-0.2082943469285965,0.17162880301475525,-0.02471379190683365,0.10344484448432922,0.13914854824543,-0.16750468313694,-0.05133156478404999,0.18192435801029205,-0.15789933502674103,-0.1325960010290146,0.034498099237680435,0.09090255200862885,-0.042734842747449875,-0.1079409047961235,-0.2196536511182785,-0.13611961901187897,-0.07493016868829727,0.06892740726470947,0.09620954841375351,-0.2095445692539215,0.06386049836874008,0.03253272548317909,0.15544097125530243,0.26833590865135193,0.08386649936437607,0.08309687674045563,-0.10998158156871796,-0.0889974907040596,-0.16532133519649506,0.11141131818294525,0.10054056346416473,-0.07137984782457352,-0.14676931500434875,-0.10456147789955139,0.20234757661819458,0.0668988823890686,-0.20628909766674042,-0.4507172405719757,0.030460380017757416,0.07995481044054031,-0.05754249170422554,0.008851141668856144,0.016045017167925835,-0.057368870824575424,-0.248492032289505,0.1108863428235054,0.04454858601093292,0.11502660065889359,-0.1334882527589798,-0.3696601688861847,-0.22493331134319305,-0.04988902807235718,0.17148621380329132,0.11667351424694061,-0.00039509564521722496,-0.16892912983894348,0.005021943710744381,-0.05217510089278221,-0.020766431465744972,-0.002848687581717968,-0.049644600600004196,0.05905040353536606,0.016213851049542427,0.07932767271995544,0.15683601796627045,0.047298721969127655,0.11880962550640106,-0.061716724187135696,0.010386618785560131,0.005214350298047066,-0.04980189725756645,0.154056578874588,0.18891020119190216,0.0111082149669528,-0.07167328894138336,0.07168657332658768,0.01705525629222393,-0.0267396941781044,0.14427518844604492,-0.05154230445623398,0.05207626894116402,0.058938972651958466,-0.4389529228210449,-0.11328984797000885,0.24700894951820374,0.26365524530410767,0.1061951220035553,-0.020107891410589218,-0.07298669964075089,0.11570218950510025,-0.009025356732308865,-0.09145385771989822,-0.2515183985233307,-0.12698163092136383,0.02252374216914177,0.03513156995177269,0.002981854835525155,-0.09571345150470734,-0.2666666805744171,0.016655122861266136,0.20071379840373993,-0.03107113391160965,-0.04398376867175102,-0.08883504569530487,0.0347239151597023,0.05682580545544624,-0.030234353616833687,-0.10271366685628891,-0.08494091033935547,0.1438889503479004,-0.018787141889333725,0.21319659054279327,0.09417542815208435,0.23762895166873932,0.11388315260410309,-0.07037527859210968,0.11090965569019318,0.004795526620000601,0.02578100562095642,0.054222170263528824,-0.03776862844824791,-0.08320298790931702,-0.21075260639190674,0.11269037425518036,0.058203212916851044,0.09481802582740784,0.04652293026447296,0.004637644160538912,-0.014349473640322685,-0.1417509913444519,-0.015183462761342525,-0.2271900177001953,0.050667162984609604,0.29702967405319214,0.19256435334682465,-0.02435101754963398,0.10273981094360352,-0.09463341534137726,-0.08243931829929352,0.033855073153972626,-0.12784220278263092,-0.07270509749650955,-0.12654392421245575,-0.03304368257522583,-0.14702582359313965,-0.11451703310012817,0.21223309636116028,0.010374113917350769,-0.042136359959840775,-0.14299026131629944,-0.23227854073047638,-0.13013847172260284,0.13512426614761353,-0.12935425341129303,-0.1413705199956894,-0.08411196619272232,-0.10311491042375565,-0.24687345325946808,-0.21499308943748474,0.25314027070999146,0.03322054073214531,-0.11642316728830338,-0.008843687362968922,-0.017837390303611755,0.029334984719753265,0.23331308364868164,0.08061516284942627,0.03225010260939598,-0.03920740261673927,-0.15744690597057343,0.22572170197963715,0.20369432866573334,0.17345938086509705,-0.08161119371652603,-0.09583330154418945,-0.23589840531349182,-0.025860369205474854,-0.07543901354074478,-0.1700863093137741,0.1812465339899063,-0.23226960003376007,-0.10474923998117447,-0.16206899285316467,-0.15924635529518127,0.0012998508755117655,-0.10355938225984573,-0.020064925774931908,-0.1053917407989502,0.11106604337692261,0.13944165408611298,0.15963421761989594,0.07249768823385239,-0.0614861361682415,0.09698944538831711,-0.15569834411144257,-0.07693838328123093,-0.08265583962202072,-0.09437447786331177,0.13957169651985168,0.13598181307315826,0.09333281219005585,0.12331616133451462,0.0008360702777281404,-0.09139380604028702,0.20692604780197144,0.1764063537120819,0.03769124671816826,-0.1219206228852272,0.04169948399066925,0.07957468181848526,0.09104170650243759,0.01264562364667654,0.06686330586671829,-0.22504498064517975,-0.14613331854343414,0.14586138725280762,-0.001581469434313476,-0.10427496582269669,0.07647403329610825,-0.028004590421915054,0.0688641145825386,-0.06403063982725143,0.13442222774028778,-0.024485627189278603,-0.1336112916469574,-0.09708218276500702,-0.06194509193301201,0.029895640909671783,0.1910710334777832,0.19502614438533783,0.010775071568787098,0.014081872068345547,-0.07627831399440765,-0.1563415825366974,-0.003969419747591019,-0.010840378701686859,-0.06253378093242645,-0.09404962509870529,-0.09393707662820816,-0.015442822128534317,0.3930951952934265,0.34911438822746277,0.0934937372803688,-0.06364548951387405,-0.01772322691977024,0.0991760864853859,-0.05475548654794693,0.01641063578426838,-0.028877485543489456,-0.03700399398803711,0.16744358837604523,-0.018474923446774483,0.019110314548015594,-0.08570018410682678,-0.0605088546872139,-0.2665865421295166,-0.149759441614151,0.03667086735367775,0.027217255905270576,0.001974087441340089,0.16287477314472198,-0.06866703927516937,0.02292601391673088,0.11839625984430313,0.03455560654401779,0.25197669863700867,0.025417642667889595,-0.19217877089977264,-0.13492771983146667,0.020709576085209846,0.014487276785075665,0.10763861984014511,0.18732967972755432,0.23207220435142517,0.18918652832508087,0.03851922228932381,-0.4181663990020752,-0.14525271952152252,-0.10157599300146103,-0.11734859645366669,0.013179440051317215,0.052654679864645004,-0.13315969705581665,-0.07739253342151642,0.024872586131095886,-0.0638519749045372,-0.020535467192530632,-0.1419021487236023,0.2506646513938904,0.09753099828958511,-0.16786299645900726,-0.21106770634651184,-0.0793360248208046,-0.22051255404949188,0.07222598791122437,-0.05605294182896614,0.04374993219971657,-0.05831116437911987,0.048043787479400635,0.07894806563854218,-0.10375196486711502,-0.05466077849268913,-0.12411173433065414,-0.16596804559230804,0.09114287793636322,0.057820651680231094,-0.07463625818490982,0.21260587871074677,0.22606681287288666,-0.15695281326770782,0.06138185039162636,0.05572362616658211,0.10469349473714828,0.05056428164243698,0.16007642447948456,-0.15608496963977814,-0.14877893030643463,-0.034758131951093674,0.23906414210796356,-0.0036346439737826586,-0.03583473339676857,0.4577375054359436,0.07206742465496063,-0.12256958335638046,-0.05637991055846214,0.09906820207834244,0.17656411230564117,0.05751151964068413,-0.011015340685844421,0.11360297352075577,0.13974212110042572,-0.023371076211333275,-0.10841667652130127,-0.09640087187290192,-0.1239795908331871,0.04418303444981575,0.28918442130088806,0.20513811707496643,-0.030947618186473846,-0.048715971410274506,0.007232907228171825,-0.1910623461008072,0.012328969314694405,0.25149014592170715,0.044925253838300705,0.07232201844453812,0.04859907552599907,-0.010830298997461796,0.004093760158866644,0.012447708286345005,-0.15274302661418915,-0.17328093945980072,-0.030619068071246147,0.1138085275888443,-0.05820494890213013,-0.09789450466632843,0.162894606590271,0.07542175054550171,0.10468735545873642,0.15194767713546753,0.22142523527145386,-0.01768537051975727,-0.1278347671031952,-0.24828988313674927,0.005176136735826731,0.014416880905628204,0.03243150934576988,0.14577795565128326,-0.14159011840820312,0.0730818659067154,0.14420801401138306,-0.030491556972265244,-0.17723135650157928,-0.20868974924087524,0.04364177957177162,0.14715328812599182,0.025739913806319237,-0.04312160238623619,0.12838885188102722,0.08057742565870285,-0.24881917238235474,-0.171902596950531,-0.009155104868113995,0.19093255698680878,0.08079098910093307,0.17608752846717834,0.033858753740787506,-0.012891236692667007,0.00909585040062666,-0.0554264560341835,0.1618991494178772,0.12074808776378632,-0.01983710378408432,0.06226706877350807,0.017126712948083878,-0.056309379637241364,0.12629267573356628,-0.060156166553497314,-0.14257143437862396,-0.1423010230064392,-0.17526587843894958,0.09494684636592865,0.047841817140579224,-0.07357864826917648,0.014492682181298733,-0.2072894126176834,-0.10195548087358475,0.05097350478172302,0.05357413366436958,0.09268426895141602,0.1334538608789444,-0.12449368089437485,-0.02863617241382599,-0.1625009924173355,0.23596195876598358,0.19695791602134705,0.09347985684871674,0.2714892327785492,-0.09035032242536545,0.0014904849231243134,0.23892240226268768,-0.1326124370098114,0.05471077933907509,0.052163831889629364,0.04901409521698952,-0.06723374128341675,0.17383064329624176,-0.06656253337860107,0.012003827840089798,-0.02664506994187832,0.050922196358442307,-0.001091430545784533,-0.0006098821177147329,-0.1814388483762741,-0.11851860582828522,0.025849299505352974,0.16682583093643188,0.08534347265958786,0.19997303187847137,-0.1281059980392456,0.06243437901139259,-0.06968560814857483,-0.06698121130466461,-0.03514302149415016,0.005687815137207508,0.08055347949266434,0.13161227107048035,-0.16582871973514557,0.12234632670879364,0.0025865333154797554,0.022777119651436806,0.16747885942459106,0.16039212048053741,0.027060966938734055,0.01701918989419937,0.03262728825211525,0.10135653614997864,-0.08060156553983688,0.059341251850128174,0.004655774682760239,-0.11857202649116516,0.15595470368862152,0.06443760544061661,0.03671424090862274,-0.07339858263731003,0.047969091683626175,-0.15005242824554443,-0.2716479003429413,-0.05522437393665314,0.07422279566526413,0.07143514603376389,0.11143376678228378,0.14822453260421753,-0.0468374565243721,0.11858823150396347,-0.07744749635457993,-0.18044604361057281,-0.10429485142230988,-0.11281401664018631,0.09634218364953995,-0.310687780380249,-0.09679795801639557,-0.10329662263393402,-0.09218338876962662,0.11705435067415237,-0.002195748733356595,-0.201543927192688,0.07194019854068756,0.015980422496795654,-0.037109196186065674,-0.03924962505698204,-0.04945182055234909,-0.043214064091444016,0.13553473353385925,0.02972562238574028,0.3552999794483185,-0.02558642253279686,-0.045940548181533813,0.15593110024929047,0.10867908596992493,0.0817963182926178,0.14434346556663513,0.024223990738391876,-0.06255809217691422,-0.02885042130947113,-0.11207952350378036,-0.10359646379947662,0.041758209466934204,-0.08599048107862473,0.11453321576118469,-0.15142962336540222,0.060239631682634354,0.049989115446805954,-0.08230086416006088,0.0363268107175827,-0.06704605370759964,0.1305195391178131,0.1270936131477356,-0.06686676293611526,-0.05207432433962822,-0.015113500878214836,-0.049107179045677185,-0.25518926978111267,0.01750345341861248,-0.08364155143499374,0.21729588508605957,-0.05674523115158081,-0.026628348976373672,-0.12807349860668182,0.19465316832065582,-0.12541460990905762,0.060895439237356186,0.038734667003154755,0.12168089300394058,0.04242883250117302,0.13037653267383575,0.07215765863656998,0.0815618485212326,0.09242693334817886,-0.11516466736793518,-0.019365785643458366,0.042569272220134735,0.04621473327279091,-0.07953207939863205,-0.22100910544395447,0.003218994941562414,0.08202800154685974,0.049023330211639404,-0.19904039800167084,0.00696491077542305,-0.1842467486858368,-0.1286635547876358,-0.10859154164791107,-0.008779033087193966,-0.03047049045562744,-0.11522343754768372,0.08483678847551346,0.15211068093776703,0.062072403728961945,0.1618405431509018,-0.11092983186244965,-0.05646398663520813,0.10018572211265564,-0.015550208278000355,-0.0629771500825882,-0.1256597340106964,0.028384387493133545,0.05664825811982155,0.10941008478403091,-0.0841253474354744,-0.006830269005149603,-0.0007757770945318043,0.06125272437930107,-0.04609999433159828,0.0871439278125763,0.11921898275613785,0.09018660336732864,0.04983730986714363,0.01268741674721241,0.11848945170640945,-0.058580946177244186,0.1325678676366806,0.156781867146492,0.17099688947200775,-0.08044067025184631,-0.06893973052501678,0.042291779071092606,0.10038617998361588,0.12035394459962845,0.07141780853271484,0.0827176421880722,-0.05722229182720184,-0.16164931654930115,-0.004867039155215025,0.2333432286977768,0.10209814459085464,0.268881231546402,-0.05722292140126228,-0.42816486954689026,0.0006600440829060972,0.16035756468772888,-0.03891843929886818,-0.7304449081420898,-0.09068617969751358,-0.25315606594085693,-0.03613169118762016,-0.28954362869262695,-0.005154609214514494,0.8485660552978516,-0.06543466448783875,-0.9018664956092834,0.06312470138072968,-0.6726028919219971,0.11051632463932037,-0.966586709022522,-0.026791507378220558,0.2535146474838257,0.06941564381122589,-0.7488213181495667,-0.06365281343460083,0.3659699857234955,0.04778830334544182,-0.7036086320877075,-0.050040263682603836,-0.22505204379558563,-0.2495185285806656,0.16264976561069489,0.3131706714630127,0.30724719166755676,-0.029052307829260826,-0.23395206034183502,-0.12822003662586212,-0.036082226783037186,-0.014591253362596035,0.07605022192001343,0.05858139321208,0.16314636170864105,-0.020806238055229187,-0.10082576423883438,-0.004937860649079084,-0.029964648187160492,-0.0863373726606369,-0.0050154863856732845,-3.0220671760616824e-05,-0.27895528078079224,0.34699904918670654,-0.03923812881112099,-0.2740691602230072,0.32332125306129456,-0.08804967999458313,0.0741138681769371,0.19440297782421112,0.015279851853847504,0.10504311323165894,0.12537232041358948,0.18583384156227112,-0.14315296709537506,-0.12143430858850479,0.04675827920436859,0.23843613266944885,-0.03544927388429642,0.4090314507484436,0.058514293283224106,0.020466340705752373,0.18002860248088837,-0.08116465061903,-0.2672489881515503,-0.24460384249687195,0.045621272176504135,0.227029487490654,0.16282841563224792,-0.036018989980220795,0.10475576668977737,0.12429159134626389,-0.24912483990192413,-0.1517677903175354,-0.21824152767658234,-0.036749303340911865,-0.12572334706783295,-0.09967267513275146,-0.14228060841560364,0.11256203800439835,0.08665978908538818,0.2534020245075226,0.23756931722164154,-0.10947594791650772,0.05313984677195549,-0.009350703097879887,0.2559058964252472,-0.14383015036582947,-0.013241223990917206,-0.03173817694187164,0.13104760646820068,0.09971156716346741,-0.10637038946151733,0.23424290120601654,0.3046148717403412,-0.035311441868543625,-0.16625389456748962,0.3084060549736023,-0.15430985391139984,0.08966255933046341,-0.30268222093582153,-0.09312427788972855,-0.11683806031942368,-0.03699689731001854,-0.4107005298137665,-0.34381741285324097,0.16043764352798462,-0.37369295954704285,-0.19093866646289825,-0.037752244621515274,0.029296547174453735,0.3955910801887512,-0.024218672886490822,0.07760690897703171,-0.24316640198230743,-0.14352840185165405,0.013835535384714603,0.19843629002571106,0.017598703503608704,-0.16038015484809875,0.11342253535985947,-0.2093013972043991,0.1089450791478157,0.10904157906770706,-0.15985338389873505,-0.2064855396747589,0.12854252755641937,-0.15254439413547516,-0.1724720150232315,0.03980643302202225,0.0942177101969719,-0.19886673986911774,0.11516068130731583,0.1608092188835144,0.17781254649162292,0.09711414575576782,-0.04270246997475624,-0.02703011780977249,0.15121515095233917,-0.0714508518576622,-0.10363749414682388,0.08985068649053574,-0.011015461757779121,0.22967082262039185,-0.1649196296930313,0.06379657238721848,-0.17398926615715027,0.05545661598443985,0.08973032236099243,0.10611280053853989,-0.031687088310718536,0.14858326315879822,-0.13541533052921295,-0.11920133233070374,-0.23997148871421814,-0.1525798738002777,0.1371919810771942,-0.1354862004518509,-0.0881577581167221,-0.027452217414975166,0.16162259876728058,-0.2545226514339447,-0.08507360517978668,0.09450706094503403,0.06315647810697556,0.12956146895885468,-0.17128810286521912,-0.04014400765299797,-0.14319463074207306,0.021852683275938034,0.14002369344234467,-0.15834826231002808,0.030343038961291313,-0.07292762398719788,-0.11300453543663025,0.054981473833322525,0.17540863156318665,0.21706484258174896,0.20002254843711853,-0.08357001841068268,0.3035750091075897,-0.044934917241334915,-0.1799164116382599,-0.13084280490875244,-0.10374876111745834,0.16913755238056183,0.08087785542011261,-0.17887382209300995,0.06713876873254776,-0.022646615281701088,0.16482199728488922,0.1532602161169052,-0.21749286353588104,-0.009847103618085384,0.1252969354391098,-0.04058069735765457,0.09248266369104385,0.011728680692613125,0.08123645931482315,0.293504923582077,-0.23639242351055145,0.0009244741522707045,-0.2407013177871704,-0.0471733994781971,0.12813781201839447,0.14789056777954102,-0.25477850437164307,0.16944395005702972,0.25213199853897095,-0.0991981104016304,0.02554570510983467,-0.007470880635082722,0.050301942974328995,-0.19802872836589813,-0.03051013872027397,-0.17894260585308075,-0.23460164666175842,0.20558743178844452,-0.023302514106035233,-0.07196424901485443,-0.03322295844554901,0.17105765640735626,-0.2212674915790558,-0.2590517997741699,-0.24464811384677887,-0.31747257709503174,0.19028857350349426,-0.2776878774166107,0.0931018590927124,-0.16892117261886597,0.03422080725431442,0.0921410471200943,-0.22079111635684967,0.21939565241336823,-0.2595272660255432,-0.10865644365549088,0.008174602873623371,-0.13694095611572266,0.1198691576719284,0.1659129112958908,0.05356728658080101,-0.08518414199352264,0.2151428908109665,0.08249133080244064,0.14272497594356537,-0.14529399573802948,0.23299150168895721,0.17780400812625885,0.0880371481180191,-0.013768226839601994,-0.20179346203804016,0.07966499775648117,0.2133459895849228,0.13233153522014618,0.03834889456629753,0.14195115864276886,-0.21734172105789185,0.1704666018486023,-0.25739267468452454,0.3447083532810211,-0.10673777014017105,0.18681640923023224,0.16922308504581451,-0.058990221470594406,-0.1302402913570404,0.06899444013834,-0.33104589581489563,0.27601492404937744,-0.19602122902870178,0.08106500655412674,0.06644386053085327,-0.21002212166786194,0.2137630581855774,0.08315910398960114,-0.14948977530002594,0.34026384353637695,-0.24865999817848206,-0.18416643142700195,-0.1470526158809662,-0.034798622131347656,0.08043888956308365,-0.10019923001527786,-0.17485564947128296,0.01977631263434887,0.17094890773296356,0.21359892189502716,0.06854656338691711,-0.008559727109968662,0.02615315467119217,-0.24739043414592743,0.05800626426935196,-0.24833546578884125,-0.06595969200134277,-0.021789947524666786,-0.024978308007121086,-0.1254873275756836,-0.08304521441459656,-0.014995135366916656,-0.16476628184318542,-0.050034910440444946,-0.02905631624162197,0.04968573898077011,-0.026873406022787094,0.08374924212694168,-0.09468665719032288,-0.10720869153738022,0.18235738575458527,0.05166840925812721,-0.04821193218231201,0.16700097918510437,-0.08317164331674576,0.008642848581075668,-0.0682695060968399,-0.05856684595346451,0.039285801351070404,0.03483844920992851,0.09227883815765381,-0.05822676420211792,-0.1342816799879074,0.0905362144112587,-0.06273948401212692,0.006788787432014942,-0.11986171454191208,-0.01042238064110279,-0.13943783938884735,-0.02373291365802288,-0.09953434020280838,-0.11213720589876175,0.06499141454696655,-0.055042024701833725,0.025051068514585495,0.03128160908818245,0.07339872419834137,-0.12048178166151047,0.06706129014492035,-0.11484436690807343,0.25600317120552063,0.3129929304122925,-0.6052637100219727,0.1263941526412964,-0.06074296683073044,-0.09914292395114899,0.10354242473840714,-0.03127286955714226,0.06327613443136215,-0.16466552019119263,0.11189921200275421,-0.07667692750692368,0.1743258386850357,0.028976742178201675,0.11074633151292801,-0.07730656862258911,-0.027455899864435196,-0.09757044911384583,0.0568724200129509,-0.06555669754743576,-0.02360609732568264,-0.16277876496315002,0.08048802614212036,-0.06119177117943764,0.1708623766899109,-0.04586037993431091,0.26218968629837036,-0.04498140513896942,-0.12064898759126663,-0.044159505516290665,0.02803046815097332,0.038200702518224716,-0.1509096473455429,0.11137858778238297,0.12678766250610352,0.13688603043556213,0.14543607831001282,0.1413298398256302,0.063834547996521,-0.10226860642433167,-0.0830962061882019,-0.2032557725906372,-0.1468573957681656,0.12221203744411469,0.04647650942206383,-0.07993549853563309,0.023612454533576965,-0.03840533643960953,-0.08992549777030945,0.12035468965768814,0.15627512335777283,0.14860840141773224,-0.14658650755882263,-0.0036208718083798885,0.06450670957565308,-0.013602755963802338,-0.018069950863718987,0.11629263311624527,-0.0907178446650505,-0.12935712933540344,0.2095484435558319,-0.1619950234889984,-0.04730739817023277,-0.1453060805797577,-0.024514051154255867,0.12277637422084808,-0.01369673665612936,-0.04217294603586197,0.08829695731401443,-0.07167982310056686,0.30420631170272827,0.04058895260095596,-0.03760970011353493,0.07771500945091248,-0.024364590644836426,-0.06936070322990417,0.19697625935077667,0.0638149157166481,0.008469343185424805,-0.1617204248905182,-0.029827939346432686,0.040537454187870026,0.2949375510215759,0.07731694728136063,-0.14288422465324402,-0.029758930206298828,-0.11359123885631561,-0.027076764032244682,-0.08866394311189651,0.1149706244468689,0.15905776619911194,-0.08677172660827637,0.08267812430858612,-0.0443887934088707,-0.163950577378273,0.02520979940891266,0.11404828727245331,-0.2761897146701813,-0.15903691947460175,-0.1611298769712448,-0.06528276950120926,0.25685742497444153,-0.006708730943500996,-0.20401500165462494,0.10083764791488647,-0.042867615818977356,0.14749614894390106,0.0202513225376606,-0.012403618544340134,-0.034878235310316086,-0.06417232751846313,0.08959487080574036,0.0607743114233017,-0.10860463976860046,-0.0069192321971058846,-0.08500241488218307,-0.04475006088614464,-0.022530723363161087,0.3097364604473114,0.15094776451587677,0.20504629611968994,0.034098073840141296,-0.11618632078170776,-0.035987239331007004,0.042617931962013245,0.09997829049825668,0.05585746467113495,0.07805280387401581,0.08524748682975769,0.026539726182818413,0.09450125694274902,-0.16539396345615387,0.0727122500538826,0.05991039797663689,0.03556050732731819,0.05012061819434166,-0.06901329010725021,-0.09340928494930267,0.062347713857889175,0.04477044939994812,-0.14758291840553284,0.2320021539926529,0.04770119860768318,0.13795335590839386,-0.1912553310394287,-0.2918824851512909,0.46625739336013794,0.0019306809408590198,-0.02801329270005226,0.15573172271251678,0.05162876471877098,-0.19594734907150269,0.09491506218910217,0.01347566582262516,0.13725118339061737,0.11076004803180695,-0.1366201937198639,0.29877471923828125,0.0638628751039505,0.023116907104849815,0.20643801987171173,-0.11882810294628143,-0.08406905829906464,0.009409292601048946,-0.04282765835523605,0.20390428602695465,-0.05227194353938103,-0.0075606778264045715,-0.0878741592168808,-0.13175156712532043,0.08560810983181,-0.06773976981639862,-0.2012145221233368,0.018276389688253403,0.03369517996907234,0.010849217884242535,0.11163417994976044,0.24821224808692932,-0.1555558294057846,-0.038697224110364914,-0.0639316514134407,0.04427018389105797,0.11419130861759186,-0.0712726041674614,0.21704311668872833,-0.17450176179409027,-0.07591204345226288,0.2135949730873108,-0.09425180405378342,-0.010575084015727043,0.025442199781537056,0.14514866471290588,-0.0884498804807663,0.13046479225158691,0.1050199493765831,0.09960069507360458,-0.17693421244621277,-0.2643255889415741,-0.050102826207876205,-0.2892311215400696,-0.07234708219766617,0.12405912578105927,0.06525466591119766,0.08129551261663437,0.00828807894140482,-0.17224805057048798,-0.043249260634183884,-0.03333529829978943,0.004442052450031042,0.13877935707569122,0.13005344569683075,0.04451797902584076,0.13796424865722656,-0.2572895586490631,0.12914104759693146,0.15759578347206116,-0.16230830550193787,0.05203451216220856,-0.027885528281331062,-0.1692752242088318,-0.23080718517303467,0.01049814559519291,0.03621266037225723,0.028507286682724953,-0.14057953655719757,-0.17799587547779083,-0.06312774866819382,-0.05515047535300255,-0.0021482992451637983,0.041262708604335785,0.02096889354288578,-0.012541328556835651,0.1869795322418213,0.034730251878499985,0.28361332416534424,0.02789085917174816,-0.1417398303747177,-0.011210320517420769,0.11040539294481277,0.05892261490225792,0.27377092838287354,0.22183409333229065,-0.0651269480586052,0.1831633299589157,-0.11720830202102661,-0.15243570506572723,-0.1893531084060669,-0.10396460443735123,0.050806619226932526,0.016233887523412704,-0.22807534039020538,-0.02558216266334057,0.22518740594387054,-0.03984018787741661,-0.04620160162448883,-0.0998615249991417,0.07749606668949127,0.051218319684267044,-0.018523015081882477,0.009368848986923695,0.04035795480012894,-0.3492925763130188,0.0537630133330822,-0.15712052583694458,0.0022935785818845034,0.006811713799834251,-0.07141996175050735,0.1463252156972885,0.15770864486694336,-0.14722834527492523,-0.157825767993927,-0.1016152873635292,0.1412670612335205,-0.15385660529136658,0.09508654475212097,-0.1251750886440277,-0.1819441318511963,-0.015267090871930122,-0.08322656899690628,-0.04215559363365173,-0.06270352751016617,0.07916682958602905,-0.04144233837723732,-0.028302114456892014,0.059321653097867966,-0.022698555141687393,-0.2047124207019806,0.028818894177675247,-0.14404945075511932,0.14912593364715576,0.013905828818678856,0.1935603767633438,-0.2188192456960678,0.0008395765325985849,0.259875625371933,0.10834408551454544,-0.08136799186468124,0.08189018070697784,0.10749828815460205,0.05035704746842384,-0.20101404190063477,0.010523691773414612,-0.12301775068044662,0.014502409845590591,0.13336901366710663,0.1357172131538391,-0.08317633718252182,0.03808678314089775,-0.005569708067923784,0.23264050483703613,0.23840655386447906,0.11583548784255981,-0.1844654679298401,-0.09166219085454941,-0.029977310448884964,-0.12751854956150055,-0.006148676387965679,-0.02776024118065834,-0.02952042780816555,0.07794088125228882,-0.15506093204021454,-0.021352939307689667,0.11987147480249405,-0.08102022856473923,0.12635807693004608,-0.08569279313087463,-0.04045907035470009,0.09902448952198029,0.13274791836738586,-0.07362645119428635,-0.0364210419356823,-0.01136077381670475,0.06163180619478226,-0.09222643077373505,0.01663537137210369,0.00944963376969099,-0.13564957678318024,-0.050907593220472336,-0.04959025979042053,-0.05942931026220322,0.07865781337022781,0.03325915336608887,-0.16349072754383087,0.0005201689782552421,0.04526185989379883,0.17097796499729156,-0.005937877111136913,0.07325202226638794,-0.010572733357548714,0.25704115629196167,-0.08207757025957108,0.12602421641349792,0.1862165927886963,0.14358891546726227,-0.16870439052581787,-0.10069115459918976,-0.02165864035487175,0.17521105706691742,-0.30509689450263977,-0.0896686390042305,0.09166180342435837,-0.032175738364458084,0.00804623682051897,-0.001609581639058888,-0.20170654356479645,-0.03141813352704048,0.2202967405319214,0.010106136091053486,0.12343424558639526,-0.15903788805007935,-0.00687019806355238,-0.06795384734869003,0.10307978093624115,0.1515539437532425,-0.07768254727125168,0.12501837313175201,0.12863707542419434,-0.007735152263194323,-0.15532049536705017,0.17247776687145233,-0.12117505818605423,0.154504656791687,0.1652742326259613,0.14397010207176208,0.2132633477449417,0.18878431618213654,-0.0710853785276413,-0.020556237548589706,0.06138697266578674,-0.13534608483314514,-0.2633560001850128,-0.1094784364104271,-0.2091166228055954,0.055515531450510025,0.1135556772351265,0.06709226965904236,0.025421183556318283,0.06529568135738373,0.10585074126720428,-0.08899970352649689,-0.09763654321432114,-0.16042697429656982,-0.0401010662317276,-0.016748039051890373,-0.01936735026538372,-0.031489595770835876,-0.14199697971343994,-0.03643046319484711,-0.09384128451347351,0.0648309513926506,-0.07754654437303543,0.061310820281505585,-0.1099533885717392,-0.06769514828920364,-0.031104300171136856,-0.15173938870429993,0.0933038741350174,0.09466362744569778,-0.1524006575345993,0.02842378057539463,0.028059393167495728,0.003663769457489252,-0.05133619159460068,-0.14792834222316742,0.03782086819410324,-0.1461419314146042,-0.01875404454767704,-0.043780215084552765,0.03064737655222416,-0.07323600351810455,-0.13364006578922272,0.0034899478778243065,-0.15125489234924316,0.03444933146238327,-0.4767568111419678,0.031978413462638855,0.019247673451900482,-0.21473069489002228,-0.20649857819080353,-0.04677264764904976,0.056895554065704346,-0.18284288048744202,-0.047057151794433594,0.2222995012998581,-0.034797295928001404,0.07321465015411377,0.1850825846195221,-0.02224920503795147,0.017844602465629578,0.1654037982225418,0.13667833805084229,-0.1051863580942154,0.05534939467906952,-0.0021650404669344425,-0.042775947600603104,0.06436709314584732,0.08128456771373749,0.09244974702596664,-0.08357218652963638,0.14087291061878204,0.1364099383354187,-0.11446449160575867,-0.06484228372573853,0.05654420703649521,0.0645870640873909,-0.03400283306837082,-0.0985354483127594,-0.09592389315366745,-0.05547328665852547,-0.08180240541696548,0.16128629446029663,0.08339547365903854,-0.05262346193194389,0.1778656244277954,0.21939875185489655,0.020188799127936363,0.039989106357097626,0.05999816954135895,-0.20911826193332672,0.024336354807019234,-0.0427112840116024,-0.008826185949146748,-0.2456851303577423,0.013292448595166206,-0.3032270073890686,-0.297078937292099,0.1276898831129074,0.021593213081359863,0.1103835180401802,0.08975515514612198,-0.1287553310394287,-0.0008740570629015565,0.20057840645313263,0.06517530977725983,0.10190228372812271,-0.1064739003777504,-0.009769991040229797,0.011038524098694324,0.0468224473297596,0.026960305869579315,0.04840514436364174,-0.26194846630096436,-0.07162901014089584,-0.16727103292942047,0.06699426472187042,0.18456178903579712,0.2130577117204666,0.03633064404129982,-0.01625215634703636,-0.08458723872900009,-0.08255606144666672,-0.010770884342491627,-0.15431149303913116,-0.1838323026895523,-0.018608903512358665,-0.053796496242284775,0.07054496556520462,-0.06111728772521019,-0.05865572392940521,0.07610951364040375,-0.15870612859725952,0.024999095126986504,0.07840020954608917,0.11415978521108627,-0.07112252712249756,0.019157491624355316,-0.20838163793087006,0.051857542246580124,-0.027907488867640495,0.007377097848802805,0.3014841675758362,-0.02150292694568634,-0.2584708631038666,0.04052143171429634,-0.03893497586250305,0.06546609848737717,0.17684653401374817,0.18011491000652313,0.022291304543614388,-0.12540116906166077,0.06113380566239357,-0.2054479569196701,0.03762165084481239,-0.032169073820114136,-0.05168939754366875,-0.054122645407915115,0.023841241374611855,0.05820326879620552,0.018844304606318474,-0.11144641786813736,0.19030609726905823,-0.031159181147813797,-0.04130353778600693,0.24548961222171783,0.007277174387127161,0.02124970220029354,-0.06194312870502472,0.006130206398665905,0.13810433447360992,-0.11342482268810272,0.10094191879034042,-0.15663929283618927,0.14470753073692322,-0.010933024808764458,0.20309676229953766,0.22407416999340057,0.07270585745573044,0.02455432154238224,-0.14808212220668793,0.09051323682069778,0.03309667110443115,0.01053391583263874,-0.08936188369989395,0.17263861000537872,0.08283352106809616,0.08314651995897293,-0.1485215127468109,-0.17578086256980896,-0.015282649546861649,0.06112895533442497,-0.1631718873977661,0.20058082044124603,-0.05461793765425682,0.1207326278090477,-0.03170614689588547,0.09406972676515579,-0.16649341583251953,-0.06408433616161346,0.10345298051834106,-0.20549999177455902,-0.06671369820833206,-0.16635668277740479,-0.08855272084474564,0.13182762265205383,-0.1529180258512497,0.0794304758310318,0.08911633491516113,-0.056000132113695145,0.3427044749259949,-0.14835907518863678,0.07888934016227722,0.1364210695028305,0.052953820675611496,0.08854039013385773,0.13413134217262268,-0.04359752684831619,-0.010274560190737247,-0.035727545619010925,-0.00886693224310875,0.024397484958171844,0.22027601301670074,0.13231493532657623,-0.012608448974788189,0.007613950874656439,-0.09333784878253937,-0.07372219115495682,-0.11667788773775101,0.04681377485394478,-0.046931929886341095,0.10938793420791626,-0.06463096290826797,0.031233027577400208,0.0038520218804478645,-0.0807664692401886,-0.2452726513147354,-0.24210293591022491,0.029834944754838943,-0.0942775085568428,-0.16549590229988098,0.0797332376241684,0.13312512636184692,0.059568293392658234,0.15703631937503815,-0.1441173106431961,0.011714128777384758,0.1694156527519226,0.01752290688455105,-0.2355305552482605,0.17035523056983948,-0.15632255375385284,-0.09080696851015091,0.02922731824219227,-0.0109145762398839,0.005552265793085098,-0.11514294892549515,0.154434472322464,0.24969054758548737,-0.27822694182395935,-0.06543275713920593,0.07346870750188828,-0.14322206377983093,0.11244326084852219,0.003733384422957897,-0.03456081822514534,-0.08447472006082535,-0.15079456567764282,0.06265394389629364,0.17270663380622864,0.19444747269153595,0.09000740945339203,-0.12899622321128845,-0.018138499930500984,0.06924063712358475,-0.034524235874414444,0.04336344078183174,-0.11609235405921936,-0.16726768016815186,0.031181566417217255,-0.038957249373197556,-0.2976169288158417,-0.12586544454097748,0.11991798132658005,-0.01944638043642044,-0.11737575381994247,-0.025230394676327705,0.0642533153295517,0.10420861095190048,-0.07268857955932617,-0.11098143458366394,0.001410258817486465,0.06016455963253975,-0.058771468698978424,0.0368146151304245,0.11872552335262299,-0.11331994831562042,0.1360260248184204,0.19326519966125488,-0.16312386095523834,0.10214722156524658,0.06005140766501427,-0.0837210863828659,-0.02362699620425701,-0.03581772372126579,0.17868518829345703,-0.007310041226446629,-0.022621149197220802,0.11562321335077286,0.08748903125524521,0.13872505724430084,0.08776295930147171,0.0010840764734894037,0.1140935868024826,0.034598156809806824,0.1238577663898468,0.03467963635921478,-0.07345866411924362,-0.09028618037700653,-0.07683386653661728,-0.03967883810400963,-0.021372051909565926,0.12898391485214233,-0.19009444117546082,0.17239922285079956,-0.0016162364045158029,-0.10913639515638351,0.2742406129837036,-0.1628212034702301,-0.03646695613861084,0.20371375977993011,-0.04554662108421326,0.1691758930683136,0.10634911060333252,-0.05517866089940071,-0.005097373388707638,-0.11470285803079605,-0.013431042432785034,0.08827868849039078,0.0433245413005352,0.0016431326512247324,-0.1161978617310524,0.08609206229448318,-0.12458589673042297,-0.009861765429377556,-0.15852534770965576,0.1478978544473648,0.10761214047670364,0.08208432048559189,0.05420341715216637,-0.08214066177606583,0.06536158174276352,-0.048040032386779785,0.1133694052696228,-0.17410966753959656,-0.049584511667490005,-0.5956006646156311,-0.0031705633737146854,0.854356050491333,-0.026223989203572273,0.23891200125217438,0.07258248329162598,-0.4213579595088959,-0.0116276191547513,0.12530480325222015,-0.002760952338576317,-0.19548563659191132,-0.06793613731861115,-0.04560168460011482,0.12106072902679443,0.6456268429756165,0.04206305369734764,-0.6905916333198547,-0.05251172557473183,0.8512519598007202,0.012902911752462387,0.5608004331588745,-0.0392899215221405,-0.022681185975670815,0.008717568591237068,-0.3672800660133362,0.023328173905611038,0.24214515089988708,-0.05817659571766853,-0.6678701639175415,0.07432540506124496,0.2967376708984375,-0.11051605641841888,-0.045052189379930496,-0.27243712544441223,0.16189411282539368,0.26004156470298767,0.11838087439537048,0.0969311073422432,0.25677424669265747,0.1516805738210678,0.1285153180360794,0.0713174045085907,-0.33391767740249634,-0.043744705617427826,-0.09230459481477737,-0.08050893992185593,0.1567724347114563,0.15811534225940704,0.12052302062511444,0.14134317636489868,0.10196614265441895,0.1428818702697754,0.11735419183969498,-0.20040851831436157,-0.2846151292324066,0.14402183890342712,0.030326562002301216,-0.047503989189863205,0.21871799230575562,0.26310837268829346,0.11717937141656876,-0.015351374633610249,0.1317136436700821,-0.1226116269826889,0.11612148582935333,-0.2315908670425415,0.18172630667686462,-0.12057248502969742,-0.008068736642599106,-0.21362026035785675,-0.029700351879000664,0.052674129605293274,-0.23025472462177277,0.20566077530384064,0.10483089834451675,-0.23294787108898163,-0.0756470188498497,0.060001522302627563,0.19865621626377106,-0.05299925431609154,0.09540726989507675,0.053210899233818054,-0.06696392595767975,0.13673876225948334,-0.2338753193616867,0.25199559330940247,0.22183215618133545,-0.0740608349442482,0.09665482491254807,0.13693636655807495,0.123884417116642,0.0946933701634407,0.05719069764018059,-0.03828634321689606,0.030632013455033302,-0.09839143604040146,0.27521073818206787,-0.195816770195961,0.05809108912944794,-0.11730343103408813,0.14431162178516388,-0.06206255406141281,0.06859190762042999,-0.07201754301786423,-0.13854362070560455,0.12273251265287399,-0.06949544697999954,-0.20825344324111938,0.03986530378460884,-0.1889272779226303,-0.12922675907611847,0.13245722651481628,-0.009887962602078915,-0.17058046162128448,-0.03255366533994675,-0.11671370267868042,0.29709821939468384,-0.020417122170329094,-0.04876961559057236,-0.04147300496697426,0.20969533920288086,0.21719548106193542,-0.029686562716960907,0.15804170072078705,0.2552526593208313,0.05373428389430046,0.10628202557563782,0.09846846014261246,-0.15437769889831543,0.10972470790147781,0.24308964610099792,-0.03678387030959129,0.008371943607926369,-0.051616184413433075,-0.1446564793586731,0.17568153142929077,0.19355612993240356,-0.06855213642120361,0.05175480991601944,0.06429172307252884,0.15056386590003967,0.09661904722452164,0.19166947901248932,0.13646386563777924,-0.197557270526886,-0.210308238863945,0.08782912790775299,-0.10997012257575989,0.08095971494913101,-0.11383788287639618,0.0823606625199318,0.0825086459517479,0.14384767413139343,0.27794885635375977,-0.048681486397981644,0.12669630348682404,0.06179359555244446,-0.10038523375988007,-0.12217209488153458,0.29068753123283386,-0.11288047581911087,0.24882479012012482,0.16311730444431305,-0.028982017189264297,-0.15438900887966156,0.07189840078353882,-0.12147939950227737,0.1129409670829773,-0.1307138353586197,0.1498100459575653,-0.24353891611099243,-0.004606518894433975,0.1341707706451416,0.053625594824552536,0.2961181402206421,-0.06963641196489334,-0.4065266251564026,-0.0859929546713829,0.22136855125427246,0.12590204179286957,-0.004592259880155325,-0.144948348402977,0.05234452337026596,0.2607789933681488,0.2264430671930313,-0.16563557088375092,-0.2617233097553253,-0.026060108095407486,0.3244737982749939,0.023644493892788887,0.2723345458507538,-0.14129208028316498,-0.13392716646194458,-0.07857339829206467,0.20059330761432648,-0.09321819990873337,0.022050021216273308,-0.006153829395771027,0.30587145686149597,0.009405359625816345,-0.27982157468795776,0.04688844457268715,0.03301509842276573,-0.2570265531539917,0.03185248747467995,0.2422233670949936,0.03808383643627167,-0.044561464339494705,-0.07434792071580887,0.10263533145189285,-0.10484936088323593,0.23562966287136078,0.2682259976863861,0.1268174946308136,-0.13759535551071167,-0.22977712750434875,-0.14203473925590515,0.26239559054374695,-0.1324681043624878,-0.22463488578796387,-0.03122131898999214,0.17473676800727844,-0.23232470452785492,-0.36189016699790955,0.07023008912801743,-0.051617417484521866,0.06043428182601929,0.12568718194961548,-0.1260475069284439,-0.19391579926013947,0.16569896042346954,-0.06627602875232697,-0.08444541692733765,0.17558035254478455,-0.03335050493478775,0.10873952507972717,0.11592933535575867,-0.19541844725608826,-0.21427257359027863,0.046608682721853256,-0.20561212301254272,0.14932399988174438,0.07536577433347702,-0.0796433687210083,0.03811497613787651,-0.0822032243013382,0.1603037714958191,0.011739859357476234,0.10928338766098022,-0.30873072147369385,0.08701383322477341,0.09933365136384964,-0.1621393859386444,0.09247013926506042,0.1625480204820633,0.24597035348415375,0.10926048457622528,-0.263713538646698,-0.20182350277900696,-0.11736807227134705,0.1437520980834961,-0.33823955059051514,0.049241576343774796,0.20995615422725677,0.1439451426267624,0.2875424027442932,-0.07826042175292969,0.113490030169487,0.017640192061662674,-0.30900388956069946,-0.0063318838365375996,0.10621141642332077,-0.08219760656356812,-0.3818705976009369,-0.09546492248773575,-0.1132725179195404,-0.06387176364660263,-0.293598473072052,0.16502122581005096,0.2907150685787201,0.22852033376693726,0.2387244999408722,-0.2696624994277954,0.046924810856580734,-0.17084607481956482,0.08350782096385956,0.051971305161714554,-0.008912168443202972,0.18160833418369293,0.08909154683351517,-0.14225731790065765,0.26085761189460754,0.15697729587554932,0.10136333107948303,-0.23140905797481537,-0.17931315302848816,0.0516902320086956,0.014114366844296455,0.17940841615200043,0.13540664315223694,0.12868355214595795,0.08719612658023834,0.06615955382585526,0.03488771244883537,0.08645836263895035,-0.09892672300338745,-0.07573983073234558,-0.03272746875882149,0.02734222635626793,0.06077897921204567,-0.037169814109802246,-0.07006637752056122,0.07191024720668793,0.06973404437303543,-0.005662789102643728,-0.20170393586158752,-0.14999450743198395,0.1653192788362503,0.03584406524896622,0.1072530746459961,0.12085545063018799,-0.01667797565460205,-0.01696997880935669,-0.09494813531637192,0.07266619801521301,0.14871975779533386,-0.0844438448548317,-0.09506511688232422,-0.22035910189151764,-0.07759969681501389,0.032323479652404785,-0.01912284642457962,-0.13174928724765778,-0.016388097777962685,0.10688526928424835,0.07839392870664597,0.008907500654459,-0.2465130239725113,-0.21122345328330994,-0.020500903949141502,-0.15578792989253998,0.006655169650912285,0.028029244393110275,-0.15299369394779205,-0.1700146645307541,-0.07251769304275513,-0.16378632187843323,-0.019944414496421814,-0.04232688993215561,0.06342491507530212,0.10653117299079895,0.16531947255134583,-0.09654833376407623,0.27717915177345276,0.18832281231880188,-0.1462329775094986,0.003133460646495223,-0.1550530344247818,0.0921538770198822,-0.029326358810067177,0.16238564252853394,0.021745307371020317,0.017306892201304436,0.003938170149922371,0.17038555443286896,-0.08678671717643738,-0.2884485125541687,-0.16840757429599762,-0.15586009621620178,0.12992769479751587,-0.05809926241636276,-0.1448196917772293,-0.2348024696111679,-0.0381602980196476,0.14666692912578583,0.25507593154907227,-0.17236270010471344,0.013923674821853638,0.16378392279148102,0.14545610547065735,-0.0001689439086476341,0.19525842368602753,-0.05625784024596214,0.04855203256011009,-0.09335317462682724,-0.2844151258468628,-0.02858521230518818,0.021153686568140984,-0.017960943281650543,-0.13020646572113037,0.13911966979503632,-0.19351860880851746,-0.009375140070915222,-0.07782617211341858,0.036381132900714874,-0.1475476622581482,-0.16114377975463867,0.018383417278528214,-0.07537388801574707,-0.12439227104187012,0.13493038713932037,0.10323314368724823,0.01046175416558981,-0.08033248037099838,0.027604542672634125,0.04576631262898445,0.11863355338573456,-0.16940291225910187,-0.03929995745420456,-0.1455647498369217,0.10371331870555878,-0.05873626470565796,-0.01907147839665413,0.021992210298776627,-0.11972162872552872,0.23114371299743652,0.07926196604967117,0.14027824997901917,-0.030107391998171806,0.1434437483549118,0.08352469652891159,0.14111199975013733,-0.08769845962524414,-0.05235797539353371,0.08178885281085968,-0.022390754893422127,-0.18383550643920898,-0.0033725143875926733,-0.01833556406199932,0.008356496691703796,-0.052293017506599426,-0.11473485827445984,-0.312478244304657,-0.04433118551969528,0.03000469319522381,0.12471046298742294,0.004976872820407152,-0.09846530109643936,-0.03003673627972603,-0.03266441822052002,0.27184465527534485,-0.01684299297630787,0.17065304517745972,-0.03130645677447319,0.12191881239414215,0.08963888138532639,-0.003971666097640991,0.1575963944196701,-0.1087898463010788,-0.03434441611170769,0.01785050891339779,0.08338060230016708,0.06763987988233566,-0.027227075770497322,-0.1076723262667656,0.07852011919021606,0.04990740120410919,-0.08145710825920105,0.06076354905962944,0.10062350332736969,-0.03588263690471649,-0.10331685841083527,-0.1966843605041504,0.12559722363948822,0.08682312816381454,-0.030546462163329124,-0.0004936058539897203,-0.023047838360071182,-0.018427647650241852,0.17692448198795319,0.1066398173570633,-0.11176936328411102,-0.21901218593120575,-0.16355788707733154,0.04352914169430733,0.07494253665208817,-0.028759999200701714,0.12449593842029572,-0.1333085596561432,0.09116379916667938,0.1567220836877823,0.09136444330215454,-0.02531624212861061,0.09036780148744583,-0.23109924793243408,0.04902373254299164,0.07384298741817474,-0.16114605963230133,-0.26076629757881165,-0.07957534492015839,0.04501982778310776,-0.2028178572654724,-0.04370131716132164,0.018645426258444786,0.0006175795570015907,-0.10285572707653046,-0.016794683411717415,0.02601485885679722,-0.017686108127236366,0.05047033727169037,-0.07614898681640625,0.11663680523633957,-0.06557026505470276,0.13230790197849274,-0.05098416656255722,0.06942109018564224,0.07035326957702637,-0.10915206372737885,-0.08030392974615097,-0.1659683883190155,0.1409502923488617,0.18563751876354218,-0.053405966609716415,-0.08290556073188782,-0.005700256209820509,-0.016342828050255775,0.027800073847174644,-0.05707278847694397,0.013081027194857597,0.1478060781955719,-0.0925079956650734,-0.14988672733306885,-0.10661502182483673,0.061510879546403885,0.05919693782925606,0.06334629654884338,-0.030886230990290642,-0.003592022694647312,0.025232497602701187,-0.0009497447172179818,-0.19497667253017426,-0.08348037302494049,-0.19488407671451569,-0.13706013560295105,-0.0663284882903099,-0.0577726885676384,-0.14902251958847046,0.01217162050306797,0.10089371353387833,-0.20458844304084778,-0.14786437153816223,0.08617985993623734,0.05095510557293892,-0.1482364684343338,-0.021539103239774704,-0.0689816102385521,0.19515551626682281,-0.1094323992729187,0.06974358856678009,0.10148822516202927,0.07420454174280167,-0.03673771023750305,0.07620468735694885,-0.14206230640411377,0.0866299718618393,-0.1829175502061844,-0.14494284987449646,-0.1046324297785759,-0.16153119504451752,0.0939115434885025,-0.008837237022817135,0.06899725645780563,-0.03290203586220741,-0.012575077824294567,-0.11617088317871094,-0.06119021400809288,-0.05076000466942787,0.15700547397136688,-0.05478312820196152,-0.062429290264844894,0.017806164920330048,-0.05851095914840698,0.03458835184574127,-0.08383848518133163,-0.09918190538883209,0.10908975452184677,-0.047292452305555344,0.09595923125743866,-0.07294295728206635,-0.04668090119957924,-0.20878863334655762,0.011086131446063519,0.0026549820322543383,-0.08444540947675705,-0.005709717515856028,-0.058716289699077606,-0.07320159673690796,0.04655560478568077,-0.04675011336803436,0.01088812667876482,0.1532924622297287,0.15889525413513184,-0.04384375363588333,0.07849308848381042,-0.06559546291828156,0.03232324868440628,0.0713658258318901,0.23638072609901428,0.020833633840084076,-0.04565770924091339,-0.030321303755044937,-0.12133784592151642,0.03580348566174507,0.153315007686615,0.1020602136850357,-0.16710078716278076,-0.1709069460630417,-0.04010821878910065,-0.1712355762720108,-0.13517194986343384,-0.11779841780662537,0.04977606236934662,-0.13587738573551178,-0.10665147751569748,-0.02992289327085018,0.1911788433790207,-0.09361815452575684,-0.03719429299235344,0.06116056442260742,0.01714358665049076,0.1253216415643692,0.09605035930871964,-0.0066391825675964355,0.04375128448009491,-0.06436675786972046,-0.005273191258311272,0.19975583255290985,-0.04101034626364708,-0.147182896733284,-0.13905861973762512,-0.0009186419774778187,-0.203520730137825,-0.01452658697962761,0.22748471796512604,0.12340175360441208,-0.054575152695178986,-0.10221362113952637,-0.017827024683356285,-0.07400231808423996,-0.08708172291517258,-0.14079894125461578,0.20213136076927185,-0.10076989233493805,0.06408143788576126,-0.26968586444854736,-0.3049776256084442,-0.035082053393125534,0.02175893820822239,0.12911772727966309,-0.017379961907863617,-0.08464594930410385,0.19379647076129913,0.0919000431895256,-0.16344906389713287,-0.18247775733470917,0.0033218732569366693,-0.07617445290088654,-0.2230316400527954,-0.014312508516013622,-0.23683036863803864,-0.014514618553221226,0.005071913357824087,0.1523648053407669,-0.039883606135845184,-0.04520546644926071,-0.032570499926805496,-0.02032342553138733,0.25756993889808655,-0.11155519634485245,-0.14282239973545074,-0.23781271278858185,0.05804350599646568,-0.047267328947782516,0.18623322248458862,-0.06390216201543808,-0.12711484730243683,-0.05271665006875992,0.05702810361981392,-0.21815548837184906,-0.13747580349445343,-0.31763696670532227,-0.2699206471443176,0.08995694667100906,-0.31423497200012207,-0.17695418000221252,0.042023587971925735,-0.18293173611164093,0.21355678141117096,0.06971287727355957,0.06976140290498734,-0.1704920083284378,0.05144733935594559,0.008140552788972855,-0.007553928531706333,0.13186392188072205,-0.11830314248800278,-0.0789460614323616,-0.08410007506608963,-0.17126834392547607,-0.03157191351056099,0.023361733183264732,-0.0377691350877285,0.09657786786556244,-0.04817729815840721,0.026399729773402214,-0.04300185665488243,-0.0682927742600441,0.002205821918323636,0.004339214880019426,-0.03332148492336273,-0.021375250071287155,0.026774805039167404,-0.049869224429130554,0.12522512674331665,0.11719095706939697,-0.028904415667057037,0.05093589797616005,-0.0030690974090248346,-0.0204132329672575,-0.016225846484303474,0.016695106402039528,-0.1568017154932022,0.15314006805419922,0.05483046546578407,-0.027022840455174446,-0.07334078103303909,0.12172332406044006,-0.01343050692230463,0.042699068784713745,0.19793280959129333,0.03665265440940857,0.03391512110829353,0.04590674117207527,0.2974831163883209,0.0558411106467247,-0.03406354784965515,-0.34344303607940674,-0.0410446897149086,-0.2626294791698456,-0.2713136374950409,0.17109090089797974,0.11012624949216843,0.1193988174200058,-0.08186604082584381,-0.23859579861164093,-0.2322123646736145,-0.4421401917934418,-0.3681047558784485,-0.22463281452655792,0.2520331144332886,0.1407855898141861,0.06359142810106277,0.5421176552772522,0.40706804394721985,0.5380556583404541,0.2529139220714569,0.23314103484153748,0.28482145071029663,0.04614240676164627,0.0023702718317508698,-0.050457488745450974,-0.1184639185667038,-0.17389541864395142,-0.3173549473285675,-0.004189309198409319,0.19863665103912354,-0.04248523339629173,-0.28799375891685486,-0.45247069001197815,-0.3981773555278778,0.2501564919948578,0.17813588678836823,0.20856022834777832,0.11845532059669495,0.28699055314064026,0.10775025933980942,0.047642581164836884,0.10536883771419525,0.16334138810634613,0.36099812388420105,0.1353028267621994,0.31215590238571167,0.06740707159042358,-0.16917528212070465,-0.04722883179783821,-0.15994133055210114,-0.10638151317834854,0.05517154932022095,-0.12434148788452148,-0.040053363889455795,0.0211141686886549,0.21244467794895172,0.12159084528684616,-0.05907821282744408,-0.16752414405345917,-0.13662849366664886,-0.0611015260219574,0.05332963541150093,0.014873494394123554,0.15744996070861816,0.0936460793018341,0.06445877254009247,-0.10512413084506989,-0.10317990928888321,-0.022345779463648796,0.09639392793178558,0.13524262607097626,0.05034847930073738,0.0350642129778862,-0.07890991866588593,0.010843446478247643,0.0854632705450058,0.05731770396232605,0.062001779675483704,-0.050066716969013214,0.0946866124868393,0.1568690985441208,-0.004815836437046528,-0.003153525060042739,-0.2474583089351654,-0.06505048274993896,0.06159951165318489,0.0031033488921821117,0.1190711259841919,-0.10252948850393295,-0.0035193103831261396,0.0621320940554142,-0.1226290687918663,0.02869386225938797,0.11956943571567535,-0.05454114452004433,0.08551797270774841,-0.012313776649534702,0.061071597039699554,-0.0235140323638916,-0.095363549888134,-0.011809240095317364,0.08509352058172226,0.2506970763206482,-0.0731590986251831,-0.10360094159841537,-0.07027985900640488,-0.1302138715982437,-0.11077175289392471,0.13336771726608276,-0.03838380426168442,-0.18992532789707184,-0.08980449289083481,-0.04845799505710602,-0.1264696717262268,-0.1695113629102707,0.05150875449180603,0.031477272510528564,0.1311143934726715,-0.09030111134052277,-0.14916108548641205,-0.03315480425953865,-0.10661135613918304,0.0679139792919159,0.030684566125273705,0.1298326849937439,-0.11075595021247864,0.05347929149866104,0.10307646542787552,-0.028464455157518387,0.07490560412406921,0.17568953335285187,0.1911567896604538,-0.010737381875514984,0.13916976749897003,-0.06303317099809647,0.03636850044131279,-0.1768135279417038,-0.07935500144958496,0.0017291128169745207,-0.05552474409341812,0.026091352105140686,0.11887702345848083,0.133681520819664,0.08177876472473145,0.13698488473892212,-0.020923344418406487,0.10850382596254349,-0.09376642107963562,0.18235211074352264,0.024343105033040047,-0.0613313727080822,-0.12382539361715317,0.025804104283452034,-0.18431542813777924,0.008840707130730152,0.10025111585855484,-0.08671408146619797,0.2736801207065582,-0.08605139702558517,0.01129049900919199,-0.1254606395959854,0.08170702308416367,-0.06528478115797043,0.11412359774112701,-0.05030219629406929,0.11306848376989365,-0.22246390581130981,0.07907599210739136,-0.23468120396137238,-0.07030073553323746,0.07875247299671173,0.15219788253307343,-0.038457754999399185,-0.01833694986999035,-0.08541683107614517,-0.08482959866523743,-0.13447009027004242,0.0740731731057167,0.015283363871276379,-0.01997293159365654,-0.09534215182065964,0.13343220949172974,0.012126080691814423,0.04548164829611778,0.044639814645051956,-0.1189509704709053,-0.04179283231496811,0.24842113256454468,0.03852160647511482,-0.01893957145512104,-0.04184426739811897,-0.2048662304878235,0.07837231457233429,0.014983718283474445,0.2509627938270569,-0.06884653866291046,-0.11936617642641068,0.015873296186327934,0.004438286181539297,0.12418647855520248,0.06757510453462601,0.009154723957180977,0.09844367206096649,-0.05269830301403999,0.1305438131093979,0.03998604416847229,0.08063830435276031,0.2245655357837677,-0.11804885417222977,0.07357505708932877,0.13303783535957336,-0.18054097890853882,-0.09561659395694733,-0.0366818904876709,0.06928221881389618,0.07239669561386108,-0.05261595547199249,-0.0801897794008255,-0.15637482702732086,0.07367444038391113,0.05748246982693672,-0.02280394174158573,0.07933483272790909,0.09862903505563736,-0.0071294172666966915,-0.034491464495658875,0.018688268959522247,0.058926913887262344,-0.14366985857486725,-0.06715714931488037,-0.05078675225377083,0.061587873846292496,-0.14328165352344513,-0.11368975043296814,0.1097879409790039,-0.14790648221969604,-0.02924133650958538,0.18666473031044006,-0.08842471241950989,-0.03549159690737724,0.2579994797706604,-0.0776929184794426,-0.09522973746061325,0.05682086944580078,-0.07901810109615326,-0.0710269957780838,0.10531193763017654,-0.07864048331975937,0.02220132388174534,0.1973857283592224,-0.05995943397283554,-0.07160401344299316,-0.12903881072998047,0.12026532739400864,-0.06233504042029381,-0.19457590579986572,0.09439216554164886,-0.10357912629842758,0.11189983785152435,-0.03973257914185524,0.04338643699884415,-0.06245839223265648,-0.06305308640003204,0.0116051584482193,0.2557695209980011,-0.00539687043055892,0.09413908421993256,0.031704068183898926,-0.012174113653600216,-0.16753797233104706,0.17738163471221924,0.08022072911262512,-0.1262223720550537,-0.0945349782705307,-0.13004936277866364,0.03657279908657074,0.036389824002981186,-0.053758781403303146,0.11589816957712173,0.034761153161525726,-0.0950675830245018,0.0241903904825449,-0.1834874153137207,0.009458642452955246,0.08986886590719223,-0.09622392058372498,0.044568393379449844,0.05816185846924782,0.26894450187683105,-0.12092841416597366,-0.022942354902625084,0.069208063185215,-0.2138718217611313,-0.1276816427707672,-0.09474095702171326,0.04318065941333771,0.013683403842151165,0.12659406661987305,-0.038977134972810745,0.15974092483520508,0.04002416506409645,-0.0784488320350647,0.024141762405633926,-0.009141813963651657,0.042195409536361694,-0.07608737796545029,-0.07956933230161667,-0.015988219529390335,0.1775113046169281,-0.17684419453144073,-0.08181900531053543,-0.12335691601037979,0.09926535189151764,0.011501268483698368,-0.14900551736354828,0.137245774269104,-0.1750553995370865,-0.025296367704868317,-0.05923154950141907,-0.08570007234811783,-0.11821936070919037,-0.049010179936885834,-0.3152543008327484,-0.011232711374759674,-0.015344961546361446,-0.19319826364517212,-0.021404685452580452,0.07333649694919586,-0.03667505457997322,0.19218210875988007,-0.005664284806698561,-0.0074948472902178764,0.041780438274145126,-0.021236421540379524,0.13224513828754425,-0.08506625145673752,0.23840656876564026,-0.13314874470233917,0.10938180983066559,0.11186613142490387,-0.1619960367679596,-0.22187195718288422,0.16662725806236267,0.6111940145492554,0.014057187363505363,-0.03108677826821804,0.08710732311010361,0.06282436102628708,-0.05068010091781616,0.08408303558826447,0.7240368127822876,0.07493296265602112,0.5510465502738953,-0.04565254971385002,0.39675453305244446,-0.07751710712909698,-0.8369116187095642,0.0711405798792839,-0.5264906287193298,0.09836418926715851,0.14824870228767395,0.07262320071458817,-0.020010730251669884,-0.06915285438299179,-0.10978973656892776,0.06128911301493645,0.34321829676628113,-0.0603286437690258,0.25309810042381287,0.022796131670475006,-0.7486498951911926,0.126960888504982,0.26637521386146545,-0.046125929802656174,0.03023381717503071,-0.023555796593427658,-0.4582040309906006,-0.0040712240152060986,-0.04475316405296326,-0.025111256167292595,-0.3659467399120331,0.04814805090427399,-0.1319604367017746,-0.25331059098243713,0.13417144119739532,-0.16284851729869843,0.04313412681221962,0.11930190026760101,-0.03411700949072838,-0.15189579129219055,-0.22443825006484985,-0.04185715317726135,-0.1078590452671051,-0.06250303983688354,0.07339449971914291,-0.03331054002046585,0.16232959926128387,-0.01832299865782261,-0.07217017561197281,-0.23105116188526154,0.09894926100969315,-0.288914293050766,-0.09488851577043533,-0.07003937661647797,0.19751662015914917,-0.1955605149269104,-0.04425773769617081,-0.021161474287509918,-0.2424648106098175,0.1843172311782837,-0.04891403019428253,0.05651412904262543,0.12194434553384781,0.149349182844162,-0.022169461473822594,0.21438971161842346,-0.037929147481918335,-0.2401481717824936,-0.11400055140256882,-0.1502324938774109,-0.06856158375740051,0.02281663566827774,0.24081143736839294,-0.012475810945034027,-0.10559404641389847,-0.17802637815475464,0.12138382345438004,-0.01015506125986576,0.06099850311875343,0.20943492650985718,-0.18514329195022583,0.019123438745737076,-0.12480948120355606,0.27034640312194824,0.2066545933485031,0.2756485641002655,0.04456716030836105,0.1154930368065834,-0.19306562840938568,-0.1982268989086151,0.08998461067676544,-0.15195979177951813,0.18358905613422394,0.11774667352437973,0.03596591576933861,-0.21263571083545685,0.1346249282360077,-0.05695030093193054,-0.04787329584360123,0.16392110288143158,0.011493328027427197,-0.034224580973386765,0.22655388712882996,-0.17525964975357056,0.20947696268558502,0.3869456648826599,0.11855406314134598,0.14483767747879028,-0.2773311734199524,-0.1434553861618042,-0.11673101782798767,-0.1524675190448761,-0.24040471017360687,0.17346423864364624,0.149801105260849,0.09711497277021408,-0.19558143615722656,0.1366126984357834,0.14645794034004211,0.010405007749795914,0.04703414812684059,0.28980931639671326,-0.27659812569618225,0.21718549728393555,-0.023979289457201958,0.05428082495927811,-0.08807501196861267,0.058498118072748184,-0.15937530994415283,-0.20526470243930817,-0.21138818562030792,-0.01664232648909092,-0.11677195131778717,-0.1770068258047104,0.23004943132400513,0.06260845810174942,-0.22576887905597687,-0.06584687530994415,0.08962147682905197,0.10687468945980072,0.014405162073671818,0.05638120323419571,0.06052500382065773,-0.2610074579715729,-0.16626036167144775,0.29232773184776306,-0.26256516575813293,0.12878993153572083,0.20913368463516235,-0.31533876061439514,-0.12325332313776016,0.32023757696151733,-0.12019871920347214,0.03672017902135849,0.0422511100769043,-0.06964798271656036,-0.2084672898054123,0.12088001519441605,0.33969247341156006,0.09784233570098877,-0.12952075898647308,0.04559551924467087,-0.14011433720588684,-0.10054551810026169,0.09933100640773773,0.08110257983207703,-0.2164623737335205,-0.22227968275547028,0.00796662736684084,-0.13857538998126984,0.028029976412653923,0.0038049917202442884,0.17146036028862,0.055822838097810745,0.04198756441473961,-0.017490198835730553,0.051320914179086685,0.09817812591791153,0.08916351944208145,-0.0653405487537384,-0.2678537964820862,-0.03311741352081299,-0.33575254678726196,0.09995636343955994,-0.23942433297634125,-0.1128087192773819,0.05562227964401245,-0.07811272889375687,0.17053231596946716,-0.10089139640331268,0.3253042995929718,0.11224078387022018,-0.09137611091136932,0.11772596091032028,-0.3596034049987793,-0.15058447420597076,-0.1269516497850418,0.030864523723721504,-0.02874736115336418,-0.2536675035953522,0.2564474940299988,-0.09555450081825256,-0.09837126731872559,-0.025373216718435287,-0.12908007204532623,0.10427957028150558,0.031058495864272118,-0.12898291647434235,0.11656656861305237,0.12858614325523376,-0.1661224216222763,0.029003748670220375,0.06330878287553787,-0.07743339985609055,-0.1551731377840042,0.006045983172953129,-0.18568453192710876,0.010513486340641975,0.2651205062866211,0.226167693734169,-0.07034896314144135,0.2672988176345825,-0.29928815364837646,-0.1067960187792778,0.09607505053281784,0.22210878133773804,0.22329090535640717,0.25521036982536316,-0.01642998680472374,0.0446307472884655,-0.18175947666168213,0.04684068262577057,0.19277197122573853,0.07519800961017609,-0.239791601896286,-0.15630939602851868,-0.14569132030010223,0.12593698501586914,-0.13472631573677063,-0.06688202172517776,-0.12543484568595886,0.12404550611972809,0.006167558487504721,0.24649885296821594,0.057557668536901474,0.13881850242614746,-0.1691255271434784,0.06434778869152069,-0.07846392691135406,0.13821075856685638,0.1342586874961853,-0.1999114751815796,-0.14645059406757355,-0.2077213078737259,-0.13612309098243713,0.009049552492797375,0.20540402829647064,0.04854969307780266,0.15737284719944,0.19753523170948029,-0.16695666313171387,-0.10467526316642761,0.26552316546440125,0.14815255999565125,-0.14017583429813385,0.13795866072177887,-0.30418476462364197,-0.0057786437682807446,0.02069026604294777,0.013354905880987644,-0.005690709687769413,0.04423742741346359,-0.07816953212022781,0.1954115331172943,-0.17404818534851074,-0.24620871245861053,-0.40654119849205017,-0.23150360584259033,-0.1532132774591446,-0.0790252611041069,-0.19583548605442047,0.10138380527496338,-0.37459877133369446,0.003400373738259077,0.06432178616523743,-0.1493254005908966,0.13565607368946075,0.14599406719207764,-0.2125227302312851,0.03467841073870659,0.20507746934890747,-0.06857291609048843,0.010387604124844074,0.0719161257147789,-0.013472854159772396,0.05132262036204338,-0.21874648332595825,0.15228775143623352,0.13009747862815857,0.038245320320129395,0.0008648234070278704,-0.18233518302440643,-0.04877541586756706,-0.0021981068421155214,0.04647233709692955,-0.09788355231285095,-0.07165087759494781,0.1020924523472786,0.20071400701999664,-0.0654437392950058,0.18907876312732697,0.2029217928647995,-0.016261953860521317,0.07987982779741287,0.10133756697177887,0.01687403954565525,0.011811901815235615,0.04923611134290695,-0.02904849499464035,-0.04595012590289116,-0.04028412327170372,0.1594824194908142,0.03989918902516365,-0.053361617028713226,0.052692100405693054,0.058871734887361526,-0.03987358510494232,-0.16237664222717285,0.07133892178535461,-0.01799326203763485,0.06601706892251968,-0.20615442097187042,-0.2648027539253235,0.037543173879384995,0.1830659806728363,0.15702784061431885,-0.13094376027584076,0.18459250032901764,-0.001165773719549179,-0.18025436997413635,0.020654473453760147,0.10239188373088837,0.0647960901260376,-0.009420065209269524,-0.05375627428293228,-0.12339866161346436,0.0017138742841780186,-0.1335359513759613,0.0980997234582901,-0.12790341675281525,0.039042796939611435,0.05449129268527031,0.11779532581567764,0.2205474078655243,0.2856433689594269,0.14088809490203857,-0.03742823377251625,0.031073452904820442,-0.16964206099510193,-0.12683629989624023,-0.07195647060871124,-0.176353320479393,0.05418076738715172,0.05706429481506348,0.05295871943235397,-0.018196554854512215,-0.05663767829537392,0.05670519918203354,-0.019369570538401604,-0.06715946644544601,-0.07752393931150436,0.24314865469932556,0.2355680912733078,-0.2947198450565338,-0.1040111631155014,-0.46705928444862366,-0.15220116078853607,0.019618777558207512,0.09973124414682388,-0.08421401679515839,-0.1558123081922531,-0.05397966876626015,0.05420256778597832,-0.12324603646993637,0.17209382355213165,-0.201085165143013,-0.08456462621688843,-0.025644253939390182,0.05082042142748833,-0.12957574427127838,0.10826977342367172,-0.002763414289802313,-0.05750560760498047,0.1769711673259735,0.11193237453699112,0.033339109271764755,-0.1732797473669052,-0.07157407701015472,-0.0532572865486145,-0.21446940302848816,-0.09520546346902847,0.04551040381193161,0.19604618847370148,0.13279391825199127,0.12572094798088074,0.13126258552074432,-0.01687699556350708,0.03740156069397926,0.12316479533910751,-0.09310585260391235,0.12640661001205444,-0.04119441285729408,-0.07623700797557831,-0.14618715643882751,-0.0882897898554802,0.05279136076569557,0.10184912383556366,0.24594196677207947,-0.011574196629226208,-0.09131137281656265,-0.01708965376019478,-0.15162427723407745,-0.1675262302160263,-0.11610867083072662,0.07197738438844681,-0.06066479533910751,-0.11229994148015976,0.074970543384552,-0.18276919424533844,-0.033133216202259064,0.16289997100830078,0.20534002780914307,0.10130792111158371,0.022519854828715324,0.06580738723278046,0.08599154651165009,-0.059589602053165436,-0.012374157086014748,-0.041794631630182266,0.0655522495508194,0.06114497780799866,0.06201804056763649,0.009523550979793072,-0.08640036731958389,0.152764692902565,0.07161028683185577,-0.2017306536436081,-0.03435518220067024,-0.0442056730389595,-0.16081055998802185,0.2353694885969162,0.02752150595188141,0.04347948729991913,-0.13742631673812866,0.19871735572814941,0.31686800718307495,0.08785884827375412,-0.022959250956773758,-0.1903586983680725,-0.0029184971936047077,0.16473901271820068,0.07461662590503693,0.08727197349071503,0.16614596545696259,0.028346054255962372,0.20262278616428375,0.07641854882240295,-0.13392356038093567,0.16669319570064545,0.041131433099508286,-0.112238310277462,-0.11528631299734116,-0.05396966263651848,-0.029917294159531593,0.06455469131469727,-0.019079646095633507,0.05196329206228256,0.09038549661636353,0.09966167062520981,0.17334286868572235,0.0640464723110199,-0.22049373388290405,-0.1594044268131256,-0.025455066934227943,0.011624883860349655,0.1332945078611374,-0.015849396586418152,-0.07655937969684601,0.08864374458789825,-0.10141570121049881,0.20639997720718384,-0.08637695759534836,0.1615089774131775,0.21606960892677307,-0.001107646618038416,0.09903731942176819,-0.04984716698527336,-0.0019335141405463219,0.07113770395517349,-0.06118267402052879,-0.023763803765177727,0.19414924085140228,0.057398438453674316,0.0775323137640953,0.31369635462760925,-0.05136821046471596,0.1855897456407547,0.001704673282802105,0.050993092358112335,-0.03145517781376839,0.12906865775585175,0.059228066354990005,-0.035895224660634995,-0.012509526684880257,0.1864815652370453,-0.06243067979812622,-0.07830371707677841,0.07105859369039536,-0.06464745104312897,0.022508587688207626,0.06512832641601562,0.055905986577272415,0.12108243256807327,0.004406909458339214,-0.032214537262916565,0.18865400552749634,-0.02060328982770443,0.05736830085515976,-0.17314350605010986,0.16843408346176147,-0.14480972290039062,-0.22302879393100739,-0.1444624960422516,0.13141705095767975,-0.041116226464509964,0.0735960304737091,0.06027050316333771,-0.1080089807510376,-0.09786010533571243,-0.15670093894004822,0.07829996198415756,-0.19105246663093567,-0.04893391951918602,0.19485345482826233,-0.10258851200342178,0.08263222873210907,-0.10100926458835602,0.14771142601966858,0.025659335777163506,0.1185406744480133,0.23223251104354858,0.010030524805188179,-0.07757504284381866,-0.10274535417556763,0.014957457780838013,-0.000932233058847487,-0.09147617965936661,-0.014944387599825859,-0.06959528475999832,-0.0661817267537117,-0.09900237619876862,-0.05198865756392479,0.08338601887226105,-0.005393756087869406,-0.12224439531564713,-0.12517209351062775,0.15195299685001373,-0.005382047966122627,-0.06795220822095871,-0.17379654943943024,0.04283828288316727,-0.20013727247714996,-0.09072839468717575,-0.16291512548923492,0.05814748629927635,0.01791682466864586,0.0333513543009758,-0.16437722742557526,0.176848903298378,0.08553251624107361,0.10340428352355957,-0.10415971279144287,-0.09730518609285355,-0.18220967054367065,-0.099605031311512,0.017417389899492264,0.08226326107978821,0.15631604194641113,-0.2273121327161789,0.12650245428085327,0.056033678352832794,-0.08870213478803635,-0.06247764080762863,-0.0313519686460495,-0.017552722245454788,0.21984897553920746,-0.055962592363357544,-0.09470247477293015,0.039707206189632416,-0.1333513706922531,-0.06819768995046616,-0.17504651844501495,-0.0993584543466568,0.0692153200507164,0.13228732347488403,0.18702571094036102,-0.16608476638793945,0.17251978814601898,0.11711786687374115,0.048152174800634384,-0.007504407316446304,0.16728241741657257,0.08845985680818558,-0.2239992320537567,0.029362112283706665,-0.05521669611334801,-0.15203210711479187,-0.11194667220115662,0.1389700025320053,-0.004135688301175833,-0.061982933431863785,-0.122763991355896,-0.08218838274478912,0.07744854688644409,0.044569313526153564,-0.012443420477211475,0.0022309967316687107,0.11281955987215042,-0.05191315338015556,0.09885945171117783,0.17503146827220917,0.00632473174482584,0.1071641594171524,0.15776874125003815,0.010384321212768555,-0.05815769359469414,-0.09079001843929291,0.1911913901567459,-0.02111353725194931,-0.09679050743579865,0.01903865672647953,-0.06489946693181992,0.08410972356796265,-0.010807096026837826,-0.01980263739824295,0.16716349124908447,-0.038370680063962936,0.009731492958962917,0.33876878023147583,0.20343177020549774,0.07193365693092346,-0.05626508966088295,-0.07890267670154572,-0.1631285399198532,0.012674100697040558,-0.17229606211185455,-0.05376024544239044,0.10257250815629959,-0.0006647437694482505,-0.0021300786174833775,-0.07673631608486176,0.21145099401474,-0.18804073333740234,-0.09021085500717163,-0.0027680357452481985,0.0724482610821724,0.0604805089533329,-0.1794590801000595,-0.09352841973304749,0.14990155398845673,-0.061612822115421295,-0.04778408259153366,-0.013267133384943008,-0.08041468262672424,-0.10155955702066422,0.018091611564159393,0.04523028805851936,-0.02697157673537731,-0.057072609663009644,0.05895131826400757,0.014857927337288857,-0.16554956138134003,-0.08473405987024307,-0.08385708183050156,0.040258150547742844,-0.14938245713710785,-0.03722154349088669,0.2168668508529663,0.037921030074357986,-0.15647342801094055,0.020183617249131203,0.06915110349655151,-0.06672193109989166,0.04803827777504921,-0.1945164054632187,-0.25096750259399414,-0.08695793151855469,0.023072507232427597,-0.020944736897945404,-0.0611216276884079,0.11624964326620102,-0.06901856511831284,0.217380553483963,-0.10831964015960693,-0.11736243963241577,0.10340356826782227,-0.09640099108219147,-0.20346951484680176,-0.010541582480072975,0.1804109662771225,-0.07526063919067383,0.18391579389572144,0.1691654771566391,-0.03622499480843544,0.03870835900306702,0.08122788369655609,0.20656177401542664,0.4883286952972412,-0.042164407670497894,-0.03722473606467247,-0.028760092332959175,0.02804182656109333,0.1010647565126419,-0.14546923339366913,0.10231374949216843,0.0403895229101181,-0.14018666744232178,-0.022835031151771545,-0.0032102237455546856,-0.016219306737184525,-0.166314035654068,-0.02279926836490631,-0.09890606254339218,-0.2769539952278137,-0.015303595922887325,0.23416778445243835,-0.04904073849320412,0.02901231311261654,-0.16694782674312592,0.09093619883060455,0.07752561569213867,-0.07391788810491562,0.10881051421165466,0.049147043377161026,-0.14111435413360596,0.08368733525276184,-0.008889242075383663,-0.08576350659132004,0.002540949499234557,-0.12518656253814697,-0.10106203705072403,0.017925653606653214,0.07673930376768112,0.07859455049037933,0.08309230208396912,0.050730086863040924,-0.11311212182044983,0.11562956869602203,0.10822566598653793,0.12053334712982178,0.06622584164142609,0.1392451673746109,0.070124052464962,