{"version":"0.5.4","metadata":{"date":"2026-05-27T05:17:47","sample_rate":48000,"loudness":-21.035621643066406,"training_esr":0.031044423803150006,"pretrained":"Phoenix Pre 10 Tone 10.nam","architecture":"STANDARD","input_level_dbu":22.5,"output_level_dbu":6.8},"architecture":"WaveNet","config":{"layers":[{"input_size":2,"condition_size":2,"channels":16,"head_size":8,"kernel_size":3,"dilations":[1,2,4,8,16,32,64,128,256,512],"activation":"Tanh","gated":false,"head_bias":false},{"input_size":16,"condition_size":2,"channels":8,"head_size":1,"kernel_size":3,"dilations":[1,2,4,8,16,32,64,128,256,512],"activation":"Tanh","gated":false,"head_bias":true}],"head":null,"head_scale":0.02,"rate_condition_hidden":16,"rate_condition_num_biases":240},"weights":[-0.051537856459617615,0.040312934666872025,0.7595351934432983,0.015271897427737713,-0.9632128477096558,-0.033621251583099365,-0.8629518747329712,-0.025177381932735443,-0.5017265677452087,0.0272827185690403,0.28981661796569824,0.04894592985510826,-0.03375158831477165,-0.05931713804602623,0.8723769783973694,0.039292968809604645,-0.15328383445739746,-0.036496490240097046,0.4489567279815674,0.00029178071417845786,-0.37525761127471924,-0.042270660400390625,-0.2825177311897278,0.05658167600631714,-1.1624481678009033,-0.06229023635387421,-0.693448007106781,-0.04287084937095642,-0.6706610321998596,-0.003836990799754858,0.20118291676044464,-0.039928238838911057,0.2454172819852829,-0.17383067309856415,-0.1466785967350006,-0.2684272527694702,0.20079489052295685,0.06542341411113739,0.17137472331523895,-0.029748523607850075,0.03372349590063095,0.21059885621070862,-0.010834182612597942,-0.08344779908657074,0.10179004073143005,-0.18804305791854858,-0.008725062943994999,-0.09843043982982635,0.028182722628116608,-0.13982956111431122,0.17041967809200287,-0.2259758561849594,0.007242627441883087,-0.07384216040372849,0.19782190024852753,0.014674117788672447,0.24205753207206726,-0.22873756289482117,0.08353620022535324,-0.34353604912757874,0.052854668349027634,-0.12370513379573822,0.302523136138916,-0.03860602155327797,0.0014026842545717955,0.17772558331489563,-0.08697334676980972,0.16727204620838165,0.25957635045051575,-0.11664191633462906,0.15326835215091705,0.11829917132854462,-0.10174411535263062,-0.05275154858827591,0.10262711346149445,-0.2312580794095993,0.11651977896690369,-0.1498246043920517,0.21073585748672485,0.07978448271751404,-0.0035570564214140177,-0.0853687971830368,0.014077167958021164,0.04918219521641731,0.10195159167051315,0.055704548954963684,-0.12555798888206482,-0.06732656806707382,0.14093071222305298,0.10240951925516129,0.10692127794027328,0.208023339509964,0.0004950924776494503,-0.14947067201137543,0.08624117821455002,-0.0929018184542656,-0.13637307286262512,0.030469603836536407,0.12118397653102875,-0.1411411464214325,0.1317981332540512,-0.011961642652750015,-0.008872997015714645,-0.15033301711082458,0.04600215703248978,-0.0929994061589241,0.1392008513212204,0.09115589410066605,0.11875341087579727,-0.02488234080374241,-0.14745771884918213,-0.10331366956233978,0.16317148506641388,-0.01010644156485796,-0.14696262776851654,-0.026285924017429352,0.1261666715145111,0.08674328774213791,0.02390897460281849,-0.0436064712703228,-0.14642928540706635,0.08516875654459,-0.13218992948532104,-0.1317627876996994,0.07036712020635605,0.08365055173635483,-0.03136765956878662,0.04799094796180725,0.043888725340366364,-0.03232286497950554,0.14790919423103333,-0.266117125749588,0.08909567445516586,0.018907036632299423,0.1593499481678009,-0.08467815071344376,0.04269289970397949,0.14685289561748505,-0.18567030131816864,0.056674737483263016,0.0036911675706505775,-0.2067682445049286,-0.03396136686205864,-0.17746400833129883,0.094846211373806,-0.10058311372995377,0.033189740031957626,-0.12808923423290253,-0.08178349584341049,-0.14279510080814362,0.21834467351436615,0.0014741146005690098,0.13243503868579865,-0.15591931343078613,0.04037468880414963,-0.05576234683394432,0.2609211206436157,0.09522869437932968,0.2577889859676361,-0.13646993041038513,-0.1469583511352539,0.054958611726760864,-0.042592328041791916,0.014644136652350426,0.06201333925127983,-0.23277252912521362,-0.15344014763832092,0.008679712191224098,-0.15026578307151794,0.05964677780866623,0.2278067171573639,-0.2617971897125244,0.08636537939310074,-0.2890901267528534,0.16082067787647247,-0.10236402601003647,-0.004000470507889986,0.25820574164390564,-0.12576383352279663,-0.22342471778392792,-0.3930665850639343,-0.1572665423154831,0.03697626665234566,0.4178110659122467,0.028535567224025726,0.0904737263917923,0.48249655961990356,0.09297773987054825,0.21448025107383728,0.4007264971733093,-0.008281237445771694,-0.0063077537342906,-0.3660648763179779,-0.19137407839298248,0.20478755235671997,0.17028696835041046,0.052660878747701645,-0.13333499431610107,-0.25396400690078735,-0.11797349154949188,0.15348504483699799,0.39565786719322205,0.06542050838470459,-0.12785345315933228,-0.4858412444591522,-0.07046715915203094,0.2171291708946228,0.4491026699542999,0.04190179333090782,0.07056759297847748,0.21721214056015015,-0.010844861157238483,0.021075915545225143,0.41412684321403503,0.07616432756185532,0.10139960050582886,0.36602574586868286,0.25336048007011414,-0.01737431436777115,0.26504427194595337,0.060893360525369644,0.07035116851329803,-0.42067715525627136,0.06206536665558815,-0.08073766529560089,0.19051162898540497,0.20500674843788147,0.12890274822711945,-0.1284303367137909,-0.21306274831295013,-0.15667696297168732,0.1610376387834549,0.06546688824892044,-0.226751908659935,0.2591199576854706,0.06385041028261185,-0.1626681089401245,0.2930642068386078,0.23481260240077972,0.16961805522441864,-0.25428104400634766,-0.0918755829334259,-0.3055928349494934,0.023885037750005722,0.06397080421447754,0.13215228915214539,-0.13568615913391113,-0.057417016476392746,-0.15223723649978638,0.26861879229545593,0.25849226117134094,0.06870689988136292,-0.08098648488521576,-0.28093159198760986,-0.22138233482837677,0.17200784385204315,0.21767915785312653,-0.03162778541445732,0.11282484233379364,0.19272062182426453,-0.08110110461711884,3.638119960669428e-05,0.281493604183197,-0.2760527431964874,0.1356949508190155,0.14824044704437256,-0.23214861750602722,0.17217761278152466,0.30490556359291077,0.1076030358672142,-0.29396501183509827,-0.2736292779445648,-0.018973596394062042,-0.06243869289755821,-0.06794732064008713,-0.2315666377544403,0.00791944656521082,0.13642197847366333,0.2068280130624771,0.02560940571129322,-0.0014380194479599595,0.07940825819969177,-0.12447033822536469,-0.008891891688108444,0.23824994266033173,-0.05976078659296036,-0.11159645766019821,-0.1554953157901764,-0.01588253676891327,0.09588005393743515,-0.03848828747868538,-0.2736666798591614,0.06876581162214279,-0.222913458943367,0.06398069113492966,0.09675205498933792,0.10919579118490219,-0.21901993453502655,-0.15873213112354279,-0.01860267110168934,0.11751440912485123,0.16524167358875275,0.06015264615416527,-0.05326903983950615,-0.09238983690738678,0.0984804555773735,-0.20331043004989624,0.014419504441320896,0.1738937646150589,-0.08917845040559769,-0.0901603028178215,0.03585116192698479,0.014301447197794914,-0.16613750159740448,0.19326242804527283,-0.14238427579402924,-0.11640451103448868,-0.12387793511152267,0.09170299023389816,0.0436820350587368,0.12217579036951065,-0.31174081563949585,0.05322977155447006,-0.04819497466087341,0.21811595559120178,-0.03585993871092796,-0.016345936805009842,-0.1794973760843277,0.06573647260665894,0.0447850339114666,-0.1031709760427475,0.10985780507326126,0.025104692205786705,-0.16487763822078705,0.07623127847909927,-0.09680339694023132,0.16156595945358276,-0.0121756037697196,-0.017208538949489594,-0.12699756026268005,0.15931235253810883,0.029879355803132057,0.23709428310394287,0.004374384414404631,0.18518640100955963,-0.229050874710083,-0.07605257630348206,-0.23436209559440613,0.30646568536758423,0.068021260201931,0.004040006548166275,-0.09049185365438461,0.13225345313549042,0.23377352952957153,-0.054381564259529114,0.12918716669082642,0.07030042260885239,-0.2052168846130371,0.13516294956207275,0.18438172340393066,-0.23726801574230194,0.14725948870182037,0.17715460062026978,-0.08773870766162872,-0.07304532080888748,-0.09619975835084915,0.1765667349100113,0.07452309876680374,-0.07741643488407135,-0.3173222541809082,0.0825834721326828,0.08863344043493271,0.2794351577758789,-0.022504771128296852,-0.13400201499462128,-0.2920008599758148,-0.006149632390588522,-0.18251046538352966,-0.44459715485572815,0.1996556967496872,0.03838744014501572,-0.20200172066688538,0.19906757771968842,-0.12145731598138809,0.20236359536647797,-0.13551591336727142,-0.0986531525850296,-0.17326520383358002,0.029305800795555115,-0.03551012650132179,0.18152174353599548,-0.17190779745578766,0.1096692755818367,-0.20024758577346802,0.21517638862133026,0.14162732660770416,0.4617265462875366,-0.1292927861213684,0.043104734271764755,-0.17805202305316925,0.1516711711883545,0.0877644345164299,-0.2829466164112091,0.15573252737522125,-0.08145143836736679,-0.2522687315940857,0.10875670611858368,-0.06130310520529747,-0.3949255347251892,0.014077004976570606,-0.14539264142513275,-0.2421250194311142,0.19230104982852936,0.006028728559613228,0.3167427182197571,0.04231686145067215,0.06102137267589569,-0.1904173493385315,-0.14581064879894257,0.16615602374076843,0.22299861907958984,-0.009369038976728916,0.09967368096113205,-0.05034235119819641,-0.15419058501720428,0.04039963707327843,-0.24282483756542206,-0.12334590405225754,0.08069965243339539,-0.16880398988723755,-0.19640138745307922,0.0057995212264359,0.13974861800670624,0.07314062118530273,-0.053502507507801056,-0.04395917057991028,-0.08523493260145187,-0.05239299684762955,0.15999074280261993,0.16920173168182373,0.030197542160749435,-0.30841875076293945,-0.10916341841220856,-0.06950877606868744,0.10748931765556335,0.1484006643295288,-0.14792007207870483,-0.1051003560423851,0.024602854624390602,-0.03630298003554344,-0.28399741649627686,-0.1433582454919815,-0.0055628325790166855,-0.2667543590068817,-0.029765116050839424,-0.16752198338508606,-0.29196590185165405,-0.2396397888660431,-0.06639768183231354,-0.07441480457782745,-0.23568204045295715,0.13425318896770477,0.1802457869052887,0.12105711549520493,0.037013474851846695,-0.24401727318763733,0.2554144263267517,0.020236795768141747,0.21728232502937317,-0.0625765398144722,-0.043553102761507034,0.04518541321158409,0.1369440108537674,0.11454252153635025,-0.19524627923965454,0.08264125883579254,-0.10255897790193558,-0.14642582833766937,0.1483534276485443,-0.1969473510980606,0.08993373066186905,-0.08251868933439255,0.1103060245513916,-0.125030055642128,0.08222265541553497,-0.09467721730470657,0.1375419944524765,0.016057629138231277,0.17193733155727386,-0.06445395946502686,0.22672753036022186,-0.19547715783119202,-0.044565822929143906,-0.06914717704057693,-0.013019134290516376,0.012684274464845657,0.04363974556326866,-0.04585804045200348,-0.2236521691083908,0.18563662469387054,0.04092404618859291,0.04023696854710579,0.2219952791929245,0.13691265881061554,-0.06326271593570709,0.08787652105093002,0.018973644822835922,-0.06331238895654678,0.20226910710334778,-0.16444717347621918,0.22957323491573334,-0.1798066794872284,-0.20479467511177063,0.31879255175590515,0.007706499192863703,0.2537355422973633,-0.442828506231308,0.3051500916481018,-0.04136177897453308,0.3852096498012543,-0.07673299312591553,-0.18548370897769928,0.34903573989868164,-0.13056053221225739,-0.14826595783233643,0.3639526069164276,-0.231781005859375,0.2346220463514328,-0.3139229118824005,0.17015942931175232,-0.1346929371356964,0.27379390597343445,-0.3054564595222473,0.1259670853614807,-0.2092553675174713,0.1804908961057663,-0.09931037575006485,0.27503225207328796,-0.16587825119495392,0.016586918383836746,-0.40233418345451355,0.12677699327468872,0.00608558626845479,0.2412569671869278,-0.20649690926074982,-0.16628436744213104,0.48527711629867554,-0.027175920084118843,-0.2266833633184433,0.17865228652954102,-0.309466689825058,-0.12165804952383041,0.24900630116462708,-0.29539498686790466,-0.16624467074871063,0.3484562337398529,-0.2746734619140625,0.1698199212551117,-0.4573426842689514,0.10707397013902664,-0.045210644602775574,0.25442448258399963,-0.12979991734027863,-0.009018754586577415,-0.26992395520210266,0.057022254914045334,-0.1187145784497261,0.072647325694561,0.22491377592086792,-0.0767059400677681,0.2297372967004776,0.06259116530418396,-0.03879450261592865,0.15838226675987244,0.148323655128479,-0.0393066368997097,-0.3764188587665558,-0.19261135160923004,0.05117461457848549,0.324334979057312,0.01030706986784935,0.11493972688913345,-0.23797117173671722,-0.10789024084806442,0.14344722032546997,0.3057098090648651,0.21131539344787598,0.07527966052293777,-0.25309011340141296,-0.16849496960639954,0.027417851611971855,0.34020012617111206,0.048761703073978424,-0.1659626066684723,0.2223050445318222,0.15813755989074707,-0.016213886439800262,0.09542740881443024,-0.04228219762444496,0.0639043003320694,0.20242154598236084,0.016843991354107857,0.031728051602840424,0.2617328464984894,0.18596020340919495,0.17981840670108795,-0.21617943048477173,-0.1386972963809967,-0.01768300123512745,-0.188030406832695,0.2687225937843323,-0.09487387537956238,0.13338157534599304,-0.1045103669166565,0.2867841422557831,-0.12473531067371368,0.11271775513887405,0.0864356979727745,-0.35958343744277954,0.3632602095603943,0.08094997704029083,-0.3316485583782196,0.29991668462753296,-0.23923291265964508,0.16008272767066956,-0.2673502266407013,0.1756468564271927,-0.3027069866657257,0.4227502644062042,-0.2070619910955429,0.3039037585258484,-0.10235453397035599,0.2517894506454468,-0.2324826717376709,0.39032962918281555,-0.1386193186044693,0.1961180418729782,-0.10521158576011658,0.19012998044490814,-0.38268208503723145,0.20097121596336365,0.03003162145614624,-0.1579984873533249,0.18805086612701416,0.018865978345274925,-0.2605903744697571,0.3250618875026703,0.1868058294057846,-0.19998115301132202,0.2461773008108139,0.20853766798973083,-0.3040023148059845,0.17887099087238312,-0.31755968928337097,0.2134423851966858,-0.18658770620822906,-0.19011899828910828,0.21702291071414948,0.1868932992219925,0.1365082710981369,-0.2597683072090149,0.008259901776909828,-0.2046535462141037,0.2811685800552368,0.01598622463643551,-0.14995858073234558,0.2419658899307251,0.07618434727191925,0.00046044273767620325,0.07204083353281021,0.011406615376472473,0.0681002289056778,-0.12364175170660019,0.0167118851095438,-0.20948448777198792,0.15093041956424713,0.040016304701566696,0.08639445155858994,-0.05257413163781166,-0.2443697601556778,-0.1185852512717247,0.2912585735321045,0.0951635092496872,0.23537173867225647,-0.21175242960453033,-0.012569534592330456,-0.26511847972869873,0.12661270797252655,0.09920337796211243,-0.05921371653676033,0.24100570380687714,0.25363418459892273,-0.1422044187784195,0.15482915937900543,0.2298036515712738,-0.16161927580833435,0.2813614010810852,0.03148232400417328,-0.13939230144023895,0.16351458430290222,0.19831442832946777,0.2419053465127945,-0.24409005045890808,-0.25321513414382935,0.3401627838611603,-0.3101857602596283,-0.07621023803949356,-0.3993324041366577,0.3483330309391022,0.1764444261789322,0.3134213984012604,-0.3800099492073059,0.0638231560587883,0.1862131506204605,-0.21595217287540436,-0.027178332209587097,0.23324082791805267,-0.20622697472572327,-0.1720096468925476,-0.287572979927063,0.13930422067642212,0.009465103968977928,0.3555406332015991,-0.062293924391269684,-0.07681229710578918,-0.20244476199150085,0.22305697202682495,-0.024316873401403427,0.20495079457759857,-0.391536146402359,0.10817968100309372,-0.3473966121673584,0.27011585235595703,0.08311302214860916,0.4017539918422699,-0.10949122905731201,0.07999223470687866,0.18153071403503418,-0.3087403178215027,-0.16070964932441711,0.21836596727371216,-0.20985043048858643,0.09488548338413239,0.18473848700523376,-0.14962853491306305,-0.11432291567325592,0.28186434507369995,-0.14704735577106476,-0.07356494665145874,-0.3372751474380493,0.26975780725479126,0.21293170750141144,0.18238751590251923,-0.42088618874549866,0.1421019434928894,-0.3289221525192261,0.1726652979850769,-0.11227987706661224,0.332265168428421,-0.32219651341438293,0.18589046597480774,0.332767128944397,-0.18758802115917206,0.03504722937941551,0.20111027359962463,-0.3392542600631714,-0.004997372627258301,-0.23680993914604187,0.366267591714859,-0.018527450039982796,0.2754214107990265,-0.14091774821281433,0.1334705650806427,-0.1018262729048729,0.21655716001987457,-0.2136552929878235,0.26458850502967834,-0.18466754257678986,0.01786680519580841,-0.09324998408555984,0.34043511748313904,-0.2243754267692566,0.19031663239002228,-0.1368391364812851,0.01648702472448349,0.1595676839351654,-0.2580223083496094,-0.02727348916232586,0.295409619808197,-0.2033761590719223,0.20715831220149994,0.1239042803645134,-0.12720414996147156,0.03311081975698471,0.36957260966300964,-0.43362852931022644,-0.00968120340257883,-0.17284747958183289,0.36592984199523926,-0.11837416887283325,-0.000857482897117734,-0.02493893727660179,-0.056373775005340576,-0.14047475159168243,0.044340603053569794,0.0307026170194149,-0.03120862878859043,0.07596716284751892,0.06732861697673798,0.0665612742304802,0.018100379034876823,-0.04752426594495773,-0.032969895750284195,-0.014320123940706253,-0.015448123216629028,-7.431491394527256e-05,0.3944491446018219,-0.057539645582437515,-0.5096306204795837,-0.03905806690454483,0.8143909573554993,0.016111383214592934,-0.8537076711654663,-0.025989370420575142,-0.17568938434123993,0.041702184826135635,0.9548415541648865,0.021348698064684868,0.9847119450569153,-0.019408464431762695,-0.6606723070144653,-0.035418279469013214,0.2806134521961212,0.0019118718337267637,0.0024552831891924143,-0.03517257422208786,-0.28231170773506165,0.07038597762584686,-0.42074668407440186,-0.08719047904014587,0.052236877381801605,-0.05746767669916153,-0.8317810297012329,0.035937026143074036,0.21250241994857788,-0.05611976608633995,0.3278770446777344,-0.06146871671080589,-0.23753155767917633,0.12205368280410767,-0.0102766752243042,0.12606656551361084,0.12744371592998505,-0.029874183237552643,0.12698625028133392,-0.018311243504285812,-0.026701418682932854,-0.08602041751146317,0.10544261336326599,-0.14153391122817993,-0.11089832335710526,-0.009726721793413162,0.08720548450946808,-0.21499042212963104,0.19963477551937103,-0.14019940793514252,-0.22931507229804993,0.09451843053102493,0.038479600101709366,-0.11063162982463837,-0.12990985810756683,0.06517820805311203,-0.0472138337790966,0.24119727313518524,-0.1836138665676117,0.07310127466917038,0.09510713815689087,-0.11389046907424927,0.4537133574485779,0.4878581166267395,-0.0037131542339920998,0.0538606233894825,-0.10014031827449799,0.3165245056152344,-0.023864394053816795,-0.25615397095680237,-0.00892608892172575,-0.2110510617494583,-0.10569585859775543,-0.0981312021613121,0.2933177351951599,-0.1478278636932373,0.06956839561462402,0.35432082414627075,-0.0226884838193655,-0.1482258439064026,0.19965077936649323,-0.10861748456954956,-0.05207468569278717,-0.11469768732786179,-0.07029736787080765,0.039967283606529236,-0.008330835029482841,0.04296721890568733,-0.24308064579963684,0.046754371374845505,0.06864607334136963,-0.0429748110473156,0.13036465644836426,0.23615415394306183,-0.19902116060256958,-0.04553966969251633,-0.11884494870901108,-0.236318901181221,-0.28643083572387695,0.2720663547515869,0.2781473994255066,0.04730098694562912,0.032758407294750214,-0.3383342921733856,0.0006469793734140694,0.048384957015514374,0.11810079216957092,0.340661883354187,-0.12400678545236588,0.2453049272298813,-0.41227468848228455,-0.2505338788032532,-0.2602657079696655,-0.039432093501091,0.050969868898391724,0.0600014291703701,0.36405420303344727,0.14834482967853546,0.19149063527584076,0.1376531422138214,0.15855149924755096,0.07914448529481888,-0.09604250639677048,0.014365900307893753,-0.06884752959012985,-0.09243892878293991,-0.04501231014728546,-0.06890179216861725,0.09506940096616745,0.022663064301013947,0.30485883355140686,0.17246674001216888,-0.39802971482276917,-0.10736077278852463,0.16693493723869324,0.06634795665740967,0.07860392332077026,-0.24847711622714996,-0.23554697632789612,0.12827524542808533,0.14962643384933472,-0.2724362015724182,0.20701177418231964,-0.05980926379561424,0.18086481094360352,0.0289556123316288,0.2782846987247467,-0.25501859188079834,-0.22617630660533905,0.1922837495803833,0.24618634581565857,0.027213910594582558,0.1712460219860077,-0.21314822137355804,0.1586667001247406,-0.1649063229560852,0.02019510604441166,-0.19147437810897827,-0.08723573386669159,-0.012541807256639004,-0.10661827772855759,-0.057006046175956726,-0.23018261790275574,-0.20823445916175842,0.02247883751988411,-0.03424160182476044,-0.13796326518058777,-0.15310607850551605,-0.1856030821800232,-0.24316957592964172,0.12753397226333618,0.07765315473079681,-0.008653118275105953,-0.15639179944992065,0.15609216690063477,0.08842482417821884,-0.15240587294101715,-0.04314040392637253,0.3561437726020813,-0.3238160312175751,-0.3444102108478546,0.19835855066776276,0.3259456157684326,-0.19534282386302948,0.16223976016044617,0.0740770548582077,0.26927927136421204,0.012365072034299374,0.17825815081596375,0.021845057606697083,-0.05495317652821541,0.07301032543182373,0.07507811486721039,0.18034838140010834,-0.24822257459163666,0.16349637508392334,-0.1287718266248703,-0.22568339109420776,0.05150642618536949,-0.009867312386631966,0.023896589875221252,-0.07149764150381088,-0.17110034823417664,-0.08048032224178314,-0.11217767000198364,0.13891427218914032,0.059608180075883865,0.2497437447309494,-0.2583552896976471,-0.13023899495601654,0.049343228340148926,0.009009307250380516,0.10740867257118225,-0.1029176190495491,-0.09092072397470474,-0.08467350155115128,0.008943368680775166,-0.31067341566085815,0.49871355295181274,-0.17194229364395142,-0.3910156786441803,0.22147652506828308,-0.6394113302230835,-0.8256360292434692,-0.021653102710843086,0.02115905098617077,0.03680342435836792,0.0646311417222023,0.10846272110939026,-0.22778810560703278,-0.03831610456109047,0.20710255205631256,0.1888343244791031,-0.02839754894375801,-0.37485364079475403,0.023989595472812653,0.23305346071720123,-0.12236844003200531,-0.0651848241686821,0.15397629141807556,0.01155058667063713,-0.19563430547714233,-0.09006381034851074,0.09642776101827621,-0.24185600876808167,0.29116854071617126,0.27019384503364563,0.012735557742416859,0.013647987507283688,-0.2418767809867859,0.008990726433694363,-0.061467837542295456,-0.181845024228096,-0.08894433081150055,-0.10458112508058548,0.09232961386442184,-0.1456921249628067,0.36482277512550354,-0.16744057834148407,0.05534600839018822,0.41486549377441406,-0.17869465053081512,0.07907833158969879,0.13738608360290527,-0.4546746015548706,0.3162693381309509,0.03680400922894478,0.12662093341350555,0.3620648980140686,0.46271419525146484,-0.32664018869400024,-0.018477007746696472,0.4126215875148773,0.1203160211443901,0.3491920828819275,-0.1518913358449936,-0.223077192902565,0.32237017154693604,0.3044508397579193,0.40896761417388916,-0.07485365122556686,0.12257026135921478,-0.2779015600681305,-0.31147345900535583,0.3714331090450287,0.055287472903728485,0.3599744141101837,0.683836817741394,0.15235793590545654,0.014590388163924217,0.3172639012336731,-0.20450668036937714,-0.16046500205993652,0.049088701605796814,0.17683814465999603,0.027148412540555,0.05557132884860039,-0.24569205939769745,0.14343594014644623,-0.011042150668799877,0.030197961255908012,0.024712877348065376,0.17025551199913025,-0.029831858351826668,0.037573836743831635,0.0693335235118866,0.10029566287994385,0.11354327946901321,-0.045000120997428894,0.21541419625282288,-0.17083775997161865,0.04300238564610481,0.09128640592098236,-0.3214177191257477,-0.07076143473386765,-0.09272772073745728,-0.1528063714504242,-0.0518391877412796,-0.0077335708774626255,0.44338294863700867,-0.03637136146426201,0.02112211287021637,0.06452309340238571,-0.07907181233167648,0.2134350836277008,0.29666486382484436,-0.06632779538631439,-0.1961262971162796,-0.17723314464092255,0.07513801008462906,-0.06605302542448044,-0.09406077861785889,-0.03569292277097702,-0.16934247314929962,-0.2912027835845947,-0.017153004184365273,0.1552707403898239,-0.3784547448158264,0.1910599321126938,-0.22225914895534515,-0.23957380652427673,0.021269692108035088,-0.025161586701869965,-0.12196584045886993,0.013828394003212452,-0.11131271719932556,-0.26434484124183655,0.17680220305919647,0.05935158580541611,0.31044167280197144,-0.07401210814714432,-0.05217538774013519,-0.01589982397854328,0.11582732200622559,0.3330562114715576,-0.1848253756761551,0.025714203715324402,0.050228942185640335,-0.12325069308280945,0.11403492093086243,0.39813297986984253,-0.17251935601234436,0.06925268471240997,-0.030267883092164993,0.004409224260598421,-0.10996097326278687,0.09911152720451355,0.05584368109703064,-0.20292460918426514,-0.26727885007858276,0.2571048140525818,-0.0722750723361969,-0.02467784471809864,0.22395049035549164,-0.14459377527236938,-0.2132117599248886,-0.2940845787525177,0.03946731239557266,0.1569148153066635,0.1733788549900055,-0.02801397256553173,-0.2768298387527466,0.051656972616910934,0.24079985916614532,0.31826356053352356,-0.5169000625610352,-0.2741886079311371,0.12958207726478577,0.08591578155755997,0.04532596841454506,0.21532414853572845,-0.015495450235903263,0.08661773055791855,0.06841462105512619,-0.10860422253608704,0.11127181351184845,0.30027544498443604,0.21110664308071136,0.10777353495359421,-0.3674030601978302,-0.14384400844573975,-0.11291611939668655,-0.037426698952913284,0.2679736316204071,0.14962546527385712,-0.03068333864212036,-0.06007911264896393,0.05675772577524185,0.053674716502428055,0.035527247935533524,-0.03766621649265289,-0.12950731813907623,0.1320372074842453,-0.04215678200125694,0.07858456671237946,0.042705196887254715,0.11876767128705978,0.0781523734331131,0.16207747161388397,-0.10706555843353271,-0.04653751850128174,0.05495017021894455,-0.10638446360826492,0.06822202354669571,0.0027263169176876545,-0.1420448124408722,-0.03832831606268883,-0.0536109060049057,0.09915778040885925,-0.12732423841953278,-0.23120315372943878,-0.1978234499692917,0.10866247117519379,-0.007805239409208298,0.1694153994321823,0.0777636170387268,-0.1855785846710205,0.0054217553697526455,-0.054104771465063095,-0.01951514557003975,-0.08448544889688492,0.043462879955768585,-0.1900469958782196,0.11934220045804977,0.08505301922559738,-0.11105018109083176,0.09956299513578415,0.0886843129992485,0.1255713254213333,0.0818435475230217,0.15774890780448914,-0.11649174988269806,-0.012017928063869476,-0.027062999084591866,0.2644312083721161,0.026048021391034126,-0.11833879351615906,0.034916844218969345,0.013861243613064289,-0.2137613594532013,-0.10607846826314926,-0.09559118747711182,-0.08873472362756729,-0.12458813935518265,0.09329169243574142,0.08564689010381699,0.09361093491315842,0.08612187206745148,0.045328427106142044,-0.2169637829065323,-0.009677902795374393,0.10368829220533371,0.2164284735918045,-0.035440776497125626,0.04517852142453194,0.0376538410782814,-0.2237708866596222,0.009140090085566044,0.15198031067848206,-0.087619848549366,-0.04817868024110794,0.14191970229148865,0.3170660138130188,0.3580856919288635,0.04481096193194389,0.1202702671289444,-0.20883357524871826,0.14545553922653198,-0.1328285038471222,-0.11147209256887436,0.12837369740009308,0.10067915916442871,0.10664281249046326,-0.1186206117272377,-0.15337993204593658,0.02547333389520645,-0.15331299602985382,-0.027175679802894592,-0.018651962280273438,0.1283249706029892,0.10551463812589645,-0.08250071853399277,-0.046820636838674545,0.1293191760778427,-0.12546849250793457,-0.11336051672697067,0.041257988661527634,0.04659894108772278,0.033205725252628326,0.02780403010547161,-0.14145655930042267,-0.12536191940307617,-0.0437215194106102,0.004585809074342251,0.031429532915353775,-0.20248354971408844,-0.026531990617513657,0.02770521491765976,0.0334574356675148,0.19692935049533844,0.13311660289764404,0.1278303861618042,-0.11258639395236969,-0.10877104103565216,-0.10990508645772934,0.05707966536283493,0.08658050000667572,-0.09393198043107986,-0.09071878343820572,-0.24004992842674255,0.36214959621429443,0.09005951136350632,-0.23622842133045197,-0.2711572051048279,0.1343778520822525,-0.020238878205418587,0.006411614827811718,-0.028090285137295723,0.023909227922558784,-0.005670981016010046,-0.17867319285869598,0.03247436136007309,-0.19258888065814972,-0.00015694950707256794,0.11016849428415298,0.03421454876661301,0.07632012665271759,-0.0071776085533201694,-0.060533370822668076,-0.03896765410900116,0.11889311671257019,-0.07621677964925766,0.10418922454118729,-0.10040446370840073,-0.01856560818850994,0.007461617700755596,-0.08026392012834549,0.017722416669130325,0.042258087545633316,-0.07081173360347748,0.1282029002904892,0.10285329818725586,0.06571444123983383,-0.13459061086177826,-0.04181452840566635,0.036302853375673294,-0.008043436333537102,0.17871014773845673,0.34044280648231506,0.0610768087208271,-0.031114619225263596,-0.00987023115158081,-0.07490519434213638,-0.1360693871974945,0.15497155487537384,-0.11350062489509583,0.02878921665251255,0.1897326409816742,0.34450310468673706,0.5604906678199768,-0.2187924087047577,0.06612452119588852,0.04664073511958122,0.015459233894944191,-0.11529165506362915,0.09738115966320038,0.0346166156232357,0.04043743759393692,-0.14718802273273468,-0.33350300788879395,-0.07947590947151184,-0.08142463117837906,0.0023820679634809494,0.07888026535511017,0.04037591814994812,0.0147001463919878,0.26023808121681213,-0.08866719901561737,-0.10802652686834335,-0.11505158990621567,0.15569250285625458,0.05914551764726639,-0.05941496789455414,-0.10165171325206757,-0.2043548971414566,-0.0638531893491745,-0.1359630972146988,0.38735252618789673,0.16515812277793884,0.07674963772296906,0.3051210343837738,0.2326725870370865,0.2533872127532959,0.10324865579605103,0.15620821714401245,-0.020596973598003387,-0.09239163994789124,-0.14716754853725433,-0.061382394284009933,0.09484152495861053,0.06980516016483307,-0.003386016236618161,0.018716013059020042,-0.00681948522105813,0.18109144270420074,-0.36733388900756836,-0.3049931824207306,-0.09449164569377899,0.30562421679496765,0.17701810598373413,0.30712610483169556,0.015697026625275612,0.14068186283111572,-0.07551966607570648,-0.17506393790245056,-0.1266782432794571,-0.03745578974485397,0.1649429053068161,0.21566139161586761,0.03831106424331665,-0.18527624011039734,0.01745457388460636,0.16152571141719818,-0.03846237435936928,-0.016206661239266396,-0.06303510069847107,-0.26175928115844727,-0.07575353980064392,0.15199419856071472,-0.12075576931238174,-0.08122087270021439,-0.05636546015739441,0.022870875895023346,-0.20436525344848633,-0.13807976245880127,0.3562782108783722,0.04593119025230408,-0.09422094374895096,-0.09603892266750336,-0.03711410611867905,-0.005589642096310854,0.23903357982635498,0.04065422713756561,-0.03704927861690521,-0.12593773007392883,-0.2438158243894577,0.1857742816209793,0.22708860039710999,0.20282964408397675,-0.05008906498551369,-0.13840606808662415,-0.19870328903198242,0.05047641322016716,0.4469403624534607,-0.2428964227437973,0.1709734946489334,-0.26858848333358765,-0.05513157695531845,-0.07642979174852371,-0.18174509704113007,-0.04040928930044174,-0.10082195699214935,-0.042111922055482864,0.011959913186728954,0.14114084839820862,0.0013220816617831588,0.18821486830711365,-0.03286712244153023,0.17000584304332733,0.12855713069438934,-0.08729687333106995,-0.20315121114253998,-0.22428534924983978,-0.22343863546848297,0.16411110758781433,0.0410098098218441,0.10980996489524841,0.08256728947162628,-0.06408130377531052,-0.12119383364915848,0.1559816598892212,0.11215411126613617,0.08070196956396103,-0.13990843296051025,0.12609536945819855,0.09910466521978378,0.02009122632443905,0.004406943917274475,-0.022049564868211746,-0.16847622394561768,-0.051502421498298645,0.1400611698627472,0.013490327633917332,-0.11394181102514267,0.09476573020219803,-0.04948485270142555,0.09149226546287537,-0.13190513849258423,0.03346949443221092,-0.13947977125644684,-0.20336510241031647,0.1815861016511917,0.1654828041791916,0.34091171622276306,-0.04291369393467903,0.03608109429478645,0.033030908554792404,0.01442283671349287,-0.022063810378313065,-0.13456927239894867,0.03239552676677704,-0.1419999748468399,-0.03235192969441414,-0.11559250950813293,-0.10252327471971512,-0.12070876359939575,0.13531389832496643,0.016261151060461998,-0.05502687394618988,-0.23330576717853546,0.032050054520368576,-0.011120570823550224,-0.058616071939468384,-0.09568636119365692,0.002689026528969407,-0.001233019051142037,0.09820234030485153,0.011673211120069027,0.13218989968299866,-0.0805567055940628,0.015061823651194572,-0.2519361674785614,-0.021975237876176834,0.026398859918117523,0.02470463141798973,0.06432431191205978,0.06786779314279556,-0.23512884974479675,0.13264590501785278,0.1345720887184143,0.05438501015305519,0.10658684372901917,0.04375692829489708,-0.15744808316230774,-0.06492504477500916,0.01115532498806715,0.004864320624619722,0.00210243440233171,0.10321864485740662,0.7207567095756531,-0.20960599184036255,0.3308880627155304,-0.006098627112805843,-0.1372475028038025,-0.07401784509420395,-0.03147698938846588,0.1175123080611229,0.10593626648187637,0.009493732824921608,-0.2935406565666199,0.08316025882959366,-0.2040231078863144,0.05116821080446243,-0.16787640750408173,0.07682788372039795,0.1511925756931305,-0.06371161341667175,-0.13440433144569397,0.2113001048564911,-0.028852388262748718,0.35293102264404297,0.1406496912240982,0.12544476985931396,-0.03677702695131302,-0.014641597867012024,0.026915285736322403,0.05119076371192932,-0.034939493983983994,-0.23612062633037567,-0.30633100867271423,-0.10066604614257812,-0.028451789170503616,-0.1841762512922287,0.1913551688194275,0.2921668589115143,-0.3465098440647125,0.022459637373685837,0.09504400193691254,0.3057801425457001,0.2849287986755371,0.20445267856121063,-0.2873977720737457,-0.27617543935775757,-0.1005333960056305,0.45999202132225037,0.17192848026752472,0.06184757128357887,0.30866149067878723,-0.16660431027412415,-0.4775097966194153,0.48459479212760925,0.001026426674798131,0.16646268963813782,0.076359823346138,0.12435054779052734,0.25139155983924866,0.6527684926986694,0.09029871225357056,-0.040083013474941254,-0.45815813541412354,-0.29549992084503174,0.18308959901332855,0.05212936922907829,-0.04022324085235596,-0.14487014710903168,-0.10816450417041779,-0.08186577260494232,-0.22795139253139496,-0.1200578361749649,0.10019133985042572,0.04046498239040375,0.05982876196503639,0.06618965417146683,0.027784382924437523,0.1287783831357956,0.10758287459611893,-0.03469368442893028,-0.008429339155554771,0.12401513755321503,0.07909740507602692,-0.24832198023796082,-0.19611774384975433,0.018866389989852905,0.13339565694332123,0.15792004764080048,0.1089405044913292,0.11600548774003983,-0.11327560245990753,-0.1255517303943634,-0.13275952637195587,0.13331906497478485,0.0192037895321846,-0.202785462141037,-0.05737386643886566,-0.18365275859832764,0.28218910098075867,0.25060445070266724,0.24113351106643677,-0.1212616115808487,-0.16305385529994965,0.013949315994977951,0.07782956212759018,0.0270852018147707,-0.049818385392427444,0.14851850271224976,0.008481279015541077,-0.1950516700744629,-0.25890642404556274,-0.06583928316831589,0.06606461852788925,0.10030827671289444,0.16501431167125702,0.027533018961548805,0.0527021549642086,0.0513223297894001,-0.04739532992243767,0.21488119661808014,0.16941159963607788,0.004665371496230364,0.021377407014369965,0.014546088874340057,-0.06724592298269272,0.14441834390163422,0.00989040732383728,-0.08451694995164871,-0.16395488381385803,-0.14028781652450562,0.16371293365955353,-0.08708320558071136,-0.2352471798658371,-0.07147424668073654,-0.25025174021720886,-0.18734723329544067,0.016763154417276382,-0.0506659597158432,0.16024664044380188,0.1015353724360466,-0.12494165450334549,-0.07486431300640106,-0.15427593886852264,0.2783054709434509,0.24623359739780426,0.04427524656057358,0.236033633351326,-0.07052115350961685,0.11066608875989914,0.2630396783351898,-0.016203606501221657,0.06093401089310646,-0.07351808995008469,-0.11344615370035172,-0.13701440393924713,0.20804104208946228,-0.006991241127252579,0.06189756467938423,-0.040750496089458466,-0.043098218739032745,-0.05629485100507736,-0.06702268868684769,-0.10503757745027542,0.05796190723776817,0.036917105317115784,0.21930226683616638,0.24547412991523743,0.08896250277757645,-0.10025171935558319,0.1487187296152115,-0.06750435382127762,0.020742394030094147,-0.006436902564018965,-0.08094868808984756,-0.010152648203074932,0.12929227948188782,-0.04844924435019493,0.029112275689840317,-0.16945157945156097,0.13006383180618286,0.229050874710083,0.17266377806663513,0.11114189028739929,-0.016924843192100525,-0.06285533308982849,0.0009022256126627326,-0.11153431981801987,0.20171386003494263,0.09700270742177963,-0.11711536347866058,0.09643755108118057,0.0643092468380928,0.1676608920097351,0.05120234191417694,0.0516904816031456,-0.4642522633075714,-0.17145958542823792,-0.04380916804075241,0.19498474895954132,-0.13747461140155792,0.14999563992023468,0.01680038310587406,-0.06192684918642044,-0.09238626807928085,-0.03538406267762184,-0.12581907212734222,0.08148889988660812,0.1269921511411667,0.08492280542850494,-0.1717030107975006,-0.020533520728349686,-0.1627783328294754,-0.04315095767378807,0.12620413303375244,0.07537678629159927,-0.23499050736427307,0.14000704884529114,0.0024650173727422953,-0.09673956036567688,0.0049808574840426445,-0.06389136612415314,-0.1501816064119339,0.13116835057735443,-0.08915804326534271,0.47858840227127075,-0.10299503803253174,-0.14428304135799408,0.2594160735607147,0.09432556480169296,0.24814049899578094,0.2649112343788147,-0.06812746077775955,-0.05353827401995659,-0.11806201934814453,-0.09137239307165146,-0.017522145062685013,0.03710342198610306,-0.15263955295085907,0.1688811480998993,-0.1529626101255417,0.18956534564495087,0.13739410042762756,-0.3973263204097748,-0.019640890881419182,-0.6956186890602112,0.11209456622600555,0.2759140431880951,0.04413391277194023,-0.010067925788462162,-0.08005905896425247,-0.016274722293019295,-0.4286147654056549,0.07025013864040375,-0.16631042957305908,0.5713397264480591,0.04197757691144943,0.15478351712226868,-0.1101081371307373,-0.051073428243398666,-0.28120294213294983,0.05277039483189583,0.08161165565252304,0.022662311792373657,0.11044624447822571,-0.006140881683677435,0.0007036790484562516,0.21458904445171356,0.1487221121788025,-0.019834525883197784,0.004571136552840471,-0.006497562862932682,0.08422486484050751,-0.2569942772388458,-0.20533177256584167,-0.03239620104432106,-0.004942961037158966,0.12560416758060455,-0.23455950617790222,-0.11572296917438507,-0.16616879403591156,-0.1290896087884903,-0.02767004445195198,-0.08392078429460526,-0.07831738889217377,-0.14674876630306244,0.16298933327198029,0.2158127725124359,0.13705071806907654,0.1315137892961502,-0.15628871321678162,-0.16748346388339996,-0.6260195374488831,-0.20966531336307526,0.044989414513111115,-0.08475175499916077,0.05452635884284973,0.0783122107386589,0.12566541135311127,-0.11879867315292358,0.11243234574794769,-0.17384204268455505,0.0005924680735915899,-0.083480603992939,0.2220405489206314,0.18522348999977112,0.22418265044689178,0.11912597715854645,0.021673275157809258,0.19231364130973816,-0.05964242294430733,0.1931914985179901,0.21884237229824066,0.1245938092470169,-0.04826311767101288,-0.10946795344352722,0.07813369482755661,0.05868792533874512,0.13715581595897675,0.045010410249233246,0.09265637397766113,-0.14426405727863312,-0.37633374333381653,-0.04203687608242035,0.02825731411576271,-0.03726878762245178,0.3120441734790802,-0.009072373621165752,-0.4118860960006714,0.0013345992192626,0.33864855766296387,0.04184449464082718,-0.7462174296379089,-0.03411249443888664,-0.4101567566394806,-0.060795195400714874,-0.38988393545150757,0.029097026214003563,0.9804331660270691,0.023835325613617897,-0.9378135800361633,0.0513288639485836,-0.5354362726211548,0.01239166222512722,-0.862639844417572,0.08222555369138718,0.21982812881469727,-0.016146857291460037,-0.8142586946487427,-0.07976619154214859,0.3212530314922333,-0.022416360676288605,-0.7585732340812683,0.037052519619464874,-0.22622910141944885,-0.3668335974216461,0.007546167820692062,0.3255373537540436,0.24295194447040558,0.02047211304306984,-0.30930259823799133,-0.15215946733951569,-0.04249679297208786,-0.11590315401554108,0.09549148380756378,0.15676511824131012,0.255795419216156,-0.05568680539727211,-0.13732674717903137,0.01843424327671528,-0.1845802217721939,-0.3343227803707123,-0.05405723303556442,0.062326569110155106,-0.26632434129714966,0.22022531926631927,-0.041288308799266815,-0.25608140230178833,0.3976172208786011,0.017469553276896477,0.037414535880088806,0.15119138360023499,0.10472550243139267,-0.11708204448223114,0.09793777018785477,0.31291311979293823,-0.21354737877845764,-0.08202753961086273,0.02495279349386692,0.005535350181162357,0.05168239772319794,0.009039973840117455,0.013662179000675678,0.016605941578745842,-0.04127250611782074,-0.0016522386576980352,-0.35660332441329956,-0.3964189291000366,-0.04628085717558861,0.2553045153617859,0.14640098810195923,0.12627068161964417,0.1070643737912178,0.14419671893119812,-0.1539376974105835,-0.17296229302883148,-0.2823415696620941,0.04745444282889366,-0.10745551437139511,-0.04656803980469704,-0.2048993706703186,0.08247434347867966,0.13336682319641113,0.29580166935920715,0.248622864484787,0.13813452422618866,-0.010036603547632694,0.03267952427268028,0.2764822840690613,-0.06810035556554794,-0.07711335271596909,-0.20807012915611267,0.15712566673755646,-0.062348850071430206,0.0463649146258831,0.39192140102386475,0.365011602640152,0.18234139680862427,-0.15252000093460083,0.21285821497440338,-0.229898601770401,-0.21807768940925598,-0.11495891958475113,-0.12989287078380585,-0.3193923532962799,-0.27581244707107544,-0.28179359436035156,-0.07518111914396286,0.10280310362577438,-0.15857121348381042,0.00890099722892046,-0.02212458848953247,0.16551576554775238,0.44212549924850464,-0.019986940547823906,-0.09073954075574875,-0.21581172943115234,-0.4266223609447479,0.06431785970926285,0.14378158748149872,0.01802293211221695,-0.288379043340683,0.26767534017562866,-0.11616390943527222,0.2124195545911789,0.2997978925704956,-0.37219083309173584,-0.2982843220233917,0.27115118503570557,-0.009293639101088047,-0.18054699897766113,0.27845498919487,0.22783280909061432,-0.6015523672103882,-0.2477637529373169,0.19068530201911926,0.21909089386463165,0.006969022564589977,0.028763290494680405,0.023825014010071754,0.1837189942598343,-0.17328184843063354,-0.04844202101230621,0.13151396811008453,-0.17261500656604767,0.116287462413311,-0.1844969093799591,0.056236498057842255,-0.23420599102973938,0.06103932857513428,0.14850202202796936,0.018609249964356422,0.06518294662237167,0.17636078596115112,-0.22648513317108154,-0.08283083140850067,-0.2119627147912979,-0.20604541897773743,0.039197247475385666,-0.19783459603786469,-0.21591651439666748,-0.35524681210517883,0.20346708595752716,-0.33582720160484314,0.04293372854590416,0.41425222158432007,-0.012500889599323273,0.2384166121482849,-0.07094382494688034,-0.1343156099319458,-0.11693118512630463,0.15948767960071564,0.3186948001384735,-0.14530162513256073,0.028903746977448463,-0.11564651876688004,-0.03535772114992142,-0.12398625165224075,0.15159796178340912,0.0974901095032692,0.19419170916080475,-0.7023181915283203,0.11360522359609604,-0.15779000520706177,-0.20401103794574738,-0.25103959441185,-0.10449795424938202,0.23393653333187103,0.046604130417108536,-0.022702252492308617,-0.04824743792414665,-0.08416639268398285,0.2915794551372528,0.1854373663663864,-0.20844048261642456,0.11217203736305237,0.2358279973268509,-0.12862201035022736,-0.06959445029497147,0.0681333988904953,0.0021933983080089092,0.1599237024784088,-0.26196688413619995,-0.09488710016012192,-0.25318601727485657,-0.15198194980621338,0.010721074417233467,0.15559054911136627,-0.13682317733764648,0.25087791681289673,0.26019561290740967,-0.0008201851160265505,0.04736706241965294,0.261826753616333,0.05277041718363762,-0.055006444454193115,-0.0716186910867691,-0.09745355695486069,-0.154068261384964,0.14610706269741058,0.006710721179842949,-0.060260891914367676,-0.1018747016787529,0.15419980883598328,-0.229312464594841,-0.2595793306827545,-0.2163897454738617,-0.18392245471477509,0.16300299763679504,-0.02406197227537632,0.05681491643190384,-0.04757232218980789,0.09014980494976044,0.13395395874977112,-0.21543024480342865,0.3453502357006073,-0.18256999552249908,0.058765821158885956,-0.02808176726102829,-0.15859968960285187,0.3137997090816498,0.0336880125105381,-0.021477706730365753,-0.026189200580120087,0.29384881258010864,0.017172304913401604,0.08380904048681259,-0.11227502673864365,-0.011502381414175034,0.2743627727031708,0.08036790043115616,-0.1631290316581726,-0.23540851473808289,-0.23554116487503052,0.2553294003009796,0.06066761910915375,-0.15816833078861237,0.1400071084499359,-0.2561408281326294,-0.10177057981491089,-0.1972724199295044,0.26153364777565,0.2388995736837387,0.2357790321111679,0.2630349397659302,-0.3613396883010864,-0.06269267946481705,0.06258667260408401,-0.30159494280815125,0.13968418538570404,-0.3726658523082733,0.15534384548664093,0.14018972218036652,-0.046144627034664154,0.3326247036457062,0.31080079078674316,-0.16566133499145508,0.19892080128192902,-0.35466888546943665,-0.2924988567829132,-0.09006492793560028,0.11230739206075668,0.17008568346500397,-0.055218521505594254,-0.1500578224658966,0.1453554630279541,0.18297532200813293,0.22945500910282135,0.07632962614297867,0.006828105542808771,0.14704468846321106,-0.20884855091571808,0.0494530126452446,-0.30613261461257935,-0.061530545353889465,-0.053587138652801514,0.05892740562558174,-0.06442033499479294,-0.026636559516191483,0.0097445547580719,-0.1591639369726181,-0.04123019054532051,-0.15540531277656555,-0.08079821616411209,-0.1497737020254135,0.13910990953445435,-0.03968118131160736,-0.025646822527050972,0.2103603184223175,0.08291896432638168,0.0007923387456685305,0.15194477140903473,0.017240291461348534,0.04142645746469498,-0.06821933388710022,-0.12507610023021698,-0.05366988107562065,-0.03698364272713661,0.02393176220357418,-0.15052400529384613,-0.15246576070785522,0.11263351887464523,-0.029828961938619614,0.014570001512765884,-0.005662339273840189,-0.04974294453859329,-0.12076462805271149,-0.02108534425497055,-0.04644881933927536,-0.01620972529053688,0.1856359988451004,0.05388258770108223,-0.0021480675786733627,-0.08663257956504822,0.05828448757529259,-0.10494982451200485,0.10388964414596558,-0.03358439728617668,0.16887573897838593,0.20430998504161835,-0.26501768827438354,0.25137558579444885,-0.1758979707956314,0.01421078946441412,-0.1141924038529396,-0.029686084017157555,0.05543464049696922,-0.13841581344604492,0.15254056453704834,-0.003086286364123225,-0.10512272268533707,-0.16933698952198029,-0.0005796659388579428,0.03290115296840668,0.04222336411476135,0.004880127497017384,0.18145440518856049,-0.07965443283319473,-0.09857389330863953,-0.25955846905708313,-0.15831921994686127,-0.17837855219841003,-0.06390044093132019,-0.17114953696727753,0.09882321953773499,-0.06240398809313774,-0.141276553273201,-0.07639915496110916,-0.012004664167761803,-0.011221736669540405,-0.11449387669563293,0.21543753147125244,0.20173236727714539,0.06393923610448837,-0.0032630094792693853,-0.014275838620960712,0.04891355335712433,-0.05592849478125572,-0.08485626429319382,-0.05719861015677452,0.03805217891931534,0.1898593008518219,0.022134961560368538,0.09161426872015,0.172383651137352,0.08481983095407486,-0.10261452943086624,-0.09915239363908768,0.020524561405181885,0.23605702817440033,0.2508799135684967,0.08125381171703339,0.11779392510652542,0.001012573717162013,-0.043749529868364334,0.08222389966249466,0.03285418823361397,-0.09479745477437973,0.060738787055015564,-0.19092291593551636,-0.19850154221057892,-0.22688165307044983,-0.09037960320711136,0.010572917759418488,-0.018185893073678017,-0.0693487673997879,0.1518218219280243,0.08841100335121155,0.18990834057331085,0.10680635273456573,0.04159645736217499,0.14740534126758575,0.05766187980771065,-0.012518822215497494,0.16868746280670166,0.13790646195411682,0.028825843706727028,-0.13570339977741241,-0.12351704388856888,0.03179018944501877,0.21055267751216888,-0.0034654850605875254,-0.14210247993469238,0.02527301013469696,-0.10356158018112183,0.018012642860412598,-0.05135748162865639,0.038249772042036057,0.0031414455734193325,-0.10716550797224045,-0.12215284258127213,-0.040628157556056976,-0.03296531364321709,-0.0715380534529686,0.016685331240296364,-0.3115730881690979,-0.04748823121190071,-0.16400602459907532,0.0465746708214283,0.3393174707889557,-0.0923871099948883,-0.11649485677480698,-0.04784715548157692,-0.13092130422592163,0.11946013569831848,-0.004155094735324383,0.08100089430809021,0.08260615170001984,-0.020988011732697487,0.0037681933026760817,-0.06988419592380524,-0.1871654987335205,0.044990163296461105,-0.05715232342481613,-0.007845397107303143,-0.08793939650058746,0.11689171940088272,0.10577499866485596,0.1884261816740036,0.09959862381219864,-0.07691802829504013,0.05943292751908302,0.1406233161687851,0.18665097653865814,-0.015812141820788383,-0.08223232626914978,-0.017107592895627022,0.004169133026152849,0.06395232677459717,-0.07097259163856506,-0.024583319202065468,-0.027680259197950363,-0.051165711134672165,0.01647231914103031,-0.2410469502210617,-0.17026415467262268,-0.011701490730047226,-0.10161302983760834,-0.1439570039510727,0.12553638219833374,-0.10389289259910583,-0.009757846593856812,-0.09193473309278488,-0.2079208344221115,0.32942938804626465,-0.1437559872865677,0.12954311072826385,0.12296045571565628,0.037758342921733856,-0.14567053318023682,0.061035193502902985,-0.0397697314620018,0.026674214750528336,0.08587893843650818,0.10715892165899277,0.35495811700820923,0.11339068412780762,0.061879198998212814,0.20103669166564941,-0.07922946661710739,-0.07126650214195251,0.10137369483709335,-0.03275211900472641,0.06036260351538658,-0.0051846797578036785,0.05934171378612518,-0.20774181187152863,-0.21409735083580017,0.061325911432504654,-0.0759243443608284,-0.16616074740886688,0.006544497329741716,-0.03089013323187828,-0.05667981505393982,0.07195807993412018,0.06421376019716263,-0.026418721303343773,0.04715031012892723,-0.03318383917212486,-0.002736255992203951,0.1269981861114502,-0.07609567046165466,0.23384954035282135,-0.16856174170970917,0.02310527302324772,0.08553190529346466,0.08185163885354996,-0.09142602235078812,-0.09491470456123352,0.15387584269046783,0.12398089468479156,0.10268951207399368,0.06664495915174484,0.13365750014781952,-0.2700020968914032,-0.2913130223751068,0.07731522619724274,0.028538186103105545,-0.1428953856229782,0.053994402289390564,-0.01955236867070198,-0.043160438537597656,0.1693132221698761,-0.05440463125705719,-0.07236048579216003,-0.001906848163343966,-0.15667374432086945,0.10322177410125732,-0.013797862455248833,-0.15086562931537628,-0.06446226686239243,-0.13434943556785583,0.05375024676322937,0.02970569208264351,-0.08880120515823364,0.09943893551826477,-0.05157089978456497,-0.11329664289951324,-0.13352827727794647,0.07278189808130264,0.05279964208602905,0.0156993567943573,-0.09761320799589157,-0.19806598126888275,-0.16044069826602936,0.060430414974689484,0.11652147769927979,-0.019863668829202652,0.010109134949743748,-0.19618800282478333,0.3007594645023346,-0.056715697050094604,0.18584862351417542,-0.23742416501045227,0.010563361458480358,-0.05396239086985588,-0.08481583744287491,0.061551883816719055,0.05027300491929054,0.09734759479761124,-0.08351213485002518,0.3838855028152466,0.06912177056074142,0.025202477350831032,-0.1820218563079834,-0.2926895022392273,0.015195685438811779,0.08836831897497177,-0.20340125262737274,-0.1096876934170723,0.05972876772284508,0.042048823088407516,-0.12888942658901215,-0.04486965015530586,0.09175389260053635,-0.005219424609094858,-0.025759344920516014,-0.0023278489243239164,0.07129260897636414,-0.03028157353401184,0.0798635259270668,0.010364125482738018,0.11877618730068207,-0.05620021000504494,-0.060667794197797775,0.16159243881702423,0.15256620943546295,-0.055207304656505585,-0.13671328127384186,-0.05342742055654526,0.10043498873710632,-0.12301870435476303,0.08303017169237137,-0.07292887568473816,-0.1380372792482376,-0.0858951061964035,-0.02486305497586727,-0.024540962651371956,0.01640176959335804,-0.07334514707326889,-0.07635179162025452,-0.04124271497130394,0.16965262591838837,0.003895115340128541,-0.06687100976705551,0.07658649981021881,-0.2658191919326782,0.04873687028884888,-0.07680069655179977,0.19921983778476715,-0.25543102622032166,0.0260807815939188,0.0052262251265347,0.2517365515232086,-0.2611319422721863,-0.03032325580716133,0.10411115735769272,0.06637509912252426,0.12328189611434937,0.4160566031932831,0.21703746914863586,-0.011292708106338978,0.02778601087629795,0.10644392669200897,-0.23916931450366974,-0.1445813626050949,-0.1379959136247635,-0.29819926619529724,-0.16774603724479675,-0.03366740792989731,-0.13563163578510284,-0.08937498182058334,-0.004936792887747288,-0.13475506007671356,-0.07223215699195862,-0.04483591765165329,0.05257868021726608,0.3316408395767212,-0.14512424170970917,-0.18862171471118927,-0.18060962855815887,-0.21360096335411072,0.1902885138988495,0.007716774009168148,0.24333015084266663,-0.16345703601837158,0.24054227769374847,-0.25882527232170105,0.3482508063316345,-0.00015972873370628804,0.3950755298137665,-0.018023746088147163,0.06306816637516022,0.10829515010118484,0.12149298191070557,-0.039778776466846466,0.06846727430820465,-0.0533883161842823,-0.4168415069580078,-0.0075310333631932735,-0.16585946083068848,0.024795157834887505,-0.011985640041530132,-0.02736743912100792,-0.058258019387722015,-0.04807094484567642,-0.02409382164478302,0.002869871212169528,0.022190865129232407,0.009406567551195621,0.19575034081935883,0.10482914000749588,-0.20926213264465332,-0.16293959319591522,-0.008697567507624626,-0.07264074683189392,-0.1452803760766983,-0.12089996784925461,0.10912833362817764,0.028364095836877823,-0.08360370993614197,0.10638776421546936,-0.17767062783241272,-0.029933175072073936,0.03793022409081459,0.05813520401716232,0.008905206806957722,0.030905168503522873,0.06409485638141632,0.14225558936595917,0.02076473832130432,0.037052977830171585,-0.07461265474557877,-0.22207032144069672,0.19040952622890472,-0.15289007127285004,-0.05365094542503357,0.08045846223831177,-0.006453994195908308,-0.061224550008773804,-0.13237500190734863,0.08839292079210281,0.29723575711250305,0.15408039093017578,0.030273331329226494,0.4148602783679962,0.25021952390670776,-0.22967134416103363,-0.2335018813610077,-0.21048100292682648,-0.1296474039554596,0.026977088302373886,0.02066844515502453,0.08828720450401306,-0.16476134955883026,-0.038094449788331985,0.07277687638998032,-0.07563319802284241,-0.030647410079836845,-0.11900116503238678,0.0031098315957933664,0.0322745256125927,0.012838590890169144,-0.022191589698195457,-0.07171516120433807,-0.05368443578481674,-0.1735750287771225,-0.15353985130786896,-0.1348126232624054,0.09073570370674133,-0.12122316658496857,-0.09875804930925369,-0.09340977668762207,-0.1276852786540985,0.11952918767929077,0.17347867786884308,-0.10086160153150558,0.02366631291806698,-0.06706652045249939,-0.135226771235466,-0.014523275196552277,-0.15495719015598297,0.2178749144077301,-0.15096955001354218,0.0015289454022422433,0.04378587007522583,0.054033294320106506,-0.10203259438276291,-0.13686782121658325,0.0713791698217392,-0.06362272053956985,0.219739630818367,-0.2700260281562805,0.2374332696199417,-0.03148572891950607,-0.07236365973949432,-0.18129219114780426,-0.15325427055358887,0.06336530297994614,-0.0734989121556282,-0.03625375032424927,0.257974773645401,-0.07921810448169708,0.16755425930023193,0.286348819732666,-0.00771537097170949,0.08281832933425903,0.08777683228254318,0.1477026492357254,-0.11449279636144638,0.03958062082529068,0.006819886155426502,-0.022694824263453484,-0.04206288605928421,0.08237726241350174,0.022178085520863533,0.03697231784462929,0.1435392051935196,0.124509796500206,-0.0033680936321616173,-0.028437811881303787,0.09997929632663727,0.051298726350069046,0.04553024843335152,-0.01869901269674301,0.004164703190326691,-0.16390521824359894,-0.13294526934623718,0.3021242320537567,0.09936835616827011,-0.22262880206108093,0.014932971447706223,0.06925295293331146,0.11602824181318283,0.049883946776390076,0.06722380220890045,-0.09146568179130554,0.026436520740389824,-0.10277420282363892,0.09266527742147446,-0.17691022157669067,-0.04553576931357384,-0.2923516631126404,-0.1224261149764061,0.01533366646617651,-0.08264395594596863,0.1650162637233734,-0.06589820981025696,-0.035156186670064926,0.02542068436741829,-0.018032293766736984,-0.012290554121136665,0.05331244692206383,-0.0948438048362732,0.06835298985242844,0.10681311041116714,0.2193833887577057,0.10585043579339981,0.11242789775133133,-0.05955859273672104,0.1301192343235016,-0.05802387744188309,-0.1004621759057045,0.09855865687131882,0.01709923706948757,0.0856739729642868,-0.08514988422393799,-0.1379263997077942,-0.21244579553604126,-0.11856827139854431,-0.1672932654619217,-0.19841857254505157,-0.08480408042669296,-0.07967663556337357,-0.21085968613624573,-0.06489667296409607,-0.11475194990634918,0.29111209511756897,0.09934677183628082,0.10814572125673294,-0.2193729430437088,-0.01960558444261551,0.020074522122740746,-0.15686604380607605,-0.17373783886432648,0.10728872567415237,0.043355219066143036,0.0667511522769928,0.054851338267326355,-0.05786567181348801,-0.11964541673660278,-0.0241647157818079,0.03492889180779457,0.03779089078307152,0.2738628387451172,0.0967707633972168,0.0885138288140297,-0.06767832487821579,-0.21538622677326202,-0.2759779691696167,0.02762540802359581,-0.05637156590819359,-0.03563899174332619,-0.03969602286815643,0.11251340806484222,0.10935566574335098,0.14174947142601013,-0.0487520731985569,0.06928881257772446,0.07337974011898041,0.04163592308759689,0.2369685024023056,0.03627675399184227,0.03532971069216728,-0.11797967553138733,-0.06387663632631302,-0.04944221302866936,-0.30135199427604675,-0.11101077497005463,-0.003071847837418318,0.20074976980686188,-0.01972283609211445,0.09987236559391022,0.2290113866329193,0.12816201150417328,0.15090246498584747,-0.1350940763950348,0.24855680763721466,-0.21736864745616913,-0.061887435615062714,-0.2754383981227875,0.1618882268667221,0.17550478875637054,0.07619553804397583,-0.14025412499904633,-0.09338369965553284,-0.10551787912845612,0.048878367990255356,-0.03977268934249878,0.13545288145542145,0.1450912356376648,0.07241914421319962,-0.06256067007780075,0.197568878531456,0.00869265478104353,0.005439187400043011,0.1511121690273285,0.08952997624874115,0.03434089943766594,-0.10380566120147705,-0.0735824927687645,0.1893240213394165,-0.1304602026939392,0.08181335777044296,0.182859867811203,-0.13763225078582764,0.0472378246486187,-0.16993243992328644,0.17862404882907867,0.042151663452386856,0.08026192337274551,-0.03193528577685356,0.052853215485811234,-0.12703952193260193,0.09358598291873932,0.01336611621081829,0.05706857144832611,0.07434021681547165,0.03444833308458328,0.08847970515489578,0.10587065666913986,0.04570655897259712,-0.08195371180772781,-0.07461091876029968,-0.080406554043293,0.1711452752351761,-0.11616331338882446,0.0467442087829113,-0.15368908643722534,0.13621798157691956,0.13190533220767975,-0.11273330450057983,-0.20659343898296356,-0.1218857690691948,0.246939554810524,-0.2571924030780792,-0.1048378199338913,-0.06557442992925644,0.16120262444019318,0.2762327194213867,0.24767789244651794,0.021180972456932068,0.11677993834018707,0.07268808782100677,0.12845031917095184,-0.3371686339378357,-0.16811302304267883,-0.18177387118339539,-0.166162371635437,0.0020391775760799646,0.10119472444057465,-0.03864568471908569,-0.04413281008601189,0.050928931683301926,0.14467167854309082,-0.002479980466887355,0.02783244289457798,0.22668083012104034,0.035610608756542206,0.01223701424896717,0.0547587014734745,0.03801988810300827,-0.038739971816539764,-0.3168746829032898,-0.08449877798557281,0.03361962363123894,0.22687329351902008,0.04808622971177101,0.020416980609297752,0.05452730879187584,0.014555616304278374,0.048487335443496704,-0.08921271562576294,0.02637636847794056,-0.13310104608535767,-0.28789210319519043,-0.2201661914587021,-0.04545612260699272,-0.07783722877502441,-0.0056452760472893715,-0.05726213380694389,-0.4880131185054779,-0.04821072518825531,-0.11161687225103378,0.411214143037796,0.22586321830749512,-0.06473856419324875,0.019440270960330963,0.10517408698797226,0.010733511298894882,0.022248338907957077,0.17149166762828827,-0.061194196343421936,0.25897347927093506,0.1890738606452942,-0.03225551173090935,0.13747762143611908,0.1339646577835083,-0.0032398526091128588,0.11825510114431381,-0.0049913302063941956,0.1398392915725708,-0.1361270546913147,-0.05522485822439194,0.04878735542297363,-0.03512907400727272,0.09666784852743149,-0.015085148625075817,-0.028126690536737442,0.03550320491194725,0.00492192804813385,0.05709085613489151,0.024744408205151558,-0.15467169880867004,-0.122860386967659,-0.06509340554475784,0.031742945313453674,-0.057712506502866745,0.14061641693115234,-0.12026599049568176,0.2741270065307617,0.10340307652950287,-0.04664100706577301,0.1886492371559143,-0.02387051284313202,-0.033032480627298355,0.1279660314321518,0.03004130907356739,0.22147288918495178,0.07465469092130661,-0.14726917445659637,-0.015337483957409859,-0.19193436205387115,0.010247362777590752,0.04413408413529396,0.002999556716531515,0.03334351256489754,-0.07886289805173874,0.017668817192316055,0.029317552223801613,-0.034370627254247665,0.13142363727092743,0.08675479888916016,0.05412622541189194,0.09152181446552277,-0.06514223664999008,-0.09818887710571289,0.05001130700111389,0.05551798269152641,9.611920177121647e-06,-0.13930462300777435,0.028083516284823418,-0.5161806344985962,-0.05739467218518257,0.872377336025238,0.029841596260666847,0.27799782156944275,-0.027884598821401596,-0.3891647160053253,0.012163720093667507,0.04721939191222191,0.026904508471488953,-0.1987859159708023,0.006057489663362503,-0.21570341289043427,-0.023184021934866905,0.711383581161499,-0.0014806304825469851,-0.6517256498336792,-0.005604775156825781,0.8739221096038818,-0.00928633101284504,0.5765033960342407,0.05330919474363327,-0.1808415800333023,0.12118321657180786,-0.5779688358306885,-0.013646627776324749,0.016708316281437874,0.11418117582798004,-0.67210453748703,-0.0022178099025040865,0.3399525582790375,-0.14821569621562958,-0.04097237065434456,-0.2420695573091507,0.19257238507270813,0.19595679640769958,0.23159170150756836,0.04450090974569321,0.22107550501823425,0.27034202218055725,0.13021782040596008,0.1887485235929489,-0.2352888584136963,-0.13001349568367004,-0.20176036655902863,-0.0498063825070858,0.2184331864118576,-0.1954776495695114,0.004416603595018387,0.0834704115986824,0.23285029828548431,0.16203202307224274,0.06481513381004333,-0.30546924471855164,-0.2789098918437958,0.03140667825937271,-0.09403575956821442,-0.11587262898683548,0.15279780328273773,0.32687488198280334,0.09612917900085449,0.005483903456479311,0.1258007287979126,-0.2139996737241745,0.11380737274885178,-0.27674612402915955,0.08001454919576645,-0.0452372282743454,0.023894818499684334,-0.16962949931621552,-0.23397450149059296,-0.22790901362895966,-0.2063070386648178,0.25390762090682983,0.32515478134155273,-0.1331891566514969,0.03147735074162483,0.0721457451581955,0.2721311151981354,0.09993477165699005,0.14470896124839783,-0.036177050322294235,-0.13582570850849152,0.092196024954319,-0.3045113682746887,0.21370962262153625,0.246758371591568,-0.1018749475479126,-0.042659856379032135,0.20309209823608398,0.09641441702842712,0.08634822070598602,0.053517963737249374,-0.17193502187728882,0.06029057875275612,-0.19731420278549194,0.32443487644195557,-0.1985543817281723,0.08890536427497864,-0.16084285080432892,0.12039582431316376,-0.09097334742546082,-0.00146758824121207,-0.11891719698905945,0.027934184297919273,0.1457391381263733,-0.09866638481616974,-0.18527217209339142,0.2369336038827896,-0.08843323588371277,0.03360874578356743,-0.13113698363304138,0.14207299053668976,-0.16205689311027527,-0.19391094148159027,-0.2599439322948456,0.33694201707839966,-0.10078684985637665,-0.26792386174201965,-0.07685939222574234,0.09555917233228683,0.3737237751483917,0.21178679168224335,0.17841830849647522,0.3616198003292084,0.02404814213514328,0.21130146086215973,0.1450854241847992,-0.1476600021123886,0.020852433517575264,0.24142321944236755,-0.08986961841583252,-0.007944433018565178,-0.023901287466287613,-0.1870027631521225,0.18332049250602722,0.05784875154495239,-0.0875236764550209,0.17529796063899994,0.002297925064340234,-0.012593775987625122,0.1901257336139679,0.1245836541056633,0.10106806457042694,-0.14475734531879425,-0.08450842648744583,0.027219783514738083,-0.12939582765102386,0.014014954678714275,0.014394067227840424,0.054016802459955215,0.042681314051151276,0.10530348122119904,0.2164584845304489,-0.0027443773578852415,0.115877166390419,0.17227746546268463,-0.022521454840898514,-0.2714008390903473,0.43460625410079956,-0.14543010294437408,0.34807780385017395,0.1315305382013321,-0.14166505634784698,-0.1789419800043106,-0.042604997754096985,-0.07504843920469284,0.10940707474946976,-0.2750455141067505,0.04587094113230705,-0.26393750309944153,0.004051203839480877,-0.058737196028232574,-0.05219690129160881,0.24983055889606476,-0.047355860471725464,-0.20616841316223145,0.12207086384296417,0.08552664518356323,0.006758421193808317,-0.16080541908740997,-0.1764022260904312,-0.0893901064991951,0.02239532209932804,0.11225142329931259,0.014239281415939331,0.06865961104631424,-0.09753929078578949,0.23407943546772003,-0.02941734343767166,0.3812360465526581,-0.12626336514949799,-0.18910007178783417,-0.23522967100143433,0.2754930853843689,-0.12155953794717789,0.09168712049722672,-0.04678389057517052,0.30897289514541626,0.11870800703763962,-0.2998204231262207,0.06914083659648895,0.015734951943159103,-0.35390767455101013,-0.07526059448719025,0.30539175868034363,0.2128979116678238,-0.014616159722208977,-0.04641253501176834,0.04570552706718445,-0.1075502559542656,0.3620698153972626,0.1922718584537506,0.13564898073673248,0.08556880801916122,-0.111162930727005,-0.3824445605278015,0.28135058283805847,-0.25660550594329834,-0.3594069182872772,-0.03172516077756882,0.045042287558317184,-0.310922771692276,-0.17050756514072418,0.02088853344321251,-0.12641626596450806,0.11535260081291199,0.12080107629299164,-0.34739071130752563,-0.14572098851203918,0.19760243594646454,-0.17263557016849518,-0.2809588313102722,-0.03164816275238991,0.0021728782448917627,0.15918274223804474,0.08386674523353577,-0.16268020868301392,-0.22148776054382324,0.23584115505218506,-0.2826089560985565,0.05391189455986023,0.11606083810329437,-0.03526977449655533,-0.00023878825595602393,-0.09558720886707306,0.21859614551067352,-0.016080092638731003,0.02333778515458107,-0.3701181709766388,-0.1899288296699524,0.056746356189250946,-0.32009366154670715,0.08356492966413498,0.04728132486343384,0.15793083608150482,0.09079240262508392,-0.03281165286898613,-0.11174188554286957,-0.14558333158493042,0.1069946438074112,-0.381666362285614,0.07633284479379654,0.2337511032819748,0.23122860491275787,0.3058777451515198,0.06810793280601501,-0.021755456924438477,0.15138639509677887,-0.195356085896492,0.016706589609384537,-0.13146762549877167,-0.09800253808498383,-0.25582075119018555,-0.14946766197681427,-0.059294022619724274,0.09443102777004242,-0.2350122630596161,0.10094447433948517,0.3003480136394501,0.28513553738594055,0.25344783067703247,-0.2110409289598465,-0.10569608956575394,-0.12827536463737488,0.05067894235253334,0.0669294148683548,0.09779874980449677,0.19971264898777008,0.12850870192050934,-0.12347796559333801,0.29605284333229065,0.12453096359968185,0.09171903878450394,-0.2050045132637024,-0.16857506334781647,0.07977071404457092,0.11557816714048386,0.20899486541748047,0.05322614684700966,0.11811614036560059,0.025805281475186348,0.03755984827876091,0.06338141858577728,-0.03367483988404274,0.0819041058421135,-0.15614299476146698,0.03847212716937065,-0.0053336224518716335,0.025615636259317398,-0.036598220467567444,-0.05909642204642296,0.06568887829780579,-0.010537498630583286,0.08283838629722595,-0.1572425812482834,-0.05725559964776039,0.07998933643102646,-0.034191787242889404,0.21063022315502167,0.047744397073984146,0.007618860807269812,-0.10578907281160355,-0.18751363456249237,0.05391516536474228,0.186910018324852,-0.03293384984135628,-0.1213938519358635,-0.23245839774608612,-0.07943113893270493,0.03713056817650795,-0.008913695812225342,-0.13538561761379242,0.032753296196460724,0.044806964695453644,0.09010538458824158,0.029848342761397362,-0.1610298901796341,-0.07936197519302368,0.03405320271849632,-0.11275982111692429,0.0354209803044796,0.03369560465216637,-0.22240187227725983,-0.12547484040260315,-0.17949508130550385,-0.024470718577504158,-0.05057110637426376,-0.05740892142057419,0.1592569202184677,0.2655409574508667,0.420920193195343,0.038163602352142334,0.23010170459747314,-0.16049736738204956,-0.15243320167064667,0.18189720809459686,0.03640061244368553,0.12079565972089767,-0.07868785411119461,0.15933552384376526,0.13550437986850739,0.017242135480046272,0.016256481409072876,0.1512814313173294,0.050327595323324203,-0.22752131521701813,-0.015382344834506512,-0.09216413646936417,0.1250183880329132,-0.03769809752702713,-0.07741785794496536,-0.18447312712669373,-0.1309669464826584,0.07549691945314407,0.22931507229804993,-0.07919193804264069,0.0072527434676885605,0.10931170731782913,0.15234947204589844,0.20550434291362762,0.4550360441207886,0.1288488358259201,0.5006060004234314,-0.07817069441080093,0.046935074031353,-0.07028743624687195,0.032638031989336014,0.025740796700119972,-0.1496616154909134,0.15819180011749268,-0.15533412992954254,0.16882535815238953,0.081060491502285,0.05766959488391876,-0.1383555680513382,-0.06548886001110077,-0.12583748996257782,-0.053732942789793015,-0.027133921161293983,-0.10827897489070892,0.09760100394487381,-0.16129682958126068,-0.17427515983581543,-0.406730592250824,-0.1598440557718277,0.02749442309141159,-0.035437289625406265,0.07715760171413422,-0.14968077838420868,0.06760939955711365,-0.0515022836625576,0.10823456197977066,-0.20618654787540436,-0.21564063429832458,0.08263875544071198,-0.05394380912184715,0.025449125096201897,-0.15337711572647095,-0.059229493141174316,-0.08935137838125229,0.19202086329460144,0.010592401027679443,0.10161156952381134,-0.026748908683657646,0.07227788865566254,-0.05513628572225571,0.19864104688167572,0.06136317178606987,0.06781335175037384,-0.22779414057731628,-0.07381438463926315,0.10877342522144318,-0.06352433562278748,-0.022458422929048538,-0.005539334379136562,-0.11586666107177734,-0.003192079020664096,0.1030673161149025,-0.18180902302265167,-0.03978663310408592,-0.19644787907600403,0.048160020262002945,-0.12152424454689026,-0.012289597652852535,-0.04439766705036163,0.07792600989341736,0.23221074044704437,-0.048353005200624466,-0.08843240886926651,-0.21046830713748932,0.10308369249105453,0.07338454574346542,0.06166432797908783,0.020518798381090164,0.07970508933067322,0.07613183557987213,-0.08523254096508026,0.04186474159359932,0.10710626095533371,-0.0505269430577755,-0.1262253373861313,-0.15009479224681854,0.12901778519153595,0.07977276295423508,-0.04679344594478607,0.05302676558494568,-0.003039692295715213,0.017585644498467445,0.18832620978355408,0.11684710532426834,-0.1134171113371849,-0.19914720952510834,-0.19062331318855286,-0.013726379722356796,0.11764924973249435,0.029129764065146446,0.19647935032844543,-0.018855826929211617,0.1001485213637352,0.09564489126205444,0.032253511250019073,0.020379655063152313,0.13153554499149323,-0.15024282038211823,0.1142968013882637,0.10595530271530151,-0.16433380544185638,-0.2162526696920395,-0.0012788368621841073,0.0655800849199295,-0.1760890930891037,-0.057662636041641235,0.007296723313629627,0.234950989484787,0.0013431296683847904,0.0051950025372207165,0.07776300609111786,-0.028574498370289803,-0.05114883556962013,0.039593491703271866,0.0696173757314682,-0.09043385088443756,0.11430889368057251,-0.015663180500268936,0.06138013303279877,0.08595741540193558,-0.13582509756088257,-0.1423000991344452,-0.20983289182186127,0.013153123669326305,0.08811666071414948,0.029901541769504547,-0.06755448877811432,0.01988379843533039,0.016007622703909874,0.016515938565135002,-0.05228819325566292,-0.010691317729651928,0.2173892706632614,-0.06181066855788231,-0.21424579620361328,-0.12635309994220734,0.02182328701019287,0.10859958827495575,0.07900392264127731,-0.07155316323041916,0.03640158846974373,-0.2536815404891968,-0.07069195806980133,-0.09557399153709412,0.041642606258392334,-0.07273277640342712,-0.0786321684718132,-0.01901235245168209,-0.09482625126838684,0.006036174017935991,-0.08410543948411942,0.05351633206009865,-0.050222452729940414,-0.13298030197620392,0.16826856136322021,-0.059406619518995285,-0.09928493946790695,0.029642673209309578,0.18349412083625793,0.04504051432013512,-0.12986010313034058,-0.08476881682872772,0.03623942658305168,0.034201785922050476,-0.11883780360221863,0.027690464630723,-0.16108223795890808,0.10803757607936859,-0.19841530919075012,-0.1687719076871872,-0.17229852080345154,-0.18828260898590088,-0.04562320187687874,0.04334300756454468,-0.01386984158307314,-0.024248845875263214,-0.04368821531534195,-0.06398999691009521,-0.10102648288011551,-0.10797712206840515,0.15198400616645813,0.004003711044788361,-0.04989995062351227,0.015925956889986992,-0.056612905114889145,-0.16645561158657074,-0.0897720456123352,-0.14230018854141235,-0.10115576535463333,-0.13322462141513824,0.1919439435005188,0.05058836564421654,-0.012910502031445503,-0.17662230134010315,0.05289575085043907,0.02753903716802597,-0.04774151369929314,-0.09347300231456757,0.05770963057875633,0.014672920107841492,-0.006664348766207695,0.12203080952167511,0.17698507010936737,0.16691844165325165,0.04576646536588669,0.03093710169196129,-0.09560419619083405,-0.03174732252955437,0.14813624322414398,0.013795384205877781,0.19886663556098938,0.18391501903533936,-0.1157134473323822,-0.11325682699680328,-0.25150489807128906,-0.06251566857099533,0.02037407085299492,-0.007684485055506229,-0.12369947135448456,-0.12954238057136536,0.0008236984722316265,-0.14875879883766174,-0.04567277804017067,0.06531255692243576,0.12815943360328674,-0.08444869518280029,-0.04860416054725647,-0.07450035214424133,0.09835997223854065,0.0018761333776637912,-0.015648940578103065,-0.042179226875305176,0.009096218273043633,0.14170171320438385,0.0296876672655344,0.1902354508638382,-0.0009446959011256695,-0.068932443857193,-0.07124731689691544,0.07795438170433044,-0.026886029168963432,-0.04507843032479286,-0.1342916488647461,0.04073624685406685,-0.04847533255815506,0.07301288098096848,-0.009589135646820068,-0.06341557204723358,0.02692554146051407,-0.0804983377456665,-0.4029771685600281,-0.04148692265152931,-0.02231227234005928,-0.07824426144361496,0.2593482434749603,-0.023429138585925102,0.18692098557949066,-0.01820841059088707,-0.050419881939888,0.30746421217918396,-0.07980770617723465,0.15295521914958954,0.007099348120391369,-0.09108500182628632,0.16288363933563232,0.0817657858133316,-0.11542614549398422,-0.07657768577337265,-0.030184462666511536,0.03650277480483055,-0.053642019629478455,0.0005898196250200272,-0.1605709344148636,0.022034013643860817,-0.03381423279643059,0.07716662436723709,-0.018199373036623,-0.037003178149461746,-0.0763898491859436,-0.045370087027549744,0.09851253032684326,-0.07750558108091354,-0.0193623099476099,-0.13457068800926208,-0.2802768051624298,-0.2976517379283905,0.09209027886390686,0.09862470626831055,-0.03706220164895058,0.0013856083387508988,0.0668146014213562,-0.18386083841323853,-0.16606082022190094,-0.23894912004470825,-0.2020106166601181,0.18463191390037537,-0.2895142138004303,-0.1440858244895935,0.023940309882164,-0.0916021540760994,0.21119429171085358,0.09389656037092209,0.2229071408510208,-0.17373232543468475,0.0255681574344635,0.01194226834923029,-0.003969944082200527,0.16184037923812866,-0.041815437376499176,-0.03486078977584839,-0.108693428337574,-0.19271525740623474,-0.04085167124867439,0.061344362795352936,-0.09231003373861313,0.04901868477463722,0.07609245926141739,-0.049563366919755936,-0.10488556325435638,-0.08685576170682907,-0.10718745738267899,-0.1082729920744896,-0.05109543725848198,0.06319478154182434,0.03804565221071243,-0.14497630298137665,-0.014853576198220253,0.09153285622596741,-0.0809980183839798,0.10286307334899902,0.023357059806585312,0.0043884566985070705,0.04297630488872528,0.14127963781356812,-0.04240471497178078,0.19774198532104492,0.021064357832074165,-0.15404559671878815,0.010149786248803139,0.18148492276668549,-0.0682888850569725,0.0072300792671740055,0.08769723773002625,0.10902063548564911,-0.09529505670070648,-0.17911888659000397,0.28895333409309387,-0.1071200743317604,0.02482764422893524,-0.08820837736129761,-0.09548000991344452,-0.2247174084186554,-0.1648956835269928,-0.3606257438659668,-0.23571939766407013,0.03751472383737564,0.08746648579835892,-0.13763508200645447,-0.0876634493470192,-0.08812052756547928,-0.04421628266572952,0.08794385939836502,-0.08558521419763565,-0.02141817845404148,-0.0009378919494338334,-0.1341230869293213,-0.19096457958221436,0.06633055210113525,0.02722337655723095,0.1299232542514801,0.19007650017738342,0.051423247903585434,0.04541489854454994,-0.07300873100757599,-0.20343320071697235,-0.028254138305783272,-0.12765224277973175,-0.11825119704008102,-0.022113868966698647,-0.1109628677368164,0.07399110496044159,-0.016133923083543777,-0.010015119798481464,0.16309911012649536,0.03822793439030647,-0.048141900449991226,0.016452454030513763,0.189181849360466,-0.09463493525981903,-0.02597518265247345,0.027526887133717537,0.020518692210316658,0.28685426712036133,-0.06757405400276184,0.3414841890335083,-0.06226706877350807,-0.2763770818710327,-0.04547201469540596,0.0241435244679451,-0.13162147998809814,0.4618963301181793,-0.13755856454372406,-0.198959618806839,0.17657174170017242,0.11774998158216476,0.09628048539161682,-0.07285193353891373,-0.10036025941371918,-0.13357196748256683,-0.07500941306352615,0.00427981885150075,0.027215657755732536,0.08950121700763702,0.02363724075257778,0.12556585669517517,-0.08277620375156403,-0.09101378917694092,0.022754110395908356,0.05381958931684494,0.03289058431982994,0.07521461695432663,0.08671154081821442,-0.09323002398014069,0.02634209394454956,0.040656499564647675,-0.11838145554065704,-0.06823551654815674,-0.05409946292638779,0.07511341571807861,-0.04181291535496712,-0.24378633499145508,0.13383933901786804,-0.11702173203229904,0.07356232404708862,0.15696609020233154,0.022830063477158546,0.03135540708899498,-0.071501225233078,0.0698961541056633,0.08646100759506226,-0.12013699859380722,0.00261610746383667,0.2359829992055893,-0.12193726748228073,0.08600546419620514,-0.24531759321689606,0.051377326250076294,0.019664986059069633,-0.17444828152656555,-0.04048870503902435,0.05121813341975212,0.017094429582357407,-0.07749246060848236,-0.054888129234313965,-0.19120728969573975,-0.10740366578102112,-0.10296628624200821,0.16317784786224365,-0.001945209107361734,-0.11307422071695328,0.0582897774875164,-0.17583231627941132,-0.2000066488981247,-0.1175076812505722,0.04727006331086159,0.0019957968033850193,0.3966691792011261,-0.08961303532123566,-0.10732647031545639,-0.20229612290859222,-0.21597473323345184,0.14980441331863403,0.21901379525661469,0.18337181210517883,-0.0851760134100914,-0.13159401714801788,0.15014909207820892,0.2575170397758484,-0.09533322602510452,0.14025411009788513,0.13874535262584686,-0.1585594266653061,0.13008607923984528,-0.042388077825307846,-0.11004763096570969,-0.048871785402297974,-0.14814503490924835,-0.10047799348831177,0.09231867641210556,-0.058400627225637436,0.25943994522094727,0.22260235249996185,0.08157873898744583,0.026043888181447983,-0.0381164513528347,0.038348205387592316,-0.2396867573261261,0.1365383416414261,0.03388300910592079,-0.02858434058725834,-0.16030946373939514,0.003985228948295116,-0.30196675658226013,-0.009386030957102776,0.04967004805803299,-0.11782364547252655,0.2516653835773468,0.05429923161864281,-0.12673063576221466,-0.15994013845920563,0.12903299927711487,-0.06150352582335472,0.11977260559797287,-0.007838116958737373,0.1656888723373413,-0.16156768798828125,0.10575898736715317,-0.21863611042499542,-0.06571868062019348,0.026611221954226494,-0.06438899785280228,-0.03723187744617462,-0.029161250218749046,0.0055272760801017284,0.08800020813941956,-0.11317393183708191,0.22446200251579285,-0.0651816725730896,0.029534047469496727,0.02794998697936535,0.07648919522762299,-0.006803726311773062,0.16731667518615723,0.11281131953001022,-0.06628376245498657,-0.12761686742305756,0.1228255107998848,0.01597762294113636,-0.2945001721382141,0.185634046792984,0.07269974052906036,-0.017518168315291405,0.2652125656604767,0.36032789945602417,0.06524480879306793,-0.01593155413866043,0.07151152193546295,-0.06644702702760696,0.1359715461730957,0.19190530478954315,-0.05736720189452171,0.12876121699810028,-0.010661307722330093,0.1926548331975937,-0.06024690717458725,0.0016914282459765673,0.11419273167848587,-0.0596248023211956,-0.012854860164225101,0.05854514613747597,-0.25161316990852356,-0.1885531097650528,-0.10119058936834335,0.04711125046014786,0.14736275374889374,0.010374506935477257,-0.014879211783409119,-0.1576240062713623,0.21428917348384857,0.07600736618041992,0.13925190269947052,-0.07815203070640564,-0.16246090829372406,-0.09412255138158798,-0.2980799078941345,0.03477338328957558,-0.08997254818677902,-0.13193762302398682,-0.04550819844007492,-0.07342318445444107,0.018520550802350044,-0.2118174433708191,0.019854890182614326,0.15771041810512543,-0.3158150911331177,0.021078893914818764,-0.11735869944095612,-0.09196920692920685,-0.08171692490577698,0.2646617591381073,0.06403043866157532,0.2740231454372406,0.015330342575907707,0.09172328561544418,0.03188711777329445,0.05499414727091789,-0.03710673376917839,0.06850986927747726,0.3133000135421753,-0.05179031565785408,-0.07574210315942764,-0.16617444157600403,0.18234477937221527,-0.09203802049160004,-0.236820250749588,0.1582946479320526,-0.057662349194288254,0.1761845201253891,-0.026251953095197678,0.0007281122962012887,-0.11790959537029266,-0.0550660640001297,0.0984695702791214,0.326809287071228,-0.037544261664152145,0.08192015439271927,-0.08111248910427094,-0.010081357322633266,-0.17245268821716309,0.21253007650375366,0.013348591513931751,-0.05767812952399254,0.0015713690081611276,-0.16564173996448517,0.038845811039209366,0.05361019819974899,-0.11374680697917938,0.10726857930421829,0.11864126473665237,-0.06557818502187729,0.053530965000391006,-0.2581460773944855,0.00654349522665143,0.09710525721311569,-0.1308450549840927,-0.08505365252494812,0.20742526650428772,0.12277031689882278,0.0889800563454628,0.20018261671066284,0.4830605387687683,-0.12350571155548096,0.04971540719270706,0.31741756200790405,0.11021246016025543,0.010921908542513847,-0.08746807277202606,0.06240946054458618,0.18168340623378754,0.3281170427799225,-0.08244498819112778,-0.09420087188482285,0.09706167131662369,0.01228657178580761,-0.07957568764686584,-0.06449559330940247,-0.12539438903331757,0.04845983535051346,-0.17211174964904785,0.07874449342489243,0.008456964045763016,-0.005791115574538708,-0.041303690522909164,0.11710460484027863,0.1514073759317398,-0.0370229110121727,0.24426114559173584,0.1959695965051651,-0.018673036247491837,-0.0063214111141860485,-0.16277043521404266,-0.20588192343711853,-0.054872360080480576,-0.012697232887148857,-0.1395200788974762,0.07199212163686752,0.12312327325344086,0.22545956075191498,0.11852258443832397,0.38401779532432556,0.03316936269402504,-0.05152876675128937,-0.08972790092229843,0.09727967530488968,-0.07259180396795273,0.07493362575769424,-0.11105597019195557,0.1170371025800705,0.08182723075151443,-0.13898217678070068,-0.17722366750240326,0.12985047698020935,0.34166035056114197,0.02805519662797451,-0.014751488342881203,0.08550834655761719,-0.015246085822582245,-0.034581780433654785,0.027722004801034927,0.7788783311843872,-0.018997201696038246,0.06625146418809891,0.012324281968176365,0.6153632998466492,0.0032264261972159147,-1.0122706890106201,0.001953731058165431,-0.5911793112754822,-0.014623031951487064,0.05628080293536186,-0.05986993387341499,0.30480262637138367,0.03387080878019333,-0.33025792241096497,0.03701045364141464,0.19722457230091095,-0.009512062184512615,0.20221661031246185,-0.024318277835845947,-0.9882872700691223,-0.051576510071754456,0.6672139763832092,0.04466939717531204,0.05193886160850525,-0.013995162211358547,-0.6686723828315735,0.02045334130525589,-0.08298096805810928,0.007119365967810154,-0.663263201713562,0.05717473477125168,-0.1154635027050972,-0.2667505443096161,0.11272157728672028,-0.24876639246940613,0.018680386245250702,0.15323427319526672,-0.09238927811384201,-0.10467351973056793,-0.28818479180336,-0.0133231021463871,-0.09306337684392929,-0.020380649715662003,0.021057210862636566,-0.047191962599754333,0.23021765053272247,-0.057406920939683914,-0.024387231096625328,-0.13309456408023834,0.2057209312915802,-0.07598944753408432,0.0695684403181076,-0.04640264809131622,0.1732425093650818,-0.16171640157699585,-0.08900101482868195,-0.053365349769592285,-0.19606460630893707,0.16584807634353638,-0.04756438732147217,0.07960163056850433,0.10590612888336182,0.18185780942440033,-0.04403175786137581,0.28570255637168884,-0.12414715439081192,-0.07901221513748169,-0.028926275670528412,-0.1246720626950264,-0.14599457383155823,0.03486810252070427,0.20996391773223877,-0.21490676701068878,-0.24279983341693878,-0.05951138958334923,0.04716048389673233,0.16609890758991241,0.03335506469011307,0.02139785699546337,-0.20036490261554718,0.08728038519620895,-0.10122433304786682,0.3216976225376129,0.27869677543640137,0.2820073664188385,0.1631503850221634,0.1023280993103981,-0.1514689028263092,-0.17919209599494934,0.06977442651987076,-0.09933417290449142,0.06254210323095322,0.12661607563495636,-0.07906194031238556,-0.2762591540813446,0.14975452423095703,-0.07382296770811081,0.05158139020204544,0.14915822446346283,0.04886019974946976,0.024864759296178818,0.07034658640623093,-0.21770751476287842,0.36626243591308594,0.3207250237464905,0.23778334259986877,0.2291749119758606,-0.2627658545970917,-0.17997591197490692,-0.195866197347641,0.013581763952970505,-0.3979751169681549,0.152415931224823,0.099271260201931,0.20091737806797028,-0.18815793097019196,-0.013617416843771935,0.03651086986064911,-0.02569352276623249,0.10480811446905136,0.045319586992263794,-0.2563273310661316,0.23552165925502777,-0.10145768523216248,0.1930001974105835,-0.12366322427988052,0.09224382787942886,-0.11256798356771469,-0.15336836874485016,-0.1626715362071991,-0.027366675436496735,-0.06014001742005348,-0.2558407485485077,0.1621750444173813,0.14506787061691284,-0.2866048812866211,-0.005533173214644194,0.0514100156724453,-0.034418050199747086,0.011270733550190926,0.037418629974126816,0.13810043036937714,-0.1804801970720291,-0.25902459025382996,0.24369077384471893,-0.29567262530326843,0.20823466777801514,0.2588466703891754,-0.24603764712810516,-0.08961809426546097,0.4826403260231018,0.0474223755300045,-0.042209792882204056,0.059621576219797134,-0.056064363569021225,-0.2616294026374817,0.17451703548431396,0.29709410667419434,-0.01612122170627117,-0.3260137140750885,0.0684841200709343,-0.18769022822380066,-0.08313069492578506,0.1190977543592453,0.06083659455180168,-0.23848310112953186,-0.1582907885313034,0.0063473875634372234,-0.03878243267536163,-0.040383681654930115,-0.1635226011276245,0.17162081599235535,0.08699843287467957,-0.03188139572739601,-0.07160519063472748,0.034302353858947754,0.12074492126703262,0.11461927741765976,-0.03549053892493248,-0.19265004992485046,-0.15447765588760376,-0.1366325467824936,0.07120566070079803,-0.281486839056015,-0.1041485071182251,0.0441678911447525,-0.13349050283432007,0.2416224181652069,-0.20682480931282043,0.3373038172721863,0.0812181606888771,-0.06483301520347595,0.13167107105255127,-0.29292047023773193,-0.20212596654891968,-0.12406966835260391,0.011701407842338085,-0.01484874077141285,-0.1760730743408203,0.228092759847641,-0.04703133925795555,-0.13208094239234924,-0.007544999942183495,-0.1432369351387024,0.09494825452566147,0.13771484792232513,-0.1273784339427948,0.19732168316841125,0.10501860082149506,-0.18898117542266846,-0.030965350568294525,0.028196461498737335,-0.34575846791267395,-0.08819030970335007,0.07509144395589828,-0.22634398937225342,0.0502125583589077,0.28412413597106934,0.2635110914707184,-0.27752572298049927,0.30793023109436035,-0.16331642866134644,-0.08324776589870453,0.040534328669309616,0.2538414001464844,0.14962713420391083,0.26674705743789673,-0.12121248990297318,0.08552117645740509,-0.24140039086341858,-0.031977105885744095,0.11673258990049362,0.09465410560369492,-0.21690164506435394,-0.17925505340099335,-0.2649659216403961,0.12526316940784454,0.03194023668766022,-0.19577400386333466,-0.10340777039527893,0.14603321254253387,-0.10597898811101913,0.1476975828409195,0.09657462686300278,0.19620591402053833,-0.2526763677597046,0.06928983330726624,0.0887138694524765,0.2930811047554016,0.23598158359527588,-0.26776570081710815,-0.2849566340446472,-0.2745029330253601,-0.07394032180309296,-0.07484164088964462,0.24957405030727386,-0.06187715381383896,0.2591326832771301,0.2113582044839859,-0.1840805858373642,-0.20266535878181458,0.1276044398546219,0.02544422261416912,-0.03207823634147644,0.04745927453041077,-0.26593393087387085,0.1117493212223053,0.16078904271125793,-0.0385107658803463,-0.172763854265213,0.08683650195598602,-0.16012009978294373,0.15993133187294006,-0.2755112648010254,-0.2761075496673584,-0.3063054382801056,-0.1481885462999344,0.1410374641418457,-0.2561824321746826,-0.508602499961853,-0.061308957636356354,-0.36602696776390076,-0.30873411893844604,0.21227844059467316,-0.04555274918675423,0.20678402483463287,-0.020408757030963898,-0.1964382529258728,0.07189066708087921,0.3234993815422058,-0.044301535934209824,-0.002999825170263648,0.05107490345835686,0.0017321155173704028,0.16052919626235962,-0.19996491074562073,0.13701258599758148,0.11956329643726349,0.01616918481886387,0.04215562716126442,-0.22019557654857635,0.004079297184944153,0.09918374568223953,0.0747920349240303,-0.059756893664598465,-0.05187363550066948,-0.14614446461200714,0.09806033968925476,-0.040593020617961884,-0.017879333347082138,0.08791565895080566,-0.13063962757587433,0.07393068075180054,0.1195983961224556,-0.03357066214084625,-0.040467631071805954,-0.04689835011959076,-0.0268276184797287,-0.00122170674148947,-0.06749919801950455,0.1815512478351593,-0.01493705902248621,-0.09945426136255264,0.020793361589312553,0.044811490923166275,0.1199437752366066,-0.09650756418704987,0.08904173225164413,-0.04562143236398697,0.005375681445002556,-0.015328511595726013,-0.16737014055252075,0.06041419506072998,0.1542101502418518,0.1710975617170334,-0.1752830445766449,0.16814009845256805,-0.07567713409662247,-0.11990252137184143,0.09708398580551147,0.1243167519569397,0.027636468410491943,0.04254741594195366,-0.0076804268173873425,-0.16828879714012146,0.018382931128144264,-0.2167351394891739,0.1484745889902115,-0.25367099046707153,-0.049522895365953445,0.02515258640050888,0.0026207698974758387,-0.011465078219771385,0.25080326199531555,0.02870815619826317,-0.16958196461200714,-0.19237811863422394,-0.18093444406986237,-0.1761460155248642,-0.1346241980791092,-0.1433662474155426,0.08989845961332321,0.08241578191518784,0.09918732196092606,0.0717322826385498,-0.05902192369103432,0.0413891077041626,-0.04651183262467384,-0.19345960021018982,-0.18103592097759247,0.060544516891241074,0.12881723046302795,-0.1783653199672699,-0.008901742286980152,-0.1722882091999054,-0.04568272829055786,0.1043258085846901,0.18618179857730865,0.047196537256240845,0.05837661400437355,-0.026682831346988678,0.037168487906455994,-0.28594493865966797,0.0683184564113617,-0.24014386534690857,-0.13825562596321106,-0.10660703480243683,-0.06950065493583679,-0.14122477173805237,0.03945130482316017,-0.024356745183467865,-0.07490864396095276,0.1720360964536667,0.12567138671875,0.03356017917394638,-0.21045872569084167,0.06172386184334755,-0.18668052554130554,-0.10604532808065414,0.006792775820940733,0.1330675184726715,0.29355207085609436,0.19924698770046234,0.3594087064266205,0.07453715801239014,0.05391160398721695,0.19079065322875977,-0.10409651696681976,-0.03371988236904144,0.12979644536972046,0.00812037568539381,-0.01158987358212471,-0.0068263583816587925,0.006519142538309097,0.10339787602424622,0.13635799288749695,0.008653814904391766,-0.08566965907812119,-0.13451190292835236,-0.18679089844226837,-0.19046665728092194,-0.3752968907356262,-0.4035322368144989,0.08118274062871933,-0.06436121463775635,-0.042746879160404205,0.07520930469036102,-0.07514625787734985,0.021480774506926537,0.21328482031822205,0.18879662454128265,0.09836161881685257,-0.09972008317708969,0.06631110608577728,0.3306102752685547,-0.0797547996044159,-0.07599586993455887,0.012026874348521233,-0.014814978465437889,-0.012203074060380459,0.1114003136754036,0.08036232739686966,0.093658447265625,0.089839868247509,-0.07527434825897217,-0.21388138830661774,-0.40828269720077515,-0.028838083148002625,0.024572359398007393,0.053159426897764206,0.028766218572854996,-0.20377936959266663,-0.11111097037792206,0.11147608608007431,0.34020623564720154,-0.13230955600738525,0.04322347417473793,-0.17792046070098877,-0.017575902864336967,0.02435632236301899,0.024379029870033264,0.031547605991363525,0.02878505550324917,0.025447174906730652,0.17091433703899384,0.09010273218154907,-0.09994848072528839,0.2388104796409607,0.08727245777845383,0.40458056330680847,0.02287747897207737,-0.03433267027139664,-0.10139631479978561,-0.015962468460202217,0.0351659432053566,0.17628221213817596,-0.07041588425636292,0.026355136185884476,0.16705341637134552,0.014912568964064121,-0.12769301235675812,-0.12317996472120285,0.1495056301355362,0.04174240306019783,0.07924119383096695,0.07544894516468048,-0.1370517611503601,0.001926417462527752,-0.09986668825149536,0.17310120165348053,0.042050138115882874,0.050379425287246704,0.13693103194236755,-0.03847010061144829,-0.2690233588218689,-0.04992442578077316,0.11367843300104141,0.0289837084710598,-0.03554508090019226,0.11561767011880875,0.09306059032678604,0.16126319766044617,0.119981549680233,0.17542369663715363,-0.07272367924451828,0.2049781084060669,0.0007402243791148067,0.015454208478331566,-0.06033746898174286,0.1318996399641037,0.08507057279348373,-0.03921511769294739,-0.023769134655594826,0.13466022908687592,-0.05892099440097809,-0.12492072582244873,-0.07345560193061829,0.02819235436618328,0.0067160772159695625,0.06872058659791946,0.035314805805683136,0.07762987911701202,0.05322696268558502,0.08134335279464722,0.21761970221996307,0.014368140138685703,0.13078759610652924,-0.13571718335151672,0.14092998206615448,-0.0975615456700325,-0.13282567262649536,-0.12632349133491516,0.11285213381052017,-0.046047043055295944,0.06447786837816238,0.07785975188016891,-0.15303608775138855,-0.06874481588602066,-0.1841670274734497,0.077122263610363,-0.08094760775566101,0.05197971686720848,0.24596787989139557,-0.1144404262304306,0.07246115803718567,-0.0014402512460947037,0.050617117434740067,0.12968318164348602,-0.13841213285923004,0.18824712932109833,0.04497747868299484,-0.020696813240647316,-0.07266600430011749,-0.025456774979829788,-0.02543817274272442,-0.07025688141584396,-0.0017955612856894732,-0.04341293126344681,-0.05238630622625351,-0.038589831441640854,-0.019643137231469154,0.06292648613452911,-0.02853369526565075,-0.14169427752494812,-0.13215403258800507,0.14643533527851105,0.06156475469470024,-0.08565967530012131,-0.15506930649280548,0.03652254864573479,-0.0640169233083725,0.10292264819145203,-0.16989897191524506,0.09404861927032471,0.019259164109826088,0.04361412674188614,-0.06261647492647171,0.106469064950943,0.12559713423252106,0.06676199287176132,-0.08335550129413605,-0.09942237287759781,-0.2072620689868927,-0.13772104680538177,0.030541447922587395,0.10684837400913239,0.17138244211673737,-0.2067439705133438,0.08733665198087692,0.018991190940141678,-0.1139640063047409,0.02629527635872364,-0.01564415730535984,0.155311718583107,0.1757800430059433,-0.037652213126420975,-0.23247665166854858,-0.09375312179327011,-0.20280742645263672,-0.0015502974856644869,-0.18134412169456482,-0.10437751561403275,0.08847101777791977,0.13755632936954498,0.1917743682861328,-0.2067541927099228,0.16035395860671997,0.14558030664920807,-0.02973666973412037,0.05850158631801605,0.10707440972328186,0.1303909718990326,-0.29268577694892883,-0.06583249568939209,0.062489382922649384,-0.15876303613185883,-0.09772834926843643,0.20342455804347992,0.13132819533348083,0.11212682723999023,-0.09959036856889725,-0.05347231402993202,0.007640512194484472,0.08797739446163177,-0.044410839676856995,-0.0954841747879982,0.08664977550506592,-0.16523616015911102,0.10729456692934036,0.21158720552921295,-0.03220110386610031,0.06755948066711426,0.23109875619411469,0.021648749709129333,-0.09769860655069351,-0.17980660498142242,0.32377636432647705,-0.03874513879418373,-0.12307774275541306,0.06378389149904251,-0.04139547795057297,0.0694044828414917,0.022870982065796852,0.035821858793497086,0.20145906507968903,-0.006313644349575043,-0.07878153771162033,0.1736040711402893,0.17872558534145355,0.09167482703924179,-0.014370974153280258,-0.08766037225723267,-0.1523507982492447,0.006665744818747044,-0.13227525353431702,-0.07396908104419708,0.04020117223262787,0.0037545489612966776,-0.06985440105199814,-0.13578490912914276,0.2264588475227356,-0.17861272394657135,-0.1658816635608673,-0.0036918569821864367,0.04698459804058075,0.046668458729982376,-0.11490697413682938,0.004668272566050291,0.0614834763109684,-0.08399776369333267,-0.1319180428981781,0.010847136378288269,-0.08172926306724548,-0.08650191128253937,-0.016835948452353477,0.06473623216152191,-0.026706362143158913,-0.06944067776203156,0.0471133217215538,0.012028957717120647,-0.22404608130455017,-0.10996361076831818,-0.16316306591033936,0.004755520261824131,-0.13244479894638062,0.02198859676718712,0.2888692617416382,0.11684416234493256,-0.02339021861553192,-0.028748994693160057,-0.007497864309698343,-0.111989825963974,0.10067879408597946,-0.1091044694185257,-0.15127642452716827,0.030703594908118248,-0.11373311281204224,-0.03987150266766548,-0.154001384973526,0.07500549405813217,-0.22408214211463928,0.13201186060905457,-0.046124160289764404,-0.14322887361049652,0.21294374763965607,0.07982095330953598,-0.16794458031654358,0.09084638208150864,0.06376629322767258,-0.12711232900619507,0.13061681389808655,0.11491695046424866,-0.012363503687083721,-0.05807948857545853,-0.0709795132279396,-0.08996111154556274,0.1888028085231781,-0.029879098758101463,0.06036163121461868,0.07770831882953644,0.01472476776689291,-0.015824755653738976,-0.14578942954540253,0.12908609211444855,0.10026776045560837,-0.05853276327252388,0.004109427332878113,0.06973067671060562,0.0007015358423814178,-0.06911186128854752,-0.0840451642870903,-0.045976683497428894,-0.16415108740329742,0.02661769837141037,0.23408235609531403,-0.037755947560071945,-0.044448982924222946,-0.01818191446363926,-0.09632924199104309,-0.00023616693215444684,-0.31044554710388184,0.381391704082489,0.13757427036762238,-0.32856109738349915,0.048782672733068466,-0.068430095911026,-0.15831731259822845,-0.10256225615739822,-0.06129128858447075,-0.15753576159477234,0.08201523125171661,0.13149265944957733,0.04483572766184807,0.08890443295240402,0.10820159316062927,-0.07855875045061111,0.24294276535511017,0.02031414397060871,-0.03542786464095116,0.02821548469364643,0.09209614992141724,0.08920899033546448,-0.21126239001750946,-0.1460326611995697,0.17004606127738953,0.1632409542798996,0.06717758625745773,-0.14126060903072357,0.18009227514266968,0.09314625710248947,-0.25679919123649597,0.19657541811466217,