{"version":"0.5.4","metadata":{"date":"2026-05-27T11:58:13","sample_rate":48000,"loudness":-21.777629852294922,"training_esr":0.017125083913966773,"pretrained":"Phoenix Pre 3 Tone 2.nam","architecture":"STANDARD","input_level_dbu":22.5,"output_level_dbu":6.4},"architecture":"WaveNet","config":{"layers":[{"input_size":2,"condition_size":2,"channels":16,"head_size":8,"kernel_size":3,"dilations":[1,2,4,8,16,32,64,128,256,512],"activation":"Tanh","gated":false,"head_bias":false},{"input_size":16,"condition_size":2,"channels":8,"head_size":1,"kernel_size":3,"dilations":[1,2,4,8,16,32,64,128,256,512],"activation":"Tanh","gated":false,"head_bias":true}],"head":null,"head_scale":0.02,"rate_condition_hidden":16,"rate_condition_num_biases":240},"weights":[-0.04699442908167839,-0.06966006755828857,0.6981385350227356,0.017324017360806465,-0.8900456428527832,-0.03464062139391899,-0.8341602087020874,0.0716286152601242,-0.5463353395462036,-0.10168518871068954,0.2779247462749481,-0.08422344923019409,-0.05324365198612213,0.006415688898414373,0.8033733367919922,-0.04575231298804283,-0.1233309954404831,0.0675639808177948,0.34561583399772644,-0.034462377429008484,-0.30848610401153564,0.05638417974114418,-0.24668560922145844,0.07596005499362946,-1.081148624420166,0.07162363827228546,-0.6452469229698181,0.024730496108531952,-0.5171582698822021,-0.10778351873159409,0.1294621378183365,-0.0563981719315052,0.03760553523898125,0.13942363858222961,-0.2711116373538971,-0.08922166377305984,-0.018093232065439224,0.17095914483070374,-0.018675483763217926,0.16341707110404968,-0.07320159673690796,0.046702250838279724,0.20701389014720917,-0.16785714030265808,-0.11462563276290894,-0.01548218633979559,-0.1593506634235382,0.02724516950547695,-0.23237353563308716,-0.08892061561346054,0.02641610987484455,0.04287025332450867,-0.0985298827290535,0.0936281830072403,-0.01071228738874197,0.10021256655454636,0.1457679271697998,0.1088576391339302,0.0498446561396122,-0.18497394025325775,-0.20016485452651978,-0.04373806342482567,0.15615729987621307,0.19269110262393951,-0.06581515818834305,0.08189833164215088,0.22611591219902039,0.14415597915649414,0.08761247992515564,0.09440536797046661,0.06218031421303749,-0.053871188312768936,0.1027865931391716,-0.14391031861305237,-0.10292340815067291,-0.030910884961485863,-0.010761933401226997,-0.05738537386059761,-0.2428947240114212,0.07825088500976562,0.1184961348772049,0.20627662539482117,-0.054394714534282684,-0.007106016390025616,-0.10262960940599442,0.18459461629390717,-0.06547780334949493,0.134623721241951,0.02183317020535469,0.15663090348243713,0.3070531189441681,0.08436906337738037,0.08374664187431335,0.08237174898386002,-0.017310576513409615,-0.10727802664041519,-0.29560381174087524,0.18543240427970886,0.11004156619310379,0.02871868945658207,-0.06361556053161621,-0.06203434616327286,-0.20288625359535217,-0.025541560724377632,0.05631446838378906,0.07611790299415588,-0.02637460269033909,0.04372675344347954,-0.07913759350776672,0.10875952988862991,-0.11718610674142838,0.07375183701515198,0.02262117713689804,0.04738990589976311,0.05916370078921318,-0.14560000598430634,0.17414847016334534,0.27976885437965393,-0.10501039028167725,0.0017375526949763298,0.04341018572449684,-0.0438825748860836,-0.05798531696200371,0.08994631469249725,-0.04120749980211258,0.02343350276350975,-0.24760447442531586,0.18834543228149414,-0.15103116631507874,-0.09175126999616623,0.10508130490779877,-0.07548759877681732,0.12877069413661957,0.03655434027314186,-0.018775692209601402,-0.11800779402256012,0.025039929896593094,-0.021745065227150917,-0.21568217873573303,0.049322567880153656,-0.17891836166381836,-0.24439004063606262,-0.05184052139520645,-0.02266654185950756,0.11116503179073334,-0.09844647347927094,-0.10751643776893616,-0.18539971113204956,-0.11557392030954361,0.02489551529288292,0.24854931235313416,0.008639439009130001,-0.06094645708799362,-0.2063625603914261,0.014007040299475193,0.12965796887874603,0.29690757393836975,0.10802717506885529,0.1017649918794632,-0.15809278190135956,-0.14668184518814087,-0.10955250263214111,-0.06750641018152237,-0.009994354099035263,-0.10513650625944138,-0.25857779383659363,-0.1578899621963501,-0.1577744483947754,-0.17939317226409912,0.053000546991825104,0.02468692511320114,-0.31175824999809265,0.05691209062933922,-0.05469299107789993,0.1765638291835785,-0.07742107659578323,0.11450445652008057,0.22471478581428528,-0.20643490552902222,-0.2740318179130554,-0.28346458077430725,0.00793583132326603,0.07553291320800781,0.30518221855163574,-0.12583261728286743,0.13217464089393616,0.3760372996330261,-0.06187598034739494,0.2707633674144745,0.2979070246219635,-0.16156227886676788,-0.04624912142753601,-0.2507984936237335,-0.040173571556806564,0.2743056118488312,0.13940155506134033,-0.033263109624385834,-0.16913571953773499,-0.14346592128276825,0.03914223611354828,0.21888385713100433,0.2953527271747589,-0.08170589804649353,-0.17461784183979034,-0.37201571464538574,0.09540113806724548,0.25198259949684143,0.33393624424934387,-0.11731106042861938,0.14804847538471222,0.14322133362293243,-0.11090616881847382,0.05863018333911896,0.3001910150051117,-0.08633854985237122,0.13684630393981934,0.2548101544380188,0.09393507987260818,0.030824586749076843,0.14856398105621338,-0.10424807667732239,-0.060096658766269684,-0.3163757622241974,0.20946334302425385,0.11503877490758896,0.10716861486434937,0.14779792726039886,-0.0413750521838665,-0.013512381352484226,-0.10002142190933228,0.0227440744638443,0.05601915344595909,-0.04250607267022133,-0.06649405509233475,0.14029599726200104,-0.0592958889901638,0.0482582226395607,0.21919868886470795,0.16848453879356384,0.04647298529744148,-0.09786802530288696,0.05748480558395386,-0.1518433392047882,-0.06498441845178604,-0.020740248262882233,-0.02968481369316578,-0.020106179639697075,0.06431905925273895,-0.04173610359430313,0.08870073407888412,0.10240046679973602,-0.08896566182374954,0.049162786453962326,-0.15631166100502014,-0.07906782627105713,0.037918344140052795,0.07959659397602081,0.0783119797706604,-0.05994485691189766,0.03235341235995293,0.08306463807821274,-0.11603415757417679,0.16160859167575836,-0.11183826625347137,0.023503286764025688,0.030657129362225533,-0.04142577201128006,0.06922627240419388,0.20842896401882172,-0.009021575562655926,-0.08783037960529327,-0.1102992445230484,-0.12752479314804077,-0.07566247880458832,-0.051801349967718124,-0.11195829510688782,0.008071535266935825,0.0933784544467926,0.09648290276527405,0.03177288547158241,0.04726603254675865,-0.03154095634818077,-0.12530428171157837,0.035959985107183456,0.1488395631313324,-0.03893120586872101,-0.057746145874261856,-0.04491139203310013,-0.008682037703692913,0.06833949685096741,-0.11490854620933533,-0.30062955617904663,0.08374129980802536,-0.10888122767210007,0.06758084893226624,0.049540963023900986,-0.0377330482006073,-0.2645745277404785,-0.16730551421642303,0.10721534490585327,0.12651289999485016,0.13228172063827515,-0.051328033208847046,-0.06200264021754265,-0.05459584668278694,-0.019144628196954727,-0.21623791754245758,0.021410353481769562,0.06166106089949608,-0.08822469413280487,-0.04052186757326126,-0.07511593401432037,0.013043512590229511,-0.11714760214090347,0.07449020445346832,-0.1417035311460495,-0.07628180831670761,0.042765840888023376,0.08921709656715393,0.05766819417476654,-0.04564030468463898,-0.30888959765434265,0.09413298964500427,0.1103532537817955,0.19215694069862366,-0.0620887316763401,-0.15285879373550415,-0.14082182943820953,0.09536899626255035,-0.09018505364656448,-0.06849146634340286,0.14186185598373413,-0.11584113538265228,-0.12557090818881989,0.11793413013219833,0.09289250522851944,0.1769402027130127,0.0031789010390639305,-0.2440866082906723,-0.21843402087688446,0.10963980853557587,0.16623540222644806,0.20590099692344666,-0.023841971531510353,-0.05598857253789902,-0.28735485672950745,-0.11731237173080444,-0.0700688362121582,0.28850048780441284,0.04914947971701622,-0.15650272369384766,-0.08336809277534485,0.13931520283222198,0.06857451051473618,-0.04210334271192551,0.14048336446285248,-0.07137053459882736,-0.17432841658592224,0.16299746930599213,0.0417756512761116,-0.21159951388835907,0.17190046608448029,0.020193133503198624,-0.059670429676771164,-0.04690011218190193,0.1624096930027008,0.17067115008831024,0.0719832330942154,-0.18912482261657715,-0.18868987262248993,0.05053568258881569,0.16971875727176666,0.11767233908176422,0.03328757360577583,-0.2050049901008606,-0.1291826218366623,-0.07369048148393631,-0.23354491591453552,-0.2660714387893677,0.15301774442195892,-0.05854488164186478,-0.054992496967315674,0.12987136840820312,-0.056023191660642624,0.028772423043847084,-0.08200431615114212,-0.1947183758020401,-0.06341062486171722,-0.02783380262553692,0.019188307225704193,0.009198448620736599,-0.11698246002197266,0.03447699546813965,-0.020646395161747932,0.18021470308303833,0.20393326878547668,0.28237277269363403,-0.08819901198148727,-0.015304526314139366,-0.004949348513036966,0.09723592549562454,0.0647260770201683,-0.06473375856876373,0.15436723828315735,-0.14339697360992432,-0.08270963281393051,0.053770918399095535,-0.12669417262077332,-0.23311585187911987,-0.046145640313625336,-0.239034503698349,-0.08801024407148361,0.11749447882175446,0.08566475659608841,0.08071630448102951,-0.0005205811467021704,0.09167777746915817,-0.18524539470672607,0.03580942004919052,0.11422261595726013,0.1830684095621109,-0.18464043736457825,0.16116535663604736,-0.0002505774609744549,0.014993852935731411,0.10192360728979111,-0.19674374163150787,0.04625684395432472,0.14417430758476257,-0.11586581915616989,-0.017655594274401665,-0.038109682500362396,0.1056886836886406,-0.07622222602367401,-0.017686547711491585,-0.06331414729356766,0.07061746716499329,-0.10970398038625717,0.11941023916006088,0.004348434507846832,0.03703358769416809,-0.320687860250473,0.02233836054801941,-0.11994107812643051,0.07159708440303802,-0.020418286323547363,-0.09735880047082901,-0.0724145844578743,0.1787911355495453,0.00606188178062439,-0.24793116748332977,0.01077956985682249,0.05228380113840103,-0.2246209681034088,0.13994814455509186,-0.11147573590278625,-0.2535924017429352,-0.07499582320451736,-0.01484437845647335,-0.0314323753118515,-0.06539356708526611,0.13334743678569794,0.14813607931137085,-0.06731324642896652,0.043519213795661926,-0.22242793440818787,0.2261291742324829,0.07125809788703918,0.21597275137901306,0.03034624084830284,-0.08619242161512375,0.057161372154951096,0.048047859221696854,0.07045712321996689,-0.18784141540527344,-0.006247280165553093,-0.11376938968896866,-0.10896092653274536,0.09468911588191986,-0.08860374987125397,0.14601020514965057,0.06660173833370209,0.001714580226689577,-0.22520822286605835,-0.06983180344104767,-0.04591041058301926,0.1340685486793518,0.10914549976587296,0.047413893043994904,-0.14791838824748993,0.06261951476335526,-0.14043229818344116,-0.04040459543466568,0.029743477702140808,-0.09278251975774765,-0.01508296374231577,-0.07959524542093277,-0.08867470920085907,-0.22087332606315613,0.09824526309967041,-0.012593092396855354,0.03943601995706558,0.124442458152771,0.08131822198629379,-0.0673399269580841,-0.010522429831326008,-0.015201511792838573,-0.044982969760894775,0.12179653346538544,-0.08647644519805908,0.244446262717247,-0.06493744999170303,-0.16300901770591736,-0.010400377213954926,0.0009751298930495977,0.14662328362464905,-0.21897177398204803,0.1661142259836197,0.05585140362381935,0.16107714176177979,0.06738903373479843,-0.0809606984257698,0.13518351316452026,0.014747224748134613,-0.07976441085338593,0.11095826327800751,-0.1292167752981186,0.07042457908391953,-0.14671070873737335,-0.028658930212259293,0.06345915794372559,0.18633738160133362,-0.11053872853517532,0.017422111704945564,-0.002353449584916234,0.02780100144445896,0.07907065004110336,0.09535609930753708,0.0231707151979208,-0.10444771498441696,-0.1830546110868454,-0.02385839819908142,0.14347213506698608,0.06019863858819008,-0.028962012380361557,-0.05348948389291763,0.2551010847091675,0.10527730733156204,-0.11400524526834488,-0.029169654473662376,-0.15545286238193512,-0.007175292354077101,0.048570483922958374,-0.13975384831428528,-0.0862446278333664,0.0901026502251625,-0.15658800303936005,0.009886602871119976,-0.17470858991146088,0.0030868216417729855,0.1066133975982666,0.023396354168653488,0.05775674059987068,-0.08141464740037918,0.04530291631817818,0.005360627546906471,-0.05054464191198349,-0.2307499349117279,0.26819562911987305,-0.005268977489322424,-0.06523218005895615,0.11511829495429993,0.05529889091849327,-0.1354561150074005,0.22485890984535217,-0.07612891495227814,-0.05217071622610092,-0.21052208542823792,0.04832673445343971,-0.0212099626660347,0.06504732370376587,0.05050026625394821,0.05844023451209068,-0.1504106968641281,0.20154725015163422,-0.02184329740703106,0.26410824060440063,-0.004177351947873831,0.05163139849901199,-0.23112432658672333,0.07484101504087448,0.030726999044418335,0.07682731002569199,-0.0481242835521698,-0.03572112321853638,0.2730306088924408,0.044902313500642776,-0.21256084740161896,-0.003367519937455654,0.12179772555828094,-0.1024133563041687,0.05270989611744881,0.11428524553775787,-0.045232973992824554,0.24417102336883545,0.023238519206643105,0.09564908593893051,-0.29002708196640015,-0.1552342176437378,-0.022883472964167595,0.14938406646251678,0.06770366430282593,-0.02657773531973362,0.075583316385746,0.13571186363697052,0.039950642734766006,-0.06956682354211807,-0.0545339435338974,-0.19250638782978058,0.1931372731924057,-0.08043944835662842,-0.17954570055007935,0.12014423310756683,-0.05836208164691925,0.03199153020977974,-0.06546158343553543,-0.02864956296980381,-0.24479900300502777,0.19537276029586792,-0.06412142515182495,0.14265894889831543,0.07184441387653351,0.059937089681625366,-0.10028822720050812,0.19014720618724823,0.024079954251646996,0.0380856953561306,0.07649588584899902,0.030632220208644867,-0.2376796007156372,0.011938621290028095,-0.10565956681966782,0.014982613734900951,0.037206314504146576,-0.13164205849170685,-0.1015082523226738,0.14670830965042114,0.037149008363485336,-0.047325149178504944,0.06753869354724884,0.03884240612387657,-0.14617963135242462,-0.011678467504680157,-0.11118634790182114,0.022635720670223236,-0.019877510145306587,-0.05336069315671921,0.3268114924430847,0.03483033552765846,0.05849592387676239,-0.287628710269928,0.19481590390205383,-0.12529495358467102,0.3053149878978729,-0.15385007858276367,-0.09151992201805115,0.248433455824852,-0.11709287017583847,0.1091499775648117,0.13684386014938354,-0.14310431480407715,0.012163670733571053,-0.11489342898130417,0.22309556603431702,-0.1395503431558609,0.22076556086540222,-0.14584751427173615,0.024226848036050797,-0.0608137883245945,-0.058428291231393814,-0.06426864117383957,0.2847949266433716,-0.13462629914283752,0.1757579743862152,-0.21826207637786865,0.18984390795230865,-0.20747439563274384,0.12519074976444244,-0.0987868532538414,-0.029565177857875824,0.21269068121910095,0.017924092710018158,-0.07662733644247055,0.166610449552536,0.043020255863666534,-0.09329290688037872,0.297233521938324,-0.14921651780605316,-0.03471742570400238,0.21598783135414124,0.04075886309146881,0.19260023534297943,-0.21837984025478363,0.04037729278206825,0.003555268282070756,-0.08873497694730759,-0.05491068214178085,-0.07709085196256638,0.1393151581287384,0.17996975779533386,-0.004304342437535524,-0.17981185019016266,0.053666967898607254,-0.11385135352611542,-0.004971976857632399,-0.019016576930880547,-0.1061185896396637,-0.018300630152225494,-0.19685159623622894,0.016611602157354355,-0.07580423355102539,0.001512550050392747,0.023258646950125694,0.08087439835071564,-0.10569159686565399,0.09958051145076752,0.01863204501569271,-0.028477221727371216,-0.10584643483161926,-0.14985419809818268,0.1229596734046936,-0.03460913151502609,0.046206679195165634,0.07613424956798553,0.10190128535032272,0.09842026978731155,0.08767878264188766,-0.09614524990320206,-0.049350276589393616,-0.11192984133958817,-0.09003869444131851,-0.004597058054059744,0.09513342380523682,-0.12303858250379562,0.04904119670391083,-0.11546090245246887,-0.05711875110864639,0.05562567710876465,-0.09206776320934296,-0.0005402495735324919,-0.06798585504293442,0.13697786629199982,0.017031125724315643,-0.4100562334060669,0.1324399709701538,-0.15667787194252014,0.08378276973962784,-0.0963810607790947,0.15036040544509888,-0.2303175926208496,0.1501355916261673,0.1766665279865265,-0.08326531946659088,0.022279681637883186,-0.001188731985166669,-0.28210166096687317,-0.05290708318352699,-0.08617768436670303,0.25132039189338684,-0.0020412583835422993,0.1376226544380188,-0.14076551795005798,0.11516990512609482,0.059306565672159195,0.11453832685947418,-0.193704292178154,0.13980822265148163,-0.06279755383729935,0.027368007227778435,0.060080934315919876,0.23480097949504852,-0.2188074290752411,0.03645921126008034,-0.029384586960077286,-0.002494082786142826,0.0463540218770504,-0.11791009455919266,0.0026971392799168825,0.13059841096401215,-0.1046963557600975,0.18680454790592194,-0.04132668673992157,-0.03333444893360138,0.00968586839735508,0.17023731768131256,-0.3574826121330261,-0.05567406490445137,-0.05077182129025459,0.22271612286567688,-0.18889956176280975,-0.07779554277658463,-0.05026853084564209,-0.03694719076156616,-0.10309262573719025,0.015452896244823933,0.042845867574214935,0.00565863074734807,0.015310155227780342,0.10512572526931763,0.04812316969037056,-0.045822013169527054,-0.01664973981678486,-0.0708976686000824,-0.022260025143623352,-0.0766114890575409,-0.03609434515237808,0.4952351450920105,0.1369529664516449,-0.3969181776046753,-0.0444156639277935,0.8239626288414001,-0.026299886405467987,-0.7109401226043701,0.02405204065144062,-0.06915676593780518,-0.09335696697235107,0.8989470601081848,-0.055573366582393646,0.9454643726348877,-0.0744556412100792,-0.6006357669830322,0.0675489753484726,0.1108565405011177,-0.042306650429964066,0.07834901660680771,-0.06722461432218552,-0.41982799768447876,0.06455262750387192,-0.4669424593448639,-0.007636772468686104,0.21926258504390717,0.004761466756463051,-0.6604867577552795,-0.0934499055147171,0.2141977697610855,0.10621263086795807,0.3585652709007263,0.13158564269542694,-0.10208380967378616,0.27959010004997253,-0.08935726433992386,0.2219272404909134,0.16827929019927979,-0.08199775218963623,0.05961965024471283,-0.13853086531162262,-0.11175832897424698,-0.09890356659889221,0.025624649599194527,-0.212763249874115,-0.000681352277752012,0.10573853552341461,0.14844851195812225,-0.1596558839082718,0.2354358285665512,-0.02993948385119438,-0.24527013301849365,0.1522258222103119,-0.05566403642296791,-0.13567893207073212,-0.14138875901699066,-0.04669219255447388,-0.1402333676815033,0.018445702269673347,0.0456509031355381,0.04168054088950157,0.0946173444390297,-0.028544306755065918,0.14701487123966217,0.22329619526863098,-0.03136753290891647,0.1230362206697464,-0.1049422025680542,0.26479199528694153,-0.11776741594076157,-0.1814374178647995,0.0013540784129872918,-0.34465911984443665,-0.042611509561538696,-0.1575152426958084,0.11589168012142181,-0.25030654668807983,0.08072231709957123,0.351682186126709,-0.006909975782036781,-0.2168441265821457,0.319147527217865,-0.12146352976560593,-0.06373226642608643,-0.13819003105163574,-0.14350968599319458,0.03547262027859688,0.001994283637031913,0.04689539968967438,-0.2422385811805725,-0.012955104000866413,0.01739017479121685,0.008587656542658806,0.18409492075443268,0.23055939376354218,-0.07609109580516815,0.045779258012771606,-0.24738655984401703,-0.19121257960796356,-0.23526187241077423,0.2590111196041107,0.21209107339382172,0.09073338657617569,0.09619886428117752,-0.28788480162620544,0.03939718008041382,0.23437446355819702,-0.21241281926631927,0.3261353671550751,-0.0025785043835639954,0.22188176214694977,-0.34241002798080444,-0.04313110187649727,-0.3589555323123932,-0.030481211841106415,0.11818201839923859,0.029384521767497063,0.3724527060985565,0.25859299302101135,0.26188424229621887,0.15294358134269714,0.21902276575565338,0.021390149369835854,-0.19525593519210815,0.0163717158138752,-0.024427063763141632,-0.16270951926708221,0.025351643562316895,0.005715179722756147,-0.020694732666015625,0.04100978374481201,0.22365668416023254,0.09739343822002411,-0.21140246093273163,-0.15248271822929382,0.10703776776790619,0.09157281368970871,0.14721691608428955,-0.20392441749572754,-0.2564343214035034,0.1106136217713356,0.15288883447647095,-0.24655233323574066,0.11380211263895035,-0.1556500345468521,0.059686850756406784,0.05999087914824486,0.28061091899871826,-0.2941717803478241,-0.1016232892870903,0.1801045536994934,0.25690674781799316,0.12482962012290955,0.21469926834106445,-0.15317469835281372,0.15266309678554535,-0.20186036825180054,0.03391755372285843,-0.19172602891921997,-0.18832892179489136,-0.036901216953992844,0.03435683622956276,-0.02641642652451992,-0.2577804923057556,-0.20645305514335632,-0.002648227382451296,-0.10211935639381409,-0.1733776479959488,-0.06757192313671112,-0.240085169672966,-0.24498173594474792,0.18679633736610413,0.057630591094493866,0.04567188397049904,-0.12215913087129593,0.17203401029109955,0.07980906218290329,-0.29703888297080994,-0.021358966827392578,0.3216116428375244,-0.310354083776474,-0.09316355735063553,0.09728016704320908,0.2932741641998291,-0.11578094214200974,0.11873304843902588,0.2721969783306122,0.08209351450204849,0.1260806769132614,0.26972341537475586,0.08316440880298615,-0.18901032209396362,0.03724958002567291,0.15722666680812836,0.2118922621011734,-0.26709598302841187,0.14612872898578644,-0.13697198033332825,-0.2366175502538681,0.043173983693122864,-0.06689845770597458,0.027758106589317322,-0.15972095727920532,-0.2149249166250229,-0.0723237618803978,-0.08350820094347,0.15198087692260742,0.07313404977321625,0.2407180368900299,0.19782754778862,-0.052594367414712906,0.10869228094816208,0.06083281710743904,-0.1226535439491272,-0.11461297422647476,-0.06230061873793602,-0.01499502919614315,-0.08224425464868546,-0.2758243978023529,0.03832592815160751,-0.20971323549747467,-0.055006831884384155,0.19214347004890442,-0.10671927034854889,-0.12105968594551086,0.0560409240424633,-0.028631294146180153,-0.010329036973416805,0.09051363170146942,0.04332810640335083,-0.22360092401504517,-0.0764932706952095,0.17526943981647491,0.15162229537963867,-0.10037767142057419,-0.13195261359214783,0.1343579739332199,0.2076282799243927,-0.11103391647338867,-0.05328454449772835,0.1710730642080307,0.085556760430336,-0.2428089678287506,-0.17075343430042267,0.10666229575872421,-0.21498484909534454,0.19661927223205566,0.16834679245948792,0.05661102756857872,-0.0203577671200037,-0.08777990192174911,-0.05998173728585243,-0.050189223140478134,-0.15929757058620453,-0.07271983474493027,-0.08042175322771072,0.24739092588424683,-0.22443756461143494,0.3590005338191986,-0.18478313088417053,0.0526367612183094,0.1788438856601715,-0.04658160358667374,0.05251329764723778,-0.07828065007925034,-0.3634917736053467,0.06836462020874023,-0.12901510298252106,0.00157840340398252,0.016343943774700165,0.38916441798210144,-0.40137287974357605,-0.32965192198753357,0.11710738390684128,0.09881618618965149,0.2361408770084381,-0.09300883859395981,-0.15033955872058868,0.25610241293907166,0.1354333460330963,0.22550378739833832,-0.07802591472864151,-0.10696888715028763,-0.019176144152879715,-0.3563855290412903,0.08173028379678726,0.18559424579143524,0.025064652785658836,-0.14073705673217773,0.12272199243307114,-0.18638864159584045,0.24748796224594116,-0.27301985025405884,-0.1780957132577896,-0.049772173166275024,0.21709312498569489,0.06239430606365204,0.06709153205156326,-0.19840264320373535,0.09042900055646896,-0.0674934983253479,0.037649862468242645,0.17096225917339325,0.15966618061065674,0.0035861786454916,-0.13461151719093323,-0.20841127634048462,-0.11498209089040756,0.10150948166847229,-0.048333846032619476,0.09157485514879227,-0.21733765304088593,-0.13602201640605927,-0.031020844355225563,-0.22034120559692383,-0.05291939154267311,-0.04458313062787056,-0.0617365725338459,-0.09240070730447769,0.04453056678175926,0.2945442497730255,-0.003644695971161127,0.09470530599355698,-0.06459486484527588,-0.06123504415154457,0.11071076989173889,0.2034682184457779,0.05033877119421959,-0.07973762601613998,-0.19682985544204712,0.004998722113668919,-0.13192664086818695,0.006323494017124176,0.08927584439516068,-0.05611240863800049,-0.31450921297073364,-0.13438746333122253,-0.058411605656147,-0.2680514454841614,-0.1779751181602478,-0.012847736477851868,-0.24370208382606506,-0.0719163790345192,-0.10334575921297073,-0.13614988327026367,0.04758543521165848,-0.10154590755701065,-0.29520803689956665,-0.06675728410482407,-0.07403114438056946,0.32626697421073914,0.055389825254678726,-0.0075378576293587685,-0.07636316865682602,0.09131688624620438,0.2470744550228119,-0.23969151079654694,-0.03518965467810631,0.012051126919686794,-0.1156046986579895,0.01665610633790493,0.21278460323810577,-0.1809142827987671,0.04673638194799423,-0.07467721402645111,0.11954960227012634,-0.10340075939893723,0.09030948579311371,-0.03780334070324898,-0.2004951536655426,-0.13523642718791962,0.12402904033660889,-0.1518958956003189,-0.07317906618118286,0.15344856679439545,-0.09607864171266556,-0.051892880350351334,-0.16708096861839294,0.022648463025689125,0.03316684812307358,0.16915293037891388,-0.031153129413723946,-0.20819048583507538,-0.018741479143500328,0.11343006044626236,0.06913811713457108,-0.19791539013385773,0.006266482640057802,0.22133737802505493,0.025827590376138687,-0.05957245081663132,0.03269636258482933,0.04167274013161659,0.09708952903747559,0.0864342451095581,-0.04965466633439064,-0.008813217282295227,0.12537868320941925,-0.10747772455215454,0.019775452092289925,-0.2365221232175827,0.01572868600487709,-0.13674946129322052,-0.01020592637360096,0.16047625243663788,0.10804331302642822,-0.13779811561107635,0.04611774533987045,0.04816983640193939,0.05921453237533569,0.07194928824901581,-0.05946435034275055,-0.14186416566371918,0.0803036317229271,-0.08548780530691147,0.06139417737722397,-0.0682874247431755,0.1303686797618866,0.16425862908363342,0.11371205747127533,-0.07680702209472656,-0.05351874977350235,-0.05594971030950546,-0.037757519632577896,0.1515173763036728,-0.04068227857351303,-0.14838376641273499,-0.09124073386192322,-0.10131251066923141,0.1104372963309288,-0.09434476494789124,-0.1344195157289505,-0.2021450400352478,0.02855697087943554,0.15258562564849854,-0.14875860512256622,0.006556858774274588,0.028989924117922783,-0.006176562514156103,-0.022580014541745186,-0.0016234945505857468,-0.025918325409293175,0.07377248257398605,-0.0013213841011747718,0.03652062267065048,0.08587323874235153,-0.037535738199949265,0.1697634607553482,0.16184589266777039,-0.05675651133060455,-0.08918491750955582,0.05975903198122978,-0.04074181988835335,0.09762594103813171,0.10256646573543549,0.11272378265857697,-0.16461004316806793,-0.1480005532503128,0.13121934235095978,0.09450018405914307,-0.09319926053285599,-0.08920706808567047,-0.13159802556037903,-0.08344684541225433,-0.20640318095684052,0.10672086477279663,-0.07013879716396332,0.05597995966672897,0.12708379328250885,0.030304132029414177,-0.21421432495117188,0.05546047165989876,0.03404349833726883,0.16200698912143707,-0.14503361284732819,0.0727185532450676,0.08550377190113068,-0.10244562476873398,0.016169389709830284,0.20164045691490173,-0.13147862255573273,0.05468572676181793,0.19918611645698547,0.07991603016853333,0.21154749393463135,0.06687546521425247,0.11239716410636902,-0.0713692158460617,0.09451650828123093,-0.16981907188892365,-0.12384729087352753,-0.04770134016871452,-0.09900567680597305,0.09992107003927231,0.07322710752487183,0.1296667605638504,0.12183213979005814,-0.09259270876646042,-0.03068052977323532,-0.11321603506803513,0.10598499327898026,0.11310862004756927,-0.05822743475437164,-0.04254814237356186,0.10274609923362732,-0.15060646831989288,-0.104519784450531,0.08296331018209457,0.06904295831918716,-0.06855301558971405,-0.05249875411391258,-0.14102312922477722,-0.15529650449752808,0.05422761291265488,0.053104646503925323,0.07936840504407883,-0.13533730804920197,0.011980865150690079,0.04997149482369423,0.1519998162984848,0.23928575217723846,0.0602644681930542,0.01865735836327076,-0.142763152718544,-0.10117454081773758,-0.09919171780347824,0.11104848980903625,0.11730539798736572,-0.08134330809116364,-0.126650869846344,-0.021784130483865738,0.0660807266831398,-0.007439465261995792,-0.27916255593299866,-0.22920873761177063,0.04863426834344864,0.005234492011368275,-0.04449639096856117,-0.0025384665932506323,-0.006905558984726667,-0.10643131285905838,-0.25699445605278015,0.19427110254764557,0.12117201834917068,0.06485207378864288,-0.007589730434119701,-0.23140926659107208,-0.07245643436908722,-0.09823668748140335,0.08052972704172134,0.08712775260210037,-0.01358439028263092,-0.14642736315727234,0.042433932423591614,0.006798043381422758,0.05857786908745766,0.05960199609398842,-0.12769249081611633,-0.008863404393196106,-0.014780244790017605,0.006102036684751511,0.006271138787269592,-0.06635734438896179,0.1212858185172081,-0.0720670074224472,-0.0005455465288832784,0.06135280430316925,-0.0426461398601532,0.12993742525577545,0.24252930283546448,0.15981310606002808,0.02000858075916767,0.05412160977721214,-0.00469260523095727,-0.07067856937646866,0.15863750874996185,0.0038562980480492115,0.1241438239812851,0.24081651866436005,-0.17024636268615723,0.06832468509674072,0.09899817407131195,0.1702299416065216,0.08105424046516418,-0.011658726260066032,-0.08401846140623093,0.1216997504234314,-0.08747058361768723,-0.09710094332695007,-0.23543421924114227,-0.07625240832567215,-0.017620351165533066,0.023737864568829536,-0.03706791624426842,-0.0481194406747818,-0.08917821198701859,0.060334112495183945,0.1677102893590927,-0.11704616248607635,-0.07536683976650238,-0.14162342250347137,0.08017108589410782,0.051437802612781525,-0.04318322241306305,-0.07126344740390778,-0.06423410028219223,0.09142252057790756,-0.001988994190469384,0.22902897000312805,0.15714938938617706,0.17089416086673737,0.1153809204697609,-0.06749329715967178,0.09293808788061142,0.02744511142373085,0.1450059711933136,0.011060341261327267,-0.07463095337152481,-0.14923520386219025,-0.1502581387758255,0.12965834140777588,0.10257410258054733,0.07513082027435303,0.016042565926909447,-0.12550710141658783,0.0032879896461963654,-0.1775462031364441,-0.010813278146088123,-0.060754138976335526,0.037951815873384476,0.09306661784648895,0.16526098549365997,-0.03455336019396782,0.05631956830620766,-0.1442112773656845,-0.14457178115844727,-0.07218722999095917,-0.039677172899246216,-0.03602312505245209,-0.021677939221262932,-0.07222642004489899,-0.16161566972732544,-0.03785787895321846,0.14356955885887146,0.07410793006420135,-0.057361070066690445,-0.1174527034163475,-0.183346688747406,-0.06861341744661331,0.1313878744840622,-0.11851219087839127,-0.12172070145606995,-0.08954006433486938,-0.009390956722199917,-0.1721387505531311,-0.15829838812351227,0.23595450818538666,0.0002533964579924941,-0.07335075736045837,-0.03237472102046013,-0.08759477734565735,-0.002550301840528846,0.14855752885341644,0.021596714854240417,-0.00010607363219605759,-0.09644989669322968,-0.19302380084991455,0.1260606199502945,0.19854864478111267,0.16296802461147308,-0.0488988533616066,-0.0324961319565773,-0.20279808342456818,-0.021403638646006584,-0.09607911109924316,-0.10613629966974258,0.10663505643606186,-0.1461651623249054,-0.08394637703895569,-0.08454578369855881,-0.16944342851638794,-0.037441104650497437,-0.11688559502363205,0.02875482849776745,-0.03320278599858284,0.1400996893644333,0.07662368565797806,0.08934149891138077,0.07136083394289017,0.16593718528747559,0.08839471638202667,-0.079317107796669,-0.12188972532749176,-0.1732059270143509,-0.09860394150018692,0.15102851390838623,0.022130947560071945,0.1299295276403427,0.10074702650308609,-0.02379787713289261,-0.10587063431739807,0.13642257452011108,0.12274369597434998,0.07312266528606415,-0.13165414333343506,0.17809225618839264,0.06475481390953064,0.07699475437402725,0.07033946365118027,0.07197107374668121,-0.16093578934669495,-0.05270891264081001,0.11054598540067673,-0.008363922126591206,-0.15383851528167725,0.11323122680187225,-0.04311083257198334,0.14379878342151642,-0.11214864253997803,0.09541210532188416,-0.1154005229473114,-0.09005244821310043,-0.0012345658615231514,-0.12296097725629807,0.03989829495549202,-0.06154785677790642,0.1368158608675003,0.048509422689676285,-0.02564948983490467,-0.08301088958978653,-0.14308343827724457,-0.012203559279441833,-0.12045023590326309,-0.011716875247657299,-0.018965408205986023,-0.0034194141626358032,-0.07810476422309875,0.23349912464618683,0.1457492709159851,0.01800336129963398,-0.11192017048597336,0.023734958842396736,0.07976675033569336,0.004226636607199907,0.040570296347141266,0.02957676351070404,-0.08890949189662933,0.07269725948572159,-0.09427408874034882,0.13569578528404236,-0.014570309780538082,-0.0579008013010025,-0.1899312436580658,-0.07413694262504578,0.033717021346092224,0.1036541685461998,0.045110270380973816,0.18135693669319153,-0.22094812989234924,0.011538457125425339,0.1309787929058075,0.09420781582593918,0.19614826142787933,0.05671634152531624,-0.23899386823177338,-0.15425348281860352,-0.010506567545235157,0.09245840460062027,0.11530409008264542,0.19182007014751434,0.057741206139326096,-0.06795001775026321,-0.05076759681105614,0.09443163126707077,0.008479640819132328,-0.09044123440980911,-0.04565241187810898,0.09075818210840225,0.07466301321983337,0.0342785082757473,-0.12996293604373932,0.06452727317810059,-0.30250710248947144,-0.17233192920684814,-0.19601193070411682,0.0038187603931874037,0.0644313395023346,-0.14297571778297424,-0.1380092352628708,0.06145352125167847,-0.11543137580156326,0.06334081292152405,-0.007227479945868254,0.07175784558057785,-0.043221473693847656,0.03147036209702492,0.059241198003292084,-0.018185527995228767,-0.017713693901896477,-0.15433622896671295,-0.10742764174938202,0.03365739434957504,-0.009025120176374912,-0.11295488476753235,0.08295928686857224,0.12069837749004364,-0.1713891476392746,0.046679213643074036,0.05309326946735382,0.08196713775396347,0.060449957847595215,0.18922457098960876,-0.1298970878124237,-0.1689681112766266,-0.045499637722969055,0.22480206191539764,0.020405486226081848,-0.03912220895290375,0.24428673088550568,0.07376505434513092,-0.08324872702360153,0.13958829641342163,0.05786502733826637,0.07541702687740326,0.0879608541727066,-0.023328986018896103,0.0750841572880745,0.14706158638000488,-0.033417459577322006,-0.11028315871953964,-0.1276959478855133,-0.1962491124868393,-0.0053067333064973354,0.2486136108636856,0.10082460939884186,-0.1373763531446457,-0.051252372562885284,-0.03318709135055542,-0.1931057870388031,0.043566737323999405,0.23085764050483704,0.08595378696918488,0.04157571122050285,0.05236512050032616,-0.01916874758899212,0.06156092509627342,0.05854023993015289,-0.08513172715902328,-0.11179614812135696,0.04935894533991814,0.0746879130601883,-0.046105287969112396,-0.05917254090309143,0.16323067247867584,0.05707312747836113,0.0904516726732254,0.07946744561195374,0.18158310651779175,-0.07310818880796432,-0.11421924829483032,-0.25983116030693054,0.020283052697777748,0.024076400324702263,0.026795171201229095,0.13047879934310913,-0.11819129437208176,-0.04371048882603645,0.0836704820394516,-0.050878025591373444,-0.007174238562583923,-0.04091701656579971,0.15208274126052856,0.1675623506307602,0.061236828565597534,-0.022428419440984726,0.23985207080841064,0.09249751269817352,-0.16305841505527496,-0.20760616660118103,-0.053234972059726715,0.07152917981147766,-0.10852453857660294,0.049151573330163956,-0.11230660229921341,0.08449617773294449,0.06746320426464081,-0.006236318498849869,0.07561228424310684,0.0607781857252121,-0.09623730182647705,0.05243776738643646,0.055653639137744904,-0.020092623308300972,0.09321025758981705,-0.10705602914094925,-0.1801227182149887,-0.12853486835956573,-0.1645611822605133,0.11723815649747849,-0.03222989663481712,-0.08928576856851578,-0.006315530743449926,-0.14388276636600494,-0.072166308760643,0.08690845966339111,-0.002184470882639289,0.11359833180904388,0.14047938585281372,-0.05683104693889618,0.028951015323400497,-0.10502368956804276,0.1722390502691269,0.16868481040000916,0.05097374692559242,0.1865808218717575,-0.13995465636253357,-0.03817950561642647,0.1195085197687149,-0.13543416559696198,0.06008670851588249,0.026604479178786278,0.00352038093842566,-0.08297783136367798,0.04135645180940628,-0.1294071078300476,-0.0720151960849762,-0.012233820743858814,0.11960350722074509,0.05232497677206993,0.05291781201958656,-0.031887274235486984,0.12759198248386383,0.002414862159639597,0.07063084095716476,0.045682840049266815,0.19361858069896698,-0.09449456632137299,0.1381048858165741,-0.08597635477781296,-0.06627393513917923,-0.0421065017580986,-0.009586147964000702,0.04011465236544609,0.11945929378271103,-0.13222697377204895,0.04454308748245239,-0.11977415531873703,0.005077645648270845,0.15261027216911316,0.10370778292417526,0.07275627553462982,0.042196717113256454,-0.004411029629409313,0.05617498233914375,-0.05284431576728821,0.10675744712352753,0.02125568687915802,-0.12902380526065826,0.10674959421157837,0.036274686455726624,0.0348442904651165,-0.021258320659399033,0.022157253697514534,-0.01335196290165186,-0.07783680409193039,-0.11956289410591125,-0.02811289019882679,-0.06923587620258331,0.12913820147514343,0.13340595364570618,-0.06856941431760788,0.11052712053060532,-0.02520531788468361,-0.0804048404097557,-0.05285012722015381,-0.11596375703811646,0.07865839451551437,-0.17991194128990173,-0.01009355764836073,-0.13801702857017517,-0.008974282070994377,0.18020492792129517,-0.030959608033299446,-0.10120581090450287,0.0890100821852684,-0.0032842461951076984,-0.04210419952869415,-0.054441697895526886,-0.012238577008247375,-0.0026182832662016153,0.11010315269231796,0.025850750505924225,0.19109980762004852,-0.0679798275232315,-0.014974867925047874,0.03139365464448929,0.06287705898284912,0.09669816493988037,0.06309586018323898,0.04531528800725937,-0.04433951526880264,0.02236848510801792,-0.1390046924352646,-0.09294022619724274,-0.04233270511031151,-0.10002867132425308,0.1330113708972931,-0.06566207855939865,0.06875583529472351,0.05242868885397911,0.03487566113471985,0.07228118181228638,-0.04236873984336853,0.05871428921818733,-0.007915381342172623,0.02181697078049183,-0.061278603971004486,-0.04128964990377426,-0.05586724355816841,-0.1826297789812088,0.00922318734228611,-0.10636653006076813,0.09986988455057144,-0.024631710723042488,-0.0006944286869838834,-0.07154913991689682,0.2855255603790283,-0.05472951754927635,-0.011759806424379349,0.07191609591245651,0.06887738406658173,0.08081775903701782,0.22857658565044403,0.14440934360027313,0.0610145702958107,0.07888608425855637,-0.11314710974693298,-0.000766144716180861,0.09066730737686157,0.07731183618307114,-0.08687680214643478,-0.28215470910072327,-0.04358972609043121,0.07449030131101608,0.052550386637449265,-0.16806159913539886,-0.032900113612413406,-0.2742356061935425,-0.18058401346206665,-0.02308543212711811,0.037004124373197556,0.027040105313062668,-0.14900733530521393,-0.001307560596615076,0.10745136439800262,0.08251513540744781,0.24980416893959045,-0.04317377507686615,-0.057106081396341324,0.09582238644361496,0.0028669426683336496,0.058099087327718735,-0.05839545652270317,0.08618863672018051,0.07589063048362732,0.15118113160133362,-0.06440526992082596,0.09939879924058914,0.12671096622943878,0.13840913772583008,-0.14905548095703125,-0.007764159701764584,0.037778548896312714,0.1380995512008667,0.09430042654275894,0.04248908907175064,0.0879712700843811,-0.09012649208307266,0.12516620755195618,0.15062130987644196,0.15077023208141327,-0.06713970005512238,-0.01047470886260271,0.025387300178408623,0.11004195362329483,0.08129744231700897,0.09418439120054245,0.07108308374881744,-0.03157074376940727,-0.2703978419303894,-0.02891850657761097,0.26647135615348816,0.019726257771253586,0.2523823082447052,-0.06181611120700836,-0.5060368776321411,0.059981249272823334,0.17368631064891815,-0.044303227216005325,-0.7638754844665527,0.09059281647205353,-0.3168299198150635,-0.05424603447318077,-0.35250717401504517,-0.0508250966668129,0.8594921827316284,-0.07841155678033829,-0.9025378227233887,-0.031016558408737183,-0.6277168393135071,0.019183650612831116,-1.0356886386871338,-0.06446393579244614,0.2773623466491699,0.08877087384462357,-0.7367110848426819,-0.16151851415634155,0.3186718821525574,0.07460200786590576,-0.7593638300895691,0.011684081517159939,-0.23237307369709015,-0.20108598470687866,0.0391584150493145,0.16362755000591278,0.25765880942344666,-0.050359394401311874,-0.2929401993751526,-0.17478227615356445,-0.06797420233488083,-0.029619229957461357,0.0831979438662529,0.0438111275434494,0.18941403925418854,-0.021721206605434418,-0.09346647560596466,0.03546346724033356,-0.07673079520463943,-0.19084642827510834,-0.043822288513183594,0.040279924869537354,-0.25221192836761475,0.2654842436313629,-0.09024108946323395,-0.2908535897731781,0.3553692102432251,-0.04582954943180084,0.11250710487365723,0.13710708916187286,0.07714319974184036,0.013399511575698853,0.029733331874012947,0.23656074702739716,-0.14120832085609436,-0.0717628225684166,0.001313447835855186,0.17542658746242523,-0.023059329017996788,0.14496953785419464,-0.05394315719604492,0.051955319941043854,0.1584930121898651,0.06516074389219284,-0.23303189873695374,-0.2605220079421997,0.0345383919775486,0.1571202278137207,0.0658688098192215,-0.013244681060314178,0.12466610223054886,0.11552351713180542,-0.2268049716949463,-0.13873501121997833,-0.19729986786842346,0.06829268485307693,-0.08790590614080429,-0.06425826251506805,-0.1062803789973259,0.09306281059980392,0.0549846813082695,0.2229326218366623,0.22052216529846191,-0.1376953125,0.07526418566703796,0.04770726338028908,0.2958017587661743,-0.06639867275953293,-0.020444544032216072,-0.13686056435108185,0.1486930400133133,-0.05746164545416832,-0.10013622790575027,0.23768459260463715,0.30129939317703247,0.026322761550545692,-0.1796523779630661,0.24774222075939178,-0.18154874444007874,0.047396108508110046,-0.250519722700119,-0.17337054014205933,-0.15804128348827362,-0.02608145959675312,-0.2909129559993744,-0.2180527299642563,-0.00039923045551404357,-0.2039612978696823,-0.06417611986398697,-0.08620709180831909,0.07153153419494629,0.2962055802345276,0.005160235799849033,0.08799662441015244,-0.22683192789554596,-0.01336115226149559,-0.011214615777134895,0.1177554577589035,0.040553249418735504,-0.13527607917785645,0.10032106935977936,-0.25508883595466614,0.07518234848976135,0.23272626101970673,-0.23026081919670105,-0.20456162095069885,0.11209794878959656,-0.06450455635786057,-0.11257001757621765,0.14518021047115326,0.08316271007061005,-0.10083920508623123,-0.0014960791449993849,0.2526395320892334,0.19616694748401642,0.13373400270938873,0.013572675175964832,0.05530286207795143,0.13119348883628845,-0.14964613318443298,-0.046242862939834595,0.13697491586208344,-0.12792542576789856,0.1916293501853943,-0.1673194319009781,0.15067796409130096,-0.18799839913845062,0.1201605573296547,0.12331581860780716,-0.0005701208137907088,-0.04388907179236412,0.21856018900871277,-0.20593102276325226,-0.2400766909122467,-0.20187264680862427,-0.16626697778701782,0.06517056375741959,-0.11188581585884094,-0.09990403801202774,-0.041886307299137115,0.18311502039432526,-0.19707635045051575,-0.06347895413637161,0.012496025301516056,0.03805346041917801,0.2742539048194885,-0.167052760720253,-0.10460773855447769,-0.059835728257894516,0.10907656699419022,0.09381181746721268,-0.13272468745708466,0.10284718871116638,-0.06547625362873077,-0.014784334227442741,0.0815708115696907,0.22202759981155396,0.2944490611553192,0.17757706344127655,0.06109378859400749,0.08885873109102249,-0.06071963533759117,-0.17411677539348602,-0.14821816980838776,-0.14879532158374786,0.05523627996444702,0.0576443187892437,-0.11082421243190765,0.009554232470691204,-0.026350906118750572,0.17600077390670776,0.18785929679870605,-0.19292593002319336,0.04623638838529587,0.1331576704978943,-0.01914379559457302,0.02807413972914219,0.08241721987724304,0.10626409947872162,0.2465805560350418,-0.22510264813899994,-0.03097561188042164,-0.1503041684627533,-0.05978753790259361,0.10996054112911224,0.18810150027275085,-0.1846432089805603,0.16321447491645813,0.18979810178279877,-0.12961137294769287,0.010575451888144016,-0.1154240071773529,0.116935595870018,-0.14130041003227234,-0.11942485719919205,-0.1235581561923027,-0.2450549453496933,0.2196405678987503,-0.026845531538128853,0.009889768436551094,-0.13430510461330414,0.1591910719871521,-0.1801435947418213,-0.1610039472579956,-0.2152228057384491,-0.35298314690589905,0.2524213492870331,-0.27078214287757874,-0.009839820675551891,-0.04756389558315277,0.043684493750333786,0.06067752093076706,-0.17999722063541412,0.2608587145805359,-0.22006043791770935,0.03469917178153992,0.03309308737516403,-0.05792935937643051,0.1499730497598648,0.11863710731267929,0.009279947727918625,-0.15694133937358856,0.20992539823055267,0.05654890462756157,0.14300711452960968,-0.0572027787566185,0.13316507637500763,0.2883681356906891,0.06570033729076385,-0.09882324934005737,-0.2746855914592743,-0.15395556390285492,0.18036909401416779,0.09700974822044373,0.0620386004447937,0.22544094920158386,-0.1378936469554901,0.16713371872901917,-0.21565139293670654,0.3176600933074951,0.06843011826276779,0.1206170991063118,0.23408231139183044,-0.047294896095991135,-0.10252407938241959,-0.04047204926609993,-0.3033067584037781,0.050502099096775055,-0.16807840764522552,0.17246641218662262,0.16993488371372223,-0.14825277030467987,0.2750447690486908,0.24416504800319672,-0.2042325884103775,0.43067649006843567,-0.27719438076019287,-0.1850123554468155,-0.15028078854084015,-0.049009840935468674,0.03443795070052147,-0.1104026511311531,-0.22261817753314972,0.013199671171605587,0.22734832763671875,0.23949871957302094,0.10113636404275894,0.031002093106508255,0.06207822635769844,-0.23885978758335114,0.056162670254707336,-0.2490098774433136,-0.049342866986989975,0.010497087612748146,0.016649259254336357,-0.058153241872787476,-0.09913625568151474,-0.03782537207007408,-0.1583276391029358,-0.0501837283372879,-0.03148229047656059,-0.025438789278268814,-0.04511072486639023,0.06326616555452347,-0.10309677571058273,-0.08017711341381073,0.19758738577365875,0.07901333272457123,0.014728168956935406,0.1811927706003189,0.05592672526836395,0.10760770738124847,-0.1140606626868248,-0.07740893214941025,0.00690588541328907,0.04812876135110855,0.07962028682231903,-0.08819708973169327,-0.1343158483505249,0.0657925009727478,-0.01632738672196865,0.08663485199213028,0.06788320094347,-0.06768888980150223,-0.14268499612808228,0.001241442747414112,-0.0870814397931099,-0.08187198638916016,0.052389927208423615,0.0005884277052246034,-0.1874704658985138,-0.17424818873405457,-0.035650916397571564,-0.15475405752658844,0.06077394634485245,-0.11782048642635345,0.24887706339359283,0.23515208065509796,-0.28977686166763306,0.21412652730941772,-0.016659649088978767,-0.036791324615478516,-0.027425512671470642,-0.06650999188423157,0.005027357488870621,-0.0433279350399971,0.13633880019187927,-0.13015411794185638,0.12614883482456207,0.06063571199774742,0.09864511340856552,-0.0335465706884861,-0.06822188943624496,-0.12353385984897614,0.0965251624584198,-0.10933057963848114,-0.029210546985268593,-0.022488677874207497,0.09006429463624954,-0.10552635043859482,0.14230449497699738,-0.06666434556245804,0.1447768658399582,-0.09321597218513489,-0.07877892255783081,0.003665989963337779,0.09215018153190613,0.018589122220873833,-0.1594102680683136,0.13581016659736633,0.24741590023040771,0.17007817327976227,0.18964901566505432,0.06055430695414543,-0.029818421229720116,-0.1247837245464325,-0.14853163063526154,-0.14080436527729034,0.052049387246370316,0.11357554793357849,-0.1023748442530632,0.03678585961461067,0.015339204110205173,-0.14670832455158234,-0.11064086854457855,-0.04949573054909706,0.10756433010101318,0.0532739982008934,-0.095768041908741,0.05131988599896431,0.09984665364027023,-0.04342443123459816,-0.12422675639390945,0.10886813700199127,0.021876957267522812,-0.12769055366516113,0.18739186227321625,-0.07029735296964645,0.04904891550540924,-0.15237976610660553,-0.026355095207691193,0.06227065622806549,-0.018160097301006317,-0.08286211639642715,0.0996028333902359,-0.010893354192376137,0.19996336102485657,-0.006240936927497387,-0.009707247838377953,0.10758700966835022,-0.020517317578196526,-0.06839311867952347,0.1539735347032547,0.09293428808450699,0.023027820512652397,-0.11318226903676987,-0.042953599244356155,-0.12042805552482605,0.260954350233078,-0.02181047573685646,-0.12555961310863495,-0.013907586224377155,-0.1337418258190155,0.005935316905379295,-0.08029650896787643,0.024287916719913483,0.1839560866355896,0.0033702454529702663,0.054183829575777054,-0.020015884190797806,-0.047011103481054306,0.02534578926861286,0.09272539615631104,-0.38763514161109924,-0.14457613229751587,-0.10623564571142197,-0.05701879784464836,0.1699078530073166,-0.16089291870594025,-0.18676190078258514,0.044208526611328125,-0.050884317606687546,0.14864231646060944,0.04497786611318588,-0.008935770019888878,0.043390143662691116,-0.11429710686206818,0.07862173765897751,0.024227812886238098,-0.11099788546562195,-0.03745531290769577,-0.10766984522342682,-0.06933718174695969,0.03336811065673828,0.08705294877290726,0.10890258103609085,0.1909044235944748,0.03221523016691208,-0.1154397651553154,0.019417094066739082,0.07792921364307404,0.10545859485864639,0.037392083555459976,0.05995676666498184,0.07599464058876038,0.045520566403865814,0.024952813982963562,-0.08486117422580719,-0.002042265608906746,-0.0013172479812055826,-0.0023428008425980806,0.06528202444314957,-0.10355183482170105,-0.11498834937810898,0.07207944244146347,-0.04041142389178276,-0.0597483292222023,0.17413385212421417,-0.01815280318260193,0.11580459028482437,-0.2142464965581894,-0.32685741782188416,0.3057614862918854,-0.0821894183754921,-0.07321853935718536,0.14052695035934448,0.0068189105950295925,-0.13426998257637024,0.07817450910806656,-0.08193296939134598,0.10083175450563431,0.09836491197347641,0.014206664636731148,0.18920129537582397,-0.04158545657992363,-0.0020480866078287363,0.15832892060279846,-0.09984320402145386,-0.09984512627124786,-0.0006672464078292251,-0.0841599628329277,0.004104312509298325,-0.07594256848096848,0.021632643416523933,-0.13405613601207733,-0.08841761201620102,0.14506033062934875,-0.023067358881235123,-0.1518278568983078,0.03642989322543144,0.04390644282102585,-0.009526523761451244,0.1590285748243332,0.0804734006524086,-0.10236570984125137,0.04815230518579483,-0.07776740938425064,0.0389779657125473,0.1285054087638855,-0.012930858880281448,0.14669829607009888,-0.168499156832695,-0.08385398238897324,0.11595412343740463,0.02885761484503746,-0.06764344871044159,-0.021513277664780617,0.1652231216430664,0.05763861909508705,-0.0076769134029746056,-0.004545362200587988,0.08636867254972458,-0.08985421061515808,-0.23294773697853088,0.11745653301477432,-0.03335840255022049,-0.028527941554784775,0.12983942031860352,0.043970219790935516,0.0896349549293518,-0.14535991847515106,-0.17184770107269287,-0.12471983581781387,0.05750218406319618,0.03062739409506321,0.2011195421218872,0.05820362642407417,-0.01037600077688694,0.10028715431690216,-0.09935460239648819,-0.11018940061330795,0.05338593199849129,-0.17831550538539886,0.014372431673109531,-0.06639673560857773,-0.15390494465827942,-0.23666884005069733,0.0012379130348563194,0.025049930438399315,-0.0033275813329964876,-0.159514382481575,-0.014956825412809849,-0.022461052983999252,-0.004383561667054892,0.0012036497937515378,0.02434835210442543,-0.017452320083975792,0.0964716374874115,0.2877558767795563,0.19432660937309265,0.11227542906999588,-0.0539761446416378,-0.014637729153037071,-0.032958321273326874,0.06800945103168488,0.05070371925830841,-0.014932631514966488,0.07004821300506592,-0.1888774037361145,0.09402252733707428,-0.16558481752872467,-0.14120298624038696,-0.08508718013763428,-0.08250304311513901,0.07282080501317978,0.02638913318514824,-0.14822858572006226,-0.0035862636286765337,0.15242137014865875,-0.11250951141119003,-0.10356245189905167,-0.06879913061857224,0.12374124675989151,0.058415737003088,0.046937473118305206,0.0641254410147667,0.08035680651664734,-0.07173176109790802,0.20380164682865143,-0.007216541096568108,-0.024230433627963066,-0.01011747308075428,-0.06840857863426208,0.13606016337871552,0.106249138712883,-0.1366392821073532,-0.17289787530899048,-0.0936974287033081,0.10021845996379852,-0.15264081954956055,0.18611420691013336,-0.028046028688549995,-0.15908841788768768,-0.008107518777251244,-0.10075610876083374,0.007433663588017225,-0.06823686510324478,0.05441851541399956,-0.10346908122301102,-0.10963690280914307,0.01022803783416748,-0.044164739549160004,-0.15265019237995148,0.01469578966498375,-0.2603606581687927,0.10606338828802109,0.03795985132455826,0.1598636507987976,-0.08705662190914154,0.022565949708223343,0.1326911747455597,0.16790719330310822,-0.09117874503135681,0.14745751023292542,0.13526496291160583,0.12104904651641846,-0.12617425620555878,0.07508079707622528,-0.09467144310474396,0.018916001543402672,0.09911726415157318,0.15889856219291687,-0.09113901853561401,0.035469986498355865,-0.0023273162078112364,-0.063240647315979,0.02975868433713913,-0.07172689586877823,-0.16572870314121246,-0.062281910330057144,-0.04177461564540863,-0.18137073516845703,-0.019880888983607292,-0.08982642740011215,-0.0333939790725708,0.04114687070250511,-0.16877056658267975,-0.06104426085948944,0.10248079150915146,-0.12222407013177872,0.10246098786592484,-0.09515494853258133,-0.03916357085108757,0.11388429999351501,0.09782488644123077,-0.06137370318174362,0.2237386703491211,0.0841539055109024,0.3244031071662903,-0.08112695068120956,-0.037283334881067276,0.025831865146756172,-0.13976600766181946,-0.15145468711853027,-0.23000895977020264,-0.2771933376789093,-0.2019994854927063,-0.1673639565706253,-0.16368089616298676,-0.11154154688119888,0.08029342442750931,0.13456901907920837,-0.06754480302333832,0.09706901013851166,-0.047737300395965576,0.1274263560771942,0.03766154497861862,0.03512705862522125,0.11462350934743881,0.14246058464050293,-0.2575678527355194,-0.1286063939332962,-0.09671677649021149,-0.11141196638345718,-0.35458463430404663,-0.31676262617111206,0.18705306947231293,-0.008433200418949127,0.03319872170686722,0.09057121723890305,-0.10561548918485641,-0.04061831533908844,0.179923877120018,-0.016825653612613678,0.1965947449207306,-0.016634764149785042,-0.039186201989650726,-0.163674458861351,0.0348346009850502,0.08165048807859421,0.01636173203587532,0.03855704516172409,0.104698546230793,-0.003188245464116335,0.002802101196721196,0.2345958799123764,0.18510611355304718,0.10658368468284607,0.0979979932308197,0.23238447308540344,-0.009337027557194233,0.14251157641410828,-0.017899220809340477,0.007513831835240126,0.07590377330780029,-0.10315810143947601,-0.10195833444595337,-0.048739586025476456,-0.1436549872159958,0.08796968311071396,0.12018439173698425,0.05719383805990219,0.048168282955884933,0.024993794038891792,0.08973515778779984,-0.09715425968170166,-0.08253093808889389,-0.17723876237869263,-0.032850198447704315,-0.007195543497800827,-0.005053757689893246,-0.06521674990653992,0.0005460851825773716,-0.0002680015459191054,-0.0934886783361435,0.04951454699039459,-0.09137769043445587,0.04341168329119682,-0.12599876523017883,-0.053222667425870895,-0.008669115602970123,-0.12159614264965057,0.1051534041762352,0.08817626535892487,-0.07479770481586456,0.05804086849093437,0.07621687650680542,0.05791282653808594,-0.03892388194799423,-0.14053751528263092,0.07874666154384613,-0.17296797037124634,-0.04217223450541496,-0.013549203984439373,-0.06867320090532303,-0.05556311458349228,-0.11241284757852554,0.0018471383955329657,-0.08921193331480026,0.12230072170495987,-0.334634393453598,0.07995246350765228,0.018601002171635628,-0.1314426213502884,-0.11866763234138489,-0.1080014631152153,-0.0199741143733263,-0.1251322478055954,-0.08449198305606842,0.12399563193321228,0.027080651372671127,0.029523784294724464,0.14211739599704742,-0.07121464610099792,-0.03203883394598961,0.05058840662240982,0.12504227459430695,-0.11623051762580872,0.03012554533779621,0.09046987444162369,0.0901484414935112,-0.038062989711761475,0.11781558394432068,0.1503315269947052,-0.07174262404441833,0.1422857642173767,0.19639824330806732,-0.007567832712084055,-0.00973039586097002,0.09833185374736786,0.07968994230031967,-0.055529091507196426,0.003719236236065626,-0.03358808904886246,-0.0029133844655007124,-0.07883843779563904,0.0923115611076355,-0.02855832502245903,-0.1914239227771759,0.08144554495811462,-0.06718283891677856,-0.07391737401485443,-0.09159522503614426,0.05620282143354416,-0.20627707242965698,-0.02658369392156601,0.015301140956580639,0.29355689883232117,-0.004380821716040373,0.11089218407869339,-0.029059140011668205,0.04672028496861458,0.1928425282239914,-0.02225431613624096,0.0882926657795906,0.08363619446754456,-0.07493726164102554,0.013241153210401535,0.14010828733444214,-0.05581653118133545,0.12769649922847748,-0.09466230869293213,0.01377054862678051,0.048883792012929916,0.06339902430772781,0.010904244147241116,0.04651464894413948,-0.1472279131412506,0.05682726949453354,-0.06164358928799629,0.009110644459724426,0.13936175405979156,0.12212153524160385,0.04367021098732948,-0.004639758728444576,-0.08845315128564835,-0.10233963280916214,-0.005569026339799166,-0.12791040539741516,-0.16995103657245636,0.07478587329387665,-0.0511440746486187,0.05258810892701149,-0.1376323103904724,-0.07384476065635681,0.12433337420225143,-0.13833780586719513,0.11997449398040771,0.018514083698391914,-0.03925112262368202,-0.14242492616176605,-0.008588123135268688,-0.1688249111175537,0.06728047132492065,-0.1434289813041687,-0.15163101255893707,0.27776527404785156,-0.028167903423309326,-0.13329660892486572,0.013804912567138672,-0.0907859280705452,-0.040890809148550034,0.09878934919834137,0.0979250967502594,0.049031004309654236,-0.16371282935142517,0.06097174063324928,-0.13929884135723114,0.0955905094742775,-0.04721119999885559,-0.045783381909132004,-0.07332444936037064,0.045568857342004776,0.03248308226466179,0.02525659278035164,-0.21370753645896912,-0.01025176141411066,-0.15200597047805786,-0.0857212170958519,0.22332972288131714,-0.027635937556624413,0.04085196182131767,-0.07156426459550858,0.006028272677212954,0.09535805135965347,-0.11837079375982285,0.042954977601766586,-0.2952968180179596,0.05204484611749649,-0.0850420817732811,0.13869228959083557,0.17095747590065002,0.03954806551337242,0.08256937563419342,-0.114616759121418,0.1044049933552742,0.17001067101955414,0.10975223779678345,0.0639905110001564,0.14356422424316406,0.1353519707918167,0.1126175969839096,-0.020140493288636208,-0.060713332146406174,-0.11572728306055069,0.06597478687763214,-0.12382607161998749,0.1514092981815338,-0.0014478708617389202,-0.10191726684570312,-0.126474991440773,0.10797318071126938,-0.17733602225780487,-0.09705325961112976,0.04906362295150757,-0.06767941266298294,-0.11778231710195541,-0.19030551612377167,-0.15868493914604187,0.07523462921380997,-0.16957494616508484,0.05526874214410782,0.05730133503675461,-0.010706032626330853,0.04117351770401001,-0.2064703404903412,0.1013881042599678,0.027701055631041527,0.05036064237356186,0.09978820383548737,0.1712265908718109,0.0029626914765685797,-0.012076725251972675,-0.02059405855834484,-0.027619831264019012,0.10377339273691177,0.060872603207826614,0.19656042754650116,-0.024209538474678993,-0.1049138605594635,-0.16177226603031158,-0.16959522664546967,-0.0962115079164505,0.009711296297609806,-0.08555116504430771,0.0861714631319046,-0.04959165304899216,0.032215673476457596,0.04522565007209778,-0.08762360364198685,-0.2713637053966522,-0.08099532127380371,0.04555448517203331,-0.11854995042085648,-0.08414530009031296,0.11377210170030594,-0.007136594504117966,0.07480087876319885,0.12672683596611023,-0.08149799704551697,-0.04555254057049751,0.08384690433740616,0.0003238181525375694,-0.008046193048357964,0.06355100125074387,-0.13943235576152802,-0.13432763516902924,0.04444228857755661,0.022796345874667168,0.003129789140075445,-0.09997109323740005,0.13634106516838074,0.028754329308867455,-0.09833627194166183,-0.12623059749603271,-0.021922767162322998,-0.11806192249059677,0.05626450479030609,0.022230448201298714,0.009792904369533062,-0.023378344252705574,-0.15128184854984283,0.07012473046779633,0.10713992267847061,0.01018717885017395,0.08954709768295288,-0.1287790983915329,-0.02511960081756115,0.03751073777675629,-0.04071200639009476,0.08653231710195541,-0.07663866132497787,-0.10975973308086395,-0.1626112163066864,-0.1119643822312355,-0.16283060610294342,-0.1690254956483841,0.079668328166008,0.0495353527367115,0.06835288554430008,-0.007178441155701876,0.13651345670223236,0.1958707869052887,-0.048447512090206146,-0.10384687036275864,0.01827787421643734,0.08747529238462448,-0.006832826882600784,0.04720489680767059,0.15792545676231384,-0.07436027377843857,0.17238102853298187,0.16275715827941895,-0.12546908855438232,0.06413087993860245,0.07316848635673523,-0.08135702461004257,0.0066785505041480064,-0.06406004726886749,0.1533605456352234,-0.13878175616264343,-0.10340295732021332,0.17500698566436768,0.08832120150327682,0.1720169633626938,0.05328754708170891,0.017286846414208412,0.0921933725476265,0.10009483247995377,0.10798727720975876,0.08789943158626556,-0.10258527845144272,-0.10724466294050217,-0.1141432598233223,0.014113160781562328,-0.023382464423775673,0.1500605195760727,-0.1698952168226242,0.10974244028329849,0.043566178530454636,-0.09216540306806564,0.20092731714248657,-0.04107659310102463,-0.01810532435774803,0.16861902177333832,-0.011640562675893307,0.11213063448667526,0.05969695374369621,-0.06285995244979858,-0.09815982729196548,-0.07872937619686127,0.04411168023943901,0.08759082853794098,0.021570075303316116,0.011284715496003628,-0.11978297680616379,0.106158047914505,-0.11697744578123093,-0.06464733928442001,-0.18545079231262207,0.17340834438800812,0.10855858027935028,0.14687581360340118,0.025336625054478645,-0.08537096530199051,0.09447353333234787,-0.005079647060483694,0.10077906399965286,-0.24521328508853912,-0.1092291995882988,-0.4320243299007416,0.01929137296974659,0.8852212429046631,0.0006587148527614772,0.28126540780067444,0.06450028717517853,-0.405809223651886,-0.00025138581986539066,0.1400267481803894,0.021134762093424797,-0.1587606817483902,-0.11102481931447983,-0.055607397109270096,0.16596725583076477,0.6111060976982117,0.1678370237350464,-0.6959276795387268,-0.12064675986766815,0.8671944737434387,-0.06398147344589233,0.6966925263404846,-0.05587906017899513,-0.05400421842932701,0.06461406499147415,-0.3332628905773163,0.028087880462408066,0.14122889935970306,-0.060478441417217255,-0.6605195999145508,0.047933634370565414,0.2257797122001648,-0.1541450470685959,-0.046517256647348404,-0.24855183064937592,0.15442103147506714,0.21940535306930542,0.13692066073417664,0.09259392321109772,0.2652857303619385,0.07576188445091248,0.12156210839748383,0.14164285361766815,-0.3432859778404236,0.0013391443062573671,-0.06458678841590881,-0.05700729787349701,0.23530331254005432,-0.06956277042627335,0.034923553466796875,0.08490356802940369,0.17131610214710236,0.17149575054645538,-0.02898525446653366,-0.1843792051076889,-0.2091907113790512,0.06841599941253662,-0.06585313379764557,-0.17110906541347504,0.14233024418354034,0.2131759077310562,0.10602235049009323,-0.032655149698257446,0.12831225991249084,-0.2776188552379608,0.10788574069738388,-0.26680588722229004,0.1479705274105072,-0.1079474538564682,-0.031107140704989433,-0.21352209150791168,-0.11868569254875183,0.005969573277980089,-0.20863811671733856,0.18681369721889496,0.145170196890831,-0.2011183351278305,0.03595888987183571,0.07651497423648834,0.21065746247768402,-0.012881247326731682,0.09214095026254654,0.06694207340478897,-0.07455948740243912,0.1537638157606125,-0.24418269097805023,0.22699522972106934,0.24285167455673218,-0.05503202974796295,0.0910547748208046,0.17425531148910522,0.043008461594581604,0.05269865691661835,0.045055143535137177,-0.059306710958480835,0.021809622645378113,-0.12021644413471222,0.2859703004360199,-0.1407036930322647,0.09125491231679916,-0.1436718851327896,0.1698286086320877,-0.09877893328666687,0.012657762505114079,0.054591309279203415,-0.108668752014637,0.08730515092611313,-0.07289836555719376,-0.15883412957191467,0.13948242366313934,-0.18798784911632538,0.006071423180401325,-0.14072896540164948,0.07619249075651169,-0.1909554898738861,-0.11845384538173676,-0.10898450016975403,0.25683116912841797,-0.039242275059223175,-0.15637271106243134,-0.17083445191383362,0.13173040747642517,0.1937020868062973,-0.007494510151445866,0.2040352076292038,0.3108372986316681,0.05320890620350838,0.1406993269920349,0.15969477593898773,-0.13542839884757996,0.13941991329193115,0.2179899364709854,-0.07762651890516281,-0.019236238673329353,-0.04888330027461052,-0.1474502980709076,0.09835629910230637,0.20390525460243225,-0.09764416515827179,-0.013992113061249256,0.05175125226378441,0.09745670855045319,0.17297285795211792,0.23601505160331726,0.14978517591953278,-0.1442214846611023,-0.2103279083967209,0.09489042311906815,-0.13610650599002838,0.07628070563077927,-0.12159685045480728,0.004733249079436064,0.1049450933933258,0.12015728652477264,0.20698179304599762,0.04505190625786781,0.15929105877876282,0.10353776812553406,-0.1458507925271988,-0.20863471925258636,0.2545734643936157,-0.10916179418563843,0.2983427047729492,0.11854750663042068,0.04273978993296623,-0.19971863925457,0.112408846616745,-0.10937995463609695,-0.016136135905981064,-0.11652755737304688,0.21636612713336945,-0.3013305068016052,-0.05710160359740257,0.02208608202636242,0.016201486811041832,0.28210148215293884,-0.10274600237607956,-0.3105700612068176,-0.03098798543214798,0.12095564603805542,0.14673304557800293,-0.1450340747833252,-0.16305717825889587,-0.005319634918123484,0.002143859164789319,0.11436078697443008,-0.1774739772081375,-0.096938356757164,-0.05240626260638237,0.2577601373195648,-0.03649049997329712,0.3092215061187744,-0.0970231369137764,-0.11482168734073639,-0.07488542795181274,0.18177299201488495,-0.11844409257173538,0.04555162787437439,-0.01865128055214882,0.26981037855148315,-0.00946376658976078,-0.26123708486557007,0.08962401002645493,-0.03123282827436924,-0.26360711455345154,0.024771707132458687,0.254951149225235,0.1283903419971466,0.03545078635215759,-0.10203219205141068,0.07148776948451996,-0.11609330028295517,0.2463536113500595,0.24753855168819427,0.1462271809577942,-0.1361883282661438,-0.16475380957126617,-0.15938863158226013,0.16222107410430908,-0.2264518290758133,-0.286676824092865,-0.011914695613086224,0.11947894096374512,-0.28495919704437256,-0.25376108288764954,-0.05268281325697899,-0.05841870233416557,0.1967620551586151,0.10019928216934204,-0.23645274341106415,-0.18340319395065308,0.21991115808486938,-0.06968983262777328,-0.10194116830825806,0.049118369817733765,-0.06098482385277748,0.056996382772922516,0.03413424268364906,-0.06017282232642174,-0.2530403137207031,0.1617104411125183,-0.22749491035938263,0.10289083421230316,0.06915805488824844,-0.11748367547988892,0.030738046392798424,-0.12829072773456573,0.1336500197649002,0.014740172773599625,0.07702915370464325,-0.2342626303434372,-0.01804330199956894,0.022243816405534744,-0.2301071137189865,0.13944432139396667,0.1506478190422058,0.1536308228969574,0.04042034596204758,-0.20872044563293457,-0.13867421448230743,-0.14186248183250427,0.20055875182151794,-0.36470142006874084,0.017753899097442627,0.2777334749698639,0.15628239512443542,0.1851305067539215,-0.048650745302438736,0.17104320228099823,0.13770504295825958,-0.2518056333065033,0.1071348637342453,-0.05974005535244942,-0.007842868566513062,-0.416120320558548,-0.12957331538200378,-0.09846290946006775,-0.008015751838684082,-0.3024435341358185,-0.013242904096841812,0.2928161025047302,0.20523180067539215,0.1256808191537857,-0.19388563930988312,-0.005581294652074575,-0.05782662332057953,0.060283806174993515,0.06544757634401321,0.012357490137219429,0.05461893230676651,0.09364816546440125,-0.13658630847930908,0.22350694239139557,0.20232141017913818,0.06256075948476791,-0.2375165820121765,-0.15269619226455688,0.07555865496397018,0.03912222385406494,0.2055724412202835,0.1344161331653595,0.11861548572778702,0.051549945026636124,0.10043773055076599,-0.06025015190243721,-0.011554691009223461,-0.09160934388637543,-0.06908348202705383,0.1452445685863495,0.017358794808387756,0.003292838344350457,0.03723568841814995,-0.08439842611551285,0.002866930328309536,-0.020075464621186256,0.0025161427911370993,-0.16893284022808075,-0.11924239248037338,0.1619817614555359,-0.03142176568508148,0.09486556798219681,0.12927904725074768,-0.03255658969283104,-0.023750383406877518,-0.06919211894273758,0.08898483961820602,0.13419686257839203,-0.04476102441549301,-0.16313454508781433,-0.15663738548755646,-0.02866782806813717,0.011258918792009354,0.016224410384893417,-0.1400962918996811,-0.11926164478063583,0.07537368685007095,0.017790667712688446,-0.16591471433639526,-0.17973506450653076,-0.13892032206058502,0.06471220403909683,-0.07143167406320572,-0.019079843536019325,-0.027730394154787064,-0.1458072066307068,-0.19278475642204285,-0.1230541467666626,-0.037722546607255936,0.0081167658790946,-0.06993471086025238,0.09009934961795807,0.15066565573215485,0.2886257469654083,-0.10644539445638657,0.2547912001609802,0.07767261564731598,-0.07886478304862976,0.05860190466046333,-0.03848501667380333,0.08220835775136948,-0.0410829521715641,0.1732836216688156,0.09700623899698257,-0.0031268042512238026,0.0035181595012545586,0.16467799246311188,-0.027992086485028267,-0.23115849494934082,-0.005477425176650286,-0.14249534904956818,0.12321249395608902,-0.04038907214999199,-0.12091250717639923,-0.19421082735061646,-0.07451918721199036,0.1552814394235611,0.31364643573760986,-0.10878670960664749,0.07755541801452637,0.15446509420871735,0.2115066796541214,0.003426206298172474,0.25233548879623413,0.0043385145254433155,0.15851464867591858,0.02947589010000229,-0.16199791431427002,-0.05315251648426056,0.02957727387547493,-0.0008039551903493702,-0.12114492803812027,0.15514588356018066,-0.1571877896785736,0.04702342674136162,0.0892806276679039,0.056417904794216156,-0.11936061829328537,-0.07704797387123108,0.010658674873411655,-0.030750920996069908,-0.12789884209632874,0.09383442997932434,0.026376672089099884,-0.09575051814317703,-0.1286049634218216,-0.01729533076286316,0.02339780516922474,0.22105559706687927,-0.07816271483898163,-0.06029103323817253,-0.11323202401399612,0.08800967782735825,-0.052536677569150925,-0.02914404682815075,-0.046462420374155045,-0.10641270875930786,0.07894475013017654,0.08211730420589447,0.11340431869029999,-0.04957132413983345,0.11439203470945358,0.06722415238618851,0.10853026062250137,-0.08486701548099518,-0.027865616604685783,0.06224346533417702,0.017915241420269012,-0.1041412428021431,-0.030042631551623344,0.0037942652124911547,-0.001391031895764172,-0.03662639111280441,-0.12362945079803467,-0.16582466661930084,-0.08036361634731293,-0.04833753779530525,0.02500944770872593,-0.014481423422694206,-0.09265521913766861,-0.019567931070923805,-0.02117922157049179,0.3069842457771301,-0.07889004051685333,0.2877329885959625,0.03162005916237831,0.1148792952299118,0.13883230090141296,0.040884438902139664,0.1881190836429596,-0.1419753134250641,-0.05721604824066162,0.011171311140060425,0.0760667622089386,0.10380017012357712,-0.0027474500238895416,-0.06869307160377502,0.06074691191315651,0.0528523325920105,-0.09156220406293869,0.0382891409099102,0.10078039020299911,-0.04819760471582413,-0.12103979289531708,-0.18843749165534973,0.07029116898775101,0.11555883288383484,-0.011868982575833797,0.027233313769102097,-0.0041974568739533424,0.0009355526999570429,0.1831086128950119,0.13228847086429596,-0.10133016854524612,-0.18866539001464844,-0.14411725103855133,0.029703637585043907,0.1260928362607956,-0.008536075241863728,0.1440158635377884,-0.11220809072256088,0.05120357498526573,0.11286183446645737,0.05111071467399597,0.0053641400299966335,0.1340579092502594,-0.1572173684835434,0.07011045515537262,0.08162905275821686,-0.14091594517230988,-0.24067553877830505,-0.05478266254067421,0.001733250799588859,-0.17366744577884674,-0.040386900305747986,0.018296418711543083,0.020685086026787758,-0.028713053092360497,-0.04376836493611336,0.06867419928312302,0.03202305734157562,-0.01853850483894348,-0.09379115700721741,0.16694694757461548,-0.02325901947915554,0.07806038856506348,0.019396433606743813,0.08685653656721115,0.07399316877126694,-0.08797050267457962,-0.06011885777115822,-0.26635441184043884,0.016977569088339806,0.023768041282892227,-0.06722033023834229,-0.09808477759361267,-0.051789045333862305,-0.004799487069249153,-0.002764783799648285,-0.06545809656381607,-0.005622541066259146,0.18266937136650085,-0.11480729281902313,-0.10329446941614151,-0.09421639144420624,0.01699148491024971,0.043527062982320786,0.0899759978055954,-0.08705812692642212,-0.07268963009119034,-0.00872456468641758,-0.044771499931812286,-0.09867393225431442,0.0286488588899374,-0.04266250133514404,-0.10009412467479706,-0.06409022212028503,-0.11205402761697769,-0.2219838798046112,-0.05769135802984238,-0.0060934568755328655,-0.13392849266529083,-0.1352984607219696,0.0008464751299470663,-0.03736130893230438,-0.07393386214971542,0.0005495494115166366,0.001965557225048542,0.04758526757359505,-0.15454736351966858,0.11116021871566772,0.12841752171516418,0.21063664555549622,-0.05651446059346199,0.05993950739502907,-0.12161146104335785,0.05829762667417526,-0.21494677662849426,-0.1588202267885208,-0.22560665011405945,-0.21535871922969818,0.023890620097517967,0.015358909964561462,0.08375348150730133,-0.0024250447750091553,-0.048233162611722946,-0.07058879733085632,-0.10092373937368393,-0.0653683990240097,0.1463804990053177,0.007842296734452248,-0.005453438963741064,-0.009948810562491417,-0.12689200043678284,0.04546469449996948,-0.043105386197566986,-0.031672023236751556,0.04569559544324875,-0.03322231397032738,0.08662673085927963,0.05704353004693985,0.017897726967930794,-0.05502507463097572,0.07629015296697617,0.029378827661275864,-0.0033156087156385183,-0.0322142094373703,-0.05147753283381462,-0.020150866359472275,0.0538628064095974,0.03400760889053345,0.03093775175511837,0.20674146711826324,0.1857023537158966,-0.15003621578216553,0.02107386104762554,0.090960294008255,0.13935962319374084,0.12974461913108826,0.27032700181007385,0.10510746389627457,-0.0062285372987389565,-0.02515230141580105,-0.13503214716911316,0.023309804499149323,0.12700052559375763,0.08536111563444138,-0.1440635770559311,-0.13802678883075714,-0.018351776525378227,-0.18615533411502838,-0.15299445390701294,-0.09867628663778305,0.08040668070316315,-0.10788021236658096,-0.10270024091005325,-0.07730128616094589,0.06634938716888428,-0.07551761716604233,-0.1574924737215042,0.012504104524850845,-0.03949766606092453,0.12585972249507904,0.08342303335666656,-0.030008330941200256,0.06439989805221558,-0.10792078822851181,-0.024420998990535736,0.14396141469478607,-0.03563724085688591,-0.13808485865592957,-0.14758749306201935,0.024121101945638657,-0.15296107530593872,-0.02106776274740696,0.19324131309986115,0.12235556542873383,0.03054150380194187,-0.02595779486000538,-0.1016450971364975,-0.007990448735654354,-0.09418994933366776,-0.1802295297384262,0.0889822468161583,-0.0230471882969141,0.14050045609474182,-0.11436191946268082,-0.15052439272403717,0.08180709928274155,-0.0013279084814712405,0.17085207998752594,0.017529485747218132,-0.14026133716106415,0.17072740197181702,0.06982938945293427,-0.20832571387290955,-0.21344918012619019,-0.08532286435365677,-0.028885774314403534,-0.1836964190006256,0.0037252106703817844,-0.1743132323026657,-0.00847539957612753,-0.004725780338048935,0.19025123119354248,0.0006318100495263934,-0.08303920924663544,-0.07464153319597244,-0.0358705148100853,0.13982589542865753,-0.07539322972297668,-0.09994944930076599,-0.2543978691101074,0.034154050052165985,-0.08016166090965271,0.08744186908006668,0.10374832898378372,-0.00043598562479019165,0.015829244628548622,0.07786746323108673,-0.1656912863254547,-0.12329822778701782,-0.20769831538200378,-0.22757858037948608,0.07495297491550446,-0.21891699731349945,-0.1411452442407608,0.12203803658485413,-0.09543472528457642,0.22631880640983582,-0.015426031313836575,0.1463499814271927,0.027323614805936813,0.05481650307774544,0.0007220152183435857,-0.05706560239195824,0.09369996190071106,-0.069229356944561,0.007950611412525177,-0.06237515062093735,-0.13672636449337006,0.018992701545357704,0.09107937663793564,-0.04667746648192406,0.05916005000472069,-0.03631751611828804,-0.03937520086765289,-0.10042505711317062,-0.13605529069900513,-0.04238099604845047,-0.13461127877235413,-0.08405142277479172,0.016391227021813393,0.01518564485013485,-0.09805648773908615,0.05477569252252579,0.09253430366516113,-0.15349671244621277,0.06682934612035751,-0.004479174967855215,-0.0970068946480751,0.14250046014785767,0.05392893776297569,-0.10683602094650269,0.14127376675605774,0.03256036341190338,-0.11272843182086945,-0.07257238775491714,0.12256015837192535,-0.06217065826058388,0.06196446716785431,0.1380474716424942,0.0169163066893816,0.0030486276373267174,-0.06877582520246506,0.2345191091299057,-0.05682646483182907,-0.006681243889033794,-0.2105969488620758,-0.10254066437482834,-0.36520564556121826,-0.20918957889080048,0.124239981174469,0.037955235689878464,0.0935581624507904,-0.06101757660508156,-0.29867565631866455,-0.25853484869003296,-0.1178145557641983,-0.06105700880289078,0.035522304475307465,0.035450346767902374,0.10536777228116989,0.06917159259319305,0.1809232383966446,0.1095469668507576,0.32403364777565,0.13674086332321167,0.23059071600437164,0.28148525953292847,0.06082119047641754,-0.025113342329859734,-0.07241059839725494,-0.13349808752536774,0.046561017632484436,-0.009936136193573475,-0.055256858468055725,0.13442711532115936,-0.03603360056877136,-0.2627969980239868,-0.46457210183143616,-0.454922080039978,0.17208775877952576,0.009790902957320213,-0.04074906185269356,0.03569016233086586,0.18783527612686157,0.03930128365755081,0.09260684996843338,0.18932552635669708,0.1558806598186493,0.3149014711380005,0.25742924213409424,0.5975351929664612,0.039621878415346146,-0.18558447062969208,-0.054383594542741776,-0.005437654443085194,-0.06728818267583847,0.07523281872272491,-0.12453008443117142,-0.07055763155221939,0.06911114603281021,0.16796977818012238,0.07432685792446136,-0.13047420978546143,-0.19386222958564758,-0.1387152075767517,-0.0527789406478405,-0.23557846248149872,-0.09175141155719757,0.00445991475135088,0.12651462852954865,0.12282758206129074,-0.06839210540056229,-0.17115353047847748,-0.006576927378773689,0.10448134690523148,0.19730889797210693,0.07031407952308655,0.015742216259241104,-0.1261405199766159,0.05655372887849808,0.04338200017809868,0.051253288984298706,0.03265794739127159,-0.08005518466234207,-0.044470980763435364,0.04058121144771576,-0.11788281053304672,0.17838291823863983,-0.09118698537349701,0.07883002609014511,0.13083042204380035,-0.025908976793289185,0.0744413360953331,-0.192047581076622,-0.03410328924655914,0.03254318982362747,-0.16198217868804932,-0.0034509270917624235,0.08601290732622147,-0.05007317662239075,0.12137578427791595,-0.030684085562825203,-0.026939526200294495,0.110648974776268,-0.05438529700040817,-0.05686530843377113,0.016005922108888626,0.16768808662891388,-0.08207353949546814,-0.10517752915620804,-0.056762248277664185,-0.12367399036884308,-0.08063425123691559,0.13563117384910583,0.01464009378105402,-0.09908825904130936,-0.046945422887802124,-0.02657606638967991,-0.06418995559215546,-0.12020739167928696,0.10125633329153061,0.015453155152499676,0.15416474640369415,-0.10845234990119934,-0.14078854024410248,-0.043811723589897156,-0.12867091596126556,0.15631602704524994,0.10831830650568008,0.08883931487798691,-0.0958571583032608,0.0496043935418129,0.07718028873205185,-0.09238941222429276,0.03649808466434479,0.056551650166511536,0.12063182890415192,-0.15852874517440796,0.09447789192199707,-0.06536338478326797,0.03029070794582367,-0.16773273050785065,-0.1288498193025589,-0.03253050893545151,0.0014177069533616304,-0.021722570061683655,0.13700121641159058,0.07721684873104095,0.11845584213733673,0.09563411772251129,-0.03921854868531227,-0.048743437975645065,-0.030957162380218506,0.12592387199401855,0.0038670417852699757,-0.05238848179578781,-0.15576790273189545,-0.013135183602571487,-0.1320555955171585,0.004995658528059721,0.07644344121217728,-0.09601138532161713,0.2795146107673645,-0.0846167504787445,-0.049174513667821884,-0.1277424842119217,0.08178790658712387,-0.08165142685174942,0.14759448170661926,0.02303902432322502,0.07014884799718857,-0.29157108068466187,0.10605709999799728,-0.1383393257856369,-0.029614737257361412,0.10436500608921051,0.030246833339333534,-0.04818539321422577,5.073081047157757e-05,-0.058228734880685806,-0.1325555294752121,-0.06387019902467728,0.10434503108263016,0.025284893810749054,0.048662323504686356,-0.009714784100651741,0.11711248755455017,0.015820519998669624,0.07953570783138275,0.04734915494918823,-0.032961294054985046,0.05633809417486191,0.23720525205135345,0.0699000284075737,-0.04686238616704941,0.02378205396234989,0.04172467440366745,0.025469528511166573,0.07066076248884201,0.2015463411808014,-0.07331568002700806,-0.16635875403881073,0.013430709019303322,-0.03476162999868393,0.15265274047851562,0.1429457813501358,0.031385503709316254,0.11260977387428284,-0.04557718336582184,0.14487873017787933,-0.03705459088087082,0.040611427277326584,0.15560218691825867,-0.14684446156024933,0.06447229534387589,0.10828794538974762,-0.20472007989883423,-0.10781839489936829,-0.036954719573259354,0.059293873608112335,0.09896357357501984,-0.03352353721857071,-0.07146492600440979,-0.13170897960662842,0.10978032648563385,0.04306842386722565,0.002373997587710619,0.04563673958182335,0.1660240739583969,0.030116751790046692,0.018395598977804184,0.010237602517008781,-0.0439106747508049,-0.11946171522140503,-0.07474298775196075,-0.08034127205610275,0.027086256071925163,-0.13340085744857788,-0.14751432836055756,0.04166047275066376,-0.15479770302772522,-0.05072396993637085,0.11266830563545227,-0.018077529966831207,-0.03548204526305199,0.23829707503318787,-0.0813140869140625,-0.07896091789007187,-0.045986514538526535,0.018756233155727386,-0.004057491198182106,0.0710861086845398,-0.0439266562461853,0.0529773123562336,0.22305233776569366,-0.07102365046739578,-0.10290443152189255,-0.13736513257026672,0.07959240674972534,-0.15814237296581268,-0.16012389957904816,0.09977831691503525,-0.09159638732671738,0.10049416124820709,-0.07445859909057617,0.027670176699757576,-0.044089172035455704,-0.008734313771128654,0.08769764751195908,0.235845148563385,-0.07157856225967407,0.03798339515924454,-0.09233176708221436,0.05832355096936226,-0.11945764720439911,0.14953365921974182,0.09134267270565033,-0.10854215919971466,-0.10295119136571884,-0.1226915642619133,0.02708907052874565,0.045415639877319336,-0.02402637153863907,0.15328344702720642,0.0342533215880394,-0.04015900194644928,0.011959288269281387,-0.14057143032550812,0.003223329782485962,0.07951568067073822,-0.09416332840919495,0.03975318372249603,0.10851739346981049,0.1726885437965393,-0.018074488267302513,-0.01708430051803589,0.11079780012369156,-0.04384949430823326,-0.08011969178915024,-0.06781762838363647,0.13044500350952148,-0.010154644958674908,0.04037503898143768,-0.08068466186523438,0.10112792998552322,-0.00522924168035388,-0.003686519805341959,0.053783781826496124,0.0936318188905716,0.08540461212396622,0.008783338591456413,-0.04911826550960541,-0.04883551597595215,0.20249688625335693,-0.060903776437044144,0.02412734180688858,-0.16813737154006958,0.019681502133607864,-0.08143654465675354,-0.01404504757374525,0.0858883336186409,-0.08221345394849777,-0.0012445556931197643,-0.0995556190609932,-0.040129054337739944,-0.2360374480485916,-0.15844009816646576,-0.13972677290439606,-0.07441272586584091,0.022904979065060616,-0.11824693530797958,0.009364074096083641,0.12109991908073425,0.10507580637931824,0.17411312460899353,0.1429896354675293,0.02541644498705864,0.12949062883853912,0.1834625005722046,0.10308770835399628,-0.06675221025943756,0.19782228767871857,-0.11961664259433746,0.08045811951160431,0.10949704051017761,-0.1427796483039856,-0.1811261624097824,0.09665296226739883,0.35628747940063477,0.009541274979710579,-0.044203393161296844,0.09911726415157318,0.032777782529592514,-0.027247130870819092,0.1822468489408493,0.6531172394752502,-0.00287370546720922,0.3565824329853058,-0.05319100245833397,0.4414956569671631,-0.08278270065784454,-0.8586840629577637,0.05169133469462395,-0.4949667453765869,0.09162519127130508,0.09300237894058228,0.1058175265789032,0.037810277193784714,-0.06168055534362793,-0.18369178473949432,0.09133263677358627,0.39221513271331787,0.01844324730336666,0.3445741832256317,-0.055581361055374146,-0.8015909194946289,0.12542858719825745,0.29125961661338806,-0.07895658165216446,-0.14947132766246796,-0.012482824735343456,-0.5225699543952942,0.05637197196483612,-0.010264153592288494,0.0037595501635223627,-0.26230278611183167,0.005736930295825005,-0.11253412067890167,-0.23624497652053833,0.1535373032093048,-0.1641494184732437,0.04325980320572853,0.14626874029636383,-0.04256086423993111,-0.149933859705925,-0.22909390926361084,-0.010873312130570412,-0.08582036942243576,-0.012688922695815563,0.06544630974531174,-0.049000244587659836,0.1944858878850937,-0.0632074698805809,-0.07215503603219986,-0.20046906173229218,0.08273296058177948,-0.2572825849056244,-0.011271256022155285,-0.0845508873462677,0.25077012181282043,-0.1486504077911377,-0.09468486160039902,-0.013906347565352917,-0.20971046388149261,0.06407126784324646,-0.08904530107975006,0.10000599920749664,0.13100522756576538,0.15911735594272614,-0.02177940122783184,0.2019158899784088,-0.08113087713718414,-0.2480047345161438,-0.07325911521911621,-0.20250743627548218,-0.046707622706890106,0.04055230692028999,0.27585119009017944,-0.07142412662506104,-0.08041995763778687,-0.2324822098016739,0.07258675992488861,0.06871816515922546,-0.06469155848026276,0.1801755130290985,-0.21110518276691437,-0.031227895990014076,-0.10938701033592224,0.26329556107521057,0.19415521621704102,0.2631402313709259,0.05785316601395607,0.12527382373809814,-0.17157483100891113,-0.19087029993534088,0.10344141721725464,-0.17724062502384186,0.1520751565694809,0.11352531611919403,0.053912922739982605,-0.2173091620206833,0.1658947467803955,-0.021359339356422424,-0.012576130218803883,0.1096019297838211,-0.005970397964119911,-0.03805621340870857,0.18515166640281677,-0.18601112067699432,0.20262975990772247,0.34723207354545593,0.12964528799057007,0.15411561727523804,-0.24695457518100739,-0.16230560839176178,-0.20504556596279144,-0.12834633886814117,-0.160646453499794,0.1173076257109642,0.18474140763282776,0.016365082934498787,-0.21172425150871277,0.13539521396160126,0.2253531813621521,-0.06781922280788422,0.08393039554357529,0.270272433757782,-0.2911960482597351,0.18312431871891022,0.03642178326845169,0.050112638622522354,-0.22928443551063538,0.1124449074268341,-0.12360140681266785,-0.205422043800354,-0.16213831305503845,-0.026006802916526794,-0.09539119154214859,-0.20468036830425262,0.15537677705287933,0.06553156673908234,-0.2179543673992157,0.013260595500469208,0.08709057420492172,-0.00125210196711123,0.04670145735144615,-0.007511570584028959,0.10394982993602753,-0.20706698298454285,-0.14583301544189453,0.26837781071662903,-0.23085108399391174,0.20585986971855164,0.3097788393497467,-0.2691783905029297,-0.09185997396707535,0.3090377748012543,-0.04896125942468643,0.007821142673492432,0.041602395474910736,0.03713521361351013,-0.23937532305717468,0.07871309667825699,0.2416466623544693,0.017429646104574203,-0.2196461260318756,0.06579840928316116,-0.12044371664524078,-0.08315706253051758,0.1264272779226303,0.07050073146820068,-0.28838151693344116,-0.1417890340089798,-0.016068903729319572,-0.1714077591896057,-0.031326692551374435,-0.12326227873563766,0.2113422304391861,0.11390262842178345,0.05360201746225357,0.004281093832105398,0.04882366582751274,0.13548611104488373,0.08431561291217804,-0.07799558341503143,-0.19349204003810883,0.016425423324108124,-0.18917977809906006,0.09429164230823517,-0.2468816637992859,-0.06546440720558167,0.08464007079601288,-0.1604027897119522,0.205376997590065,-0.15106962621212006,0.25995537638664246,0.10503912717103958,-0.10594804584980011,0.12947997450828552,-0.2943941056728363,-0.12963512539863586,-0.1381681263446808,0.0005579734570346773,-0.04664196819067001,-0.21860957145690918,0.2995201051235199,-0.08039091527462006,-0.10051307082176208,-0.011405397206544876,-0.12457837909460068,0.10628720372915268,0.0664096474647522,-0.12584634125232697,0.049636442214250565,0.13585011661052704,-0.15844351053237915,0.05328508839011192,-0.024258140474557877,-0.20919197797775269,-0.15588663518428802,0.06058402359485626,-0.1460559070110321,0.022694431245326996,0.2574249804019928,0.2059658020734787,-0.1342335045337677,0.26630616188049316,-0.23845206201076508,-0.07212776690721512,0.10299745947122574,0.22946983575820923,0.265887588262558,0.21896815299987793,-0.12349548190832138,0.052962690591812134,-0.29044362902641296,0.029411060735583305,0.13122639060020447,0.11125866323709488,-0.273115336894989,-0.08367212861776352,-0.1700678914785385,0.09579353034496307,-0.009125271812081337,-0.12616029381752014,-0.13602638244628906,0.10223428905010223,-0.005771015305072069,0.31009232997894287,0.06164654716849327,0.12878818809986115,-0.11768610775470734,0.05831408500671387,-0.0044274842366576195,0.17437927424907684,0.16514499485492706,-0.14627580344676971,-0.23577634990215302,-0.20061305165290833,-0.0627318024635315,-0.01251476164907217,0.2619094252586365,-0.018338460475206375,0.16194728016853333,0.12001491338014603,-0.18833844363689423,-0.17199955880641937,0.29222315549850464,0.11304496973752975,-0.15126386284828186,0.14264756441116333,-0.2736581265926361,-0.00042192867840640247,0.00891465600579977,0.025544684380292892,-0.04653109982609749,0.13527290523052216,-0.10633256286382675,0.265380859375,-0.2129039466381073,-0.23391324281692505,-0.3035816252231598,-0.2290181666612625,0.024169012904167175,-0.12624609470367432,-0.2802637815475464,0.06695149093866348,-0.3129899501800537,-0.03873322904109955,0.17830297350883484,-0.0021612353157252073,0.09976902604103088,0.10788735747337341,-0.20156152546405792,0.03610370308160782,0.12209689617156982,-0.08126869797706604,0.01505207922309637,0.05834555625915527,0.047547731548547745,0.04670865461230278,-0.23096449673175812,0.17846138775348663,0.13880175352096558,0.037920381873846054,0.04358282312750816,-0.18298885226249695,-0.04271909222006798,-0.016520483419299126,0.09993697702884674,0.00037513530696742237,0.00443665636703372,-0.07752927392721176,0.1335822492837906,-0.037171605974435806,0.040403321385383606,0.15140056610107422,-0.06017095968127251,0.024594735354185104,0.08646532148122787,0.01352201122790575,0.032038550823926926,0.035133637487888336,-0.049639977514743805,0.09627556800842285,0.0006537848967127502,0.1769784390926361,0.03926970064640045,-0.020873209461569786,0.047064248472452164,0.07805895060300827,-0.10621509701013565,-0.23170195519924164,0.055807456374168396,-0.016069458797574043,0.049902573227882385,0.06706012040376663,-0.12790215015411377,0.009802107699215412,0.16694799065589905,0.15436631441116333,-0.14232827723026276,0.13050128519535065,-0.018117697909474373,-0.15413059294223785,0.02827686071395874,0.08619429171085358,0.056223850697278976,-0.010181817226111889,-0.05160710960626602,-0.10917850583791733,0.057551994919776917,-0.12736010551452637,0.09996891021728516,-0.10930802673101425,0.05587248131632805,0.09079813957214355,-0.013801353052258492,-0.010333636775612831,0.2750377357006073,0.08508413285017014,-0.05397117882966995,-0.04350582882761955,-0.1950198858976364,-0.097112275660038,-0.09980174899101257,-0.15892228484153748,0.07793336361646652,0.050097379833459854,0.026775768026709557,0.0025041946209967136,-0.13356848061084747,0.010182221420109272,-0.07425253838300705,-0.1303836703300476,-0.045126501470804214,0.21038532257080078,0.26298248767852783,-0.16986863315105438,-0.05836763232946396,-0.27508091926574707,-0.11791669577360153,0.07411821186542511,0.11148039251565933,-0.044786207377910614,-0.08713320642709732,-0.06714274734258652,0.059730164706707,-0.12359584122896194,0.13447555899620056,-0.23144513368606567,-0.11764136701822281,-0.0550549291074276,0.03139965608716011,-0.06418729573488235,0.16410326957702637,0.019147470593452454,0.006829588674008846,0.1795479953289032,0.07832439243793488,0.09392571449279785,-0.1455812007188797,-0.10600315034389496,-0.09292308986186981,-0.20165248215198517,0.002983784070238471,0.0018717863131314516,0.15570834279060364,0.30885079503059387,0.13986679911613464,0.13551507890224457,0.022421104833483696,0.0038001115899533033,-0.008180207572877407,-0.16468986868858337,0.08433455973863602,-0.05192479118704796,-0.115903340280056,-0.16296792030334473,-0.13612893223762512,0.09292200952768326,0.09632094204425812,0.11606910079717636,-0.01479783933609724,-0.05911602824926376,-0.02202247641980648,-0.26062846183776855,-0.13026034832000732,-0.20366108417510986,0.03884238004684448,-0.08846540004014969,-0.08784978836774826,0.18108229339122772,-0.10536815971136093,0.10693550109863281,0.11627718806266785,0.19100941717624664,0.11337517946958542,-0.06522572785615921,0.08510782569646835,-0.006633989047259092,-0.08628031611442566,0.025532560423016548,0.04004969447851181,0.02440452203154564,0.08038631826639175,0.12096820771694183,0.12065688520669937,-0.048963215202093124,0.07062053680419922,0.13065816462039948,-0.11690672487020493,-0.05283550173044205,-0.0964747741818428,-0.06346428394317627,0.09660410135984421,0.04036891832947731,0.04707035422325134,-0.1484576165676117,0.14685603976249695,0.18401895463466644,-0.04505527764558792,0.027691073715686798,-0.15732820332050323,0.06072821468114853,0.05587830767035484,0.09009727090597153,0.06829617917537689,-0.0027716830372810364,0.0142207695171237,0.1510392427444458,0.11061733961105347,-0.10392483323812485,0.12047188729047775,0.03294713795185089,0.0040844762697815895,-0.09405210614204407,0.0001780170714482665,-0.030446544289588928,0.07141179591417313,-0.12775516510009766,0.0054391189478337765,-0.04453904926776886,0.009899926371872425,0.1309589445590973,-0.024342751130461693,-0.1135590523481369,-0.11018932610750198,-0.05966067686676979,0.00598428538069129,0.07008492201566696,-0.004452335182577372,-0.08377286791801453,0.06941410899162292,-0.10522674769163132,0.12410518527030945,-0.036938756704330444,0.13087713718414307,0.2046298235654831,0.010217886418104172,-0.0021652118302881718,-0.06206551194190979,0.08257590234279633,0.08949669450521469,-0.08413057774305344,-0.0800914391875267,0.17964185774326324,0.09798094630241394,0.017011454328894615,0.26614809036254883,-0.07788927853107452,0.17248943448066711,0.020040549337863922,0.04247845709323883,-0.014755049720406532,0.09850388765335083,0.08341635018587112,-0.026944367215037346,-0.07472937554121017,0.16338393092155457,-0.02519710175693035,-0.07013678550720215,0.14511334896087646,0.034080058336257935,-0.05062888190150261,0.04013923183083534,0.03341251239180565,0.111483633518219,0.03341549634933472,0.04866710677742958,0.17953886091709137,-0.028160322457551956,0.04237004742026329,-0.15406495332717896,0.13690118491649628,-0.11728062480688095,-0.19617871940135956,-0.1150979995727539,0.11813361197710037,-0.013982457108795643,0.08732326328754425,0.06434984505176544,-0.08588641881942749,-0.0948493704199791,-0.14079830050468445,0.026480592787265778,-0.22327232360839844,-0.05915922671556473,0.18736563622951508,-0.1309664398431778,0.06312185525894165,-0.0790114477276802,0.05710649490356445,0.12520815432071686,-0.04541431739926338,0.1704593151807785,0.04830114543437958,-0.0678011029958725,-0.09344155341386795,-0.004580892622470856,-0.03642502799630165,-0.09671050310134888,-0.05004984512925148,-0.04110286384820938,-0.07099179923534393,-0.12242276221513748,-0.013973253779113293,0.1417081654071808,-0.012293270789086819,-0.0979941338300705,-0.14788204431533813,0.04574129357933998,0.03361101448535919,-0.08819819986820221,-0.17806845903396606,0.012852205894887447,-0.12881900370121002,-0.019695015624165535,-0.19586794078350067,0.07071483880281448,0.04004481062293053,0.035920776426792145,-0.16675527393817902,0.1330939531326294,0.005098260939121246,0.10983753949403763,-0.06452388316392899,-0.08107425272464752,-0.1758062243461609,-0.06843576580286026,0.0132633401080966,0.08039923757314682,0.15558291971683502,-0.23202353715896606,0.11785238981246948,0.09790359437465668,-0.10339337587356567,-0.06851465255022049,-0.01714767888188362,0.0673842579126358,0.07651850581169128,-0.0016580773517489433,-0.1346382200717926,-0.08742266893386841,-0.1217905730009079,0.01048414409160614,-0.13447923958301544,-0.10554887354373932,0.06824324280023575,0.1361047327518463,0.21110399067401886,-0.13251015543937683,0.15967580676078796,0.15233218669891357,0.0548640638589859,0.007518741302192211,0.12761247158050537,0.08763797581195831,-0.17711536586284637,-0.047166094183921814,-0.08560913056135178,-0.1407751441001892,-0.13092918694019318,0.1678915172815323,0.04247025027871132,0.0005229208036325872,-0.12688671052455902,-0.07569808512926102,0.08198189735412598,0.06948419660329819,-0.018086496740579605,-0.05106934532523155,0.10629197210073471,-0.08464843779802322,0.1099471002817154,0.1810469925403595,0.01160195842385292,0.10997539013624191,0.15505832433700562,-0.030587254092097282,-0.014992693439126015,-0.04381917044520378,0.1630229502916336,0.01381510216742754,-0.06990712881088257,0.06714344769716263,-0.037322234362363815,0.04540402069687843,-0.009871935471892357,-0.1383749097585678,0.03527390956878662,0.01768890768289566,-0.08551961183547974,0.151121124625206,0.18586909770965576,0.10570131987333298,-0.01823320798575878,-0.051405660808086395,-0.165181502699852,0.009434055536985397,-0.11342596262693405,-0.08632337301969528,0.05797863379120827,-0.04184919595718384,-0.004474802408367395,-0.13862988352775574,0.21306148171424866,-0.1382831335067749,-0.03909682855010033,-0.01589890383183956,0.08771858364343643,0.026049964129924774,-0.023893112316727638,0.03844240680336952,0.1162063255906105,-0.049422893673181534,-0.04662518948316574,-0.015744619071483612,-0.07539486885070801,-0.04639248177409172,0.09649667143821716,0.02807438187301159,-0.020166495814919472,-0.08042004704475403,0.049698133021593094,0.031949955970048904,-0.16694022715091705,-0.05433877930045128,-0.13661694526672363,-0.04453160986304283,-0.1074281558394432,-0.02136133424937725,0.20291449129581451,0.1091485545039177,0.014966141432523727,0.07549550384283066,0.03476557508111,-0.06257212907075882,0.14370444416999817,-0.13653281331062317,-0.21447481215000153,-0.044087640941143036,-0.07961337268352509,-0.06001190096139908,-0.13190019130706787,0.07966011762619019,-0.10477166622877121,0.16893117129802704,-0.03123277612030506,-0.0869411826133728,0.14895321428775787,-0.025771426036953926,-0.1506904661655426,-0.022587411105632782,0.08210958540439606,-0.18069370090961456,0.01785713993012905,0.10613881051540375,-0.06289457529783249,-0.042294420301914215,0.035178497433662415,-0.04192279651761055,0.30962008237838745,-0.08533818274736404,-0.04640544578433037,-0.005039470735937357,-0.06238497421145439,0.06804034858942032,-0.17248724400997162,0.15689170360565186,0.04761263728141785,-0.057662565261125565,-0.0314326211810112,-0.013932951726019382,0.0008501298725605011,-0.1771259903907776,-0.032769035547971725,-0.07996563613414764,-0.23995541036128998,-0.07609459012746811,0.22561462223529816,-0.1009354218840599,0.053957127034664154,-0.1092648059129715,-0.0823059231042862,-0.022478340193629265,-0.02405487559735775,0.16748294234275818,0.15632179379463196,-0.035107195377349854,0.06053632125258446,-0.01855938322842121,-0.10182240605354309,-0.01684712991118431,-0.15388309955596924,-0.11799522489309311,0.0024148032534867525,0.07289806008338928,