{"version":"0.5.4","metadata":{"date":"2026-05-27T10:21:28","sample_rate":48000,"loudness":-21.402151107788086,"training_esr":0.016719373491430135,"pretrained":"Phoenix Pre 3 Tone 0.nam","architecture":"STANDARD","input_level_dbu":22.5,"output_level_dbu":6.4},"architecture":"WaveNet","config":{"layers":[{"input_size":2,"condition_size":2,"channels":16,"head_size":8,"kernel_size":3,"dilations":[1,2,4,8,16,32,64,128,256,512],"activation":"Tanh","gated":false,"head_bias":false},{"input_size":16,"condition_size":2,"channels":8,"head_size":1,"kernel_size":3,"dilations":[1,2,4,8,16,32,64,128,256,512],"activation":"Tanh","gated":false,"head_bias":true}],"head":null,"head_scale":0.02,"rate_condition_hidden":16,"rate_condition_num_biases":240},"weights":[-0.05034273490309715,0.0711154192686081,0.6510060429573059,-0.033438485115766525,-0.8419902324676514,-0.039828285574913025,-0.7940346598625183,0.06012999266386032,-0.5756285786628723,-0.09993426501750946,0.2578626275062561,-0.06682328879833221,-0.07982032001018524,-0.05361947417259216,0.8186250925064087,0.006440054625272751,-0.1273180991411209,0.005020814947783947,0.33977171778678894,0.024582121521234512,-0.3034854829311371,-0.011152165941894054,-0.22009675204753876,0.11702346801757812,-1.0779681205749512,0.034585848450660706,-0.6622012853622437,-0.021290699020028114,-0.5204339027404785,0.003882996505126357,0.039064470678567886,0.010830624960362911,0.12755976617336273,0.23691928386688232,-0.07423056662082672,-0.06976409256458282,0.02092503383755684,0.12074089795351028,-0.03772025182843208,0.12180515378713608,-0.03529004752635956,0.02481125481426716,0.163770392537117,-0.13258254528045654,-0.12774203717708588,-0.04662812501192093,-0.09269358962774277,0.07846246659755707,-0.161851167678833,-0.09821124374866486,-0.1734997034072876,-0.1425134241580963,-0.17390689253807068,0.1252482533454895,0.042609281837940216,0.0774504616856575,0.02948850579559803,-0.015969250351190567,0.025771120563149452,-0.12889668345451355,-0.1268376260995865,-0.05964258313179016,0.09802515059709549,0.1149345338344574,-0.06613118201494217,0.07014498114585876,0.1950675994157791,0.19839352369308472,0.05987762659788132,0.045099757611751556,0.0925053060054779,-0.08865746855735779,0.0467463955283165,-0.12216424196958542,-0.09029170125722885,-0.04095613211393356,0.06774436682462692,0.028994740918278694,-0.14451439678668976,0.03489215672016144,0.18343040347099304,0.1738804280757904,0.0069458321668207645,-0.07090158015489578,-0.08233404904603958,0.11901907622814178,-0.007807174231857061,0.11660633981227875,0.08127214014530182,0.21899953484535217,0.29228681325912476,0.14725898206233978,0.1382434070110321,0.048179421573877335,0.0323420874774456,-0.18529824912548065,-0.2966887950897217,0.1085139811038971,0.20958314836025238,0.03265530616044998,0.026290692389011383,-0.1260303258895874,-0.19309356808662415,-0.089344322681427,0.15622533857822418,0.09159079939126968,0.0677427425980568,-0.03468703478574753,-0.07447978854179382,0.03207593038678169,-0.0423380471765995,0.07572535425424576,0.0962095707654953,0.12846797704696655,0.057751815766096115,-0.06151339039206505,0.23747390508651733,0.26626917719841003,-0.04108426719903946,0.06757526844739914,0.03422413766384125,0.021751035004854202,-0.0015113683184608817,0.06311015039682388,0.013066441752016544,-0.0949862003326416,-0.2398356795310974,0.06949446350336075,-0.18706943094730377,-0.10745027661323547,0.1299300193786621,0.016464857384562492,0.1973748356103897,0.05226859450340271,-0.11615534871816635,-0.19309484958648682,0.00491675641387701,-0.12208006531000137,-0.29396623373031616,0.02560536004602909,-0.2856699526309967,-0.3347874581813812,-0.08625315129756927,0.03815111890435219,0.1562620997428894,-0.09957875311374664,-0.17534711956977844,-0.23873785138130188,-0.12111249566078186,0.1277177631855011,0.3284111022949219,0.03425879403948784,-0.11809373646974564,-0.23775549232959747,0.006586876232177019,0.23028287291526794,0.37247195839881897,0.13628678023815155,0.00936398096382618,-0.22837704420089722,-0.17208655178546906,-0.1683851033449173,-0.10962983220815659,-0.0035248303320258856,-0.20754647254943848,-0.3375321924686432,-0.1832944005727768,-0.2590327560901642,-0.25722137093544006,0.02901780791580677,-0.06208956614136696,-0.37465742230415344,0.043108198791742325,0.010019208304584026,0.19878701865673065,-0.04772306606173515,-0.02455328218638897,0.04686625301837921,-0.25413230061531067,-0.14221450686454773,-0.10842147469520569,0.0726657435297966,-0.041752710938453674,0.14734643697738647,-0.18613706529140472,0.005220073275268078,0.21086882054805756,-0.1275576949119568,0.17526505887508392,0.16555894911289215,-0.17496339976787567,0.09107624739408493,-0.08377666026353836,0.021464567631483078,0.1831779032945633,0.022102203220129013,-0.022233229130506516,-0.05014199763536453,0.013664716854691505,0.10105764120817184,0.07798656076192856,0.13188758492469788,-0.11973488330841064,-0.053107790648937225,-0.21158818900585175,0.142687126994133,0.12863457202911377,0.18255555629730225,-0.16752345860004425,0.003358046989887953,-0.03724268823862076,-0.1799134463071823,-0.06579835712909698,0.13661111891269684,-0.15026292204856873,0.01890617422759533,0.09748648852109909,0.03362857922911644,-0.09291435778141022,-0.014512349851429462,-0.156309574842453,0.09632083028554916,-0.11393027007579803,0.21887488663196564,0.03889657184481621,-0.06946548074483871,0.06419204920530319,-0.056286294013261795,0.04408424720168114,-0.13299241662025452,0.03573210909962654,0.005302456673234701,-0.007946227677166462,-0.052338115870952606,0.08983360975980759,-0.022039206698536873,0.05428198352456093,0.14752821624279022,0.1819535791873932,0.008581561036407948,-0.07132922112941742,0.004050706047564745,-0.0035007833503186703,-0.0120411217212677,0.11615020036697388,-0.05225985869765282,0.019851084798574448,0.017817243933677673,0.03432276472449303,0.0918973907828331,0.18442466855049133,-0.12898410856723785,0.08126085251569748,-0.21238094568252563,-0.036867108196020126,0.019044112414121628,0.14298802614212036,0.08392439037561417,-0.12626871466636658,0.04904298111796379,0.10309294611215591,-0.1608666032552719,0.20434881746768951,-0.08576283603906631,-0.014312934130430222,0.07948192954063416,-0.04978201538324356,-0.009571838192641735,0.21728083491325378,-0.06065662205219269,-0.04287805035710335,-0.14413025975227356,-0.13712622225284576,-0.0980089008808136,-0.08741214871406555,-0.13319820165634155,-0.006408070679754019,0.08404974639415741,0.1112782433629036,0.04006011039018631,0.05163239315152168,-0.011215128004550934,-0.11165966093540192,0.045684814453125,0.15136469900608063,-0.045610565692186356,-0.07717540115118027,-0.09687604010105133,-0.053927112370729446,0.03431162238121033,-0.06469403952360153,-0.2586391866207123,0.11430896818637848,-0.12954072654247284,0.05399893969297409,0.03960791975259781,0.037291739135980606,-0.18716250360012054,-0.11299341917037964,0.08172797411680222,0.10513720661401749,0.12125314772129059,-0.015582744032144547,-0.030689962208271027,-0.03224741294980049,0.01019787136465311,-0.19682161509990692,0.0316329151391983,0.08269401639699936,-0.07371357083320618,-0.030311573296785355,-0.05545949563384056,0.026375245302915573,-0.10774447023868561,0.09302832186222076,-0.1292826235294342,-0.07444391399621964,0.018411682918667793,0.04456094279885292,0.05259722098708153,-0.16409605741500854,-0.3699485957622528,0.09227491170167923,0.26606565713882446,0.2887857258319855,-0.033546533435583115,-0.32255634665489197,-0.24844376742839813,0.05604704096913338,-0.24666470289230347,-0.16487616300582886,0.11485157907009125,-0.30274128913879395,-0.2532971501350403,0.05517152324318886,0.19341017305850983,0.22261548042297363,-0.013369090855121613,-0.35220450162887573,-0.28203085064888,0.1013048067688942,0.3292005658149719,0.30740535259246826,0.007779388688504696,-0.12587112188339233,-0.30060911178588867,-0.08779387176036835,0.08660895377397537,0.3830496370792389,0.08218732476234436,-0.2959412634372711,-0.16367430984973907,0.12196782231330872,-0.04034610837697983,-0.09524413198232651,0.1521139293909073,-0.2320614904165268,-0.2739022970199585,0.13255049288272858,-0.12267028540372849,-0.31407666206359863,0.13785959780216217,-0.1402871012687683,-0.15855003893375397,-0.07934890687465668,0.25998014211654663,0.20676930248737335,0.10052988678216934,-0.06060193479061127,-0.003994891420006752,0.18916438519954681,0.16548500955104828,0.05759649723768234,0.01253119669854641,-0.21575386822223663,-0.08597371727228165,-0.06258472800254822,-0.24090726673603058,-0.21925994753837585,0.16831174492835999,-0.06815599650144577,-0.012195521965622902,0.135004460811615,-0.06340693682432175,-0.027688732370734215,-0.10957013070583344,-0.2582123875617981,-0.0831112340092659,-0.09362515807151794,0.037384361028671265,-0.026579000055789948,-0.12436238676309586,0.036274660378694534,0.02302676811814308,0.18524637818336487,0.22403697669506073,0.24711886048316956,-0.0847698450088501,-0.0344579853117466,0.024111982434988022,0.09759755432605743,0.0980759784579277,0.020839232951402664,0.20525123178958893,-0.15597689151763916,-0.040520165115594864,0.06419725716114044,-0.14535905420780182,-0.1974775344133377,-0.04087072238326073,-0.21394489705562592,-0.008160754106938839,0.16354680061340332,0.05527045950293541,-0.007796154357492924,0.009541874751448631,-0.013447416946291924,-0.24260982871055603,-0.08900778740644455,0.1563831865787506,0.19220440089702606,-0.1463961899280548,0.1258040964603424,-0.006427702493965626,-0.009731619618833065,0.05976417288184166,-0.20909473299980164,0.013344020582735538,0.11439821124076843,-0.1147305816411972,-0.04925471916794777,-0.0017292031552642584,0.11490221321582794,-0.03716634213924408,-0.003084491938352585,-0.015090212225914001,0.0638958290219307,-0.0738455206155777,0.12699025869369507,0.028503166511654854,0.03283965215086937,-0.2868652939796448,0.0034978208132088184,-0.08778897672891617,0.06839802116155624,0.009673522785305977,-0.1228552758693695,-0.07036872953176498,0.15809781849384308,-0.06558128446340561,-0.2890242040157318,-0.06840682029724121,0.01374294888228178,-0.2333003133535385,0.11090569943189621,-0.14704783260822296,-0.2594631612300873,-0.0994807705283165,-0.05635113641619682,-0.04080473259091377,-0.10223175585269928,0.18398091197013855,0.12157934904098511,0.02829314023256302,-0.06619708240032196,-0.3028399646282196,0.14773330092430115,0.09012621641159058,0.20844559371471405,0.00990824680775404,-0.09611168503761292,0.07073934376239777,0.07689084112644196,0.05423397570848465,-0.1810585856437683,0.017216244712471962,-0.1256609857082367,-0.09318529814481735,0.1204150840640068,-0.07470840960741043,0.13699129223823547,0.04352105036377907,0.05691191181540489,-0.14244981110095978,0.014491334557533264,-0.038432784378528595,0.1194833293557167,0.07669424265623093,0.06058318540453911,-0.10150361806154251,0.11316179484128952,-0.13794933259487152,-0.0644826740026474,-0.0067120143212378025,-0.09151924401521683,0.008862964808940887,-0.03932271525263786,-0.13361115753650665,-0.24134477972984314,0.08787941932678223,-0.023903949186205864,0.051437489688396454,0.15285724401474,0.07535957545042038,-0.05046279355883598,0.0231668408960104,-0.045048441737890244,-0.04669328033924103,0.13364294171333313,-0.0725366547703743,0.21062573790550232,-0.07642921805381775,0.04440600052475929,-0.004391110502183437,0.22393712401390076,0.09385090321302414,-0.10739175230264664,0.12621819972991943,0.09122229367494583,0.04397720471024513,0.081150583922863,-0.039376478642225266,0.021895186975598335,0.037590015679597855,-0.04656548425555229,-0.018994860351085663,-0.10826170444488525,0.01490160170942545,-0.05453246459364891,-0.07162372767925262,0.04594060033559799,-0.016276512295007706,-0.12269926071166992,-0.01457083597779274,0.11736012995243073,0.01786125637590885,0.11455545574426651,-0.03522317484021187,0.059185631573200226,-0.1359533667564392,-0.05088740959763527,-0.04310276359319687,0.17079201340675354,-0.0617126002907753,-0.02087099850177765,0.03579835593700409,0.1868777871131897,0.18973952531814575,-0.07774227112531662,-0.14752545952796936,-0.13838829100131989,0.02452022209763527,-0.07301872968673706,-0.1288236528635025,-0.01230087224394083,0.0028108477126806974,-0.09860869497060776,-0.05296439304947853,-0.05434979498386383,-0.09837216883897781,-0.053827282041311264,-0.028489097952842712,-0.13085253536701202,-0.023907240480184555,-0.027352051809430122,0.09998796135187149,-0.08000775426626205,-0.13582713901996613,0.20449116826057434,-0.0607612319290638,0.003706094343215227,0.028627868741750717,0.057062167674303055,-0.004614478908479214,0.18331974744796753,0.03374328836798668,-0.06205621734261513,-0.07499835640192032,0.0612587071955204,0.11287008970975876,0.03687277436256409,0.0891546979546547,-0.024678576737642288,-0.08071523159742355,0.11312437057495117,0.014547867700457573,0.14781005680561066,0.03705396503210068,-0.032647840678691864,-0.15446873009204865,0.023339206352829933,0.1003434807062149,-0.00394749641418457,-0.20070773363113403,-0.06444207578897476,0.09539026767015457,-0.00041974350460805,-0.133591428399086,-0.08155260235071182,0.08510538935661316,-0.0165505800396204,-0.015422501601278782,0.053523480892181396,0.02237844094634056,0.14992210268974304,0.1405743807554245,0.05707187205553055,-0.12482104450464249,-0.03539813682436943,0.10519348084926605,0.20931100845336914,0.05829598754644394,-0.04530090466141701,0.08824576437473297,0.12942290306091309,0.043973490595817566,-0.09010759741067886,-0.047637712210416794,-0.17425231635570526,0.18432539701461792,-0.08752693980932236,-0.17511679232120514,0.08981557190418243,-0.09717205911874771,-0.020347915589809418,-0.08414603769779205,-0.04930592700839043,-0.2553953528404236,0.1340402513742447,-0.06228955090045929,0.13300099968910217,0.086623415350914,0.0963425487279892,-0.05109977722167969,0.19318312406539917,0.02164425700902939,0.021927818655967712,0.09552795439958572,0.03804488107562065,-0.2179998755455017,0.0034968338441103697,-0.04519703984260559,0.09156911075115204,0.07196338474750519,-0.1301913559436798,-0.08872353285551071,0.132632777094841,0.033312179148197174,-0.039528071880340576,0.049967411905527115,0.05696891248226166,-0.11587212979793549,-0.01365936454385519,-0.15576854348182678,-0.04237646982073784,-0.004522944800555706,0.05099144205451012,0.2321786880493164,0.0908627137541771,-0.042276185005903244,-0.20379523932933807,0.1658795177936554,-0.04372914135456085,0.21573570370674133,-0.14873722195625305,0.014794997870922089,0.18529768288135529,-0.0848371833562851,0.1591227501630783,-0.00038904522079974413,-0.1645006686449051,-0.13360869884490967,-0.10550833493471146,0.13292020559310913,-0.022090116515755653,0.1666395664215088,-0.07244798541069031,-0.07445980608463287,0.005967581644654274,-0.08111907541751862,0.08163463324308395,0.2633660137653351,-0.03517801687121391,0.06442566961050034,-0.1510271430015564,0.1475294977426529,-0.0928928554058075,0.0826331302523613,-0.050995830446481705,0.14104542136192322,0.2182999700307846,0.13662715256214142,0.024413296952843666,0.09733719378709793,0.06956682354211807,0.004354451783001423,0.22697533667087555,-0.12720808386802673,0.03810379281640053,0.10495728999376297,0.037187859416007996,0.02070634998381138,-0.1548970341682434,-0.11118355393409729,-0.018359346315264702,-0.09811647236347198,-0.027230774983763695,-0.0783979669213295,0.15678636729717255,0.14768074452877045,0.012324292212724686,-0.1889379620552063,0.09818299859762192,-0.11898263543844223,-0.03140067309141159,0.008180061355233192,-0.05765010043978691,0.0037111893761903048,-0.12309936434030533,0.05942399799823761,-0.012444994412362576,0.013637453317642212,0.0057592326775193214,0.054899100214242935,-0.08188021183013916,0.09776507318019867,0.04072465002536774,-0.06097268685698509,-0.1529354602098465,-0.21069513261318207,0.11715038120746613,-0.029136404395103455,0.06819959729909897,0.047090210020542145,0.08893138915300369,0.06109360232949257,0.1059141531586647,-0.14814186096191406,-0.11859283596277237,-0.13136248290538788,-0.09019667655229568,-0.0271766297519207,0.12595726549625397,-0.11980397999286652,0.029585013166069984,-0.08122053742408752,-0.03541761264204979,0.05288517847657204,-0.04074498265981674,0.03288056328892708,-0.03431812673807144,0.1399410367012024,-0.173956036567688,-0.25531744956970215,-0.004044313449412584,-0.053616516292095184,-0.08669884502887726,-0.02048661559820175,0.0872434750199318,-0.053424809128046036,0.10915006697177887,0.07627353817224503,0.061957914382219315,-0.05211072787642479,-0.027193628251552582,-0.032910142093896866,-0.05018624663352966,0.08146858960390091,0.18141093850135803,0.13617362082004547,-0.0014025308191776276,0.02402578294277191,0.01652122102677822,0.1440119743347168,-0.038015566766262054,-0.13468347489833832,-0.05114913359284401,0.024600276723504066,-0.11694695800542831,0.16864947974681854,0.07336548715829849,-0.14179350435733795,-0.07358231395483017,0.09321320056915283,-0.08337636291980743,-0.153639554977417,-0.05908804014325142,-0.17113296687602997,0.039080098271369934,0.049793124198913574,0.1203756108880043,-0.12502381205558777,0.12398579716682434,-0.04829724133014679,0.09461165219545364,-0.16445906460285187,-0.0972624123096466,0.17746879160404205,0.07553563266992569,-0.0009788392344489694,-0.050137609243392944,-0.08929657191038132,-0.06304966658353806,-0.10360090434551239,0.01961709000170231,0.03249844163656235,-0.05325213447213173,-0.002874542260542512,0.10789041221141815,0.06256982684135437,-0.03517105057835579,0.01320702489465475,-0.06351961195468903,-0.07286641746759415,-0.0622779056429863,-0.006971276830881834,0.4557129442691803,0.10438719391822815,-0.4507474899291992,0.031479768455028534,0.850732147693634,0.013664133846759796,-0.6464129090309143,-0.07061845809221268,-0.1004304587841034,-0.07843952625989914,0.896571159362793,-0.00994604080915451,0.9854251146316528,0.007657255511730909,-0.6134220361709595,0.10953351855278015,0.13518625497817993,-0.061020635068416595,0.05131908506155014,-0.07197253406047821,-0.4288142919540405,0.13955169916152954,-0.4069969356060028,-0.12000754475593567,0.23736682534217834,0.08448752015829086,-0.662115752696991,0.09257003664970398,0.16997253894805908,-0.06826938688755035,0.3944332003593445,-0.10023263841867447,0.022845979779958725,0.2279878556728363,-0.004449312575161457,0.16130325198173523,0.11958315968513489,-0.04373743385076523,0.13228608667850494,-0.060565005987882614,-0.07402171939611435,-0.0806342214345932,0.11894423514604568,-0.23126402497291565,0.14179727435112,0.03153780847787857,0.18126428127288818,-0.04429525136947632,-0.0285795871168375,-0.08470907062292099,-0.2711440920829773,0.11689458787441254,-0.01360652782022953,-0.12812048196792603,-0.15526780486106873,-0.007094171363860369,-0.024305829778313637,0.247155100107193,-0.19914057850837708,0.08938412368297577,0.06774640083312988,-0.10110940039157867,0.10338273644447327,0.2492411881685257,0.01320255920290947,0.06169619783759117,-0.03961300849914551,0.19347631931304932,-0.16188456118106842,-0.1385822594165802,0.03363035246729851,-0.2692345678806305,0.008183363825082779,-0.08869381248950958,0.037199512124061584,-0.2225862443447113,0.1297467201948166,0.24389155209064484,0.006508863065391779,-0.0214021485298872,0.340459406375885,-0.10704697668552399,-0.07461266964673996,-0.12457181513309479,-0.1826784759759903,0.05589037761092186,-0.016471512615680695,0.002592860721051693,-0.2521294057369232,-0.050723426043987274,0.07584443688392639,-0.14104865491390228,0.1905505359172821,0.24314749240875244,-0.10270322114229202,-0.03765127807855606,-0.20446495711803436,-0.182735875248909,-0.23374947905540466,0.24139828979969025,0.23642423748970032,0.08322339504957199,0.09126023203134537,-0.2712654769420624,0.032168563455343246,0.24397961795330048,-0.29626622796058655,0.3788124918937683,-0.033016499131917953,0.1946839988231659,-0.25236067175865173,0.05380319058895111,-0.31281232833862305,-0.02593432366847992,0.10910103470087051,0.06704208254814148,0.3285383880138397,0.23390483856201172,0.25842010974884033,0.12042717635631561,0.19057412445545197,-3.119438042631373e-05,-0.3047214150428772,0.043214332312345505,-0.08334577828645706,-0.15576395392417908,0.10031827539205551,0.12537801265716553,0.02330853044986725,0.048361845314502716,0.23646730184555054,0.1212778314948082,-0.2513383626937866,-0.13880594074726105,0.12345869094133377,-0.020094452425837517,0.10163158923387527,-0.2333546131849289,-0.31172898411750793,0.07883582264184952,0.13447310030460358,-0.20862974226474762,0.128737673163414,-0.14150096476078033,0.12076909840106964,0.10626990348100662,0.2577590346336365,-0.2457588016986847,-0.07902980595827103,0.1193728968501091,0.23997698724269867,0.1103777065873146,0.13670192658901215,-0.23169943690299988,0.08333553373813629,-0.11839135736227036,0.0002012302284128964,-0.13623668253421783,-0.16845110058784485,0.008368592709302902,-0.08040006458759308,-0.0335879847407341,-0.2760142982006073,-0.19925691187381744,0.018872125074267387,-0.08950646221637726,-0.19692125916481018,-0.1413019746541977,-0.21097762882709503,-0.20242109894752502,0.18449221551418304,0.04245593771338463,0.02976871468126774,-0.12963464856147766,0.09330515563488007,0.021849745884537697,-0.17291907966136932,0.025487074628472328,0.3238982558250427,-0.24346990883350372,-0.17164574563503265,0.06713414937257767,0.2930086553096771,-0.2133636474609375,0.05260908603668213,0.15538042783737183,0.07326781004667282,0.054462309926748276,0.23245356976985931,0.14533960819244385,-0.1548888087272644,0.04014477878808975,0.1330532431602478,0.2256435751914978,-0.29257816076278687,0.1660454273223877,-0.13341443240642548,-0.23246687650680542,0.010155702009797096,-0.1296808421611786,0.025514109060168266,-0.1352597326040268,-0.16983261704444885,-0.09602001309394836,-0.11047098785638809,0.15392038226127625,0.0426148921251297,0.2138649970293045,0.1645077019929886,-0.06805405765771866,0.11385650932788849,-0.0045030084438622,-0.12860430777072906,-0.09641272574663162,-0.054065216332674026,0.07580842822790146,-0.03769930079579353,-0.27450746297836304,0.14484454691410065,-0.3148713707923889,-0.030175816267728806,0.16050615906715393,-0.142736554145813,-0.20358486473560333,0.06438887864351273,-0.07298416644334793,0.027544856071472168,0.04192445054650307,0.024972502142190933,-0.1853557825088501,-0.02823420614004135,0.23132115602493286,0.18105192482471466,-0.08116013556718826,0.05065937340259552,-0.0012041614390909672,0.23717565834522247,-0.132834792137146,-0.05722953379154205,0.0761743038892746,0.06293628364801407,-0.26860061287879944,-0.15261133015155792,0.0960598811507225,-0.2173081934452057,0.20877069234848022,0.19507792592048645,0.1031029224395752,-0.0021720032673329115,-0.06213771551847458,-0.018205473199486732,-0.03693012148141861,-0.13992269337177277,-0.08520064502954483,-0.10173290967941284,0.20363859832286835,-0.03417638689279556,0.3738444447517395,-0.14152245223522186,-0.03364982083439827,0.10442766547203064,-0.058417171239852905,0.07818824052810669,-0.031092382967472076,-0.38523271679878235,0.022754047065973282,-0.05019413307309151,-0.13018770515918732,0.05786561220884323,0.32917463779449463,-0.38349929451942444,-0.18057291209697723,0.2305498868227005,0.08965680003166199,0.2194252908229828,-0.1306481808423996,-0.1537378430366516,0.14173579216003418,0.12598900496959686,0.4754990041255951,-0.13170872628688812,-0.2095811367034912,0.2195710837841034,-0.17675745487213135,0.105477474629879,0.21422453224658966,0.010403302498161793,-0.10331147164106369,0.060491058975458145,-0.1380845308303833,0.25520971417427063,-0.2679497301578522,-0.15586955845355988,-0.038657769560813904,0.22209219634532928,0.0685991570353508,0.06975621730089188,-0.20438848435878754,0.09027476608753204,-0.0751141607761383,0.003892814042046666,0.15225383639335632,0.15578575432300568,-0.0025361180305480957,-0.08734651654958725,-0.14795367419719696,0.015009692870080471,0.09657236933708191,-0.06579184532165527,0.11893276125192642,-0.15913985669612885,-0.11552587896585464,0.04781869798898697,-0.185972660779953,-0.041003935039043427,-0.017933137714862823,-0.051020652055740356,-0.040109630674123764,0.09933143854141235,0.2567320466041565,0.030966652557253838,0.030382584780454636,-0.053348369896411896,-0.07825176417827606,0.07264799624681473,0.13772261142730713,0.029020385816693306,-0.17798176407814026,-0.1933707743883133,-0.05540575459599495,-0.09622962772846222,-0.019105756655335426,0.1190272867679596,-0.12044896930456161,-0.2638551890850067,-0.17525042593479156,0.02406615950167179,-0.22780001163482666,-0.18752999603748322,0.02941446378827095,-0.18077148497104645,-0.014324682764708996,-0.09982660412788391,-0.10382506251335144,0.044771838933229446,-0.10901805013418198,-0.23067569732666016,0.01379355974495411,0.07563658058643341,0.2785051167011261,0.042211949825286865,-0.12663787603378296,0.006974413990974426,0.07378127425909042,0.28910908102989197,-0.21518976986408234,-0.07622328400611877,0.07619050145149231,-0.08122866600751877,-0.02713685669004917,0.1994314342737198,-0.10255052149295807,0.09407489746809006,-0.025720354169607162,0.08994728326797485,-0.09609904140233994,0.08711087703704834,-0.10246168822050095,-0.1547432243824005,-0.15603600442409515,0.09772692620754242,-0.1486048698425293,-0.10336701571941376,0.14775797724723816,-0.07117035239934921,-0.04742065444588661,-0.17367136478424072,-0.010733922943472862,0.041843485087156296,0.15785668790340424,0.04562469571828842,-0.20951701700687408,0.0028637039940804243,0.03156238794326782,0.09591607004404068,-0.05194379389286041,0.02103033848106861,0.30032193660736084,0.004680487792938948,0.0009343299898318946,-0.09851910173892975,0.01666766032576561,0.058345258235931396,0.03431359678506851,-0.029827069491147995,-0.0165912713855505,0.08469279855489731,0.014494720846414566,0.09932050108909607,-0.22087983787059784,-0.04373186081647873,-0.18271112442016602,-0.039462391287088394,0.07934731245040894,0.17454978823661804,-0.20247866213321686,0.007784520275890827,-0.010175415314733982,0.047050390392541885,0.10735229402780533,-0.10322296619415283,-0.10105373710393906,0.11052263528108597,-0.14588353037834167,0.053493205457925797,-0.02204001322388649,0.19536283612251282,0.18576715886592865,0.16472919285297394,-0.05803772434592247,-0.032481588423252106,-0.06494225561618805,0.05808054655790329,0.17537441849708557,-0.027180423960089684,-0.20570656657218933,-0.10578101873397827,-0.07173760235309601,0.1571275144815445,-0.07866306602954865,-0.14738067984580994,-0.25009873509407043,0.012600804679095745,0.10794239491224289,-0.215242400765419,0.022230086848139763,0.19877786934375763,-0.06215304881334305,0.06160246580839157,0.029673492535948753,-0.04369344189763069,0.12535850703716278,-0.051190007477998734,-0.0587213970720768,0.048949770629405975,-0.1024194285273552,0.1966831535100937,0.19934438169002533,0.004569980315864086,0.006329786963760853,0.11026091873645782,-0.07269720733165741,0.06028915196657181,0.08104310184717178,0.07018514722585678,-0.1449843943119049,-0.17249953746795654,0.15786617994308472,0.15417487919330597,-0.050391845405101776,-0.08032150566577911,-0.12186957150697708,-0.08532918989658356,-0.1527772694826126,0.04818244278430939,-0.05078147351741791,0.02351352758705616,0.08695560693740845,-0.006369641982018948,-0.16529333591461182,0.020550308749079704,0.06991829723119736,0.1122758761048317,-0.14941026270389557,0.05087979882955551,0.1520504504442215,-0.09327151626348495,0.058553170412778854,0.14557838439941406,-0.09845131635665894,0.029033122584223747,0.2750581204891205,0.24684776365756989,0.3269626796245575,0.011296108365058899,0.11640439182519913,-0.1227874606847763,0.042554739862680435,-0.1968057006597519,-0.1693280041217804,-0.0476393885910511,-0.061461836099624634,0.10403000563383102,0.1265328973531723,0.18566153943538666,0.2088567316532135,-0.11164133250713348,-0.005589118227362633,-0.04857127368450165,0.037994932383298874,0.16885489225387573,-0.08804375678300858,-0.057382676750421524,0.11493054032325745,-0.10336703062057495,-0.09554369747638702,0.10668305307626724,0.08325634151697159,0.021021755412220955,0.040385011583566666,-0.0668511912226677,-0.0996311828494072,0.044290684163570404,0.04320717975497246,0.09575776755809784,-0.17686474323272705,-0.004979358986020088,-0.014767061918973923,0.057592038065195084,0.17542457580566406,0.07585141062736511,0.05884333327412605,-0.15533040463924408,-0.07570832967758179,-0.13413363695144653,0.10081656277179718,0.10864204168319702,-0.010190827772021294,-0.10622989386320114,-0.10478504002094269,0.06970834732055664,0.01732286997139454,-0.09855692088603973,-0.13658137619495392,0.14664402604103088,0.013451758772134781,-0.04308224096894264,0.012478001415729523,0.025645539164543152,-0.06475824117660522,-0.17066918313503265,0.04234202206134796,-0.057087868452072144,-0.012403268367052078,-0.021183500066399574,0.10120878368616104,-0.027242472395300865,-0.13751809298992157,0.1923908144235611,0.0580272413790226,-0.03226866200566292,0.13093049824237823,0.09012426435947418,0.016667306423187256,0.12358536571264267,0.09314665198326111,-0.054396092891693115,0.0734173059463501,0.06766320765018463,0.03667808324098587,-0.27696099877357483,-0.12099514156579971,0.06970196217298508,-0.20517496764659882,-0.0625823512673378,0.023888319730758667,-0.22964024543762207,0.015808161348104477,0.21275979280471802,0.32639840245246887,0.08372613787651062,0.06333065032958984,-0.25443923473358154,-0.1483542025089264,0.15547771751880646,0.28155645728111267,0.18757855892181396,0.20955705642700195,0.07780944555997849,0.10734899342060089,0.1963074803352356,-0.03970787674188614,0.3356918394565582,-0.04572467878460884,-0.12021281570196152,0.10585251450538635,-0.01714557223021984,0.26218274235725403,-0.03732829540967941,-0.08989854156970978,-0.1720278114080429,-0.05070515349507332,0.021103711798787117,-0.018496744334697723,-0.018843933939933777,0.07288609445095062,0.167318657040596,-0.13019458949565887,-0.029413873329758644,-0.15054188668727875,0.09770283102989197,0.10985187441110611,-0.04530789330601692,-0.05263443663716316,-0.09088435769081116,0.07316886633634567,-0.05197661742568016,0.19647866487503052,0.19741517305374146,0.17707276344299316,0.14536815881729126,-0.04562106728553772,0.11963272094726562,0.005931258201599121,0.18408316373825073,0.05284074693918228,-0.06036526337265968,-0.20707820355892181,-0.1942800134420395,0.10885916650295258,0.14391975104808807,0.09729298204183578,0.04556669294834137,-0.16349677741527557,-0.01860979199409485,-0.07889416813850403,-0.05324676260352135,-0.005630335304886103,0.11607864499092102,0.09272193163633347,0.09446310997009277,-0.009696254506707191,0.04761352762579918,-0.11499537527561188,-0.11405794322490692,-0.07504499703645706,-0.054278962314128876,-0.03057962656021118,0.04331015422940254,0.003800859907642007,-0.19299595057964325,-0.041159115731716156,0.12281211465597153,0.08390146493911743,-0.07630348205566406,-0.10249423235654831,-0.21229317784309387,-0.08649187535047531,0.08702290058135986,-0.07885447889566422,-0.09015180915594101,-0.07093796879053116,-0.0223049595952034,-0.13871847093105316,-0.14875845611095428,0.2657325267791748,0.04303320497274399,-0.011069678701460361,-0.01646655611693859,-0.09819748997688293,0.004610254429280758,0.1511605978012085,0.02413254790008068,0.01565294899046421,-0.12455330044031143,-0.25080612301826477,0.07963479310274124,0.23411813378334045,0.2188657522201538,0.001550436019897461,-0.03690193220973015,-0.2506394386291504,-0.0580935925245285,-0.09611716866493225,-0.10735522210597992,0.08583773672580719,-0.16100066900253296,-0.048614777624607086,-0.13011519610881805,-0.17026564478874207,-0.04873662441968918,-0.13467708230018616,-0.029035966843366623,-0.008015422150492668,0.10320213437080383,0.0655277743935585,0.10230257362127304,0.03686846047639847,0.11861511319875717,0.09981870651245117,-0.08197849988937378,-0.07651930302381516,-0.17120066285133362,-0.04273195192217827,0.1495700478553772,0.06094089522957802,0.1655050665140152,0.08729111403226852,-0.023867666721343994,-0.12223774194717407,0.14650532603263855,0.16455550491809845,0.09528369456529617,-0.0867052748799324,0.1647084355354309,0.04909015819430351,0.1093316301703453,0.07433760166168213,0.07658189535140991,-0.14758096635341644,-0.09675794094800949,0.0833786204457283,-0.01905231922864914,-0.13498900830745697,0.12420932203531265,-0.045941248536109924,0.09179303050041199,-0.1325043886899948,0.08617903292179108,-0.06575345993041992,-0.05480530112981796,-0.07600534707307816,-0.14024747908115387,0.001961458008736372,-0.03242278844118118,0.24061979353427887,-0.0016012239502742887,0.01619136519730091,-0.048636630177497864,-0.12273440510034561,-0.02144531160593033,-0.0962061658501625,-0.004040094092488289,-0.04201766848564148,-0.0582079254090786,-0.16110451519489288,0.16331547498703003,0.15058466792106628,-0.022289516404271126,-0.11662158370018005,0.09912043064832687,0.12976180016994476,-0.0768679603934288,0.04040990024805069,-0.0021714402828365564,-0.12316145747900009,0.058882590383291245,-0.1048988327383995,0.09675681591033936,-0.07815104722976685,-0.09940724074840546,-0.07596880197525024,-0.09032147377729416,0.052877578884363174,0.11680487543344498,0.06022334098815918,0.20234741270542145,-0.11496787518262863,0.048252422362565994,0.1789505034685135,0.010953608900308609,0.16660736501216888,0.019279109314084053,-0.14536359906196594,-0.13919907808303833,0.013350777328014374,-0.02837243117392063,0.10691697150468826,0.1867205798625946,-0.03650898486375809,-0.05187918618321419,-0.07270495593547821,-0.029679497703909874,-0.17672617733478546,-0.1870264858007431,-0.0731208473443985,0.08212658017873764,0.08175218850374222,-0.03173995018005371,-0.1578073650598526,0.0056805177591741085,-0.14409004151821136,-0.04011378064751625,-0.07117260247468948,-0.0036128961946815252,0.09497518092393875,-0.19368679821491241,-0.12477321922779083,0.10880286246538162,-0.13180850446224213,0.038823239505290985,0.01522297877818346,0.045406486839056015,-0.0432572178542614,0.03518722951412201,0.06912753731012344,-0.02987023815512657,-0.05817185342311859,-0.16351526975631714,-0.09555242955684662,-0.016949059441685677,0.0012608144897967577,-0.12002342194318771,0.07291113585233688,0.10492248833179474,-0.1574164479970932,0.08795641362667084,0.09025070071220398,0.05970676615834236,0.04018260911107063,0.15106920897960663,-0.10444888472557068,-0.17563559114933014,-0.02307800203561783,0.19674243032932281,0.024125030264258385,-0.07956507802009583,0.2491772174835205,0.12145621329545975,-0.11368849128484726,0.06879191100597382,-0.06299808621406555,0.10366423428058624,0.06435088813304901,-0.04880109056830406,0.05910160019993782,0.11939160525798798,-0.0028683634009212255,-0.12827463448047638,-0.036524463444948196,-0.11588606983423233,0.1074911579489708,0.10724654048681259,-0.1279291957616806,-0.22197265923023224,-0.05922946706414223,0.01913929358124733,-0.18663446605205536,-0.09512972831726074,-0.02350013330578804,0.0063520208932459354,0.10407509654760361,0.04836561530828476,0.04505835846066475,0.0854351744055748,0.053977251052856445,-0.06226086989045143,-0.006889754440635443,0.29731160402297974,0.15670844912528992,-0.041963301599025726,-0.07114051282405853,0.13339975476264954,0.07121200114488602,0.2787071764469147,0.1335042417049408,0.06116471067070961,-0.3257235884666443,-0.2811247408390045,-0.08758700639009476,0.2749899625778198,0.1597975790500641,-0.1349034160375595,-0.14230160415172577,-0.22495517134666443,-0.024297043681144714,-0.011977984569966793,-0.01016695611178875,0.13339856266975403,-0.1831696778535843,0.11511141061782837,0.11653903126716614,-0.0370570607483387,-0.06602523475885391,0.11990848928689957,-0.15617503225803375,-0.24297134578227997,-0.13706091046333313,0.13359171152114868,0.27386075258255005,-0.018355581909418106,0.13284794986248016,-0.1076277419924736,0.06259363889694214,0.12284979224205017,0.03338441997766495,0.1369883120059967,0.13447891175746918,-0.07619253545999527,0.029976336285471916,0.05297348275780678,-0.029232725501060486,0.1517287939786911,-0.07490216940641403,-0.1411142796278,-0.16547653079032898,-0.232575461268425,0.0855754166841507,-0.09633039683103561,-0.13301967084407806,-0.057470325380563736,-0.2020251452922821,-0.15901882946491241,0.04063478484749794,0.008305085822939873,0.1604093313217163,0.15028153359889984,-0.10357015579938889,-0.04162004217505455,-0.15023009479045868,0.19881805777549744,0.23973169922828674,0.09716383367776871,0.16884447634220123,-0.07826480269432068,-0.052201591432094574,0.10557891428470612,-0.17727096378803253,0.09125629812479019,-0.007987035438418388,-0.03725489601492882,-0.11417312175035477,0.15548154711723328,-0.03753039240837097,-0.0190922599285841,-0.02261974848806858,0.01384203601628542,0.04012198746204376,-0.04336848109960556,-0.019489284604787827,0.11458499729633331,-0.023195117712020874,0.12459755688905716,0.11570872366428375,0.14770810306072235,-0.06672633439302444,0.15993250906467438,-0.10126669704914093,-0.06631198525428772,-0.00993279181420803,-0.05154236778616905,0.013785517774522305,0.09249062091112137,-0.10283355414867401,-0.002662868704646826,-0.15207789838314056,0.08913297951221466,0.1582595258951187,0.10831309854984283,0.08162101358175278,0.021842073649168015,-0.022933466359972954,0.059698380529880524,-0.0183501448482275,0.15068422257900238,0.04447020962834358,-0.1494346261024475,0.08106590062379837,0.027841776609420776,0.05557747930288315,0.03060126304626465,-0.07779153436422348,0.0011395708424970508,-0.05823491886258125,-0.03553978353738785,-0.029739217832684517,-0.045256197452545166,0.18040353059768677,0.1402256041765213,-0.04163384810090065,0.014984555542469025,0.00016426701040472835,-0.09706193208694458,-0.051641590893268585,-0.12325167655944824,0.04651840031147003,-0.17067180573940277,-0.010767541825771332,-0.12127748131752014,-0.018253691494464874,0.14999443292617798,-0.034508902579545975,-0.10375621169805527,0.07340392470359802,-0.008926131762564182,-0.04194575920701027,-0.054754678159952164,-0.018496789038181305,0.004354753065854311,0.13484585285186768,0.023874817416071892,0.21480771899223328,-0.03877229616045952,-0.0013551675947383046,0.009270954877138138,0.05904478207230568,0.09993534535169601,0.0819547101855278,0.015106625854969025,-0.026316501200199127,-0.01535473670810461,-0.15038324892520905,-0.12048635631799698,-0.03257719427347183,-0.07521193474531174,0.15847539901733398,-0.10727348923683167,0.03428876772522926,0.009957948699593544,0.06758316606283188,0.06467408686876297,-0.010542897507548332,0.048974666744470596,-0.01008368656039238,-0.04822380095720291,-0.06823580712080002,-0.050686370581388474,-0.06727918237447739,-0.17608642578125,0.051163770258426666,-0.12549060583114624,0.21817220747470856,-0.051779620349407196,0.018883075565099716,-0.13104408979415894,0.07862677425146103,-0.2032901495695114,0.0745028629899025,0.08387228101491928,0.10677153617143631,0.021430309861898422,0.08704784512519836,0.05081406608223915,0.010583313181996346,0.03326359763741493,-0.15010470151901245,-0.025973336771130562,0.02285151369869709,0.024486558511853218,-0.04891631752252579,-0.1596376895904541,0.022315608337521553,0.05426030606031418,0.1285126656293869,-0.1258339136838913,0.045370519161224365,-0.1716352254152298,-0.10505665093660355,-0.08872127532958984,-0.002119395649060607,-0.02081318013370037,-0.11357537657022476,0.090647391974926,0.16273173689842224,0.012580087408423424,0.13619670271873474,-0.1196586862206459,-0.11659812182188034,-0.06690964102745056,-0.08613672852516174,-0.08155446499586105,-0.15432074666023254,0.053851887583732605,0.04961572587490082,0.1505298614501953,-0.059481631964445114,0.01602812670171261,-0.06131736561655998,0.00040552631253376603,-0.04676220566034317,0.041906386613845825,0.10301528871059418,0.12446646392345428,0.05435129255056381,0.04047473147511482,0.0646735280752182,-0.09709517657756805,0.11495636403560638,0.13029690086841583,0.11995288729667664,-0.0564497709274292,-0.015705261379480362,0.007457351312041283,0.045969102531671524,0.08415985107421875,0.10127875953912735,0.06916334480047226,-0.033208250999450684,-0.35682612657546997,0.04194407910108566,0.31516173481941223,0.07301715761423111,0.2106628268957138,-0.06864829361438751,-0.48752734065055847,0.1192190870642662,0.07961619645357132,-0.07329171150922775,-0.9850384593009949,-0.024251163005828857,-0.26747921109199524,-0.02404431812465191,-0.32995685935020447,0.05020946264266968,0.8832864761352539,-0.12770530581474304,-0.8112379312515259,-0.03711996600031853,-0.6280803680419922,0.013296600431203842,-0.9894269704818726,-0.034331630915403366,0.23455986380577087,0.034723781049251556,-0.7451956272125244,-0.08478516340255737,0.4016929864883423,0.04726919159293175,-0.6520894169807434,-0.10865520685911179,-0.11226500570774078,-0.1579774171113968,0.10127762705087662,0.2795158922672272,0.30080071091651917,-0.057464491575956345,-0.1913786083459854,-0.06592924147844315,-0.23581795394420624,-0.08162609487771988,0.037831176072359085,0.1719677746295929,0.11560897529125214,-0.0769464448094368,-0.03764980658888817,-0.02776946686208248,-0.050773508846759796,-0.2034541219472885,-0.031839046627283096,-0.09186829626560211,-0.2051464319229126,0.22003714740276337,-0.07884504646062851,-0.30424022674560547,0.24778936803340912,0.026362864300608635,0.15032541751861572,0.17654292285442352,0.09516429901123047,0.042611006647348404,-0.009137650020420551,0.30455705523490906,-0.09932059794664383,-0.12248624861240387,-0.05704766511917114,0.17771193385124207,-0.00015593395801261067,0.21050778031349182,-0.02789176069200039,0.08922704309225082,-0.1846143901348114,0.08468667417764664,-0.1598302572965622,-0.28264352679252625,0.051082298159599304,0.10470812022686005,0.13222742080688477,0.03162989765405655,0.1309412121772766,0.10354733467102051,-0.22684115171432495,-0.05508112907409668,-0.1700393110513687,0.03544110432267189,-0.1591501533985138,-0.06768535077571869,-0.016068121418356895,0.06413539499044418,0.04569142684340477,0.21216140687465668,0.24649597704410553,-0.15468049049377441,0.06165976822376251,0.05086107552051544,0.1884211152791977,-0.09941244125366211,-0.08172579109668732,-0.21237513422966003,0.10713843256235123,-0.05597108602523804,-0.08143105357885361,0.1871923804283142,0.24298112094402313,0.06883255392313004,-0.1457275003194809,0.18383730947971344,-0.13497844338417053,0.04413831979036331,-0.203627347946167,-0.07200446724891663,-0.19512909650802612,0.04670073091983795,-0.23535101115703583,-0.22964537143707275,-0.06018257141113281,-0.1378459930419922,-0.02886074222624302,-0.09898566454648972,0.17758040130138397,0.2332065850496292,-0.020956866443157196,-0.18259580433368683,-0.20842117071151733,0.04801637679338455,-0.0178371611982584,0.10215701907873154,0.14591681957244873,-0.025333579629659653,0.11971339583396912,-0.284028023481369,0.08507442474365234,0.2120928317308426,-0.2359427958726883,-0.13936899602413177,0.14893104135990143,-0.08989562094211578,-0.14518117904663086,0.18179069459438324,0.06350819766521454,-0.11193085461854935,-0.019298141822218895,0.12623733282089233,0.14036250114440918,0.19710741937160492,-0.006723405327647924,0.03742493316531181,0.022764835506677628,-0.13105705380439758,-0.044457726180553436,0.1301928013563156,-0.02580905705690384,0.14836573600769043,-0.17211711406707764,0.08273005485534668,-0.1990128457546234,0.15658780932426453,0.1292395442724228,0.01638537272810936,0.053368713706731796,0.19235971570014954,-0.16838091611862183,-0.1946704089641571,-0.12543423473834991,-0.18954560160636902,0.03924115374684334,-0.07010195404291153,-0.011474639177322388,-0.040869466960430145,0.1605265885591507,-0.0899239107966423,-0.08110912144184113,0.021217599511146545,0.003843695390969515,0.193965345621109,-0.188437819480896,-0.01778765767812729,-0.03546236455440521,0.0967458039522171,0.05379952862858772,-0.16110336780548096,0.15994486212730408,-0.0867072343826294,0.05738898366689682,0.04685276001691818,0.16822268068790436,0.3263058364391327,0.11748241633176804,0.0775991678237915,0.0712471753358841,-0.09074965864419937,-0.10663238167762756,-0.09756544232368469,-0.12851320207118988,0.033625561743974686,0.10422119498252869,-0.13660575449466705,0.018508655950427055,0.011938223615288734,0.1537097990512848,0.19234251976013184,-0.22153447568416595,0.16187287867069244,0.10862848907709122,-0.03663703426718712,0.02158978022634983,0.0292374100536108,0.06282923370599747,0.21966800093650818,-0.2550758719444275,0.08888495713472366,-0.12296625226736069,-0.0908101499080658,0.020409638062119484,0.1625591516494751,-0.2033882439136505,0.14897479116916656,0.20680151879787445,-0.17529088258743286,0.07111219316720963,-0.14860840141773224,0.11468450725078583,-0.09290849417448044,-0.08280687034130096,-0.11154653131961823,-0.24958667159080505,0.30027711391448975,0.02098846808075905,-0.008762931451201439,-0.18013854324817657,0.1843056082725525,-0.09762649983167648,-0.18812896311283112,-0.20494043827056885,-0.3042367100715637,0.27380573749542236,-0.29531824588775635,-0.01552561204880476,-0.07335134595632553,0.2111651748418808,0.13934217393398285,-0.1782073676586151,0.23329487442970276,-0.1652766764163971,-0.011450462974607944,0.01193672139197588,0.0048012095503509045,0.10048834979534149,0.05654415115714073,-0.047926995903253555,-0.11822254955768585,0.16703905165195465,0.012256930582225323,0.12319731712341309,-0.13585975766181946,0.06494934856891632,0.21386004984378815,0.04991685599088669,-0.09755640476942062,-0.28120172023773193,-0.18333859741687775,0.21585054695606232,0.07090402394533157,-0.022536184638738632,0.179210364818573,-0.16411250829696655,-0.018902361392974854,-0.2477833479642868,0.2600919008255005,0.13157185912132263,0.14646360278129578,0.2358529269695282,-0.11964866518974304,-0.10106728225946426,0.2353852093219757,-0.26028695702552795,0.035610828548669815,-0.13039912283420563,0.16593466699123383,0.1751914769411087,-0.27146878838539124,0.2208457738161087,0.15679210424423218,-0.23978327214717865,0.333554744720459,-0.291408896446228,-0.2135809361934662,-0.1957547664642334,-0.04451774060726166,0.062456317245960236,-0.1094701737165451,-0.19402393698692322,0.03683842718601227,0.22448289394378662,0.2857480049133301,0.08527103066444397,0.023128420114517212,0.05545271188020706,-0.2374451756477356,0.0359145924448967,-0.2726302742958069,-0.02285951003432274,-0.0303497277200222,-0.09092911332845688,-0.06902893632650375,-0.10539785027503967,-0.08125634491443634,-0.09775084257125854,-0.03869590163230896,0.032437022775411606,0.10558489710092545,-0.018680879846215248,0.034274689853191376,-0.09639263898134232,-0.10504623502492905,0.1499197632074356,0.00292214285582304,-0.06053093448281288,0.08277236670255661,0.03880328685045242,0.0029734973795711994,-0.06253578513860703,0.00485812546685338,0.09687548875808716,0.06582088768482208,0.061404693871736526,-0.06870715320110321,-0.09405152499675751,0.1994471549987793,0.008688208647072315,0.032920919358730316,-0.08596239238977432,-0.00865478627383709,-0.1438456028699875,0.03153502568602562,-0.07702963054180145,-0.1080569326877594,0.03891824558377266,-0.048261191695928574,-0.08066876977682114,0.006565650459378958,0.005687202326953411,-0.1699492335319519,0.11311178654432297,-0.10225033015012741,0.3275896906852722,0.19501684606075287,-0.330641508102417,0.11621007323265076,-0.2382330596446991,-0.06211787834763527,-0.011523346416652203,-0.12260416150093079,0.05655226483941078,-0.06720282882452011,0.02952864207327366,-0.049836087971925735,0.11815120279788971,0.08450348675251007,0.16836315393447876,-0.04565586894750595,-0.11316429078578949,-0.10949888825416565,0.10244282335042953,-0.05767436698079109,-0.048909515142440796,-0.017701128497719765,0.015079873614013195,-0.04898680001497269,0.17545083165168762,-0.0857078954577446,0.21225804090499878,-0.06965523958206177,-0.06247401237487793,-0.0277099609375,0.07677887380123138,0.011039375327527523,-0.10851442068815231,0.10380680114030838,0.1269991248846054,0.0006072111427783966,0.22631537914276123,0.15023314952850342,0.03462674468755722,-0.14447307586669922,-0.1787646859884262,-0.12719452381134033,-0.04622945934534073,0.02624097280204296,-0.05704846233129501,-0.0009962935000658035,-0.05142197757959366,-0.11498161405324936,-0.019636807963252068,0.49446508288383484,-0.0022233675699681044,0.07472936064004898,0.0006804949953220785,-0.06669804453849792,0.09369463473558426,-0.10176785290241241,-0.09135997295379639,0.02827010490000248,-0.059392184019088745,-0.17971128225326538,0.05970979854464531,-0.011555287055671215,0.07809264212846756,-0.22843345999717712,-0.06133773922920227,0.028867168352007866,-0.05996311455965042,-0.13295000791549683,0.034328658133745193,0.09672349691390991,0.20610859990119934,0.031227773055434227,0.015555454418063164,0.116054005920887,0.013042193837463856,0.03839835524559021,0.21431651711463928,0.15389853715896606,-0.02246933989226818,-0.12133578956127167,-0.06089989095926285,0.16527722775936127,0.22392114996910095,-0.026199515908956528,-0.18159367144107819,-0.09928783774375916,-0.2306155115365982,-0.05144745111465454,0.052368517965078354,0.0854244977235794,0.030453188344836235,0.028242938220500946,0.06632450222969055,-0.09706971049308777,-0.0023686273489147425,0.07548430562019348,0.016366813331842422,-0.5944645404815674,-0.23829123377799988,-0.04207727685570717,-0.08233854174613953,0.08623331040143967,-0.22747740149497986,-0.21424701809883118,-0.04762386530637741,-0.04380005598068237,0.1894415318965912,0.07150580734014511,0.012186219915747643,0.09188058972358704,-0.10285133123397827,-0.037217702716588974,-0.08024197816848755,-0.1741870790719986,-0.07950034737586975,-0.22045624256134033,-0.17302966117858887,0.05554409697651863,0.06597250699996948,0.06899908185005188,0.27295753359794617,0.177646204829216,-0.002696174895390868,0.0750417485833168,0.10871436446905136,0.15391060709953308,-0.017580710351467133,0.038316551595926285,0.0899924710392952,-0.05598389357328415,-0.05066319555044174,-0.17270465195178986,-0.08420190960168839,-0.11547262221574783,-0.09010490775108337,-0.05212514102458954,-0.19703902304172516,-0.1784868836402893,0.055801670998334885,0.03057185746729374,0.034672968089580536,0.1703702211380005,0.037577591836452484,0.15352821350097656,-0.42250338196754456,-0.6642763018608093,-0.06701324880123138,0.16174757480621338,0.145454540848732,0.09208305180072784,0.012376425787806511,-0.06629827618598938,-0.025068964809179306,-0.08499953895807266,0.22185879945755005,0.06764411181211472,0.059554390609264374,0.17896480858325958,-0.05669053643941879,0.03503751382231712,0.22057172656059265,-0.07841745764017105,-0.04534377157688141,-0.0007694353116676211,0.01493174396455288,-0.0449916236102581,0.03936610370874405,0.02225973643362522,-0.16297729313373566,-0.06654517352581024,0.0738702267408371,-0.07698866724967957,-0.18545038998126984,0.01911560818552971,0.02350880205631256,0.0011792539153248072,0.12637342512607574,0.021914662793278694,-0.038031067699193954,0.0320117324590683,-0.114583320915699,-0.011573598720133305,0.08951437473297119,0.0071022831834852695,0.13995102047920227,-0.1381777971982956,-0.05165588855743408,0.16623198986053467,-0.053383637219667435,-0.07064484804868698,0.024314407259225845,0.0625852718949318,0.159543976187706,-0.26587387919425964,0.23205824196338654,0.10242316126823425,-0.229180708527565,-0.18205665051937103,0.259893000125885,0.1512056142091751,-0.017313439399003983,0.15134172141551971,0.08940280973911285,0.02580481581389904,-0.11700955778360367,-0.1045796349644661,-0.13469530642032623,0.05976661294698715,0.030768800526857376,0.1752680093050003,0.07230103760957718,-0.009583471342921257,0.13594739139080048,-0.08507975190877914,-0.07921053469181061,0.09307974576950073,-0.22831560671329498,-0.02129191905260086,-0.11869814991950989,-0.1694377362728119,-0.2592138350009918,0.015775777399539948,0.0187804214656353,-0.022248946130275726,-0.17470285296440125,-0.04102239012718201,-0.007916399277746677,0.039164163172245026,0.023002371191978455,0.03253154456615448,-0.003945827484130859,0.13736951351165771,0.2985522150993347,0.14235076308250427,0.0773012563586235,-0.049601487815380096,-0.1311919093132019,-0.01981520466506481,0.08676069229841232,0.021865928545594215,-0.18746984004974365,-0.05456751957535744,0.11152739077806473,0.17604851722717285,-0.15857934951782227,-0.09800563007593155,-0.12402302771806717,-0.09636613726615906,0.12771667540073395,0.01568637788295746,-0.17269675433635712,-0.019766293466091156,0.06471005827188492,-0.17678935825824738,-0.10277946293354034,-0.06665835529565811,0.08513990044593811,0.06303303688764572,0.042338691651821136,0.03288033604621887,-0.010457412339746952,-0.04725441709160805,0.16395601630210876,0.1176479160785675,0.016760624945163727,0.00598933594301343,0.03039715252816677,0.1535962074995041,0.12538546323776245,-0.11660559475421906,-0.15300977230072021,-0.12716792523860931,0.07738035917282104,-0.018148325383663177,0.3042812645435333,0.03872383385896683,-0.1565626561641693,0.037712715566158295,-0.14063289761543274,-0.050126466900110245,-0.14406995475292206,0.02328084595501423,-0.19750656187534332,-0.19299671053886414,0.15448078513145447,-0.060694072395563126,-0.17419113218784332,0.04597475379705429,-0.01799718290567398,0.12377820909023285,-0.18611206114292145,0.17463922500610352,-0.029323453083634377,-0.07565625011920929,0.12346086651086807,0.16661541163921356,-0.11606329679489136,0.13983148336410522,0.17619678378105164,0.1213054358959198,-0.09763673692941666,0.13063833117485046,-0.06284287571907043,-1.9532159058144316e-05,0.11132818460464478,0.13876737654209137,-0.07723119109869003,0.07118212431669235,0.03330064192414284,0.06624320149421692,0.09905271977186203,0.06296218186616898,-0.13826262950897217,-0.08242521435022354,-0.04648742452263832,-0.163119837641716,-0.02940973825752735,-0.08821525424718857,-0.04826731979846954,0.06990715116262436,-0.13555781543254852,-0.06976928561925888,0.031343013048172,-0.1345585584640503,0.08852759748697281,-0.11517401039600372,-0.010734399780631065,0.05274266377091408,0.15721066296100616,-0.11974018812179565,0.041440438479185104,0.08321993052959442,0.07561185210943222,-0.053955577313899994,-0.02095753699541092,-0.01223156601190567,-0.24250131845474243,-0.1697680801153183,0.01315615139901638,0.09453565627336502,-0.0980212390422821,-0.08961629867553711,-0.12262828648090363,-0.05822828784584999,0.06014733761548996,0.04918050020933151,-0.029428480193018913,0.01692666858434677,0.03163767233490944,0.10707014054059982,-0.14061510562896729,0.015249621123075485,0.16737757623195648,0.090133436024189,-0.17803359031677246,-0.06881313771009445,-0.017910242080688477,-0.14426204562187195,-0.28014707565307617,-0.14700005948543549,0.043557118624448776,-0.0915846899151802,-0.05568033084273338,0.07750247418880463,-0.12676554918289185,0.030867714434862137,0.06523919850587845,-0.07309779524803162,-0.003975355066359043,-0.03390968590974808,0.019931264221668243,0.15786711871623993,-0.014742964878678322,-0.006807846948504448,-0.16152605414390564,0.15141801536083221,0.20856724679470062,-0.062089454382658005,-0.1065458133816719,0.12831667065620422,-0.05923734977841377,0.06328737735748291,0.009233714081346989,0.12659835815429688,0.1865050345659256,0.25991886854171753,-0.11762506514787674,0.177510604262352,0.17567040026187897,0.20651653409004211,-0.05269517004489899,0.01020499225705862,-0.13346494734287262,0.11268926411867142,0.12410810589790344,0.0873740017414093,0.07587390393018723,0.031475700438022614,0.15841379761695862,-0.09049009531736374,-0.07617098093032837,-0.15568603575229645,-0.08068505674600601,-0.05428770184516907,-0.046904876828193665,-0.15132053196430206,-0.01900431513786316,-0.09256089478731155,-0.0538482703268528,0.10158887505531311,-0.05599076300859451,0.022843902930617332,-0.12513616681098938,-0.07499876618385315,0.057874444872140884,-0.10253939777612686,0.1476914882659912,0.0743950679898262,-0.051165562123060226,-0.013348860666155815,0.15463608503341675,0.09205209463834763,-0.016172172501683235,-0.13417980074882507,0.06493785232305527,-0.09743769466876984,0.015575669705867767,0.03422277048230171,-0.008814132772386074,-0.009918991476297379,-0.11822085082530975,0.05598912760615349,-0.08160044997930527,-0.028348395600914955,-0.2821823060512543,0.01972542703151703,-0.0507856085896492,-0.19620339572429657,-0.08815668523311615,0.005197860300540924,0.013676350936293602,-0.17233164608478546,-0.05309557914733887,0.11745131760835648,-0.04170265793800354,0.004809832200407982,0.13146314024925232,0.005822068080306053,0.07354344427585602,0.1710643768310547,0.159120574593544,-0.10612843930721283,0.04577001556754112,0.024058353155851364,0.018942678347229958,-0.11292228102684021,0.0516885481774807,0.10481728613376617,-0.15626512467861176,0.13623841106891632,0.11637355387210846,-0.04632693529129028,-0.03513878583908081,0.0692320242524147,0.0674692913889885,0.025746408849954605,0.04593116044998169,-0.063106968998909,-9.425785719940905e-06,-0.03921523317694664,0.10483752936124802,0.07349847257137299,-0.07689649611711502,0.2885357141494751,0.04798094555735588,-0.003458356251940131,0.04355047270655632,0.02869400940835476,-0.2048380970954895,0.04152616858482361,0.08652502298355103,0.14261198043823242,-0.051445648074150085,-0.037677668035030365,-0.2175648957490921,-0.15610681474208832,0.060962479561567307,-0.09402532875537872,0.13011674582958221,-0.022265277802944183,-0.1503702849149704,0.007673758547753096,0.08159387856721878,-0.0478132925927639,0.15994805097579956,-0.14157308638095856,-0.007619658950716257,0.05127585679292679,0.05000615492463112,-0.0005855616764165461,-0.002058580983430147,-0.11448025703430176,-0.02567417360842228,-0.09497379511594772,-0.01323646865785122,0.11427903920412064,0.13709431886672974,0.14104117453098297,0.029465874657034874,-0.07962508499622345,-0.14367304742336273,-0.03272731974720955,-0.11416332423686981,-0.10083554685115814,0.06393341720104218,-0.13991579413414001,-0.02234252355992794,-0.13353809714317322,-0.02085796929895878,0.09253676980733871,-0.11522354185581207,0.11983703821897507,-0.0367649681866169,-0.09300989657640457,-0.06928105652332306,-0.09984692186117172,-0.21355964243412018,0.1072608157992363,0.11446717381477356,-0.035878706723451614,0.18695950508117676,0.040224529802799225,0.01104953233152628,-0.00436113215982914,-0.06695926934480667,-0.13862909376621246,0.03279142081737518,0.1572580188512802,0.045640695840120316,-0.1827564686536789,0.007927164435386658,-0.15848779678344727,0.05725207179784775,-0.044134896248579025,-0.08343949913978577,-0.06211179494857788,0.07999888062477112,0.09553512185811996,0.023854972794651985,-0.070332370698452,0.16698341071605682,0.05125933140516281,-0.05144384130835533,0.22951403260231018,0.010866201482713223,0.018224317580461502,-0.04844842106103897,0.030384626239538193,0.12316957861185074,-0.15493904054164886,0.0659378245472908,-0.1712222546339035,0.11402545124292374,-0.027250539511442184,0.228221133351326,0.1425188183784485,-0.011246955022215843,-0.05973228067159653,-0.18205003440380096,0.05451342090964317,-0.10700394213199615,0.037082184106111526,-0.04464362934231758,0.048782315105199814,0.052820418030023575,0.04925137013196945,0.12657415866851807,-0.2890883684158325,-0.13019776344299316,-0.028923310339450836,-0.10920850932598114,-0.005282864440232515,-0.070731520652771,-0.03577001765370369,-0.04378228634595871,0.030537720769643784,-0.11292405426502228,0.02728518284857273,0.047871459275484085,0.003109939629212022,-0.08673983067274094,-0.17689809203147888,-0.08119525015354156,0.1718231439590454,-0.07576233893632889,0.107176274061203,0.08765559643507004,-0.02880118228495121,-0.010568680241703987,-0.12533675134181976,0.05784456059336662,0.030971940606832504,0.06705553084611893,0.07681435346603394,0.05104345083236694,-0.09957879036664963,0.017825493589043617,0.03532892093062401,0.0537964291870594,0.02593577839434147,-0.0479169636964798,0.04459170624613762,-0.017291855067014694,0.0102983508259058,-0.05670502781867981,-0.14032171666622162,-0.062167938798666,0.06388082355260849,-0.10926063358783722,0.05385158583521843,0.009103920310735703,-0.030763590708374977,0.04944229498505592,-0.033422134816646576,0.1380249410867691,0.027763061225414276,-0.023389920592308044,-0.1902812421321869,-0.14094851911067963,-0.03999379277229309,-0.11578964442014694,0.05131988227367401,0.14063625037670135,-0.04868156835436821,-0.010983155108988285,0.12972833216190338,-0.001684960792772472,-0.020037490874528885,0.07254644483327866,-0.146058589220047,-0.1448647379875183,0.032972533255815506,0.008606995455920696,0.001058851950801909,-0.09317412227392197,0.10312966257333755,-0.011839030310511589,-0.09978346526622772,-0.07838033884763718,-0.0086084408685565,-0.08804935961961746,0.055579621344804764,-0.022178972139954567,-0.013704869896173477,0.014155635610222816,-0.10908855497837067,0.08269063383340836,0.06690142303705215,-0.06010417640209198,0.033516258001327515,-0.13739635050296783,0.05907483026385307,0.09525357186794281,-0.08566143363714218,0.03737063705921173,-0.1455332487821579,-0.12327748537063599,-0.13578705489635468,-0.053799115121364594,-0.15502028167247772,-0.18034859001636505,0.08762096613645554,0.2052956223487854,0.11042090505361557,-0.017604969441890717,-0.1289307326078415,0.012288122437894344,-0.11247379332780838,-0.04402414709329605,0.07980174571275711,0.0415978729724884,-0.014078525826334953,0.11691487580537796,0.10535313189029694,0.015186666510999203,0.2919658124446869,0.15477244555950165,-0.1251968890428543,0.08542755246162415,0.05012001097202301,-0.12369739264249802,-0.07135967910289764,-0.07040248066186905,0.05566149204969406,-0.1669922024011612,-0.14975588023662567,0.1637488156557083,0.11490974575281143,0.14420302212238312,0.05228550732135773,0.016797980293631554,0.12189478427171707,0.05735156685113907,0.1204523965716362,0.039199914783239365,-0.1472555249929428,-0.19454199075698853,-0.06729801744222641,-0.011615523137152195,-0.07873526215553284,0.06908649951219559,-0.1209738627076149,0.1989038735628128,0.06860735267400742,-0.01532423123717308,0.30218642950057983,-0.04383321478962898,0.045592352747917175,0.2525790333747864,0.004308333620429039,-0.047654617577791214,-0.1450304388999939,-0.127574160695076,-0.037486158311367035,-0.16623196005821228,0.2036433219909668,0.12508909404277802,0.04906889796257019,0.04691224545240402,-0.026925915852189064,0.07648680359125137,-0.14387467503547668,-0.04429186135530472,-0.171268492937088,0.11107035726308823,0.13500890135765076,0.09025835245847702,0.03106926567852497,-0.07312357425689697,0.08805427700281143,-0.009233985096216202,0.1154358834028244,-0.2548612654209137,-0.048381682485342026,-0.4067072570323944,-0.03795923665165901,0.9310983419418335,0.01514105312526226,0.4925263822078705,-0.0710214301943779,-0.4438398778438568,-0.009132899343967438,0.13887189328670502,0.025853266939520836,-0.31139764189720154,-0.06406909227371216,-0.028266245499253273,0.04545023292303085,0.6259861588478088,0.11986695975065231,-0.7167254686355591,-0.048928603529930115,0.8809728622436523,0.009027015417814255,0.7514709830284119,0.06840777397155762,-0.07951834797859192,-0.1298525631427765,-0.40144065022468567,-0.05911887809634209,0.10647932440042496,-0.08033016324043274,-0.6326897740364075,0.03098709136247635,0.1362520009279251,-0.21000662446022034,0.0696878507733345,-0.24661441147327423,0.0983196571469307,0.2293424904346466,0.15776510536670685,0.09731611609458923,0.21104411780834198,0.006620518397539854,0.07928921282291412,0.1343664973974228,-0.19150248169898987,-0.08280173689126968,-0.16467127203941345,-0.09420980513095856,0.31997233629226685,-0.03994642570614815,0.08633005619049072,0.062027666717767715,0.14709880948066711,0.12122053653001785,-0.03170742094516754,-0.2210768759250641,-0.229918971657753,0.03557359054684639,-0.039698243141174316,-0.20373696088790894,0.17166581749916077,0.25505033135414124,0.10327693074941635,-0.01596399024128914,0.0637923926115036,-0.1328050196170807,0.14828833937644958,-0.33023497462272644,0.02194051817059517,-0.19978035986423492,-0.026178812608122826,-0.26779618859291077,-0.0964793711900711,0.023623589426279068,-0.3437660038471222,0.12024443596601486,0.19405804574489594,-0.18715380132198334,-0.026174187660217285,0.05820224806666374,0.17987750470638275,-0.01297292672097683,0.10498405992984772,0.10484874248504639,-0.03893619775772095,0.198699489235878,-0.2561813294887543,0.24942761659622192,0.24460093677043915,-0.03460969030857086,0.09653551131486893,0.1586732715368271,0.028554873540997505,0.048570241779088974,0.015244903042912483,-0.06002653390169144,0.022111518308520317,-0.08738058805465698,0.2752133905887604,-0.1569422334432602,0.020832333713769913,-0.18634381890296936,0.1783427596092224,-0.10064976662397385,0.04342307150363922,-0.0021195639856159687,-0.13728472590446472,0.062305204570293427,-0.047901496291160583,-0.14427629113197327,0.1269495189189911,-0.1672164499759674,0.02792402170598507,-0.08509581536054611,0.059447892010211945,-0.21736404299736023,-0.05795823410153389,-0.08368034660816193,0.18683767318725586,0.044991735368967056,-0.14161889255046844,-0.18673668801784515,0.06342408061027527,0.1305484026670456,0.07051140815019608,0.18213610351085663,0.2804533541202545,0.05895960330963135,0.11265644431114197,0.11884793639183044,-0.12261270731687546,0.09660360962152481,0.21457569301128387,-0.0674908384680748,-0.046403974294662476,-0.03301861882209778,-0.15009519457817078,0.10885082185268402,0.18013331294059753,-0.08621063083410263,0.01594841107726097,0.05323778837919235,0.06409783661365509,0.17295688390731812,0.20552361011505127,0.22470618784427643,-0.2542276978492737,-0.2476842850446701,0.12066034972667694,-0.15995587408542633,0.08946860581636429,-0.1174510195851326,0.09680389612913132,0.05783870071172714,0.1336849480867386,0.20674331486225128,-0.06987558305263519,0.1942269504070282,0.14690497517585754,-0.11405470967292786,-0.1837950348854065,0.18957090377807617,-0.08850329369306564,0.27885934710502625,0.08834593743085861,0.044187888503074646,-0.1489371359348297,0.07096545398235321,-0.18412530422210693,-0.03241484612226486,-0.13811084628105164,0.26546037197113037,-0.25006893277168274,-0.05582747235894203,0.044271089136600494,-0.054823216050863266,0.21496009826660156,-0.09195104986429214,-0.23908202350139618,0.1814214140176773,0.11999046802520752,0.1668950766324997,-0.17988310754299164,-0.1510627716779709,0.05198686942458153,0.03141781687736511,0.19751539826393127,-0.09905402362346649,-0.01890627108514309,0.02250715345144272,0.20635497570037842,-0.07236384600400925,0.24018292129039764,-0.22358910739421844,-0.08227579295635223,-0.03613646700978279,0.2039123922586441,-0.10105246305465698,0.06118492782115936,-0.005811354611068964,0.25312453508377075,-0.013325430452823639,-0.27687567472457886,0.04714233800768852,0.014666259288787842,-0.2985575795173645,-0.018702425062656403,0.2493915557861328,0.09011611342430115,0.01689157262444496,-0.0994064062833786,0.1549074947834015,-0.04118352383375168,0.2389863282442093,0.2319258600473404,0.10225098580121994,-0.08416092395782471,-0.2134900540113449,-0.11606733500957489,0.15560376644134521,-0.17346656322479248,-0.25022590160369873,-0.02919967658817768,0.12100877612829208,-0.2937699258327484,-0.2437196671962738,-0.06206716597080231,-0.02970665507018566,0.19555488228797913,0.10141515731811523,-0.21206510066986084,-0.2211323380470276,0.17836451530456543,-0.051003534346818924,-0.12087024003267288,0.05811052396893501,-0.08686697483062744,0.07868140935897827,0.05567328259348869,-0.09396690875291824,-0.28846392035484314,0.05412944406270981,-0.14317403733730316,0.03703266754746437,0.13487613201141357,-0.07630238682031631,0.0470949150621891,-0.089758962392807,0.030904874205589294,0.01640183851122856,0.0021572355180978775,-0.2079094648361206,-0.018907537683844566,-0.03024817258119583,-0.26729756593704224,0.08341620862483978,0.20762301981449127,0.24811571836471558,0.042505037039518356,-0.23046018183231354,-0.22827638685703278,-0.18559248745441437,0.19912207126617432,-0.36851152777671814,0.07969490438699722,0.20285212993621826,0.1612037569284439,0.18504929542541504,0.06538072228431702,0.08986588567495346,0.10550371557474136,-0.2581363022327423,0.09023790061473846,-0.09450161457061768,-0.05564292520284653,-0.24455030262470245,-0.20552892982959747,-0.11866218596696854,0.05368459224700928,-0.3161647915840149,0.028148051351308823,0.1259293556213379,0.301300048828125,0.3158798813819885,-0.12405748665332794,0.045364074409008026,-0.003861976321786642,0.03672139719128609,0.022345876321196556,0.026111895218491554,0.11708103120326996,0.10099972784519196,-0.11710698902606964,0.20666056871414185,0.18784458935260773,0.09086295962333679,-0.2525814175605774,-0.1656145453453064,0.07126907259225845,0.05016577988862991,0.20419403910636902,0.11215433478355408,0.18675647675991058,0.05018940195441246,0.07051395624876022,-0.04269501194357872,0.013385633006691933,-0.14791785180568695,0.06393444538116455,0.17484916746616364,0.08891142159700394,-0.026703400537371635,0.02811630442738533,-0.09463517367839813,0.03865271061658859,0.06496226787567139,0.050416249781847,-0.1327473223209381,-0.11250462383031845,0.09732402861118317,0.08493205904960632,0.1280125230550766,0.0807955339550972,-0.06605418771505356,-0.07081787288188934,-0.12782828509807587,0.08766698092222214,0.10847976803779602,-0.010668712668120861,-0.22452566027641296,-0.11558052897453308,-0.004627172835171223,0.12869864702224731,-0.09151120483875275,-0.11623300611972809,-0.1227426677942276,0.07054596394300461,0.061500512063503265,-0.13345056772232056,-0.08081415295600891,-0.12830455601215363,-0.022943785414099693,-0.05487167835235596,-0.013227356597781181,-0.0712103620171547,-0.13085058331489563,-0.11526190489530563,-0.11960352957248688,-0.023768723011016846,-0.028317658230662346,-0.07575806230306625,0.06409356743097305,0.07798938453197479,0.22880707681179047,-0.11559008806943893,0.14729924499988556,0.008871199563145638,0.002952334936708212,-0.014733747579157352,-0.03494228050112724,0.018108803778886795,-0.1475820094347,0.09886932373046875,0.07117763161659241,0.00044895580504089594,0.005970160476863384,0.15942959487438202,-0.029158281162381172,-0.3118838667869568,0.00922397244721651,-0.13411559164524078,0.1290111243724823,-0.02660205587744713,-0.07319773733615875,-0.23032590746879578,-0.08252513408660889,0.10884296149015427,0.2938416004180908,-0.08834586292505264,0.019524669274687767,0.05453528091311455,0.15593846142292023,-0.017998402938246727,0.2344166785478592,0.014498911798000336,0.08529961854219437,0.009777519851922989,-0.2037440538406372,-0.0692727118730545,0.051544152200222015,0.012159720994532108,-0.10583122074604034,0.1627407819032669,-0.14911192655563354,0.019363030791282654,-0.02228120155632496,0.08526313304901123,-0.13276462256908417,-0.25410500168800354,-0.05854247137904167,-0.015242783352732658,-0.046431105583906174,-0.020149538293480873,0.09627270698547363,-0.14827987551689148,-0.35680463910102844,-0.0516689158976078,0.015918854624032974,0.1811891347169876,-0.1689433753490448,-0.09608498215675354,-0.21593280136585236,0.07303820550441742,-0.051459841430187225,-0.04452621564269066,0.01777912862598896,-0.020530622452497482,0.06712590903043747,0.08266592025756836,0.08218376338481903,-0.0717150866985321,0.23590977489948273,0.08058788627386093,0.18079794943332672,-0.11605429649353027,-0.026452019810676575,0.02511877752840519,0.05170141160488129,-0.08269289880990982,-0.04515737667679787,-0.035785987973213196,-0.013003811240196228,-0.10485603660345078,-0.1217399463057518,-0.15225617587566376,-0.14135922491550446,-0.021590139716863632,0.03757520765066147,-0.00960620678961277,-0.10467281192541122,-0.024820642545819283,-0.047173019498586655,0.2935526967048645,0.04541841894388199,0.15714304149150848,0.17477136850357056,0.11923779547214508,0.20574690401554108,0.09947487711906433,0.20580029487609863,-0.05439260974526405,-0.12604954838752747,-0.008926980197429657,0.16869637370109558,0.07989801466464996,-0.06293750554323196,-0.03905295953154564,0.032452475279569626,0.05591893196105957,-0.06977647542953491,0.053738806396722794,0.10993693768978119,-0.051841381937265396,-0.11660099029541016,-0.171115905046463,0.07399965077638626,0.08470553159713745,-0.02462422288954258,0.006238815374672413,-0.0057641612365841866,-0.0003741827968042344,0.16834889352321625,0.06628746539354324,-0.1390163004398346,-0.16084153950214386,-0.12990136444568634,0.1068478673696518,0.12065071612596512,-0.05068961903452873,0.1529833972454071,-0.05517561733722687,0.06561464816331863,0.1488959789276123,0.11723367124795914,0.0037723740097135305,0.12388421595096588,-0.15701903402805328,0.06428910046815872,0.07346054166555405,-0.13585472106933594,-0.2553889751434326,-0.07697435468435287,0.015385512262582779,-0.17161618173122406,-0.0543646514415741,0.020983954891562462,0.09532544761896133,0.008967050351202488,-0.01749921403825283,-0.10043132305145264,-0.029351402074098587,0.0532730333507061,-0.10742505639791489,0.05768389627337456,-0.05033601447939873,0.08768489956855774,0.021650094538927078,0.04243522882461548,0.06005258858203888,-0.14101542532444,-0.06192547082901001,-0.294567346572876,-0.02379314787685871,0.13169871270656586,-0.05936329439282417,-0.020110314711928368,-0.03228980302810669,-0.04109404236078262,0.02008759416639805,-0.022065110504627228,0.0097575718536973,0.2305755317211151,-0.08421184122562408,-0.15955135226249695,0.019252676516771317,0.07059088349342346,0.007437193300575018,0.1625804454088211,-0.05299099162220955,-0.06931084394454956,-0.025037730112671852,-0.042713962495326996,-0.06600246578454971,0.07056505978107452,-0.052614644169807434,-0.06538598984479904,-0.010837267152965069,-0.0964316800236702,-0.1559872031211853,-0.16855308413505554,0.044791337102651596,-0.11290601640939713,-0.09660334140062332,0.10695505142211914,-0.014387723989784718,-0.08541654050350189,0.14958052337169647,-0.1417929232120514,-0.25793659687042236,-0.22336961328983307,0.06746861338615417,0.14100466668605804,0.18928290903568268,-0.05415446683764458,0.016369273886084557,0.004133084323257208,0.0401996485888958,-0.1959020048379898,-0.35321882367134094,-0.1351776123046875,-0.4041707515716553,-0.1539400964975357,-0.014706452377140522,-0.020672040060162544,0.023495182394981384,0.09464491903781891,-0.045451052486896515,-0.08685940504074097,-0.15501250326633453,0.17406883835792542,0.06643804162740707,0.044215455651283264,0.0027907679323107004,-0.046011049300432205,0.02285827323794365,-0.08047808706760406,0.18675357103347778,0.18817856907844543,0.13894610106945038,0.26687395572662354,0.12949241697788239,0.19589105248451233,0.16716602444648743,0.048178717494010925,0.16019906103610992,0.03339645266532898,0.04997315630316734,0.02417435683310032,-0.1577986180782318,0.28285232186317444,0.17888619005680084,0.11917576193809509,0.24120162427425385,0.12194787710905075,-0.07006600499153137,0.0037459665909409523,0.11869511753320694,0.05992139130830765,0.2843109369277954,0.26022616028785706,0.13488495349884033,0.001575196860358119,-0.058222588151693344,-0.09502183645963669,-0.01638784632086754,0.12743747234344482,-0.002487326040863991,-0.19871486723423004,-0.0003126519441138953,-0.04732823371887207,-0.14685791730880737,-0.1551145315170288,-0.047156818211078644,0.02135210856795311,-0.059089601039886475,-0.1536845564842224,-0.017899056896567345,0.013159461319446564,0.019873885437846184,-0.17157423496246338,-0.03816362842917442,-0.04058176651597023,0.21292956173419952,0.0038379512261599302,0.09574300050735474,0.036817509680986404,-0.14039434492588043,-0.024036740884184837,0.2258877009153366,-0.11885391175746918,-0.07233938574790955,-0.08007773011922836,0.0015308221336454153,-0.0696488469839096,0.03136792406439781,0.30843546986579895,0.06432569772005081,0.058832354843616486,0.1582125723361969,-0.22866971790790558,-0.013482832349836826,-0.06820423901081085,-0.22906504571437836,0.04481001943349838,0.18181905150413513,0.19686511158943176,-0.21823900938034058,-0.1831134557723999,0.04487837105989456,-0.15006041526794434,0.12223422527313232,-0.08382511883974075,-0.10836949944496155,0.16121938824653625,0.07833505421876907,-0.1577012538909912,-0.11484993249177933,-0.01502426527440548,-0.018189871683716774,-0.1544114351272583,0.013947815634310246,-0.1568312793970108,-0.014914363622665405,0.021566182374954224,0.12255454808473587,0.023240361362695694,-0.09444206953048706,-0.04986853897571564,-0.07429823279380798,0.12728261947631836,-0.1203664094209671,-0.06809668987989426,-0.28956860303878784,-0.07887181639671326,-0.119830422103405,0.002866518683731556,0.048836901783943176,-0.06005601957440376,-0.06697214394807816,0.07279116660356522,-0.16434387862682343,-0.14581601321697235,-0.2137993574142456,-0.22765426337718964,0.11207538843154907,-0.27350717782974243,-0.1776154339313507,0.12184865027666092,-0.07889149338006973,0.15116733312606812,0.029360616579651833,0.19328342378139496,0.13310986757278442,0.17341481149196625,-0.021044041961431503,-0.17907676100730896,0.12523263692855835,-0.08364211767911911,-0.050175100564956665,-0.11072327941656113,-0.16924072802066803,0.00795204471796751,0.09191130846738815,-0.0830165445804596,0.10642276704311371,0.007737924810498953,-0.004362007603049278,-0.05717211216688156,-0.09150908887386322,-0.08656470477581024,-0.10256988555192947,-0.09139024466276169,0.025716494768857956,-0.04167906939983368,-0.10006313025951385,0.0877508819103241,0.21991445124149323,-0.11020613461732864,0.0883990228176117,-0.02529139257967472,-0.04086950793862343,0.07792121171951294,-0.037708040326833725,-0.19750823080539703,0.14956897497177124,-0.021336130797863007,-0.1316356211900711,-0.05564277619123459,0.09909427911043167,-0.05853370204567909,-0.01247501466423273,-0.013663838617503643,0.030069341883063316,-0.05966038629412651,-0.07026633620262146,0.26405367255210876,-0.07203123718500137,0.03302212804555893,-0.2884639799594879,-0.03763692453503609,-0.27398040890693665,-0.32826146483421326,0.03909069672226906,0.03584572672843933,0.16529472172260284,0.02912963181734085,-0.16034066677093506,-0.182522252202034,-0.1507626175880432,-0.09424286335706711,0.02417965978384018,-0.028478499501943588,0.045412302017211914,-0.10061834752559662,0.1876402199268341,0.0845775306224823,0.27445417642593384,0.19965298473834991,0.16897232830524445,0.19616572558879852,0.0748252421617508,0.01979542151093483,-0.003944614436477423,-0.12945200502872467,-0.028327351436018944,-0.18771760165691376,-0.07109634578227997,0.16027095913887024,-0.02113269455730915,-0.16712521016597748,-0.29725614190101624,-0.26853153109550476,0.21852652728557587,0.06906022131443024,0.02293282374739647,0.014748889952898026,0.1864122599363327,0.04566502943634987,-0.02689235843718052,0.1597108691930771,0.08842859417200089,0.16560950875282288,-0.026666121557354927,0.30040064454078674,0.08510726690292358,-0.14687643945217133,-0.03219253197312355,-0.09704390913248062,-0.07482324540615082,0.12513664364814758,-0.1487548053264618,-0.05736913904547691,0.14386814832687378,0.10946757346391678,0.07333991676568985,-0.1647520214319229,-0.13748691976070404,-0.10878080129623413,0.02156796120107174,-0.03641180694103241,-0.00962521880865097,0.14146482944488525,0.14398758113384247,0.1577996462583542,-0.09077025204896927,-0.11796902120113373,0.0006799016264267266,0.10880866646766663,0.10980352014303207,0.14505816996097565,0.01644236035645008,-0.06995924562215805,0.10479841381311417,0.08029782772064209,-0.053708724677562714,0.1160307303071022,-0.07297299802303314,-0.08056312054395676,0.009501133114099503,-0.13225838541984558,0.0844169482588768,-0.10054746270179749,0.0020617232657969,0.08302418887615204,-0.045181356370449066,0.022113922983407974,-0.10434387624263763,0.07120916992425919,0.1097414419054985,-0.07298758625984192,-0.00871283933520317,0.11119810491800308,-0.014689926989376545,0.10394193977117538,-0.015836495906114578,0.024088755249977112,0.22613726556301117,-0.13922889530658722,-0.01734265871345997,-0.058544982224702835,0.12487788498401642,-0.06909649819135666,-0.12329179793596268,-0.03724391385912895,-0.10993567854166031,-0.06336302310228348,0.11776699870824814,-0.027908042073249817,0.03601639345288277,-0.05025549978017807,-0.004666214808821678,-0.07679535448551178,-0.08879776298999786,0.006118420045822859,0.02302609197795391,0.12572960555553436,-0.06466680765151978,-0.1951666623353958,-0.00801203865557909,-0.15683656930923462,0.19243037700653076,0.10508716851472855,0.12708531320095062,-0.1570577472448349,0.0847272276878357,0.10121142119169235,-0.13485947251319885,0.0016439949395135045,0.12046121060848236,0.051519740372896194,-0.1335715353488922,0.16938185691833496,-0.0986521765589714,0.06279756873846054,-0.16414298117160797,-0.09734530746936798,-0.09297583997249603,-0.10377278178930283,-0.009158643893897533,0.012058514170348644,-0.04447374865412712,0.0780499204993248,0.07724728435277939,0.1521514505147934,0.0861065536737442,0.11617171764373779,0.1250966638326645,0.030584322288632393,-0.02649640291929245,-0.14788347482681274,-0.0016790773952379823,-0.08610198646783829,0.028814692050218582,0.08560850471258163,-0.11261311173439026,0.24887315928936005,-0.08717762678861618,-0.09248674660921097,-0.10883267223834991,0.0858362689614296,-0.07471099495887756,0.2361452281475067,0.00612685177475214,0.05220326781272888,-0.22981832921504974,0.08707690238952637,-0.12876680493354797,0.007342454511672258,0.1273542046546936,-0.044841133058071136,0.04442298784852028,0.07146244496107101,-0.09513422846794128,-0.11520849168300629,-0.10848993808031082,0.12741409242153168,0.003492587013170123,0.051532432436943054,-0.015466567128896713,0.08304601162672043,0.0024750276934355497,0.05735047534108162,0.04120757058262825,-0.06997522711753845,0.00766120757907629,0.3275298476219177,-0.0452534481883049,-0.14208926260471344,0.16382615268230438,0.07899171859025955,0.15181659162044525,0.01988719031214714,0.18119466304779053,0.13003022968769073,-0.166886568069458,-0.0474572479724884,0.09701234102249146,0.12503890693187714,0.10686980932950974,0.09510789066553116,0.13269683718681335,-0.04067034646868706,0.1575469672679901,0.007799676153808832,0.020034432411193848,0.1512012481689453,-0.15939326584339142,0.05521940439939499,0.10129422694444656,-0.2461162656545639,-0.11843988299369812,-0.16790935397148132,0.0053997887298464775,0.10196366161108017,0.10359411686658859,-0.02658899687230587,-0.1125451996922493,0.02730781026184559,0.057789500802755356,0.025317830964922905,0.1311887949705124,0.1663658320903778,0.05022837221622467,0.10482624173164368,-0.005708639044314623,-0.0466543585062027,-0.0901980996131897,-0.06400448828935623,-0.07026174664497375,0.06718818843364716,-0.14310751855373383,-0.19727404415607452,0.2141197770833969,-0.256938099861145,-0.13856704533100128,0.001262598903849721,-0.002890906995162368,0.08702972531318665,0.27526116371154785,-0.0028178503271192312,-0.03051045536994934,-0.03617529943585396,-0.015228264033794403,0.0376758836209774,0.008806220255792141,0.03196636959910393,0.07231704145669937,0.2568819522857666,-0.023196542635560036,-0.0692581981420517,-0.10266600549221039,0.10004264861345291,-0.1679692566394806,-0.22169838845729828,0.049017470329999924,-0.13633202016353607,0.05783984810113907,-0.1118021309375763,-0.04788774251937866,-0.11872708797454834,-0.0018933271057903767,0.07695453613996506,0.27704256772994995,-0.07028357684612274,0.0653831884264946,-0.019647257402539253,0.0543256476521492,-0.1293879896402359,0.13520102202892303,0.15777944028377533,-0.04931565374135971,-0.019584741443395615,-0.16427218914031982,0.029314372688531876,0.007397716864943504,-0.07081657648086548,0.1467488706111908,0.005274528171867132,-0.07939822971820831,-0.049691420048475266,-0.22609356045722961,-0.010845812037587166,0.04636223241686821,-0.12724141776561737,0.01269018929451704,0.18790748715400696,0.2221035659313202,0.05625228211283684,0.07344790548086166,0.11483316868543625,-0.1650056093931198,-0.040764112025499344,-0.16497895121574402,0.0725427195429802,-0.028743449598550797,0.11378917843103409,-0.059979744255542755,0.1254044622182846,-0.02909843996167183,-0.02080940082669258,0.10349604487419128,-0.04541181027889252,0.025591010227799416,-0.10339734703302383,-0.08504614233970642,-0.017989566549658775,0.16874535381793976,-0.157136932015419,-0.02325873263180256,-0.18348385393619537,0.04238058626651764,-0.015494120307266712,-0.08669545501470566,0.09541884809732437,-0.09872806817293167,-0.012840940617024899,-0.036015309393405914,0.05223146080970764,-0.06672658026218414,-0.043769750744104385,-0.17008289694786072,-0.07369451969861984,0.05281635373830795,-0.18665900826454163,-0.04292922094464302,0.10998725146055222,0.035820960998535156,0.1524946242570877,-0.068497434258461,-0.005372415762394667,0.09414828568696976,-0.018695559352636337,0.07846713066101074,-0.07265400141477585,0.21553796529769897,-0.13524821400642395,0.10642770677804947,0.12424786388874054,-0.10830679535865784,-0.21232114732265472,0.10258210450410843,0.3695029318332672,0.010731549933552742,-0.048954982310533524,0.10851391404867172,0.017212621867656708,-0.07966668903827667,0.1457284688949585,0.602936863899231,-0.030610904097557068,0.40919777750968933,-0.03191062808036804,0.5446670055389404,0.0024882021825760603,-0.7925828695297241,0.09410617500543594,-0.4575790762901306,0.050106149166822433,0.14737384021282196,0.2332208901643753,0.002149691106751561,-0.066097691655159,-0.0027764250990003347,0.02055610716342926,0.32691219449043274,-0.027728404849767685,0.30146563053131104,0.07649946212768555,-0.711608350276947,-0.0549519844353199,0.22179897129535675,-0.10187846422195435,0.03170500695705414,-0.06712372601032257,-0.6785164475440979,0.01974964328110218,-0.07821658253669739,-0.0001554463233333081,-0.23468096554279327,0.05409470945596695,-0.09579873830080032,-0.22790315747261047,0.15029199421405792,-0.14696259796619415,0.014396406710147858,0.17179827392101288,-0.028226634487509727,-0.15145447850227356,-0.17209820449352264,-0.015830684453248978,-0.1283344328403473,-0.004591195844113827,0.06472983211278915,-0.037677425891160965,0.1112886443734169,-0.04082520306110382,-0.11134994029998779,-0.23322883248329163,0.09872661530971527,-0.3261433243751526,-0.0498172901570797,-0.11630581319332123,0.32273897528648376,-0.18816789984703064,-0.15538623929023743,0.018863342702388763,-0.2687693238258362,0.029129236936569214,-0.04343200474977493,0.1016835942864418,0.1609799712896347,0.18377745151519775,-0.007558935787528753,0.21021680533885956,-0.05571651831269264,-0.23719272017478943,-0.007023311220109463,-0.14956937730312347,-0.26285994052886963,0.07359680533409119,0.16749784350395203,-0.06616774946451187,-0.10871525853872299,-0.25958240032196045,0.18767929077148438,0.031088219955563545,-0.02543654292821884,0.1927785575389862,-0.20232270658016205,-0.0017388667911291122,-0.10584273189306259,0.2803361713886261,0.26761749386787415,0.2973715364933014,0.07995203137397766,0.0984727218747139,-0.195392906665802,-0.1974068433046341,0.09279462695121765,-0.1840803027153015,0.1349632889032364,0.0990326926112175,0.03130946308374405,-0.2619780898094177,0.16915477812290192,-0.025984255596995354,-0.028455626219511032,0.09632337838411331,-0.03806737810373306,-0.1069071963429451,0.07758916914463043,-0.1625014990568161,0.18738645315170288,0.3262052834033966,0.09204418957233429,0.16236001253128052,-0.20098787546157837,-0.1769227236509323,-0.1947058141231537,-0.09531225264072418,-0.2316834032535553,0.12861165404319763,0.18105511367321014,0.05707792565226555,-0.20663821697235107,0.17051497101783752,0.16931335628032684,-0.02366301231086254,0.12160248309373856,0.18960115313529968,-0.2541240155696869,0.16663429141044617,0.11144295334815979,0.030444730073213577,-0.12842369079589844,0.08052682131528854,-0.12240131944417953,-0.2004069834947586,-0.13470850884914398,-0.011197312735021114,-0.0400412492454052,-0.19346503913402557,0.16576915979385376,0.05778361111879349,-0.18051306903362274,0.044095996767282486,0.12432441860437393,0.036043357104063034,0.02400691993534565,-0.008292670361697674,0.09641841053962708,-0.2196035534143448,-0.176627516746521,0.22026732563972473,-0.19691301882266998,0.14778338372707367,0.20937982201576233,-0.24417075514793396,0.03180978074669838,0.28611573576927185,-0.09820808470249176,0.037321787327528,0.025001907721161842,-0.056929685175418854,-0.22354310750961304,0.07993412762880325,0.3576350212097168,0.06244871765375137,-0.12420254945755005,0.10401124507188797,-0.15344271063804626,-0.04541891813278198,0.1990058869123459,0.06040190905332565,-0.37016910314559937,-0.22164097428321838,-0.015742825344204903,-0.1743539422750473,-0.0190020352602005,-0.11546590924263,0.2001718431711197,0.1666150540113449,-0.013392144814133644,-0.03549213334918022,-0.007723660208284855,0.14401835203170776,0.08659632503986359,-0.07684080302715302,-0.24668215215206146,0.04320409148931503,-0.19303902983665466,0.08133851736783981,-0.25285670161247253,-0.07742778956890106,0.018566692247986794,-0.2136346995830536,0.27020612359046936,-0.13882610201835632,0.24931660294532776,0.1204613447189331,-0.07957908511161804,0.13188867270946503,-0.29338300228118896,-0.13479633629322052,-0.09301658719778061,-0.0026323541533201933,-0.08663123100996017,-0.20647065341472626,0.2849392890930176,-0.07197289913892746,-0.09635433554649353,0.02711031772196293,-0.14692136645317078,0.11371105909347534,0.028770610690116882,-0.12487103790044785,0.04525836184620857,0.14926065504550934,-0.1264820396900177,-0.013540812768042088,-0.045290183275938034,-0.18806815147399902,0.014643355272710323,0.07783167064189911,-0.21684682369232178,0.05661861225962639,0.18972621858119965,0.08341836929321289,-0.23606906831264496,0.2230382114648819,-0.29271864891052246,-0.08597395569086075,0.09504633396863937,0.25148656964302063,0.27262648940086365,0.23821839690208435,-0.1311437040567398,0.0782942846417427,-0.17054098844528198,0.03986085578799248,0.1981412172317505,0.11749906092882156,-0.26694390177726746,-0.11524911224842072,-0.21021632850170135,0.0847238227725029,-0.0901411920785904,-0.1801334172487259,-0.09318716078996658,0.1533229798078537,-0.011924147605895996,0.333965539932251,0.1240222379565239,0.13391555845737457,-0.07980651408433914,0.05823158100247383,0.038221072405576706,0.1594616323709488,0.15949293971061707,-0.10784464329481125,-0.22032280266284943,-0.20218117535114288,-0.09796164184808731,-0.004131197463721037,0.2371925413608551,-0.02464444749057293,0.15269780158996582,0.10592520236968994,-0.1939111202955246,-0.2632119357585907,0.21272142231464386,0.14935225248336792,-0.15917105972766876,0.11393663287162781,-0.2890530526638031,0.03335336595773697,0.10002655535936356,-0.022233789786696434,0.01967300847172737,0.13649412989616394,-0.08380584418773651,0.2601725459098816,-0.18296247720718384,-0.23943185806274414,-0.2212572693824768,-0.22415760159492493,-0.14996646344661713,-0.08098149299621582,-0.31992027163505554,0.036305904388427734,-0.3130507171154022,-0.0547417588531971,0.2465415596961975,-0.050945814698934555,0.2258499711751938,0.05039030686020851,-0.23254640400409698,0.047703973948955536,0.16459530591964722,-0.05942961573600769,0.016569584608078003,0.031199049204587936,0.0503249391913414,0.06681215763092041,-0.2357126623392105,0.15990933775901794,0.14513342082500458,0.030474592000246048,0.03773059323430061,-0.19455738365650177,-0.021084189414978027,0.005373644642531872,0.09460587054491043,-0.012277419678866863,0.08825739473104477,-0.015860436484217644,0.11537548899650574,0.13264991343021393,-0.07242317497730255,0.05841618776321411,-0.12093392014503479,0.09651011973619461,0.1304350048303604,0.047050781548023224,-0.022975323721766472,-0.001914800377562642,-0.11148010939359665,-0.01022660918533802,-0.08522381633520126,0.11395139247179031,0.06059710308909416,-0.00633107079192996,0.056653186678886414,0.10659420490264893,-0.006917080841958523,-0.1393636167049408,0.09876485168933868,0.014914915896952152,0.06558064371347427,-0.10818158835172653,-0.13349449634552002,0.19763322174549103,0.2329891324043274,0.14044751226902008,-0.13140913844108582,0.15238291025161743,-0.004182816948741674,-0.1518786996603012,0.05030582845211029,0.07985961437225342,0.05591593310236931,0.015327430330216885,-0.046224214136600494,-0.10874997824430466,-0.022389402613043785,-0.21167856454849243,0.012302444316446781,-0.1946524977684021,0.04618494212627411,0.047303151339292526,-0.011314615607261658,0.022251851856708527,0.18268407881259918,0.06016433611512184,0.07796233892440796,-0.20136091113090515,-0.10168100148439407,-0.05778363719582558,-0.09794941544532776,-0.12220659106969833,0.10658685117959976,0.08032217621803284,0.05324853956699371,-0.0035393189173191786,-0.07052987068891525,0.032732043415308,-0.07007201015949249,-0.08903859555721283,-0.09687136858701706,0.1842486411333084,0.17959797382354736,-0.2659478187561035,-0.11071936786174774,-0.30223745107650757,-0.07554695010185242,0.06768633425235748,0.11548064649105072,-0.0049996329471468925,-0.21348178386688232,-0.07905228435993195,0.05220795422792435,-0.09853191673755646,0.07746367156505585,-0.1912590116262436,-0.08271617442369461,-0.017893031239509583,0.031215336173772812,-0.06999469548463821,0.16119740903377533,0.004683288745582104,0.015024369582533836,0.14616365730762482,0.11505484580993652,0.051400091499090195,-0.18611758947372437,0.001036258996464312,-0.06400943547487259,-0.23685097694396973,-0.17266862094402313,-0.10217484086751938,0.05983772128820419,0.22275425493717194,0.061034172773361206,-0.009576701559126377,-0.003371381899341941,-0.044181227684020996,-0.023179326206445694,-0.16798946261405945,0.049085672944784164,-0.030801156535744667,-0.11278147995471954,-0.11316359788179398,-0.1160467118024826,0.17109893262386322,0.15470433235168457,0.13072806596755981,-0.052236855030059814,-0.0748475193977356,-0.019739462062716484,-0.10443791002035141,-0.07294350117444992,-0.17854399979114532,0.011854470707476139,-0.15701240301132202,-0.1051260232925415,0.14937226474285126,-0.10458381474018097,0.023657577112317085,0.08882740885019302,0.14649826288223267,0.0998583436012268,-0.06609802693128586,0.07679475098848343,-0.010914945974946022,-0.10195986181497574,0.018528860062360764,0.06852275133132935,0.0008062798297032714,0.046321190893650055,0.11543586105108261,0.021294347941875458,0.017562605440616608,0.0022545328829437494,0.041355233639478683,-0.16894423961639404,-0.21102739870548248,-0.10917861014604568,-0.14849872887134552,0.13172760605812073,0.2843218743801117,0.17338338494300842,0.10751262307167053,0.21138633787631989,0.3371376395225525,0.1589115411043167,0.006816244218498468,-0.2115522176027298,0.07053408026695251,0.048044223338365555,0.10311442613601685,0.029100297018885612,0.050415195524692535,0.05678267776966095,0.1225123405456543,0.2020551860332489,-0.0007559332880191505,0.21406202018260956,0.02224940061569214,-0.10931304842233658,-0.19562537968158722,-0.08053533732891083,-0.1406291425228119,0.09795823693275452,-0.12549133598804474,-0.07317221909761429,-0.176706001162529,0.06542975455522537,0.13071931898593903,0.06924217939376831,-0.17621482908725739,-0.1441432237625122,-0.069554902613163,-0.02054399624466896,0.011618158780038357,0.028357915580272675,-0.08475708216428757,0.01501514296978712,-0.10800866037607193,0.16297706961631775,0.05167969688773155,0.1075945794582367,0.21014194190502167,0.08394066244363785,0.08793627470731735,-0.07472613453865051,0.10007503628730774,0.051560692489147186,-0.1421174257993698,-0.1550830453634262,0.24576309323310852,0.029834134504199028,0.1082751601934433,0.27739036083221436,-0.08108474314212799,0.17007051408290863,-0.0037676584906876087,0.024087373167276382,-0.023084333166480064,0.10564043372869492,0.043959375470876694,-0.032762497663497925,-0.060518357902765274,0.19156084954738617,-0.008351669646799564,-0.07049866765737534,0.12105507403612137,0.0269668847322464,-0.129163458943367,0.06347114592790604,0.05206646770238876,0.12303575128316879,0.002505799988284707,0.06804933398962021,0.1723913848400116,-0.007112366147339344,0.01733991503715515,-0.15688079595565796,0.12545230984687805,-0.12892135977745056,-0.2060931771993637,-0.07870373874902725,0.12254385650157928,-0.03406132012605667,0.1193055585026741,0.07962103933095932,-0.10117766261100769,-0.12731456756591797,-0.13326255977153778,0.06681735068559647,-0.2562478184700012,-0.0563039593398571,0.25456660985946655,-0.08164885640144348,0.06340242177248001,-0.03739502280950546,0.07497775554656982,0.13973143696784973,-0.09991107881069183,0.16607433557510376,-0.0498940572142601,-0.07612012326717377,-0.08761637657880783,0.007467556744813919,-0.031863756477832794,-0.09020011126995087,-0.038410723209381104,-0.017425604164600372,-0.08281301707029343,-0.1176263839006424,-0.0321962796151638,0.1354699283838272,-0.023705363273620605,-0.11982642859220505,-0.1342426836490631,0.02927708439528942,-0.0799652561545372,-0.08921684324741364,-0.17605455219745636,0.04235602542757988,-0.1209564357995987,-0.07121125608682632,-0.2925829291343689,0.0680532455444336,0.03602778911590576,0.05912153050303459,-0.14679253101348877,0.1466873288154602,0.029826084151864052,0.09860152751207352,-0.06715313345193863,-0.07142265886068344,-0.1749047338962555,-0.0645703375339508,0.020152103155851364,0.05524669960141182,0.1537737250328064,-0.2305842489004135,0.13355571031570435,0.0737602561712265,-0.09671277552843094,-0.07295870780944824,-0.0417935885488987,0.0413004532456398,0.08172048628330231,0.05197644978761673,-0.2280982881784439,0.026311373338103294,-0.11187458038330078,-0.013932290486991405,-0.13936957716941833,-0.10704552382230759,0.04370905086398125,0.1172015443444252,0.18329346179962158,-0.12258470058441162,0.15572123229503632,0.1453668475151062,0.06372808665037155,0.020963463932275772,0.14147412776947021,0.0980534628033638,-0.1420520842075348,-0.0694185420870781,-0.003919619135558605,-0.127357617020607,-0.11384373903274536,0.13957715034484863,0.058928411453962326,-0.0639735758304596,-0.13505642116069794,-0.10336282104253769,0.07546241581439972,0.029208140447735786,-0.026909302920103073,-0.08261669427156448,0.08650556951761246,-0.0664939284324646,0.14470785856246948,0.19435814023017883,0.018814459443092346,0.13578610122203827,0.1653970181941986,-0.00560458330437541,-0.039859313517808914,-0.0335761196911335,0.18131953477859497,-0.010312817059457302,-0.10657612979412079,0.0582243911921978,0.014011896215379238,0.07687985897064209,-0.06417461484670639,-0.1756322979927063,0.07123349606990814,-0.09640797227621078,0.0012887567281723022,0.16436995565891266,0.1527443677186966,0.09197832643985748,-0.02478618361055851,-0.059490449726581573,-0.17926277220249176,-0.015464666299521923,-0.16640329360961914,-0.10958004742860794,0.012359990738332272,-0.02156086638569832,0.013401714153587818,-0.1473197191953659,0.22157324850559235,-0.1313166320323944,-0.08731649816036224,-0.046169064939022064,0.09086545556783676,0.048035360872745514,-0.141527459025383,-0.028537645936012268,0.1663360893726349,-0.06477519124746323,-0.07872308045625687,-0.004038852173835039,-0.08237909525632858,-0.05742596834897995,0.09788542985916138,0.07381923496723175,0.022535160183906555,-0.07517088949680328,0.07326728105545044,0.07390064746141434,-0.1598873883485794,-0.06570981442928314,-0.10238978266716003,-0.012282886542379856,-0.10187771916389465,-0.020065857097506523,0.21317748725414276,0.06371063739061356,0.010936909355223179,-0.03568035364151001,0.0495171882212162,-0.008203272707760334,0.1602991223335266,-0.1048649325966835,-0.22007806599140167,-0.07301542907953262,-0.030016841366887093,-0.048290614038705826,-0.12250179797410965,0.10091817378997803,-0.11809597909450531,0.18743835389614105,-0.023259174078702927,-0.06318001449108124,0.14899586141109467,-0.02154194936156273,-0.13665281236171722,-0.017423147335648537,0.06575481593608856,-0.16042479872703552,0.04948277026414871,0.15351995825767517,-0.06016970053315163,-0.05038780719041824,-0.07446566224098206,0.021651463583111763,0.33203786611557007,-0.018153565004467964,-0.04259766638278961,-0.01684536784887314,-0.031145324930548668,0.06136726960539818,-0.18696868419647217,0.20919133722782135,0.036508262157440186,-0.09534043818712234,0.027975687757134438,-0.012389336712658405,-0.010965166613459587,-0.19002081453800201,-0.09705690294504166,-0.08459793031215668,-0.26833662390708923,-0.09532155841588974,0.24375812709331512,-0.03429185226559639,0.0923052430152893,-0.0667174831032753,-0.02713983878493309,-0.08519909530878067,0.08389122784137726,0.11762861907482147,0.23606866598129272,-0.06452397257089615,0.052419908344745636,-0.051070280373096466,-0.12383093684911728,-0.07542464882135391,-0.1323089301586151,-0.11661630868911743,-0.0010180349927395582,0.09731964021921158,0.034322209656238556,0.026191772893071175,