{"version":"0.5.4","metadata":{"date":"2026-05-27T20:07:18","sample_rate":48000,"loudness":-21.64508819580078,"training_esr":0.01921075839983204,"pretrained":"Phoenix Pre 5 Tone 2.nam","architecture":"STANDARD","input_level_dbu":22.5,"output_level_dbu":6.4},"architecture":"WaveNet","config":{"layers":[{"input_size":2,"condition_size":2,"channels":16,"head_size":8,"kernel_size":3,"dilations":[1,2,4,8,16,32,64,128,256,512],"activation":"Tanh","gated":false,"head_bias":false},{"input_size":16,"condition_size":2,"channels":8,"head_size":1,"kernel_size":3,"dilations":[1,2,4,8,16,32,64,128,256,512],"activation":"Tanh","gated":false,"head_bias":true}],"head":null,"head_scale":0.02,"rate_condition_hidden":16,"rate_condition_num_biases":240},"weights":[-0.05917201563715935,0.07025542855262756,0.7818297147750854,-0.04282235726714134,-0.9568067193031311,-0.015813102945685387,-0.8479679226875305,0.08827390521764755,-0.603969156742096,-0.012352189049124718,0.3068610727787018,-0.06166395917534828,-0.08930682390928268,0.043724093586206436,0.8153524994850159,-0.010834937915205956,-0.1301259994506836,0.06661660969257355,0.3715391159057617,-0.030064715072512627,-0.29220107197761536,0.05950699746608734,-0.233347088098526,0.07942185550928116,-1.110217571258545,-0.004123607184737921,-0.6978979110717773,0.056983161717653275,-0.6190391182899475,-0.026085320860147476,0.14099763333797455,-0.05283977463841438,0.17688092589378357,0.32376882433891296,-0.10301429778337479,-0.061939820647239685,-0.03898999094963074,0.1967577189207077,-0.03987980633974075,0.18690849840641022,-0.10067491978406906,0.024047812446951866,0.23141780495643616,-0.19184035062789917,-0.09118041396141052,0.05696685612201691,-0.1317894607782364,0.06989672034978867,-0.24376274645328522,-0.06324460357427597,-0.007332578767091036,0.06818228960037231,-0.09982308000326157,0.1326139122247696,-0.01603107340633869,0.14540652930736542,0.11204265058040619,0.13315562903881073,0.04648517072200775,-0.1649782508611679,-0.23082150518894196,-0.03246631473302841,0.12796476483345032,0.2142772674560547,-0.08754164725542068,0.060128550976514816,0.2583199143409729,0.14100375771522522,0.04656044393777847,0.09859732538461685,0.016019955277442932,-0.07895980030298233,0.12330343574285507,-0.17143748700618744,-0.10650496184825897,0.013343858532607555,-0.01675940491259098,-0.03206487372517586,-0.28156644105911255,0.061269666999578476,0.04733087867498398,0.19679871201515198,-0.13171298801898956,0.023336514830589294,-0.11520041525363922,0.22783856093883514,-0.09730927646160126,0.1441212147474289,-0.02268252894282341,0.13042981922626495,0.3226601183414459,0.04554283618927002,0.03893788903951645,0.0799308717250824,-0.0766269639134407,-0.09547574073076248,-0.3245287239551544,0.21028295159339905,0.09577848017215729,0.07008951157331467,-0.0935237854719162,-0.03711342811584473,-0.21891441941261292,0.012983628548681736,0.04946495592594147,0.1188632994890213,-0.04658437892794609,0.06751962006092072,-0.09902351349592209,0.14649468660354614,-0.13625884056091309,0.0964655950665474,-0.00916777178645134,0.030123630538582802,0.08592928200960159,-0.17396028339862823,0.14903995394706726,0.2961370050907135,-0.1442536562681198,-0.02550312876701355,0.05742216855287552,-0.08345741033554077,-0.09932461380958557,0.09330631047487259,-0.09758615493774414,0.034353695809841156,-0.28677263855934143,0.21316426992416382,-0.1208619698882103,-0.10419409722089767,0.15279288589954376,-0.14119021594524384,0.10763034224510193,-0.035438764840364456,0.04367770627140999,-0.10080752521753311,0.0922468826174736,0.030892975628376007,-0.2063779979944229,0.10940806567668915,-0.12186862528324127,-0.23318125307559967,0.0015342265833169222,-0.0807398110628128,0.0946059301495552,-0.15334370732307434,-0.04522251710295677,-0.163717120885849,-0.03742802143096924,-0.03372574225068092,0.23470261693000793,-0.05420617014169693,-0.011518704704940319,-0.19639216363430023,0.06763435155153275,0.0793464258313179,0.28976333141326904,0.050308533012866974,0.15500660240650177,-0.146157369017601,-0.08749362081289291,-0.061813171952962875,-0.05940864607691765,0.042266830801963806,-0.04781618341803551,-0.24629680812358856,-0.09637456387281418,-0.09776399284601212,-0.1628631055355072,0.12038256973028183,0.09735610336065292,-0.2865491211414337,0.12817829847335815,-0.09517776966094971,0.17671430110931396,-0.11524603515863419,0.14692504703998566,0.2280125916004181,-0.26350486278533936,-0.32525670528411865,-0.2828735411167145,0.07724813371896744,0.13698722422122955,0.31542590260505676,-0.1860911101102829,0.1773725301027298,0.37152600288391113,-0.13582882285118103,0.33909711241722107,0.3215981125831604,-0.19889819622039795,-0.08460056036710739,-0.25045010447502136,0.0199687872081995,0.3045039474964142,0.12547534704208374,-0.11344815790653229,-0.22234290838241577,-0.14779938757419586,0.10407564043998718,0.24719923734664917,0.29051488637924194,-0.14569774270057678,-0.21777117252349854,-0.36815160512924194,0.16578535735607147,0.28725966811180115,0.32527896761894226,-0.19199758768081665,0.17728513479232788,0.13255178928375244,-0.18177272379398346,0.11533284187316895,0.30794909596443176,-0.14726011455059052,0.18115495145320892,0.2484768182039261,0.01751251332461834,0.09920483082532883,0.17298933863639832,-0.14721962809562683,-0.09253811836242676,-0.3111622929573059,0.2598769962787628,-0.010220035910606384,-0.11581989377737045,0.045755352824926376,-0.056834738701581955,0.06426958739757538,-0.13409455120563507,0.032797787338495255,-0.021222811192274094,-0.013055740855634212,-0.05619531497359276,0.06151551380753517,-0.03148847818374634,0.017195265740156174,0.09430235624313354,0.1523490697145462,0.02262231335043907,-0.03282200172543526,0.02392994984984398,-0.1406518667936325,-0.15348948538303375,0.005072092637419701,-0.0548577643930912,0.04174482449889183,0.02095649391412735,-0.034351758658885956,0.0019851322285830975,0.1182442158460617,-0.09614471346139908,0.1347077637910843,-0.18021616339683533,-0.06318723410367966,-0.03327147662639618,0.10918762534856796,0.08600368350744247,-0.14537861943244934,0.0506758987903595,0.10975348204374313,-0.17803461849689484,0.20685738325119019,-0.09714575856924057,-0.0497141033411026,0.06277987360954285,-0.04256024211645126,-0.02418428473174572,0.2255183756351471,-0.0023490083403885365,0.030473018065094948,-0.11475615948438644,-0.05792318284511566,-0.1310814768075943,-0.0953926295042038,-0.20596984028816223,0.03277548402547836,0.11554739624261856,0.18272392451763153,0.0010220223339274526,0.017176933586597443,0.05866575986146927,-0.15154018998146057,0.01070520281791687,0.2271362990140915,-0.08012891560792923,-0.10536288470029831,-0.16445684432983398,-0.015468603931367397,0.0717899277806282,0.01989194191992283,-0.29164597392082214,0.09814509749412537,-0.20227006077766418,0.08955464512109756,0.07116247713565826,0.09141276031732559,-0.25131022930145264,-0.1586970090866089,0.01101774349808693,0.14823664724826813,0.15244674682617188,0.0549219585955143,-0.06915652006864548,-0.06477479636669159,0.09208006411790848,-0.218783900141716,0.01422177441418171,0.1538112610578537,-0.11272940784692764,-0.06410529464483261,0.01834082044661045,-0.008720912970602512,-0.1373893767595291,0.16892369091510773,-0.1673268973827362,-0.10470026731491089,-0.07353628426790237,0.09557884931564331,0.06656371057033539,-0.09931475669145584,-0.3608217239379883,0.11204361170530319,0.16948583722114563,0.25679388642311096,-0.05534057319164276,-0.22323240339756012,-0.21527472138404846,0.0786178931593895,-0.15268245339393616,-0.13403284549713135,0.13643014430999756,-0.18858815729618073,-0.20372076332569122,0.0912400484085083,0.11647337675094604,0.20195159316062927,-0.026472480967640877,-0.23802313208580017,-0.21675974130630493,0.178549662232399,0.22804675996303558,0.27220767736434937,-0.0149192214012146,-0.052767254412174225,-0.28659313917160034,-0.056704554706811905,-0.016782430931925774,0.3464040458202362,0.047077905386686325,-0.19741135835647583,-0.1256924718618393,0.1583605408668518,0.03984367474913597,-0.07148261368274689,0.17092816531658173,-0.13528764247894287,-0.24339404702186584,0.15097950398921967,-0.016668353229761124,-0.2735002934932709,0.16942007839679718,-0.040586091578006744,-0.1260472536087036,-0.0578550323843956,0.1743451952934265,0.18979643285274506,0.038290802389383316,-0.24055863916873932,-0.19913454353809357,0.12969878315925598,0.26505109667778015,0.14322729408740997,-0.03349820151925087,-0.29678627848625183,-0.14948244392871857,0.0006841041031293571,-0.339631050825119,-0.30418163537979126,0.20612651109695435,-0.12653326988220215,-0.05535842105746269,0.22457587718963623,0.06711121648550034,0.09177692979574203,-0.10690794140100479,-0.31782662868499756,-0.13258615136146545,0.0006370109040290117,0.12165947258472443,0.04187076538801193,-0.17789332568645477,-0.0938214361667633,-0.10094408690929413,0.19101017713546753,0.31270831823349,0.3256409168243408,-0.13656897842884064,-0.13068561255931854,-0.05821068212389946,0.13335007429122925,-0.05538726970553398,-0.12775497138500214,0.17732518911361694,-0.24690359830856323,-0.11562639474868774,0.11521385610103607,-0.22790877521038055,-0.26636171340942383,0.011466747149825096,-0.3128175735473633,-0.09395530819892883,0.21102043986320496,0.2089327871799469,0.15186911821365356,-0.013384684920310974,0.009853074327111244,-0.24080786108970642,-0.005701444111764431,0.12086748331785202,0.1546912044286728,-0.23709736764431,0.15654122829437256,0.028000442311167717,0.07184158265590668,0.08497565239667892,-0.18084481358528137,0.08771343529224396,0.13552041351795197,-0.08886387199163437,0.02789769321680069,-0.02231190912425518,0.09010885655879974,-0.10502117872238159,-0.04792671278119087,-0.06418125331401825,0.08694098889827728,-0.10614801198244095,0.09096325933933258,-0.05140352249145508,0.0032504501286894083,-0.32500603795051575,0.02654779516160488,-0.09792561084032059,0.06102375686168671,-0.05321212485432625,-0.11825250089168549,-0.06281329691410065,0.2101990431547165,-0.025667505338788033,-0.24725408852100372,0.023847920820116997,0.049787793308496475,-0.194293811917305,0.19703145325183868,-0.12444733828306198,-0.2343951016664505,-0.02919517457485199,-0.011164385825395584,0.0056817177683115005,-0.0034173692110925913,0.1689612716436386,0.14086617529392242,-0.0625322237610817,0.006195872090756893,-0.3405580222606659,0.1586025059223175,0.010276030749082565,0.23387914896011353,-0.002382054226472974,-0.024328498169779778,0.04134708270430565,0.08377417176961899,0.1253945231437683,-0.21168285608291626,0.02126489020884037,-0.07220923155546188,-0.1457316279411316,0.1070946529507637,-0.14431138336658478,0.16778042912483215,0.04207359254360199,0.043795377016067505,-0.2688046991825104,-0.06219969317317009,-0.1127341091632843,0.1447843760251999,0.06814514100551605,0.08763422071933746,-0.1857229322195053,0.06987693160772324,-0.18986137211322784,-0.009953404776751995,0.009258560836315155,-0.041880156844854355,-0.042242877185344696,-0.057030171155929565,-0.04637112095952034,-0.2571970522403717,0.10935766994953156,0.056357622146606445,0.030046790838241577,0.16709813475608826,0.13803163170814514,-0.08822192996740341,0.019526680931448936,0.04232250154018402,-0.0666675791144371,0.15256914496421814,-0.12568563222885132,0.2885359823703766,-0.0651717558503151,-0.05437834933400154,0.11520878225564957,-0.1281256079673767,0.11845967173576355,-0.2532680034637451,0.3851269483566284,0.08146581053733826,0.1917726993560791,-0.1454957127571106,-0.059101495891809464,0.1638479232788086,-0.19864097237586975,-0.030145207419991493,0.1669647991657257,-0.32895898818969727,0.05480339005589485,-0.170427143573761,0.17581114172935486,0.10208394378423691,0.24103057384490967,-0.32229238748550415,0.0008889606688171625,-0.024575306102633476,0.2453480064868927,0.09695641696453094,0.130319744348526,-0.1873917132616043,-0.1300687938928604,-0.21682439744472504,0.1913897544145584,0.16512717306613922,0.0905013158917427,-0.2312687784433365,-0.031671199947595596,0.28727415204048157,-0.0998694896697998,-0.09870095551013947,-0.007730658166110516,-0.3788490295410156,0.01734929531812668,0.07897830009460449,-0.3482765257358551,-0.041473135352134705,0.1421208530664444,-0.3620457351207733,-0.014571407809853554,-0.21130090951919556,0.2338239848613739,0.12793020904064178,0.008419944904744625,0.11544422805309296,-0.12119289487600327,0.05062798783183098,-0.0783018171787262,-0.00909740012139082,-0.23732604086399078,0.3552458882331848,0.032678768038749695,-0.07615160197019577,0.19570700824260712,0.09746541827917099,-0.13821938633918762,0.31226325035095215,-0.10867471992969513,-0.0333782397210598,-0.28101468086242676,0.0661463588476181,-0.04667820408940315,0.12278271466493607,0.010521749965846539,0.06715848296880722,-0.2349657267332077,0.22160205245018005,-0.04758884385228157,0.3202453553676605,-0.037608470767736435,0.06283668428659439,-0.30716976523399353,0.10617411881685257,0.012035571970045567,0.14771299064159393,-0.02038303203880787,-0.05447535216808319,0.3384954035282135,0.08656919747591019,-0.21900343894958496,0.08310257643461227,0.15880554914474487,-0.11356113851070404,0.1327361911535263,0.15719206631183624,-0.04913448169827461,0.33526885509490967,-0.0013219380052760243,0.10539976507425308,-0.35119977593421936,-0.13721802830696106,-0.004676337819546461,0.18055567145347595,0.06899352371692657,-0.03735801577568054,0.03125688061118126,0.13576725125312805,0.052517473697662354,-0.022046776488423347,-0.05710207670927048,-0.18327020108699799,0.23441113531589508,-0.06876958161592484,-0.15328121185302734,0.1773083359003067,-0.06196804344654083,0.01537405140697956,-0.10504009574651718,-0.021251719444990158,-0.22751367092132568,0.23555096983909607,-0.06333967298269272,0.13084471225738525,0.02672119438648224,0.061131175607442856,-0.09277375787496567,0.21933862566947937,0.02836598828434944,0.029459049925208092,0.037092093378305435,0.030828071758151054,-0.2256978303194046,0.0520361103117466,-0.10485722869634628,0.025672325864434242,0.07134482264518738,-0.13278789818286896,-0.08992422372102737,0.19164174795150757,0.0350971482694149,-0.037524931132793427,0.11021555215120316,0.0495891235768795,-0.12237022817134857,0.04592468962073326,-0.11563410609960556,0.012017247267067432,-0.04926544800400734,-0.09566289186477661,0.23072178661823273,-0.035647179931402206,0.05631031468510628,-0.2238771915435791,0.24259687960147858,-0.1300411820411682,0.23710103332996368,-0.21154819428920746,-0.07523340731859207,0.20391948521137238,-0.14979687333106995,0.07212626934051514,0.030523458495736122,-0.22979022562503815,-0.03193360194563866,-0.10779868811368942,0.21146030724048615,-0.08599696308374405,0.22040392458438873,-0.12796823680400848,0.013601901941001415,-0.011683506891131401,-0.01880197413265705,-0.000433672743383795,0.30298784375190735,-0.09351598471403122,0.15109017491340637,-0.18258611857891083,0.21134769916534424,-0.1731155961751938,0.10613769292831421,-0.10697878897190094,0.016329260542988777,0.20397330820560455,0.029768092557787895,-0.06678565591573715,0.11504561454057693,0.0024924117606133223,-0.08066051453351974,0.24946999549865723,-0.1865001767873764,-0.0662638321518898,0.11991656571626663,-0.04234243556857109,0.13797515630722046,-0.20276401937007904,0.003074298147112131,0.149573415517807,-0.13690921664237976,-0.0059251259081065655,-0.14044204354286194,0.2762583792209625,0.2665363848209381,0.061778146773576736,-0.31254205107688904,-0.03501652181148529,-0.055761102586984634,-0.13946066796779633,-0.10780180990695953,-0.013551309704780579,-0.13050903379917145,-0.2580225169658661,-0.03111307881772518,0.06827078759670258,0.09718339890241623,0.08172916620969772,-0.05021106079220772,-0.15914717316627502,0.04466117545962334,0.1572384089231491,0.06758861988782883,-0.054145634174346924,-0.2818090617656708,0.059857502579689026,-0.0924140065908432,0.18294383585453033,0.15865610539913177,0.15297430753707886,-0.03526977822184563,0.0016623145202174783,-0.04206682741641998,-0.18089382350444794,-0.18514715135097504,-0.03489695116877556,-0.14563442766666412,-0.0015544644556939602,-0.06499742716550827,-0.08408606052398682,-0.20393425226211548,0.02596927061676979,-0.06913255155086517,-0.16569291055202484,-0.0667586475610733,0.07615811377763748,0.1966177076101303,0.15399537980556488,-0.44782501459121704,0.13308708369731903,-0.28482958674430847,0.1217598021030426,-0.08806563913822174,0.2841889560222626,-0.25665637850761414,0.15574803948402405,0.2864018976688385,-0.13297100365161896,0.004160144366323948,0.16944456100463867,-0.2791464328765869,-0.016774551942944527,-0.1424858123064041,0.3455972373485565,0.05985135957598686,0.18575775623321533,-0.27624139189720154,0.0283211562782526,-0.05602419376373291,0.15697188675403595,-0.18395495414733887,0.16758239269256592,-0.2032228261232376,-0.06848446279764175,-0.03813612088561058,0.30071505904197693,-0.18624219298362732,0.11353126168251038,-0.10801838338375092,-0.04601101204752922,0.10847403854131699,-0.21215690672397614,-0.059402868151664734,0.25076043605804443,-0.14541037380695343,0.17875716090202332,0.06801259517669678,-0.08111001551151276,-0.007032851688563824,0.33027586340904236,-0.36827561259269714,-0.02796952985227108,-0.11394575983285904,0.33576518297195435,-0.10471222549676895,-0.03087540715932846,-0.10220178216695786,-0.038012076169252396,-0.12790560722351074,0.04589533805847168,0.04602240025997162,-0.01922782137989998,0.024170344695448875,0.10523716360330582,0.09592387825250626,-0.02560696192085743,0.010678920894861221,0.0021977191790938377,-0.04060802236199379,-0.07567104697227478,0.055788468569517136,0.533832848072052,0.13831903040409088,-0.3525378108024597,-0.008039138279855251,0.7582762837409973,-0.03614097088575363,-0.6474925875663757,-0.004091919399797916,-0.10519102215766907,-0.11005015671253204,0.928379237651825,-0.019651366397738457,0.9638991355895996,-0.02978416346013546,-0.6733034253120422,-0.036691565066576004,0.05032877251505852,-0.10418840497732162,0.03604721277952194,-0.09103429317474365,-0.20548298954963684,0.05102433264255524,-0.5554412007331848,-0.01063962746411562,0.1715894192457199,-0.02953384816646576,-0.6017633676528931,0.05510139465332031,0.30576276779174805,0.015101702883839607,0.34574276208877563,-0.08851263672113419,0.11354587227106094,0.31395387649536133,-0.06276459991931915,0.21626494824886322,0.03332146257162094,-0.07563301920890808,0.09165721386671066,-0.13245432078838348,-0.25153619050979614,-0.26759418845176697,0.1479198932647705,-0.23516881465911865,0.041166242212057114,0.13788188993930817,0.11425532400608063,-0.36627763509750366,-0.12234880030155182,-0.12125220894813538,-0.256805956363678,0.12344612181186676,0.094386525452137,-0.04801682010293007,-0.16466785967350006,-0.14135487377643585,0.07569136470556259,0.28295090794563293,-0.16406278312206268,0.10627306252717972,0.06218145415186882,-0.11238452047109604,0.012906546704471111,0.6146624088287354,0.0323796421289444,0.08981748670339584,-0.011012143455445766,0.23801608383655548,-0.15529388189315796,-0.16478785872459412,0.058120641857385635,-0.3387088477611542,0.02024465799331665,-0.1441536396741867,0.18530955910682678,-0.2669934332370758,0.13983486592769623,0.26384636759757996,0.013388224877417088,-0.058811839669942856,0.3629283607006073,-0.08394923806190491,-0.07481172680854797,-0.16128164529800415,-0.1836884468793869,0.03285309299826622,0.011249671690165997,-0.0015666878316551447,-0.27527645230293274,-0.07143839448690414,0.020028039813041687,-0.0481613464653492,0.1542503982782364,0.27499961853027344,-0.11562319844961166,-0.291831374168396,-0.23498696088790894,-0.1936880499124527,-0.2386033535003662,0.24211202561855316,0.2468285709619522,0.025067826732993126,0.08409973978996277,-0.21373292803764343,0.05811653658747673,0.2076425850391388,-0.24096748232841492,0.3287747800350189,0.010408631525933743,0.2087593972682953,-0.3456200659275055,0.06259041279554367,-0.2839842736721039,-0.0021218706388026476,0.08687060326337814,0.05729876831173897,0.35887017846107483,0.2406289130449295,0.22009655833244324,0.14296448230743408,0.1882949024438858,0.021066300570964813,-0.22933171689510345,0.01881028711795807,-0.07919573038816452,-0.14262834191322327,0.08083662390708923,0.20856983959674835,0.08109065145254135,0.07529470324516296,0.22525635361671448,0.13835306465625763,-0.19769398868083954,-0.20755131542682648,0.11204301565885544,0.12955203652381897,0.054333481937646866,-0.26486605405807495,-0.18172261118888855,0.1893458068370819,0.187616229057312,-0.17831046879291534,0.14528241753578186,-0.2727734446525574,0.15979652106761932,0.10795187205076218,0.2514623999595642,-0.24242597818374634,-0.08583634346723557,0.1728249043226242,0.22238397598266602,0.08232411742210388,0.11761718988418579,-0.21388627588748932,0.15777292847633362,-0.20168395340442657,-0.000703013502061367,-0.12731489539146423,-0.16816309094429016,0.05802082642912865,0.01447887159883976,-0.04690970852971077,-0.23011547327041626,-0.21530120074748993,-0.040525324642658234,-0.08553446829319,-0.14730046689510345,-0.06909710168838501,-0.24079908430576324,-0.22963069379329681,0.19642774760723114,0.08045800030231476,0.08666012436151505,-0.13707765936851501,0.14854124188423157,-0.026248814538121223,-0.18736186623573303,0.07811683416366577,0.2577304542064667,-0.24242983758449554,-0.1292807161808014,0.07919377088546753,0.2256096601486206,-0.20130646228790283,-0.035613764077425,0.16530799865722656,0.14802119135856628,0.12276587635278702,0.1690055876970291,0.1908467710018158,-0.16576875746250153,0.06808305531740189,0.2597053349018097,0.2252807468175888,-0.26571571826934814,0.16704274713993073,-0.21079114079475403,-0.24460114538669586,0.03707370162010193,-0.09954807907342911,-0.0031338492408394814,-0.19278141856193542,-0.12324462831020355,-0.07875397056341171,-0.06525439769029617,0.16701647639274597,0.0696166604757309,0.05008406192064285,0.20698368549346924,0.009711560793220997,0.08357670158147812,0.03936338797211647,-0.1994173675775528,-0.1630723774433136,-0.06090211495757103,0.014761202037334442,-0.15045149624347687,-0.4069044291973114,0.09455065429210663,-0.2823365330696106,-0.05208148434758186,0.24209797382354736,-0.1512427031993866,-0.5320322513580322,-0.19583065807819366,-0.06234653294086456,-0.01442102063447237,0.06904518604278564,0.15210378170013428,-0.26138466596603394,-0.07429634779691696,0.2094675600528717,0.34574633836746216,0.04616239666938782,-0.2583337128162384,0.17684608697891235,0.2414405196905136,-0.14491695165634155,-0.11714689433574677,0.0582398921251297,0.10162503272294998,-0.25359979271888733,-0.15070629119873047,0.09671398252248764,-0.26169148087501526,0.17065587639808655,0.1939358413219452,0.07835094630718231,-0.017126936465501785,-0.08751288801431656,-0.02671094983816147,-0.016658902168273926,-0.11289599537849426,-0.06934907287359238,-0.10651957988739014,0.065716952085495,-0.17263619601726532,0.3499026298522949,-0.14564211666584015,0.06226380169391632,0.09929344058036804,-0.16464407742023468,0.06310132890939713,-0.00891634076833725,-0.37428930401802063,0.005599744152277708,-0.08155278116464615,0.11199143528938293,0.130888432264328,0.3362117409706116,-0.38706955313682556,-0.04945073276758194,0.16442659497261047,0.11121035367250443,0.2368297576904297,-0.10099252313375473,-0.13453786075115204,0.2226075530052185,0.13904380798339844,0.23076771199703217,-0.17636749148368835,-0.2147343009710312,-0.005118907429277897,-0.2677864730358124,0.037992000579833984,0.1899808645248413,0.03801203891634941,-0.013926072977483273,0.07115238904953003,-0.0992744043469429,0.2236965447664261,-0.22997771203517914,-0.1604168713092804,-0.021260393783450127,0.16638566553592682,0.060932282358407974,0.039127167314291,-0.19994205236434937,0.0781509280204773,-0.08188486099243164,0.0463528074324131,0.15319369733333588,0.08593840152025223,-0.0064343116246163845,0.04998204484581947,-0.05592837929725647,-0.14033640921115875,0.11190187186002731,-0.10061801224946976,-0.015104268677532673,-0.20461933314800262,-0.1212865561246872,-0.10034085065126419,-0.1851150393486023,-0.015030184760689735,-0.007782496511936188,-0.16052675247192383,-0.22043487429618835,-0.05699054151773453,0.26519665122032166,-0.03388361632823944,0.13753780722618103,-0.1218424141407013,-0.07655248790979385,0.1282108724117279,0.2799348533153534,0.1362142115831375,0.012564108707010746,-0.17871315777301788,0.07005347311496735,-0.12115027755498886,0.00010912160360021517,0.08241722732782364,-0.02034458890557289,-0.3387095630168915,-0.15965989232063293,-0.1508583128452301,-0.20539535582065582,-0.0760318785905838,0.027780843898653984,-0.4645076096057892,-0.2863920331001282,-0.22015181183815002,-0.14373746514320374,0.02945207804441452,-0.09592630714178085,-0.35507673025131226,-0.12421693652868271,-0.15685199201107025,0.4193142354488373,0.19754500687122345,0.12104199826717377,0.04449208453297615,-0.06480809301137924,0.0937572568655014,-0.2998131811618805,0.04146247357130051,-0.025975359603762627,-0.061461254954338074,-0.10435885936021805,0.1598128378391266,-0.11151515692472458,0.026247840374708176,-0.042504917830228806,0.11940445750951767,-0.14476341009140015,0.14266516268253326,-0.11408776789903641,-0.057636816054582596,-0.08137109130620956,0.16544416546821594,-0.18440619111061096,0.005222708452492952,0.1049410030245781,-0.011416553519666195,-0.0949883684515953,-0.11572535336017609,-0.03442073240876198,0.052372045814991,0.11693888157606125,0.03716176003217697,-0.17944812774658203,0.06083206087350845,0.027153776958584785,0.06280618160963058,-0.026902806013822556,-0.187982439994812,0.14350077509880066,0.1062839925289154,-0.15364116430282593,0.21889497339725494,0.009135919623076916,0.08411466330289841,0.07590539753437042,0.031511079519987106,-0.1962040811777115,0.15067321062088013,-0.10223504155874252,0.08064830303192139,-0.2975148856639862,-0.025628838688135147,-0.41441085934638977,-0.02788124419748783,0.15147735178470612,0.16110605001449585,-0.08751866966485977,0.039814259856939316,-0.07241921126842499,0.06446615606546402,0.11628936231136322,-0.08993498980998993,-0.11142133921384811,0.12612229585647583,-0.05089302361011505,0.1103886291384697,-0.07132942229509354,0.35043865442276,0.1737242192029953,0.11278876662254333,-0.03277731314301491,-0.09151654690504074,-0.09319044649600983,0.022756781429052353,0.13168108463287354,-0.005045952741056681,-0.2413417547941208,-0.07551225274801254,-0.101405568420887,0.1730649173259735,-0.11210698634386063,-0.12198103219270706,-0.30986252427101135,0.03916063532233238,0.2003147453069687,-0.5018354058265686,0.03255581483244896,0.13428018987178802,0.06534229964017868,0.03751573711633682,-0.01236491184681654,-0.010815449990332127,0.06189851462841034,0.010595586150884628,-0.0806078240275383,0.08707448095083237,-0.10620254278182983,0.18412281572818756,0.1439065784215927,-0.17795507609844208,-0.17286495864391327,-0.055430818349123,-0.004276335705071688,0.13715945184230804,0.12895256280899048,0.07632381469011307,-0.17989295721054077,-0.18472646176815033,0.05535338073968887,0.019090481102466583,-0.16544367372989655,-0.034236058592796326,-0.06887579709291458,-0.04849257320165634,-0.08619660139083862,0.19459906220436096,0.027871152386069298,0.04009291157126427,0.10821328312158585,0.03688768669962883,-0.23378530144691467,0.037563882768154144,0.07569172233343124,0.13151375949382782,-0.19015102088451385,0.022249702364206314,0.11429476737976074,-0.10061319917440414,0.03786090388894081,0.1401914358139038,-0.16591471433639526,-0.011693041771650314,0.0026169056072831154,-0.09032949060201645,0.05069725587964058,0.14601673185825348,0.16872334480285645,-0.056446779519319534,0.09829731285572052,-0.1570044904947281,-0.11765484511852264,-0.034243542701005936,-0.10307519137859344,0.06442423164844513,0.014834619127213955,0.04995845630764961,0.09916780889034271,-0.16458603739738464,0.16762159764766693,-0.05040575563907623,0.15657112002372742,0.11974942684173584,-0.2160988748073578,-0.058159731328487396,0.16815073788166046,-0.14306838810443878,-0.13118527829647064,0.059001512825489044,0.09830441325902939,-0.04547026753425598,-0.17830058932304382,-0.22320470213890076,-0.11927909404039383,-0.027428772300481796,0.07459090650081635,0.09065908193588257,-0.1885622888803482,0.11513963341712952,0.03398489952087402,0.2333851158618927,0.26123836636543274,0.08340898901224136,0.023532284423708916,-0.11185991764068604,-0.08940178900957108,-0.12360870838165283,0.09839553385972977,0.09478174149990082,-0.07592646032571793,-0.14117960631847382,-0.13899587094783783,0.2584870755672455,0.11296721547842026,-0.2260991781949997,-0.4264996349811554,0.060747180134058,0.09025285392999649,-0.04169761389493942,0.029120635241270065,-0.0015756787033751607,-0.12748035788536072,-0.23634038865566254,0.1222044825553894,0.15877874195575714,0.12512171268463135,-0.09337766468524933,-0.28148066997528076,-0.15059582889080048,-0.01521762553602457,0.1798039972782135,0.0645565614104271,-0.028277428820729256,-0.13382023572921753,-0.0006455486873164773,-0.08521686494350433,-0.04347637668251991,-0.016625745221972466,-0.04701588675379753,0.040537912398576736,-0.01899755746126175,0.08825582265853882,0.11726582050323486,0.04982888326048851,0.04555066302418709,-0.15783122181892395,-0.029887130483984947,-0.003701383713632822,-0.08078477531671524,0.17928947508335114,0.1973794549703598,0.06810875236988068,-0.08222750574350357,0.062363479286432266,-0.03811441734433174,-0.03732671961188316,0.12283027172088623,-0.05169440805912018,0.02332514524459839,0.015631593763828278,-0.382974773645401,-0.029610805213451385,0.19071604311466217,0.15249040722846985,0.04682714119553566,-0.021234385669231415,-0.07884681969881058,0.12669165432453156,-0.030829137191176414,-0.05640710890293121,-0.23597601056098938,-0.1298017054796219,-0.035824112594127655,0.07055744528770447,0.10501038283109665,-0.18806184828281403,-0.20301923155784607,0.051788683980703354,0.20485785603523254,-0.048180241137742996,0.04558001086115837,-0.15245409309864044,0.0878567099571228,0.07279190421104431,-0.07624853402376175,-0.12248056381940842,-0.04516671225428581,0.13654641807079315,0.026789963245391846,0.10731401294469833,0.173876091837883,0.21479354798793793,0.13027794659137726,-0.0442611388862133,0.10578344017267227,-0.04192158952355385,0.07886122167110443,-0.013652978464961052,0.04587186127901077,-0.09994155913591385,-0.13020223379135132,0.009762364439666271,0.054975707083940506,0.030032305046916008,0.13233020901679993,-0.09302299469709396,-0.004497143905609846,-0.06771247088909149,-0.17086349427700043,-0.22771954536437988,0.14762385189533234,0.2052091360092163,0.2296299785375595,-0.0061140479519963264,0.11845767498016357,-0.09831304848194122,-0.004564484115689993,-0.052586860954761505,-0.0424860455095768,-0.1386789232492447,-0.10965106636285782,-0.12624962627887726,-0.11919628083705902,-0.029260879382491112,0.15505941212177277,0.10443108528852463,0.010373979806900024,-0.11851952224969864,-0.16584105789661407,-0.0722288116812706,0.11332330852746964,-0.06702244281768799,-0.10825613886117935,-0.06210409849882126,-0.016002915799617767,-0.20034955441951752,-0.20854881405830383,0.21610988676548004,-0.0128910718485713,-0.08044730871915817,-0.0651976689696312,-0.13395461440086365,-0.020119747146964073,0.13944120705127716,0.03895297273993492,0.03614978864789009,-0.02576674148440361,-0.16875216364860535,0.1733793318271637,0.17818838357925415,0.16156905889511108,-0.03795890510082245,-0.02337016351521015,-0.19966845214366913,-0.04170561954379082,-0.06323070824146271,-0.11746203899383545,0.147518128156662,-0.11619791388511658,-0.16684722900390625,-0.1441451758146286,-0.16262036561965942,-0.03091343678534031,-0.11477046459913254,0.03555528447031975,-0.07405003160238266,0.09172005951404572,0.06634064763784409,0.11034205555915833,0.09388823062181473,-0.010361201129853725,0.25709766149520874,-0.08851177245378494,-0.08206616342067719,-0.10270232707262039,-0.1142076924443245,0.07020498067140579,0.14645491540431976,0.10124419629573822,0.10561848431825638,0.02283138781785965,-0.08748631179332733,0.16567544639110565,0.13088607788085938,0.026265472173690796,-0.0424608550965786,-0.026584617793560028,0.06616243720054626,0.06685451418161392,-0.004217895679175854,0.06839156150817871,-0.17798104882240295,-0.14682570099830627,0.13885214924812317,-0.053562477231025696,-0.08212512731552124,0.0839434564113617,0.017434939742088318,0.06750208884477615,-0.07442037016153336,0.04141303151845932,-0.011880460195243359,-0.11781011521816254,-0.14216269552707672,0.0805981382727623,0.07602641731500626,0.03567550331354141,0.11903683841228485,0.014040743000805378,-0.012459923513233662,-0.10206089168787003,-0.15424016118049622,-0.08281900733709335,0.00936202984303236,-0.060694485902786255,-0.05169801041483879,-0.05279595032334328,-0.013896813616156578,0.41893166303634644,0.2689027190208435,-0.010227366350591183,-0.10083216428756714,-0.02213497832417488,0.10906165838241577,-0.029058251529932022,0.019051186740398407,-0.017085349187254906,-0.027343979105353355,0.17972441017627716,-0.017733493819832802,0.018773149698972702,-0.07713491469621658,-0.06730858236551285,-0.2657005190849304,-0.14998935163021088,0.036766331642866135,0.04250352829694748,0.04005219787359238,0.14537489414215088,-0.055262695997953415,0.0275002159178257,0.12977424263954163,0.02443087287247181,0.2263977825641632,0.03765660896897316,-0.17182087898254395,-0.12524716556072235,0.02675929293036461,0.05096670612692833,0.13319900631904602,0.16937671601772308,0.2781466543674469,0.18975557386875153,-0.009116537868976593,-0.3269897997379303,-0.08517367392778397,-0.13886848092079163,-0.12835654616355896,0.02344576269388199,0.04727154225111008,-0.08372887223958969,-0.10087131708860397,0.027309807017445564,-0.032423850148916245,-0.007600185927003622,-0.1588541865348816,0.14749741554260254,-0.010990479029715061,-0.20854341983795166,-0.1811206340789795,-0.0509820431470871,-0.21400825679302216,0.11012206971645355,-0.05399215221405029,0.03293099254369736,-0.03990978002548218,0.0228790994733572,0.05324685573577881,-0.08466127514839172,-0.04867606982588768,-0.11317496746778488,-0.22087009251117706,0.09861764311790466,0.05941207706928253,-0.12280905991792679,0.1610051989555359,0.20714198052883148,-0.17405188083648682,0.056796908378601074,0.05989019572734833,0.10121467709541321,0.038873326033353806,0.15182943642139435,-0.15570998191833496,-0.13729283213615417,-0.017879614606499672,0.29258793592453003,-0.020810941234230995,-0.06716647744178772,0.523652195930481,-0.04643278568983078,-0.19139151275157928,0.011642112396657467,0.07023239880800247,0.11917097866535187,0.05051976442337036,-0.029605194926261902,0.06921356916427612,0.1819223016500473,-0.020983697846531868,-0.11237978935241699,-0.11350135505199432,-0.14083115756511688,0.03474341332912445,0.17305339872837067,0.305640310049057,-0.038345105946063995,-0.04642506688833237,-0.034782715141773224,-0.24021536111831665,-0.02246193028986454,0.2997235357761383,0.07931492477655411,0.08581829816102982,0.09544914215803146,0.023740848526358604,0.029081856831908226,0.020826619118452072,-0.14774499833583832,-0.10771084576845169,-0.0714302808046341,0.08383619040250778,-0.025332598015666008,-0.07209954410791397,0.16927766799926758,0.06544800847768784,0.09469830989837646,0.13567744195461273,0.1827823668718338,-0.023767907172441483,-0.12678782641887665,-0.197006493806839,0.011620164848864079,0.0286563728004694,0.01669369265437126,0.20168735086917877,-0.12067662179470062,0.045523013919591904,0.27087149024009705,0.03544551506638527,-0.07144404202699661,-0.1606752574443817,0.06178382411599159,0.1693429946899414,0.035499002784490585,-0.029531260952353477,0.17082703113555908,0.13961561024188995,-0.1962701827287674,-0.1645459532737732,0.0256813857704401,0.19927150011062622,-0.05311865732073784,0.09130839258432388,-0.11048799008131027,-0.002545219147577882,0.01834161952137947,-0.062062133103609085,0.1389511078596115,0.09088017791509628,-0.09262502193450928,0.044118452817201614,0.037673551589250565,-0.04996144026517868,0.14114542305469513,-0.07229331880807877,-0.15096603333950043,-0.14851225912570953,-0.15692639350891113,0.14702554047107697,0.012460612691938877,-0.103537417948246,0.03752702474594116,-0.20147164165973663,-0.08487887680530548,0.08913736790418625,0.017491495236754417,0.08574587851762772,0.07844357937574387,-0.10591136664152145,0.006339878309518099,-0.09325362741947174,0.21900005638599396,0.16690967977046967,0.02917814813554287,0.22955742478370667,-0.1254749447107315,-0.05636413022875786,0.18199218809604645,-0.1386362612247467,0.05436746031045914,0.03254420682787895,0.01665104366838932,-0.0966263860464096,0.16078512370586395,-0.08251827210187912,-0.03238002955913544,-0.05817227065563202,0.07130272686481476,0.0397215262055397,0.11163324117660522,-0.010552487336099148,0.054641615599393845,0.03225390240550041,0.24020712077617645,0.11695465445518494,0.2098616361618042,-0.07002995908260345,0.11620444059371948,-0.020374875515699387,-0.0387764498591423,-0.004924222361296415,-0.004959166049957275,0.07736347615718842,0.155613973736763,-0.22401383519172668,-0.011120202951133251,-0.1081533208489418,-0.0013059158809483051,0.06905543059110641,0.08044062554836273,0.0011120435083284974,-0.029615825042128563,-0.03412982448935509,0.08902332931756973,-0.021810192614793777,0.1172320619225502,0.0059716971591115,-0.15649676322937012,0.11324036121368408,0.10302352160215378,0.09086969494819641,-0.015890978276729584,0.22670748829841614,0.0037836141418665648,-0.11412585526704788,-0.0741281732916832,-0.0342564731836319,0.019910013303160667,0.058990634977817535,0.08510836958885193,-0.09341908991336823,0.14786243438720703,-0.03192943334579468,-0.11203040182590485,-0.09400247782468796,-0.1463947892189026,0.04854315519332886,-0.3364502787590027,-0.11323973536491394,-0.12257076054811478,-0.11158393323421478,0.15670748054981232,0.008372983895242214,-0.19203953444957733,0.05011804401874542,0.03155502304434776,-0.09062901139259338,-0.09058353304862976,-0.06561169773340225,-0.041272200644016266,0.1351385861635208,0.04153157398104668,0.3440709710121155,0.016466086730360985,-0.050012752413749695,0.13726000487804413,0.09946893900632858,0.09003953635692596,0.14680349826812744,0.03753875195980072,-0.08457271009683609,-0.03713776916265488,-0.13781018555164337,-0.09164202958345413,0.019982146099209785,-0.08523000031709671,0.11147665232419968,-0.1832977831363678,0.03185541555285454,0.07281850278377533,-0.1358005553483963,-0.06398089975118637,-0.12628909945487976,0.10224376618862152,0.09194081276655197,-0.020972680300474167,-0.05140490084886551,-0.02322535216808319,-0.050111208111047745,-0.25643622875213623,-0.018287912011146545,-0.08911211043596268,0.1791943907737732,-0.08345914632081985,-0.07162725180387497,-0.10404625535011292,0.27309519052505493,-0.09132828563451767,0.03841590881347656,0.01393122784793377,0.07027542591094971,0.014726639725267887,0.1455298662185669,0.08356532454490662,0.05455690994858742,0.1044260561466217,-0.09497017413377762,-0.05793362483382225,-0.009296304546296597,0.012634875252842903,-0.058792147785425186,-0.27280622720718384,-0.03953589126467705,0.06515497714281082,0.09422296285629272,-0.16136156022548676,0.062011897563934326,-0.1608913540840149,-0.12320729345083237,-0.12556672096252441,0.018894579261541367,-0.0007706759497523308,-0.09636098146438599,0.06735579669475555,0.1460130661725998,0.018925020471215248,0.18510358035564423,-0.08363410085439682,-0.05006573721766472,0.17456164956092834,0.030266474932432175,-0.1596437245607376,-0.1698000133037567,0.011997587978839874,0.0486811138689518,0.11039162427186966,-0.08507578074932098,-0.043585725128650665,0.018460646271705627,0.06660624593496323,-0.015749424695968628,0.12528012692928314,0.11529184877872467,0.10872989892959595,0.06494759023189545,0.023970207199454308,0.11529931426048279,-0.06727280467748642,0.13729770481586456,0.17176777124404907,0.13597318530082703,-0.07908328622579575,-0.06647078692913055,0.021657882258296013,0.09293197095394135,0.10098851472139359,0.047370556741952896,0.09132609516382217,-0.05585768073797226,-0.20490843057632446,0.021009214222431183,0.11631686240434647,0.0538460798561573,0.18898336589336395,-0.08089658617973328,-0.4482317864894867,-0.04223700612783432,0.12195241451263428,-0.053902264684438705,-0.7458556294441223,-0.13445624709129333,-0.3367190361022949,-0.026402605697512627,-0.31101787090301514,-0.027756493538618088,0.8471465706825256,-0.035408928990364075,-0.8337283134460449,0.06624570488929749,-0.6575332283973694,0.06742855161428452,-0.9839495420455933,0.003706778632476926,0.2882682979106903,0.05789928883314133,-0.8028943538665771,-0.051033250987529755,0.36371296644210815,0.03972494974732399,-0.6622154116630554,0.034187328070402145,-0.21384191513061523,-0.2121080756187439,0.15523859858512878,0.17894473671913147,0.293706476688385,-0.062204793095588684,-0.16614560782909393,-0.1493568867444992,-0.046006008982658386,-0.001456023775972426,0.07629381120204926,0.04313915967941284,0.17568384110927582,-0.03867616131901741,-0.07687731832265854,0.014058475382626057,-0.031140290200710297,-0.06234753504395485,-0.007806512527167797,0.011730504222214222,-0.25806936621665955,0.27720266580581665,-0.010973934084177017,-0.2525744140148163,0.309624582529068,-0.09599069505929947,0.09942279011011124,0.23148678243160248,0.054962094873189926,0.06885844469070435,0.10545031726360321,0.1978663206100464,-0.09161242097616196,-0.11173069477081299,0.04158296808600426,0.2973282039165497,-0.03920124098658562,0.3551363945007324,0.21619358658790588,0.028123406693339348,0.04712487757205963,-0.08341717720031738,-0.237033873796463,-0.2735663652420044,0.05775122717022896,0.07098744064569473,0.1951768845319748,-0.133208230137825,0.12725673615932465,0.10956527292728424,-0.2501184642314911,-0.18204601109027863,-0.15855343639850616,-0.08244192600250244,-0.1503456085920334,-0.06949828565120697,-0.08965352922677994,0.15125016868114471,0.07933583110570908,0.27423810958862305,0.2209765911102295,-0.09641175717115402,0.03117653727531433,0.05950170010328293,0.3148868680000305,-0.13125666975975037,-0.023997759446501732,-0.048892825841903687,0.19719241559505463,0.005065123550593853,-0.1510072499513626,0.24599656462669373,0.2705081105232239,0.051222819834947586,-0.13786590099334717,0.2761717736721039,-0.15797549486160278,-0.01660154201090336,-0.27405107021331787,-0.12164481729269028,-0.130766361951828,-0.04983396455645561,-0.49409425258636475,-0.33773887157440186,0.052824635058641434,-0.23949657380580902,-0.27069541811943054,-0.04445996880531311,0.06666562706232071,0.23858119547367096,0.0028288220055401325,0.07231596112251282,-0.22930708527565002,-0.023961970582604408,0.07990682125091553,0.27302855253219604,0.08917579799890518,-0.13542556762695312,0.11555708199739456,-0.29027530550956726,0.1124742403626442,0.09663527458906174,-0.215846449136734,-0.15105530619621277,0.10702556371688843,-0.09260034561157227,-0.17042380571365356,0.05386114493012428,0.04172005504369736,-0.15267711877822876,0.013969405554234982,0.1653493195772171,0.11189600825309753,0.16466926038265228,-0.04513319581747055,0.011804466135799885,0.038049306720495224,-0.025618374347686768,0.002846292220056057,0.07085447758436203,-0.06560131907463074,0.24981969594955444,-0.1409454345703125,0.029296845197677612,-0.15976566076278687,0.10008025914430618,0.1672651171684265,0.07725106179714203,-0.052632734179496765,0.16354207694530487,-0.18503573536872864,-0.15671929717063904,-0.22265221178531647,-0.2413545697927475,0.13261665403842926,-0.1305464655160904,-0.06654397398233414,0.015440138056874275,0.19300194084644318,-0.19867195188999176,-0.05270582064986229,0.0905434861779213,0.0220447089523077,0.17949146032333374,-0.19253768026828766,-0.05192673206329346,-0.10001587867736816,-0.008308310993015766,0.15081879496574402,-0.1890397071838379,-0.0176186915487051,-0.029469745233654976,-0.049876581877470016,0.03335665538907051,0.16237838566303253,0.24053709208965302,0.15782275795936584,0.022492187097668648,0.2279159277677536,-0.04394063353538513,-0.12080132216215134,-0.11638515442609787,-0.1149163469672203,0.07958421111106873,0.09957226365804672,-0.19719858467578888,0.03450268134474754,0.02458762563765049,0.17467977106571198,0.1756090670824051,-0.2265036404132843,0.02457948587834835,0.09462760388851166,-0.05150063708424568,0.024105530232191086,0.0238806065171957,0.08272159844636917,0.23590818047523499,-0.2144307643175125,0.051914192736148834,-0.20804369449615479,-0.08118457347154617,0.342404305934906,0.15273667871952057,-0.2491486519575119,0.17078951001167297,0.24019011855125427,-0.15878215432167053,0.024025240913033485,-0.03951433673501015,0.044302720576524734,-0.18639910221099854,-0.04232623055577278,-0.14655831456184387,-0.26944729685783386,0.19389548897743225,-0.04356258362531662,-0.11094742268323898,-0.18730327486991882,0.18208609521389008,-0.2027820497751236,-0.23417040705680847,-0.25491806864738464,-0.31225907802581787,0.21145033836364746,-0.2852499485015869,0.06183890253305435,-0.1258118897676468,0.0328393317759037,0.08703189343214035,-0.261661171913147,0.18033769726753235,-0.2448568195104599,-0.13351407647132874,-0.06954919546842575,-0.11003660410642624,0.1066330224275589,0.16225969791412354,0.04206802695989609,-0.08620066195726395,0.2401813566684723,0.10784106701612473,0.10426846891641617,-0.09626970440149307,0.22506150603294373,0.21952790021896362,0.08183618634939194,-0.04151096194982529,-0.2188994437456131,0.003293626941740513,0.15641725063323975,0.1420632302761078,0.00706116296350956,0.17550234496593475,-0.1827312558889389,0.1461576223373413,-0.25024905800819397,0.2560388743877411,-0.002795197069644928,0.134257510304451,0.15761315822601318,-0.02826894447207451,-0.1436944156885147,0.09337244927883148,-0.25147950649261475,0.10960736125707626,-0.20167434215545654,0.1178993433713913,0.05030510947108269,-0.14006268978118896,0.27011123299598694,0.10920529812574387,-0.13982531428337097,0.38391345739364624,-0.27408072352409363,-0.13901320099830627,-0.14744426310062408,-0.033489570021629333,0.06767463684082031,-0.09777339547872543,-0.21048852801322937,0.01417273748666048,0.1735079437494278,0.25993096828460693,0.07309076935052872,0.009681199677288532,0.03777517378330231,-0.2668004035949707,0.07113800942897797,-0.24020905792713165,-0.08256518840789795,-0.02699139155447483,-0.019770000129938126,-0.12911128997802734,-0.1007881686091423,0.048346973955631256,-0.1379573494195938,-0.03474818170070648,-0.03920672833919525,0.09388604760169983,0.035747796297073364,0.10628435015678406,-0.08592545986175537,-0.11529050022363663,0.18794851005077362,0.039532311260700226,-0.050126802176237106,0.10860639810562134,-0.03356853872537613,-0.06119297817349434,-0.10524493455886841,-0.08670556545257568,-0.017050161957740784,-0.022677110508084297,0.07822120934724808,-0.06590781360864639,-0.09248030185699463,0.10795547813177109,-0.06081492453813553,-0.030476810410618782,-0.1681281179189682,-0.04063444212079048,-0.1391463279724121,-0.01685262657701969,-0.1398458182811737,-0.06687184423208237,0.08616459369659424,-0.043985962867736816,0.008446650579571724,-0.02572793886065483,0.005591049324721098,-0.07846692949533463,0.10715656727552414,-0.11192664504051208,0.20024517178535461,0.10752905905246735,-0.6547949910163879,0.14222851395606995,-0.07456975430250168,-0.07626675069332123,-0.051389675587415695,-0.02477521076798439,0.08263802528381348,-0.21209117770195007,0.18431280553340912,-0.1265323907136917,0.13048142194747925,-0.031353820115327835,0.09165956825017929,-0.03581571951508522,0.0249595046043396,-0.08069328963756561,0.10228231549263,-0.058296408504247665,0.0004151744651608169,-0.21310220658779144,0.3092089891433716,-0.09359360486268997,0.12702055275440216,-0.018078189343214035,0.1666257530450821,-0.012304945848882198,-0.10834579169750214,-0.03547132760286331,0.003795828204602003,0.03758508712053299,-0.18018966913223267,0.16897813975811005,0.20880845189094543,0.20838920772075653,0.11041329801082611,0.1540035903453827,0.03177882358431816,-0.041044484823942184,-0.09437341243028641,-0.14827017486095428,-0.03527028113603592,0.09736551344394684,-0.03901151195168495,-0.05390876159071922,0.023853406310081482,-0.1035766527056694,-0.07850132137537003,0.0997760221362114,0.12282733619213104,0.19491459429264069,-0.06549184024333954,0.0021515642292797565,0.10646961629390717,-0.005901103839278221,-0.07036623358726501,0.11164364218711853,-0.011275194585323334,-0.1614537388086319,0.16467690467834473,-0.17370060086250305,-0.09424950927495956,-0.13223446905612946,0.030511120334267616,0.1313275396823883,-0.021759532392024994,-0.04881063103675842,0.07067752629518509,-0.059728287160396576,0.4599948227405548,0.08521576970815659,0.01770094595849514,0.15562334656715393,-0.004135027062147856,-0.03833804279565811,0.1860855519771576,0.09657963365316391,0.012299488298594952,-0.10879456251859665,-0.00791704561561346,0.023072725161910057,0.24640238285064697,0.13221128284931183,-0.12145757675170898,0.03957058861851692,-0.12133397907018661,-0.025701500475406647,-0.1377568542957306,0.10157397389411926,0.10040991008281708,-0.16124634444713593,0.036362405866384506,-0.02377438172698021,-0.11517155915498734,0.07878260314464569,0.04974234104156494,-0.3145686089992523,-0.12070909142494202,-0.16400426626205444,0.12410051375627518,0.29179954528808594,-0.2071095108985901,-0.3998771607875824,-0.05970626324415207,-0.09656072407960892,0.17730273306369781,0.12847279012203217,-0.007707252167165279,-0.03930553048849106,-0.04412516579031944,-0.047639865428209305,-0.05256170034408569,-0.144367516040802,-0.18264512717723846,-0.301291823387146,-0.22773349285125732,0.050530724227428436,0.24284763634204865,0.2692761719226837,0.15813839435577393,-0.007892167195677757,-0.16174492239952087,0.09210531413555145,0.09839611500501633,0.10043693333864212,0.0668286606669426,0.1316501796245575,0.17016109824180603,0.11372324824333191,0.11611920595169067,-0.13720013201236725,-0.05434105172753334,-0.047209810465574265,0.02056078426539898,0.018279854208230972,-0.03848438709974289,-0.06879383325576782,0.11760052293539047,0.08383923768997192,-0.002671878319233656,0.19459713995456696,0.0905444324016571,0.20971457660198212,-0.28169679641723633,-0.3947935700416565,0.22600527107715607,0.05008438602089882,0.05728539451956749,0.018551312386989594,0.011869656853377819,-0.20846326649188995,0.0323825404047966,-0.03594112768769264,0.09992469102144241,0.13588522374629974,-0.0663997158408165,0.26356807351112366,0.012902983464300632,-0.011483159847557545,0.16488461196422577,-0.12768615782260895,-0.10047010332345963,-0.00837485771626234,-0.0534730963408947,0.18696708977222443,-0.07369904220104218,0.01623600162565708,-0.14556503295898438,-0.1272437870502472,0.09599191695451736,-0.06285635381937027,-0.19177864491939545,0.0073548839427530766,0.0628029853105545,0.013774550519883633,0.14262071251869202,0.1522127091884613,-0.13438138365745544,-0.04255737364292145,-0.08299705386161804,0.048608746379613876,0.09208458662033081,-0.03205670416355133,0.2338816523551941,-0.16736942529678345,-0.04709533601999283,0.2940806448459625,-0.08182531595230103,-0.04935372620820999,0.03392453491687775,0.1388363540172577,0.021612780168652534,0.1990867257118225,0.07152416557073593,0.07613806426525116,-0.2523564398288727,-0.21328327059745789,0.18716579675674438,-0.11443348228931427,-0.005790241062641144,0.14077706634998322,-0.011003303341567516,0.008729849942028522,-0.1709100902080536,-0.23842063546180725,-0.17236773669719696,0.10549099743366241,0.02560550533235073,0.2024286836385727,0.11164136976003647,0.02396267279982567,0.1550324708223343,0.01573844440281391,0.13065990805625916,0.1730821430683136,-0.21191982924938202,0.027355395257472992,-0.008262043818831444,-0.17097178101539612,-0.19062498211860657,0.032365042716264725,0.048553988337516785,-0.02012445032596588,-0.17420782148838043,-0.05627528950572014,0.03682001680135727,0.05344497412443161,0.037648025900125504,0.02127508632838726,-0.006608623079955578,0.10480120033025742,0.25398391485214233,0.1411924511194229,0.006366824731230736,-0.07346859574317932,-0.15171192586421967,-0.0008893324993550777,0.0911044031381607,0.026358401402831078,0.01481414120644331,0.0980786457657814,-0.10656889528036118,0.21457558870315552,-0.002041484694927931,-0.09278876334428787,-0.20778702199459076,-0.05149741843342781,0.06575196981430054,0.017343295738101006,-0.11613631248474121,-0.003890494117513299,0.1747998595237732,0.006304400973021984,-0.04989456757903099,-0.11002722382545471,0.08363215625286102,0.034407876431941986,-0.032645098865032196,-0.009217685088515282,-0.018184997141361237,-0.29842230677604675,0.034412287175655365,-0.20423239469528198,-0.05510597676038742,0.005267926957458258,-0.11498243361711502,0.11460832506418228,0.09110583364963531,-0.1636069267988205,-0.165523961186409,-0.09115469455718994,0.1418371945619583,-0.1336463987827301,0.08267100155353546,-0.08104895055294037,-0.2019103318452835,0.008560306392610073,-0.11275231093168259,0.006111199967563152,-0.11489976942539215,0.08341896533966064,0.016642572358250618,-0.0649455189704895,0.12120275944471359,-0.031415220350027084,-0.1687571257352829,0.046635951846838,-0.15164504945278168,0.05655451491475105,0.012429558672010899,0.06599973142147064,-0.16503795981407166,0.0130317946895957,0.26938357949256897,-0.012892700731754303,-0.24771693348884583,0.10406164079904556,0.02692868560552597,0.06777190417051315,-0.19825823605060577,0.0706021785736084,-0.033610180020332336,0.024850578978657722,0.05846075341105461,0.1265992969274521,-0.048129208385944366,0.08121166378259659,0.05248482897877693,0.2579411268234253,0.12241186201572418,0.07143191993236542,-0.06921610236167908,-0.06999821215867996,-0.02293180301785469,-0.12331744283437729,0.03770717605948448,-0.04086906835436821,-0.04058605059981346,0.04431850463151932,-0.1525922417640686,0.038792356848716736,0.10889870673418045,-0.16250450909137726,0.12730345129966736,-0.13704170286655426,-0.03361811116337776,-0.005400205496698618,0.11753199249505997,-0.07964793592691422,-0.058346208184957504,0.03745000809431076,0.09557071328163147,-0.10181800276041031,-0.03881433978676796,0.003167548915371299,-0.1308024376630783,-0.02213234268128872,-0.007618652656674385,-0.013568081893026829,-0.026712842285633087,-0.08272474259138107,-0.16419421136379242,-0.09810756891965866,0.05580790713429451,0.18514664471149445,-0.07308780401945114,0.10423306375741959,-0.10438733547925949,0.13760288059711456,-0.04760664328932762,0.07842450588941574,0.15110090374946594,0.15655310451984406,-0.20899663865566254,-0.10978174954652786,-0.00839979387819767,0.19739066064357758,-0.3293679654598236,-0.08285084366798401,0.1060742661356926,-0.08080510050058365,0.03034471720457077,-0.006869070697575808,-0.18725784122943878,-0.0539398118853569,0.2544337213039398,0.008601109497249126,0.15313993394374847,-0.01578104868531227,0.0754438042640686,-0.18004210293293,0.10735329985618591,0.11777842044830322,-0.009151835925877094,0.09420838207006454,0.154754176735878,-0.010008192621171474,-0.1463036984205246,0.18833152949810028,-0.0436929427087307,0.16608946025371552,0.15910573303699493,0.1524982452392578,0.2723952531814575,0.2886473536491394,0.07958675920963287,0.04495580121874809,0.03959331288933754,-0.10229875147342682,-0.27488958835601807,-0.1460869014263153,-0.18944787979125977,0.02588251233100891,0.09355831891298294,0.057183969765901566,0.06151474639773369,0.11740513890981674,0.15250904858112335,-0.1396096795797348,-0.12688536942005157,-0.16821198165416718,-0.06311499327421188,-0.05645992234349251,-0.05547547712922096,-0.1357702761888504,-0.19636422395706177,-0.17335724830627441,-0.14006027579307556,-0.01122159045189619,-0.14134147763252258,0.0941273644566536,-0.08529678732156754,-0.08128046244382858,-0.051057275384664536,-0.14408908784389496,0.10952789336442947,0.05264129117131233,-0.2191711664199829,0.008994469419121742,0.0090336250141263,0.00019306883041281253,-0.041830580681562424,-0.16580405831336975,0.08078763633966446,-0.09729573875665665,-0.04975996911525726,-0.07878047227859497,0.09382797032594681,-0.09430833905935287,-0.1291048526763916,0.029653506353497505,-0.05369041860103607,0.1255670189857483,-0.46268364787101746,0.08345985412597656,0.03326224535703659,-0.20544762909412384,-0.27468499541282654,-0.11928022652864456,0.09715120494365692,-0.20529964566230774,-0.07056787610054016,0.1387973427772522,0.015472408384084702,0.09087865799665451,0.17154760658740997,-0.03283001855015755,-0.011578521691262722,0.11362157762050629,0.16546843945980072,-0.1106218621134758,0.031057456508278847,0.06548819690942764,-0.10702703893184662,-0.1451108306646347,0.06526344269514084,0.09308913350105286,-0.0998530387878418,0.14896246790885925,0.17909789085388184,-0.06300446391105652,-0.06145821884274483,0.04227897524833679,0.029873134568333626,-0.117721326649189,-0.12614992260932922,-0.03391934931278229,-0.04802337661385536,-0.1104632243514061,0.10677798092365265,0.05961915850639343,-0.08432382345199585,0.14999426901340485,0.11767049133777618,-0.057816896587610245,0.15072636306285858,0.05296773090958595,-0.18963803350925446,-0.0033293389715254307,0.10510660707950592,0.07780826836824417,-0.26278695464134216,0.028578631579875946,-0.1227933019399643,-0.21467788517475128,0.08439324051141739,0.022458329796791077,0.15361124277114868,0.10430862754583359,-0.028644155710935593,0.0931273102760315,0.17084583640098572,-0.01790272817015648,0.12147749960422516,-0.1322832852602005,0.027731575071811676,0.052153293043375015,0.01865244098007679,-0.015109298750758171,-0.0014971590135246515,-0.25774168968200684,-0.0233517624437809,-0.22100743651390076,-0.0020866692066192627,0.1641654074192047,0.14962714910507202,0.060817115008831024,-0.06378413736820221,-0.1564139574766159,-0.08735908567905426,0.05664015933871269,-0.0588720329105854,-0.1718604564666748,0.032991379499435425,-0.06655867397785187,0.021616356447339058,-0.04732796922326088,-0.007662837393581867,0.0904083251953125,-0.13158780336380005,0.09107507020235062,0.05451718717813492,0.010667864233255386,-0.06466610729694366,0.014639435335993767,-0.14479398727416992,0.19715148210525513,-0.12056360393762589,-0.12112525850534439,0.22107110917568207,-0.04333982244133949,-0.16475240886211395,-0.0566919706761837,-0.013811185024678707,0.04531994089484215,0.1399439573287964,0.16751426458358765,0.0761357769370079,-0.13531139492988586,0.011190371587872505,-0.1924351304769516,-0.008963650092482567,-0.018787091597914696,-0.007334270980209112,-0.04108195751905441,0.038945507258176804,0.08499187976121902,0.03182515501976013,-0.18402643501758575,0.20443592965602875,0.08641958981752396,-0.03301731124520302,0.2797420918941498,0.014268740080296993,0.005413598380982876,-0.07467803359031677,0.028095465153455734,0.13057531416416168,-0.10598307102918625,0.0840296521782875,-0.1085798367857933,0.08922979980707169,-0.010536722838878632,0.1824890673160553,0.2397829294204712,0.05198388919234276,0.0248312596231699,-0.16562168300151825,0.07201894372701645,0.16858269274234772,-0.005213039927184582,-0.12549050152301788,0.18666797876358032,0.07809276133775711,0.06947728246450424,-0.04405014216899872,-0.06002628430724144,-0.0026199379935860634,-0.018048880621790886,-0.10786081850528717,0.2101488709449768,-0.061511795967817307,0.0023032426834106445,-0.03773452714085579,0.11565934866666794,-0.2436424195766449,-0.03595523536205292,-0.001457158476114273,-0.16913457214832306,-0.1171860620379448,-0.183745875954628,-0.13658256828784943,0.15261726081371307,-0.13797280192375183,0.05129002779722214,0.010790182277560234,0.19018857181072235,0.21604052186012268,0.012890125624835491,0.14380209147930145,0.15085797011852264,0.07253483682870865,0.1306852549314499,0.19394280016422272,-0.014000285416841507,-0.03579749912023544,-0.06590430438518524,0.02630843035876751,0.09473994374275208,0.21251477301120758,0.16717638075351715,-0.053438931703567505,-0.07564366608858109,-0.0972343310713768,-0.19449470937252045,-0.14552637934684753,0.01566416397690773,-0.1044064536690712,0.1922205686569214,-0.022029682993888855,0.04703029617667198,-0.0034734997898340225,-0.02653254196047783,-0.39405372738838196,-0.18567325174808502,-0.07926628738641739,0.0043333591893315315,-0.03961321711540222,0.04450998827815056,-0.06493964791297913,-0.01620856672525406,0.15725238621234894,-0.04297224059700966,-0.015335626900196075,0.14170575141906738,0.09962692856788635,-0.060243409126996994,0.34086066484451294,-0.15940870344638824,-0.16740025579929352,-0.005768761038780212,-0.00036527070915326476,-0.03665011376142502,-0.18533748388290405,0.14789998531341553,-0.18096290528774261,-0.5558093190193176,-0.10849771648645401,-0.03138745576143265,-0.19198502600193024,0.08681057393550873,0.014597552828490734,-0.0029612365178763866,-0.051183633506298065,-0.14395685493946075,0.09109209477901459,0.0007819104939699173,-0.006474911700934172,-0.07548439502716064,-0.16466447710990906,-0.13114064931869507,0.03513610363006592,-0.10143128782510757,0.07775107026100159,-0.01694910041987896,-0.15359878540039062,-0.06742745637893677,-0.06704168021678925,-0.1933959424495697,-0.1369064301252365,0.12034820020198822,0.11548569053411484,-0.04004605859518051,-0.08513975143432617,0.11778926849365234,0.08522022515535355,-0.13398125767707825,-0.13630811870098114,-0.046661991626024246,0.04354752600193024,-0.08482041954994202,-0.006894583348184824,0.11791840195655823,-0.09597820788621902,0.04269259795546532,0.18684260547161102,-0.13175924122333527,0.12055795639753342,0.08205566555261612,-0.07892360538244247,-0.004424469545483589,-0.010443111881613731,0.2522725760936737,0.00020258470613043755,-0.04337235540151596,0.11688575893640518,0.11240269988775253,0.19078189134597778,0.10445790737867355,0.024265071377158165,0.13335444033145905,0.05889403074979782,0.11664243042469025,0.029068414121866226,-0.06868414580821991,0.007133788894861937,-0.11591231822967529,-0.013648430816829205,-0.035696424543857574,0.1557663381099701,-0.1623060405254364,0.20033150911331177,0.008975625038146973,-0.1778402328491211,0.3398503065109253,-0.16892926394939423,-0.033719874918460846,0.21793165802955627,-0.06160878762602806,0.15724816918373108,0.15382260084152222,-0.08423339575529099,0.0022529568523168564,-0.16019493341445923,0.05482972413301468,0.07131359726190567,0.020303769037127495,0.01803336665034294,-0.044080354273319244,0.10475398600101471,-0.15125149488449097,-0.029562190175056458,-0.17005419731140137,0.16290654242038727,0.12257103621959686,0.09270863234996796,0.04931621998548508,-0.0801222175359726,0.0808078721165657,-0.015569078736007214,0.11468268185853958,-0.14784123003482819,-0.0673491582274437,-0.5638136863708496,0.02471024915575981,0.8950303792953491,0.01854962669312954,0.41802674531936646,0.03999626636505127,-0.47630637884140015,-0.014875279739499092,0.15544573962688446,0.07252565771341324,-0.19098053872585297,-0.15105028450489044,-0.04292929917573929,0.12932328879833221,0.5086559057235718,0.04093153402209282,-0.7365869879722595,-0.07555650174617767,0.8567250370979309,-0.026664817705750465,0.5464543700218201,-0.03393281251192093,0.0004158262745477259,0.0364755280315876,-0.2877994775772095,0.0009489731164649129,0.25727352499961853,-0.07327885180711746,-0.6366767883300781,0.12795618176460266,0.23400437831878662,-0.09235861897468567,-0.04894448071718216,-0.2007988840341568,0.17262452840805054,0.2728584110736847,0.10864538699388504,0.12432867288589478,0.2663922607898712,0.14778760075569153,0.14313551783561707,0.0630195140838623,-0.2926373779773712,-0.005519438534975052,-0.09648322314023972,-0.0750294104218483,0.1759093999862671,0.19144919514656067,0.14457955956459045,0.024565955623984337,0.0733199492096901,0.13566234707832336,0.11042080819606781,-0.22883793711662292,-0.32178738713264465,0.1391548067331314,0.11015664786100388,-0.01587027683854103,0.21351060271263123,0.2181721031665802,0.12693271040916443,0.0022032877895981073,0.08785326033830643,-0.2661433219909668,0.16992348432540894,-0.08883645385503769,0.18832215666770935,-0.1345112919807434,-0.00446658581495285,-0.14866936206817627,-0.08529264479875565,0.0010711968643590808,-0.3269248604774475,0.09606745094060898,0.18563976883888245,-0.16979767382144928,-0.0865732803940773,-0.014670200645923615,0.15770290791988373,0.008897575549781322,0.09622699022293091,0.1851429045200348,-0.08740480989217758,0.1376672238111496,-0.2533971965312958,0.2053205370903015,0.22900032997131348,-0.1437361091375351,0.04778078570961952,0.16242417693138123,0.14644506573677063,0.05280876159667969,-0.013020043261349201,-0.010505604557693005,0.04291928559541702,-0.1522725373506546,0.30031952261924744,-0.23761729896068573,0.040995363146066666,-0.12381865829229355,0.11954375356435776,-0.055921994149684906,0.033015187829732895,-0.059634093195199966,-0.14044535160064697,0.06914425641298294,-0.031201880425214767,-0.1639087051153183,0.07243853807449341,-0.22302700579166412,-0.0469089113175869,0.06385302543640137,0.0072927954606711864,-0.32589372992515564,-0.03173455968499184,-0.14278189837932587,0.295322448015213,0.006906169466674328,-0.07036137580871582,0.005271099507808685,0.15851853787899017,0.31610313057899475,-0.10076230764389038,0.14833369851112366,0.3655491769313812,0.03867446631193161,0.12669946253299713,0.04510263353586197,-0.13146473467350006,0.12248760461807251,0.21196764707565308,-0.06590759009122849,0.006862976588308811,-0.014675868675112724,-0.15963231027126312,0.088004469871521,0.17344234883785248,-0.018109148368239403,0.06571608036756516,0.03824353590607643,0.12954221665859222,0.10850061476230621,0.18158234655857086,0.1270674169063568,-0.18262013792991638,-0.2678605318069458,0.12500225007534027,-0.1713777333498001,0.051499731838703156,-0.14289559423923492,0.09748611599206924,0.14338749647140503,0.20767979323863983,0.20257124304771423,-0.11172916740179062,0.19141632318496704,0.13367292284965515,-0.08300632238388062,-0.1540958434343338,0.30606797337532043,-0.09514262527227402,0.35713255405426025,0.1375827044248581,0.005816143471747637,-0.2069757580757141,0.0645575299859047,-0.1296127438545227,-0.008955837227404118,-0.16770976781845093,0.1789393126964569,-0.136113241314888,-0.07322130352258682,-0.029517823830246925,0.07036042213439941,0.22962291538715363,-0.14018034934997559,-0.3776487410068512,0.08112085610628128,0.1859450787305832,0.18605154752731323,-0.03579803928732872,-0.12142043560743332,0.06211130693554878,0.2267850935459137,0.21027472615242004,-0.032297492027282715,-0.24149011075496674,-0.00636317441239953,0.36204081773757935,0.020783212035894394,0.2656375467777252,-0.1695067435503006,-0.1383717805147171,-0.06241365522146225,0.1937454640865326,-0.06924616545438766,0.01349672768265009,-0.0018196040764451027,0.29956260323524475,-0.06248199939727783,-0.2703659236431122,0.043717026710510254,0.08630292862653732,-0.31065380573272705,0.0003249351866543293,0.23487980663776398,0.04473285749554634,-0.08560474216938019,-0.11961667984724045,0.17044185101985931,-0.09520642459392548,0.22282573580741882,0.28053757548332214,0.12028868496417999,-0.1313267946243286,-0.19883322715759277,-0.2036580592393875,0.2777159810066223,-0.10925658047199249,-0.3018375635147095,-0.031024068593978882,0.13822700083255768,-0.23907320201396942,-0.30309993028640747,0.025442959740757942,-0.06688383221626282,0.13034942746162415,0.12739194929599762,-0.1493341028690338,-0.18212394416332245,0.19115881621837616,-0.14274843037128448,-0.07843923568725586,0.1583993285894394,-0.024489931762218475,0.11927799880504608,0.09921184182167053,-0.15487568080425262,-0.17505167424678802,0.15116015076637268,-0.15823736786842346,0.139950692653656,0.04371749982237816,-0.10233163088560104,0.020820114761590958,-0.13304506242275238,0.1246224045753479,-0.12053227424621582,0.01755417324602604,-0.3171713650226593,0.11284874379634857,-0.01108909584581852,-0.24437996745109558,0.07299947738647461,0.1203828975558281,0.20891478657722473,0.11808551102876663,-0.25835782289505005,-0.13798968493938446,-0.16623453795909882,0.1787848174571991,-0.34323740005493164,0.04311018064618111,0.25866377353668213,0.1478886902332306,0.22208818793296814,-0.019060930237174034,0.180607870221138,0.10607044398784637,-0.3478333652019501,-0.053314294666051865,-0.0009314953349530697,-0.044086650013923645,-0.2720107138156891,-0.07199026644229889,-0.1315750926733017,0.030679676681756973,-0.31265661120414734,0.11317113786935806,0.284046471118927,0.2592187225818634,0.28495052456855774,-0.36223429441452026,0.06353134661912918,-0.017675865441560745,0.07774482667446136,0.05635524541139603,-0.0032036923803389072,0.1363278478384018,0.09215658158063889,-0.1368248015642166,0.2348553091287613,0.14392587542533875,0.11197216808795929,-0.2525303065776825,-0.18142260611057281,0.05502742528915405,-0.0035590785555541515,0.185735285282135,0.1320830136537552,0.17868678271770477,0.07848287373781204,0.07480355352163315,0.033128611743450165,0.06765793263912201,-0.015709854662418365,-0.040745705366134644,0.12675417959690094,0.11158149689435959,0.06267352402210236,0.006527537014335394,-0.06982816010713577,0.05325488746166229,0.06240634247660637,0.0083227027207613,-0.18225260078907013,-0.1498921662569046,0.1102658361196518,0.0015287825372070074,0.11941371858119965,0.15583951771259308,-0.02505272626876831,-0.003772955620661378,-0.12819434702396393,0.10283805429935455,0.1395537108182907,-0.04435247555375099,-0.14889520406723022,-0.154288187623024,-0.0800337865948677,0.01658312976360321,0.08025690913200378,-0.11286987364292145,-0.07923194020986557,0.11313746869564056,0.013252691365778446,-0.1114230826497078,-0.2147524058818817,-0.1459141969680786,0.08822710067033768,-0.05288590490818024,0.006735853850841522,-0.025836432352662086,-0.13508686423301697,-0.17683856189250946,-0.06268669664859772,-0.11197782307863235,-0.03645749017596245,0.03866438567638397,0.09974534809589386,0.11123800277709961,0.07860656827688217,-0.1577392965555191,0.29439204931259155,0.2424197942018509,-0.21914257109165192,-0.0753326565027237,-0.11311161518096924,0.05581504851579666,0.0030144699849188328,0.2260323017835617,0.06327922642230988,0.022072166204452515,0.0244687981903553,0.17725996673107147,-0.041743382811546326,-0.31687596440315247,-0.18036620318889618,-0.1547764092683792,0.11395677179098129,-0.06826625019311905,-0.1301126480102539,-0.2718285620212555,-0.026171494275331497,0.14187169075012207,0.2956179678440094,-0.1680871993303299,0.015070674009621143,0.017128143459558487,0.08377306163311005,-0.018031872808933258,0.17730987071990967,-0.07235867530107498,0.1307290941476822,0.04250434413552284,-0.15770463645458221,-0.07556560635566711,-0.018580127507448196,-0.037238117307424545,-0.13231633603572845,0.14811217784881592,-0.1929362267255783,-0.03585381433367729,-0.06178925931453705,0.04064122959971428,-0.200838103890419,-0.22818434238433838,-0.06534691900014877,-0.0742821991443634,-0.04143794625997543,0.11255311965942383,0.16229629516601562,0.02483493834733963,0.08468061685562134,0.019684653729200363,0.05824897065758705,0.16371938586235046,-0.1821308434009552,-0.09328599274158478,-0.1535247266292572,0.0661403089761734,-0.06359275430440903,-0.07677385210990906,0.009195431135594845,-0.14087191224098206,0.26099762320518494,0.15617616474628448,0.14772333204746246,-0.006578793283551931,0.12765255570411682,0.12440025061368942,0.12017457187175751,-0.06078348308801651,-0.08111622929573059,0.1413486748933792,-0.03911001980304718,-0.18609321117401123,0.04491613432765007,0.023630386218428612,0.002695081289857626,-0.020541643723845482,-0.12714029848575592,-0.3989657461643219,-0.08415183424949646,0.07685064524412155,0.06010958179831505,0.035651035606861115,-0.07642888277769089,-0.025374745950102806,-0.0003906232595909387,0.3277246057987213,-0.010587462224066257,0.16371358931064606,-0.06829822063446045,0.19660882651805878,0.03672458976507187,0.02178715169429779,0.1463126391172409,-0.19477006793022156,-0.061448801308870316,0.026912996545433998,0.04955240711569786,0.04198281466960907,-0.05621423199772835,-0.0733814388513565,0.10276954621076584,0.09331910312175751,-0.06655285507440567,0.06455971300601959,0.10505089908838272,-0.03391994535923004,-0.07207198441028595,-0.2116689831018448,0.1227281466126442,0.10045143216848373,-0.007986429147422314,0.01187803689390421,-0.014994526281952858,-0.02652846649289131,0.18374858796596527,0.09470590204000473,-0.09634464979171753,-0.17763392627239227,-0.18422523140907288,0.05129438638687134,0.0276157446205616,-0.044500045478343964,0.11751901358366013,-0.13347704708576202,0.039114877581596375,0.1474243700504303,0.07941453158855438,-0.044196195900440216,0.077386274933815,-0.200574591755867,0.053088925778865814,0.09024962782859802,-0.1477465182542801,-0.32128995656967163,-0.13085462152957916,0.038983315229415894,-0.22120033204555511,-0.08406731486320496,-0.015476143918931484,0.033948592841625214,-0.10071709752082825,-0.03402060270309448,0.08017139881849289,-0.013362197205424309,0.05278671160340309,-0.04025699570775032,0.12451060861349106,-0.07813335210084915,0.11885439604520798,-0.02013874053955078,0.030799206346273422,0.08263061940670013,-0.09417226910591125,-0.06938716769218445,-0.11549881100654602,0.10043084621429443,0.178436279296875,-0.05299562215805054,-0.0420617051422596,0.02588103525340557,-0.03741728141903877,-0.015508334152400494,-0.076378732919693,-0.0008386790286749601,0.16642265021800995,-0.062445223331451416,-0.18588969111442566,-0.10772157460451126,0.06197715178132057,0.0931306853890419,0.11087045818567276,-0.013539740815758705,-0.05213510990142822,0.0008685016073286533,-0.059695661067962646,-0.1679225116968155,-0.0539766289293766,-0.12425210326910019,-0.0976174995303154,-0.04009053856134415,-0.04371122643351555,-0.13584411144256592,-0.029936980456113815,0.12450593709945679,-0.1187666729092598,-0.12516449391841888,0.09837733954191208,0.025605343282222748,-0.13639205694198608,-0.033652376383543015,-0.12217544764280319,0.10381995886564255,-0.15589721500873566,-0.03812350332736969,0.12312987446784973,0.07057259231805801,-0.08677041530609131,0.07894401997327805,-0.12102916091680527,0.0805000364780426,-0.13453906774520874,-0.08975110203027725,-0.14802531898021698,-0.15700837969779968,0.102899931371212,-0.006055635865777731,0.06671931594610214,-0.0628315731883049,0.02406000718474388,-0.11690159142017365,-0.09181028604507446,-0.10853973031044006,0.176544189453125,0.012606611475348473,0.1449422687292099,0.017698880285024643,-0.023305460810661316,-0.016030043363571167,-0.055856313556432724,-0.07241228967905045,0.06203002110123634,0.0015203537186607718,0.16981320083141327,-0.1466575413942337,-0.13927380740642548,-0.15433254837989807,-0.01325717568397522,-0.005990186706185341,-0.07118675857782364,-0.09538087248802185,-0.12069158256053925,-0.07116294652223587,0.09968691319227219,-0.059142742305994034,-0.0513460673391819,0.2457442581653595,0.21168644726276398,-0.07034427672624588,0.017601072788238525,0.02210293337702751,0.11954912543296814,0.1441408395767212,0.2610732614994049,0.10288463532924652,0.030942054465413094,-0.004069710150361061,-0.10128512978553772,-0.05356699973344803,0.05480508133769035,0.009295541793107986,-0.20210374891757965,-0.2418137937784195,0.08468310534954071,-0.15372857451438904,-0.11262258887290955,-0.05643173307180405,0.015838386490941048,-0.07837097346782684,-0.11297564208507538,0.10109445452690125,0.13058564066886902,0.030292240902781487,-0.10674012452363968,0.04860781505703926,0.03796226903796196,0.2465871125459671,0.130207359790802,0.09615916758775711,0.12611863017082214,-0.128444641828537,-0.015663709491491318,0.28288590908050537,-0.007043427787721157,-0.05170730873942375,-0.06525975465774536,0.04549306631088257,-0.09218867123126984,0.040526796132326126,0.18006645143032074,0.20756268501281738,-0.06506886333227158,-0.0247787032276392,-0.06727791577577591,0.05884246900677681,-0.021928826346993446,-0.07289429754018784,0.21814396977424622,-0.1885441094636917,0.1236819475889206,-0.059508249163627625,-0.17834974825382233,0.050211627036333084,0.016600273549556732,0.10439831763505936,-0.03761803358793259,-0.07889380306005478,0.19161388278007507,0.09509678930044174,-0.3017624020576477,-0.2936909794807434,-0.051568806171417236,-0.049765802919864655,-0.18637119233608246,0.027087191119790077,-0.24410195648670197,0.011163226328790188,0.010474915616214275,0.13072659075260162,-0.0495724193751812,-0.07024864852428436,-0.07243356108665466,0.03540017455816269,0.22362984716892242,-0.07351992279291153,-0.12469492852687836,-0.22253431379795074,-0.006047244183719158,-0.048568084836006165,0.07319219410419464,0.027888301759958267,-0.0716225653886795,0.03141599893569946,0.049732353538274765,-0.21692369878292084,-0.14910821616649628,-0.32565632462501526,-0.18006804585456848,0.13449329137802124,-0.33138391375541687,-0.11430125683546066,0.1616968810558319,-0.12722308933734894,0.17524178326129913,0.012779492884874344,0.09365856647491455,-0.1418398767709732,0.08961529284715652,-0.006050300784409046,-0.10345038026571274,0.0840882956981659,-0.1519288718700409,-0.11132866144180298,-0.1314326673746109,-0.16422311961650848,-0.03642405942082405,0.026605181396007538,-0.019820617511868477,0.07796088606119156,-0.0617002435028553,0.02601635828614235,-0.0248559582978487,-0.049781206995248795,0.013470398262143135,0.002703741192817688,-0.012811526656150818,-0.04008863866329193,-0.015291503630578518,-0.09428504854440689,0.10878119617700577,0.19729050993919373,-0.07596150785684586,0.038195185363292694,-0.044938113540410995,-0.07659728825092316,0.010954536497592926,-0.006911375094205141,-0.20439662039279938,0.13056185841560364,0.026581060141324997,-0.09484528750181198,-0.09281901270151138,0.1044677123427391,-0.028741970658302307,0.03344758599996567,0.1907982975244522,0.04494446516036987,0.014682609587907791,-0.021363142877817154,0.2611082196235657,-0.08754876255989075,-0.04593272879719734,-0.4163031280040741,-0.05652782693505287,-0.21540114283561707,-0.3526642620563507,0.1052236407995224,0.020794985815882683,0.19910697638988495,-0.13507820665836334,-0.2653295695781708,-0.27941620349884033,-0.31644079089164734,-0.23341859877109528,-0.10610243678092957,0.1008211001753807,0.07871203124523163,-0.037339046597480774,0.5127760767936707,0.35896870493888855,0.48128002882003784,0.25563544034957886,0.25640103220939636,0.3145132064819336,0.08484798669815063,0.010411357507109642,-0.06175882741808891,-0.046089060604572296,-0.060449469834566116,-0.2024063616991043,-0.02155723236501217,0.17262014746665955,-0.07137496024370193,-0.28910112380981445,-0.480675607919693,-0.40585145354270935,0.20600229501724243,0.10811560600996017,0.0951053649187088,0.09130768477916718,0.26098698377609253,0.05434774234890938,0.11429339647293091,0.14370518922805786,0.169442281126976,0.38555672764778137,0.18381918966770172,0.3236117660999298,0.02570354752242565,-0.2054617553949356,-0.09424527734518051,-0.1941162347793579,-0.07663731276988983,-0.0026222264859825373,0.017915399745106697,-0.01676030457019806,0.05697760358452797,0.2274601310491562,0.10105619579553604,-0.11990013718605042,-0.16238446533679962,-0.11665087193250656,-0.06756201386451721,-0.12809687852859497,-0.0008931627962738276,0.1790570467710495,0.10671292990446091,0.10726606100797653,-0.07840359956026077,-0.1280611753463745,-0.02233637124300003,0.15843555331230164,0.15228672325611115,0.09946008771657944,0.052300553768873215,-0.1610422283411026,-0.024210250005126,0.08525259047746658,0.12262458354234695,0.10035207867622375,-0.060883793979883194,-0.0005835121846757829,0.1007189005613327,-0.08885621279478073,0.06139034032821655,-0.1919056475162506,0.005062776152044535,0.1029837355017662,0.022905873134732246,0.1104261502623558,-0.16971994936466217,0.007283451966941357,0.10405044257640839,-0.12415557354688644,0.07279335707426071,0.18085235357284546,0.026965560391545296,0.19856266677379608,-0.007851902395486832,0.061295244842767715,0.12537164986133575,-0.11836258322000504,0.0462590791285038,0.05790780857205391,0.28771770000457764,-0.09839724004268646,-0.13136149942874908,-0.09749798476696014,-0.12532386183738708,-0.10447554290294647,0.12390758097171783,-0.02490278333425522,-0.04488373175263405,-0.08686961233615875,-0.0022060535848140717,-0.09034565091133118,-0.1492016464471817,0.06551453471183777,0.07121819257736206,0.15443819761276245,-0.14257439970970154,-0.16657590866088867,-0.06406481564044952,-0.07506450265645981,0.16069059073925018,0.12886518239974976,0.1300303041934967,-0.11367758363485336,0.053258221596479416,0.061516791582107544,-0.1143285259604454,0.013117631897330284,0.14821451902389526,0.21446356177330017,-0.060391053557395935,0.09609710425138474,-0.08146153390407562,0.03119528479874134,-0.14789241552352905,-0.017314299941062927,-0.004280786029994488,-0.0986168161034584,0.08252455294132233,0.10011212527751923,0.05532488226890564,0.07223007827997208,0.18110667169094086,-0.03363091126084328,0.06517717242240906,-0.05547403171658516,0.04995560646057129,0.0372513011097908,-0.062423527240753174,-0.14927931129932404,0.009592844173312187,-0.13664202392101288,-0.01093961764127016,0.07927905023097992,-0.08726847171783447,0.3084647059440613,-0.19924350082874298,0.03371740132570267,-0.10868257284164429,0.07240784168243408,-0.06525257229804993,0.1751401573419571,-0.06105703115463257,0.06844764947891235,-0.22228246927261353,0.12590336799621582,-0.14329570531845093,-0.06072455644607544,0.053790852427482605,0.05004052445292473,-0.061866044998168945,-0.0127415731549263,-0.02498188428580761,-0.06851797550916672,-0.045685023069381714,0.08713403344154358,0.026734961196780205,0.033135659992694855,0.004341504070907831,0.13513433933258057,0.034584056586027145,0.05960696563124657,0.06592533737421036,-0.11805076897144318,-0.01587357558310032,0.27804386615753174,-0.015560988336801529,-0.07020687311887741,0.0345359742641449,-0.09682903438806534,0.042118534445762634,0.004743804223835468,0.11967450380325317,-0.03568002209067345,-0.04744440317153931,0.07906485348939896,0.0398288257420063,0.08355329930782318,0.024363461881875992,-0.06355078518390656,0.09841232001781464,-0.05069899559020996,0.13868111371994019,-0.030727090314030647,-0.026465171948075294,0.24078956246376038,-0.146171435713768,0.07925751060247421,0.14061899483203888,-0.15856437385082245,-0.06797792762517929,0.019697263836860657,0.04027034714818001,0.06467563658952713,-0.03136337548494339,-0.0341482050716877,-0.13712331652641296,0.09742750972509384,0.08686091005802155,0.0019306475296616554,0.0829966738820076,0.16303139925003052,0.03238367661833763,-0.04186186566948891,0.04415546730160713,-0.024521905928850174,-0.14363537728786469,-0.06907384842634201,-0.0646679550409317,0.053649138659238815,-0.06837208569049835,-0.08514915406703949,0.20218810439109802,-0.102366603910923,-0.004437800031155348,0.2553200125694275,-0.08516953140497208,-0.09081931412220001,0.24221250414848328,-0.16476213932037354,-0.1922644078731537,0.04331908002495766,-0.0310805756598711,-0.017199989408254623,0.1037132740020752,-0.0659121721982956,0.02718333713710308,0.19896872341632843,-0.1127781942486763,-0.11489909887313843,-0.17521239817142487,0.14054422080516815,-0.054289013147354126,-0.1452045887708664,0.13312259316444397,-0.06301068514585495,0.13541613519191742,-0.027054274454712868,0.050217531621456146,-0.03820911422371864,-0.007875734008848667,0.027605684474110603,0.2867142856121063,-0.10371743887662888,-0.024031581357121468,-0.06607604026794434,0.035212595015764236,-0.14914187788963318,0.21510747075080872,0.08154836297035217,-0.17994572222232819,-0.11716248095035553,-0.10765012353658676,0.016884777694940567,0.06092361733317375,0.00608451385051012,0.15752409398555756,0.07951066642999649,-0.07327204942703247,0.004743494093418121,-0.12616834044456482,0.040313541889190674,0.08479741960763931,-0.04715723916888237,0.012288562022149563,0.09721621870994568,0.1904529631137848,-0.06460898369550705,-0.06691654026508331,0.03995750844478607,-0.13859933614730835,-0.14033165574073792,-0.10171419382095337,0.07463103532791138,-0.01972772739827633,0.09021244943141937,-0.03296830132603645,0.17961500585079193,0.0580957792699337,-0.16693845391273499,0.0035849271807819605,-0.09037914127111435,0.00498298229649663,-0.12382308393716812,-0.10504405200481415,-0.06695962697267532,0.162030428647995,-0.17250294983386993,-0.07211458683013916,-0.14879268407821655,0.04994189739227295,-0.07179170846939087,-0.17810118198394775,0.11218510568141937,-0.19520282745361328,-0.10617174208164215,-0.13326160609722137,-0.031082620844244957,-0.07449204474687576,-0.031282972544431686,-0.22276392579078674,0.06734777241945267,0.006428693421185017,-0.22784878313541412,-0.05701173096895218,0.055166248232126236,-0.03340418264269829,0.26675233244895935,0.02604733593761921,-0.09446363151073456,0.06423687934875488,-0.010112086310982704,0.12710295617580414,-0.0870848149061203,0.24972452223300934,-0.13883286714553833,0.11032331734895706,0.06382454186677933,-0.08500431478023529,-0.21164195239543915,0.16681014001369476,0.5424902439117432,0.03798205032944679,-0.009419874288141727,0.08798694610595703,0.06048796325922012,-0.009035720489919186,0.06089292839169502,0.7141085267066956,-0.04335368424654007,0.5761565566062927,0.004383727442473173,0.3818456828594208,-0.10563118755817413,-0.7915489077568054,0.0918622761964798,-0.5086839199066162,0.1220175102353096,0.12726138532161713,0.08471235632896423,-0.1668906956911087,-0.02901814505457878,-0.16857925057411194,0.03726428747177124,0.3905579447746277,-0.059284698218107224,0.2945553660392761,0.0004178246308583766,-0.6252558827400208,0.053609609603881836,0.2250061184167862,-0.0860043317079544,-0.18165412545204163,-0.05362054705619812,-0.3738556206226349,0.008791418746113777,-0.029687581583857536,0.016105417162179947,-0.40181297063827515,0.0013359345030039549,-0.12460968643426895,-0.24895893037319183,0.1248638778924942,-0.17263741791248322,0.03121165744960308,0.14111445844173431,-0.049399249255657196,-0.15091444551944733,-0.24612611532211304,-0.046589385718107224,-0.1092495322227478,-0.04008394852280617,0.05615099519491196,-0.051566559821367264,0.18195007741451263,-0.037166450172662735,-0.07972916960716248,-0.2430155724287033,0.11148000508546829,-0.28213223814964294,-0.10032261908054352,-0.12251238524913788,0.200530543923378,-0.12953871488571167,-0.07005903124809265,-0.02354126051068306,-0.25000840425491333,0.13787630200386047,0.0113210529088974,0.11719420552253723,0.0990452766418457,0.1638246327638626,-0.06318502873182297,0.23604415357112885,-0.001002922304905951,-0.17997407913208008,-0.09119639545679092,-0.09127973765134811,-0.17208325862884521,0.07255042344331741,0.278433620929718,0.007259426172822714,-0.05758432298898697,-0.21297621726989746,0.18690261244773865,-0.06179364398121834,0.017374854534864426,0.1402687430381775,-0.20560826361179352,0.019717680290341377,-0.10252220183610916,0.2808220684528351,0.2206379473209381,0.30790814757347107,0.13900521397590637,0.09450638294219971,-0.18005847930908203,-0.2123442143201828,0.10147765278816223,-0.20845161378383636,0.1401662975549698,0.11340019851922989,0.07395091652870178,-0.23535224795341492,0.09818180650472641,-0.07453342527151108,-0.031178198754787445,0.09636975824832916,0.026733579114079475,-0.020583586767315865,0.13757576048374176,-0.19887663424015045,0.21682274341583252,0.38974112272262573,0.15470515191555023,0.1056639552116394,-0.24973082542419434,-0.12622980773448944,-0.18402238190174103,-0.16680756211280823,-0.23611842095851898,0.18383371829986572,0.15945462882518768,0.12997502088546753,-0.15001198649406433,0.08802158385515213,0.012486657127737999,0.045431241393089294,0.014102717861533165,0.2982615530490875,-0.29672810435295105,0.14332540333271027,0.02467779628932476,0.05102293938398361,-0.17253774404525757,0.10075031965970993,-0.15732425451278687,-0.23158814013004303,-0.2282920628786087,-0.06364122033119202,-0.10437772423028946,-0.20872528851032257,0.19595183432102203,0.05435408651828766,-0.23863615095615387,-0.06418520212173462,0.0829533115029335,0.003950098995119333,0.05599169433116913,0.0739307776093483,0.07994577288627625,-0.23785026371479034,-0.1561727076768875,0.27458304166793823,-0.2379293441772461,0.12363141775131226,0.22105102241039276,-0.30258452892303467,-0.20746047794818878,0.3249414563179016,-0.11648456007242203,0.06314326822757721,-0.013958404771983624,-0.11516796797513962,-0.2163209766149521,0.06801789999008179,0.2668425440788269,0.08713483065366745,-0.11427132040262222,0.08127567172050476,-0.13902735710144043,-0.06933065503835678,0.07319702953100204,0.08319658041000366,-0.12948349118232727,-0.1490696221590042,-0.010754375718533993,-0.18128681182861328,0.007456123363226652,-0.09703182429075241,0.1645238995552063,0.10467332601547241,0.04405606538057327,-0.007022136356681585,0.06789160519838333,0.11222978681325912,0.05522104725241661,-0.03901083767414093,-0.19827771186828613,0.006459588650614023,-0.26881009340286255,0.10017140209674835,-0.22884982824325562,-0.09894456714391708,0.07871785014867783,-0.08039817214012146,0.1550891399383545,-0.12520509958267212,0.27565428614616394,0.09683007001876831,-0.12306196987628937,0.1528230607509613,-0.3451024889945984,-0.14338792860507965,-0.11316201090812683,0.04120044410228729,0.017232712358236313,-0.21528008580207825,0.25315481424331665,-0.14601431787014008,-0.09416814148426056,0.025301894173026085,-0.12161251157522202,0.07805776596069336,0.06909395009279251,-0.13142943382263184,0.056076303124427795,0.1197483092546463,-0.13622599840164185,0.0559566505253315,0.02249479666352272,-0.1918819099664688,0.11025554686784744,0.042746540158987045,-0.011628703214228153,0.05262339860200882,0.2893609404563904,0.38303646445274353,-0.13394230604171753,0.27025577425956726,-0.2343778759241104,-0.1376100480556488,0.04484087973833084,0.24498900771141052,0.22764693200588226,0.25099945068359375,0.0022955662570893764,0.08902127295732498,-0.24564020335674286,0.040680527687072754,0.13901586830615997,0.09342321008443832,-0.2610345482826233,-0.18250294029712677,-0.2316310703754425,0.1296742558479309,-0.04208971560001373,-0.10186082124710083,-0.15151347219944,0.12120940536260605,0.006532733328640461,0.27227360010147095,0.1534063071012497,0.1286192685365677,-0.045952439308166504,0.04287116229534149,-0.06671419739723206,0.1345350742340088,0.16045944392681122,-0.2553598880767822,-0.21032455563545227,-0.13440938293933868,-0.034526895731687546,-0.018063969910144806,0.22778497636318207,-0.009017973206937313,0.20448172092437744,0.12466250360012054,-0.18953558802604675,-0.16310016810894012,0.12031863629817963,0.08773483335971832,-0.11256511509418488,0.1955832690000534,-0.2969549596309662,0.029073303565382957,0.08565524220466614,-0.058589477092027664,-0.0655520036816597,0.06773857772350311,-0.19064365327358246,0.19177895784378052,-0.17720283567905426,-0.2182449847459793,-0.262184739112854,-0.10398245602846146,-0.2843555808067322,-0.03807821497321129,-0.24985367059707642,0.11443682014942169,-0.2947132885456085,-0.02777363918721676,0.11047687381505966,-0.14183644950389862,0.2002851963043213,0.16778455674648285,-0.21394875645637512,0.03288330137729645,0.17339056730270386,-0.05570906400680542,0.024320045486092567,0.04318705201148987,-0.01643192395567894,0.08517361432313919,-0.25237277150154114,0.15749846398830414,0.11561432480812073,0.0096061946824193,0.00759295467287302,-0.1877869963645935,-0.0080646937713027,-0.020659292116761208,0.08492714911699295,0.01443023607134819,0.024011114612221718,0.20843112468719482,0.12443794310092926,-0.03978077322244644,0.0906570702791214,0.20910771191120148,-0.054632678627967834,0.04940769076347351,0.08451639115810394,0.015040150843560696,0.0076542808674275875,0.04981468245387077,-0.019486743956804276,-0.03433506190776825,-0.04123827442526817,0.1559607982635498,0.06382929533720016,-0.02169676311314106,0.05871988460421562,0.10039752721786499,-0.06026773527264595,-0.17004543542861938,0.06578715890645981,-0.02274259366095066,0.04911269247531891,-0.048809945583343506,-0.02664661407470703,0.08101596683263779,0.18085242807865143,0.16641990840435028,-0.1052439883351326,0.1904027909040451,-0.005334712564945221,-0.17009776830673218,-0.12175837904214859,0.08926808834075928,0.0834810882806778,-0.012150389142334461,-0.0644976943731308,-0.11172144114971161,0.034120939671993256,-0.11787457019090652,0.1059684082865715,-0.08224853128194809,0.06344810873270035,0.01811089925467968,-0.07075807452201843,0.011759713292121887,0.165204718708992,0.08736211806535721,0.028821351006627083,-0.04401538893580437,-0.10814932733774185,0.02151808701455593,0.1500028371810913,-0.1889481246471405,0.04064294695854187,0.05692966654896736,0.0013639219105243683,-0.08428455889225006,-0.12725135684013367,0.059339169412851334,-0.025601813569664955,-0.10616543143987656,-0.01603556238114834,0.2732681632041931,0.2962547838687897,-0.0995679497718811,0.09134596586227417,-0.2113507241010666,-0.13876885175704956,0.06303881853818893,0.1044706255197525,-0.00476236455142498,-0.032150350511074066,-0.0365653857588768,0.06539634615182877,-0.07706977427005768,0.2227734476327896,-0.26987046003341675,-0.10484008491039276,-0.09189579635858536,0.057021863758563995,-0.04135580360889435,0.10203298181295395,0.009437228552997112,-0.025953413918614388,0.14918766915798187,0.11041698604822159,0.10474786162376404,-0.19988702237606049,0.012247167527675629,0.036261964589357376,-0.17716914415359497,-0.10433613508939743,0.049555808305740356,0.20847836136817932,0.12732543051242828,0.13198241591453552,0.1536705195903778,-0.05638449639081955,0.01410013809800148,0.023101558908820152,-0.08031443506479263,0.15725576877593994,-0.0031379773281514645,-0.07686395198106766,-0.13898278772830963,-0.08844101428985596,0.0638122707605362,0.0774831622838974,0.23583897948265076,-0.032361213117837906,-0.09482032060623169,-0.053995899856090546,-0.18800143897533417,-0.2047441303730011,-0.07295665889978409,0.08789072185754776,-0.06047310680150986,-0.1102459728717804,0.09055250138044357,-0.24145857989788055,0.05550727993249893,0.16598381102085114,0.2264673411846161,0.12938618659973145,0.03202107548713684,0.15412814915180206,0.06305864453315735,-0.06606470793485641,0.011516446247696877,-0.03057282418012619,0.08126670867204666,0.08756782114505768,0.07798328250646591,-0.014086476527154446,-0.08645929396152496,0.13392329216003418,0.029156621545553207,-0.29562920331954956,-0.018666977062821388,-0.09552737325429916,-0.012905753217637539,0.1984839141368866,0.060332778841257095,-0.014967354014515877,-0.15467669069766998,0.15485183894634247,0.25997933745384216,-0.07263696193695068,0.01656322181224823,-0.13044483959674835,0.06308529525995255,0.12168030440807343,0.07190223783254623,0.021212123334407806,0.0627157911658287,0.015581158921122551,0.10446690022945404,0.0824761837720871,-0.1213846206665039,0.10926245152950287,0.028110062703490257,-0.16056738793849945,-0.09769637882709503,-0.025496656075119972,0.014078767970204353,0.03462711349129677,0.045970503240823746,0.06666083633899689,0.07736124843358994,0.044944390654563904,0.17870183289051056,0.02398901805281639,-0.09634724259376526,-0.04407673329114914,-0.04764111712574959,-0.08266361802816391,0.12114372849464417,-0.04517946019768715,-0.09871178865432739,0.06376475840806961,-0.12704123556613922,0.23584869503974915,0.018128948286175728,0.11156322807073593,0.2034674733877182,0.0031929733231663704,0.07226818054914474,-0.04071516543626785,0.071893610060215,0.08473968505859375,-0.0868096649646759,-0.04105250537395477,0.24500751495361328,-0.03488941490650177,0.11835163831710815,0.30391034483909607,-0.06410583853721619,0.18430228531360626,0.0034764560405164957,0.07327044010162354,0.026654917746782303,0.1391596496105194,0.04707049950957298,-0.047356296330690384,-0.021589528769254684,0.1660338193178177,-0.04432930424809456,-0.09063086658716202,0.0718994140625,-0.10797720402479172,-0.03689965978264809,0.06059883162379265,0.06883922219276428,0.1260945051908493,-0.024834638461470604,-0.0009966896614059806,0.18672600388526917,-0.025931337848305702,0.058420900255441666,-0.16776539385318756,0.1759040355682373,-0.09997902065515518,-0.20032934844493866,-0.167183518409729,0.09138988703489304,-0.07461570203304291,0.07814518362283707,0.05712965875864029,-0.10858149081468582,-0.11253026872873306,-0.14828141033649445,0.10232298076152802,-0.21833963692188263,-0.07521307468414307,0.21262425184249878,-0.045291539281606674,0.10423699021339417,-0.08333094418048859,0.18597348034381866,0.16380149126052856,0.03242989256978035,0.2254541665315628,-0.022579407319426537,-0.05101631209254265,-0.10894900560379028,0.015651175752282143,-0.020102033391594887,-0.07606986165046692,-0.017516713589429855,-0.027913205325603485,-0.04367387667298317,-0.12031331658363342,-0.053466975688934326,0.12705077230930328,-0.005667004734277725,-0.10593083500862122,-0.1505887657403946,0.11169232428073883,0.019386140629649162,-0.0669422596693039,-0.1617083102464676,0.03213110566139221,-0.13791871070861816,-0.08560658991336823,-0.18926167488098145,0.06903322041034698,0.04748683422803879,0.04802364110946655,-0.174673393368721,0.166856050491333,0.0639863982796669,0.21278442442417145,0.009323418140411377,-0.10641535371541977,-0.16219186782836914,-0.06483182311058044,0.01862972415983677,0.10209207981824875,0.15764422714710236,-0.2372841089963913,0.16185107827186584,0.06689319014549255,-0.058120958507061005,-0.02526804246008396,-0.013391830027103424,0.01241135410964489,0.15660132467746735,0.007857844233512878,0.01813328079879284,0.015815382823348045,-0.14158925414085388,0.01634856127202511,-0.15952467918395996,-0.11321094632148743,0.06901077181100845,0.1485302448272705,0.18078458309173584,-0.15004058182239532,0.1771588921546936,0.12825548648834229,0.06803453713655472,-0.01142862904816866,0.12401555478572845,0.08626090735197067,-0.1849661022424698,0.031257208436727524,-0.0878988653421402,-0.1519542634487152,-0.12204177677631378,0.15712353587150574,0.04647807031869888,-0.05004704371094704,-0.17329838871955872,-0.08451840281486511,0.09039876610040665,0.056010160595178604,0.017672358080744743,-0.01269512064754963,0.11592196673154831,-0.055959127843379974,0.14305329322814941,0.18996740877628326,-0.011445868760347366,0.09381941705942154,0.15309946238994598,0.002129803877323866,-0.037100352346897125,-0.08921775221824646,0.21094737946987152,0.0396544486284256,-0.07813222706317902,0.018521824851632118,-0.07539523392915726,0.09719465672969818,-0.003595298621803522,-0.09006393700838089,0.1442730575799942,-0.13134166598320007,-0.009582770057022572,0.2506685256958008,0.19697512686252594,0.09260953217744827,-0.04700275510549545,-0.04935222491621971,-0.1034746915102005,0.06962253153324127,-0.16568511724472046,-0.058852363377809525,0.08261600881814957,-0.02235392853617668,-0.004750396590679884,-0.1251193881034851,0.16671344637870789,-0.21661944687366486,-0.1264200061559677,0.013237778097391129,0.08217105269432068,0.023594073951244354,-0.24210114777088165,-0.14635413885116577,0.0957140326499939,-0.06075629964470863,-0.04504479095339775,-0.02472967468202114,-0.04653075337409973,-0.030188998207449913,0.012497642077505589,0.012266377918422222,-0.04712675139307976,-0.07751934230327606,0.05549870431423187,0.010289187543094158,-0.18468651175498962,-0.08034124970436096,-0.047721508890390396,0.028464775532484055,-0.15784244239330292,-0.06468170881271362,0.1655541956424713,0.13847079873085022,-0.021402433514595032,-0.005230197682976723,0.1584395319223404,0.027384594082832336,0.06747038662433624,-0.06378637254238129,-0.15890876948833466,-0.1880401372909546,0.003296240931376815,-0.04719986021518707,-0.09813857823610306,0.18871594965457916,0.013508270494639874,0.22021277248859406,-0.08524094521999359,-0.05947393178939819,0.16388311982154846,-0.07379601895809174,-0.20583245158195496,-0.08097250014543533,0.10360793024301529,-0.21244093775749207,0.10446647554636002,0.13855189085006714,-0.04219360277056694,-0.04870615899562836,0.0010170619934797287,0.056600701063871384,0.3789063096046448,-0.008990392088890076,-0.013679231517016888,-0.05583249777555466,0.07511727511882782,0.11033892631530762,-0.16784141957759857,0.05166364088654518,0.11064523458480835,-0.03987165167927742,-0.01821628399193287,-0.005561289843171835,-0.001933073392137885,-0.17939099669456482,-0.0048897890374064445,-0.10910051316022873,-0.3235262632369995,-0.036333564668893814,0.20634865760803223,-0.0033435632940381765,0.04227672517299652,-0.129995197057724,0.027930568903684616,0.0021998127922415733,-0.05808224901556969,0.05185476690530777,0.18544434010982513,-0.12610480189323425,0.08071382343769073,-0.009205067530274391,-0.0830661952495575,-0.046252358704805374,-0.17989327013492584,-0.08630304783582687,0.02541293017566204,0.05514637380838394,0.08500929176807404,0.012236169539391994,0.0005118651897646487,-0.07266512513160706,0.2232799381017685,0.15857075154781342,0.15866617858409882,0.05089077726006508,