{"version":"0.5.4","metadata":{"date":"2026-05-27T08:28:44","sample_rate":48000,"loudness":-20.98267364501953,"training_esr":0.03315456410311818,"pretrained":"Phoenix Pre 10 Tone 5.nam","architecture":"STANDARD","input_level_dbu":22.5,"output_level_dbu":6.8},"architecture":"WaveNet","config":{"layers":[{"input_size":2,"condition_size":2,"channels":16,"head_size":8,"kernel_size":3,"dilations":[1,2,4,8,16,32,64,128,256,512],"activation":"Tanh","gated":false,"head_bias":false},{"input_size":16,"condition_size":2,"channels":8,"head_size":1,"kernel_size":3,"dilations":[1,2,4,8,16,32,64,128,256,512],"activation":"Tanh","gated":false,"head_bias":true}],"head":null,"head_scale":0.02,"rate_condition_hidden":16,"rate_condition_num_biases":240},"weights":[-0.05941397324204445,0.032156359404325485,0.8154764771461487,-0.03904499113559723,-0.9321127533912659,-0.016430441290140152,-0.9110143780708313,-0.028846746310591698,-0.5068638920783997,0.03701796382665634,0.33390602469444275,0.04767478629946709,-0.09473712742328644,-0.058845266699790955,0.865458071231842,0.03156515210866928,-0.20977731049060822,-0.051402248442173004,0.4169153571128845,0.013809651136398315,-0.384358674287796,-0.03283229470252991,-0.28930363059043884,0.06272751092910767,-1.1476095914840698,-0.03423283249139786,-0.6904517412185669,-0.025426257401704788,-0.6422981023788452,0.0013686757301911712,0.27022773027420044,-0.02527150884270668,0.1988481879234314,-0.04376879706978798,-0.16058850288391113,-0.21959614753723145,0.08188511431217194,0.11671053618192673,0.13202272355556488,0.0988980084657669,-0.007998122833669186,0.17641976475715637,0.12144968658685684,-0.12060385197401047,0.06749219447374344,-0.05586952716112137,-0.04659078270196915,-0.05288514494895935,-0.09572011977434158,-0.096552275121212,0.14583691954612732,-0.11222448199987411,-0.019911983981728554,-0.034374888986349106,0.07107526063919067,0.05637061223387718,0.21234314143657684,-0.07990597188472748,0.06213626638054848,-0.303077757358551,-0.07952398806810379,-0.08428486436605453,0.25764569640159607,0.08461970090866089,-0.04342859610915184,0.13354110717773438,0.03916903957724571,0.1234944760799408,0.21551857888698578,0.007443778216838837,0.10748949646949768,0.0742722600698471,0.020391665399074554,-0.09761897474527359,0.060571249574422836,-0.10357416421175003,0.07049237191677094,-0.09970849752426147,0.0899205282330513,0.10049529373645782,0.10399925708770752,0.04489130899310112,0.05018427595496178,-0.05866516754031181,-0.02485247515141964,0.00900180172175169,-0.005737610626965761,0.07092282176017761,0.19939248263835907,0.23009619116783142,0.25292012095451355,0.27488499879837036,0.1202218234539032,-0.012571858242154121,0.1432770937681198,-0.23384897410869598,-0.2985227108001709,-0.05052521079778671,0.23586834967136383,-0.001061021350324154,0.18001675605773926,-0.13418298959732056,-0.14979290962219238,-0.2122233510017395,0.20706413686275482,0.09032618999481201,0.2390458881855011,-0.03593208268284798,-0.027677854523062706,-0.09082088619470596,-0.022412482649087906,0.042174674570560455,0.22811153531074524,0.0974179059267044,-0.020575780421495438,0.016311541199684143,0.24243883788585663,0.22114881873130798,0.08003009110689163,0.0741664469242096,-0.010018878616392612,0.14330656826496124,-0.012189787812530994,0.006289913319051266,0.1284967064857483,-0.04908367618918419,-0.18107549846172333,-0.019690798595547676,0.07469440251588821,-0.012105340138077736,0.19670721888542175,-0.24047280848026276,0.10485426336526871,-0.03274586796760559,0.13465729355812073,-0.09986014664173126,0.08939579874277115,0.1230146735906601,-0.2026730477809906,0.09989054501056671,-0.019432425498962402,-0.22184514999389648,0.004094122909009457,-0.1824798882007599,0.09025375545024872,-0.14213715493679047,0.03860225901007652,-0.15279117226600647,-0.06608545035123825,-0.12039895355701447,0.23259279131889343,-0.045461203902959824,0.11010321974754333,-0.1785927265882492,0.057656414806842804,-0.03302406147122383,0.2772158086299896,0.051434826105833054,0.25236082077026367,-0.13792307674884796,-0.09859427809715271,0.05473894625902176,-0.041192639619112015,0.050045788288116455,0.04178503155708313,-0.2437032163143158,-0.10312112420797348,-0.008727040141820908,-0.15981942415237427,0.10969270765781403,0.20276889204978943,-0.2801356017589569,0.1304815709590912,-0.2897719144821167,0.17748157680034637,-0.12343640625476837,-0.02752729319036007,0.3030839264392853,-0.1499185413122177,-0.14494337141513824,-0.3759711682796478,-0.023664016276597977,-0.05038722977042198,0.3981741666793823,-0.10106446593999863,0.003932816907763481,0.4690975546836853,-0.02852129377424717,0.14707788825035095,0.39976105093955994,-0.1080225482583046,0.09870044142007828,-0.3356987535953522,-0.07026997953653336,0.11642105877399445,0.17489422857761383,-0.03154238313436508,-0.044173575937747955,-0.23552288115024567,0.009297876618802547,0.058575090020895004,0.36949622631073,-0.05475755035877228,-0.035201866179704666,-0.46566978096961975,0.05580117180943489,0.11674544960260391,0.42426687479019165,-0.08197519183158875,0.029208555817604065,0.24407245218753815,-0.06621112674474716,-0.06717116385698318,0.3936759829521179,-0.05451175570487976,0.009203354828059673,0.34396812319755554,0.1233983188867569,-0.09614967554807663,0.25733858346939087,-0.059022221714258194,0.12397927045822144,-0.45145466923713684,0.11850530654191971,0.05363978445529938,0.16848284006118774,0.1716904491186142,-0.0025351746007800102,-0.08762125670909882,-0.17373019456863403,-0.03566434234380722,0.10699853301048279,0.01590016484260559,-0.10825172811746597,0.20372416079044342,0.014549902640283108,-0.04058413207530975,0.24152380228042603,0.18721920251846313,0.05713766813278198,-0.19487780332565308,-0.03690974414348602,-0.2021302431821823,-0.013616921380162239,0.0170153696089983,0.010113602504134178,-0.0837264433503151,-0.01183838490396738,-0.048894040286540985,0.19931155443191528,0.19014646112918854,-0.05416601896286011,-0.030335191637277603,-0.23392081260681152,-0.10088883340358734,0.11820601671934128,0.169779434800148,0.105398990213871,0.08015938103199005,0.16490833461284637,0.044841911643743515,-0.048686522990465164,0.23886486887931824,-0.15275463461875916,0.08598774671554565,0.104247085750103,-0.10284075140953064,0.12623928487300873,0.2631305754184723,-0.01874270662665367,-0.25552278757095337,-0.2255588322877884,0.059177592396736145,-0.05273236706852913,0.01229612436145544,-0.2593126893043518,0.03105112351477146,0.05502387136220932,0.23549628257751465,0.003908381797373295,0.07610844075679779,0.11160797625780106,-0.14546272158622742,0.06565538793802261,0.2825617492198944,-0.07037899643182755,-0.039085641503334045,-0.2208084911108017,-0.02090592309832573,0.01570780575275421,0.042258791625499725,-0.2817332446575165,0.14403845369815826,-0.2518296241760254,0.08600712567567825,0.01927996426820755,0.15174831449985504,-0.23885217308998108,-0.09929657727479935,-0.054507460445165634,0.1361798197031021,0.08836307376623154,0.11232703924179077,-0.05757438763976097,-0.008901556953787804,0.15879106521606445,-0.20253264904022217,0.08549021184444427,0.20431096851825714,-0.10914966464042664,-0.009602626785635948,0.06937001645565033,-0.0034359265118837357,-0.08525189012289047,0.22809995710849762,-0.16313773393630981,-0.04030303284525871,-0.19140414893627167,0.1019177958369255,-0.021825192496180534,0.15466396510601044,-0.309699684381485,0.15385682880878448,-0.014430155977606773,0.27115437388420105,-0.09778950363397598,-0.051407672464847565,-0.23331014811992645,0.12215020507574081,0.013863351196050644,-0.15550529956817627,0.16758760809898376,0.0013002458726987243,-0.2082608938217163,0.13994106650352478,-0.05414918065071106,0.22900068759918213,-0.045674413442611694,-0.06972651183605194,-0.22819434106349945,0.17771202325820923,0.0644541010260582,0.29145053029060364,-0.05128895863890648,0.13735289871692657,-0.30298835039138794,-0.04609960317611694,-0.20198702812194824,0.36054056882858276,0.012131721712648869,-0.034924283623695374,-0.15110911428928375,0.17832370102405548,0.23301149904727936,-0.07760255038738251,0.20607197284698486,0.033837370574474335,-0.26056185364723206,0.19084304571151733,0.14670097827911377,-0.2944764792919159,0.20014271140098572,0.14912647008895874,-0.13876628875732422,-0.009778348729014397,-0.09239053726196289,0.21996043622493744,0.008315416052937508,0.08787442743778229,-0.22481009364128113,0.13734333217144012,-0.0210556760430336,0.2489694207906723,-0.017512807622551918,-0.02128252387046814,-0.2571120262145996,-0.012230479158461094,-0.06166979297995567,-0.40484878420829773,0.20017823576927185,0.16153982281684875,-0.15653078258037567,0.2054145485162735,-0.21150098741054535,0.18947982788085938,-0.10850488394498825,-0.055508989840745926,-0.23455287516117096,-0.039865314960479736,-0.1505594104528427,0.14488019049167633,-0.16757819056510925,0.19850435853004456,-0.1924869269132614,0.19348037242889404,0.021734079346060753,0.4244749844074249,-0.12800705432891846,0.14620812237262726,-0.15286961197853088,0.13676254451274872,0.23122769594192505,-0.21459586918354034,0.18556572496891022,0.029220283031463623,-0.22015506029129028,0.10163989663124084,0.04527036473155022,-0.3662244975566864,0.0028154884930700064,-0.02018330618739128,-0.20326225459575653,0.1977865844964981,-0.13916414976119995,0.2768131196498871,0.021139604970812798,0.025730043649673462,-0.2493600696325302,-0.13928376138210297,0.27780428528785706,0.3442319631576538,0.05828244984149933,-0.024072062224149704,-0.18392790853977203,-0.24754291772842407,-0.08403347432613373,-0.37608692049980164,-0.22284866869449615,-0.021649569272994995,-0.2742719054222107,-0.26602280139923096,0.11967117339372635,0.26183176040649414,0.1583070605993271,-0.13425929844379425,-0.14586922526359558,-0.12774835526943207,0.07566048949956894,0.29840752482414246,0.2684367895126343,-0.08825292438268661,-0.4377216398715973,-0.19253021478652954,0.05227423831820488,0.24383318424224854,0.2483697384595871,-0.27195262908935547,-0.23894505202770233,-0.07545695453882217,-0.10288257151842117,-0.35589489340782166,-0.17486901581287384,-0.13134002685546875,-0.402940571308136,-0.12501375377178192,-0.29582348465919495,-0.43221181631088257,-0.33934199810028076,-0.17749997973442078,-0.19578953087329865,-0.31895992159843445,0.21390637755393982,0.2927766442298889,0.18049855530261993,0.10557712614536285,-0.30079448223114014,0.21941930055618286,0.002863048342987895,0.3266564607620239,0.01247545424848795,-0.022046474739909172,-0.05725749582052231,0.06717543303966522,0.1433112919330597,-0.29247868061065674,0.020109031349420547,-0.06870301812887192,-0.23913736641407013,0.08838771283626556,-0.19604326784610748,0.21192829310894012,0.005973644554615021,0.1630782186985016,-0.22006531059741974,0.03249721974134445,-0.11650986969470978,0.2389078587293625,0.08395165950059891,0.19017323851585388,-0.1755611002445221,0.15229986608028412,-0.22555875778198242,0.053237613290548325,-0.005543346982449293,-0.0021019845735281706,-0.09901657700538635,-0.0342448391020298,0.0017286920920014381,-0.30289024114608765,0.13500086963176727,0.05775481089949608,-0.067189522087574,0.14854194223880768,0.15164953470230103,-0.17033809423446655,0.014104547910392284,0.0503692701458931,-0.1646789014339447,0.13799405097961426,-0.22133655846118927,0.31741490960121155,-0.1260690689086914,-0.22235694527626038,0.2809719443321228,-0.00841713696718216,0.256834477186203,-0.4464876353740692,0.3108395040035248,-0.05428660288453102,0.37972304224967957,-0.08974425494670868,-0.20619475841522217,0.3401625156402588,-0.15154945850372314,-0.1670685112476349,0.3521420955657959,-0.2510907053947449,0.23236529529094696,-0.3187757432460785,0.16576284170150757,-0.1509125679731369,0.3024914562702179,-0.32984352111816406,0.1394881159067154,-0.20597346127033234,0.1924705058336258,-0.1194237470626831,0.25611039996147156,-0.19271479547023773,0.030394522473216057,-0.39239591360092163,0.14313462376594543,0.0016861131880432367,0.24521061778068542,-0.21066391468048096,-0.1878451108932495,0.4661816656589508,-0.04472242295742035,-0.23475098609924316,0.17960189282894135,-0.31685301661491394,-0.12826935946941376,0.2516021728515625,-0.3001820147037506,-0.18200305104255676,0.3447161316871643,-0.29434606432914734,0.19089290499687195,-0.4252839982509613,0.14388196170330048,0.0877748429775238,0.23665139079093933,-0.05891978740692139,-0.09574640542268753,-0.19544963538646698,0.06293684989213943,-0.02643774449825287,0.007109323050826788,0.2270648181438446,0.019599134102463722,0.17116187512874603,0.07120444625616074,0.06995222717523575,0.10695227235555649,0.16886916756629944,-0.1093960702419281,-0.29342901706695557,-0.17906229197978973,0.10381065309047699,0.25312572717666626,0.01300132367759943,0.026747096329927444,-0.17233988642692566,-0.10739116370677948,0.2361760288476944,0.2384606897830963,0.22087450325489044,-0.022510280832648277,-0.19007554650306702,-0.17722199857234955,0.10397203266620636,0.26451200246810913,0.0381111241877079,-0.04692559689283371,0.1838882565498352,0.19857850670814514,0.06759090721607208,0.022023247554898262,-0.049531273543834686,0.14575771987438202,0.13018053770065308,0.009159979410469532,0.13020828366279602,0.19634562730789185,0.19315390288829803,0.03327740356326103,-0.17748209834098816,-0.19914279878139496,0.08298863470554352,-0.16485106945037842,0.24731546640396118,-0.18176321685314178,0.13665999472141266,-0.08430977910757065,0.3792428970336914,-0.11553113162517548,0.09814021736383438,0.18837550282478333,-0.3459930717945099,0.35716909170150757,0.17988774180412292,-0.32112300395965576,0.29062485694885254,-0.32721462845802307,0.15154288709163666,-0.24771206080913544,0.3164808452129364,-0.2876070439815521,0.4455602169036865,-0.30128636956214905,0.2940627336502075,-0.08918003737926483,0.36966460943222046,-0.205291286110878,0.4001038372516632,-0.23742979764938354,0.18726319074630737,-0.09626822918653488,0.2794225811958313,-0.3747030198574066,0.1833263635635376,0.1276487112045288,-0.14884647727012634,0.1715978980064392,0.10772781819105148,-0.25790223479270935,0.30697399377822876,0.2760382294654846,-0.1942412406206131,0.22845609486103058,0.3061926066875458,-0.30376768112182617,0.16815966367721558,-0.4431573748588562,0.21435317397117615,-0.18851278722286224,-0.18369759619235992,0.27343928813934326,0.18759632110595703,0.10806410014629364,-0.3246643841266632,-0.010397619567811489,-0.18216685950756073,0.33499035239219666,0.027326293289661407,-0.12992146611213684,0.2923886775970459,0.08662587404251099,0.018583744764328003,0.12512613832950592,0.022440534085035324,0.052963633090257645,-0.17274194955825806,0.013233079575002193,-0.20704703032970428,0.204379603266716,0.04042490944266319,0.061814405024051666,-0.106078140437603,-0.25813671946525574,-0.1167466938495636,0.32881665229797363,0.08497095108032227,0.21643435955047607,-0.2659515142440796,-0.023040933534502983,-0.23937910795211792,0.18058866262435913,0.11138389259576797,-0.038429319858551025,0.29895228147506714,0.272189736366272,-0.11435575783252716,0.21204641461372375,0.24706833064556122,-0.13445013761520386,0.33794650435447693,0.04788185656070709,-0.1175786703824997,0.22266945242881775,0.21319934725761414,0.2476068139076233,-0.30901238322257996,-0.25754496455192566,0.2656008303165436,-0.19346590340137482,-0.17393268644809723,-0.31119504570961,0.2438686490058899,0.3066515028476715,0.2342265397310257,-0.2684203088283539,-0.05769452080130577,0.11295656859874725,-0.10050728172063828,-0.14405137300491333,0.15672184526920319,-0.09030666202306747,-0.29081717133522034,-0.2142641395330429,0.023836741223931313,0.12346889078617096,0.3033260107040405,0.03244258835911751,-0.17413537204265594,-0.12451068311929703,0.1132948026061058,0.09666129946708679,0.14509393274784088,-0.25135838985443115,0.011016767472028732,-0.2684813141822815,0.15244293212890625,0.20284226536750793,0.3213896155357361,-0.0020643197931349277,-0.04186178743839264,0.09702658653259277,-0.19887953996658325,-0.2849857807159424,0.13531509041786194,-0.10247183591127396,-0.031643014401197433,0.1044665053486824,-0.04328719899058342,-0.238016739487648,0.19828800857067108,-0.03309013321995735,-0.2017897367477417,-0.26019182801246643,0.12200350314378738,0.32366764545440674,0.1794489026069641,-0.4184652268886566,0.09675276279449463,-0.30301088094711304,0.17910200357437134,-0.0451120026409626,0.3114120066165924,-0.3166232407093048,0.12781186401844025,0.31846293807029724,-0.1780203878879547,-0.016926448792219162,0.18670883774757385,-0.3309595286846161,-0.05972747504711151,-0.21445368230342865,0.3655129075050354,0.04096700996160507,0.2829439342021942,-0.15293407440185547,0.10155817866325378,-0.08181316405534744,0.21051010489463806,-0.15679968893527985,0.26576554775238037,-0.1659529209136963,-0.019327513873577118,-0.07878569513559341,0.3349411189556122,-0.16915132105350494,0.1656375378370285,-0.13473673164844513,-0.04348308593034744,0.14589901268482208,-0.2553292512893677,-0.08599457144737244,0.27104321122169495,-0.20202839374542236,0.14504626393318176,0.10028072446584702,-0.12578386068344116,-0.027619430795311928,0.3520928919315338,-0.4326920509338379,-0.06964552402496338,-0.1836262345314026,0.3728926181793213,-0.06476907432079315,-0.04898901656270027,-0.03975556418299675,-0.05497601628303528,-0.10530228167772293,0.10220006853342056,0.022204946726560593,-0.021508745849132538,0.01685500517487526,0.05784047022461891,0.09993010759353638,0.007489572279155254,-0.01151182409375906,-0.05270273983478546,-0.0260437224060297,-0.058072444051504135,-0.010642041452229023,0.43238577246665955,-0.0683988481760025,-0.5678931474685669,-0.0296557005494833,0.770650327205658,0.03066778928041458,-0.736832320690155,0.011530236341059208,-0.12799619138240814,0.05474795401096344,0.8810367584228516,0.026716694235801697,0.9266638159751892,0.038848791271448135,-0.6577768325805664,0.02786841057240963,0.3693883717060089,0.013737392611801624,0.06701990216970444,-0.024219907820224762,-0.26706624031066895,0.05516171455383301,-0.4292844235897064,-0.05321263149380684,0.06282050162553787,-0.07065312564373016,-0.8451097011566162,0.047051798552274704,0.3308400809764862,-0.06182418763637543,0.3826408088207245,-0.06758876144886017,-0.09002060443162918,0.15858376026153564,-0.012593059800565243,0.1334933638572693,0.12506599724292755,-0.033218469470739365,0.12518346309661865,-0.04772046208381653,-0.039682336151599884,-0.058018770068883896,0.14805248379707336,-0.146084263920784,-0.039681706577539444,0.004270837642252445,0.17563815414905548,-0.18820630013942719,0.04804566502571106,-0.10719633847475052,-0.20896416902542114,0.023520618677139282,0.03924976661801338,-0.043727051466703415,-0.09280787408351898,0.12901124358177185,-0.009887704625725746,0.322125107049942,-0.39894431829452515,0.06625054031610489,0.20489467680454254,-0.16128434240818024,0.2686106264591217,0.581228494644165,-0.06264078617095947,0.09038711339235306,-0.09514986723661423,0.25196459889411926,-0.06374167650938034,-0.22906716167926788,0.004247957840561867,-0.21107184886932373,-0.11370805650949478,-0.18021024763584137,0.32328277826309204,-0.14575454592704773,0.01738913543522358,0.3657587170600891,-0.03788986802101135,-0.21895714104175568,0.24460700154304504,-0.10230866819620132,-0.01957969181239605,-0.17515906691551208,-0.15728524327278137,0.06442047655582428,0.04629659652709961,0.12711387872695923,-0.18852107226848602,0.011577341705560684,-0.13132964074611664,-0.08149005472660065,0.17770738899707794,0.1728779822587967,-0.1189090833067894,0.027477821335196495,-0.12473779916763306,-0.21829864382743835,-0.25202667713165283,0.25292161107063293,0.23348362743854523,0.08176421374082565,0.09527985006570816,-0.1834949254989624,-0.0019354312680661678,0.11005619913339615,0.03209541365504265,0.2956271767616272,-0.12286309897899628,0.24771691858768463,-0.3456387221813202,-0.03591132536530495,-0.21482117474079132,-0.014666355215013027,0.09960143268108368,0.03530837595462799,0.330881804227829,0.21619758009910583,0.2389923483133316,0.2099992036819458,0.1966525763273239,0.03990479186177254,-0.2221149355173111,-0.005179079249501228,-0.016091302037239075,-0.14049895107746124,0.10499259829521179,0.05163133889436722,0.15567894279956818,0.09593507647514343,0.22276732325553894,0.18911446630954742,-0.26120659708976746,-0.2000977098941803,0.05058242753148079,-0.18093518912792206,0.09079240262508392,-0.30171775817871094,-0.15312586724758148,0.17728938162326813,0.21344159543514252,-0.18003351986408234,0.1796581894159317,-0.20012812316417694,0.2430533766746521,0.08163892477750778,0.24656784534454346,-0.19608663022518158,-0.15049807727336884,0.16580919921398163,0.19191409647464752,-0.05695213004946709,0.15863202512264252,-0.24402257800102234,0.2527725398540497,-0.14990420639514923,0.06156172975897789,-0.15653938055038452,-0.10234468430280685,-0.03849203884601593,-0.0803886353969574,-0.07068314403295517,-0.26035821437835693,-0.20261959731578827,0.053910817950963974,-0.12832754850387573,-0.180088073015213,-0.19042712450027466,-0.17852146923542023,-0.23041124641895294,0.20001552999019623,0.07574065774679184,0.016253802925348282,-0.11726833134889603,0.08945734053850174,-0.06816422939300537,-0.19673357903957367,-0.0403861366212368,0.34895747900009155,-0.3358426094055176,-0.2891215980052948,0.17744441330432892,0.33752110600471497,-0.03358633816242218,0.14332039654254913,0.18146845698356628,0.1093328520655632,-0.0004534179752226919,0.23479269444942474,0.05433997884392738,-0.03646929934620857,0.12013306468725204,0.021627290174365044,0.18029335141181946,-0.2604404091835022,0.11863374710083008,-0.1169295534491539,-0.2966732382774353,0.05521830543875694,-0.03280772641301155,0.036045197397470474,-0.12922298908233643,-0.15376195311546326,-0.07443256676197052,-0.14864996075630188,0.15330705046653748,0.015589972026646137,0.0283514354377985,-0.1475820243358612,-0.17108812928199768,0.07800047099590302,0.05541680008172989,-0.0341254286468029,-0.14450068771839142,-0.06918252259492874,-0.08174875378608704,0.014314137399196625,-0.4071089029312134,0.49556708335876465,-0.2644537389278412,-0.3192116618156433,0.22078602015972137,-0.3198932111263275,-0.7545003890991211,-0.08193138241767883,0.03574436530470848,0.0357661172747612,0.024719931185245514,0.0808897465467453,-0.2170398086309433,-0.017453085631132126,0.4604266583919525,0.1434400975704193,0.07917813956737518,-0.5423456430435181,0.0674760490655899,0.301800012588501,-0.10956798493862152,-0.11575110256671906,0.3178468942642212,0.007157701533287764,-0.2584795355796814,-0.06674240529537201,0.090694360435009,-0.21868811547756195,0.26610463857650757,0.28536805510520935,0.029920250177383423,0.015785614028573036,-0.09208916127681732,-0.015106428414583206,-0.10247571021318436,-0.1553623080253601,-0.10804085433483124,-0.0971486046910286,0.1904442012310028,-0.23747721314430237,0.3051951229572296,-0.12307481467723846,-0.1677476018667221,0.3234352767467499,-0.024316372349858284,0.1391092836856842,0.2923908531665802,-0.3640509247779846,0.439635306596756,-0.2566686272621155,0.07727720588445663,0.2540716528892517,0.31199905276298523,-0.37833431363105774,0.0675203874707222,0.22601237893104553,0.04706098139286041,0.3828238844871521,-0.25164899230003357,-0.2533034384250641,0.4841516613960266,0.3468484580516815,0.43436330556869507,-0.012949145399034023,0.10295949876308441,-0.4209117591381073,-0.30872082710266113,0.30921411514282227,-0.029171893373131752,0.2937242388725281,0.4440343379974365,0.14819490909576416,-0.06437072157859802,0.32277530431747437,-0.2595916986465454,-0.1005258858203888,0.016128331422805786,0.12150220572948456,0.031248964369297028,0.03991266340017319,-0.2225634902715683,0.11371148377656937,-0.038530729711055756,0.0729035809636116,0.0911513939499855,0.29342424869537354,-0.040738753974437714,-0.015261433087289333,-0.019167708232998848,0.0430041179060936,0.1547175645828247,-0.009086363017559052,0.15592555701732635,-0.20690765976905823,-0.050619788467884064,0.04426511749625206,-0.2765568792819977,-0.09688109904527664,-0.09390470385551453,-0.18635383248329163,-0.20710717141628265,-0.05827861279249191,0.45846980810165405,0.0730079710483551,0.11974391341209412,0.07188838720321655,-0.024077726528048515,0.13025547564029694,0.37197595834732056,0.09206224977970123,-0.08892523497343063,-0.22111086547374725,-0.04602397605776787,-0.13539595901966095,-0.03958411514759064,0.07711344212293625,-0.08354629576206207,-0.36796334385871887,-0.14772261679172516,0.023357000201940536,-0.38185247778892517,-0.09242960065603256,0.006338548380881548,-0.34157055616378784,-0.0974218025803566,-0.08766043186187744,-0.13683561980724335,0.12907370924949646,0.0033607755322009325,-0.3215564787387848,0.05275430530309677,0.04213838279247284,0.4237625300884247,0.10131044685840607,-0.033043213188648224,-0.04015164077281952,0.07325893640518188,0.2742169201374054,-0.19432620704174042,-0.02635650523006916,0.03979289531707764,-0.1448911428451538,0.032847341150045395,0.3210179805755615,-0.1607544720172882,0.07530906796455383,-0.022057686001062393,0.020407039672136307,-0.11185083538293839,0.12374123930931091,0.07681009918451309,-0.17211253941059113,-0.3042082190513611,0.08759132027626038,-0.2073109894990921,-0.15417645871639252,0.22746813297271729,-0.14789694547653198,-0.2526867389678955,-0.2765732705593109,-0.011279230006039143,0.11087975651025772,0.20440907776355743,0.024294497445225716,-0.22498153150081635,-0.07065961509943008,0.1526646912097931,0.24102646112442017,-0.0026697448920458555,0.07484152168035507,0.3915955126285553,-0.03610891476273537,-0.0021481062285602093,0.15071137249469757,0.01252063736319542,0.07231911271810532,0.10293878614902496,-0.08862297236919403,0.06773409247398376,0.26983150839805603,0.12119975686073303,0.04079544544219971,-0.4950513243675232,-0.12498271465301514,-0.13328124582767487,-0.03785967454314232,0.31032127141952515,0.08945587277412415,-0.07444164156913757,-0.11901343613862991,0.04306023567914963,0.034625887870788574,-0.020599020645022392,-0.06866578012704849,-0.15029507875442505,0.0426408126950264,-0.0736943930387497,0.07646878808736801,0.048564549535512924,0.1612725704908371,0.134587824344635,0.26691484451293945,-0.2503044605255127,-0.11649776995182037,0.16643878817558289,-0.03146764263510704,0.13443176448345184,-0.029408518224954605,-0.16144460439682007,-0.04070420563220978,-0.040486786514520645,0.1335940659046173,-0.10672483593225479,-0.30697929859161377,-0.24740582704544067,0.04126378521323204,-0.1302834153175354,0.3065069913864136,0.1460464745759964,-0.304963618516922,-0.005278242751955986,-0.0681689903140068,-0.06834825873374939,0.005268789362162352,0.07573234289884567,-0.2964792251586914,0.054176535457372665,0.03749967738986015,-0.018122585490345955,0.13295842707157135,0.11280955374240875,-0.10604067891836166,-0.17375241219997406,-0.05488072708249092,-0.05375583469867706,0.20399902760982513,0.06938512623310089,0.07430467754602432,-0.2538531720638275,-0.2295287698507309,0.19376397132873535,0.151780366897583,-0.06836414337158203,-0.05910827964544296,-0.12979605793952942,-0.007972454652190208,-0.1859109103679657,0.12674611806869507,-0.09087957441806793,0.024854814633727074,0.14001020789146423,-0.0025815186090767384,-0.22788681089878082,0.07373344898223877,0.05573943257331848,0.16491305828094482,-0.21735171973705292,0.08876419067382812,0.1315317302942276,-0.05772223323583603,0.049756862223148346,0.12741337716579437,-0.1916283369064331,-0.03043939918279648,0.08420395106077194,-0.4216640293598175,0.16043537855148315,0.08688168227672577,0.1759822517633438,-0.19817078113555908,0.06992319226264954,-0.20588341355323792,-0.20124147832393646,-0.04030175134539604,-0.16843803226947784,-0.004516688175499439,0.037503406405448914,0.2134728580713272,0.07690799236297607,-0.13404236733913422,-0.021560437977313995,-0.03084002248942852,0.03534645587205887,0.0955105796456337,-0.014459900557994843,-0.04180947318673134,0.13373735547065735,-0.09908267855644226,-0.13428010046482086,0.048455625772476196,0.05597469210624695,0.03737684339284897,0.010651572607457638,-0.12961621582508087,-0.18603017926216125,-0.07070242613554001,0.012055883184075356,0.10179100930690765,-0.06974166631698608,0.040933117270469666,0.015228649601340294,0.04619641974568367,0.23611904680728912,0.13601262867450714,0.1103469654917717,-0.10013452172279358,-0.12445532530546188,-0.14827588200569153,0.039296336472034454,0.11895067244768143,-0.05620037019252777,-0.08365755528211594,-0.0683523416519165,0.22574616968631744,-0.016254622489213943,-0.23491056263446808,-0.16505563259124756,0.10782529413700104,-0.0034895744174718857,0.01328959409147501,0.030966535210609436,0.007329513318836689,-0.06438524276018143,-0.192562535405159,-0.0009126614313572645,-0.15357933938503265,0.024452298879623413,0.07570358365774155,-0.0709017962217331,-0.012179778888821602,-0.06213616952300072,0.13762812316417694,0.045173630118370056,0.07026252895593643,-0.04594380035996437,0.09131263941526413,-0.047381434589624405,0.044082168489694595,0.027371712028980255,-0.0695440024137497,0.002651895396411419,0.037657808512449265,-0.1401764303445816,0.04164797067642212,0.0019256594823673368,0.11246873438358307,-0.14809556305408478,0.016160549595952034,0.0029783330392092466,-0.03172901272773743,0.15310664474964142,0.2950308620929718,0.044228315353393555,-0.022189993411302567,0.03479750454425812,-0.03187491372227669,-0.07939042896032333,0.18216252326965332,-0.011075868271291256,0.09052222967147827,0.2878839075565338,-0.07784909754991531,0.11600401997566223,-0.23434869945049286,0.1679518222808838,0.00041491384035907686,-0.043679311871528625,-0.06906337291002274,0.07924247533082962,-0.05119213089346886,0.047935936599969864,-0.17465943098068237,-0.2696753442287445,0.04639936983585358,-0.006817221641540527,-0.08470778167247772,-0.04559540003538132,-0.06132140010595322,0.10020392388105392,0.2670331597328186,0.06016992777585983,-0.1943061202764511,-0.18717701733112335,0.04997935891151428,0.10330842435359955,0.04939074069261551,-0.027897583320736885,-0.14962990581989288,0.044835302978754044,-0.05470530688762665,0.43276795744895935,0.24393004179000854,0.15319229662418365,0.2298307567834854,-0.11232328414916992,-0.019076034426689148,0.1087857112288475,0.11044606566429138,-0.033282700926065445,-0.11367927491664886,-0.23642636835575104,-0.11349265277385712,0.1870850771665573,0.16043466329574585,0.06829949468374252,-0.07570303231477737,-0.09498992562294006,0.06866757571697235,-0.2508853077888489,-0.20823504030704498,-0.24114930629730225,0.17143802344799042,0.28186383843421936,0.22639703750610352,-0.04815215617418289,0.04003013297915459,-0.1315784454345703,-0.23508264124393463,0.00280022039078176,-0.033136628568172455,0.1483311653137207,0.17406681180000305,0.020708514377474785,-0.1426953375339508,0.03381472826004028,0.19108600914478302,-0.0712004154920578,-0.015492893755435944,-0.09166498482227325,-0.2344685196876526,-0.0826243907213211,0.14177295565605164,-0.21384070813655853,-0.13841752707958221,-0.13498611748218536,-0.06508953124284744,-0.2376677691936493,-0.1762721836566925,0.3868331015110016,0.14480096101760864,-0.0664849728345871,-0.08056192845106125,-0.04800323024392128,-0.014208614826202393,0.2711702585220337,0.052276793867349625,-0.024429280310869217,-0.09439630806446075,-0.248272106051445,0.2023574560880661,0.2112024575471878,0.19853024184703827,-0.06360151618719101,-0.0918334499001503,-0.2030199021100998,0.04251817986369133,0.2544373571872711,-0.26155275106430054,0.10195592045783997,-0.23150691390037537,0.042131755501031876,-0.07853923738002777,-0.11357889324426651,0.012789611704647541,-0.06593691557645798,-0.0642089694738388,0.031377892941236496,0.156492680311203,0.10013493150472641,0.24536597728729248,-0.007043883204460144,0.1479463279247284,0.18705566227436066,-0.08577273786067963,-0.10158368200063705,-0.15832260251045227,-0.11803948134183884,0.16922226548194885,0.09916969388723373,0.11873665452003479,0.11539288610219955,-0.09971623122692108,-0.1366155594587326,0.1310916543006897,0.12332002818584442,0.01861048862338066,-0.14257586002349854,0.009723317809402943,0.11904456466436386,0.06725749373435974,0.06826663017272949,0.059375181794166565,-0.1954011619091034,-0.07509856671094894,0.17076720297336578,-0.007873008027672768,-0.0045831347815692425,0.08174208551645279,-0.038372304290533066,0.030301855877041817,-0.10142789036035538,0.10888740420341492,-0.05045342445373535,-0.15429101884365082,-0.2481415569782257,0.18910886347293854,0.14040911197662354,0.11050204932689667,-0.03481605648994446,0.09528743475675583,0.014835885725915432,-0.057190969586372375,-0.07098572701215744,0.039940692484378815,-0.1633630394935608,-0.0557255819439888,-0.036167632788419724,-0.16473416984081268,-0.023392098024487495,0.16874274611473083,0.05415123701095581,-0.03404220566153526,-0.1989654302597046,0.12707030773162842,0.08101420849561691,-0.01805366948246956,-0.09025208652019501,-0.034732501953840256,-7.039455522317439e-05,0.08304961770772934,-0.044433631002902985,0.16557005047798157,-0.11237514019012451,-0.07387141138315201,-0.3194591999053955,0.021200647577643394,0.09064971655607224,-0.03660324215888977,0.10673602670431137,0.1065673753619194,-0.2710281312465668,0.14731718599796295,0.19039085507392883,0.13044732809066772,0.11299311369657516,0.0231759175658226,-0.20912320911884308,-0.07423559576272964,0.03295949846506119,0.07318525016307831,-0.004884303547441959,0.09852626174688339,0.5540280342102051,-0.20724114775657654,0.17241041362285614,-0.053026627749204636,-0.14538396894931793,-0.1457289159297943,-0.0958675891160965,0.04812947288155556,0.0636671632528305,0.020719945430755615,-0.25665053725242615,0.028092356398701668,-0.26369708776474,0.04717782139778137,-0.09985597431659698,0.23078252375125885,0.2624328136444092,0.03183354064822197,-0.2355443239212036,0.10634122788906097,-0.029577141627669334,0.6076574325561523,0.26505351066589355,0.15144036710262299,-0.07126189768314362,-0.05576508492231369,-0.03726241737604141,0.09008517116308212,-0.03494963422417641,-0.2886318862438202,-0.3144986629486084,-0.02337057888507843,0.052875299006700516,-0.1118682399392128,0.1250094473361969,0.20501840114593506,-0.36859363317489624,0.025569790974259377,0.1573595553636551,0.2598361372947693,0.13948427140712738,0.05745033919811249,-0.46026360988616943,-0.3873846232891083,-0.0534868985414505,0.43413323163986206,0.0927693173289299,-0.12754744291305542,0.028932807967066765,-0.27814799547195435,-0.303626149892807,0.36665621399879456,0.0688319206237793,-0.11673493683338165,0.1325204223394394,0.024431677535176277,0.12982825934886932,0.6944093704223633,0.18451951444149017,-0.021885503083467484,-0.3434934914112091,-0.17440037429332733,0.1854667067527771,0.090879425406456,-0.03652046248316765,-0.1207987442612648,-0.23534932732582092,-0.05937988683581352,-0.26860979199409485,-0.07995153218507767,0.10718730092048645,0.11057586967945099,-0.005897744558751583,0.06416385620832443,0.03818430006504059,0.06756023317575455,0.020831221714615822,-0.0687803328037262,-0.09851613640785217,0.11091745644807816,0.01742321252822876,-0.18954786658287048,-0.03924861550331116,0.08500078320503235,0.18205983936786652,0.1484779268503189,0.07388648390769958,0.13792113959789276,-0.1547989696264267,-0.08751227706670761,-0.1537063717842102,0.14262139797210693,-0.02613399736583233,-0.14515452086925507,-0.004555616993457079,-0.08160696178674698,0.7249520421028137,0.20054934918880463,0.22355152666568756,-0.2952861785888672,-0.11171694099903107,0.07192447781562805,0.1356532871723175,0.048761848360300064,-0.03276517614722252,0.008113011717796326,0.0023200756404548883,-0.1591218113899231,-0.2577752470970154,0.027489136904478073,0.05569213628768921,0.018984723836183548,0.1374489665031433,-0.005177119746804237,0.034679122269153595,0.0008910268661566079,-0.10516573488712311,0.17747452855110168,0.1590617448091507,0.027360625565052032,0.02654455043375492,0.021571727469563484,-0.06264586001634598,0.0674416720867157,0.003462624503299594,-0.06645164638757706,-0.12703299522399902,-0.1819297820329666,0.05931128188967705,-0.006131838075816631,-0.03819505497813225,0.04896732419729233,-0.1881929337978363,-0.15635566413402557,0.00503126997500658,-0.08710236847400665,0.17003819346427917,0.1586514562368393,-0.0380735844373703,-0.03862106055021286,-0.16802264750003815,0.22407814860343933,0.2538140118122101,0.0865270122885704,0.18103469908237457,-0.20448891818523407,0.0613536536693573,0.2745767831802368,-0.0230670478194952,0.06796808540821075,0.08179374039173126,-0.011995498090982437,-0.11122754216194153,0.21784822642803192,-0.04113548621535301,0.05178595706820488,0.032672133296728134,0.01871747337281704,-0.060536425560712814,-0.09837863594293594,-0.15528152883052826,0.05066759139299393,-0.057547714561223984,0.2038334310054779,0.04985932260751724,0.07104393094778061,-0.1787886917591095,0.07724938541650772,-0.008520231582224369,0.07193423062562943,0.03460966795682907,-0.02069784700870514,0.04229406267404556,0.16156738996505737,-0.01689011976122856,0.08125186711549759,-0.12781107425689697,-0.020059648901224136,0.08946757018566132,0.03856213390827179,0.0862802118062973,-0.00174696184694767,-0.031323667615652084,0.017766352742910385,-0.15852537751197815,0.16336533427238464,0.10725542902946472,-0.03553000092506409,0.12479878216981888,-0.016610097140073776,0.024300657212734222,-0.06225861608982086,0.09725048393011093,-0.3279777467250824,-0.02065153978765011,-0.09594429284334183,0.06912422925233841,-0.21293838322162628,0.06013907864689827,0.016747307032346725,-0.18491877615451813,-0.03245506435632706,0.007124315015971661,-0.13388843834400177,0.0328868106007576,0.07005410641431808,0.05861213803291321,-0.18824514746665955,-0.0003690019075293094,-0.11403238773345947,0.028430359438061714,0.11646787822246552,0.08291415125131607,-0.27572575211524963,0.1560598611831665,-0.03536513075232506,-0.07244331389665604,-0.009654639288783073,-0.03057284839451313,-0.1266324669122696,0.20208539068698883,-0.015682144090533257,0.5344811677932739,-0.14808353781700134,-0.07031401991844177,0.1315043568611145,-0.006132639478892088,0.12334401905536652,0.2763909697532654,-0.11592453718185425,-0.05801111087203026,-0.1374710649251938,-0.039570152759552,0.01150018721818924,0.06413638591766357,-0.14609305560588837,0.12615180015563965,-0.24098725616931915,0.21759779751300812,0.07685703039169312,-0.2551873028278351,0.07738399505615234,-0.265922486782074,0.06840718537569046,0.2802324593067169,-0.10394188016653061,-0.06359947472810745,-0.044758398085832596,-0.050175320357084274,-0.38134828209877014,0.15610016882419586,-0.18903794884681702,0.5591846108436584,-0.14871038496494293,0.030519070103764534,-0.03770386800169945,0.07494930922985077,-0.14566673338413239,0.1810029000043869,0.1036798432469368,0.11335387825965881,0.11654073745012283,0.04799147695302963,0.040972888469696045,0.11329282820224762,0.062055591493844986,-0.15917949378490448,-0.0662873312830925,-0.041054628789424896,-0.05437295883893967,-0.17680178582668304,-0.1173136904835701,0.071228988468647,0.13375753164291382,0.169475719332695,-0.037128083407878876,-0.08811920881271362,-0.1384144276380539,-0.05625296011567116,-0.031214367598295212,-0.06440195441246033,-0.04443908482789993,-0.18064068257808685,0.11557229608297348,0.17091810703277588,0.1462050974369049,0.134340301156044,-0.14792653918266296,-0.3990331292152405,-0.34294188022613525,-0.20544706284999847,0.08094971626996994,-0.05338485166430473,0.020295795053243637,0.10700571537017822,0.15841084718704224,-0.03794633969664574,0.1337675154209137,-0.08626235276460648,0.010375394485890865,-0.04697605222463608,0.1936187446117401,0.2131829708814621,0.17660197615623474,0.08521939814090729,0.01892515830695629,0.03569852188229561,-0.07813816517591476,0.1332024782896042,0.12267033010721207,0.1822773814201355,-0.028611792251467705,-0.08537277579307556,0.16981752216815948,0.05397070199251175,0.13191141188144684,0.009979418478906155,0.06753502786159515,-0.024883171543478966,-0.2799208462238312,-0.04962896555662155,0.0029432119335979223,0.03669756278395653,0.30918753147125244,-0.036183785647153854,-0.39196139574050903,0.040325894951820374,0.27693095803260803,-0.0020452106837183237,-0.7115216851234436,-0.05753568932414055,-0.36524656414985657,0.02525820955634117,-0.34394577145576477,0.049506962299346924,0.9272922277450562,-0.04998572915792465,-0.8938392400741577,0.05705998092889786,-0.4084693491458893,-0.01885266788303852,-0.994408369064331,0.042256053537130356,0.22277089953422546,-0.04882344231009483,-0.6939330697059631,0.04549519717693329,0.41480526328086853,0.04169079661369324,-0.7051779627799988,-0.06324783712625504,-0.25710082054138184,-0.34310537576675415,-0.001007189741358161,0.3140871524810791,0.2904093563556671,0.019822781905531883,-0.3216930627822876,-0.18498408794403076,-0.12062232941389084,-0.12771882116794586,0.10754299908876419,0.16731055080890656,0.20059384405612946,0.014266319572925568,-0.11008066684007645,-0.08971544355154037,-0.10268230736255646,-0.3088698089122772,-0.0337364561855793,-0.06277114152908325,-0.2190435826778412,0.18970605731010437,-0.08578268438577652,-0.34037625789642334,0.36021706461906433,-0.23861820995807648,0.05262377858161926,0.012462344951927662,0.07165868580341339,-0.10566198825836182,0.09212762117385864,0.17101557552814484,-0.20242950320243835,-0.30815279483795166,-0.0013264660956338048,0.22514067590236664,0.022202078253030777,0.06536009162664413,0.01942519284784794,0.005717718508094549,-0.022535480558872223,-0.1274561882019043,-0.3200768530368805,-0.29358935356140137,-0.07590459287166595,0.20678593218326569,0.2086068093776703,0.015329519286751747,0.17405807971954346,0.07418915629386902,-0.13916796445846558,-0.09991873800754547,-0.16443505883216858,0.06050385907292366,-0.09599858522415161,0.006608139257878065,-0.22986221313476562,0.07410844415426254,0.05181678384542465,0.3890458047389984,0.19510459899902344,0.0935971662402153,0.018285362049937248,-0.050581883639097214,0.26829957962036133,-0.17152389883995056,-0.14383187890052795,-0.025523213669657707,0.12103401124477386,0.041829247027635574,-0.11354934424161911,0.2578464448451996,0.37062081694602966,0.2347491830587387,-0.21461360156536102,0.3637675940990448,-0.17138102650642395,-0.033623769879341125,-0.2097759246826172,-0.04731301963329315,-0.2519322335720062,-0.2266153246164322,-0.2628185451030731,-0.0322563536465168,0.1632876992225647,-0.17629042267799377,-0.046075791120529175,-0.09508505463600159,0.1733359545469284,0.40486064553260803,-0.06623753160238266,0.024535411968827248,-0.2490370124578476,-0.2854486107826233,0.030900726094841957,-0.0018950218800455332,-0.047943998128175735,-0.2983485162258148,0.10188385099172592,-0.07321831583976746,0.16356422007083893,0.22382760047912598,-0.21558454632759094,-0.21003568172454834,0.3295139968395233,0.09665261954069138,-0.10105500370264053,0.07176520675420761,0.20233279466629028,-0.1967637538909912,-0.1260485053062439,0.20473548769950867,0.26336613297462463,0.13777729868888855,-0.023742469027638435,-0.12087526172399521,0.09969739615917206,-0.14360734820365906,-0.053551092743873596,0.128151074051857,-0.1633264571428299,0.21811018884181976,-0.13137586414813995,0.014550132676959038,-0.21208718419075012,-0.007209004834294319,0.17565563321113586,0.012808523140847683,0.02351832203567028,0.13176774978637695,-0.17573408782482147,-0.22425469756126404,-0.23142454028129578,-0.201973557472229,0.071184441447258,-0.09652496129274368,-0.05656805261969566,-0.2172432541847229,0.2122955471277237,-0.42117026448249817,0.03137629106640816,0.15457217395305634,-0.011381065472960472,0.2213706225156784,-0.01772606559097767,-0.01074914075434208,-0.08862436562776566,0.07540205121040344,0.189509317278862,-0.12366125732660294,0.03488966450095177,-0.05719193071126938,0.01574758067727089,0.06462755054235458,0.18146322667598724,0.04129981994628906,0.14435161650180817,-0.14249145984649658,0.0871661975979805,-0.15791550278663635,-0.18948222696781158,-0.2065214067697525,-0.16104714572429657,0.21321921050548553,0.09856466203927994,-0.10869011282920837,-0.05836523324251175,-0.03137920796871185,0.15347793698310852,-0.08596409857273102,-0.12246214598417282,0.015827104449272156,0.1855388730764389,-0.0006903830217197537,-0.02144666016101837,-0.05752650275826454,0.013447008095681667,0.21952030062675476,-0.2436063140630722,0.09547413140535355,-0.12941627204418182,-0.0896717756986618,0.03563476726412773,0.12267988920211792,-0.18310649693012238,0.11667176336050034,0.20954079926013947,-0.06357163935899734,0.06475131958723068,0.060961686074733734,0.05521288141608238,-0.15925230085849762,-0.14244131743907928,-0.14709381759166718,-0.23104026913642883,0.285634309053421,-0.0631224662065506,-0.1039305254817009,-0.03616621717810631,0.1994481235742569,-0.25106292963027954,-0.26063230633735657,-0.1972794383764267,-0.20471198856830597,0.2533382177352905,-0.0008309734985232353,0.005795415490865707,-0.0171539094299078,0.05525630712509155,0.1694461703300476,-0.1426585167646408,0.30263978242874146,-0.30118364095687866,0.062076106667518616,0.06094744801521301,0.01257074810564518,0.07902050763368607,0.17390359938144684,0.1035178080201149,-0.0550655871629715,0.2732468843460083,0.27496495842933655,0.05279114097356796,-0.04401995986700058,-0.04430535063147545,0.20593269169330597,0.09281995892524719,0.08504317700862885,-0.26812461018562317,-0.13954946398735046,0.29008910059928894,0.058464765548706055,-0.0838928371667862,0.26739951968193054,-0.27051228284835815,0.14761725068092346,-0.2148248553276062,0.22462978959083557,0.2138565629720688,0.2946098744869232,0.2455945760011673,-0.18782739341259003,-0.04639327526092529,0.02185387723147869,-0.2264840006828308,0.10725071281194687,-0.21168863773345947,0.10304855555295944,-0.17736853659152985,-0.22920586168766022,0.27749747037887573,0.3362469971179962,-0.24026882648468018,0.3814907670021057,-0.22836127877235413,-0.29066136479377747,-0.09999626129865646,0.053643278777599335,0.10727205872535706,-0.09080319851636887,-0.1296129822731018,0.10723214596509933,0.13842478394508362,0.2551746666431427,0.054699916392564774,0.031871188431978226,0.09299492835998535,-0.23736603558063507,0.10341057181358337,-0.3016038239002228,-0.0021405010484158993,-0.06443039327859879,0.06506827473640442,-0.1650152951478958,-0.028666093945503235,-0.007878183387219906,-0.22136034071445465,-0.07644955068826675,-0.0979321151971817,-0.047642894089221954,-0.17400223016738892,0.1017698347568512,-0.10292327404022217,-0.0304739847779274,0.22330224514007568,0.08586988598108292,0.0026165065355598927,0.21102744340896606,0.03523837402462959,-0.1821625828742981,-0.104760080575943,-0.11703560501337051,-0.02826792746782303,-0.0033351958263665438,0.06841582804918289,-0.13324587047100067,-0.19214704632759094,0.08330323547124863,-0.043122757226228714,0.08674384653568268,0.042657092213630676,-0.00171253876760602,-0.12209577113389969,-0.0698186382651329,-0.12751872837543488,-0.16553066670894623,0.18302105367183685,0.14986833930015564,-0.017819104716181755,-0.26367586851119995,-0.003721394343301654,-0.0940299853682518,0.13389819860458374,-0.003266149666160345,0.16716858744621277,0.09187063574790955,-0.3935452997684479,0.21398112177848816,-0.1429958939552307,0.06274891644716263,-0.11010511219501495,0.08393209427595139,0.20910505950450897,-0.14016032218933105,0.17832988500595093,0.013725283555686474,0.06196208670735359,0.0061020394787192345,0.22460095584392548,-0.14167344570159912,0.0028514207806438208,-0.09334924817085266,0.1081828698515892,-0.09901798516511917,-0.10880278795957565,-0.06999753415584564,-0.03074922040104866,-0.15236347913742065,0.1672707200050354,0.021218489855527878,0.2190251499414444,0.03859543800354004,-0.11773202568292618,-0.05282134190201759,0.03076755255460739,0.021175291389226913,-0.12454544007778168,0.09108827263116837,0.11566729843616486,0.026685895398259163,-0.003000375349074602,0.11951890587806702,0.1296635866165161,0.01729268953204155,-0.135946124792099,-0.12218283861875534,-0.30927467346191406,0.10612385720014572,0.08122242242097855,-0.19401462376117706,-0.10800235718488693,-0.043719369918107986,-0.15953055024147034,-0.11013015359640121,0.08060625195503235,0.12929478287696838,0.03418295830488205,0.015252419747412205,0.1515221893787384,0.04919424653053284,-0.01302618719637394,0.08921606093645096,-0.004430142231285572,-0.10969357937574387,0.19326084852218628,-0.06921505182981491,-0.03715679794549942,-0.22140026092529297,-0.09273438900709152,0.03789779916405678,0.049740299582481384,-0.0016387340147048235,0.17884103953838348,0.06863868236541748,0.33133140206336975,0.0814046859741211,-0.027325764298439026,0.07651049643754959,-0.04108738899230957,-0.06809156388044357,0.1651250272989273,0.12493473291397095,0.045663293451070786,-0.14484822750091553,-0.1171322613954544,-0.012057427316904068,0.19383607804775238,0.09787353873252869,-0.10165693610906601,0.048278193920850754,-0.17546850442886353,0.13038519024848938,-0.07498643547296524,-0.07674382627010345,-0.016675058752298355,-0.022132985293865204,-0.052756503224372864,0.06852032244205475,-0.09223056584596634,-0.017941849306225777,0.03508203476667404,-0.2913435101509094,-0.09513234347105026,-0.2007714956998825,0.04573460668325424,0.36504852771759033,-0.08019641041755676,-0.12001045793294907,-0.07706689089536667,-0.01971692591905594,0.18891344964504242,0.060526084154844284,-0.054190099239349365,0.013339482247829437,-0.09766227751970291,0.15214407444000244,0.08805020153522491,-0.06453195214271545,0.0020150085911154747,-0.06651550531387329,-0.05106872692704201,-0.05662063509225845,0.05443999171257019,0.20574010908603668,0.19109050929546356,0.05173353850841522,-0.11375929415225983,-0.00875400472432375,0.059412840753793716,0.09458239376544952,0.04722079634666443,0.01905273273587227,0.060697030276060104,-0.07054983079433441,-0.021463779732584953,-0.1499481201171875,-0.01056111790239811,-0.044669218361377716,0.0037744927685707808,0.09121324121952057,-0.11615044623613358,-0.08269871771335602,0.04504173621535301,-0.1125248521566391,-0.03438575565814972,0.02637670375406742,-0.17707401514053345,-0.036368440836668015,-0.12028574198484421,-0.157936692237854,0.48735666275024414,-0.02310134842991829,0.0821942389011383,0.010859809815883636,-0.02481805719435215,-0.29690033197402954,0.034426119178533554,-0.08944632112979889,0.02363993041217327,0.0955425277352333,0.08951456844806671,0.33849722146987915,0.08335484564304352,-0.001262338599190116,0.17396530508995056,-0.0931318998336792,-0.12577210366725922,0.016948722302913666,-0.09612197428941727,0.027484120801091194,-0.22729209065437317,-0.03255102038383484,-0.15608617663383484,-0.23384150862693787,0.09586445242166519,-0.03394206613302231,-0.15229520201683044,-0.011391830630600452,-0.047597821801900864,-0.0599258728325367,0.13738471269607544,0.20679806172847748,-0.021537981927394867,-0.001103795482777059,-0.09263632446527481,-0.04387345165014267,0.15246747434139252,-0.12529289722442627,0.168803870677948,-0.24726948142051697,0.05020752176642418,0.07848913222551346,0.10621494054794312,-0.08417493104934692,-0.04205474629998207,0.18722297251224518,0.1386474072933197,0.12183710932731628,0.028288746252655983,0.11855264753103256,-0.21925300359725952,-0.29098761081695557,0.06146792694926262,0.07725414633750916,-0.09747731685638428,0.046633269637823105,0.03312697261571884,-0.02766259014606476,-0.07088524848222733,-0.11287955194711685,-0.2008551061153412,0.07769432663917542,-0.07557810097932816,0.1996813714504242,-0.008445917628705502,-0.08341924101114273,0.13926003873348236,-0.13940726220607758,-0.16013862192630768,0.1522059589624405,-0.1870051771402359,0.07643888890743256,0.07720290124416351,-0.1651977002620697,-0.22679823637008667,0.006932037882506847,0.04739110544323921,0.025001056492328644,-0.13918761909008026,-0.06603626161813736,-0.07208612561225891,-0.026448216289281845,0.03889673203229904,0.07156137377023697,0.03279266133904457,-0.11849140375852585,0.19493906199932098,-0.003327886341139674,0.3955560326576233,-0.2151023894548416,-0.14681316912174225,-0.03954300656914711,0.18211521208286285,0.067221499979496,0.20435819029808044,-0.04785729572176933,-0.09623417258262634,0.2593194246292114,-0.06776782125234604,-0.050024840980768204,-0.21631842851638794,-0.3649861216545105,0.048462364822626114,0.0028095063753426075,-0.25294554233551025,-0.00034429726656526327,0.12956015765666962,-0.05725140497088432,-0.11540596932172775,-0.029132705181837082,0.10757344216108322,0.06902079284191132,0.03174504265189171,0.01812957040965557,0.09529182314872742,-0.09525349736213684,0.07483090460300446,-0.09468089044094086,0.03205757960677147,0.010276947170495987,-0.05278873071074486,0.1365823596715927,0.13228672742843628,-0.11255772411823273,-0.14306072890758514,-0.04745246842503548,0.11208996921777725,-0.13191090524196625,0.13096186518669128,-0.10699234157800674,-0.15858834981918335,-0.07587140798568726,-0.07107625156641006,0.0004638470127247274,0.17784355580806732,-0.034599099308252335,0.01214784849435091,-0.12188569456338882,0.1632726788520813,0.09569177031517029,-0.00367558840662241,0.08303936570882797,-0.06220335513353348,0.09508030116558075,-0.04594714567065239,0.09246840327978134,-0.2578088939189911,-0.02193193882703781,0.15801316499710083,0.23840464651584625,-0.1769064962863922,0.11254064738750458,0.11949190497398376,-0.027376338839530945,-0.1656944453716278,0.08436017483472824,-0.09767492860555649,-0.0353921614587307,-0.016985638067126274,0.06620731204748154,-0.16115210950374603,-0.030452141538262367,-0.06670710444450378,-0.0021382698323577642,0.12628524005413055,0.1603996455669403,0.01145270373672247,0.07976111024618149,0.09269297122955322,-0.160331591963768,0.07668044418096542,0.014008937403559685,0.040670834481716156,0.11280893534421921,-0.11735112220048904,-0.19894608855247498,-0.05232226476073265,-0.17393235862255096,0.21999670565128326,-0.025981303304433823,-0.0295802503824234,-0.18417036533355713,-0.03168874233961105,-0.23999683558940887,0.07073574513196945,-0.10406031459569931,0.16151347756385803,-0.1870422512292862,-0.07027360796928406,-0.0798061341047287,-0.07424068450927734,-0.17706641554832458,0.007016878109425306,-0.052728112787008286,-0.03465478867292404,0.05731434002518654,-0.1499788761138916,-0.11590711027383804,-0.04890526458621025,0.036567844450473785,-0.07581596821546555,-0.03547106310725212,0.09069354087114334,0.3060205578804016,0.0008662562468089163,-0.02294609136879444,0.11104372888803482,0.10766492784023285,-0.2733827233314514,-0.11904492974281311,-0.00675792433321476,0.029831381514668465,-0.22654038667678833,-0.09671805799007416,0.09668542444705963,-0.062446415424346924,0.01789952628314495,0.07423600554466248,-0.12456944584846497,-0.007195391692221165,0.0477873869240284,-0.017310062423348427,0.08785206079483032,0.05680309236049652,-0.027353797107934952,-0.0033934018574655056,0.018435724079608917,0.07254631072282791,-0.08434539288282394,-0.09969895333051682,0.044900137931108475,-0.1869775354862213,0.0321069061756134,0.14852505922317505,-0.01199586782604456,-0.07647387683391571,-0.08667491376399994,0.03754321113228798,0.3581649661064148,0.353790283203125,0.07173708826303482,0.20074254274368286,-0.028503503650426865,-0.17846815288066864,-0.202669158577919,-0.39813053607940674,-0.15932178497314453,0.18888747692108154,0.09718792885541916,0.14560040831565857,-0.06980696320533752,-0.037219688296318054,0.036293432116508484,-0.08678751438856125,-0.05570381507277489,-0.09793297946453094,-0.04709240421652794,-0.011669248342514038,-0.012785596773028374,0.16098304092884064,-0.18003158271312714,-0.1416444182395935,-0.08573287725448608,-0.051402632147073746,-0.1336960792541504,0.0653923973441124,-0.09691216051578522,-0.11749430000782013,-0.07076423615217209,-0.11457454413175583,0.1417277753353119,0.17009766399860382,-0.10922621190547943,0.009440404362976551,-0.010610515251755714,-0.13959234952926636,-0.05954510346055031,-0.30818942189216614,0.1406586766242981,-0.06812742352485657,0.09188666939735413,0.012572803534567356,-0.023503782227635384,-0.08226016163825989,-0.14403554797172546,0.06685852259397507,-0.05812593176960945,0.22233746945858002,-0.32399865984916687,0.17203906178474426,-0.02250310219824314,-0.104627326130867,-0.15258565545082092,-0.07951279729604721,-0.030878691002726555,-0.0056670350022614,0.09299250692129135,0.32838329672813416,-0.0433359257876873,-0.033504996448755264,0.25072410702705383,-0.032294489443302155,0.11523109674453735,0.11844831705093384,0.13061770796775818,-0.09459920227527618,0.009637689217925072,0.06841341406106949,0.00788916740566492,-0.07580067962408066,0.06988068670034409,0.14018972218036652,-0.1110939085483551,0.17059744894504547,0.1378336399793625,-0.019082501530647278,-0.021521613001823425,0.09147065132856369,0.04994513839483261,-0.038716088980436325,0.034297335892915726,-0.04622328281402588,-0.08147668093442917,-0.1257278025150299,0.14796945452690125,0.14507150650024414,-0.1994510143995285,-0.027293721213936806,0.027165904641151428,0.1332465410232544,0.16680237650871277,0.023653879761695862,-0.33145764470100403,-0.13868464529514313,-0.24430927634239197,-0.08817251771688461,-0.03216775879263878,-0.021255405619740486,-0.19587786495685577,-0.1835811585187912,0.1280127614736557,-0.027401423081755638,0.09784115105867386,0.033254943788051605,-0.1462419182062149,-0.012967808172106743,0.06281977891921997,0.31629130244255066,0.3779779374599457,-0.016244200989603996,0.060802359133958817,0.07334485650062561,0.1984795778989792,0.21729834377765656,0.221159890294075,0.0234622023999691,-0.08930549770593643,-0.06339836865663528,-0.12834259867668152,-0.04612935334444046,-0.03903345763683319,-0.000275095779215917,-0.17481312155723572,-0.15306483209133148,-0.27061334252357483,-0.12371991574764252,-0.3050278127193451,-0.022898871451616287,-0.008252771571278572,-0.0021769667509943247,0.02801043540239334,-0.034596037119627,-0.021949853748083115,0.23048841953277588,0.0121569549664855,0.1145278811454773,-0.1421709507703781,0.13124461472034454,-0.06477563828229904,0.051640018820762634,-0.08237579464912415,0.13665936887264252,0.056923773139715195,0.14066201448440552,0.15747608244419098,-0.12392789870500565,-0.39134514331817627,-0.16338060796260834,0.07300366461277008,0.10642058402299881,0.10788287222385406,0.15063408017158508,0.04382207244634628,-0.2492242306470871,0.020564254373311996,-0.0786968246102333,0.08550821244716644,-0.040349215269088745,-0.07709690928459167,-0.10365011543035507,0.02140272594988346,0.05267834663391113,0.02013160102069378,-0.010161736980080605,-0.055347178131341934,-0.007578833028674126,-0.03323487192392349,0.18261441588401794,-0.06210403889417648,0.04524277523159981,-0.07809578627347946,0.03638802468776703,0.1259663701057434,-0.1335204839706421,0.0770912766456604,-0.10278480499982834,0.009035552851855755,-0.009307196363806725,0.17196767032146454,0.2550906240940094,0.03850449621677399,0.12062345445156097,-0.15868046879768372,0.20049363374710083,-0.1177079901099205,0.18336355686187744,-0.24295984208583832,0.11662126332521439,0.06852944940328598,0.024479147046804428,-0.10215433686971664,-0.022039493545889854,0.06377797573804855,0.03809284046292305,-0.06389778107404709,0.05183594673871994,0.023969685658812523,0.09698685258626938,-0.1219756007194519,0.1573488861322403,0.06245198845863342,-0.03347369655966759,0.1685786247253418,-0.0336233451962471,0.0027650801930576563,-0.1416054517030716,-0.07240892201662064,0.12692521512508392,-0.10152268409729004,0.06138289347290993,0.15111523866653442,-0.11017152667045593,0.0682714581489563,-0.03013504296541214,0.033607471734285355,0.047272950410842896,0.001911049010232091,0.028994373977184296,0.0705895870923996,-0.07888495177030563,0.056921396404504776,0.010147767141461372,0.018592815846204758,0.0390469916164875,0.05560610070824623,0.13392028212547302,-0.0007749027572572231,-0.02148553729057312,-0.11093359440565109,-0.07480455189943314,-0.12325270473957062,0.07631096243858337,-0.09424393624067307,-0.07814081013202667,-0.17041952908039093,-0.07031523436307907,7.511890726163983e-05,-0.1949121057987213,-0.19392439723014832,-0.23930436372756958,0.31091246008872986,-0.14667825400829315,-0.028396205976605415,-0.04366539791226387,0.10707536339759827,0.3218838572502136,0.14611923694610596,-0.0907956212759018,-0.04276517033576965,-0.06912384927272797,0.04010163992643356,-0.19336706399917603,0.02525121532380581,-0.29414913058280945,-0.25634753704071045,-0.07195286452770233,0.01588623598217964,-0.044031109660863876,-0.09650764614343643,-0.05283191800117493,0.29322516918182373,-0.07523937523365021,-0.09607987105846405,0.08324144780635834,-0.15487723052501678,0.04562927037477493,0.07433926314115524,0.07803767174482346,0.02384357899427414,-0.1937476545572281,0.02055378444492817,0.06395164132118225,0.177561417222023,0.15025001764297485,-0.10537800192832947,0.006095197517424822,-0.04586341977119446,0.04747406393289566,-0.0670916885137558,-0.10853136330842972,-0.36436498165130615,-0.14050732553005219,-0.06104541942477226,-0.19072192907333374,-0.2045104205608368,-0.039809782058000565,-0.15108610689640045,-0.4916021227836609,0.058579880744218826,-0.07153507322072983,0.23242594301700592,0.015818610787391663,-0.07617596536874771,-0.11482544988393784,-0.00829353928565979,-0.05646447092294693,-0.09288173913955688,0.11239062249660492,-0.033497102558612823,0.29578688740730286,0.15035417675971985,-0.12816785275936127,0.04806448146700859,0.06791756302118301,-0.07728017866611481,0.04528028890490532,-0.0762234628200531,0.18375058472156525,-0.32405439019203186,-0.0560796856880188,0.09144311398267746,-0.04700487479567528,0.11786124855279922,0.0683785080909729,0.06321355700492859,0.11335614323616028,-0.009817181155085564,0.056216295808553696,0.06633705645799637,-0.07124258577823639,-0.17393754422664642,-0.09057504683732986,0.006200158968567848,-0.1412329226732254,0.06053701788187027,-0.2637530565261841,0.25960487127304077,-0.011978628113865852,0.05369393527507782,0.07150422036647797,-0.09203466773033142,-0.07721471786499023,0.13199858367443085,-0.03755561634898186,0.2784900665283203,0.13812369108200073,-0.06507513672113419,0.002110084518790245,-0.1468087136745453,0.020405970513820648,0.036364272236824036,0.0608016774058342,0.006207912694662809,-0.07253282517194748,0.05619166046380997,-0.06679613888263702,-0.04362650215625763,-0.010167388245463371,0.134722039103508,0.05749278515577316,0.09191100299358368,-0.15757685899734497,-0.07389333099126816,0.07994586229324341,0.00900499988347292,0.0673694834113121,-0.14413601160049438,0.026334766298532486,-0.650047779083252,-0.06209322437644005,0.8840774297714233,0.04086766391992569,0.12099423259496689,-0.056974928826093674,-0.396953284740448,-0.03132186457514763,0.0787758082151413,0.04797564074397087,-0.24814122915267944,0.02368135005235672,-0.07461919635534286,-0.011507095769047737,0.6737334132194519,-0.0030953753739595413,-0.6982718706130981,-0.023041170090436935,0.7378144264221191,-0.07028476148843765,0.5348761081695557,0.06311658769845963,-0.08742239326238632,-0.01362430676817894,-0.5394602417945862,-0.010221296921372414,0.1140945553779602,-0.0196810532361269,-0.6318264007568359,-0.03116799332201481,0.29732075333595276,-0.09377920627593994,-0.10485625267028809,-0.16956709325313568,0.21375618875026703,0.19266456365585327,0.19660308957099915,0.051396504044532776,0.20901913940906525,0.1632099598646164,0.11452377587556839,0.13262706995010376,-0.2342437207698822,0.007794677279889584,-0.23323582112789154,-0.019564112648367882,0.18629613518714905,0.07652673870325089,-0.0026215340476483107,0.2541750371456146,0.16145676374435425,0.15738970041275024,-0.0817546397447586,-0.1335957646369934,-0.41074007749557495,-0.07311131060123444,-0.0743226632475853,-0.05259840190410614,0.26772937178611755,0.4976249039173126,0.13866131007671356,-0.23666608333587646,0.17096927762031555,-0.19479165971279144,-0.014095486141741276,-0.20796199142932892,0.13684791326522827,-0.022671764716506004,-0.061500433832407,-0.13228338956832886,-0.16452960669994354,-0.06801773607730865,-0.31662237644195557,0.2545584440231323,0.26722508668899536,-0.23765641450881958,-0.21678468585014343,0.04593554139137268,0.23385320603847504,-0.003084693569689989,0.1319541037082672,-0.1004958525300026,-0.0960075706243515,0.19318270683288574,-0.27622997760772705,0.2267225831747055,0.18525439500808716,-0.17474476993083954,0.06816217303276062,0.1324729472398758,0.15159724652767181,0.12367774546146393,0.19402343034744263,-0.10953598469495773,-0.10347707569599152,-0.08332503587007523,0.2679528295993805,-0.27312278747558594,0.12808391451835632,-0.1030937135219574,0.06181655451655388,0.020064860582351685,0.09815068542957306,-0.13441702723503113,-0.11700497567653656,0.19516460597515106,-0.10789317637681961,-0.4034882187843323,0.0398528054356575,-0.11832714825868607,-0.0015226249815896153,0.16683225333690643,0.15946774184703827,-0.05895727127790451,-0.23932474851608276,-0.25413790345191956,0.33926573395729065,-0.11882156878709793,-0.30987411737442017,-0.10472285747528076,0.03643658757209778,0.352407306432724,0.006340411026030779,0.11159731447696686,0.31633061170578003,-0.13666832447052002,0.22028855979442596,0.18800050020217896,-0.15077394247055054,0.06868363171815872,0.20923475921154022,-0.12335196137428284,0.021576223894953728,-0.054593876004219055,-0.19541604816913605,0.1668577939271927,0.2706853747367859,-0.12988880276679993,0.07694676518440247,0.08730114251375198,0.08809689432382584,0.15246157348155975,0.16553352773189545,0.31740686297416687,-0.07693756371736526,0.024079781025648117,0.04533368721604347,-0.14530763030052185,0.10247056931257248,-0.10532665252685547,-0.06374111771583557,0.11212538927793503,0.16092009842395782,0.24659587442874908,0.014095530845224857,0.23477110266685486,0.08060234040021896,-0.14895224571228027,-0.21584250032901764,0.39691656827926636,-0.1754956841468811,0.40317291021347046,0.16450001299381256,-0.17218729853630066,-0.2168910652399063,0.059857629239559174,-0.13194316625595093,-0.01759304478764534,0.028040224686264992,0.008221818134188652,-0.11117113381624222,0.0039988067001104355,0.11876963824033737,-0.0074007525108754635,0.16530519723892212,-0.07849718630313873,-0.27258020639419556,0.14503736793994904,0.10583438724279404,0.07366546988487244,-0.037579480558633804,-0.17665241658687592,-0.06672757118940353,0.05290345102548599,0.22996853291988373,-0.0885128453373909,-0.05306641757488251,-0.25744369626045227,0.2574559152126312,0.026922274380922318,0.4330236613750458,-0.1865750104188919,-0.25340768694877625,-0.1540115922689438,0.25635579228401184,-0.1512593775987625,0.09560220688581467,-0.07004675269126892,0.24452944099903107,0.10707869380712509,-0.3279206156730652,0.030830493196845055,0.03938380256295204,-0.1905643790960312,-0.046023838222026825,0.2565482258796692,0.17718921601772308,-0.14217405021190643,-0.2003336399793625,-0.050436124205589294,-0.007751913741230965,0.2997852861881256,0.25981947779655457,0.07070557773113251,-0.042807746678590775,-0.23785291612148285,-0.3711686134338379,0.18472443521022797,-0.2083299160003662,-0.1798374056816101,-0.08535469323396683,0.1413143128156662,-0.22466182708740234,-0.34943482279777527,-0.006046915426850319,-0.16295665502548218,0.18711094558238983,0.2202519178390503,-0.28042566776275635,-0.1823061853647232,0.18502865731716156,-0.07776200771331787,-0.3344622850418091,-0.0047479048371315,-0.02546602301299572,0.09681007266044617,0.018744541332125664,-0.15263454616069794,-0.2844085991382599,-0.06355065107345581,-0.1612958461046219,0.07442720979452133,0.07835779339075089,0.005011674016714096,-0.04426116868853569,-0.04733297601342201,0.159753680229187,-0.15420594811439514,0.06523143500089645,-0.46708160638809204,0.03958066180348396,0.15661244094371796,0.009487688541412354,0.12950995564460754,0.04235222935676575,0.2610713541507721,0.01834944821894169,-0.39374643564224243,-0.12464745342731476,-0.20062898099422455,0.13826076686382294,-0.37467923760414124,0.0942569300532341,0.3263357877731323,0.32872888445854187,0.3413142263889313,-0.18506698310375214,-0.2904375195503235,0.04539526253938675,-0.2262619584798813,-0.04004049673676491,-0.09777411073446274,-0.06961440294981003,-0.18819840252399445,-0.17523989081382751,0.08600711822509766,-0.011889927089214325,-0.245625302195549,0.014580448158085346,0.19171497225761414,0.11300015449523926,0.17944222688674927,-0.2281067967414856,-0.0794110968708992,-0.16239114105701447,-0.07467587292194366,0.07124529778957367,0.05428657308220863,0.27920812368392944,0.10202611982822418,-0.08044802397489548,0.3479970395565033,0.14161649346351624,0.1747356653213501,-0.2788897454738617,-0.15515075623989105,0.055132653564214706,0.06571870297193527,0.21310588717460632,0.016008878126740456,0.22409437596797943,-0.010604238137602806,0.046621739864349365,0.05676068738102913,0.001599202980287373,-0.12147637456655502,-0.030849982053041458,0.12200658023357391,0.026805756613612175,0.10226686298847198,-0.011300862766802311,-0.027423249557614326,0.01779862865805626,-0.06461624801158905,0.060613978654146194,-0.10248196125030518,-0.0497574545443058,0.007659946568310261,-0.057173654437065125,0.2839237153530121,0.07776153087615967,-0.09362001717090607,-0.1229131892323494,-0.19020365178585052,0.06522075831890106,0.21491746604442596,0.02856549248099327,-0.16784371435642242,-0.39385470747947693,-0.06790582835674286,0.039864759892225266,0.1121155172586441,-0.02512897178530693,0.010310579091310501,0.04354831576347351,0.08418063819408417,-0.03694853559136391,-0.20071031153202057,-0.03765987232327461,0.04850663244724274,-0.13015758991241455,0.034802619367837906,-0.008215852081775665,-0.28765228390693665,-0.08006054908037186,-0.23933176696300507,-0.02714752033352852,-0.06491066515445709,0.004336423706263304,0.27352240681648254,0.20353442430496216,0.6785743832588196,-0.0072188833728432655,0.011568160727620125,-0.08589768409729004,-0.03931635618209839,0.1754082590341568,0.139628067612648,0.14219984412193298,-0.1742655485868454,0.13779494166374207,0.134686678647995,0.008893572725355625,-0.008079477585852146,0.12244820594787598,0.11950244009494781,-0.29317137598991394,-0.06298573315143585,-0.10074564814567566,0.16826921701431274,-0.0006555742002092302,0.06044137477874756,-0.18030433356761932,-0.1641521155834198,0.015972277149558067,0.2827608585357666,-0.010232504457235336,0.02995317243039608,0.06860984861850739,0.08396399021148682,0.14608216285705566,0.602403998374939,0.0024757981300354004,0.20759443938732147,0.06354616582393646,-0.1962675154209137,-0.09552053362131119,0.05764814838767052,0.11241184175014496,-0.16399307548999786,0.15770557522773743,-0.09977094829082489,0.44875285029411316,0.33675989508628845,0.009596548974514008,-0.06660451740026474,-0.027254743501544,-0.2658824920654297,-0.17477887868881226,-0.0717799961566925,0.009264109656214714,0.09515230357646942,0.03211566433310509,-0.37442776560783386,-0.39746007323265076,-0.11473306268453598,0.07056168466806412,0.01000618003308773,0.024954404681921005,-0.1691601425409317,0.06756160408258438,-0.06842559576034546,0.060334011912345886,-0.23066627979278564,-0.20495809614658356,-0.021777911111712456,-0.0001660840935073793,0.08474303036928177,-0.19769187271595,-0.0442270003259182,-0.045086026191711426,0.17158247530460358,-0.014940098859369755,0.06549686938524246,-0.03669652342796326,0.004106350243091583,-0.033619679510593414,0.09062188118696213,-0.02590491622686386,0.051926858723163605,-0.06415581703186035,-0.07806026190519333,-0.07544523477554321,0.12698659300804138,-0.01088816300034523,0.04459133744239807,-0.21119247376918793,-0.017065048217773438,0.11165395379066467,-0.12749338150024414,0.05083110183477402,-0.32015806436538696,0.10351903736591339,-0.1921144425868988,-0.0038748926017433405,0.16008669137954712,0.01332495640963316,0.20798899233341217,-0.02107577584683895,-0.12448552250862122,-0.05933227017521858,0.05040882155299187,0.06563732773065567,0.10308657586574554,0.06256946921348572,0.08590959757566452,0.03540980443358421,-0.10793973505496979,0.029252421110868454,0.08672400563955307,-0.06975004822015762,-0.1416236311197281,-0.17616061866283417,0.15147286653518677,0.12167926132678986,-0.0018825873266905546,0.06252830475568771,-0.014341020956635475,0.026520216837525368,0.1931656450033188,0.10775255411863327,-0.11399959027767181,-0.19040518999099731,-0.18763411045074463,-0.01218794472515583,0.09153055399656296,0.02585495635867119,0.11130455881357193,-0.00990128330886364,0.08448256552219391,0.11221349239349365,0.03940868005156517,0.02992219105362892,0.14064450562000275,-0.11616833508014679,0.11296436935663223,0.12296048551797867,-0.12484612315893173,-0.18731936812400818,0.01192252617329359,0.13998755812644958,-0.1949017494916916,0.017215464264154434,0.024508828297257423,0.15739405155181885,0.03633585199713707,0.07115984708070755,0.10048223286867142,0.06655573099851608,-0.066166952252388,-0.139263316988945,0.1647588610649109,-0.025825809687376022,0.16165311634540558,-0.06275912374258041,0.03723568841814995,0.07123026251792908,-0.1282958686351776,-0.09947101026773453,-0.22126711905002594,0.03874296322464943,0.18458007276058197,-0.03192159906029701,-0.02776084467768669,0.05053437128663063,-0.009073205292224884,0.003429687349125743,-0.06418359279632568,-0.007582711521536112,0.15654757618904114,-0.15483343601226807,-0.17999212443828583,-0.08494206517934799,0.02664344385266304,0.06854164600372314,0.021777933463454247,-0.006602058187127113,-0.04798246547579765,-0.22765298187732697,-0.08071424812078476,-0.11776665598154068,0.04351252317428589,-0.07370643317699432,-0.08565086871385574,-0.05024842172861099,-0.10616843402385712,-0.0447298027575016,-0.0795174092054367,0.15899816155433655,-0.09123837202787399,-0.1554737091064453,0.18497522175312042,-0.07418015599250793,-0.12173239141702652,0.10935211926698685,0.050816576927900314,0.09582528471946716,-0.1350720226764679,-0.07914222776889801,-0.02670978754758835,0.11854389309883118,-0.028968336060643196,-0.05062715336680412,-0.1270333230495453,0.1770351529121399,-0.1676967591047287,-0.11450042575597763,-0.12770843505859375,-0.22686845064163208,-0.0737152099609375,-0.01024552620947361,0.023507144302129745,0.010040483437478542,-0.08604562282562256,-0.10867665708065033,-0.16703657805919647,-0.07858061045408249,0.16331163048744202,-0.040135931223630905,-0.11984100192785263,0.09255007654428482,-0.031769245862960815,-0.1431419551372528,-0.18045496940612793,0.08207788318395615,-0.06797386705875397,-0.15347792208194733,0.15563398599624634,-0.031951263546943665,-0.0039017563685774803,-0.15873926877975464,-0.024988720193505287,0.00431534368544817,-0.09236494451761246,-0.1168072298169136,-0.017360210418701172,0.09290295094251633,-0.12451080977916718,0.089815154671669,0.04941028356552124,0.14702554047107697,0.17323356866836548,-0.02269071340560913,-0.0958578810095787,-0.06631286442279816,0.023190181702375412,-0.010198859497904778,0.41564932465553284,0.4331094026565552,-0.15308986604213715,-0.13039205968379974,-0.2811630666255951,-0.11760789901018143,0.024653946980834007,-0.027060171589255333,-0.21125593781471252,-0.10325539112091064,0.01654982566833496,-0.1327453851699829,-0.05983204022049904,-0.07383394241333008,0.16822370886802673,-0.03567425161600113,-0.05810270085930824,-0.04157990962266922,0.0933777242898941,-0.0290516410022974,0.011877686716616154,0.08236813545227051,-0.02424721047282219,0.10506819188594818,0.09823998063802719,0.04271940141916275,-0.039437077939510345,-0.1523725986480713,-0.11190959811210632,0.051955755800008774,-0.10277971625328064,-0.004912775009870529,-0.2029457539319992,-0.03373606503009796,-0.10655467212200165,0.06065389886498451,-0.012168084271252155,-0.08868587762117386,0.12128270417451859,0.012968558818101883,-0.2471069097518921,-0.003227445064112544,0.0785924643278122,-0.015260472893714905,-0.10476698726415634,-0.07880505174398422,0.21820250153541565,-0.2494528889656067,-0.05893917381763458,0.2548387348651886,-0.0991067886352539,0.1146717369556427,0.008494454436004162,-0.13944053649902344,0.14280343055725098,0.021527642384171486,-0.20061685144901276,-0.19295190274715424,0.05813492834568024,0.018865851685404778,-0.1177978441119194,0.0606977641582489,-0.13308627903461456,-0.015273043885827065,-0.04319854825735092,0.0706234946846962,0.007637485396116972,-0.049177806824445724,-0.038019727915525436,-0.0919044241309166,0.047711990773677826,-0.10852988064289093,-0.04442084580659866,-0.16394376754760742,0.07097507268190384,-0.11705818772315979,0.00837116688489914,0.10220439732074738,0.0035147585440427065,0.05881910026073456,0.11062309145927429,-0.14441949129104614,-0.11434277147054672,-0.24997562170028687,-0.1343291699886322,0.19245398044586182,-0.210373654961586,-0.14703987538814545,0.08564446121454239,-0.11666268110275269,0.18465471267700195,-0.014760834164917469,0.12292107939720154,-0.07546178996562958,-0.18119770288467407,-0.024354910477995872,-0.0020808419212698936,0.05025726184248924,0.006971780676394701,-0.029528753831982613,-0.15740971267223358,-0.18916676938533783,0.01681664027273655,0.08931422978639603,-0.13305002450942993,0.06544551253318787,0.04487001895904541,-0.040917035192251205,-0.1091245710849762,-0.15430393815040588,-0.1031481921672821,-0.08066871762275696,0.010504820384085178,0.05382732301950455,-0.026547761633992195,-0.26859134435653687,0.016842475160956383,0.08940140157938004,-0.024702411144971848,0.14295192062854767,0.0007231347262859344,-0.10741747915744781,0.17466403543949127,0.0863557830452919,-0.06733578443527222,0.214875265955925,0.023724541068077087,-0.16401347517967224,0.005989453289657831,0.17707732319831848,-0.09071964025497437,0.052896905690431595,0.00589251471683383,0.1711498498916626,-0.08232167363166809,-0.06086594611406326,0.3382042646408081,0.09289596974849701,0.022589080035686493,-0.11242767423391342,-0.0949813723564148,-0.26515474915504456,-0.2113572508096695,0.31842753291130066,0.12549424171447754,0.09822661429643631,-0.12171465903520584,-0.1322309821844101,-0.15517549216747284,-0.08433324098587036,-0.12200606614351273,0.028797859326004982,0.026106765493750572,0.05948975309729576,0.00948172528296709,0.18914832174777985,-0.022407634183764458,0.20332401990890503,0.18565122783184052,0.1416313350200653,0.219022735953331,-0.07780569046735764,-0.00301068602129817,-0.1672373265028,-0.17489437758922577,-0.19137616455554962,-0.18059144914150238,-0.0279582217335701,0.15335066616535187,-0.11192359030246735,-0.10878483206033707,-0.17341050505638123,-0.08971372991800308,0.1492701917886734,0.13778869807720184,0.06760557740926743,-0.04129182547330856,0.22547177970409393,0.05897597223520279,0.17215567827224731,0.15645252168178558,-0.004035329446196556,0.3809426426887512,0.13284435868263245,0.16409501433372498,-0.11356620490550995,-0.20839495956897736,0.07365261763334274,-0.013018639758229256,0.026622643694281578,0.23033611476421356,-0.4123935401439667,-0.3267996609210968,-0.03352721408009529,0.2369542270898819,0.07048771530389786,-0.09695832431316376,-0.17204341292381287,-0.15973493456840515,-0.08589112013578415,0.026716845110058784,0.04487312585115433,0.19132234156131744,0.13539138436317444,0.19202762842178345,-0.0019916186574846506,-0.10458951443433762,0.004809805657714605,0.09228561073541641,0.11307252198457718,0.07638430595397949,0.022019175812602043,-0.10407627373933792,0.05867696925997734,0.021588502451777458,-0.03477808088064194,0.04050233215093613,0.042379677295684814,-0.0140650924295187,0.006145264953374863,-0.17199081182479858,0.1472543627023697,-0.07776903361082077,0.11245641857385635,0.17699263989925385,0.029393015429377556,0.0809374749660492,-0.08712481707334518,0.10274256765842438,0.2131018042564392,-0.1268068104982376,0.11952435970306396,0.3166019916534424,-0.13804955780506134,0.01944647543132305,-0.17258165776729584,0.1266963928937912,-0.0070269727148115635,-0.08475985378026962,-0.025399919599294662,0.0015846872702240944,-0.19141130149364471,-0.011809980496764183,0.017404785379767418,-0.019808920100331306,-0.1410456895828247,-0.06185236573219299,0.16513852775096893,-0.11295546591281891,-0.23445846140384674,-0.2741945683956146,-0.09516344219446182,-0.2173738330602646,-0.2551722824573517,-0.013752845115959644,-0.07125069200992584,0.09039082378149033,-0.01250508427619934,-0.00660332664847374,-0.009303685277700424,-0.11961647123098373,0.06713812798261642,0.23133282363414764,0.11276937276124954,-0.10657088458538055,-0.17487989366054535,0.012617353349924088,0.18331389129161835,0.19470755755901337,0.1541559100151062,0.09558963775634766,-0.23540852963924408,0.1747787445783615,-0.061685871332883835,0.030590949580073357,-0.14472797513008118,-0.1217900961637497,-0.2772972285747528,-0.026255084201693535,-0.1678582727909088,0.2953692376613617,0.07817058265209198,-0.010170894674956799,-0.006368397269397974,0.01676582731306553,0.1230052039027214,-0.1714882105588913,0.1500861495733261,-0.12181854993104935,0.17513839900493622,-0.18012720346450806,0.07880187034606934,-0.32377591729164124,-0.01571161113679409,0.08693507313728333,-0.17022010684013367,0.1072445958852768,0.03461273014545441,-0.19677093625068665,-0.05939800664782524,0.16312985122203827,-0.06292227655649185,0.12557628750801086,0.03867358714342117,0.17941442131996155,-0.10321984440088272,0.08999770134687424,-0.04084165766835213,-0.1120663583278656,0.02469909004867077,-0.0376192107796669,-0.0002808990830089897,-0.10858216881752014,0.05118599534034729,-0.1719667613506317,-0.20610752701759338,0.08196728676557541,-0.013308580033481121,-0.006891806609928608,0.010239291936159134,0.10299628973007202,0.002294635633006692,0.09950151294469833,0.15331552922725677,-0.20958180725574493,0.044805701822042465,0.014580543152987957,-0.10574842244386673,-0.22907431423664093,0.17451295256614685,0.10372184962034225,-0.05237449333071709,0.1407027691602707,0.20466838777065277,-0.10367783159017563,0.252810001373291,0.3112680912017822,-0.14354483783245087,0.24147707223892212,0.14912323653697968,0.03184931352734566,0.22258655726909637,0.027186110615730286,0.19004637002944946,0.0713191032409668,0.18068654835224152,0.1258741319179535,-0.1780240535736084,0.044627055525779724,-0.018551712855696678,-0.24089141190052032,-0.08882788568735123,-0.13980771601200104,0.011630075052380562,0.028288207948207855,0.005593104753643274,-0.09080112725496292,-0.07732100039720535,0.2334315925836563,0.12107966840267181,0.2165231853723526,-0.07403897494077682,0.10151270776987076,-0.08939652889966965,0.011411871761083603,0.005082462914288044,-0.06367526948451996,-0.1374412477016449,-0.13351057469844818,-0.1882932186126709,0.04216839745640755,-0.09394563734531403,0.11960094422101974,-0.02142459712922573,-0.27129510045051575,0.08639431744813919,0.1848471462726593,0.031535230576992035,-0.01903907209634781,0.28931158781051636,-0.04259374737739563,0.019835108891129494,0.12512733042240143,0.12041450291872025,-0.0020488498266786337,0.05496307462453842,-0.09760525077581406,0.07454144954681396,0.30876463651657104,-0.03381898254156113,-0.0837443619966507,-0.13548162579536438,0.26034918427467346,-0.04984847828745842,-0.20394699275493622,0.09871746599674225,-0.09548906981945038,0.12989147007465363,0.028698395937681198,0.017021838575601578,-0.10764036327600479,-0.11139664053916931,0.08233819901943207,0.31053322553634644,-0.04012272134423256,0.0908365249633789,-0.0430549681186676,-0.03533536195755005,-0.0948183462023735,0.22926178574562073,0.10178353637456894,-0.08925609290599823,-0.07122144848108292,-0.21649304032325745,0.02564583532512188,0.027980288490653038,-0.11888264864683151,0.09565091878175735,0.0442933589220047,-0.00572466105222702,0.11550921946763992,-0.24904537200927734,0.11185892671346664,0.0829802080988884,-0.18577103316783905,-0.1274152398109436,0.22560709714889526,0.14363330602645874,-0.048693861812353134,0.10487118363380432,0.024823172017931938,-0.0885133445262909,0.004107863176614046,0.05940264090895653,0.026472371071577072,-0.020401502028107643,-0.05933719873428345,-0.15724603831768036,0.0382402241230011,-0.04782925918698311,-0.07205916196107864,-0.0021762310061603785,0.06256381422281265,0.09191437065601349,0.048497073352336884,-0.04010215774178505,-0.03354969620704651,0.19053442776203156,0.020287012681365013,0.08401994407176971,-0.04269601032137871,0.06934456527233124,-0.11802493780851364,-0.07044251263141632,0.08019059151411057,-0.16844236850738525,0.18646228313446045,-0.08853567391633987,-0.1725040227174759,-0.1712317317724228,-0.15575341880321503,-0.11595461517572403,-0.04878384619951248,0.010800778865814209,-0.10905805230140686,0.03606729209423065,0.0646182969212532,0.14029614627361298,0.08047004044055939,0.1225295141339302,0.004029592964798212,0.0014737332239747047,0.007639738265424967,0.0884082093834877,-0.0407278910279274,0.11705653369426727,-0.08926648646593094,0.11968294531106949,0.04087722674012184,-0.14728623628616333,-0.13400235772132874,0.13797011971473694,0.49036240577697754,0.07461670786142349,-0.11882742494344711,0.08876354992389679,-0.05793900415301323,-0.04686655104160309,0.18441514670848846,0.8198524713516235,-0.026586921885609627,0.01467905379831791,-0.009020920842885971,0.5416482090950012,0.04124554619193077,-1.029999017715454,0.001103028072975576,-0.6107617020606995,-0.014556781388819218,-0.017426373437047005,-0.04496448114514351,0.31780940294265747,0.0328478068113327,-0.30628809332847595,0.0003906330675818026,0.3604690134525299,0.05213595926761627,0.32091522216796875,0.06070897728204727,-0.9945265054702759,-0.04569412022829056,0.43393614888191223,0.044758427888154984,0.017441704869270325,-0.07195015996694565,-0.697408139705658,0.04881903529167175,-0.04757056385278702,0.0018901098519563675,-0.15082582831382751,-0.0645289197564125,-0.1187201589345932,-0.24567314982414246,0.0986371636390686,-0.17698492109775543,0.056595031172037125,0.15025341510772705,-0.05045657977461815,-0.09492331743240356,-0.238921657204628,-0.019461145624518394,-0.12837745249271393,-0.05100525915622711,0.04327450320124626,-0.0330534353852272,0.2664030194282532,-0.04164396971464157,-0.11641743034124374,-0.16361629962921143,0.02783425897359848,-0.1536722332239151,0.007204541936516762,-0.10493215173482895,0.23447394371032715,-0.28222551941871643,-0.1286923587322235,0.034887753427028656,-0.2831105589866638,0.07606422156095505,-0.10951322317123413,0.10669753700494766,0.21816955506801605,0.12320329248905182,-0.0021396561060100794,0.014390568248927593,-0.12288698554039001,-0.1863214671611786,0.09839093685150146,-0.024979576468467712,-0.2335217297077179,-0.0969712883234024,0.3113233149051666,-0.12373603135347366,-0.022612091153860092,-0.17467863857746124,-0.0346962995827198,0.1765141487121582,0.06820358335971832,0.01214317325502634,-0.22064240276813507,0.0643451064825058,-0.09590765088796616,0.31025955080986023,0.19909633696079254,0.272345632314682,0.1600651890039444,0.06549004465341568,-0.2122596651315689,-0.2249932736158371,0.08736207336187363,-0.1319369673728943,0.03756827861070633,0.12968112528324127,0.06164104864001274,-0.22990618646144867,0.13744837045669556,-0.05111393705010414,-0.06659750640392303,0.18607297539710999,0.01542830839753151,-0.07856824994087219,0.18579240143299103,-0.1930515468120575,0.30337685346603394,0.2239069789648056,0.169907808303833,0.08660318702459335,-0.1401444375514984,-0.13752500712871552,-0.3045733869075775,-0.10931573063135147,-0.2934960722923279,0.17141076922416687,0.07744152843952179,0.11627740412950516,-0.20788222551345825,0.12862415611743927,0.08274915814399719,-0.025456154718995094,0.1190357580780983,0.2354443222284317,-0.3175851106643677,0.27931997179985046,-0.03352968767285347,0.2240303009748459,-0.23157227039337158,-0.04534003138542175,-0.04561890289187431,-0.21809527277946472,-0.1186603233218193,-0.006588920019567013,-0.024262743070721626,-0.2454908788204193,0.17583289742469788,0.13555139303207397,-0.17070823907852173,-0.007578738499432802,0.06218620762228966,-0.14332027733325958,0.11929436028003693,0.041766490787267685,0.0834246575832367,-0.09302715212106705,-0.256830632686615,0.22720810770988464,-0.2897680103778839,0.11937230080366135,0.22618500888347626,-0.23734967410564423,-0.10976815223693848,0.4805598556995392,-0.08647172152996063,0.019603243097662926,-0.0641058012843132,0.1293632686138153,-0.2646658420562744,0.18199698626995087,0.23241837322711945,-0.06811552494764328,-0.2423589527606964,0.07443919032812119,-0.23285283148288727,-0.03934646025300026,0.10418254137039185,-0.05827869847416878,-0.19842536747455597,-0.06320687383413315,-0.12752804160118103,-0.09842783212661743,0.004420761484652758,-0.29484933614730835,0.19700273871421814,0.13224169611930847,-0.0071410066448152065,0.10521366447210312,-0.010520335286855698,0.11031436920166016,0.014436491765081882,-0.079749695956707,-0.1937132477760315,-0.04295164719223976,-0.0948474332690239,0.08876395225524902,-0.22882652282714844,-0.1364503651857376,0.061445534229278564,-0.1490548998117447,0.20105324685573578,-0.1253286451101303,0.32967397570610046,0.026674091815948486,-0.06855262070894241,0.09039482474327087,-0.27699214220046997,-0.1541828066110611,-0.12095937877893448,0.004493907559663057,-0.007603956386446953,-0.1859457939863205,0.25180646777153015,-0.05104150250554085,-0.15002287924289703,-0.07009659707546234,-0.0871913880109787,0.136176198720932,0.16987928748130798,-0.07395631819963455,0.2364724725484848,0.029688933864235878,-0.19061948359012604,0.06450212746858597,0.029686955735087395,-0.22714251279830933,-0.05373195931315422,0.1652994006872177,0.03622959926724434,0.024623245000839233,0.21297962963581085,0.32073548436164856,-0.34397873282432556,0.24705027043819427,-0.021343078464269638,-0.14989696443080902,-0.02013014443218708,0.21301718056201935,0.16503819823265076,0.16843238472938538,-0.17757660150527954,0.07968784868717194,-0.19985927641391754,-0.12481946498155594,0.09036525338888168,0.09310094267129898,-0.25443241000175476,-0.11429065465927124,-0.24709513783454895,0.10759074240922928,0.04204684868454933,-0.1165573000907898,-0.12177033722400665,0.19828110933303833,-0.03714026138186455,0.23007795214653015,0.0639548972249031,0.15160591900348663,-0.26412081718444824,0.11481758207082748,-0.05720284581184387,0.10453217476606369,0.269600510597229,-0.2691858410835266,-0.3194442689418793,-0.21003758907318115,-0.010147406719624996,-0.038834042847156525,0.21423298120498657,-0.13988307118415833,0.1804911494255066,0.14508946239948273,-0.22489100694656372,-0.18091298639774323,0.25721707940101624,-0.05399032682180405,-0.07325474917888641,0.3691738545894623,-0.3009229302406311,0.04482636973261833,0.20545139908790588,-0.07341375201940536,-0.04924946278333664,0.13016937673091888,-0.2311987727880478,0.20769014954566956,-0.345588356256485,-0.27702879905700684,-0.38430163264274597,-0.17415659129619598,0.1096280962228775,-0.1843654364347458,-0.4732687771320343,0.059382084757089615,-0.3133344352245331,-0.13069893419742584,0.03780578449368477,-0.007401552051305771,0.2929086685180664,-0.01129729300737381,-0.19845077395439148,0.0624769926071167,0.19528843462467194,-0.07883760333061218,0.009630114771425724,0.14783719182014465,0.017394961789250374,0.1526540070772171,-0.2419835776090622,0.10160957276821136,0.10405401885509491,-0.019755184650421143,0.054777368903160095,-0.2436216175556183,0.04068128764629364,-0.0060983747243881226,-0.048821523785591125,-0.07492346316576004,0.09251756966114044,-0.03925980627536774,0.1450769603252411,-0.10709036141633987,-0.12115789204835892,-0.008442330174148083,-0.08372281491756439,0.11840550601482391,0.05707845091819763,-0.07544918358325958,-0.028067458420991898,0.09078416228294373,-0.08111507445573807,-0.04127907752990723,-0.010430376045405865,0.06685464829206467,-0.005488392431288958,-0.07300451397895813,-0.005731164012104273,-0.010101302526891232,-0.02958560734987259,-0.28849685192108154,0.08540120720863342,-0.09096930921077728,-0.02604307234287262,-0.01983414776623249,-0.09762787818908691,0.24654042720794678,0.11444337666034698,0.11397278308868408,0.029699331149458885,0.28780397772789,0.10753122717142105,-0.044845111668109894,0.0807235911488533,0.019859228283166885,0.057746827602386475,0.03250701352953911,-0.047920744866132736,-0.1339920461177826,-0.06265795230865479,-0.1703965961933136,0.07232668250799179,-0.2508690059185028,-0.015288544818758965,0.1206132173538208,-0.019425148144364357,-0.010031227953732014,0.23817436397075653,0.20741163194179535,-0.1555911749601364,0.06555412709712982,-0.05954888090491295,-0.04607091471552849,-0.0059247203171253204,-0.13395871222019196,0.09713006019592285,0.138483926653862,0.10692855715751648,0.028700003400444984,-0.11433590948581696,0.020305877551436424,-0.007814249023795128,-0.17588958144187927,-0.15902888774871826,0.10478600114583969,0.19625882804393768,-0.17770631611347198,0.060848552733659744,-0.12211925536394119,-0.04089132323861122,0.06976228952407837,0.18325984477996826,0.03148479387164116,-0.005872529000043869,-0.05466492846608162,0.0959646999835968,-0.1962643414735794,0.18293239176273346,-0.12574109435081482,-0.022739533334970474,0.014444629661738873,-0.023932477459311485,-0.13618463277816772,0.1379948854446411,-0.020627077668905258,-0.08970910310745239,0.14857333898544312,0.19328603148460388,0.007533000782132149,-0.22612755000591278,0.07841100543737411,-0.2219220995903015,-0.16493554413318634,-0.11268714815378189,0.06914620846509933,0.057924799621105194,0.2218170017004013,0.32147416472435,-0.35626429319381714,0.13624589145183563,0.163533017039299,-0.1350887417793274,-0.07565798610448837,0.0418168306350708,-0.035417236387729645,-0.19338849186897278,-0.14939993619918823,-0.25560295581817627,0.06207983195781708,0.2509559094905853,-0.12193301320075989,-0.059940990060567856,0.0035705375485122204,-0.19143031537532806,-0.021943632513284683,0.1795099675655365,-0.057539455592632294,0.03077596426010132,-0.2244550734758377,-0.11159224063158035,0.07723533362150192,-0.06585447490215302,-0.0073576271533966064,0.22542670369148254,0.1517326384782791,0.04395187273621559,0.041573893278837204,0.05203629285097122,0.17419005930423737,-0.0007683088188059628,-0.14645852148532867,0.009959710761904716,-0.03256098926067352,-0.08213318884372711,0.01722652278840542,0.02921554632484913,0.11696945130825043,0.06894946098327637,0.02149888314306736,-0.3540897071361542,-0.11167224496603012,-0.000484728894662112,0.03194591775536537,0.08130116760730743,-0.01184851210564375,0.1250758171081543,-0.29080629348754883,0.06504407525062561,0.159379780292511,-0.15627561509609222,0.04441229626536369,-0.1491849273443222,-0.02952718921005726,0.05391969904303551,0.020554542541503906,0.007888001389801502,0.12082216888666153,-0.012381171807646751,0.07910127937793732,0.08929911255836487,-0.06505566835403442,0.07400386035442352,0.1843833476305008,0.1664089411497116,-0.027452077716588974,-0.13966462016105652,-0.08105523884296417,-0.03808046504855156,-0.25142377614974976,-0.06669703871011734,-0.01887824945151806,0.06435328722000122,0.19333259761333466,-0.05352536588907242,-0.08824003487825394,-0.1330774426460266,0.02210993506014347,0.13955722749233246,0.12466155737638474,-0.012067073956131935,-0.06444891542196274,0.05892663076519966,-0.10466894507408142,0.07681767642498016,0.06662808358669281,-0.05018669366836548,0.05564522370696068,-0.022662289440631866,-0.14208219945430756,-0.07342091202735901,0.06092475354671478,0.0686851218342781,-0.10607297718524933,0.05713704228401184,0.12723027169704437,0.08874164521694183,-0.004107439424842596,0.261933296918869,-0.059916943311691284,0.19210566580295563,-0.02111244387924671,0.009002719074487686,-0.04833361878991127,0.12224353849887848,0.0848720595240593,-0.023541703820228577,0.0023128953762352467,0.15690593421459198,-0.049768220633268356,-0.059464599937200546,0.0856192409992218,0.006362601649016142,0.014655365608632565,0.05410894379019737,0.035514816641807556,0.06685128062963486,0.08631931990385056,0.12198047339916229,0.18174609541893005,-0.011307138949632645,0.04641467332839966,-0.0790361613035202,0.21528032422065735,-0.07565503567457199,-0.2037220597267151,-0.1129073053598404,0.10226918756961823,-0.031028814613819122,0.10366661846637726,0.10149093717336655,-0.12064621597528458,-0.14685386419296265,-0.1814892739057541,0.10936404019594193,-0.21914005279541016,0.0717916339635849,0.2326139658689499,-0.1329619288444519,0.04555715247988701,-0.029764564707875252,0.031281400471925735,0.08165213465690613,-0.2146417796611786,0.20174935460090637,0.16718529164791107,0.03477555513381958,-0.06148109957575798,-0.02751510590314865,0.010105079971253872,-0.07696041464805603,-0.03337491676211357,-0.05376485362648964,-0.06559614837169647,0.018569523468613625,-0.0846310555934906,0.12493837624788284,-0.009804360568523407,-0.0957532525062561,-0.0738535150885582,0.2804911136627197,0.0970330685377121,-0.10156811028718948,-0.19866465032100677,0.04510913044214249,-0.10155186057090759,0.061535805463790894,-0.21751005947589874,0.07762216776609421,-0.0034000652376562357,0.06829183548688889,-0.10651236027479172,0.028361355885863304,0.1144295334815979,0.09214689582586288,-0.0459328331053257,-0.09943029284477234,-0.19734929502010345,-0.12136927992105484,0.01731049455702305,0.13749855756759644,0.18166854977607727,-0.1249789223074913,0.08105196058750153,-0.06955564022064209,-0.10036863386631012,0.023832261562347412,-0.009547770954668522,0.1932273507118225,0.2667182385921478,-0.12119665741920471,-0.13630203902721405,-0.01597246713936329,-0.19527839124202728,-0.03876591473817825,-0.1775919497013092,-0.13248305022716522,0.10491503775119781,0.1399899125099182,0.18756766617298126,-0.23485682904720306,0.13988971710205078,0.14205515384674072,-0.07213617116212845,0.03922843188047409,0.12630051374435425,0.10628342628479004,-0.1539999544620514,0.11895071715116501,0.006779896095395088,-0.1541137844324112,-0.1469641476869583,0.23128551244735718,0.1566837728023529,0.11359086632728577,-0.03905187547206879,-0.022284438833594322,0.0021827213931828737,0.10842128843069077,-0.08112756907939911,-0.0859498381614685,0.13051550090312958,-0.13160191476345062,0.08452703058719635,0.18280665576457977,-0.012184077873826027,0.06315107643604279,0.22210223972797394,0.04282008856534958,-0.07039505988359451,-0.16426444053649902,0.3344375789165497,-0.08182039856910706,-0.04800378531217575,0.07907725125551224,-0.08168929815292358,0.015541305765509605,-0.054443541914224625,-0.10950828343629837,0.18993420898914337,-0.030242500826716423,-0.09994705766439438,0.19388768076896667,0.16623255610466003,0.12541793286800385,0.002896894235163927,-0.023171963170170784,-0.10443513840436935,0.039572227746248245,-0.1431160569190979,-0.04820875823497772,0.06062018871307373,-0.05222666263580322,-0.04399751499295235,-0.1685313880443573,0.14765362441539764,-0.2986931800842285,-0.24862942099571228,0.01117163710296154,0.12238159775733948,0.08160973340272903,-0.010861811228096485,0.03763474151492119,-0.007146554999053478,-0.08037994801998138,-0.07960346341133118,0.012597057037055492,-0.02505483850836754,-3.674138861242682e-05,0.035888370126485825,0.024179566651582718,-0.07493490725755692,-0.007554446347057819,0.028046341612935066,-0.002202374627813697,-0.1914176046848297,-0.13867856562137604,-0.13331952691078186,0.013595805503427982,-0.17043079435825348,0.06483958661556244,0.1484156847000122,0.08950537443161011,-0.07339312136173248,-0.15360648930072784,-0.13146865367889404,0.04975395277142525,-0.10696915537118912,-0.15110434591770172,-0.3109429180622101,-0.06287181377410889,-0.049364734441041946,-0.020785201340913773,-0.1686244010925293,0.07213925570249557,-0.16700300574302673,0.2197423279285431,-0.03154638409614563,-0.11515749990940094,0.1702742576599121,-0.04351876676082611,-0.20504872500896454,-0.11119901388883591,0.08178605884313583,-0.2963743805885315,0.005428256932646036,0.1061539575457573,0.009547360241413116,-0.059531070291996,-0.0012179530458524823,-0.09963218122720718,0.18982169032096863,-0.027939386665821075,-0.004982805345207453,-0.12642240524291992,0.01943168044090271,0.09064327925443649,-0.18120937049388885,0.13317830860614777,0.08986422419548035,-0.14620132744312286,-0.007391714956611395,0.03858012333512306,-0.0505821667611599,-0.16644605994224548,-0.07339312136173248,-0.02531752735376358,-0.2141869068145752,0.048392679542303085,0.18472982943058014,-0.08130063861608505,-0.05629223585128784,-0.1592058539390564,-0.03660888597369194,-0.10647163540124893,0.21221043169498444,0.18571138381958008,0.25282955169677734,-0.08672265708446503,0.017727984115481377,-0.011356730945408344,-0.16395960748195648,-0.0739329606294632,-0.21045243740081787,-0.16898967325687408,-0.013192396610975266,0.058372125029563904,0.23884421586990356,0.12821006774902344,0.19489295780658722,0.054321013391017914,0.1283125877380371,0.25470635294914246,0.20487546920776367,0.024793142452836037,0.1891959309577942,0.07399655878543854,-0.11136694252490997,-0.034601978957653046,