{"version":"0.5.4","metadata":{"date":"2026-05-26T17:53:25","sample_rate":48000,"loudness":-37.07160568237305,"training_esr":0.061824403590343587,"pretrained":"POWER 1.5.nam","architecture":"STANDARD","input_level_dbu":17.8,"output_level_dbu":-15.4},"architecture":"WaveNet","config":{"layers":[{"input_size":2,"condition_size":2,"channels":16,"head_size":8,"kernel_size":3,"dilations":[1,2,4,8,16,32,64,128,256,512],"activation":"Tanh","gated":false,"head_bias":false},{"input_size":16,"condition_size":2,"channels":8,"head_size":1,"kernel_size":3,"dilations":[1,2,4,8,16,32,64,128,256,512],"activation":"Tanh","gated":false,"head_bias":true}],"head":null,"head_scale":0.02,"rate_condition_hidden":16,"rate_condition_num_biases":240},"weights":[0.14294280111789703,0.03340588137507439,0.6663559079170227,0.03166754171252251,-0.9562185406684875,0.018742548301815987,-1.0011087656021118,-0.008561480790376663,-0.5288415551185608,0.028149140998721123,0.41430583596229553,0.029235683381557465,-0.20116053521633148,-0.045755065977573395,0.9296926259994507,-0.015118736773729324,-0.26500338315963745,-0.020153658464550972,0.3187622129917145,-0.02365744858980179,-0.32034945487976074,-0.013223047368228436,-0.30344676971435547,-0.048463061451911926,-1.223453402519226,0.025832902640104294,-0.7624889612197876,-0.014452238567173481,-0.5452950596809387,-0.0026219289284199476,0.206326425075531,0.022731924429535866,0.06834501773118973,0.16066794097423553,-0.32408884167671204,-0.01280250120908022,0.08940144628286362,0.05845126137137413,-0.08559505641460419,0.05597817152738571,0.021071182563900948,-0.04069697856903076,0.08439365774393082,-0.07649754732847214,-0.14527447521686554,-0.08974657207727432,-0.015495173633098602,0.16890543699264526,-0.05759304389357567,-0.1359892189502716,-0.13902299106121063,-0.15263286232948303,0.06908036023378372,0.1822967678308487,0.12078948318958282,0.0204318780452013,-0.04283976927399635,-0.1373407244682312,0.1217474639415741,-0.07299847900867462,-0.050020501017570496,-0.1398695856332779,0.041161421686410904,0.04200396314263344,-0.001302808290347457,-0.055252935737371445,0.0554162822663784,0.2307506650686264,-0.0021771681495010853,-0.033386074006557465,0.14996783435344696,-0.1364172399044037,-0.018622219562530518,-0.05734078958630562,-0.1535530537366867,-0.1250143200159073,0.11116158962249756,0.11104913800954819,-0.05591859295964241,-0.07285893708467484,-0.072811558842659,-0.16565604507923126,0.09005220979452133,-0.14760014414787292,-0.04404134303331375,0.15583746135234833,0.0545123815536499,0.0736832469701767,0.04416777938604355,0.2953621447086334,0.2595632076263428,0.1064075157046318,0.18807737529277802,-0.003791162045672536,0.00042304006638005376,-0.25899896025657654,-0.26506826281547546,0.1464422643184662,0.27719423174858093,-0.033865995705127716,-0.05317861586809158,-0.18970638513565063,-0.15520785748958588,-0.051816292107105255,0.2127905637025833,0.056077923625707626,0.022800520062446594,-0.08380557596683502,-0.022128600627183914,0.08780664205551147,0.0206683911383152,0.035340480506420135,0.05429711937904358,0.203373521566391,0.01944364421069622,-0.10990030318498611,0.3069324493408203,0.22982282936573029,-0.08110801875591278,0.13863462209701538,-0.003148923860862851,-0.01522679254412651,0.05589829012751579,0.013729189522564411,-0.020211756229400635,-0.1346026360988617,-0.16824695467948914,0.1538752019405365,-0.005293510854244232,0.2716690003871918,-0.055939413607120514,-0.018964212387800217,0.0717734768986702,-0.08077619969844818,-0.07907841354608536,-0.08424615859985352,0.12726512551307678,-0.09527230262756348,-0.18505677580833435,0.15055805444717407,-0.2366751879453659,-0.20279037952423096,0.03305298835039139,0.02271217666566372,0.057222627103328705,-0.21246735751628876,-0.13104623556137085,-0.05038849264383316,0.06556207686662674,0.09431567043066025,0.22500677406787872,-0.08626507967710495,-0.08644571900367737,-0.13365545868873596,0.13238947093486786,0.19780483841896057,0.2568613588809967,0.0012540359748527408,0.040744416415691376,-0.12234032154083252,-0.042427562177181244,-0.17079684138298035,-0.008857143111526966,0.10674166679382324,-0.17695187032222748,-0.22991295158863068,-0.059230100363492966,-0.22032295167446136,-0.14172574877738953,0.15766769647598267,-0.01949809491634369,-0.2553161382675171,0.16278038918972015,-0.015156399458646774,0.06616290658712387,-0.19940786063671112,0.05175987631082535,-0.22793227434158325,0.26984307169914246,-0.08931833505630493,-0.19587349891662598,0.221201553940773,-0.09493473172187805,0.24212472140789032,-0.32998326420783997,-0.03984616696834564,0.30792126059532166,-0.273945689201355,0.09788595885038376,0.2419532984495163,-0.33070433139801025,0.1358407884836197,-0.19519536197185516,0.1707325577735901,0.06486496329307556,0.05946061760187149,-0.3206646144390106,-0.0027013584040105343,-0.08691178262233734,0.24455174803733826,0.023975614458322525,0.24194398522377014,-0.2973601222038269,-0.005213690456002951,-0.30651161074638367,0.30073878169059753,0.07679636776447296,0.2782522439956665,-0.32416412234306335,-0.032498300075531006,0.07529600709676743,-0.32887113094329834,-0.10955925285816193,0.23908363282680511,-0.29436805844306946,-0.03726943954825401,0.18265485763549805,-0.1158641129732132,-0.14382435381412506,0.08632507175207138,-0.28872522711753845,0.14244911074638367,-0.22711896896362305,0.41312575340270996,0.2558146119117737,-0.0070389071479439735,-0.1832694709300995,0.17872293293476105,-0.06677015125751495,-0.1292155683040619,-0.17692625522613525,0.11419637501239777,-0.011286836117506027,-0.2659166157245636,0.2123733013868332,-0.005493209697306156,-0.18763943016529083,0.23987257480621338,0.1478397697210312,0.21471692621707916,-0.2008306384086609,-0.01679830066859722,-0.35328611731529236,0.04342960566282272,0.08280187845230103,0.15511518716812134,-0.08954969793558121,0.010902820155024529,-0.18169887363910675,0.19142942130565643,0.20511305332183838,0.09720341861248016,-0.025229550898075104,-0.2251432240009308,-0.2547277510166168,0.12170025706291199,0.14525724947452545,-0.12246518582105637,0.01710318960249424,0.09435255080461502,-0.10935945808887482,-0.045292723923921585,0.21595531702041626,-0.30950289964675903,0.08955642580986023,0.07402846217155457,-0.2539067566394806,0.11480750888586044,0.21745455265045166,0.17040635645389557,-0.1894001066684723,-0.18962731957435608,-0.1330748349428177,0.3372940123081207,-0.2339886724948883,-0.07968052476644516,0.10495949536561966,-0.028197841718792915,0.07831715047359467,-0.060502197593450546,0.16472047567367554,-0.05327625572681427,-0.22014345228672028,0.16478633880615234,0.1249680146574974,-0.13516931235790253,0.043342169374227524,-0.056480083614587784,0.06078435108065605,-0.07750452309846878,-0.10202928632497787,-0.3681850731372833,0.29478442668914795,-0.09457632154226303,0.1595078706741333,-0.07220716029405594,0.0021414393559098244,-0.308138370513916,0.006353502627462149,0.11106432974338531,0.20813605189323425,-0.008383030071854591,-0.054622914642095566,-0.14223730564117432,0.07617127150297165,-0.030020087957382202,-0.2985877990722656,0.15874971449375153,0.04286327585577965,-0.18166017532348633,0.08552408963441849,-0.0974714532494545,-0.0797714963555336,0.0028590690344572067,0.06212383508682251,-0.2203141152858734,0.043020784854888916,0.024732906371355057,0.12564629316329956,-0.12968885898590088,0.07233818620443344,0.16403484344482422,-0.21942925453186035,0.08503877371549606,0.2614271640777588,-0.25122547149658203,-0.1222577765583992,-0.218824565410614,0.2843237519264221,-0.06567137688398361,-0.1434091031551361,0.3394283652305603,-0.0714520588517189,-0.19406716525554657,0.2900494933128357,0.027874233201146126,0.22775086760520935,-0.21043437719345093,-0.14989767968654633,-0.20613332092761993,0.3609883487224579,0.13599172234535217,0.2850208878517151,-0.21549169719219208,0.05518347769975662,-0.30258816480636597,0.1138838529586792,-0.12285327166318893,0.3377232253551483,-0.15805594623088837,-0.1111166849732399,-0.14671699702739716,0.3387528955936432,0.1129414513707161,-0.09735570102930069,0.3438573181629181,-0.043596718460321426,-0.2510674297809601,0.35970398783683777,0.06569782644510269,-0.2882811725139618,0.3594781756401062,0.06768389791250229,-0.11844031512737274,0.14052598178386688,0.05064111948013306,0.14966236054897308,-0.16064639389514923,0.2302255779504776,0.11428333073854446,-0.1725693941116333,0.3543432652950287,0.001835861592553556,-0.036900099366903305,-0.39022836089134216,-0.028330041095614433,-0.009150836616754532,-0.4374074935913086,-0.1734757125377655,0.2191348373889923,-0.2069568783044815,0.07958553731441498,0.19923880696296692,0.14938141405582428,-0.05071798712015152,-0.13326561450958252,-0.3603557050228119,0.10011734813451767,0.055564995855093,0.21898798644542694,-0.07291291654109955,-0.17519830167293549,-0.15379586815834045,0.05233905091881752,0.22732941806316376,0.3931373059749603,0.18945837020874023,-0.15495078265666962,-0.21150878071784973,0.07457804679870605,0.15344174206256866,-0.13928209245204926,0.024769876152276993,0.2193378508090973,-0.34647950530052185,0.004688648506999016,0.11566337943077087,-0.32450878620147705,-0.13802357017993927,0.016439007595181465,-0.39643460512161255,0.04079083353281021,0.18999935686588287,0.24802573025226593,-0.06376014649868011,-0.03653246536850929,0.2930750250816345,0.26423197984695435,-0.16267511248588562,0.35387948155403137,0.2781529426574707,-0.03531496226787567,-0.06600191444158554,-0.10373155027627945,-0.12376857548952103,-0.1429833173751831,-0.3068535625934601,-0.10103674232959747,-0.06625069677829742,-0.19544216990470886,-0.16215293109416962,0.16140232980251312,0.17381270229816437,0.0296414103358984,-0.21957354247570038,-0.07291875779628754,0.02197478897869587,0.11931277811527252,0.22508512437343597,0.13734646141529083,-0.14115548133850098,-0.3592296838760376,-0.06004919856786728,0.09359876811504364,0.13979960978031158,0.0866929441690445,-0.30867159366607666,-0.1567590832710266,0.0675797089934349,-0.20448577404022217,-0.30252453684806824,-0.0874100774526596,-0.18413712084293365,-0.32974958419799805,0.0014161207946017385,-0.3474157750606537,-0.36015304923057556,-0.2192026525735855,-0.23185282945632935,-0.11579661071300507,-0.20836713910102844,0.3431476652622223,0.1453595608472824,0.05181029811501503,-0.1967967450618744,0.07094615697860718,0.41455012559890747,-0.15683136880397797,0.3438187837600708,0.12442091852426529,0.14561977982521057,-0.05377797782421112,-0.016314849257469177,0.3134978711605072,-0.30369889736175537,-0.08363424986600876,0.10001595318317413,-0.23126620054244995,0.007854792289435863,-0.34014347195625305,0.2588264048099518,0.14634405076503754,0.264159619808197,-0.3634345233440399,-0.3086245656013489,-0.2874481678009033,0.23519109189510345,0.1756024956703186,0.3191477060317993,-0.21020734310150146,-0.06578320264816284,-0.391301691532135,0.05005926638841629,0.12854880094528198,0.14764799177646637,-0.12454904615879059,-0.1592043936252594,0.1531284898519516,-0.3369770050048828,-0.03293116018176079,0.23238283395767212,-0.06735942512750626,0.052726443856954575,0.313280314207077,-0.1833736151456833,-0.08723119646310806,0.20894892513751984,-0.16073834896087646,0.04331837221980095,-0.35760077834129333,0.3466123342514038,0.11250438541173935,-0.33930304646492004,-0.03040257655084133,0.3221772313117981,-0.07145240157842636,-0.07074207067489624,0.145491361618042,0.2597915232181549,0.02578255720436573,0.07587035745382309,0.12402325868606567,-0.015573890879750252,0.0029641250148415565,0.1419677436351776,-0.013489980250597,-0.07229961454868317,-0.1113593652844429,0.024046283215284348,-0.01612331159412861,0.2688297629356384,-0.044372234493494034,-0.165633887052536,-0.17811819911003113,0.14047500491142273,0.038391292095184326,0.24779660999774933,-0.0888938307762146,-0.015132364816963673,-0.3058369755744934,-0.023225655779242516,-0.022305186837911606,0.3256283104419708,-0.09996092319488525,-0.042948901653289795,0.1421746164560318,0.07838466018438339,0.09636837989091873,0.0893348678946495,-0.1757337749004364,-0.16565075516700745,0.19381089508533478,-0.09517529606819153,-0.14139559864997864,0.13392776250839233,-0.03473581001162529,-0.11522543430328369,-0.18069584667682648,0.05525116249918938,0.009867165237665176,-0.02145848423242569,-0.08561185747385025,0.1258171647787094,-0.06256534904241562,-0.2126818597316742,0.2728377878665924,-0.08874562382698059,0.010845900513231754,0.005788519978523254,-0.03213317319750786,0.18085868656635284,-0.15473558008670807,0.011883729137480259,0.11565528810024261,-0.040116261690855026,-0.05958030745387077,-0.31168872117996216,0.04427723586559296,0.03233033046126366,0.25035226345062256,-0.2592751383781433,0.08562804013490677,-0.18603470921516418,0.11368662118911743,0.17250750958919525,0.25800907611846924,-0.02653682418167591,0.030365105718374252,-0.19956041872501373,0.05598050355911255,0.04871192201972008,0.28157997131347656,-0.18345217406749725,-0.05229881405830383,0.23987141251564026,0.00811451394110918,0.014305030927062035,0.034283529967069626,-0.27310287952423096,0.09519531577825546,0.14355866611003876,-0.20551013946533203,0.07595091313123703,0.20438770949840546,-0.019307361915707588,0.04984103515744209,-0.18112216889858246,0.046814657747745514,-0.35776519775390625,0.051848120987415314,0.23385441303253174,-0.1569368541240692,-0.16588062047958374,0.1304168850183487,0.3359129726886749,0.16925689578056335,-0.12057562917470932,0.1609298437833786,-0.06012387201189995,0.1330900639295578,0.13229696452617645,-0.03158247470855713,0.07938717305660248,-0.28344008326530457,-0.11279872059822083,-0.011495850048959255,0.24009564518928528,-0.08430337905883789,0.047613125294446945,-0.26769015192985535,0.008157243020832539,0.13007941842079163,0.29728880524635315,0.07867054641246796,0.08949513733386993,-0.19172394275665283,-0.10025345534086227,0.16107705235481262,0.24247878789901733,-0.09910272806882858,-0.047973182052373886,0.13558773696422577,0.17199215292930603,-0.03724578395485878,0.07910864055156708,0.031923599541187286,0.08530660718679428,0.24719390273094177,0.0884406790137291,0.01604929193854332,0.2526150643825531,0.0028933859430253506,-0.054696984589099884,-0.36683616042137146,-0.13276109099388123,0.11486310511827469,-0.19480356574058533,-0.24144423007965088,0.1893119364976883,-0.13850298523902893,-0.2904435396194458,0.1335553079843521,0.05179377272725105,0.31020650267601013,-0.11005713790655136,0.11073875427246094,0.27604153752326965,-0.057871416211128235,0.2501780688762665,0.08836282044649124,-0.11857147514820099,-0.2065500169992447,-0.17504507303237915,0.13651445508003235,0.09055672585964203,0.272930383682251,-0.10438907146453857,-0.1695946753025055,-0.09019457548856735,-0.11318131536245346,0.1552308201789856,0.3555288016796112,-0.045781780034303665,-0.023557348176836967,-0.23807895183563232,0.13721151649951935,-0.002590616699308157,0.17308327555656433,-0.032039642333984375,0.20301853120326996,0.2650572657585144,0.10002341121435165,0.12124401330947876,0.19125884771347046,0.09913850575685501,0.10250982642173767,0.3212999105453491,-0.09113502502441406,0.11799424886703491,0.18328285217285156,0.06869514286518097,-0.04707967862486839,-0.2260521650314331,-0.06757589429616928,0.15149788558483124,0.13129055500030518,-0.10462132096290588,0.016084615141153336,0.1589370220899582,0.09979771077632904,-0.06898240000009537,-0.1896422803401947,0.1494641900062561,-0.20022055506706238,-0.022032534703612328,0.0736648216843605,-0.1467295140028,-0.007777542341500521,-0.08961654454469681,0.13791924715042114,-0.018247412517666817,-0.04901091754436493,-0.1116626188158989,0.051496800035238266,0.004900085739791393,0.17608149349689484,0.039010219275951385,-0.12096703052520752,-0.2278250902891159,-0.21518169343471527,0.1979953795671463,0.05605011433362961,0.06555483490228653,-0.015299427323043346,0.0023718434385955334,0.057658374309539795,0.16010425984859467,-0.22727791965007782,-0.10387548804283142,-0.052157510071992874,-0.17112432420253754,-0.02183789201080799,0.18890662491321564,-0.20843496918678284,0.026749609038233757,-0.02992183342576027,-0.10960117727518082,0.05859558656811714,0.01292733196169138,0.12408213317394257,-0.04552839696407318,0.052181560546159744,-0.24714507162570953,-0.05965305492281914,0.37213334441185,-0.39543676376342773,-0.06595046818256378,0.1760503351688385,0.40694382786750793,-0.06992427259683609,-0.07049588114023209,0.4231014847755432,0.05885664001107216,-0.23520779609680176,0.2764541804790497,-0.07824774086475372,-0.25008833408355713,-0.27911460399627686,0.1627684384584427,0.2990545332431793,0.2880743741989136,-0.06536334753036499,-0.33346450328826904,-0.18414555490016937,-0.03615671768784523,0.04416656866669655,0.2944164276123047,0.05230171978473663,-0.332675576210022,-0.17043259739875793,0.07604938745498657,0.07202800363302231,0.24881039559841156,0.08424133062362671,-0.2780297100543976,0.23889091610908508,-0.009099925868213177,-0.33550792932510376,0.37879273295402527,0.04780441150069237,-0.06085449084639549,0.19574029743671417,0.10386445373296738,-0.23992888629436493,0.43297436833381653,-0.17395734786987305,-0.2695329785346985,-0.19846777617931366,0.08140312880277634,0.23817600309848785,-0.06447156518697739,-0.22068902850151062,-0.10548243671655655,-0.08774250000715256,0.020575247704982758,0.06302046030759811,-0.024614257737994194,-0.009670930914580822,0.12198061496019363,0.06177898496389389,-0.05744960159063339,-0.004175044130533934,-0.06894532591104507,-0.12067729979753494,-0.06281058490276337,-0.01124516036361456,0.4025867283344269,-0.06653888523578644,-0.4210476279258728,-0.008364507928490639,0.7281612157821655,-0.0247552078217268,-0.5078102350234985,0.03917590528726578,-0.08971505612134933,0.044060055166482925,0.7941564321517944,0.02607635222375393,0.7689485549926758,0.0300227552652359,-0.6634390950202942,-0.012489833869040012,0.26161348819732666,0.0051771798171103,0.14134059846401215,0.10388167202472687,-0.42608341574668884,-0.022249873727560043,-0.2178339809179306,-0.03437502682209015,0.2615925967693329,-0.009551296941936016,-0.7064239382743835,-0.0023443291429430246,0.12247006595134735,0.0244897548109293,0.5694633722305298,0.05765523761510849,-0.07546797394752502,0.3565509617328644,0.2236674278974533,-0.019009606912732124,0.13685795664787292,-0.09678956866264343,0.21041449904441833,-0.11918368935585022,-0.07928883284330368,0.05282352864742279,0.06993494182825089,-0.11500978469848633,0.12124250829219818,0.04420667514204979,0.2064867615699768,-0.13865557312965393,0.06557153910398483,-0.16039781272411346,-0.23977693915367126,-0.025923199951648712,-0.03506580367684364,0.039129529148340225,0.14695827662944794,0.06102096289396286,-0.04600394144654274,0.44901612401008606,-0.026335129514336586,-0.14596796035766602,0.13484320044517517,-0.07634085416793823,0.08849403262138367,0.2529573440551758,-0.029619866982102394,0.11861474066972733,0.04380901902914047,0.17413918673992157,-0.2584676146507263,-0.11473012715578079,0.07497264444828033,-0.4229762852191925,-0.04420348256826401,0.006647505331784487,0.25042012333869934,-0.21701687574386597,0.2835906147956848,0.2972162365913391,-0.040202267467975616,0.4031025767326355,0.18143950402736664,-0.16480335593223572,-0.10902963578701019,-0.16737693548202515,0.2082201987504959,-0.03212582319974899,-0.02063189633190632,0.132248193025589,-0.20422928035259247,-0.16597749292850494,-0.14917826652526855,0.11571341753005981,0.09202969074249268,0.2168167233467102,-0.15623492002487183,-0.3473583161830902,-0.20732475817203522,-0.32373538613319397,-0.29465946555137634,0.149290069937706,0.33866989612579346,0.13612808287143707,0.11852865666151047,-0.11311779916286469,0.08804324269294739,0.09458952397108078,-0.2099849283695221,0.12801788747310638,-0.01961408741772175,0.13255147635936737,-0.14813163876533508,0.04169374704360962,-0.1669236421585083,-0.09167223423719406,0.14639657735824585,0.07791094481945038,0.3538699150085449,0.24712073802947998,0.29802387952804565,0.29006311297416687,0.24607132375240326,-0.0901353731751442,-0.28368160128593445,-0.1378270983695984,-0.11643482744693756,-0.21443326771259308,0.25572407245635986,-0.11362465471029282,0.06266673654317856,0.0676974430680275,0.17089791595935822,0.32357507944107056,-0.2997540533542633,-0.25858834385871887,-0.15526454150676727,-0.013610332272946835,0.12813429534435272,-0.390671968460083,-0.19706836342811584,0.3301994800567627,0.2054683119058609,-0.20662827789783478,0.0598289780318737,-0.12422292679548264,0.3231753408908844,-0.01677829772233963,0.3682034909725189,-0.32472115755081177,-0.09237507730722427,0.2486562281847,0.3598875105381012,0.25026997923851013,0.2734404504299164,-0.38145092129707336,0.05328020825982094,-0.34270668029785156,0.00030970745137892663,-0.29921722412109375,0.05385037139058113,-0.28281059861183167,-0.2361123263835907,0.021535217761993408,-0.38099783658981323,-0.18089327216148376,-0.003504024352878332,-0.1335306614637375,-0.23118197917938232,-0.10789351910352707,-0.2898193597793579,-0.12567947804927826,0.2266254723072052,0.17721913754940033,0.10602366179227829,-0.03574925661087036,-0.1663845032453537,0.06247981637716293,-0.20225243270397186,0.1597045212984085,0.23918047547340393,-0.4285280406475067,-0.4371940791606903,0.05084710568189621,0.21719031035900116,-0.260647177696228,-0.03771604225039482,0.28022801876068115,0.2059241533279419,0.05346408486366272,0.36365506052970886,0.22940541803836823,-0.2688963711261749,0.15966740250587463,0.07551302015781403,0.24596932530403137,-0.3128882944583893,0.16191983222961426,-0.33963626623153687,-0.17919513583183289,0.03518092632293701,-0.2871118485927582,-0.02958534099161625,0.04461493715643883,-0.04606340825557709,0.004183159675449133,0.039457131177186966,0.19825643301010132,-0.12638971209526062,0.3831130564212799,0.05006350949406624,-0.05409222096204758,0.12006724625825882,0.12029213458299637,0.2050219178199768,-0.2896203100681305,-0.3078264892101288,0.008925543166697025,-0.10643137991428375,-0.3706662058830261,-0.12372230738401413,0.17598049342632294,-0.0921148732304573,0.27163195610046387,-0.11593082547187805,-0.23527753353118896,-0.0990510955452919,-0.02216528356075287,0.043732088059186935,0.13391417264938354,0.13546335697174072,-0.2864994406700134,-0.18008466064929962,0.22725535929203033,0.2188933789730072,-0.16747117042541504,-0.0792168527841568,0.1971638798713684,0.13066808879375458,-0.13029029965400696,-0.09962008893489838,0.028789842501282692,-0.02809116616845131,-0.31937628984451294,-0.2740752100944519,0.14357838034629822,-0.1257580667734146,0.22239771485328674,0.2083645761013031,0.1439845860004425,0.02941535972058773,-0.13379810750484467,0.0002483664429746568,-0.021588332951068878,-0.24077536165714264,-0.11089600622653961,-0.24289609491825104,0.030881309881806374,-0.20875081419944763,0.2760946452617645,-0.10368415713310242,-0.15857845544815063,0.011463351547718048,0.01998983882367611,0.14073002338409424,0.08644574880599976,-0.2767361104488373,0.1482953131198883,0.030971422791481018,-0.08959447592496872,0.21809522807598114,0.225351020693779,-0.3157643973827362,0.02202375791966915,0.1447393298149109,0.18901674449443817,0.005295529495924711,0.05372607335448265,-0.014867582358419895,0.06252047419548035,-0.05409396067261696,0.27100133895874023,-0.22772784531116486,-0.3323988616466522,-0.09484624862670898,-0.14356902241706848,0.13238298892974854,0.3363366723060608,-0.06703618913888931,0.05376781150698662,0.2832757532596588,-0.20114827156066895,0.22881823778152466,-0.2163577526807785,-0.20400337874889374,-0.0743357464671135,0.11016809195280075,-0.011295509524643421,0.08054551482200623,-0.08274852484464645,0.04523264244198799,0.05301201343536377,0.04438738524913788,0.08116023242473602,0.09822172671556473,-0.02533387765288353,0.010704017244279385,-0.046647995710372925,0.022036410868167877,0.035716358572244644,-0.07763300836086273,-0.013085555285215378,-0.05646528676152229,0.003391097066923976,0.20998907089233398,-0.1760370433330536,-0.06353981047868729,-0.01622123271226883,-0.08855344355106354,-0.10521699488162994,0.07776802033185959,0.13736456632614136,-0.04134959354996681,-0.08430954813957214,-0.18972446024417877,-0.20818735659122467,0.28858253359794617,0.04839255288243294,-0.007759579923003912,-0.3239224851131439,-0.040220461785793304,0.008907693438231945,0.08794078230857849,-0.17592273652553558,0.0005823622341267765,-0.17275145649909973,-0.14815132319927216,-0.06694600731134415,0.15821218490600586,-0.10483270138502121,-0.11839824914932251,0.31501060724258423,0.051549993455410004,0.09755130112171173,0.28114640712738037,-0.024680539965629578,0.12265781313180923,-0.03461681678891182,-0.11613203585147858,0.0393676720559597,0.19365376234054565,0.03474878519773483,-0.16170206665992737,-0.12324057519435883,-0.050850704312324524,0.06116829439997673,0.1128845065832138,-0.21671786904335022,-0.10618576407432556,0.1805700957775116,-0.2899138331413269,-0.08869156241416931,-0.03508748859167099,-0.14950568974018097,0.039164818823337555,-0.19959966838359833,0.09507021307945251,-0.1407678723335266,-0.02967740409076214,0.2815331518650055,0.06743811070919037,0.156513512134552,0.17779067158699036,-8.253419764514547e-06,-0.4755253195762634,0.5214077234268188,0.13069665431976318,0.4940023720264435,-0.4085981547832489,-0.1015380248427391,-0.2615884244441986,-0.012563373893499374,-0.04684576392173767,0.003598353825509548,-0.4280182123184204,-0.19854585826396942,-0.2291884869337082,-0.13340476155281067,0.12307772040367126,-0.41666218638420105,-0.06649444252252579,0.019420599564909935,-0.2557370662689209,0.07842496037483215,0.09547276049852371,0.06073174625635147,-0.2949754595756531,-0.1269996166229248,-0.08274289965629578,-0.11776465177536011,0.1014094278216362,-0.24641062319278717,-0.10132412612438202,-0.13132953643798828,-0.0454317107796669,0.2015136182308197,0.27841708064079285,-0.11211776733398438,-0.04616628587245941,0.09579285979270935,0.01864454336464405,0.1532278060913086,0.019375838339328766,-0.04549824818968773,0.16321006417274475,0.049529220908880234,0.1849232167005539,-0.032484401017427444,0.006934717297554016,0.14053504168987274,0.009057532995939255,-0.20362789928913116,-0.07557118684053421,-0.07787075638771057,-0.14052346348762512,0.11222303658723831,-0.04215129092335701,-0.06151077523827553,-0.08655653893947601,-0.02449878305196762,0.1749482899904251,-0.09752862900495529,-0.11672225594520569,-0.07065673917531967,0.06588128954172134,0.0709870457649231,-0.26115235686302185,0.12263484299182892,0.011250000447034836,-0.15434671938419342,-0.019462963566184044,-0.04199719429016113,-0.1000029444694519,0.015638431534171104,-0.09249290078878403,0.11899248510599136,0.0714622288942337,-0.04293203353881836,0.20504440367221832,0.21220824122428894,-0.02937893010675907,-0.037874605506658554,0.061327189207077026,-0.2208225429058075,-0.0613212063908577,-0.05558641627430916,0.12678645551204681,-0.07400462031364441,-0.21771681308746338,0.10765408724546432,0.13775625824928284,-0.07274123281240463,-0.1727023869752884,-0.19289159774780273,-0.3025096654891968,-0.10158918797969818,0.03990460932254791,0.10600849986076355,0.3182116150856018,0.33767277002334595,0.03684947267174721,-0.14173147082328796,0.03985687345266342,0.2845176160335541,0.08904609084129333,-0.13077886402606964,-0.0981554239988327,0.07652806490659714,-0.20558126270771027,0.05423028767108917,0.10174886137247086,-0.061430610716342926,-0.139764204621315,0.3070009648799896,0.2734972834587097,0.01810784451663494,0.20492008328437805,0.20995135605335236,-0.09910480678081512,0.1033446341753006,-0.13896247744560242,-0.0800691470503807,-0.035784557461738586,-0.030957113951444626,0.026881583034992218,0.14547808468341827,0.20279784500598907,0.1451667696237564,-0.16706903278827667,-0.08457285910844803,0.025569604709744453,0.043622832745313644,0.20382347702980042,-0.09623374044895172,-0.09601395577192307,0.07604318112134933,0.004752867389470339,-0.06440498679876328,0.07194586843252182,0.12167488038539886,0.0281966719776392,0.027968630194664,-0.037586282938718796,-0.07473410665988922,0.1452394425868988,-0.12435511499643326,0.1536049097776413,-0.14623883366584778,0.21724046766757965,0.03567309305071831,0.19452334940433502,0.03550532087683678,0.10712108761072159,0.03179280832409859,0.004166044294834137,-0.13978780806064606,-0.022037668153643608,-0.002164636505767703,0.09322714805603027,-0.11079854518175125,0.07516530156135559,-0.036939289420843124,-0.15110242366790771,0.38295161724090576,-0.07037480175495148,-0.24572254717350006,0.21818122267723083,0.04113546386361122,-0.043534424155950546,-0.0009235554025508463,-0.017488554120063782,-0.1302054524421692,-0.08937381953001022,0.124341681599617,0.042098116129636765,0.019559862092137337,-0.08027487993240356,-0.06978365033864975,-0.14349223673343658,-0.14280003309249878,0.12084462493658066,0.1994703859090805,-0.19705268740653992,0.12092407792806625,0.07296819239854813,0.020277680829167366,0.16461069881916046,0.09328710287809372,-0.06979227811098099,0.16984786093235016,0.15538248419761658,0.3035374581813812,-0.3199284076690674,-0.06175306439399719,-0.09428022801876068,-0.08780816197395325,-0.11385972052812576,0.27000054717063904,-0.36563554406166077,0.08266938477754593,-0.04629553109407425,0.37163570523262024,-0.013365614227950573,0.14911141991615295,-0.004548134747892618,0.0788082405924797,-0.09634225070476532,0.3003837764263153,0.12712202966213226,0.24033086001873016,0.07071173936128616,-0.1469867080450058,0.08505940437316895,0.22392095625400543,-0.05416985601186752,-0.07585635036230087,-0.15763038396835327,0.06954607367515564,-0.18710161745548248,0.34359484910964966,-0.11294296383857727,-0.06934015452861786,0.08210358768701553,0.04932388663291931,-0.01832929067313671,0.03625542297959328,-0.04249466583132744,0.07137347757816315,0.1544666886329651,0.05178723856806755,-0.03597237169742584,-0.16606681048870087,0.18293239176273346,0.17790068686008453,0.03946316987276077,-0.04283754155039787,-0.06653575599193573,0.10503292083740234,0.01190952118486166,0.09012027829885483,0.22405928373336792,-0.11951258778572083,0.2400757521390915,-0.14583474397659302,0.053297389298677444,-0.04805362597107887,0.19779056310653687,-0.14624318480491638,-0.01019449532032013,-0.26108723878860474,-0.07933525741100311,0.06937907636165619,0.05231137573719025,0.11185453087091446,0.09696579724550247,-0.23019526898860931,0.29464924335479736,-0.11738485842943192,0.08541250228881836,-0.23833642899990082,0.06593367457389832,0.07350674271583557,-0.013306339271366596,-0.02245829813182354,0.053727757185697556,-0.18230421841144562,-0.08425914496183395,-0.09637600928544998,0.02800101600587368,-0.05283742398023605,-0.03531653806567192,-0.04186108335852623,-0.16372090578079224,-0.09038487076759338,0.10335174947977066,0.1865476667881012,-0.005673995241522789,-0.06510510295629501,-0.20272928476333618,-0.23049381375312805,0.08127771317958832,-0.09814143180847168,-0.11050683259963989,-0.08454684913158417,-0.03251584991812706,-0.17543818056583405,-0.16344426572322845,0.18586303293704987,0.22227856516838074,-0.017848482355475426,-0.015759838744997978,-0.3001166880130768,0.0293742623180151,0.07798681408166885,0.23359905183315277,-0.03393535688519478,-0.06587190181016922,-0.40590977668762207,0.10908181965351105,0.14002150297164917,0.09529708325862885,-0.05981166660785675,0.036958955228328705,-0.4370461702346802,-0.038400378078222275,-0.08706200867891312,-0.15367166697978973,0.21023663878440857,-0.1703949123620987,-0.12289228290319443,-0.061322182416915894,-0.16513273119926453,-0.032717373222112656,-0.14742806553840637,-0.01795348897576332,-0.18566064536571503,0.0750340074300766,-0.05851038545370102,-0.025179896503686905,0.049391549080610275,0.2595987915992737,0.2428305447101593,-0.001440275227651,-0.20842260122299194,-0.2012028992176056,-0.07914797961711884,0.3255569040775299,0.13522599637508392,0.17182321846485138,0.03529459610581398,-0.08963163942098618,-0.2139994204044342,0.05027269944548607,0.02992902882397175,-0.02456662617623806,-0.2183791697025299,0.09730169177055359,0.09014752507209778,0.02448534592986107,0.024385351687669754,-0.011530434712767601,-0.21014437079429626,-0.11043187230825424,0.16974015533924103,0.12490972876548767,-0.11622316390275955,0.0832025334239006,-0.005424230359494686,0.04618183150887489,-0.1535959541797638,0.18103449046611786,-0.025150712579488754,-0.11264314502477646,-0.12780418992042542,-0.0656864270567894,-0.1406482756137848,0.1394612044095993,0.30812177062034607,0.09786521643400192,0.0991794764995575,0.04718340188264847,-0.012745142914354801,0.11529213935136795,-0.09645740687847137,-0.07147452980279922,-0.11592715233564377,-0.18582342565059662,-0.27929145097732544,0.03936220332980156,-0.018963271751999855,-0.1242232546210289,-0.06019114330410957,0.09126412123441696,0.16650833189487457,-0.09790943562984467,-0.05490393936634064,-0.13088367879390717,-0.059715863317251205,0.1029999628663063,-0.056232526898384094,0.18644098937511444,0.045813847333192825,-0.012340035289525986,-0.1533917486667633,-0.08559190481901169,0.09378652274608612,0.1510700136423111,0.14576515555381775,0.023875361308455467,-0.1906328797340393,-0.018054617568850517,0.17859472334384918,0.10045084357261658,0.2191576361656189,-0.011711101979017258,-0.17340832948684692,-0.1619795262813568,-0.0026088960003107786,0.006322219967842102,0.048427432775497437,0.04242931306362152,0.05562135577201843,-0.002839798806235194,-0.15523970127105713,0.05577407777309418,-0.0011831853771582246,-0.11905001848936081,-0.047841668128967285,0.09899652749300003,0.07060220837593079,-0.06278456747531891,-0.187666118144989,-0.019603483378887177,-0.15344521403312683,-0.07620388269424438,-0.20264451205730438,0.06030503660440445,0.14152486622333527,-0.025493614375591278,-0.19967807829380035,0.009835978038609028,-0.12378469109535217,0.007930348627269268,-0.0027713088784366846,0.1346142590045929,-0.11152216792106628,-0.0034511140547692776,0.013992922380566597,-0.1882331371307373,-0.14236928522586823,-0.3232477605342865,0.0067541697062551975,0.07949645072221756,-0.017463188618421555,0.19660109281539917,0.27100086212158203,0.2702375650405884,-0.055062662810087204,0.12675674259662628,0.13662885129451752,-0.013906216248869896,-0.061136722564697266,0.10715465247631073,-0.07336745411157608,-0.1693004071712494,-0.015404315665364265,0.12280607223510742,-0.07982159405946732,-0.06469131261110306,0.26878485083580017,0.12106118351221085,-0.09879586845636368,0.006224610842764378,-0.03836885467171669,-0.0959952175617218,-0.02280758135020733,-0.08922126889228821,0.007848145440220833,0.1116340309381485,0.039648037403821945,0.015030257403850555,0.1089010164141655,-0.06425749510526657,0.09086810797452927,0.23778420686721802,0.05939424782991409,-0.007821126841008663,-0.18526725471019745,-0.08016553521156311,-0.24016143381595612,-0.06384304910898209,0.18469297885894775,0.16937975585460663,0.09573090076446533,0.05083436891436577,0.020436853170394897,-0.09983895719051361,-0.09245900064706802,-0.23611807823181152,-0.04176893085241318,0.1496327668428421,-0.012163554318249226,0.0957431048154831,-0.024537548422813416,0.24289004504680634,0.09009342640638351,0.22691316902637482,0.09735461324453354,0.1693992167711258,-0.15928544104099274,-0.08737320452928543,-0.2986622154712677,0.11724899709224701,-0.018967127427458763,-0.04164306819438934,0.02186770737171173,-0.04112080857157707,0.3146693706512451,0.004929522052407265,0.06551354378461838,0.03118073381483555,-0.16939112544059753,0.06493676453828812,0.13755977153778076,0.02739837020635605,-0.05964605510234833,0.16721487045288086,0.06389009952545166,-0.07095317542552948,-0.06360393017530441,0.06818826496601105,0.13427595794200897,-0.07090400159358978,0.017013967037200928,-0.13984812796115875,0.0709521695971489,0.16591094434261322,0.10051003843545914,0.06205253675580025,0.20483559370040894,5.612304084934294e-05,0.05878768861293793,0.06040241941809654,-0.015262654051184654,0.19756188988685608,0.014904816634953022,-0.03450607508420944,0.06094767898321152,-0.4497930109500885,-0.05964549630880356,-0.0919906422495842,-0.1723288893699646,-0.04764401167631149,-0.096996009349823,-0.3221992552280426,-0.06017494946718216,-0.12775585055351257,0.25028476119041443,0.20914241671562195,0.00028255628421902657,0.16049979627132416,-0.028232472017407417,-0.030652597546577454,0.47691401839256287,0.23768682777881622,0.3752387464046478,-0.2545257806777954,-0.1455567330121994,0.1362926959991455,-0.15040302276611328,0.024351676926016808,-0.05584203824400902,-0.06306815147399902,-0.13133716583251953,0.07807233929634094,0.10231540352106094,0.08016151189804077,0.07835378497838974,0.15649469196796417,0.04804152995347977,-0.04060446098446846,-0.019163642078638077,0.09138369560241699,-0.053951289504766464,-0.040809907019138336,0.04238486662507057,0.09879371523857117,-0.13829831779003143,0.14487940073013306,-0.05549253150820732,0.006741247605532408,0.022009318694472313,-0.0720747709274292,-0.031856756657361984,0.08060311526060104,-0.06733044981956482,0.08988802880048752,-0.15972959995269775,0.10778976231813431,0.18118467926979065,-0.001305802259594202,0.13884323835372925,0.06266459077596664,-0.021945545449852943,0.02852870523929596,-0.0764220654964447,0.15837563574314117,0.011413023807108402,-0.24478228390216827,0.11862564831972122,-0.05188481882214546,-0.058577895164489746,-0.021490151062607765,-0.003624984296038747,0.3323187530040741,-0.20407931506633759,-0.09619217365980148,0.11863698065280914,-0.01030786894261837,0.11870399117469788,0.1514749675989151,-0.05238533020019531,-0.0355050228536129,-0.0629567876458168,-0.026253756135702133,-0.022514352574944496,-0.09259235113859177,0.05583226680755615,-0.1394149512052536,0.014355153776705265,-0.1423882693052292,-0.11675624549388885,-0.04516099765896797,-0.07333491742610931,-0.08979084342718124,0.043471332639455795,0.09824679046869278,0.048299986869096756,0.08606106042861938,0.07506308704614639,0.04524042829871178,0.052657321095466614,-0.019059810787439346,0.13655242323875427,0.02195119857788086,-0.1926518827676773,0.40418797731399536,0.15881164371967316,0.08041991293430328,-0.03291149437427521,0.07361915707588196,-0.13498517870903015,0.030374126508831978,-0.2073294073343277,-0.015163482166826725,-0.21744298934936523,-0.23849952220916748,0.1741936057806015,-0.10498081147670746,-0.06595765799283981,0.1571602076292038,0.3308620750904083,0.4887341856956482,-0.05098027363419533,0.18102708458900452,0.2326531559228897,0.10630067437887192,-0.05058526247739792,0.028309430927038193,0.019121378660202026,-0.17714259028434753,-0.01029230561107397,0.028142418712377548,0.20773175358772278,-0.01353764720261097,0.043923161923885345,-0.19593508541584015,0.05029017850756645,-0.23080657422542572,0.14134252071380615,0.0010244231671094894,0.1528397649526596,-0.04731253534555435,0.1370961219072342,0.12618525326251984,0.13008928298950195,0.2744417190551758,0.08620696514844894,0.048834118992090225,0.16259591281414032,0.1889311671257019,-0.0408228375017643,-0.3848133981227875,-0.1493275761604309,0.0042218794114887714,0.2501928508281708,-0.31801509857177734,0.06456182897090912,-0.41247671842575073,-0.2424771636724472,-0.21713533997535706,0.0875483825802803,0.07137638330459595,0.010144123807549477,0.09463514387607574,0.2881562411785126,-0.02379479818046093,0.32632502913475037,0.0194430872797966,-0.0027878344990313053,0.3966338634490967,-0.03973744437098503,-0.19462154805660248,0.10069778561592102,0.08509067445993423,-0.09579230844974518,0.04380987957119942,-0.1372583955526352,-0.044778089970350266,0.04843967407941818,0.1631890833377838,0.08259463310241699,0.2368011474609375,0.18323124945163727,0.17265358567237854,0.11109578609466553,-0.04426005855202675,0.13500693440437317,-0.1067955493927002,0.06598019599914551,0.1110948994755745,0.1218634694814682,0.038479652255773544,-0.0637657567858696,0.055677931755781174,0.1047242283821106,0.04667277634143829,0.07744678854942322,0.07845109701156616,-0.16995124518871307,-0.6987027525901794,-0.004079092293977737,0.28256887197494507,-0.024338454008102417,0.3426398038864136,0.0762229710817337,-0.5836743116378784,-0.07633804529905319,0.026161590591073036,0.01707775518298149,-0.6445494294166565,0.05016732215881348,-0.03798379376530647,-0.03306520730257034,-0.3183893859386444,-0.005937511101365089,0.7957521677017212,0.027222847566008568,-0.8908912539482117,-0.09326997399330139,-0.378169447183609,-0.08863304555416107,-1.002021312713623,-0.0468660444021225,0.22639280557632446,0.0020438996143639088,-0.8311188220977783,-0.041517045348882675,0.034801188856363297,-0.07172209024429321,-0.8501909375190735,-0.0041711400263011456,-0.27393990755081177,-0.17539511620998383,0.18580462038516998,0.1643683761358261,0.20959044992923737,0.14574861526489258,-0.29596957564353943,-0.17774233222007751,-0.09441392123699188,-0.00418105348944664,0.11385516077280045,0.16334371268749237,0.22995871305465698,-0.0483214408159256,-0.06604352593421936,-0.0851437896490097,0.03882233053445816,-0.2769205868244171,-0.05922365188598633,-0.07044841349124908,-0.2881409823894501,0.1494455635547638,-0.1422904133796692,-0.23771867156028748,0.23351643979549408,-0.16032731533050537,0.0841977447271347,0.1479048877954483,0.07573805749416351,0.07755871117115021,0.09459646791219711,0.30048683285713196,-0.2138294279575348,-0.058271851390600204,0.1372145265340805,0.06479723751544952,0.0986771360039711,0.0626143366098404,-0.028184816241264343,0.12355098128318787,-0.09536062926054001,0.028102705255150795,-0.24349170923233032,-0.1211308166384697,-0.09185343235731125,0.049543701112270355,0.03024773672223091,0.08389829099178314,0.10170057415962219,0.03520027548074722,-0.1802707314491272,-0.1732759177684784,-0.15311308205127716,-0.012134487740695477,-0.26432058215141296,-0.11936768144369125,0.09048259258270264,0.23788312077522278,0.042256154119968414,0.22251509130001068,0.1877499222755432,-0.1314154863357544,-0.10398487001657486,0.013510542921721935,0.27187639474868774,-0.1642238050699234,-0.10072368383407593,-0.20218026638031006,0.2086755931377411,-0.16956597566604614,-0.013083021156489849,0.16077332198619843,0.449594646692276,-0.06092030927538872,-0.1355753242969513,0.2646772861480713,-0.03980420529842377,-0.099924735724926,-0.268315851688385,-0.1629447638988495,-0.12476778775453568,-0.14939947426319122,-0.20412704348564148,-0.10030299425125122,0.07578212767839432,-0.12093938142061234,0.06288186460733414,-0.08961259573698044,0.2588443458080292,0.03353578597307205,-0.12921690940856934,-0.0436365008354187,-0.1043626070022583,-0.19198302924633026,0.0648525282740593,-0.006738017313182354,0.003980483394116163,-0.06025887653231621,0.14398272335529327,-0.2038634568452835,-0.013078752905130386,0.26156190037727356,-0.30778858065605164,-0.15361304581165314,0.3269994258880615,0.4011404514312744,-0.3527211546897888,-0.2957289218902588,0.04776151478290558,-0.03978346660733223,-0.15042166411876678,0.2765968441963196,0.12398248165845871,0.18068905174732208,0.06577792763710022,0.1641101837158203,0.26529496908187866,-0.17781241238117218,0.09260503202676773,0.10712137818336487,-0.07916557788848877,0.11116424202919006,-0.14648236334323883,0.028942296281456947,-0.18763765692710876,0.04483511298894882,0.3530965745449066,-0.0770990327000618,-0.019820837303996086,0.12144285440444946,-0.25580716133117676,0.09938676655292511,-0.14405658841133118,-0.2226642370223999,-0.0253574401140213,-0.026906492188572884,0.03046652115881443,0.1687151938676834,0.35338807106018066,-0.170608252286911,-0.16409961879253387,0.21098501980304718,-0.02655687928199768,0.3319842517375946,-0.15053832530975342,0.05349866300821304,-0.10080325603485107,0.420081228017807,0.11548659950494766,-0.22039704024791718,0.20984232425689697,-0.05931106582283974,-0.13566945493221283,0.13410858809947968,0.43251729011535645,0.4745141565799713,-0.021531790494918823,0.11799651384353638,0.21839109063148499,-0.19405947625637054,-0.131142258644104,-0.13963012397289276,-0.20155158638954163,0.19326083362102509,-0.03550272062420845,-0.0995708480477333,-0.19028225541114807,0.001551720080897212,0.16727063059806824,0.27297109365463257,-0.1941344439983368,-0.06159988045692444,0.07567700743675232,0.16159872710704803,-0.057251937687397,0.18621313571929932,0.04989778250455856,0.1738394945859909,-0.3216615915298462,-0.019965283572673798,-0.25711798667907715,-0.12385322898626328,0.10321682691574097,0.11188412457704544,-0.20210903882980347,0.10555125027894974,0.31602585315704346,-0.09246467053890228,0.04889736324548721,0.02235588990151882,0.15587744116783142,-0.12537316977977753,-0.1419236660003662,-0.11334310472011566,-0.07935454696416855,0.11554321646690369,0.09075169265270233,-0.10000491887331009,-0.17074139416217804,0.2529403865337372,-0.3047542870044708,0.002659769030287862,-0.21836140751838684,-0.13036619126796722,0.015903329476714134,-0.24090486764907837,-0.25473552942276,-0.010587346740067005,0.14891700446605682,-0.07577470690011978,-0.21180622279644012,0.32832786440849304,-0.2711793780326843,0.019823698326945305,-0.15000547468662262,-0.08076466619968414,0.3019556999206543,0.3330150842666626,0.08101575821638107,-0.07274428755044937,0.2214217633008957,0.1685236692428589,-0.0055571491830050945,0.057651177048683167,0.029061218723654747,0.17282438278198242,0.006557191256433725,-0.0017790410201996565,-0.19855725765228271,-0.17873084545135498,0.0805944949388504,-0.015307722613215446,-0.05150866508483887,0.1365579515695572,-0.121425099670887,-0.03603453189134598,-0.14268560707569122,0.15252242982387543,0.17367024719715118,0.21044912934303284,0.25872406363487244,-0.2738470435142517,-0.1693897396326065,-0.18067243695259094,-0.22402584552764893,-0.06613509356975555,0.040161509066820145,0.18745918571949005,0.13673236966133118,-0.16093966364860535,0.19830136001110077,0.16939055919647217,-0.1709641069173813,0.35913509130477905,-0.19927294552326202,-0.10319951176643372,-0.0007698968984186649,0.005119167733937502,0.05807508900761604,-0.06242004409432411,-0.22943592071533203,-0.07825566083192825,0.01700754277408123,0.12267519533634186,0.11556733399629593,0.16670164465904236,0.0410970076918602,-0.140804260969162,0.05175003036856651,-0.30545398592948914,-0.09422340989112854,-0.10698080062866211,0.11578482389450073,0.18080857396125793,-0.0008792139124125242,-0.02401808463037014,-0.1303630918264389,-0.10241658240556717,0.03438103199005127,0.046152371913194656,0.0850508064031601,0.04001617804169655,-0.15195761620998383,-0.08367151767015457,0.027803538367152214,-0.008829229511320591,-0.15805363655090332,0.06291943788528442,0.08819052577018738,-0.0639970675110817,-0.08711928129196167,-0.012062116526067257,0.008775395341217518,-0.012468517757952213,0.06678998470306396,-0.08263665437698364,-0.08542924374341965,0.05233617126941681,0.04421243816614151,0.15158411860466003,0.2700367569923401,0.25890275835990906,-0.0765037015080452,0.0837634801864624,-0.019028911367058754,0.04474039003252983,-0.03969600051641464,0.11813683807849884,-0.020611805841326714,-0.15385082364082336,0.1283876597881317,-0.13848938047885895,0.05316688492894173,-0.1350906938314438,0.11255712062120438,0.03312978520989418,0.0004613848577719182,0.06663931161165237,-0.0988641083240509,0.08040325343608856,0.03532872349023819,-0.0778077244758606,-0.017710460349917412,-0.1295846551656723,0.015750540420413017,-0.22769591212272644,0.2293303906917572,0.13397912681102753,0.15254813432693481,-0.03605552017688751,-0.13031038641929626,-0.15485329926013947,0.13153076171875,-0.12204016745090485,-0.09708436578512192,-0.15529382228851318,-0.11165949702262878,-0.2299553006887436,0.16722938418388367,-0.1748833805322647,-0.013950258493423462,-0.09000733494758606,-0.0385749526321888,0.0012651431607082486,0.16327160596847534,0.017484979704022408,-0.09725522249937057,0.11530052125453949,0.24907554686069489,0.19497588276863098,0.2136707305908203,0.02085648849606514,-0.028766538947820663,-0.13821816444396973,-0.12853190302848816,-0.011191031895577908,0.22400574386119843,0.18364952504634857,0.06205340847373009,0.018858637660741806,-0.08745845407247543,-0.2150806486606598,0.014376531355082989,0.10316982865333557,0.13266557455062866,0.14941272139549255,-0.07408437132835388,-0.16807503998279572,0.023675164207816124,-0.13277402520179749,-0.022468945011496544,0.09552471339702606,0.009799032472074032,-0.05003228411078453,0.11918570846319199,0.021222108975052834,0.0270422101020813,-0.09046318382024765,0.05495704710483551,0.054685208946466446,0.08678732812404633,-0.1602940857410431,0.08421849459409714,0.09426233172416687,-0.013323893770575523,0.09657303243875504,0.023204484954476357,0.1332293450832367,0.04805891215801239,-0.1223502829670906,0.034585755318403244,0.05453477427363396,0.08567989617586136,0.029201144352555275,-0.06130934879183769,-0.0921158641576767,-0.11389605700969696,-0.23475050926208496,-0.11258488893508911,0.07418594509363174,-0.0918925404548645,-0.002508388366550207,0.14252302050590515,-0.03505752608180046,0.18799111247062683,0.057469774037599564,-0.09966741502285004,-0.06613194197416306,0.04970284551382065,0.0024766866117715836,0.15881989896297455,-0.03272086754441261,-0.10768499225378036,-0.06153903156518936,-0.12233562767505646,-0.010611457750201225,-0.11629416793584824,-0.14161068201065063,0.10392683744430542,0.015744296833872795,0.1931294947862625,0.08355917781591415,-0.011475753039121628,0.02935478463768959,-0.23180344700813293,0.09656774252653122,0.03486785665154457,-0.0329754613339901,0.13761456310749054,0.043455373495817184,-0.03732742369174957,0.09361124038696289,-0.03241360932588577,0.16725917160511017,0.14645037055015564,0.0036034048534929752,-0.16056321561336517,0.003288724459707737,-0.009967519901692867,0.11638471484184265,0.03778630867600441,0.06624725461006165,0.05088545382022858,-0.13624751567840576,-0.23649774491786957,-0.14252214133739471,0.014975272119045258,0.0454680398106575,-0.017539577558636665,0.08461768925189972,-0.0444476492702961,-0.05506895110011101,-0.09447834640741348,-0.1855243742465973,-0.08262539654970169,0.2244781255722046,0.08258053660392761,0.24487730860710144,-0.07453380525112152,-0.16492608189582825,0.06752245128154755,0.04271899163722992,0.11997319757938385,0.17885766923427582,0.2143719643354416,-0.06586572527885437,-0.017702264711260796,-0.0738312155008316,0.030343743041157722,0.09706588834524155,0.11737896502017975,0.0528038814663887,-0.08076295256614685,0.11437179893255234,0.22982187569141388,-0.08776308596134186,-0.06488218903541565,0.17898499965667725,-0.16354554891586304,-0.04707002639770508,0.18217186629772186,0.06091347336769104,-0.05151990428566933,-0.10608436912298203,0.005542929749935865,-0.07862973213195801,-0.0641486793756485,0.1524711400270462,0.0011071048211306334,-0.18386533856391907,0.07050291448831558,0.04448471963405609,0.10705941170454025,0.35722965002059937,-0.0135350925847888,-0.0843251422047615,0.05432360619306564,0.04868464171886444,0.13018620014190674,-0.1892322450876236,0.08220292627811432,0.2691802382469177,-0.15286345779895782,-0.007123082410544157,-0.08357010036706924,0.17246073484420776,0.048806797713041306,-0.16895584762096405,0.16045716404914856,0.10956595093011856,-0.03459566459059715,-0.23299965262413025,0.02098945528268814,0.0014739305479452014,-0.14649026095867157,0.09720797836780548,0.011774403043091297,0.041726578027009964,-0.16241498291492462,-0.20580321550369263,-0.16860073804855347,-0.09959452599287033,-0.1333909034729004,0.13573019206523895,0.08289699256420135,0.01620711199939251,0.11589505523443222,0.047952961176633835,0.1261223405599594,0.19207899272441864,-0.19777651131153107,0.07114743441343307,0.012372827157378197,-0.07288026809692383,-0.11086719483137131,0.07906791567802429,0.0017383960075676441,-0.15715931355953217,-0.21498380601406097,-0.09382404386997223,-0.03547168895602226,-0.08056613802909851,0.0337425172328949,0.004496838431805372,-0.03383106738328934,0.1088281199336052,0.07062369585037231,0.14992251992225647,-0.08331631124019623,-0.22831255197525024,-0.19666048884391785,0.0049215988256037235,0.10326725244522095,0.11616076529026031,-0.11381182819604874,-0.22053268551826477,-0.19496141374111176,0.2153264880180359,0.03992408141493797,0.11501067131757736,-0.18173493444919586,-0.021278878673911095,0.03570863977074623,0.12385354936122894,0.07554668188095093,0.04244125634431839,-0.03447814658284187,-0.10075367242097855,-0.061257071793079376,-0.0046614171005785465,0.20226295292377472,0.031647372990846634,-0.15169863402843475,-0.09868354350328445,0.1265471875667572,-0.049609649926424026,0.32865843176841736,-0.00788056943565607,-0.01818358153104782,0.10974735766649246,-0.04954856261610985,0.14104920625686646,0.09067778289318085,-0.15197721123695374,-0.2157352715730667,-0.10082436352968216,0.08020053803920746,-0.13048218190670013,0.06828959286212921,-0.03402520343661308,-0.1964699774980545,0.09056946635246277,-0.03997405245900154,0.011428103782236576,-0.14776547253131866,-0.13244980573654175,-0.3793228566646576,-0.11851795017719269,-0.018301134929060936,-0.020377084612846375,0.09914535284042358,0.020769547671079636,-0.1644538938999176,0.023511700332164764,0.06589441001415253,-0.006126927211880684,-0.1270158290863037,0.09576581418514252,-0.09377958625555038,-0.04082515463232994,-0.2814980149269104,-0.09498482942581177,-0.04977157711982727,-0.040168922394514084,-0.26406779885292053,0.03288959339261055,-0.06480763852596283,-0.20005661249160767,-0.06957808136940002,0.009224183857440948,-0.05233701318502426,0.0052755968645215034,0.01286084670573473,0.2077862173318863,0.1770981401205063,-0.04251370206475258,-0.16917036473751068,0.021756106987595558,0.08523515611886978,0.08080387115478516,0.1904616802930832,-0.008501008152961731,-0.013268248178064823,0.09893611073493958,-0.032091617584228516,-0.17613206803798676,-0.04541187733411789,-0.22191540896892548,-0.06274252384901047,-0.2316242754459381,-0.033803604543209076,-0.06886633485555649,-0.018696703016757965,-0.08044499903917313,0.10628656297922134,0.06799294799566269,0.0592496432363987,-0.1581980586051941,-0.05271867662668228,0.04725804552435875,-0.1313609480857849,-0.1410333216190338,-0.1291951835155487,-0.2496207058429718,-0.1636514514684677,0.09712324291467667,0.0008928125025704503,-0.21880793571472168,-0.0010854880092665553,0.07900067418813705,-0.033540915697813034,-0.004644264932721853,0.044756222516298294,0.19125424325466156,-0.10236185044050217,0.034765955060720444,0.11366993188858032,0.08456235378980637,-0.10556226223707199,-0.1051827222108841,-0.0658051148056984,-0.04486355185508728,-0.3895600736141205,-0.11552082002162933,0.1265149712562561,-0.011420668102800846,-0.05048701912164688,-0.004411047324538231,-0.1698611080646515,-0.01680222898721695,0.08736072480678558,-0.0057404423132538795,0.05431762710213661,0.011861287988722324,0.12245546281337738,0.14707180857658386,0.063945472240448,0.04327526316046715,-0.16831859946250916,0.0633726418018341,0.16611595451831818,0.04860720783472061,-0.07620688527822495,-0.038244057446718216,-0.08538399636745453,0.004977942444384098,-0.1293533444404602,0.04661327227950096,0.1838461458683014,0.24052177369594574,-0.045166246592998505,0.01643574982881546,-0.006126450840383768,-0.04180504009127617,-0.03849837929010391,-0.12424009293317795,-0.22458887100219727,-0.010958775877952576,0.10159523785114288,0.07715045660734177,0.02914915792644024,0.08584684878587723,0.12934045493602753,-0.08437362313270569,-0.1354956030845642,-0.12733377516269684,-0.036184314638376236,-0.0331631675362587,0.11366230249404907,-0.04069378599524498,-0.09280969202518463,-0.03267904743552208,-0.1929434984922409,-0.10611344128847122,-0.27647244930267334,0.0845828577876091,-0.1729663908481598,-0.08086447417736053,-0.11763185262680054,-0.09114588052034378,0.14958667755126953,0.05291830748319626,0.0005510941846296191,0.09920613467693329,-0.011957893148064613,0.13015292584896088,-0.009996099397540092,-0.0975567176938057,0.13958366215229034,-0.1499866247177124,-0.0520431287586689,-0.05733238905668259,0.09082677960395813,-0.1814936101436615,-0.19222693145275116,0.03897570073604584,-0.025464165955781937,0.2097734957933426,0.017747918143868446,-0.060560885816812515,-0.20730501413345337,-0.054324373602867126,-0.06020725518465042,-0.038899458944797516,-0.007975928485393524,-0.08135358989238739,-0.009299223311245441,0.06369104981422424,0.029573718085885048,0.1216970682144165,0.13627460598945618,0.05543290078639984,0.08890194445848465,0.08480773121118546,0.16552799940109253,-0.3187323808670044,0.07385966181755066,-0.00010995988122886047,-0.07719903439283371,-0.04152841866016388,0.05778387933969498,0.10998519510030746,-0.1310790330171585,0.058995187282562256,0.08374300599098206,-0.005390336271375418,-0.04924437031149864,0.10539848357439041,-0.053188759833574295,-0.11387031525373459,-0.03882422670722008,-0.0687563568353653,-0.02988101728260517,0.007367788348346949,0.03690488263964653,0.1108265072107315,0.04302707314491272,0.14409784972667694,0.17920851707458496,0.04275094345211983,0.021892208606004715,-0.026522548869252205,-0.17136813700199127,-0.12979893386363983,-0.02352808229625225,0.24366594851016998,-0.13545578718185425,-0.10410589724779129,-0.35016557574272156,-0.0011900687823072076,0.1587972193956375,-0.05375458672642708,0.20015093684196472,-0.019663238897919655,-0.1288437843322754,-0.07416102290153503,0.27805620431900024,0.16560092568397522,0.1794392317533493,-0.1947646290063858,0.012394162826240063,-0.029267970472574234,-0.04506801441311836,-0.14327368140220642,-0.08789253979921341,-0.17778901755809784,-0.28254422545433044,0.11022278666496277,0.04646620526909828,0.18195828795433044,0.10375790297985077,0.04569061100482941,-0.1384793221950531,-0.03359183669090271,-0.08037687093019485,0.14986534416675568,-0.19957807660102844,-0.11978430300951004,-0.17163750529289246,-0.20508958399295807,0.10738099366426468,0.03210479021072388,-0.1250370591878891,0.012710032053291798,-0.037183962762355804,-0.002334771677851677,0.032793477177619934,0.12727409601211548,0.027662690728902817,-0.17283731698989868,-0.20613302290439606,-0.030825482681393623,0.006474166642874479,-0.03145059570670128,0.05620648339390755,0.0030203801579773426,-0.1473913937807083,-0.2440931648015976,-0.1239735558629036,-0.19335395097732544,0.0879322960972786,0.2659797966480255,0.1107315644621849,0.006569298449903727,-0.14492276310920715,-0.285879522562027,-0.09280979633331299,0.03193805739283562,-0.010443241335451603,0.0613238625228405,0.16880106925964355,0.21683917939662933,0.17878784239292145,0.14620625972747803,0.11923862993717194,0.05895354971289635,-0.03910748288035393,0.12469244003295898,-0.0303057674318552,0.07078789919614792,-0.0829942375421524,-0.0369473472237587,0.02290041372179985,-0.17785723507404327,0.043972861021757126,-0.34759125113487244,-0.3307490646839142,-0.3085797131061554,0.022750934585928917,0.05705702304840088,-0.0034778015688061714,-0.08632741868495941,-0.014504374004900455,0.1025133728981018,-0.13216009736061096,-0.010952156037092209,-0.18671166896820068,0.15090757608413696,0.12991073727607727,0.16678273677825928,-0.02504173293709755,0.01834866777062416,-0.13729466497898102,0.08129364997148514,-0.10736293345689774,0.12952138483524323,0.02603280171751976,-0.022274963557720184,0.00964890606701374,0.1350252479314804,-0.06369760632514954,-0.09640984982252121,0.1691094934940338,0.09335798770189285,-0.16907531023025513,-0.16331587731838226,-0.06204700469970703,0.11869321763515472,-0.1043575257062912,0.04426794871687889,0.13418591022491455,-0.07545741647481918,-0.2561967372894287,-0.05525503307580948,0.07487882673740387,0.03819190338253975,0.0023583124857395887,-0.011006996035575867,-0.029345426708459854,-0.03587028384208679,0.05299774557352066,0.07599350064992905,-0.07978210598230362,0.001984257949516177,-0.1668912172317505,0.006425105966627598,0.08202861994504929,0.05784287676215172,-0.21614480018615723,-0.09303343296051025,0.09661867469549179,0.04545111954212189,-0.06719502806663513,0.04097241163253784,0.06795008480548859,0.027419432997703552,0.0726485624909401,-0.16924713551998138,-0.04947342723608017,0.01545562595129013,-0.10177607089281082,-0.02767128124833107,-0.06572223454713821,-0.04637855663895607,0.06657475978136063,0.24180997908115387,0.32287269830703735,0.10612312704324722,0.23050422966480255,0.06682030856609344,-0.0179897528141737,0.001432684133760631,-0.00949165504425764,-0.20383484661579132,-0.14176326990127563,-0.0774993970990181,-0.13480134308338165,-0.16241252422332764,-0.45922327041625977,0.12285970151424408,-0.05582078918814659,0.10060255974531174,-0.06002664938569069,0.20888598263263702,-0.13842809200286865,-0.007882248610258102,-0.11192592978477478,0.1556534618139267,0.09658243507146835,-0.05485469847917557,-0.014988145790994167,0.031316544860601425,-0.21650101244449615,0.09881315380334854,-0.044484421610832214,0.11126331984996796,-0.052250783890485764,-0.11682847142219543,-0.048458315432071686,-0.18253538012504578,-0.2002241164445877,-0.27440309524536133,-0.30332422256469727,-0.026648296043276787,-0.07028032094240189,-0.022906877100467682,-0.05396692454814911,-0.17312057316303253,-0.14420893788337708,0.06403496116399765,0.12827888131141663,-0.37943217158317566,-0.02417731285095215,0.08184085786342621,0.016125157475471497,-0.005655367858707905,-0.04869484156370163,0.2900353968143463,-0.08566053956747055,-0.04082366079092026,0.20261092483997345,-0.04065868258476257,0.06577800959348679,0.1729622483253479,0.009112766943871975,0.26226893067359924,0.08099165558815002,0.022015687078237534,0.2513650357723236,-0.1745525449514389,0.04660247638821602,-0.1824404001235962,0.11948427557945251,0.045937031507492065,0.17010314762592316,-0.021871421486139297,-0.04803868755698204,-0.1688813716173172,0.08563530445098877,-0.06454239785671234,0.1426965892314911,-0.03625757619738579,-0.12633472681045532,-0.26248905062675476,0.20872735977172852,-0.07081148773431778,0.08655834943056107,0.003630981780588627,-0.0183548666536808,0.3935280740261078,-0.010254988446831703,-0.07694902271032333,0.02759701944887638,0.06106337159872055,0.19299514591693878,-0.11938170343637466,0.15341685712337494,-0.13677409291267395,-0.12761731445789337,0.0921882763504982,0.10254132002592087,0.06973157823085785,-0.008089466951787472,-0.11288662254810333,0.07912220805883408,-0.03414692357182503,-0.07745858281850815,0.00476553151383996,0.10604848712682724,0.05769249051809311,0.060743436217308044,0.03446577489376068,-0.1650770604610443,0.03452260047197342,0.02977096475660801,0.0009275429765693843,-0.35330072045326233,-0.032111670821905136,-0.6667712926864624,-0.06503003090620041,0.9082402586936951,0.08135653287172318,0.3291757106781006,-0.07743331789970398,-0.312772274017334,-0.06602224707603455,0.2399158626794815,-0.013409157283604145,0.15976615250110626,0.06855551153421402,0.04829210042953491,0.024483708664774895,0.3251555263996124,0.0036776813212782145,-1.0286389589309692,0.058050066232681274,0.7396602630615234,0.05988489091396332,0.4644235670566559,0.04286427050828934,0.15583078563213348,0.047237589955329895,-0.5715076327323914,-0.028708774596452713,0.3225845396518707,-0.04077964276075363,-0.4916960597038269,0.04586454853415489,0.242756187915802,-0.3886663019657135,-0.047454144805669785,-0.3247676491737366,0.09647110104560852,0.2955308258533478,0.32391995191574097,0.12359882891178131,0.005777814891189337,0.27764198184013367,0.2723209261894226,0.4400966763496399,-0.40520885586738586,-0.09663698822259903,-0.2504305839538574,-0.018658436834812164,0.08308684825897217,0.0009125277283601463,0.1253182739019394,0.140298530459404,0.18340373039245605,0.2112036645412445,-0.07928598672151566,-0.1765459179878235,-0.3199461102485657,-0.05672495812177658,0.01682940497994423,-0.029942039400339127,0.18051105737686157,0.21828603744506836,0.1837342381477356,0.04309650883078575,-0.12294456362724304,-0.1480390578508377,0.21941791474819183,-0.04785265773534775,0.05206112936139107,0.007154554594308138,-0.11267417669296265,-0.09095223248004913,0.08803533762693405,0.09989530593156815,-0.17566345632076263,0.07501668483018875,0.21364593505859375,-0.042326342314481735,-0.05574602633714676,0.11744754016399384,0.12845683097839355,0.12059198319911957,0.2141999900341034,0.11112908273935318,-0.1308715045452118,0.15044105052947998,-0.28940749168395996,0.125320702791214,0.3459864854812622,0.0428474061191082,0.1482582539319992,0.3374163806438446,0.17362283170223236,0.13909246027469635,0.13661257922649384,-0.11263954639434814,0.06882952898740768,-0.04968816041946411,0.14077582955360413,0.11087263375520706,-0.05568382143974304,-0.053012799471616745,0.1189914122223854,-0.016543086618185043,0.18048404157161713,0.012572222389280796,-0.13390187919139862,-0.004347086884081364,-0.05592580884695053,-0.23372015357017517,0.1634199321269989,-0.13309241831302643,0.009045305661857128,0.021776745095849037,-0.026502083986997604,-0.12039002776145935,-0.24602212011814117,-0.07508617639541626,0.2537193298339844,0.13202175498008728,-0.17555509507656097,-0.054270073771476746,-0.011983425356447697,0.01066877506673336,0.01348375715315342,0.07776220887899399,0.009903221391141415,-0.04423380270600319,-0.10084390640258789,0.13278131186962128,-0.011832200922071934,0.17607778310775757,-0.002672433853149414,-0.0021295808255672455,-0.0014645826304331422,-0.07757594436407089,-0.07255624979734421,0.20165711641311646,0.15449436008930206,-0.1352272629737854,0.22962671518325806,0.04956921935081482,0.17501290142536163,0.08302374184131622,0.25442084670066833,0.2153741866350174,-0.28095656633377075,-0.011907611042261124,0.23052933812141418,-0.06402301788330078,0.048363473266363144,-0.1459328681230545,0.02887134626507759,-0.0024799073580652475,-0.0340903215110302,-0.13514725863933563,0.02957949787378311,0.030131271108984947,0.0766141340136528,-0.23502567410469055,-0.10287395119667053,0.2666538953781128,0.06156092882156372,0.30954253673553467,0.14769642055034637,0.1147204115986824,-0.29722103476524353,0.018997948616743088,-0.14733466506004333,-0.07007385790348053,-0.15723800659179688,0.24953614175319672,-0.183684304356575,0.10564226657152176,0.2675538957118988,-0.04585697501897812,0.1225181594491005,-0.28133848309516907,-0.34679850935935974,0.1307469606399536,0.1499946564435959,0.10810839384794235,-0.09226907044649124,-0.1266973316669464,-0.18487994372844696,-0.06474423408508301,-0.21013671159744263,-0.01715186797082424,-0.20113922655582428,-0.008193707093596458,0.34422338008880615,-0.33078983426094055,0.19852285087108612,-0.1525346040725708,-0.014270292595028877,-0.07209312915802002,0.0720791146159172,-0.16285474598407745,0.0880434438586235,-0.05036710575222969,0.2206735908985138,0.05448473244905472,-0.07304326444864273,0.19852453470230103,0.056565508246421814,-0.17646950483322144,0.19036833941936493,0.21787871420383453,0.04136499762535095,-0.0655401274561882,-0.062153130769729614,0.020717162638902664,0.002813874976709485,0.14930903911590576,0.16193528473377228,0.06418469548225403,-0.11766640841960907,-0.1736525148153305,-0.1273103803396225,0.18706436455249786,-0.3282153904438019,-0.21132361888885498,0.013684273697435856,0.1399926245212555,-0.28576380014419556,-0.14589780569076538,-0.05870264768600464,0.10628762096166611,0.07051555812358856,0.07539007812738419,-0.13225264847278595,-0.2049793303012848,-0.02208234928548336,0.14830797910690308,-0.09323053061962128,0.16469693183898926,0.055588360875844955,0.11921937018632889,0.19026382267475128,-0.17362381517887115,-0.2693147361278534,0.24530896544456482,-0.042371995747089386,0.14396138489246368,-0.06797900050878525,-0.19244016706943512,0.0676969513297081,-0.08908793330192566,0.073382668197155,0.03049558959901333,0.14615656435489655,-0.17631089687347412,0.12324529141187668,0.2437172830104828,0.018993496894836426,0.029091352596879005,-0.025343850255012512,0.2263454794883728,-0.016980992630124092,0.009468337520956993,-0.16910895705223083,0.022175690159201622,0.00048746788525022566,-0.22823765873908997,0.15170370042324066,0.10878266394138336,-0.08951975405216217,0.14298106729984283,-0.026116451248526573,0.16261136531829834,0.11362811923027039,-0.24261881411075592,0.011494198814034462,-0.23092302680015564,-0.1471419632434845,-0.36854174733161926,-0.23264378309249878,0.015797197818756104,0.16426821053028107,-0.08400673419237137,-0.10439150780439377,0.2826117277145386,0.15193310379981995,0.21746781468391418,-0.19754809141159058,-0.1083715409040451,-0.12976735830307007,0.21562068164348602,0.14268054068088531,0.07052592933177948,0.11357791721820831,0.14100205898284912,-0.09342687577009201,0.08837199211120605,0.06039589270949364,0.006063546519726515,-0.15163391828536987,-0.07151270657777786,0.05894167721271515,0.11727606505155563,0.176413893699646,0.10914204269647598,0.0880172923207283,0.004403186962008476,-0.1306595504283905,-0.25628942251205444,-0.18112483620643616,-0.022745369002223015,0.04249319061636925,0.17065437138080597,-0.029839394614100456,-0.07107182592153549,0.07564062625169754,-0.1443781852722168,0.07598859071731567,0.1646619737148285,0.06169455125927925,-0.13796766102313995,-0.10739240795373917,0.14900565147399902,-0.02056560292840004,-0.0319112166762352,0.07278605550527573,-0.06520318239927292,-0.03942779824137688,-0.1205921396613121,0.05431119725108147,0.04557541757822037,-0.05511156842112541,-0.19915959239006042,0.012304061092436314,0.054572198539972305,0.09690015763044357,0.0021662279032170773,-0.12848694622516632,-0.12547972798347473,0.22976529598236084,0.07465453445911407,-0.1491973102092743,-0.16723909974098206,-0.1159396693110466,-0.019362226128578186,-0.09212622791528702,0.017662016674876213,0.01396067626774311,-0.0023601199500262737,-0.21820876002311707,-0.21111194789409637,0.005124909337610006,-0.04960326477885246,-0.1371155083179474,0.11751076579093933,0.07226090878248215,0.5006335377693176,0.08777553588151932,0.241873100399971,0.08434002101421356,-0.05035069212317467,0.038875602185726166,-0.10882788896560669,0.04289460554718971,0.06055386736989021,0.15671180188655853,0.04492823779582977,0.08733982592821121,0.08228784054517746,0.1859867125749588,-0.050897017121315,-0.1537581831216812,-0.03878013789653778,-0.13318026065826416,0.1456957757472992,-0.05137785151600838,-0.11748908460140228,-0.21273347735404968,-0.16006556153297424,-0.008345652371644974,0.12623663246631622,-0.12280656397342682,0.03631593659520149,0.1716013252735138,0.21528872847557068,-0.08046405762434006,0.16905203461647034,0.05416533723473549,0.04522911459207535,-0.05557139217853546,-0.04904910922050476,-0.06251514703035355,-0.027350664138793945,0.02155184932053089,-0.16967999935150146,0.14565232396125793,-0.1796720325946808,0.14511416852474213,0.1146010011434555,0.042023882269859314,-0.07419352233409882,0.27216532826423645,-0.020431073382496834,-0.053124260157346725,-0.08777988702058792,0.17719149589538574,0.09681914746761322,0.08478116244077682,-0.11396802216768265,-0.16910064220428467,-0.037784408777952194,0.12078523635864258,-0.1018926128745079,0.03419509902596474,-0.012974546290934086,0.10524623841047287,-0.012157280929386616,-0.043601565062999725,-0.07611753046512604,-0.0892397090792656,-0.05714317783713341,0.023143094033002853,0.09778685867786407,-0.0310329832136631,0.0315016470849514,-0.026417989283800125,0.01012316532433033,-0.15937970578670502,0.08292020112276077,-0.020771393552422523,-0.04335616156458855,-0.09566022455692291,-0.17650961875915527,-0.08265909552574158,0.07188347727060318,-0.10375824570655823,-0.14298075437545776,-0.1581140011548996,-0.08025862276554108,-0.10092440992593765,0.04310011863708496,-0.008791167289018631,-0.12115013599395752,-0.04365869238972664,-0.07586755603551865,0.08414565026760101,-0.09845514595508575,-0.08900261670351028,-0.07859109342098236,0.13764497637748718,0.09843669831752777,0.06742720305919647,0.25803717970848083,0.11943096667528152,-0.03841419890522957,0.04938163608312607,-0.017674416303634644,0.15300223231315613,0.03174600377678871,-0.1911010444164276,-0.03000309132039547,-0.011040577664971352,-0.18848490715026855,0.06504689902067184,0.12020839750766754,-0.06890739500522614,-0.021475033834576607,-0.1075056791305542,0.16773952543735504,0.11310560256242752,-0.02892364375293255,-0.0795222669839859,0.047707002609968185,-0.004970385227352381,0.1716528683900833,-0.011656814254820347,-0.1128629744052887,-0.3607591390609741,-0.14232049882411957,0.03567759692668915,0.130778506398201,-0.017301559448242188,0.16046403348445892,-0.2520342767238617,-0.03693101182579994,0.12715858221054077,0.24927693605422974,-0.03798282518982887,0.0978713259100914,-0.12262354791164398,-0.014733996242284775,0.01520850695669651,-0.34071794152259827,-0.11846140027046204,0.08914346992969513,-0.23383738100528717,-0.09392796456813812,0.20796401798725128,-0.2387680858373642,-0.21026799082756042,-0.038355838507413864,-0.22997891902923584,0.11145836859941483,0.09818430244922638,-0.19076098501682281,-0.0556630864739418,0.11924538761377335,-0.12449777871370316,0.1580999195575714,0.042930129915475845,-0.008798807859420776,0.09097403287887573,-0.07000388950109482,-0.13870388269424438,-0.20633478462696075,0.0870145782828331,0.18598642945289612,-0.01818300224840641,-0.025185728445649147,-0.034189000725746155,0.06958410143852234,0.026912881061434746,0.07244693487882614,0.006060665473341942,0.19600890576839447,-0.19707952439785004,-0.1598362773656845,0.04204608127474785,0.07580357789993286,0.07365523278713226,0.11699511855840683,-0.25152090191841125,-0.06569185107946396,-0.10442434996366501,0.10878061503171921,-0.06000465154647827,0.10229621082544327,-0.06146673113107681,-0.04331039637327194,-0.027432003989815712,-0.2011597901582718,0.021730834618210793,-0.09744827449321747,-0.07778056710958481,0.03604799136519432,-0.25343629717826843,-0.09335295110940933,0.13889777660369873,0.08548819273710251,-0.059644535183906555,-0.04587872326374054,0.02342931181192398,-0.21191586554050446,0.0409376323223114,0.11804798990488052,0.1851615309715271,-0.12347029894590378,0.14108136296272278,-0.19078406691551208,-0.006664562039077282,-0.06107064709067345,-0.08293204009532928,-0.11204229295253754,-0.0332648865878582,-0.016568046063184738,0.006243727635592222,0.07776392251253128,0.03507450968027115,-0.0910649374127388,-0.06491392850875854,-0.12888681888580322,-0.15875989198684692,0.10239104181528091,-0.08925480395555496,-0.062223535031080246,-0.012348392978310585,-0.13432079553604126,-0.032989632338285446,-0.09795399010181427,-0.1104881763458252,0.0814443826675415,-0.20910315215587616,0.10011911392211914,-0.0016493238508701324,0.10306539386510849,-0.14533716440200806,-0.04589241370558739,-0.0658591166138649,-0.09820438921451569,-0.002680773613974452,0.06626155227422714,-0.08173361420631409,-0.15421809256076813,0.1969761997461319,0.2515377998352051,0.08837402611970901,-0.12397993355989456,-0.27323397994041443,-0.0790264755487442,-0.10272741317749023,0.11664769053459167,-0.017849864438176155,0.027411440387368202,0.09081236273050308,-0.17172440886497498,-0.017262518405914307,-0.12761592864990234,-0.10654029250144958,0.034718818962574005,-0.0166108887642622,-0.02973826229572296,-0.04630250483751297,-0.04511382430791855,-0.10482166707515717,-0.11044289916753769,-0.016305863857269287,0.13999353349208832,0.022304067388176918,-0.11156388372182846,-0.060834791511297226,0.03594876825809479,0.09348258376121521,-0.018960976973176003,-0.05741162225604057,-0.08490797132253647,0.14502108097076416,-0.1311875432729721,0.13314908742904663,0.05927275866270065,-0.15113027393817902,-0.14095447957515717,0.17570726573467255,-0.020243028178811073,-0.09741850942373276,-0.09876343607902527,0.011360173113644123,-0.04972440376877785,-0.03891099616885185,0.08067148178815842,0.048205696046352386,0.11291036009788513,-0.29804784059524536,-0.050487954169511795,-0.05104796960949898,-0.07055836915969849,0.041712772101163864,0.04094494506716728,-0.13642063736915588,0.0659884512424469,-0.08080592751502991,-0.18718962371349335,0.21875214576721191,-0.16230706870555878,-0.13640902936458588,-0.2621329426765442,-0.08032357692718506,0.14103706181049347,-0.030896630138158798,-0.0628964900970459,0.014738867059350014,-0.07831734418869019,0.03125195950269699,-0.25450482964515686,0.04374152049422264,-0.07303594052791595,0.08999751508235931,-0.06188357248902321,0.08680034428834915,-0.14247405529022217,0.007666155695915222,-0.04688692465424538,-0.0044342223554849625,0.07320957630872726,-0.11169162392616272,-0.2476440817117691,0.02120017632842064,-0.13916565477848053,-0.03955146670341492,0.22557289898395538,0.11373499780893326,-0.02687164582312107,0.06457560509443283,0.04794544354081154,-0.3073112368583679,-0.0980343148112297,0.020031997933983803,-0.16022957861423492,0.01801917515695095,0.01816006377339363,-0.15854200720787048,0.011774064041674137,-0.19972369074821472,0.20009316504001617,0.1906566321849823,0.19690155982971191,0.0036477018147706985,-0.022444816306233406,0.001642625778913498,-0.14333201944828033,-0.03404225409030914,0.054848507046699524,-0.013713943772017956,-0.13128693401813507,-0.07601626217365265,0.08230060338973999,0.04787952080368996,-0.14469364285469055,0.0332334041595459,0.023312609642744064,-0.013378025032579899,-0.08454745262861252,-0.13818593323230743,-0.04306720942258835,-0.10171595960855484,-0.09025315940380096,-0.025422489270567894,0.01362425647675991,-0.17674247920513153,0.04863002896308899,0.13529041409492493,-0.08132583647966385,-0.03172510489821434,-0.062060192227363586,-0.09194960445165634,-0.11540023982524872,0.047582000494003296,0.030179044231772423,0.12657786905765533,-0.024319855496287346,-0.15227387845516205,-0.05691743642091751,0.09921441972255707,-0.11658672243356705,0.17184504866600037,0.2018006145954132,-0.04912256821990013,0.03196923807263374,0.060223694890737534,0.21524491906166077,-0.20507928729057312,0.19407705962657928,0.1356804370880127,0.07248478382825851,-0.08116623014211655,-0.04516000300645828,0.11952751129865646,-0.06521286070346832,-0.062299903482198715,0.21077275276184082,-0.0346197672188282,-0.08664783090353012,0.13961081206798553,0.16072744131088257,0.12260252237319946,-0.10197117924690247,0.03994898870587349,-0.0702270045876503,-0.013335179537534714,-0.054626017808914185,0.09026321768760681,-0.010839851573109627,0.06434114277362823,0.06374820321798325,0.016199776902794838,0.06272468715906143,-0.056253716349601746,-0.1707765907049179,0.03889000788331032,-0.06573653966188431,-0.14067892730236053,0.13358330726623535,-0.03907438740134239,-0.16989265382289886,-0.15880975127220154,0.015035760588943958,0.046140480786561966,0.002963792998343706,-0.13634775578975677,-0.06898970156908035,0.0849723219871521,-0.12654148042201996,0.11865152418613434,0.13798287510871887,-0.17906346917152405,0.16321846842765808,-0.06387478113174438,0.2384745180606842,-0.14345279335975647,0.04765307530760765,0.28228116035461426,-0.01790134608745575,-0.07232429832220078,0.09534303843975067,-0.11907542496919632,-0.0650971308350563,0.09751740843057632,0.06276919692754745,0.11545667797327042,-0.11719129234552383,-0.06901583820581436,-0.03874126076698303,0.0040346784517169,0.06744453310966492,0.037714049220085144,0.1265362650156021,0.07537517696619034,0.04472286254167557,-0.14459176361560822,-0.0230038370937109,0.016522832214832306,0.11935838311910629,0.10856130719184875,0.0465141199529171,0.01887957565486431,0.13793615996837616,0.163166344165802,0.21845239400863647,0.11417416483163834,0.055296819657087326,-0.06177632883191109,0.1140228733420372,0.08875232934951782,-0.175601989030838,-0.008210103958845139,-0.1468459516763687,0.08360309153795242,0.07414869964122772,-0.05317389592528343,0.010491002351045609,0.008565583266317844,0.047124698758125305,-0.035262737423181534,0.10519919544458389,0.03922773152589798,0.05745344236493111,-0.16342729330062866,-0.017589090391993523,0.16776765882968903,0.07860442250967026,0.17722515761852264,-0.01779264025390148,-0.004279287066310644,-0.041356563568115234,0.17358095943927765,-0.08012965321540833,0.014024862088263035,0.1251521110534668,-0.20425106585025787,-0.1038544699549675,0.03585736081004143,0.011053754948079586,-0.15249592065811157,-0.10449350625276566,-0.021287692710757256,-0.05045052990317345,-0.08392851054668427,0.09535598009824753,-0.04920151084661484,0.11606718599796295,-0.12122000753879547,-0.037530723959207535,0.009105178527534008,-0.1295604556798935,0.09540259838104248,0.09367970377206802,0.08167062699794769,-0.09748104959726334,0.11741655319929123,0.005608553532510996,-0.13014285266399384,-0.13959568738937378,0.10223260521888733,0.09895346313714981,-0.21408189833164215,0.18166080117225647,-0.0380304716527462,0.06575288623571396,-0.10349956899881363,-0.06216143071651459,-0.024982700124382973,0.09613882750272751,-0.048154156655073166,0.17148694396018982,0.31730690598487854,0.1842280924320221,0.03873927518725395,-0.12374454736709595,-0.11324705183506012,-0.06310099363327026,0.1580343097448349,0.04639574885368347,0.04701549559831619,-0.29889369010925293,-0.0314796157181263,-0.09177549928426743,-0.022590801119804382,0.06744036078453064,-0.05479554459452629,0.08262797445058823,-0.07964533567428589,-0.1562822163105011,-0.20299991965293884,0.025832941755652428,-0.07574311643838882,0.04003157094120979,-0.003668318735435605,0.02156229130923748,-0.09590916335582733,0.08650834113359451,-0.10462911427021027,-0.0069328416138887405,0.12991702556610107,0.0025057680904865265,0.06278481334447861,0.04518084600567818,-0.013647404499351978,0.15022337436676025,-0.020877324044704437,0.08357437700033188,0.028400037437677383,-0.004522714298218489,0.002733853179961443,0.05186562240123749,-0.02286335825920105,0.13158878684043884,0.05215620622038841,0.027181541547179222,0.07814327627420425,0.1345588117837906,0.046380769461393356,-0.02069297432899475,-0.2630147337913513,-0.1847846508026123,0.2490101307630539,0.20325236022472382,0.23476633429527283,0.24835330247879028,-0.04691527783870697,0.08369233459234238,0.03796999901533127,0.18880397081375122,-0.022585056722164154,0.22769053280353546,0.15007098019123077,-0.02932094968855381,0.19025728106498718,-0.0795309841632843,0.021338587626814842,0.015915459021925926,-0.02309892512857914,0.11660556495189667,0.24644029140472412,-0.17258226871490479,-0.029411213472485542,-0.12216732650995255,0.1522754728794098,0.14774923026561737,0.16023018956184387,0.015149595215916634,0.03847680985927582,0.18846242129802704,0.06150726601481438,0.008123516105115414,0.149458110332489,-0.06885462254285812,-0.05266990512609482,-0.30873316526412964,0.053826116025447845,-0.06037882715463638,0.03748605027794838,-0.0716160237789154,-0.07774367928504944,0.12910553812980652,-0.021593768149614334,-0.03988289088010788,0.17687170207500458,-0.04001247510313988,0.21650245785713196,-0.05077437683939934,0.017718594521284103,0.08014562726020813,0.0014351749559864402,-0.07015816867351532,-0.019236888736486435,0.12072239071130753,-0.010587899014353752,0.11829821765422821,0.1532295197248459,0.001578666502609849,0.030303269624710083,0.29999709129333496,-0.054136939346790314,-0.13285794854164124,-0.11526112258434296,0.07472623884677887,-0.132055401802063,-0.07874644547700882,0.06351229548454285,-0.028379105031490326,0.22278830409049988,-0.07576388865709305,-0.005967392586171627,-0.0012779165990650654,0.05514908954501152,0.050191085785627365,0.2589142918586731,-0.07411744445562363,-0.01496932189911604,-0.002197086811065674,0.015483965165913105,-0.019932255148887634,0.12063147872686386,0.10598494112491608,-0.12531530857086182,-0.22819839417934418,-0.11730165034532547,0.03917137533426285,0.06791342049837112,0.0199807807803154,0.22538897395133972,0.10734762996435165,-0.060411885380744934,-0.10249106585979462,-0.02339257299900055,-0.10026650130748749,0.020845171064138412,-0.29178518056869507,0.005030178930610418,0.32581543922424316,0.16403761506080627,-0.08844182640314102,0.0780969113111496,0.0010920281056314707,-0.03897937759757042,-0.050781913101673126,-0.1915881335735321,0.31078895926475525,0.0025772666558623314,0.16312827169895172,0.03954508528113365,0.044450465589761734,0.09740164875984192,-0.1610002964735031,-0.08184590190649033,0.11386340111494064,0.030321607366204262,-0.014683956280350685,-0.21969854831695557,-0.04147615283727646,0.07194443792104721,-0.053224869072437286,0.14093337953090668,-0.04050150513648987,0.01585870236158371,-0.17709605395793915,-0.011145276017487049,0.22497567534446716,-0.15891647338867188,0.15536491572856903,-0.18463166058063507,-0.18657860159873962,-0.07835037261247635,-0.05890410766005516,-0.09772622585296631,-0.1279011368751526,0.061561062932014465,-0.12890657782554626,0.01114676520228386,0.018966300413012505,0.1878892481327057,0.15110784769058228,0.1817093938589096,-0.02718120999634266,0.02129078470170498,-0.0100410720333457,0.05072867497801781,-0.1133631020784378,0.07276704907417297,-0.1420019567012787,0.14298591017723083,0.09054046869277954,-0.0553024485707283,-0.15036830306053162,0.07260449975728989,0.1327226310968399,0.002268197014927864,-0.057409875094890594,0.0741291344165802,-0.0531432069838047,0.010843140073120594,0.07918193191289902,0.8510720133781433,-0.04098176211118698,0.05952434241771698,-0.013742202892899513,0.49980053305625916,0.14594849944114685,-0.9399985074996948,0.0023207806516438723,-0.4742719829082489,-0.05697505548596382,0.14547495543956757,0.10200448334217072,0.6860807538032532,0.0522819347679615,-0.16071341931819916,0.013880289159715176,0.1821189969778061,0.03065895102918148,0.1372791975736618,0.009873507544398308,-0.8394394516944885,-0.1071493998169899,0.48988813161849976,0.04433402046561241,-0.2257518172264099,0.015494252555072308,-0.7507351636886597,-0.02606436237692833,0.0383424311876297,-0.013610990718007088,-0.6059705018997192,-0.029161913320422173,-0.07125754654407501,-0.25476619601249695,0.1434195637702942,-0.17352522909641266,0.08150885254144669,0.2861354351043701,0.003338653827086091,-0.2349586933851242,-0.18972419202327728,0.02250073477625847,-0.17261070013046265,-0.034822944551706314,0.0920039638876915,-0.16707497835159302,0.15819719433784485,-0.20178699493408203,-0.0912695974111557,-0.09255187213420868,0.1273341178894043,-0.07045013457536697,0.011904323473572731,0.0662403330206871,0.08855069428682327,-0.03408142551779747,-0.05141564458608627,-0.06669379770755768,-0.15370149910449982,0.08380427956581116,-0.08652712404727936,0.0691579282283783,0.11086752265691757,0.06886930018663406,-0.17918680608272552,0.15767864882946014,-0.036936018615961075,-0.060120102018117905,-0.08888472616672516,-0.2593938410282135,-0.17742013931274414,0.1579660177230835,0.25330767035484314,-0.05381876230239868,0.029318418353796005,-0.11497247964143753,-0.0777091309428215,0.014821943826973438,-0.2147141695022583,0.32684773206710815,-0.07453978806734085,-0.026181021705269814,-0.05759119614958763,0.21739080548286438,0.187184140086174,0.3687756657600403,0.30863267183303833,0.1949012577533722,-0.2083062082529068,-0.14845502376556396,-0.011960737407207489,-0.0631948783993721,0.22671543061733246,-0.005700209643691778,-0.007916806265711784,-0.4383023977279663,0.15053541958332062,0.014244316145777702,-0.032874833792448044,0.06674550473690033,0.05332931876182556,-0.006813403684645891,-0.004909452050924301,-0.1438559740781784,0.3322022259235382,0.35325974225997925,0.04903288930654526,0.20688916742801666,-0.16550689935684204,-0.13340811431407928,-0.12138686329126358,-0.1302865743637085,-0.24523593485355377,0.26818767189979553,0.17112024128437042,0.20984789729118347,-0.058959316462278366,0.2645169198513031,0.09695609658956528,-0.014161365106701851,0.08431123197078705,0.16619522869586945,-0.2867182791233063,0.11187577992677689,0.0657954066991806,0.06128154322504997,-0.26077529788017273,0.06928412616252899,-0.22829219698905945,-0.10062221437692642,-0.017399396747350693,0.03126053884625435,-0.11217665672302246,-0.21812181174755096,-0.03979624807834625,0.10984217375516891,-0.12351009994745255,0.07520806044340134,0.03757140040397644,-0.04933127388358116,-0.13936951756477356,0.03916487097740173,0.05677352845668793,-0.03284180909395218,-0.06872512400150299,0.2007840871810913,-0.1781809777021408,0.14253999292850494,0.1780358999967575,-0.245229572057724,-0.08876392245292664,0.13528972864151,0.056151360273361206,0.08482478559017181,0.0003440470318309963,0.04713234305381775,-0.0846075713634491,-0.010047247633337975,0.1314653605222702,0.05035023391246796,-0.11772271245718002,0.007301302161067724,-0.022440586239099503,-0.01398734375834465,0.08217810839414597,0.10900136828422546,-0.29486313462257385,-0.13045136630535126,-0.14576926827430725,-0.05804998800158501,0.05931408703327179,-0.1323680430650711,0.2905540466308594,0.05940566956996918,0.024382738396525383,0.053602978587150574,0.05877562239766121,0.17459146678447723,0.07425762712955475,0.027418754994869232,-0.21135327219963074,-0.06159050762653351,-0.13450533151626587,0.0013895771699026227,-0.24803338944911957,-0.22847287356853485,0.1377979815006256,-0.1568557471036911,0.16975770890712738,-0.08909556269645691,0.1578236073255539,0.088500015437603,-0.18175624310970306,0.2928902208805084,-0.08951441198587418,0.022265596315264702,-0.12676270306110382,0.054385341703891754,-0.09282228350639343,-0.11201325058937073,0.22258403897285461,0.026260003447532654,-0.014438508078455925,0.004801993723958731,-0.11021777987480164,0.09009718149900436,0.03645264729857445,0.04332859069108963,0.10891644656658173,0.11505605280399323,-0.21050836145877838,-0.14292456209659576,-0.0804344043135643,-0.1726692020893097,0.06344116479158401,-0.025898072868585587,-0.11708877980709076,0.06282268464565277,0.3109472095966339,0.16930904984474182,-0.1417292058467865,0.2600853145122528,-0.08639407157897949,-0.12595248222351074,0.08085661381483078,0.1890832930803299,0.27647513151168823,0.4211302101612091,-0.1410401463508606,0.0190435703843832,-0.18879462778568268,0.12977924942970276,0.10924234986305237,0.16789039969444275,-0.22898457944393158,-0.02218998782336712,-0.19052642583847046,0.1904977709054947,-0.10631944239139557,-0.15436476469039917,-0.15614885091781616,0.11843922734260559,0.10619477182626724,0.319357305765152,-0.07088448107242584,0.012285732664167881,-0.1355394870042801,0.06352467834949493,-0.012698381207883358,0.28183990716934204,0.18793553113937378,-0.05931698903441429,-0.23354583978652954,-0.20828568935394287,-0.10855907946825027,0.13942426443099976,0.18545350432395935,0.017807725816965103,0.23606812953948975,0.10994034260511398,-0.13791579008102417,-0.1191343143582344,0.05831323564052582,-0.021479438990354538,-0.14835532009601593,0.06521260738372803,-0.20533183217048645,-0.12951162457466125,0.051738858222961426,-0.017951667308807373,0.01710568182170391,0.07283122092485428,0.046832289546728134,0.08648684620857239,-0.19742949306964874,-0.15213313698768616,-0.3103553354740143,-0.05895669385790825,0.19568412005901337,-0.06791655719280243,-0.14941179752349854,-0.012079212814569473,-0.1519327163696289,0.09792374819517136,0.08522771298885345,0.041463594883680344,0.12122417241334915,-0.21141605079174042,-0.19217750430107117,0.02669905312359333,0.11435545235872269,0.0019121553050354123,0.049458712339401245,-0.004126852843910456,-0.011908480897545815,0.050847332924604416,-0.1547362357378006,0.19984784722328186,0.0927777886390686,0.028409400954842567,0.03582213073968887,-0.17391346395015717,-0.05391743779182434,0.027488062158226967,0.0023630247451364994,-0.2085624784231186,0.10636258870363235,-0.12075705826282501,-0.14184147119522095,-0.3421916663646698,0.19424548745155334,0.15579423308372498,0.027257507666945457,-0.1092943325638771,-0.004801203031092882,-0.020625457167625427,-0.019909728318452835,0.053041331470012665,-0.1815594881772995,0.1217767521739006,0.09525634348392487,0.07604814320802689,0.05822128430008888,-0.09528830647468567,0.03229909390211105,0.15121746063232422,0.38664984703063965,-0.09632460027933121,-0.002080060075968504,-0.12248878926038742,-0.12317052483558655,0.1664295345544815,0.1640123873949051,0.02652604877948761,0.20209068059921265,-0.057001397013664246,-0.16504614055156708,0.122219517827034,0.061918776482343674,0.09967540949583054,0.12309551984071732,0.04882681369781494,-0.10141635686159134,0.1005512997508049,-0.08547907322645187,-0.1786089688539505,0.0843358188867569,-0.10100618749856949,0.022822676226496696,-0.061327047646045685,-0.20131705701351166,0.1320611834526062,0.055292315781116486,0.05974748730659485,-0.14779865741729736,-0.06943676620721817,-0.13539406657218933,-0.0479220449924469,-0.1853271722793579,-0.017400996759533882,0.05530789867043495,0.11765201389789581,0.027479806914925575,-0.042857203632593155,0.029400568455457687,0.04503950849175453,0.034104835242033005,0.05144394189119339,-0.09229492396116257,-0.04610416665673256,-0.14472658932209015,0.12053140997886658,0.08739479631185532,-0.1253982037305832,-0.017719972878694534,-0.07393612712621689,-0.1366076022386551,0.10956467688083649,0.12781156599521637,-0.019188469275832176,0.1355721801519394,-0.039349693804979324,-0.02483176998794079,-0.1490321308374405,-0.0021833833307027817,-0.2348639965057373,-0.07224322855472565,-0.22636665403842926,-0.11307871341705322,-0.19817274808883667,0.023569338023662567,-0.02584076300263405,-0.049144089221954346,0.13733193278312683,0.15879417955875397,0.03910712152719498,-0.05370194837450981,-0.12203411757946014,-0.07828003168106079,-0.12832756340503693,-0.033220287412405014,-0.15862520039081573,0.024576690047979355,0.06153826043009758,0.17774423956871033,0.17447170615196228,-0.1477760672569275,-0.1346808671951294,-0.0738174095749855,0.03821934759616852,-0.05408153310418129,0.017283879220485687,-0.005420364905148745,-0.08592263609170914,0.03036896511912346,0.15471573173999786,0.19046169519424438,0.19212691485881805,-0.0826164111495018,-0.08685337007045746,-0.11803912371397018,-0.11061769723892212,-0.12193990498781204,-0.18620139360427856,-0.029773373156785965,-0.13120779395103455,-0.14534662663936615,-0.09245970100164413,-0.37040433287620544,-0.204672709107399,0.08261528611183167,0.1567542552947998,0.05012032389640808,-0.16304875910282135,-0.014374327845871449,-0.1763637512922287,-0.12755995988845825,-0.057207219302654266,0.01191040687263012,0.06388378143310547,0.10752879828214645,0.027452172711491585,-0.06792693585157394,0.0516720749437809,0.09611557424068451,0.01587875373661518,-0.027710339054465294,0.06209380924701691,-0.2576904296875,-0.18477872014045715,0.1886332780122757,-0.039660193026065826,0.03664012998342514,-0.1238989606499672,0.12884952127933502,0.08151836693286896,-0.05672546103596687,-0.08236079663038254,0.08287748694419861,0.08199693262577057,0.1223565861582756,0.0046224212273955345,0.06925055384635925,-0.016749614849686623,0.04410726577043533,0.17866747081279755,0.09432835131883621,-0.10302842408418655,0.0682012289762497,0.1535005271434784,-0.004458198323845863,-0.11822725832462311,0.010647717863321304,-0.01758669875562191,0.055931463837623596,-0.1991497129201889,0.01892206072807312,0.0495624840259552,0.027011360973119736,0.10585210472345352,-0.015297292731702328,0.014245028607547283,-0.1666102260351181,0.16994261741638184,0.1140233501791954,0.1277698576450348,-0.03452674299478531,-0.02210424281656742,0.03430813178420067,-0.2254275530576706,0.050237663090229034,-0.06244096904993057,0.08850633352994919,0.04640718176960945,0.010388842783868313,-0.010836049914360046,-0.18489909172058105,-0.15115532279014587,0.2509389817714691,0.08454754948616028,0.04091736301779747,-0.011815705336630344,0.1476355642080307,0.04272918403148651,0.022554447874426842,-0.15082891285419464,0.24755917489528656,0.20210835337638855,0.12272197008132935,0.019478386268019676,0.04527723044157028,0.1247568130493164,0.07349993288516998,-0.10344015061855316,0.19821859896183014,-0.012895790860056877,-0.05391041934490204,0.04660975560545921,0.03543588146567345,-0.005336064379662275,0.040679365396499634,0.03631535917520523,0.09104234725236893,0.00198379042558372,0.028647003695368767,0.11100415140390396,-0.02629358321428299,0.05615227296948433,-0.16482022404670715,0.1074407622218132,-0.1863694190979004,-0.07302793860435486,-0.11528283357620239,0.13108935952186584,-0.0847427174448967,0.1375052034854889,0.10115370154380798,-0.14801299571990967,0.047217078506946564,-0.03563270345330238,0.0041318051517009735,-0.050460562109947205,0.08914535492658615,0.24791687726974487,-0.26572248339653015,-0.08836007118225098,-0.08414893597364426,-0.02406669594347477,-0.03923196345567703,-0.11978061497211456,0.0779120922088623,0.02827313542366028,-0.07555367052555084,-0.16449810564517975,-0.010157872922718525,-0.11185531318187714,-0.14767596125602722,-0.08583672344684601,-0.05574141815304756,-0.09287804365158081,0.01293078251183033,0.1510406732559204,0.1604393571615219,-0.04380038380622864,-0.1663319617509842,0.06629478186368942,0.13359305262565613,0.15902754664421082,-0.03274577111005783,-0.09250711649656296,-0.1537918746471405,0.0325956828892231,-0.08381861448287964,-0.1255667358636856,0.09080477058887482,0.04253789037466049,-0.15111175179481506,-0.13762733340263367,0.057471901178359985,-0.0336870476603508,0.014798651449382305,-0.04006597027182579,-0.2275155782699585,-0.059665560722351074,0.0420956127345562,-0.2007332444190979,-0.032445408403873444,0.052274737507104874,-0.05962861329317093,-0.022420627996325493,0.09758246690034866,0.04719335958361626,-0.011694406159222126,-0.022590670734643936,-0.33385393023490906,-0.04601842164993286,-0.14438924193382263,0.0980088859796524,0.026243284344673157,-0.02693609520792961,0.25891539454460144,0.06870415061712265,0.06481972336769104,0.07611466199159622,0.11127562075853348,0.14595720171928406,-0.11658255010843277,0.07201407104730606,0.018119603395462036,0.02085004560649395,0.00045346596743911505,0.09431449323892593,0.14208748936653137,-0.07056612521409988,-0.06007033586502075,-0.03428949788212776,-0.06949570775032043,-0.027613678947091103,0.29949748516082764,0.13340550661087036,0.16180972754955292,-0.038577038794755936,-0.118690624833107,0.028612101450562477,0.16807988286018372,0.0518212616443634,0.0037200935184955597,-0.12681008875370026,-0.05589409917593002,0.05074372515082359,0.24914346635341644,0.15531446039676666,0.18257220089435577,0.36514145135879517,0.0022064135409891605,-0.09916471689939499,0.13671369850635529,0.0628836452960968,-0.0692995935678482,0.012394881807267666,0.11023949086666107,-0.07219957560300827,0.1445556879043579,-0.05409475043416023,-0.003134146798402071,-0.08370528370141983,0.13533556461334229,-0.04205165058374405,0.12967270612716675,0.13632839918136597,0.2024809718132019,-0.06495384126901627,0.05605931580066681,-0.027104606851935387,0.04854781553149223,-0.14942477643489838,-0.07063419371843338,-0.008530756458640099,0.008446451276540756,0.06417135894298553,-0.08725587278604507,0.06473875790834427,-0.1511404812335968,-0.12751266360282898,-0.04855817183852196,0.0666411817073822,-0.07441798597574234,0.014840936288237572,-0.0028438710141927004,-0.1819068193435669,-0.01045162882655859,0.028710201382637024,0.07350479066371918,-0.1357695311307907,-0.43298062682151794,0.034034572541713715,0.05501154437661171,0.03792927414178848,-0.08533024787902832,0.08138758689165115,0.057718127965927124,-0.231820210814476,0.038117341697216034,-0.06204378977417946,-0.10526757687330246,0.07158008962869644,-0.00778954615816474,0.09354832023382187,0.15947499871253967,-0.04429051652550697,-0.08686873316764832,0.18562893569469452,0.07639698684215546,0.004649598151445389,-0.15149067342281342,-0.1915273517370224,0.010254689492285252,-0.14328962564468384,-0.314386248588562,-0.12420164793729782,0.053122423589229584,0.022610915824770927,0.13179165124893188,0.04237772896885872,-0.07094144821166992,0.12876074016094208,-0.05215631052851677,-0.16233113408088684,-0.046731993556022644,-0.006988567300140858,-0.12574391067028046,-0.07927490025758743,-0.04001457244157791,-0.13339583575725555,-0.06452305614948273,-0.14963601529598236,-0.040376171469688416,-0.1505587100982666,-0.11567991971969604,-0.011151800863444805,0.03565671667456627,-0.05991305410861969,-0.0033604828640818596,-0.1605948656797409,-0.05968567728996277,-0.01675979234278202,-0.018732460215687752,-0.0804111585021019,0.09039133787155151,0.1726778894662857,-0.015782838687300682,-0.08143514394760132,-0.2124541997909546,-0.056021060794591904,-0.1231294795870781,0.09237401187419891,-0.029652351513504982,-0.11156422644853592,0.07731730490922928,-0.0706067830324173,-0.02290983311831951,-0.0350620374083519,0.10674292594194412,-0.017076481133699417,-0.23435400426387787,0.13525351881980896,-0.02251199074089527,-0.04189181700348854,0.009728915989398956,-0.06417988240718842,-0.08449104428291321,0.032488297671079636,0.04925963282585144,0.027916941791772842,0.037549398839473724,-0.036428116261959076,-0.07457292079925537,0.09464691579341888,0.14642660319805145,-0.008350585587322712,0.010838775895535946,0.03166942298412323,0.1094195619225502,